layers 7
layer 0 Dense
24 20
[0.22036315947723709 0.05000903760994647 -0.15364658034848278 0.29611959530515286 0.12935446980187582 -0.06045512221047473 0.36184708263481136 0.22421963133542847 -0.3373468698347039 0.1267007976970117 0.282357738968092 0.17338568035517496 -0.04032826574970583 0.2472620303532311 0.13002285400750455 -0.2902257534118675 0.0480085139811461 -0.2248450756016265 0.13644197485479545 0.23330422584057192 ]
[-0.1854042361849333 -0.13608001419815818 -0.242634744062062 -0.26532071548051483 0.20758675922391098 -0.39141187004057293 0.3499725145840108 0.16620647286516946 -0.21844329473006277 0.27794984671405143 -0.13632641289341607 0.2056606539228334 -0.26107265967048193 -0.18626395044234842 -0.04195383037402401 0.22687034619458635 -0.16041445233875973 -0.004137422108712114 -0.22715263092130913 0.2661224807710796 ]
[-0.3153137137811683 0.05893698869331485 -0.13756788277959056 -0.13644826114045883 0.036674371866233194 0.09655732025920258 -0.3107660347839097 0.02934173571283595 0.37751539773385673 -0.09795054054443036 0.33745458745293333 -0.31631757771783153 0.07099381121776208 -0.25613967015257444 -0.2278744302846045 0.08701277326660047 0.12305788437726525 0.240332735734363 0.1653623475195866 -0.11411894655687967 ]
[0.03932854282928259 -0.3477466078079454 -0.20497034246431686 -0.3430197590223609 0.09377892278944355 0.23843531081945013 -0.22531539120499416 0.31424456071335966 -0.1385779934222033 -0.07710556682219 -0.17528686633206372 0.28964521205904475 -0.35493642813162435 -0.19371583029985895 0.027610780090205095 0.03416510045277768 0.3247722755189866 -0.16057736346987617 -0.25173379798870565 0.14092518505805382 ]
[0.09279376183116295 0.052637111218115026 0.10579144893105176 -0.11819439402458444 0.04133462237215253 -0.02960149322604134 0.19558628741499462 0.2827509282733657 0.37545966307872536 0.04083444408794536 0.30304572871480906 0.06071552636690258 0.0942776971711167 -0.2691792924922928 -0.07562212420023706 -0.32847806508727223 -0.28453312127393565 -0.21359044898217436 -0.058163694841624966 0.24159969845827342 ]
[0.30519032600751717 0.25132327499817436 0.22894395781202803 0.15729113733396966 0.15138942492339627 -0.24399962996251726 0.34107352726206214 -0.09374989478385994 0.003937225458301393 0.14535334698044666 -0.31231111849506044 -0.11666394461470496 0.06597794845003481 -0.06263843881950958 0.048767162734169645 -0.14165471216644226 -0.33389908044145006 0.07076021832888012 -0.00038755452154198584 -0.22062203337790176 ]
[0.2616982964384643 -0.006618106416143125 0.1101218469868023 -0.08279192109306432 0.2767861246245686 -0.12145269154050362 -0.2989191227853071 0.041248781464659635 -0.0768546816602735 0.11317120632465018 -0.33966031154451914 0.2777705483582194 0.3224326766085229 0.37781658253331385 0.1537821681278046 -0.24604873640419334 -0.1423766125438505 0.21633427422225773 -0.08272027979229682 0.36904317118761626 ]
[-0.14458158457144304 0.32435989306340984 0.3154592970539873 -0.1198364071615394 -0.08433407555074562 -0.004950508562066324 -0.0020526646077798946 0.1299388700360952 0.28267277552447245 -0.03923346267320038 -0.3668908881672535 -0.1674546709056974 -0.3256311188172192 0.09069354205534579 -0.17625889411343212 0.3369704197497566 0.23407154834410518 -0.09855425747400454 -0.2094154606789077 0.31566472218866143 ]
[-0.08910908068453775 -0.07432223810348403 0.12149756634656701 0.14675879570876363 0.05375785692031443 -0.18927744917813788 0.14791662618335447 -0.08381413391777126 -0.026839421717520368 -0.24424093904221736 0.28582472303469786 0.14631347251411012 0.4245700290344058 0.22852193864228879 -0.212006691690485 0.15523009063288057 0.04693030758463862 0.16207136281291065 0.2388670240437398 0.2865507695967948 ]
[0.1646523491124324 0.009178017282870947 0.024136114495233316 -0.1762964672131161 -0.4170163093571987 0.311756139602918 0.041540454920022514 0.2757613565188284 -0.08060416987065087 0.19883326831337686 0.2944140203613429 -0.07510859244050498 -0.33453297339510124 0.09210676792107099 -0.15783273597041633 0.10891967439340837 0.16106868541100425 -0.03136550677641593 0.12030719224925561 0.1794821281752075 ]
[-0.2892967663783067 -0.14811430053069866 0.27923263765102085 -0.3312013520585352 -0.24605638780668596 -0.23652495877652302 -0.33258321985685213 0.09275815797695708 0.08207852874485908 -0.03503365893688272 0.24679799417982756 0.07162014899630278 0.23415579586759483 -0.09670668913302932 0.3796152199936264 -0.030570933897188825 0.2517286688693587 -0.010732933923747265 -0.30884475770968345 -0.17491266756513082 ]
[-0.36774135087493803 0.2111667595581049 -0.22685996632828395 -0.14212285858291238 -0.1448252369498367 0.28495111882979407 0.19047993982462114 0.009257530089303174 -0.27505442962752163 0.059444860031757585 0.17544137385020725 -0.21333229531108344 -0.3850441268806511 -0.17000891352543726 0.0817452098537038 0.02405493848163097 -0.034763037915841156 -0.34247397827371884 0.26162940311322175 -0.09683981818937462 ]
[0.10770198941959908 0.0638058913043513 -0.07643785794685373 -0.09714726375250866 -0.09814369907317141 0.2633147282719264 -0.18124675754806954 -0.3422981604828727 -0.09993196978771901 -0.313475023792298 0.3016323777563505 -0.0788022261721377 0.2760968144481991 -0.17193778107260793 -0.15217781616241405 -0.14648277711238994 -0.25175782158032367 0.08749865841238402 -0.26685141960571446 -0.17224567947731872 ]
[-0.09656063144317338 -0.34278417481746576 0.06975781584372978 0.3386779942064913 -0.08642812986314345 0.2843325476673705 -0.14052819589100904 -0.06315690994622172 0.054225819989115305 0.15948843557543982 -0.26112424941588624 -0.2677838822837239 0.016617545933315526 0.3386822383265748 -0.36565450189936227 0.12264478459082118 -0.14593668991106862 -0.13082053875162736 0.3342869894464724 0.30168373052409403 ]
[-0.29440342172182027 0.2954494108172352 -0.38567915057360597 -0.03299243361444409 -0.3040211390899663 0.26191637580616484 0.336891079850931 0.14967845950307798 -0.36788479382002726 0.22327894716700408 -0.0772258777275889 -0.15899087561791994 -0.04363642887290051 -0.16671071695271164 0.35992766224065276 -0.25989258175624413 0.17216752466353205 -0.22833470691418833 -0.26329929960023873 0.22032972643832313 ]
[-0.39476175403316355 -0.23786700385500575 0.34403157092286774 0.33024546224322643 -0.1094214390899205 -0.05828227096245343 -0.07787915454140693 0.3730223670602822 0.25603131367912596 0.09476771870035261 -0.2962649189732023 -0.22034884510261032 -0.004132768786461415 -0.2065448034351217 -0.2762699196326682 0.09064329046135071 0.09752129090179858 0.28386211644234594 -0.3345121677525218 -0.2569942952578864 ]
[-0.29462732196790514 0.22467694885887685 0.03937650003693733 -0.2697361800762736 0.055247236306829144 -0.16060796423393853 -0.12841259721297033 0.22358397918325673 0.3195453111053604 0.10121258132326197 0.12116175166314425 -0.2887621518000827 0.23981178558148572 0.2292021875694876 0.3398114402033735 -0.1744042857109018 -0.04494277640658028 -0.1363899463287087 0.24680332109341144 -0.29874438005238985 ]
[0.15998307035974385 -0.20287726904024142 -0.2523892486271191 -0.2449473979449473 -0.2672793728517909 0.163034222088718 0.27855144245639385 0.01456609029049541 -0.4180357444594619 -0.3519204946023714 0.21623941506390051 0.47977534132027533 0.25368671639943047 -0.24554628940686235 -0.04660275399928085 -0.05069840967434397 0.20216651582738523 -0.3058390187059047 0.2036631922354915 0.05530463080599522 ]
[0.27432792685066815 0.20285166620294087 -0.28878636446518013 0.04328027324900846 0.17733645714982227 0.30373050936169754 -0.2176623440316501 0.33675354740188934 -0.0086868564076369 -0.21536841184554703 0.040368227958974115 0.4085468688903782 -0.12798026360657042 -0.1687724301541497 -0.15378156091860903 -0.04953084264651386 -0.04461474175255313 -0.2874550554836815 0.49162091731757435 -0.25340980270763264 ]
[0.2895514425829299 -0.18942251798521537 -0.10333267236069746 -0.20239884847929057 0.3441321952193769 -0.3165309773486859 0.05622706882503376 -0.3879346257980657 -0.2896263440714129 -0.1264624168676004 0.1766077023684023 0.05196988878900466 0.2603518851232765 0.3197942692764384 0.3835297398334918 -0.13968155221466894 0.40460086043168114 0.1722899160265399 0.03865946798308475 0.2409312474565305 ]
[-0.0683298366534863 0.0427709236167092 0.10488521721472092 0.0570594908764312 -0.10893757660516515 -0.3358447923921843 0.2920754376661561 0.09583376001737587 -0.3884733260195244 -0.14185456231041138 0.24591360110956 -0.30593312537520406 -0.31640327288585124 -0.3880582277269347 -0.24179623754217164 0.36288141164607624 0.2696427662105012 -0.220209489588623 -0.37150691236357136 0.2517657292903195 ]
[-0.09013505740991286 0.2113254072446728 -0.263985864865288 -0.07350208274925919 0.027529092386793377 0.07121312233212668 0.32772326020059267 0.04817821949688185 -0.2911459205577168 -0.17021596095595676 -0.48110152780211074 0.4531864755165226 -0.15971948736973612 0.029603615240552973 -0.1895074880193356 0.017926478951477372 -0.007243931704614971 0.3761748193562427 0.200804212014873 -0.2852183141427144 ]
[0.0563703141192606 0.32277508863301263 0.2586671740865256 0.30452034254340105 -0.07959576082359689 -0.36229015056314195 -0.030499608461217173 0.13127072922310687 0.03401471969605635 -0.23551665296525595 -0.21690646897290988 0.2172366485563833 0.32931443545506905 -0.02517550441127442 -0.29071342080125157 -0.06736627447520187 0.22710725819626745 0.007764160144391494 0.17978953895194877 0.05314481610292772 ]
[-0.20813245253618784 0.09187385361898905 -0.28925601985550997 -0.32291241083044325 -0.3973450433758376 -0.028425506030530415 -0.006947576086119592 0.08739737744549646 0.36180448398316656 0.21323280519714174 -0.2453815663228463 0.08647603691908388 0.3665264822886327 0.26303517152286493 0.10585689643190804 0.06820896013963598 0.30502737784915923 -0.14560612811468504 0.33052412321287655 -0.26887801931168975 ]
[ -0.007109016236278647 -0.009336755363058403 -0.001627758219275239 -0.027683544341667886 0.03742121732196494 -0.03779093681512426 0.03611758798353414 0.030355097642858632 0.011868105999598783 -0.028460012924350138 0.007947809681724411 -0.05239119724438146 -0.04573735685371699 0.010729377792792342 -0.06640870451859611 0.00023380117638953997 -0.009483266409554117 -0.053899961027247076 0.012560019188609406 0.021552895545505824 ]
layer 1 Activation
tanh
layer 2 Dense
20 40
[-0.04334708380423025 0.17478080307853164 0.03868009192230055 0.1340046194278633 0.26206042384988626 0.05459270702388371 0.23714353171653324 0.05910828913093331 0.03728289776583415 0.3070197191786889 -0.07583363834863113 0.23745428227089405 -0.23161149988284935 -0.26105481941369774 0.19970810449261656 -0.28212598652149734 0.16847126571628146 0.007432904534702843 0.1555600973220717 -0.029740509344522124 -0.24173493764120052 -0.0607576460399615 -0.24447309151602836 0.16729061955784927 0.03963475057580882 0.07431312535805037 0.048824177813651025 0.27610754469590937 -0.07870632144329638 0.1666865780002393 0.19288010483799853 -0.07963814690143325 0.1625170319166918 -0.030779928117805264 -0.21692753441812943 -0.0448962308721208 0.014776774424820912 -0.3279726314903634 -0.0004724326966425625 -0.03985949276493809 ]
[-0.0452273910265205 0.19632969372165646 0.03154355679633796 -0.037324825296295855 0.05228423421006003 0.07055404480373721 -0.08930960602570506 0.15847220489610253 0.12572907613295808 0.322732461577987 0.20461393313301046 -0.24891218245550079 -0.3087113602057443 0.17547388009440304 -0.1783643248814981 -0.13743666681526817 6.144150392817065e-05 0.11681057420893695 -0.27983040058639086 0.27671108073478906 -0.05736314488714617 -0.241064209892085 0.011841902265647913 -0.14005480536264658 0.013675288627326756 0.1844844527587414 -0.14733856817236549 -0.038633540192658446 -0.09694304081233339 -0.14072758485987236 -0.12576115234633922 -0.2337534969099895 0.2594230165010396 0.2011525030595533 0.21496044093594455 -0.16654602821769582 0.2762423383542181 0.03946348833497308 0.1925528585419835 -0.03317818277524304 ]
[-0.3089993394016549 0.12467958015551088 0.16011526270146337 -0.11163126735467101 0.19554756912600643 0.08373498742557811 -0.23708903500711712 0.12025904867510588 0.12517842920647587 0.038478289135183634 -0.28374889810081594 0.35495310890468473 -0.20486477010255263 0.02645566449679285 -0.06924700563152533 -0.05673152122638753 -0.1283258683810523 0.14064110107453803 -0.29142570092229947 0.1196792872492334 0.1055262839229933 -0.14401268340124526 -0.2905476696599923 0.21014791414974257 -0.14528829424932008 -0.1584806204194838 0.08761594530257322 -0.0053797581704552655 0.27879664283100775 -0.3096491124554749 -0.22486029087395137 0.2565375602988399 0.29478779238488434 -0.28785593234826656 0.32529726745697063 -0.04211104911165363 0.2439565458256561 0.06110034408761063 0.16293483042194837 0.22773879137593478 ]
[0.06600261112436837 -0.00272770363224553 0.2978439534103484 0.1333410779755123 -0.14685402440168702 0.3623817226495093 -0.08199977888060121 0.14416840719211457 -0.28414427903385864 0.1373295596651285 0.14430673748070863 -0.013150335040230738 0.21478803986085487 0.26580506027655565 -0.19260188924505714 0.2669203769681774 -0.11809070487284737 0.25532768303684356 -0.19440830456360972 -0.1734920312033561 -0.19463152352643856 0.21397233934681223 -0.016359823442552757 -0.044859992015851564 0.09082153075375796 -0.21502605991145202 0.2941699983438492 -0.05478248762380825 -0.036448741198082765 0.07124014483114702 -0.2507155701783078 -0.21849034990360322 -0.05134565125307524 0.23122568492190593 0.012847988719583125 -0.1750367425361426 -0.21398153091692634 0.01611956497691805 -0.15531705102153384 0.05283814421552076 ]
[0.11432807365291912 -0.10120488862691449 0.15316647410141498 0.1624777073750897 0.237008955698214 0.269572940626733 -0.23649121812672638 0.28689372440470035 0.3372262506590912 0.0036978866056956226 0.06433150129195758 0.07763427141536254 0.11849934615746367 0.14965121376205207 0.21886625869373671 0.24781500827919895 0.30161182308132733 0.2496195751751067 -0.2494359310669885 -0.2904025457550182 -0.18492134881564734 0.06225013828516281 -0.02849673982123061 0.1201173605079686 0.164089367435203 0.1537041129484105 -0.06438293284151456 -0.15811671239210343 0.07854666811005558 0.10687628527844693 -0.13964280174910126 0.12368318523304751 0.05106406280393996 0.21049886346031044 -0.1480799719817179 0.31065925464025684 0.029171517244643827 0.015412050989179872 0.16644789025970774 -0.22640420189635085 ]
[0.09393238760822992 -0.06659804214664529 -0.1717557794061015 -0.31452438694001034 0.2831648111004711 0.11021188670472147 -0.1060165559753448 -0.08858296172627983 0.246632923467212 -0.07001467366095715 -0.22421381445798083 -0.2917444871242816 -0.08920290389307195 -0.24749707961587541 0.14246475454865443 -0.20660558030184117 -0.07789836705101164 0.2736535332415375 0.19318062170332193 -0.010847576337205497 0.2647823302301121 0.3089938565927262 0.08429969551630968 -0.2663835361666719 -0.20675913597963902 -0.25983227198985037 -0.1789780610275066 0.2676142106985397 -0.17434894059482486 0.01073966285884398 -0.18753763919279787 -0.23447236805331725 -0.141371362516159 -0.04222670728558353 -0.04297070422553651 -0.25927147049630644 -0.01002206197610706 0.07992982040709508 0.09306073086786062 0.2201417112550734 ]
[0.30901414264627647 -0.2715414250140343 0.12358227735429457 0.058157882057145956 -0.2626257025991702 0.15752455172215565 0.08580844575911345 0.2120300561906436 -0.08418654393783198 0.03211147899603608 -0.3434573981880613 -0.07315144632724914 -0.2752700866360055 0.00600088755043824 0.07188976676003025 0.0001594347661667578 0.24606082848913838 -0.023843444939451144 0.09098926546433152 0.23181468832232272 -0.07771176507130591 0.2246675869910418 -0.1716595447068889 0.17788967346789672 0.2726971396692684 0.22871683737635973 -0.13390158515037046 -0.17385089023489372 0.061689397768937546 0.05506807537156696 0.04266794263460645 0.14569659236301916 -0.19791306399676753 0.11164197734648135 -0.11333752313943572 0.18755593885338062 0.0020947812357585516 -0.07019642781332273 -0.12796766243279178 0.24947760902495736 ]
[-0.06653979979688773 -0.18266119543888718 0.2077151309450766 -0.014589183440049764 -0.10736481342212174 -0.3403136372869055 0.07250064508149019 -0.26315904547372526 -0.13174502674082306 0.12378441714213924 -0.0943882525813669 -0.0727081031819758 0.006904452726428269 -0.27822921273028217 0.18839072672148444 -0.010882689547527734 -0.04229928059883413 -0.19902974800270987 -0.08240298507440294 -0.1916826002579316 -0.03504384253286951 0.11846971444922656 0.0888779161970321 0.21095162108838314 0.21926546296962313 -0.2552747354406044 -0.27732986273096205 -0.051058853923328124 0.2480247803434101 -0.28867829749529167 0.01822301466632457 0.2708486502131799 0.013990995739904897 0.08693404866562204 -0.048302183794239416 0.12323908074367551 -0.08096499670919824 0.24143766990816592 -0.07370546822290021 -0.15449513515298263 ]
[-0.2143051966450065 0.188621463842256 -0.1091679757542078 -0.06467840150238573 0.11088246246672669 -0.27659968393881273 -0.2150196289710097 -0.1723692560339096 0.28676036969680835 0.26826707414124473 -0.2183315156632998 -0.21358229859396904 0.12883014940637036 0.27850939084048554 0.18802397321312056 0.265826754732836 -0.22666341025139544 0.022442727937866207 0.2787534821252173 0.2932707266092533 0.1774060675743487 0.21735191891563205 -0.14650077829223163 0.06883289583714254 -0.11836055500283857 -0.2959527012896545 0.21541872500846826 -0.0444846583779692 -0.30608870533528293 0.1833694182673594 0.05393625689057844 0.09647692042449438 0.015599150194317632 -0.34997707936484795 0.16986801681020317 0.17818538203515957 -0.1377176432174099 0.28727657665834133 -0.03308248425776512 0.2651101359630343 ]
[-0.16783251297409574 -0.18727832140990078 0.15769746595915482 0.3000626851989505 0.20396850706914335 -0.2997184122505015 -0.18130075409630617 0.20032990560112665 -0.12739449809456993 0.1652227798646317 0.059292801495574816 0.08814170058628289 -0.03242036698333072 -0.2331232867247495 -0.1854604171582482 0.13473171524475558 -0.1664645552640297 -0.1353387698483751 -0.049373600288761275 -0.0152316237558911 -0.18095873579814326 -0.2595041531908431 -0.016439721906637964 0.21843299599934504 -0.06005988217293148 0.19982900401699594 0.17374624394685187 0.16539994765423027 -0.16193896585307127 0.05781857850855954 0.12011777573559175 0.3306979099099952 -0.03986424064004244 -0.03834915935534214 -0.20458039497140218 -0.0707173092693475 -0.241956238333422 -0.2652287069868679 -0.15989613815160053 -0.283930000813751 ]
[-0.08492111154156182 -0.29231048070425336 0.16621440982286328 0.17868340494436397 0.35164847297870755 0.22852327933287425 -0.04330478393942521 -0.2560557393074007 -0.3003125760013271 0.15848377015146953 0.20517693816953947 0.15695866083714186 -0.1527498559998246 0.08038100104280034 -0.29662395312317447 -0.10066738766158777 0.2200970950701245 0.2540554203403646 0.12924061308666585 -0.04892128161867782 -0.1350059561578959 0.25930566834187585 -0.3178915087291141 0.08375652656778114 -0.2800300520958316 -0.009184717429026098 -0.0241466633384933 0.284402121066885 0.2569730479752911 -0.0789389295920572 -0.12201915250558205 0.34647525459435047 -0.021118570729449157 -0.30034042189370114 0.20122731133296198 -0.2510900333613604 0.13053334311690268 -0.25380942981658544 0.06693279258900657 0.13621121961892182 ]
[-0.07642569207550012 0.10927849922193497 0.26995098793912664 -0.14419485321279712 -0.22108790219743257 0.20033036296629647 0.12831691318831384 -0.1706334491529479 0.2293628809118507 -0.12467444047140955 0.12425876907641994 -0.17192976943527988 0.01219858934763564 -0.28922048060615985 -0.29570580890462705 -0.20011317156648253 -0.026882225268169323 -0.10009975213652293 0.03704130376516234 0.18366444990399658 0.1463368017141133 -0.287670398964455 0.2966996050983239 -0.0304969679817977 -0.03416928700631073 -0.27510103726053786 -0.2342714198936799 -0.0428440086363573 0.10554334242722628 -0.21578423818917564 0.12948046997340554 0.03688020741433332 -0.10664083630233935 0.10041819987379857 0.1479255075218188 -0.14950287237464246 -0.026584826693879543 0.18854372789714527 0.11709893499837987 0.15237389436671395 ]
[-0.008155815475319905 -0.19517987741268644 0.14566718448165264 -0.12064333664895581 -0.25810536903054343 -0.18520933036230366 0.16995815328700406 -0.028663931886884764 0.25263678640729104 -0.07402624483450149 -0.22614437460772568 0.23710214746999264 -0.12516305798134364 -0.16813931488105444 0.24113778006862222 -0.2700146220887309 0.23696425839118165 -0.08865936719868174 0.13338196900566063 0.12456980966409412 -0.11198406070938405 0.015903639282091205 0.25347895294125367 0.09697094530409425 -0.1262272249292357 -0.017570575024042617 0.023023574469589976 -0.023007502354913407 0.29420758040077527 -0.08004797950981016 0.005165416297481519 0.030166640055702056 0.2683631965705696 -0.09246132407008423 0.21797874248576646 0.0714652254633962 -0.16880862765909166 -0.21322883681062757 -0.2489430160914533 0.2513655208967427 ]
[-0.2578512953258427 -0.13639228407685483 -0.1146219826465061 -0.21583452722021043 -0.1593459372217242 -0.10555068277919517 -0.05133778233733172 -0.005984513609016594 -0.1392665317271623 0.32025973572771715 0.06434913568586775 -0.024685850837930328 0.2095564405740256 -0.06366620445349054 0.13200650631889607 -0.23326077251140784 0.24423279182999796 -0.27646072624360757 0.29651255794671894 -0.10599333581819409 -0.2833286886044482 -0.14069433426074837 -0.21419857062054976 0.09779205073602269 0.10781768015349476 -0.0961830081513524 0.20444404747264944 -0.1847264137229529 0.25232260713486615 0.05507956928973529 -0.29752278357110545 0.05759805515616793 0.16564507498721467 -0.25311461278596736 -0.022780465024700786 0.059585923037521166 0.07315955165478344 0.07448716480653958 0.2585188518859304 -0.321692678602204 ]
[0.37633521538885256 -0.25325627782962834 0.1672360639425987 -0.036476165120938035 0.3856175409176202 -0.13921240353615205 -0.21262347714223445 -0.29312994795715347 -0.021869440085865218 -0.2656963725555704 0.17489502761552675 -0.19492935129273933 0.2053056222402168 0.13273599026574454 -0.056842472625574174 0.2403449236943371 0.308174078884389 0.2815266504098075 -0.20311317801935988 -0.24547847715302434 -0.13501639126430426 0.23711940318469457 -0.23063878433186216 0.20109509380139381 -0.2814178529943096 0.2198442423132853 -0.16478146215607417 -0.1715610009246081 -0.1324533381938344 -0.16516148646563014 0.0905087832769355 0.20549858139662291 -0.21871218736196876 -0.06696667772050431 -0.38103272831088714 0.09128405048386708 -0.05108749435239508 0.26696848249210703 -0.23470905093457964 -0.2919865336629089 ]
[-0.19813188278035632 0.33191362951724834 0.11411166265182614 0.1874374917191089 -0.2380905189065597 0.23755360381028942 0.08423931703528721 0.32005690981160617 -0.293001882608037 -0.04900633686826294 0.20059756312360463 0.16687288665463568 0.2197451441939682 0.014113937084530776 0.2937578447491065 -0.33699680946995014 -0.25167297369634956 -0.09286544856609699 0.07352235635282287 0.3110966251910954 0.02877973684590344 0.2032497106060383 -0.24740005760143857 0.22584016620211758 -0.2605945438629867 -0.25704863288486124 -0.27378710842183807 0.18195062809690474 0.22360938923613272 -0.09639121465917962 0.07540643320821608 0.27494212325228445 0.3035987277815923 -0.080764640412683 0.10842120138968038 0.035269535122438404 -0.2157463259518491 -0.26462295100272526 -0.216571910841148 -0.09624948686752745 ]
[-0.06110787153389285 -0.07734146895518801 0.1934649492422707 0.3084224165858177 0.32835275851904294 0.1398028814620806 -0.2619525155022685 0.35330615956458866 0.033989923755515614 -0.2635417292603396 -0.1545662061972443 -0.16475131300388726 0.1940200275963019 -0.04054365607978071 -0.2191522608013265 0.09936595429034564 -0.0563303506923943 -0.2955301916925277 -0.09136442318924158 -0.13763190805583836 0.23729773143019178 0.30050103214464186 -0.05638403809191655 0.33468805831440024 0.2955602900153267 0.0571582534186404 -0.2514186265085597 0.14923456026381174 -0.18137120661781114 -0.09735072856505915 -0.23995559778886957 0.30772427924333484 -0.0687338339420333 0.17830728156405903 0.0024944047441807188 -0.19009448676546126 0.22067997157730532 -0.09641148135575725 0.13051023002490209 0.15608557576957713 ]
[0.07259726943375357 0.20984577571944946 -0.010276012941496725 0.19038982887207215 0.22502058427920937 -0.013638628030034107 -0.1750393174209244 0.17983202132336853 -0.08713229733662961 -0.06853824025737003 -0.15730499257319117 -0.12011795956980555 -0.24811856777123664 -0.09497750933355491 -0.19703556418902488 0.1812971938967673 -0.0011151963539036292 -0.03854385434921727 0.21285829588788527 -0.12051133389041613 0.13675341481882933 0.2193440592190227 -0.13937043114602124 0.11658641593254557 -0.23677726530448404 -0.09954664678563582 -0.15427847075100531 -0.2592807401980481 0.17931997363950827 0.22911505845644578 -0.061017403539614906 0.03314696890776096 0.044134191152155604 -0.17412379333022873 -0.24946060356763955 0.17107217784539078 0.2535546499384345 0.10085819877917399 -0.03357040491108599 -0.28442983335486666 ]
[0.1645617100206805 -0.2476931947867918 -0.029454830187320587 0.26996002882899844 -0.051494365583151736 -0.1665398844295118 -0.1626493795103637 -0.3530472098010908 0.1479357225459594 0.09213349005931605 -0.31825219394666554 -0.3021491162808762 -0.353076829588383 0.3983150617394951 -0.17009114490212038 0.0006449730275597239 0.15390166075261377 -0.2611483363915008 0.1968745193048769 0.24120307262351082 0.2601752339900894 -0.054985993891386635 -0.2111130679833209 0.026955381308659043 -0.1774886806070576 0.06718699467869646 0.25140689856834586 -0.029744169660912437 0.18595035812498834 -0.08462374159105945 -0.16371016115275563 -0.22683180556176702 0.27858800692982383 -0.12688968239087714 0.0094458791345895 0.14216599810706326 -0.01675579394670846 -0.06188542153314408 0.21832636199578315 0.07801467687621237 ]
[-0.16044871053510046 0.11730861562505357 -0.12595627415391691 -0.30015118056886353 -0.21729596813895108 -0.17968228619142682 -0.049462007830045736 -0.22265352465681204 -0.2519638435742141 0.12265380501527975 0.17881733934399094 0.00047932707408815574 -0.25051274369294385 -0.24979030204000666 -0.11301261733546408 0.053054584587965366 -0.25113583697682973 0.09885189416089732 -0.3208993218694651 0.022182672079128014 0.017560254504715014 0.11924563361081578 -0.15959027271764686 -0.0408369650374538 0.11707970058855248 0.21909037082505503 -0.30475013399867545 0.13583917590598477 0.01067602158741317 0.32741670585347926 0.22630022403965824 0.2677357055076214 0.13950736691185062 -0.05001937116187925 0.16560195968312602 -0.026782828211034 -0.1332564373768486 -0.02134424780391526 0.0666466512645669 -0.11142764384578722 ]
[ 0.016899313775620144 -0.026904148070996534 -0.02510116304722015 -0.005779973769353626 0.023098778605791563 -0.02418231828421274 0.005111390811513062 -0.033675936357111504 0.003148890910870919 0.027718882073622327 0.022740262134542107 0.007184217911499578 0.001238764115346379 -0.00022494449776881296 0.021270808196908325 0.05547200021505761 0.03091265963349836 5.758062680862262e-05 0.018792244510723827 0.013898947174009925 -0.02031276400730948 0.013099232773734964 0.005191056042305572 0.026577243580242663 0.007372175123758248 0.02180618528583672 -0.014120231289315562 0.013751175701300512 -0.006086193353773126 -0.020765068622191074 0.009788023937623914 0.009389921317324988 -0.013289558090097311 0.06923492258339994 0.042172206030999033 0.010338660008803645 0.016336930523308524 -0.026425368680368454 0.047495185144831295 0.019749490924522096 ]
layer 3 Activation
tanh
layer 4 Dense
40 20
[0.15508186149302003 -0.08779881700229539 0.14707215607227675 0.036502691607181725 0.05476976368440221 -0.27616242802255403 -0.005702417800644335 0.07214545964509819 -0.29397646812167494 0.12753749931682581 0.07320503834181911 0.29144005704972226 -0.07557780160506612 -0.19730890499513512 0.20676341538403809 -0.3029682542412455 0.3071349269838362 0.2883238229826081 -0.07723851750308944 -0.2702639685298165 ]
[0.2001420091383189 0.17107444180175824 0.0820724690581323 -0.23311952648643966 0.2010799258838891 -0.13851095872574196 0.3320554496233095 -0.22854927495551194 -0.212263741283504 -0.13636274112520574 0.3078073078449635 -0.1727310453344328 0.18889630735179927 0.23662526885878307 0.12816376807108007 0.07297251253705142 0.20000747747750422 0.11190952022751484 0.00426657032326959 -0.0061247543012726 ]
[0.08182910727341527 -0.13573007408548252 0.11172005598888203 -0.24630949065833432 -0.18880697474234948 -0.1088282169866224 0.11623975819891125 0.052104253250120636 0.2823084284138159 0.05592426875447531 0.0018802948124159392 -0.10535460052920949 -0.20927144990458044 0.19515089676741473 0.011811371513512494 0.14010028984483824 0.2614779709768359 0.15007127381597127 0.27264492369927584 -0.31927393753454575 ]
[0.09772759182949942 -0.046945035885684785 0.11043314953450106 0.11333168477473209 0.07744517494026361 0.2654631744628727 0.18284482736217655 -0.036396798438228725 0.2559959559273994 0.01302681507834589 -0.2696708413459061 -0.06653949200936662 -0.25055906698531916 0.045509605717229035 -0.30221984539491 0.287372068691445 0.1908643084692122 0.24978894084802258 -0.184528427438539 0.015471976573901047 ]
[0.19932996784919194 0.15883177560086723 -0.33097477212930965 0.10451587418499451 -0.025041146004413994 0.26454378439251225 -0.22701588042939067 -0.28998770129649837 -0.12057288621289458 0.0817230227940297 0.07457629080670629 0.26035121835090197 0.21678465737863906 -0.17906728620344076 0.1757402721889717 -0.12342713117991647 0.11300763568981073 -0.12268887112071099 -0.1715243571734528 0.2593754258116165 ]
[0.14116904655598472 0.10560638720108075 -0.014796413160207755 -0.2788484251085355 -0.2714540267828241 0.05109880064611605 0.1397755517375432 -0.10727842055838667 0.2744584096910954 0.2522665380761597 -0.1603618289565337 0.08041795283293186 -0.304608467582604 0.20767730613426877 0.03158676456796906 -0.040803691498156915 0.049069908960955706 0.08828351097912436 -0.14091062242604724 -0.29580069151160104 ]
[-0.19544700487139688 -0.29552952701393065 0.17865862818326014 0.3096918398076216 0.08340620849298497 0.1313242432658165 -0.05644468694864741 0.2402296482733177 0.14553193802109043 0.26237465421382267 -0.10707732278679784 0.27734077087769377 0.2459241435306595 -0.2216067085576859 -0.07902638713985125 -0.26589439784622265 -0.14627132113511318 0.05269818864328409 -0.07238630228354752 -0.22010054569159362 ]
[-0.27842006103283856 0.2792582474338365 -0.21373637485440447 -0.31967492360278066 0.2209274407327909 0.2749025298604759 0.15393754237150156 0.19772802516689258 -0.18041482104315057 -0.02008386129597287 -0.21456212184968163 0.11155978243269858 -0.12044411854176376 -0.006507383055913236 -0.30136086050292954 0.19292649326854583 0.220063847759913 -0.05886532410619803 0.18550741930218656 -0.14156776671439625 ]
[0.24162744647174145 -0.23668505265407175 0.17892765690915863 -0.013321819363352066 -0.003510753579094259 0.017975480030107245 -0.27237574884325066 -0.06110903837742356 -0.2864517973903397 0.10805999396107242 0.03716734848142212 -0.10164463304286545 0.08778652670504293 -0.21739969908059312 0.1112015664024187 -0.09736794158552543 -0.045233808165536106 0.09202583417147754 0.30141578186725193 0.07845236293672331 ]
[-0.3018953465131215 -0.2985976271122725 0.16762023110414817 0.19656839676842722 0.22862168831881421 0.2062249092809288 0.021119839644640932 -0.19239831988268116 -0.05178574721889574 -0.06888261014157825 -0.032766711553857415 0.29301258167310795 0.25050709767155666 0.05589229532338973 0.024054929449398684 -0.26273692608113686 0.041234755659009414 0.07982907123082214 -0.13477897779418058 0.1143973726372266 ]
[0.1963285238953673 -0.012830345801503608 -0.24943182996007637 0.037848181864806485 -0.07357399853542107 -0.2482710523282993 0.06367921157305201 -0.2168034271882241 0.1389536450494205 -0.10909566579350419 -0.2553747404229962 -0.0742819315305782 -0.1576757728468602 0.11973715245236903 -0.18908905828902023 -0.029462553132505034 0.01508011990127514 -0.21172803939745954 -0.20021936868751078 0.0792749748982686 ]
[-0.24811926326488648 0.09799385125698164 -0.00654386250170349 -0.30134322016363774 -0.02141093848673812 -0.20210130122914172 -0.07144897291561766 0.1970193577014787 0.07841236923797527 -0.060421953384859485 0.037375219645601754 0.011121650296974464 -0.023041687586527748 0.08524962324477017 -0.29393909113047473 0.0865245431954321 0.16414527818509653 -0.14252026647074933 -0.12956286142447493 0.2888299494314961 ]
[0.2809472214184551 -0.14541321689809736 -0.14677037974129725 0.055011583124508795 -0.14355039267531228 -0.32432565102109356 -0.3193093225103035 0.0010444038186775077 0.1828406963284385 0.11474402040355952 0.12677681666008458 -0.20609423639422297 0.2282301416576225 -0.07990591362612992 -0.223252409116211 0.195134697399796 -0.2961348557690075 0.30159175119453907 0.3116808858069364 -0.19636448397880793 ]
[-0.2808025632918091 0.02937548354605809 0.03744197476349979 0.022017678135624528 0.1345635023819061 -0.2737388038979879 -0.19912039204340137 0.2922391459906154 -0.16976254892062215 0.07309482089136748 0.26974855931549446 0.29731034654077204 -0.12008006332421622 -0.015654867010311546 -0.022432700151219124 -0.1969056662527502 -0.12760556171057758 0.2630747436855438 0.2419673324777791 -0.17273729463837975 ]
[-0.0029080235759358125 -0.20668283456662984 -0.1025845146652587 0.1858865452104925 -0.22180928876206887 -0.29347118725638854 -0.03248461670230427 0.16649275263353414 -0.16275117518385726 -0.2872761520119946 -0.009451513918951056 -0.2871590527364064 0.06130135368134336 0.07440689535433156 0.04139851868540995 -0.17890687724866686 -0.2154956045891609 0.17396701427408165 0.05020203194602922 -0.15922738025034544 ]
[0.2243176234873827 -0.015276231055154374 0.3108830321854406 -0.033995076127465676 0.07188136900320088 -0.07663179458859198 -0.042612633413017596 -0.14169748682758615 -0.07647243240586209 0.07993208044850458 0.2796859732716355 -0.28091379321963644 -0.03532004721100739 -0.08334182282435189 -0.03170305023757117 0.09719021954638464 -0.05132206534888358 0.30441219632709837 0.07158710326247675 -0.04358390998423083 ]
[-0.1513633413381434 -0.020884664214583144 0.016711803833155247 0.09027133552534818 0.10754220533218342 0.22916151266818946 -0.3624572351266574 -0.1042455368174045 0.08295805150974335 -0.16450046984909292 -0.07903883973293299 0.36006572690661565 0.17563675330134354 -0.037489889716218694 0.10837968224860531 0.21921746909176446 -0.1034023681473566 0.1004153841566893 -0.07273743436689402 -0.2894969327064057 ]
[-0.1441787627114714 0.17923262940691156 -0.0029370122176489185 0.038922792308172534 0.028641110961965904 -0.0522127279852955 0.18670257058997436 0.16725338010635768 -0.027186908463235748 -0.19026935125990108 -0.07590587068466857 -0.09476061153697808 0.28340809786522153 -0.25517882915296297 -0.22508857933327872 -0.1927688637465858 0.26998244527814325 0.2986369774222557 -0.06460852496034053 0.09722611403647205 ]
[0.1253949843508308 0.1947812541516827 -0.20391587839538766 0.12604678013234072 0.2438018625368769 0.3442022396941773 -0.14466155966876895 -0.20743121396074599 -0.2921702822746844 -0.14944910706595999 -0.1895279119621608 -0.3432663249330755 0.30403747972304734 -0.24286126956817813 0.2248979440883376 -0.11150325633117962 0.24724024021525254 0.08191347675873041 -0.053323222142094666 -0.21783616428789865 ]
[-0.09962375405720342 0.030351642503719134 0.10812790886786632 -0.02363137799861193 -0.24474405243828257 -0.3131358094279711 -0.23129788933443457 0.16015066486397114 0.28029615012169506 0.2686633970838353 0.19278061549217482 0.00777624425480313 -0.29445094726736604 0.2931093681289805 -0.024466402865801803 -0.06809989546055749 -0.2252670266764675 -0.10872352341564642 0.12367907836151282 0.25121860841829396 ]
[0.05341854044149029 0.094424893669625 0.04329471328589118 -0.21579210600012402 0.2926826196660748 0.0906955851192253 -0.026028823460371903 -0.1699212240983465 -0.11658592498002766 0.09123679814021236 0.20039321219821207 -0.24801605393384557 0.18906103836526922 -0.1864547552589959 0.2559134322778815 -0.10483221365729353 -0.14749275452653862 0.12111094615738352 0.08189369496657992 0.2671037056153042 ]
[-0.06381019077483235 0.1703741608456455 -0.20816459462763698 -0.11031094102115684 -0.13773883487721242 0.23537400053057125 0.32591428932987065 -0.13956479059589716 0.23680984623874596 -0.056268557010106905 0.08082341955507841 0.21008799525044944 -0.04633839870031877 -0.04029367945858271 0.04007346719767119 0.1973213640806036 0.19035023900627898 -0.2822665027294312 0.25607018939554466 -0.2815279432206225 ]
[-0.07663711585864195 -0.23275358151580378 0.2867198062800621 0.2649457280601144 0.004659259631982176 0.04561839206263409 0.11528728270376853 -0.1073968079665773 0.02531845291632328 0.2676938583524331 -0.21739186383061268 -0.1674431906850034 0.22477707430801902 0.2375278564940551 0.2747100897040885 -0.16164268564845613 -0.07638732476355904 -0.11834149608722404 -0.04251252327204907 -0.23226218452577946 ]
[0.22408113889804818 -0.24671473523497484 -0.18724778931251368 0.31660920137359855 -0.26274186635769187 0.19224448508763817 -0.06730007385886753 -0.3552598520493503 0.2278439995576162 0.25250835937886734 0.21959858286968006 0.09157533348583291 0.21935724886079316 0.06070945191935115 0.11990515451275426 0.1859291363465261 -0.10465299764864475 -0.12481070545670164 -0.019543026949515065 0.3166671193985585 ]
[-0.2644499657941177 0.2011874018409134 0.03502969627729089 -0.06620861507432084 0.060373877411717146 0.21651712598909092 -0.3362562999217696 -0.07770292749809343 -0.1495112086302048 0.13434637051174955 0.05347619541965135 -0.09263187850983436 -0.2956972551727064 0.22894491710409315 -0.2530639731728116 0.13726719151447728 -0.07957483535174201 0.2041508099862769 -0.15010632121175344 0.12109626364797631 ]
[-0.1609167710535442 0.15069712866799972 0.19453969792733047 -0.07097995243110979 -0.28826816757796 0.11185974822051618 -0.11251122283073715 -0.01654398326150014 0.17258243660714068 0.0973494748142416 -0.27409019900210724 0.04341052095106003 0.11075899219300792 0.1923174511225739 0.22538780150994056 0.005284406945850994 -0.24121604399139002 0.2413407084448374 0.22967746522422391 0.2988750509486014 ]
[-0.16130894920716987 0.016307115778245857 0.27931139993480075 0.27101773122285217 0.05321000568535186 0.19332465590673026 0.31350454904656705 0.011597933726051233 0.08488348704952191 -0.19138262384159926 0.3068563978825724 0.10604389503918862 -0.17267839090199769 -0.26176031955840595 -0.05551546878654383 -0.024797240392720524 0.22542481251305885 -0.1092838780878016 0.2599126121091383 0.12516134213069297 ]
[-0.21682347495370527 -0.13050925301319768 -0.006766549517180725 0.12346865849479413 -0.04852521584667476 0.14036646650934206 -0.01691876302561271 0.07183747998958208 0.17431782771903132 0.26244566279944853 -0.2607953471901213 0.29648140036873893 0.2193184027164652 0.16145758497228796 -0.1689789823269696 0.1268807423059917 0.04562170461685813 0.08951339357331763 -0.17370922878313175 -0.15297859295268418 ]
[-0.2755994367104829 0.1649082883301658 0.2419311461146668 -0.3301356958123065 0.22211884818631522 0.17403993935325052 -0.08229622262153712 -0.14157663267156192 0.04049801468912503 -0.2505045415718637 -0.018214525064118695 0.21312893525877183 0.02977166400414897 0.24931405650302463 -0.3051122457387156 0.07994606387883171 -0.1946499473919822 0.2800197209268962 -0.19947806735427903 -0.08301791139762016 ]
[-0.11769752421288728 -0.1977270066760149 0.15133330441669565 0.22495915219659499 0.18631816078780764 0.15293581571534032 0.12039133157862628 0.36196818414882115 -0.11275539449991932 0.11154867485811265 -0.10996581911697684 -0.32444078353825334 -0.206744130619586 0.08803566628178912 -0.17632776747777656 0.21282156868063856 0.13147465090401092 -0.30008297286943075 -0.04891423694566291 0.1702806528562414 ]
[-0.23905563832789042 0.06869700002265028 0.2320025655862742 0.10083994093365006 0.006750018640764177 0.10865150016335524 0.18609000144127638 -0.1650594629106508 0.16739700786563705 0.15199818477371635 0.054686848692423844 0.08420931964610666 -0.1033317030635264 0.2793365118071433 0.1649298930092606 0.2098471152502986 0.26207412140752906 0.0957159349186324 0.07253484242084694 -0.20260988616435172 ]
[-0.14003727788552303 -0.18383670154696194 -0.28390142363411297 -0.030339106502151325 0.10078973806705138 -0.1062884232049516 -0.0039054437620120617 0.17736442333351635 0.08824194702541423 -0.30277842182634374 -0.25708991572703327 0.24654917448432673 -0.14295904150787192 -0.21020043269673366 -0.05968560332677056 -0.2427202147948917 0.20247632445924219 -0.13455034424608694 -0.0963973008779652 0.21473692093940625 ]
[-0.3205801924485574 0.2084322134183746 0.10912152762361578 -0.16118942675082806 0.2805921132657029 -0.26795300390122134 0.09052103110677984 -0.17652627365602194 0.09099124023148286 -0.188768069071312 0.03302915206087924 0.24391830876804216 0.03315613088800053 0.02189946630644447 -0.08746866988794055 0.07039148628096721 0.18608673373967066 0.21879681283752614 -0.10656732763472503 -0.16969594981999525 ]
[-0.1865014828717421 -0.05492491858617377 -0.16459430156896826 -0.09946028820902557 -0.2790421825782764 0.32111153239261686 -0.30959565839664055 -0.25145968098482496 0.015954065036649073 0.33260772148675977 0.052445881105657635 0.006620479292996822 0.21476468410850585 -0.2492314428258665 -0.04722306678291859 0.12612490794816747 0.06680946832668797 -0.20176026090693774 -0.15661062403172255 0.1291036837745054 ]
[0.11389251484813788 -0.30175862566656775 0.23202396995935393 -0.29407630119348316 0.138043128125064 0.06019627235500494 0.04905336726245128 -0.00845586388187069 -0.2872779853831079 -0.03649008580878213 -0.13510584435101644 0.18041141612300415 -0.1850468056738236 -0.07099277667357104 -0.3061233566025109 -0.22071552908866268 -0.13062380300431856 0.21071747490264117 -0.1541447655019445 0.17610119852177847 ]
[-0.2631076291425081 0.18940233714755714 -0.1723741550770556 0.20946464894657077 0.20709673869705778 0.17350722139726812 0.003951735422407127 0.11985028118328617 -0.10355522949720922 -0.0019438867609419398 0.01589083224288449 0.12719239594729448 -0.03876546904389437 0.014510149262390401 0.12197544403840978 -0.01864508681433653 -0.15986821768190673 0.07421875304906314 -0.1979229282322719 -0.1029923879398802 ]
[-0.2860112333072868 0.03467975796494812 -0.13171839963886753 0.14404800729758968 -0.20497099283533454 0.23478046095788152 0.14173178457984267 -0.1518653086308774 0.0950603271795392 0.18612456309673364 0.131807840388702 0.38853197945259993 0.1299129211043577 0.14271548619576102 0.06708621437268468 0.13233140315215158 -0.02916698718444914 0.16198819163865796 0.06267145404113768 -0.2481678662783846 ]
[0.15295036980538448 0.1935711387840282 0.0073148857411043785 0.14234874850884477 0.05341684368258403 -0.07932023225201618 -0.009277123505088579 0.10812059984822461 0.08121020639253222 -0.21114261881835014 -0.027221842693194224 -0.3359603320489647 0.15217657450647848 -0.15398078366208542 0.1621127270131971 -0.11708314798784114 -0.040840871996274404 -0.007128165778609156 0.1186349665647853 -0.24702967698844902 ]
[0.17590931388578404 -0.2770849944474743 -0.09510313871906077 0.11880031189924321 -0.3181884489678098 0.013175470685762183 -0.05334694400730424 0.12299003143376219 0.2505090688588864 -0.24757674958043302 -0.03676988697222379 -0.11187392497558789 0.2599775807050203 0.1225327488867238 -0.17225616317792414 -0.07235501536457993 0.27344705434361954 0.024129234351006126 0.18812133118863536 -0.11022441407840286 ]
[-0.215449961890823 -0.17431096568755333 0.031059415968327484 0.2777204870874496 0.293439408729735 0.03285883305824624 -0.22582659543561165 -0.11230339058329657 -0.296907823379799 0.2683639446368365 0.18852729633471388 -0.27774505736376476 -0.12781709392314577 0.22086175322527352 0.09063848490731906 -0.27273333775926617 -0.18822831556364253 0.15023143954250245 0.08613169469422167 -0.04507369618758163 ]
[ 0.009307059659691261 0.01096117078815168 0.005931806151737542 0.015580670619913398 0.010777257689704903 0.010418379807541484 -0.016555092089334 -0.015280997294472768 -0.00819206557751826 0.017728134386385284 0.007653949432291878 0.002688624951966207 -0.0012066238299864853 -0.010417009742632127 0.01065754998504717 0.003855984111407938 0.019389425086933067 0.01807397128503227 0.0029352003387349323 -0.02197915825771657 ]
layer 5 Activation
tanh
layer 6 Dense
20 1
[0.21368467291066512 ]
[-0.000934723825645002 ]
[-0.2884286819760521 ]
[-0.1796944033698021 ]
[0.09015188645025549 ]
[0.07773950990164957 ]
[0.20961351232897843 ]
[0.41761122451300026 ]
[-0.019564870948847887 ]
[0.44073014365326474 ]
[0.2935595364625372 ]
[-0.08569438102329019 ]
[0.3296268434659998 ]
[0.2831739996420934 ]
[-0.19467202947813278 ]
[0.010868395336706558 ]
[-0.15128760305974404 ]
[-0.01367659999635962 ]
[-0.322737493347432 ]
[-0.12028472502281312 ]
[ -0.007408355134365299 ]
