layers 7
layer 0 Dense
24 20
[-0.15376180690654928 -0.22911747486624 -0.19403173545580824 0.3303899032825264 -0.23088543910148057 -0.35754338932621643 0.0013741082097761324 0.008042675977970717 -0.31833429325300705 0.10423544945250073 -0.4609253758785742 -0.04390320576795419 0.30484588563715614 -0.35205928623227906 0.1989445016554058 0.21702949167871832 0.44649336260622774 -0.16723944837000385 -0.05543988057342318 0.09544097411399952 ]
[0.2549987082803952 0.209879563262858 -0.2385766977644654 0.2718366367144333 0.2563851007094675 -0.3758712384951211 0.0067539677489206005 0.03169823713756829 0.2077873585824266 -0.10610129668767714 0.17133327029226045 0.29065856527138556 -0.3792465456810281 0.31444923360552457 -0.10059248529194151 -0.20956708280892003 0.19322558489513073 -0.09509265543561463 0.260027934476425 -0.29991195729455816 ]
[0.08040906491279504 0.20683243915172136 0.12190438493028019 0.30577596315351524 -0.03535594064907061 -0.00768711837468135 -0.27661587399310084 -0.02130699617102566 0.31192173101513254 -0.08603014793300083 -0.19908177067451371 0.014250574403058668 0.159097995397048 -0.2898622652868893 -0.38373826242680026 -0.22147037920543783 -0.03028546871479587 -0.28953508281930757 0.1392045193887161 0.03824562593721762 ]
[0.1943123294629994 -0.16756600643834746 -0.34023938580696445 -0.10686256897202616 0.0913470986423915 0.26435369877593035 0.30711347058918576 0.23584941867050682 -0.32243463700047786 0.014530600465400315 0.025459230919310603 0.07831184008656497 -0.15358755543240796 -0.19082048314904812 -0.3044525550711356 0.16628927606714738 -0.1632518406970565 0.002906087859202645 0.11596014900705577 0.014946186148074967 ]
[0.37887642371851726 -0.296544603352176 -0.34896191266179394 -0.33353303291410646 0.0017862300438775162 0.3762594960589182 -0.18803079306832138 0.14597286770902915 -0.0928128025171155 -0.14385180873975262 -0.26281544487666914 0.04941386977008616 0.019466935438261408 -0.2544710069343602 -0.1755041752654437 -0.33286662190955185 -0.24282968639402022 -0.02325498547077484 0.34875304569406956 -0.21775826710255344 ]
[0.15367621080519667 -0.16383656833626487 -0.3144457500269767 0.3735135091927705 0.03332215725000578 -0.01265946788634752 0.0644060185149059 -0.08059545663301627 -0.052416384880122784 -0.3771298172341741 -0.2025364016705392 -0.35388698674234403 -0.3322627969478821 -0.3186331439237508 0.2851362987224232 0.32084829011418153 0.2626251653197373 -0.24742308742351682 -0.09396918825194078 0.16858567282762835 ]
[0.251281224212542 -0.11740929626350549 -0.33795769232149137 -0.19295016495322384 -0.13142279396410714 0.2640076069167591 0.2066070291110096 -0.27733320789899857 -0.15393505396123158 -0.005729682956727522 -0.16139689732431312 -0.011223406243630298 -0.22870328280094207 0.3278924394486815 0.1724003324838751 -0.09015486958644602 -0.35714400159912957 -0.031468125184879826 -0.05170874465314376 0.10187988438771184 ]
[-0.14556264976884584 0.25974131808225787 -0.3169252653769005 -0.1670732754119418 0.18972908018925597 0.3355706265108364 0.08028273946645645 0.2662417300771683 -0.12039590877525502 0.04298033560609716 0.03232110425984897 -0.2953855993699039 -0.25744719647328324 0.28072923061766936 -0.16139178467432055 -0.15671189630864316 0.252916344516569 -0.28661218055499565 -0.29406722683922965 0.2292287632824612 ]
[-0.19280999826770823 -0.27282779731774426 -0.0991728304003136 0.11290547130953493 -0.14704507923516677 -0.2750968699475067 0.029063072670668145 0.0763487116066811 -0.06324073615983748 0.1320298873364016 -0.13723286335533486 -0.24462129855707454 0.12645247426627426 -0.20624613571574735 -0.19780816709770485 0.12730081488657227 0.2526811585584157 0.4376013337986626 0.04986510520473841 0.11641302154365211 ]
[0.13961710137593555 -0.33719905132731703 -0.2956368187883165 0.3184314744250542 -0.0070737775385952915 -0.23370907888057346 -0.11004493811374562 -0.09989551831118089 0.2713836054651359 -0.3057428323947502 -0.05825844937680338 0.25696126464599933 -0.04834847733775105 0.15231027905740116 -0.13587952948777154 0.11754900985156246 0.2920502796249169 -0.049610173220958925 -0.08249939871568773 -0.13627354202391398 ]
[-0.33447446240478973 -0.2648440548528174 -0.20398898189439624 -0.0017400957620922186 -0.333363888643892 -0.3523725557754015 0.1461875447259675 0.32162676655010625 -0.01818493581629966 0.12750975854667443 -0.4179069875636163 0.20630567698829946 0.010869851075902087 -0.20030912932737086 0.4290287687768922 -0.3420568649849059 0.26406899428376146 -0.31366444030246393 0.3665842597427084 -0.44763942899588766 ]
[-0.09265141614086062 -0.19418073944015526 -0.26353124897838215 -0.17605066105057543 -0.09947589157523021 -0.15660922003398323 0.18755703132363075 0.20477298561711677 -0.3866059200276552 0.26741010683670674 -0.4817143130376233 -0.06467220320549741 0.34659032768055714 0.41759528263753615 0.1761047226071379 0.13219695722791525 0.3632043250964951 -0.12272550273545593 0.36357521699801243 0.4042745539850814 ]
[-0.0467488189663325 -0.37733656667525894 -0.32157309126473055 -0.08496584734618529 0.02341534467981552 -0.019709021347550426 -0.15619283404295464 -0.23111672660369045 0.39945106922072493 0.3875291338623154 0.12662447184511783 0.057797745065472125 0.4335157411679027 -0.08699470338041407 0.3366714906705591 -0.2448803196092569 -0.16076755096409717 -0.38264872437735503 0.059364958104387584 -0.05373865349706275 ]
[0.06522781466258955 -0.02296595083233425 -0.20340977988173745 -0.11558770811350111 0.012910021005129424 0.3410773892823508 0.06642182650246134 0.22751166957247987 -0.0315948645517971 -0.07591299872779539 0.1444672011033613 -0.1458213803321134 -0.1880383016058921 0.19584169442283422 -0.32943672368879956 -0.24896131466702268 0.009547638634975241 0.2590472273310243 -0.22627012576362598 0.14312368847760126 ]
[0.008375416977969032 0.3049593967998073 0.10459622989604059 -0.040069670496058446 -0.2997192983907785 0.07117880369006867 -0.2693873638688956 0.06442770227596321 -0.35934509826197925 0.07192437827581605 -0.009278749853573336 0.35344761771971384 -0.14629161488216877 0.1991742760409539 -0.31445636560138046 0.053591662070000115 0.10856676720614912 0.19707111481462725 -0.21261416923375379 0.17460151020588355 ]
[-0.2119588723523207 -0.012696332173597027 -0.17095686065851212 0.261620671637389 0.25852347912359713 0.30668072173001126 0.18722631212718419 -0.1678006368030249 -0.06784621629147908 0.24318469260986178 0.05003874830392748 -0.23976984542123592 0.1554021812987916 -0.010208078619497005 0.1688795899649724 0.0615156282770229 0.0367277464031864 -0.31611080647944256 -0.27414213942120835 -0.18333668398433212 ]
[0.12077492722372979 -0.049126633983631096 -0.044652286990824186 0.26833054269983536 0.14211017579572716 0.035201334449805895 0.04807948766661135 0.19968990982920923 0.1306757762742826 0.3991491543731696 -0.19711034970206634 0.22390253932044066 0.07144686550779006 0.25666583721488284 0.43219615071528056 0.2213017298032755 0.0923423047863972 -0.06939525977353625 0.2811426764769983 0.3245339207811707 ]
[0.3682324152160411 0.26227520641872204 -0.07599943222538863 0.24923143997392438 0.2173166965316159 0.0022818416969033815 0.1398851369899504 0.12710591385920794 -0.18199713016334032 0.2859331400448998 0.21585411238606553 0.09193210035478773 0.18617964928765343 -0.3293191617403926 -0.18000617458321808 -0.38390124180087365 -0.027487456903713615 0.020789439535157512 -0.20886678403808445 -0.23172643497297535 ]
[0.3454609440605393 0.29886113454076757 0.032302419285844465 0.11401014197452276 0.20982768049607609 0.23198544439777674 0.3029188341475451 -0.23846649270922324 -0.010084900809407927 -0.3179235661582974 0.2936783468746061 -0.08756528316548012 0.2983210536953064 0.36065794350554875 0.012560900433554031 0.21266539626671271 -0.0943743219956224 -0.20645362489155736 -0.01969342422586969 -0.17779034421868703 ]
[0.3522087256549655 0.2901614149373599 0.10027757063069917 -0.20458443798923426 0.3546796787380934 -0.169325078602739 -0.27304722430924744 0.3479294556044387 -0.04862043421554837 0.19945188781394832 -0.21338548883807726 -0.1355446237644529 0.01890384404725982 -0.21348801893642763 0.14670821002367568 0.001879853059384436 -0.3210673256583022 0.03455404111684322 0.13503055674539788 -0.34793408714453566 ]
[0.037649851130689624 -0.008717539572800454 0.06626226548256564 0.1326123798980061 -0.13838421350722657 -0.09698802114871596 0.253718165092556 -0.14589707185878337 0.22439224428597884 -0.24792065916743902 -0.2958166593845685 0.17957229793790994 0.054505616769005956 -0.05951753176382168 0.07867128164359898 0.1939145773110591 -0.11876861779384178 -0.26115350701689616 0.1269630267103058 -0.20704437536414844 ]
[-0.24871560880289575 0.32711607848255186 -0.12953923378756324 -0.3988155931103416 0.15493787346306825 0.32485229080128314 0.2826576303884355 0.1806525922059782 -0.2415892611772693 -0.13364433308011944 -0.042592094378034816 -0.17630357615661602 0.14650864095966162 -0.3997056872428803 -0.07475959850646152 -0.35483781295522093 -0.13379572869745646 -0.15599860758748318 0.04267763437119999 0.2034568825875399 ]
[-0.03219350045645598 0.007155980451103161 0.006884875122439236 0.30393974496333487 0.33937490885095145 0.12201489650840942 0.34151282179467174 -0.08706231083519214 -0.1597638807703 -0.19324820667006204 -0.3202072994597488 -0.021323568308152303 -0.031211984920863318 -0.1892159400099216 -0.3704798051694378 -0.08478215152964055 -0.4065756452678487 0.19950256011447934 -0.09025066442388299 -0.2817395622569567 ]
[-0.03567787495123505 -0.09383329106909016 -0.24914553689502236 0.16881952701766287 0.01488829523937255 0.20986538726166143 -0.18660968968237152 0.007745505197109055 0.12260970284002994 0.31667683689812054 -0.08312045623053768 0.1483124560479524 0.06030899882241793 -0.2764628392463088 0.15028165772040009 0.05004925777241587 -0.17348009264228662 0.1697616915858609 0.28708376711859435 0.23728385070647995 ]
[ -0.012086366443422503 0.04836875673866491 0.017222119043390775 0.10236219221488012 0.01862960164118664 -0.008481714909177197 -0.01657001916741119 -0.008318894048529953 -0.003935381121256286 -0.01956660035073161 -0.08535046143353461 -0.009249624828444127 -0.034673049251435786 0.017625306960896092 -0.08771738227972366 -0.0029114679830151507 0.09150558311806846 0.015736700194181684 0.026981961483909578 -0.004056439911548 ]
layer 1 Activation
tanh
layer 2 Dense
20 40
[-0.28924387583307226 0.1555042473523138 -0.2757710860296336 0.062212434631817984 -0.2550396937925472 0.0532614421706383 -0.18823570643033447 -0.15837252196511162 -0.026989639216171375 -0.1865261543658127 -0.2710144219100879 0.27948269064904374 0.12402324079841408 0.08294663356044321 -0.05265996531069397 0.1559406380695492 -0.2798651213485847 0.09230976857416451 0.4016209301136396 0.25853254442669976 -0.12826792962107875 -0.22121596302732055 0.06552187570463526 -0.011371300276213974 -0.22641104393851932 -0.3629650963161342 -0.11155731086276281 -0.147142012790513 -0.12481223717644634 0.15905190103188213 0.2509103704256358 -0.12655099124222752 -0.3070429439673244 0.09581254333233492 0.07690323064091427 -0.037043857571501485 0.14131257753010434 -0.25486602250036133 0.19923789822954946 0.25036176748361183 ]
[-0.14139764559064893 -0.1593835675283327 -0.06492516801882273 -0.15770648178765764 0.1268996190951935 -0.19527138649057535 0.170494981947811 -0.16071111556198878 -0.08921404619763594 0.1274008732027462 0.22025151467630608 0.056247847613915526 0.08485814035604045 0.08184990727050812 -0.10995654210010469 0.32395080162371914 -0.008360142701740018 -0.15979610413523546 0.17981092156699496 0.03635471571248719 0.2173220225380176 -0.06774087369043257 -0.23667803967317214 0.0013142313830037684 -0.023706023560603053 0.1661109965317952 0.27855327896593146 0.22398658850475445 0.08381927986566302 -0.20164928619493463 0.06142935442045341 0.21103035768599063 -0.09397740735128049 0.14282531720275202 -0.08081496609050211 -0.16511487113711146 0.24668157541230212 0.28179646445396034 0.11967741386452864 -0.19360423386214978 ]
[-0.20928341134899311 0.25382021984238806 0.2379054926758991 -0.07743247998330058 -0.15708238983577305 0.09766144505890638 -0.19578355882134674 0.12568163281344638 -0.13955503531635002 0.004726831693457442 -0.06569492903242916 0.23451904231931014 0.05176323160635667 0.02484438575627024 -0.16857375313320502 0.10737354045110949 -0.32488902046436474 0.28942764814009486 0.0634904452854353 0.1956044214262413 0.15740653019184545 0.03300265817251754 0.30283005323359863 -0.1755798037791399 -0.1036385266023413 0.1272612456347196 0.2205752887561928 0.11959913068249718 -0.24839389906981127 0.20607821721662287 0.1377271547316288 0.22602949287464905 -0.1364434781894696 -0.10669068058830417 -0.10025612270748356 -0.087649868927792 -0.256316544365746 0.20375035445341663 0.0026463072686502306 0.18334986140381027 ]
[-0.007822989080096288 0.05239230674409665 -0.06673453200421567 0.030477815754327228 -0.059375084489710926 0.15599586923577535 0.15040441204741653 -0.029023340032981345 -0.038236219185736026 0.2739500466003658 0.052218627824399434 -0.04852516321400266 0.12070093184333301 -0.15406215988416 -0.2495247491808123 -0.3341260672496487 -0.08344498547200946 0.045935241588407 0.11253200793022906 -0.22928418464512512 0.08200403889237808 0.0686100301987114 -0.21528258350069424 0.14167210221219642 0.09527797382279866 -0.2557701356765097 -0.035175020830405676 -0.03868555042571227 0.060988339020992016 -0.2102002222295429 -0.16076328129942605 -0.02330763615097629 -0.2733347582212744 -0.08608100061751679 -0.24029774271511506 0.1037214611596012 -0.24124719066795294 0.21592711394961023 -0.1941910020518671 0.059626076262883604 ]
[-0.14077366725519347 -0.2232390885907201 0.19042073927878855 -0.23050934855202118 -0.12347409118864033 0.21938154391864265 -0.1363306446659689 -0.20387786103595945 0.2461693848743482 0.2071221755779611 -0.10594171696448353 -0.12452891069043912 0.2620869578942612 0.17485142685860308 0.13932604290845693 0.14724981664027084 0.18821932569674873 0.003233404978579015 -0.15941990450063206 -0.31413489635653535 0.2574046037600194 -0.17141313338879907 0.2552982820959116 -0.10476388250030498 0.04907249218271068 -0.4245518841519033 -0.19067500349240765 -0.0691154407633842 -0.22553013157453683 -0.03715853818798247 -0.2554175272298047 0.04159659532178018 -0.29334569461102405 0.014394692287057344 -0.2699313767753316 0.1073038843161979 -0.22541511140464252 -0.11896989529001091 -0.265943799656614 -0.3011031208060255 ]
[-0.3040636228662675 0.0567287616448645 -0.16116213341047014 -0.05951345000086516 -0.12323468496852469 0.21613874438470568 -0.29560193783477823 0.2381128252383201 0.12334541389453427 -0.25079088127906085 -0.20107992825558138 0.04172887113622613 0.1139966456054239 -0.13450451323368415 -0.2344312299132295 0.13484818635475593 -0.15368348662683007 0.04482929871649086 -0.21694301317549486 0.29748674506961514 -0.14438578168837407 0.02163772972027357 0.07092973804867088 0.18154017544955614 0.21831343225115796 0.2380021769732758 -0.31830432129939146 -0.11192529941954213 0.22380078008029494 0.011188860975967408 -0.11454354631093704 -0.2669406095321401 0.04237771653450356 -0.19664387156432295 -0.01776464395230731 -0.2760951311332149 -0.12718679629607288 -0.302043396968669 -0.31563151254190713 -0.2925443825148121 ]
[-0.27962698803430885 0.3024905474517775 -0.2074134608099328 0.016066411295364118 -0.025596714007654307 -0.08865970780739643 0.07925736464794944 0.13117411776425345 0.09510743810511949 -0.16931143670109466 -0.07287384011357279 -0.10879260049163816 -0.264043972426214 0.02168763168968467 -0.011964201739887093 -0.21756207456522067 0.15416334229776288 -0.09502935278473433 0.2540078010728171 0.026294370791525037 -0.007482444528105911 -0.24127023897914238 -0.13399949206886277 -0.008048187772029864 0.2868509324160933 0.0426596814437441 0.16014203446019373 -0.13245869168913552 0.00944896212274304 0.05315587872669482 -0.08264716913709637 -0.10050760891864718 -0.09301555662570796 0.24588132149356223 -0.01785344634649993 -0.25063217630170664 0.12391285376260731 -0.27429524353212886 -0.25677032653378046 0.17849906204177662 ]
[-0.28674900497216343 -0.07877994793960877 0.005934543795168935 -0.3253572596552491 -0.20382515218877176 -0.0702549219161446 0.2281519635224121 -0.25777933506781303 0.2722186451071386 -0.07463158080091215 0.14245451031866205 0.23307193444216448 0.2086988730649234 0.08400708162703395 -0.2585744193312564 0.15288483890007826 -0.2251439269173224 0.02830411456373182 -0.02843490508070269 -0.0015141705729575287 -0.019584188312179472 -0.04677103153224556 -0.3183367140430533 0.021265449467239305 -0.16507283852877622 0.27654417390834973 0.3138817387139098 0.015762898148805125 0.2125188800387396 -0.1122898364470566 -0.16966289867896356 0.05491505000810613 0.29980165174808715 0.23630198093549545 -0.2714873759288015 0.12924440772295748 0.26792873172298326 -0.1973490612125738 0.044005029727833954 0.07613225617796184 ]
[-0.22707819734079862 0.2518246758968074 -0.1155698053312448 0.11613159219824784 -0.039142552171535866 -0.29080956516078443 0.18606646001355737 0.015162210410988263 0.20508765275122504 0.027934934087012534 -0.07561894188888763 0.0902806392092973 0.2799844202775399 0.10002088771490199 0.20354083844831414 0.16459903452534458 0.1844528362910748 -0.06087491075799252 0.03869336253025258 -0.04765898356642785 -0.3074863966721254 0.24432736383337553 -0.22167331909900742 0.04455417686673214 0.14508875574358035 0.15552245560987046 0.04650911253596069 0.14721402658129226 -0.2797278436477879 0.25705675315605164 -0.03543573419392531 0.042974569278247735 -0.28763345122373357 0.11800364050083319 0.1198492833698335 0.09648095045480246 0.30465085760992466 0.15287592429001418 -0.010146702365897398 0.27363522178213706 ]
[-0.21614813102380057 -0.05409693315521445 -0.05299762733738782 -0.16323951143784404 -0.33177887414487806 0.17500895437853645 0.20000097602797376 -0.21393707576585033 0.21819605356730154 -0.06560052025265124 0.030951292383687518 -0.13258864283582514 0.13319703630742574 -0.25633487587577014 0.2485205012370337 -0.26566408839409844 -0.17601043795908777 0.12151670377245972 0.17805597827461772 -0.26160077160289197 0.10452393615439462 -0.039700316630415976 0.21750319307765326 -0.21234445457620213 0.15979749266417526 0.26947111287317566 -0.01499544161670493 0.16166252223623678 -0.23379332342250853 -0.010769325249040038 0.11591525442999619 0.15769891534841912 0.15900568662808126 -0.05608465530750456 -0.2601367686481969 0.1143882772047201 -0.17871031926991654 0.1597105326557267 0.29546984041933744 0.35411368904396723 ]
[0.31629522299913587 0.2688780757353092 0.028408956729735337 0.19598583210361897 -0.15547678164027645 0.2023625911388738 0.3357681313329279 -0.23546287456784953 -0.0074519726488888475 -0.07578491815510617 -0.14152584681427516 0.08913222122222196 0.19020769644513058 0.20181459685259856 -0.18874295331190416 0.07094846650585204 -0.3318170849489781 0.2649155573816363 -0.06362450121328028 -0.07373014231179584 0.1459163115150507 0.16773003109047793 0.44134431268535335 0.27442650567608134 -0.17719451812138493 -0.08071358261093022 -0.26097040791678483 -0.0546971282555586 0.30535812361977266 0.034955363362723334 -0.234847472349166 0.019737737588127337 -0.2494875716900759 -0.030562551575624278 0.007648117431518821 0.2219974045710731 -0.13233467277371905 -0.03672558623026193 -0.3538509333314616 -0.06428786513538189 ]
[-0.2517839358634121 0.124018960756144 0.08065436233608438 -0.2595765739960818 -0.1437329755875918 0.13879100065141797 -0.03811323087342892 0.029283424337209773 -0.14687223248275402 -0.29374241473179313 -0.22270490000958854 0.21414407021281515 0.22494063589096946 0.13354103006646292 -0.20835402536358447 0.14035279246673174 0.14288657778378025 -0.20081695856215465 0.04291807081636202 0.10950296146044172 0.15241737555066032 0.1870149536507072 0.07909017369634441 0.008089976097292428 0.2716126734882838 -0.17398478604556455 -0.3189855992075482 -0.01920771870179055 -0.05327795773793758 -0.26232349774275254 -0.23113004027980988 -0.0596257488159188 -0.2583526721843001 0.17830008081478207 0.0676433624000362 -0.006749436058780986 0.04258983988756919 0.32501146749115734 0.19790099419752716 -0.0005627293861197351 ]
[-0.21819504930436454 0.04979456420504077 0.1510634715784846 0.09438113353927768 -0.1597750085315865 0.1609113861100545 0.06671604973757735 0.12662512985943813 0.18650006558064408 0.07857958534629012 -0.06346624570737712 0.10842157046914126 0.22026167508529404 0.29660806424700553 0.18108162098722375 -0.2126029941168399 0.05340525700055091 -0.06785805386630292 -0.17776639824660787 0.24512983261668073 0.12089213961987044 -0.2125473326220235 -0.07192553874811627 -0.18251045677843677 0.2446478173938833 -0.0177651590815037 -0.12170329857400544 -0.1930898985971529 0.18403315700191633 0.2567134162317801 -0.17383385940952997 0.023386938439712016 0.1947685309184407 -0.1314013818129194 0.2066841578141361 0.3073512542783165 -0.14267306249160056 -0.33124553639911064 0.0398105327923811 -0.2895455789086504 ]
[0.2502697451834011 -0.08358385056297744 -0.33206883884367455 -0.17334167753156085 -0.04644038279005956 -0.01072171224631148 0.15336200660144564 0.01615674029597258 -0.2793177063440575 -0.25635757484168287 -0.12469259313614854 -0.24829269323371245 -0.09655286737143644 0.004416779406921712 -0.2045785003582557 -0.26668284923235047 -0.26703706540953676 0.1652826561569583 0.3000296989605578 -0.13426192392484848 0.029895152166559726 -0.06076630593150408 0.004178690804216944 0.19996410136177525 0.012478742325174296 -0.08538435921274484 0.03692851927878292 -0.036591718561802176 0.23387604157358285 -0.19904419078002247 -0.021574153655217657 0.14476273569458642 0.1318184564613197 -0.08275892829152598 0.14818055822369722 -0.05083450952273215 -0.10470829220144742 0.05486767213699846 -0.18996093331426414 0.27681916761284653 ]
[-0.22610966941504393 0.19727769310220017 0.27765056471764904 0.04755215282715477 0.021640580864851308 -0.02691218161135321 -0.03011798186434894 0.01569821782710764 -0.02461255207660613 -0.24936485950222903 0.265416311339506 -0.04309572483129369 -0.100565627968645 -0.3047383796623525 -0.07531222443851118 -0.15354751897983387 0.24335215952865777 0.20226982886092068 -0.26851950303247557 0.12235261017839809 0.021900483576115414 -0.22144467835621337 -0.16192793893491766 -0.33446493024608503 0.08696973476049219 -0.03507418736619535 0.014757014580363447 0.26473518260425805 0.32659341924998 0.16276843591209453 0.2861642898714004 -0.06246325793778818 0.06126227108978714 0.14761956733149023 0.25437637719301665 0.0071818660798889 0.21995223755389715 -0.21876136877356758 0.35760166038022084 0.33158570957528477 ]
[0.260589656637281 0.2578431881757212 0.0009449179470531107 -0.046602427314382876 0.13447392535086333 -0.18434731204259214 0.054044288446794785 -0.14702346648734452 -0.24158172395913605 0.038341950261697594 0.2968632286986116 -0.22941175219816323 0.23699245741792227 0.25387904296325287 -0.041648934147813135 -0.19910688284784042 0.1282323011022646 0.02990862728881428 0.07963918020222417 0.03140540617351021 -0.25046114525437346 0.2152281677339922 -0.20519088896658966 0.0072107373727047916 0.26153153236625853 0.029057362628375345 -0.11028407089952007 0.13717848529081175 -0.2529433075467366 0.2413920422505813 0.03301663845144016 -0.29772873964675683 0.13884304729381583 0.2799696266140459 0.06622012368506361 -0.07519295928690782 -0.3748837253939547 -0.2167496960002547 0.2039447423376013 0.33057628445336096 ]
[-0.2353658296038831 0.1417268354109327 -0.2141663124122128 0.15292565090884905 -0.005549014161841681 0.18078610370071704 -0.27803577167556387 -0.14716354328576248 0.021728351892331618 0.3119696273983783 0.35674930127120713 0.2845909728069493 0.013165529332361287 0.19006921282269473 0.22230185310732334 -0.19615138185873027 0.25862784463573657 -0.1834336141503053 0.1492107877217778 -0.34440083198737026 -0.08229641101151226 0.1641560959590668 -0.10535330513214382 -0.1318402090797642 0.3417450394047078 0.3413727055640139 0.08377713725984251 -0.0029852724304260765 -0.11259099358422602 0.047271245098390785 0.07210500286734751 0.03430749072879494 -0.10899349787287993 0.03811966488597702 0.3296546140904006 0.165180881829923 0.1361593105854017 0.3920517742678614 0.3231554654000813 0.2854368781759983 ]
[0.10019109641296187 0.21034165640348662 -0.38414763428405524 0.0774162942911665 -0.25327668998021813 -0.3275920633387256 0.1858543500410634 -0.4153666425553571 0.1512381491899591 0.029520208365854554 0.07183609433202703 0.1142682181459069 0.2905160779726986 -0.1280051848219481 -0.15984998981148507 -0.1193392652035026 -0.15120062436770426 0.17347537291677526 0.3454333020123639 0.0703114326217659 0.2511219147776931 0.23152181995999316 -0.07705483780113853 0.07388576347289169 0.24811974365356687 0.06878819240053731 0.144588730118528 0.2897613339685178 -0.08338006932955944 -0.008614475747036528 -0.054931005223196085 0.1432492339986107 -0.149664769848352 0.20119374758826558 -0.23946056601957524 0.1558649958228039 0.053866233705332806 -0.241862521669382 0.2333251836926736 0.27635148579254754 ]
[0.2337998185053311 0.15807104433458388 0.14106241168414538 0.004212641591249393 -0.17185985351792002 -0.12589225089241235 0.2165512547322396 0.2431138113575511 -0.15701812869602794 -0.14892125210641713 0.11305299217157004 0.13348734618417224 0.09121836122251732 0.13835124093224246 0.2807792902547544 0.15551913109280868 0.1851878086502793 0.030111788462598398 0.16919402306656806 -0.3029984685908375 -0.407601930078847 -0.23385423503352357 -0.029386233573657713 -0.06420613582730997 0.3702885838236752 -0.10734172064588306 0.18800166662257675 0.14186964481596465 0.07550501861490765 -0.030662090818893626 -0.2577051235012424 0.01150916545816422 0.28458780587307003 0.3032411088275642 0.1427573151030605 -0.07620063909723243 0.23290978645262053 -0.23279302268901336 0.2853360484066467 -0.01938698688102728 ]
[0.226274307448485 0.07814352612299807 0.17056563200250677 -0.1061453083349417 -0.14699690354558204 0.3450476534214602 -0.2220584308218237 0.15314720983842428 -0.24664921048881783 -0.28522579779350543 -0.17158175510951823 -0.17704396890012025 0.15151657982739847 -0.2650227478566896 -0.16638530910894472 -0.08978463280178811 -0.10607916832733018 0.06381499176572093 -0.07705692859903675 0.1946468427420387 -0.30721459836822823 -0.272043955607065 -0.04144402046115853 0.28368440092916647 -0.0018409842360316143 -0.016010465889695444 -0.07297397062565585 0.2352369515979748 0.10554332613767096 0.3206079427298244 -0.2727507666595065 0.29693396807613287 -0.21454333321389063 0.18014240910768575 -0.1676239176012942 0.18647957406565155 0.0491481209601198 -0.24466624562597575 0.006876321304782151 -0.08523874317370506 ]
[ 0.000859765436529022 0.0060143553036999245 -0.02655590773381753 0.002654571741412429 0.0028921548482615223 -0.003277712740358522 0.01311740661890814 -0.014783497029167095 0.0016646421123045654 0.010429341687671246 0.006452545899881337 0.0021930337887584176 0.0030897988630190255 0.016841376707221658 0.07585564419602019 -0.005016110866846944 -0.0042578106979070385 -0.01108326260328097 -0.0007606030809212999 -0.0046071630661462986 0.07741555329648189 0.011483879204269298 0.006523912432231742 -0.006687669770047659 -0.0015148093583049736 0.03737139377409559 0.010162215533930308 0.02137083345154521 -0.014332752225766347 -0.014903765748433152 0.008388618524801683 0.006615056861733184 -0.005217837235360625 -0.012461600357787308 0.031999295454444326 -0.0026278989819916885 0.029838354397703375 0.0029341138981950985 0.03252508148501501 -0.008787835996895138 ]
layer 3 Activation
tanh
layer 4 Dense
40 20
[-0.24782761566822642 -0.1797781036983082 0.23343133036261454 -0.12094814387435224 -0.20374464733443876 0.16456050141598746 -0.1994230912794433 -0.2828334060735105 -0.3340212938742681 -0.10750925169542891 0.24310588965544583 -0.11417291430932448 0.14815106656285174 0.14336424572548376 0.14725199735977998 -0.07101155842055176 -0.15103494934610137 0.030890757804407497 -0.1056063583063303 -0.025773366718811724 ]
[-0.09928240299525268 0.10672897173732519 -0.0002926670511248105 -0.00015276144826071355 -0.2665679445422165 0.005306338324826106 0.0456469264008655 -0.022617847522847373 -0.15293858701411406 -0.052922524269824515 0.20391997447592028 0.13512672577649 -0.10956726838843632 -0.24135843801143161 0.2252177717002533 0.07677832829883798 -0.035885828793381154 0.008852646959901426 -0.24830550319669964 0.2550874782406084 ]
[-0.19858650901550806 -0.28278348362919165 0.02475340982499646 0.14875954271471067 -0.12169676281980243 0.027918719045522733 -0.06825832509780597 -0.07054281415452068 0.18382919801623573 0.058232850360025665 -0.028381985345309942 -0.06611227855972229 0.09963894707050656 0.24638795525845159 -0.04402751831245867 0.15822175307338887 -0.06966085438768385 -0.30449445376526924 -0.14753102742591556 -0.30910009743137906 ]
[-0.124284610496758 0.17621906925686984 0.15286547394825553 0.20962962790476355 0.2940370509901729 0.18781457633237128 0.14891103981048576 -0.048833783944769615 -0.31336532318011695 0.30332983696101856 0.2792879603572985 0.261689534444934 0.16354615122186825 0.27444991419158093 0.12183802779399662 -0.1995661467447238 0.12811461400865973 -0.22198467929731308 -0.18711074597542077 0.20794116953126934 ]
[0.018086750866121434 -0.2507648684899036 -0.10085507643505966 -0.10910730000835785 0.0970980493400529 -0.21272455787318187 -0.11104871098169539 0.006135092625102312 -0.10234117642034171 0.04975729870772176 -0.17265889520761768 -0.08259385893983666 -0.166965048702205 0.27704097306182995 0.25604257308600703 -0.06844579269972263 -0.07475138794421657 -0.10091855744401218 0.0039984548404871385 0.1795339812317137 ]
[0.015508516912890864 0.18804243880083948 0.2850895556990448 0.21448184557375843 -0.033396850955946696 -0.19653943405469004 0.19361925721009451 -0.037754784234416215 -0.11872519459594677 0.16325179577225007 -0.10302678180989644 0.008878821104474719 0.12704066813771994 0.05501689986986962 -0.318982074208313 0.16584504549084672 0.15901349304657622 0.18808716872897127 0.20760265538866393 -0.32833504830173643 ]
[0.14935623456972755 0.08811555185887676 -0.04907321321986895 -0.055913224597115466 -0.24784799807145227 0.2707051250315276 0.24476025582823682 0.11758984167768922 -0.15717248731363936 -0.0001441051548989989 0.21944541910526802 0.1766762556520884 0.31785764764231866 0.11999977309573744 -0.18035368961125028 0.05482511580184154 -0.31513612196797786 -0.21414442458879981 -0.2269016638385437 0.24993463435035754 ]
[0.2693769573865239 -0.060353494903432024 0.16497405323588685 0.30762255661154564 -0.08174771315142443 -0.0051950633630382485 0.08951670538200385 -0.2342430854530092 -0.025003018131495452 0.20559303485337865 -0.17682192138870964 -0.08852510930381628 0.0934842902344214 0.2168098272535927 0.12613537029658556 -0.1908459389089714 0.09223238114418965 0.19238047537537192 0.2977797640172086 0.2053654185018362 ]
[-0.02331524017233623 0.1998877471704079 0.11958992328539413 0.2210021212360081 -0.2724901482380081 0.1378146696381586 -0.20277053588548466 0.2815838574293397 0.06025116821786997 -0.018625421165687682 -0.28926232291792847 0.07761465463615431 0.19000461303125868 0.09144195700829001 -0.121482770679585 0.13910902994269805 0.04665897942379694 -0.20162365501778168 -0.0701784605009451 0.12408745909736466 ]
[0.13976263481864504 0.17141632346749486 0.24688548952328998 -0.043169506105552535 0.2883981854407935 -0.008060206762473925 -0.2131343648355035 0.06932133853951122 -0.11053240682464797 -0.27927864545511605 -0.27716900588856636 0.21422138194346524 -0.11505286292747416 0.2723275566605832 -0.12449141848536349 -0.26713765193918176 -0.2934690993758154 -0.17149706527071584 -0.09580607200712819 -0.15455842620889937 ]
[-0.2863557590335331 0.027363519457324872 0.1552683795019867 -0.11435210718175284 -0.1633095400149172 -0.21459325285440167 -0.053291512971751547 -0.10841042696424077 0.008585585502639414 -0.14103220615400383 0.12812671725464583 -0.3240162401066728 -0.1793464095008755 -0.016989290795608816 0.19704259599199758 0.023793820384701455 0.033898845518492024 0.29531712223534895 -0.10073453019403436 -0.3229807240685107 ]
[-0.21275975044401133 -0.3008018122942516 0.117561159966554 -0.14791767451810506 0.01584043806758874 0.22616160203250815 0.01755783876725667 -0.09295675276765077 0.07238460877418483 0.09576247081828947 0.14451567668358126 0.02371299764189835 0.2897640335907276 0.22395209629078522 -0.19435734332264656 -0.12857518215208613 -0.041891826837956406 -0.2912709761337147 -0.16894380717432605 -0.15439288934620765 ]
[0.18822625334783163 0.07937777208523895 0.15626920080945883 0.069744237165171 -0.08577423629166524 -0.06502680385761629 -0.3505721254402329 0.18442045953347533 -0.007435860056132054 0.2326900441635448 0.20876737690936042 -0.03406116397262253 -0.36335610620467096 -0.23636402919934726 -0.15254611518147662 0.0786645317820378 0.16146569450466494 0.09662719130352179 0.12242249743118083 0.17115618231314905 ]
[-0.2105089236067003 0.10266019425367358 -0.11718249614362869 0.17251276172339408 0.1563379595112185 -0.34387818782823126 0.1209885658681018 -0.17589985541080264 0.060006231428067644 -0.016306073566839427 -0.2001721704125001 0.14028929877246185 -0.011971684058921432 -0.05302358904850946 -0.1149077075556931 -0.26005287713438907 0.17108206867955136 0.10428373396279554 -0.03633659499944948 0.016163087604075844 ]
[0.11676492754384284 -0.0034775768750536402 0.27399623030030257 0.07117510066600818 0.13786153185113226 0.19529959802799052 0.10888115657282513 0.27755133428033385 0.008166094069450475 -0.12015996805416615 -0.059306173919785335 -0.2883272009852594 0.2098127217614404 0.25559044486894433 -0.1670255229530667 0.19481237129272092 0.005973366373722889 -0.19429293892069044 0.1925741169513842 -0.20241018295021568 ]
[-0.135558477255037 0.29053482480880916 -0.10126357824935264 0.16499353076134177 0.16802326438746384 -0.025744946699221425 0.07229740621153855 0.1818602605776211 -0.06820847753585474 0.046942498914495874 0.0913309021557416 0.1607219063427758 0.27302996321729633 -0.19924586629665275 -0.2541647839999789 -0.1663744246811204 -0.00309888756628158 -0.26462165381757125 0.21672028819448297 0.01474303975169861 ]
[-0.28793137521009377 -0.22660773307203338 0.25503164787979055 0.2324771313876588 0.2649052936521325 0.2606345302102205 0.25678082721477746 0.07366583937034808 -0.19926272011674356 0.039417180178943065 -0.04409995993514978 -0.3173759699950174 -0.0028866430978163856 0.368308043569352 0.30088798021727753 0.20951611602404596 -0.2357660572324661 -0.21521418975288242 0.2250338741485129 0.041294562698964796 ]
[0.20063454620261753 0.07368766188325593 0.03632526927301265 0.000666015139645025 0.22235199725046476 -0.0056460703674290095 -0.2875706614769642 -0.19936419894325083 0.30937791349642246 -0.23949127143501 0.03051630240028435 0.06943381603101625 -0.06589277852715363 -0.1612972436874686 -0.08097524835641402 0.03116146732407937 -0.2533395707787986 0.07719653470066647 -0.25021691211331243 -0.13287332916667793 ]
[-0.09342108380190502 0.24400338776291386 -0.03969385618032496 -0.10762759586290829 -0.22230455964477006 0.011487161066809108 -0.17091903921093213 0.0036261184081307005 -0.1554186532836185 0.16125766852148454 -0.28528480053743865 -0.18878963147202676 0.05669433476163476 -0.13458318255916035 -0.05660333131524847 0.2196278623765552 0.20214120035196861 0.2815533346019717 0.13380242211766497 0.21002303136196193 ]
[0.21387361861574972 0.22982817637935224 -0.19134369055799502 0.2871003173957743 -0.009188517641325982 -0.18418492650716117 -0.13118377590776503 -0.24700813479362876 0.17352243360424505 0.0847134768580427 -0.1901345494035116 -0.03565276862698986 -0.14085696093328398 -0.05047362697941241 -0.05508600368816665 0.035058484042769754 -0.030432883311024173 -0.13302695256845182 -0.2666202749681073 -0.023036714783742678 ]
[-0.046353485728821475 0.13403268154351375 0.14262099725806446 0.09178630651504602 -0.17807793388794904 -0.33009812265754035 -0.031568285736562285 -0.13677579607007262 -0.13062312950660937 -0.18080058380148178 -0.011526079276332238 -0.046141160388127905 -0.23271507497969104 -0.07968488624119076 0.06467725531472499 -0.2747869741204017 0.028308226020988623 -0.07411965072085547 0.11474215047257458 0.08534321790463673 ]
[0.2072864774067029 0.3192133102045143 -0.0022849366571477117 0.17529674121925146 -0.05409400710640144 -0.2648756657906558 0.1929503371183958 0.21164782938581084 0.03993853797506528 0.24522131380367668 0.3514632469339008 -0.029097390322133442 -0.027472420491033975 -0.05911840027372561 0.24261285022188378 -0.15834709830665872 -0.1787017694689067 0.16040597975409498 -0.2651820841197554 0.12753437146769203 ]
[0.12787992578873805 0.12891967490052647 -0.008863026770920206 -0.0564548619771734 0.02556191402253178 -0.0915731855504373 0.0009574485133978031 -0.1396745487689994 0.02192624655100547 0.28348778423093574 -0.06599317621515767 -0.11384319285565667 -0.07722560101978017 0.1975777260634636 -0.01849399499289368 -0.2697692524150615 -0.23199353321175487 0.1766038478281114 -0.2272184871682033 0.20537272694405997 ]
[-0.2554309621786235 0.1575324364370758 0.07376441474726692 -0.26195078627110757 0.2958950171809132 0.06801042227299668 -0.08852119343608539 0.022414340613605265 0.11096988246825353 -0.19958292708836625 0.12494195802441653 0.2619076852417585 -0.24981935590851595 -0.06417330259099265 0.3262921364634964 0.09021739097303222 -0.03942991725355948 0.29485344605423197 -0.3107857478188334 0.21353927042483759 ]
[-0.10795681831712839 0.1285778655921264 0.28915108590166894 -0.2817891112931941 0.14972330893562202 0.22127445442369081 -0.041982870910162895 -0.2856490177996361 -0.2520217513103263 0.17870289918591667 -0.2796460751145627 -0.18030709436071624 -0.31282615044042994 0.20835156657860807 -0.35266736171218044 -0.1625604754398217 -0.265559603942361 -0.26080003248050065 0.20372853493979443 -0.14951644334022132 ]
[-0.14803365729233972 0.1064798434764548 -0.3154580772889117 -0.05454117858410026 0.12246810769213735 0.21475704176905797 0.034490747090667 -0.06712028922036989 0.09943841583139484 0.28812195961767045 -0.07196369292773445 0.25821156883167673 0.1477920038610532 -0.15589054393468713 0.056341523980540716 0.14123344008906794 -0.055887510950537116 -0.2700062045624198 0.10286197863212851 0.003697442532210826 ]
[0.1355029294744226 0.21718083050386547 -0.20192022873458151 -0.2480654813360644 -0.09163484634872995 0.06442756392327377 -0.3372186470050059 0.08600618574635482 -0.15842931649996675 0.10666983367875718 0.18238296786217625 -0.22120628778694618 -0.18797803477979436 -0.28196066769096 0.24020558732800049 0.1981029230900197 0.0705400563988665 -0.2710721626349978 0.005432291245301013 0.13323287540730724 ]
[-0.03261422040343247 0.06977041901086423 -0.020439509356066223 -0.15130938459066187 -0.07415179449484446 0.04351753337019499 0.1991201464432452 0.04268183847726486 -0.15337233669813388 0.030471938653901534 0.10807035445108523 -0.2565408574237782 -0.1602784332477678 0.20495376942119878 0.20522229575740134 0.32356933220127276 0.21455180074019972 -0.02829296699233689 0.06355688623026909 -0.1294494383971076 ]
[-0.020748381452890246 0.11625886257992198 0.28203650272555536 0.12921045398249395 -0.17947484455732565 0.1675805337390162 0.23620516186900417 -0.10447181998692243 0.13294420722377934 -0.02934995080910571 0.24263191540668222 0.06479970277287277 0.11921125974442658 -0.33108559485488426 -0.25843634621689726 -0.11304436266075914 0.036929309517652775 -0.14025897400947 0.1547356710996438 -0.26144336160500464 ]
[0.07404806640025119 0.22143168436819277 0.29738457760342507 0.29822934815699714 0.1370898641314719 0.08819896421864246 -0.1251202092884754 -0.010699413530751236 -0.07482563818507382 0.0865726710413445 0.17180082907182004 0.04092409484163133 0.1003328642413231 0.07724815066191974 -0.008972324772612974 -0.19561864553858668 0.18450550478601796 -0.21110373083584197 0.23933751167230288 0.07970864058870511 ]
[0.11995897002151704 0.13736848629046983 -0.007482479755847444 0.113156800425692 -0.21997308814203012 0.15825065686551623 0.17841980966408807 0.03762608780215879 -0.05744557216578183 0.17275711350335696 -0.20195500122095045 0.13167172779155967 0.34718849790237183 0.11248199797286762 0.15710107538664556 -0.2198207784534989 -0.304748513797459 0.16656552393166987 -0.03281749043944171 -0.20639472113708054 ]
[0.0057711543052747045 -0.09468888307981736 0.03254974047523948 0.06979240970997919 -0.0202135101977127 0.0413880425827507 -0.2770722560491669 0.1466749690602913 -0.2802846930743963 0.1354800541780192 0.028911472278354364 0.24135988144307102 -0.26254988515632793 -0.04454362776471871 0.28629859614660325 0.2489103061029644 0.025810656658345053 0.11915111505167382 0.19544238124102511 0.11582266948015184 ]
[-0.17040471058775733 -0.016859445657736224 0.14758821832443655 0.2679490470122088 -0.29229198449737015 0.11424043756358006 0.24350883367539675 -0.2762003141350468 -0.03738849926290581 -0.03936255005128434 -0.3104599188329732 0.2597437594054486 -0.26227343465020697 -0.26794687542505624 0.03248702579277306 0.042875730933659546 0.3295523175932516 -0.017550692585859135 0.13722755334213116 -0.053564353916107366 ]
[0.10862830509766576 -0.016181054156180742 0.31313726245163925 -0.10222919994962922 -0.1371050301974588 0.17254134700248908 -0.027240854844609547 -0.20670907067577304 0.1977697959454725 0.18453878834900653 0.27013120938848256 -0.024378291490218494 -0.2862454626467002 -0.21130720098993586 -0.10488728470153268 0.05899198276590867 -0.22396722114930626 0.32087087535354686 0.007151443735266903 -0.26316793872819905 ]
[0.30852317111106853 0.18108425766542513 0.3070453753952817 0.2520724115563826 0.17060849985269536 -0.28133417521902065 -0.12820185845413357 -0.23035944486901147 -0.18317737613631105 0.20503588213801943 0.26294209148486664 0.19122429548614076 0.1223416578981623 0.05043036966945965 -0.03709220094374043 -0.1340252849613098 0.24377466752873442 0.11070373181159827 0.046022671179258075 -0.25195554584803803 ]
[0.028318076134967635 0.1825433837785701 -0.16148566552612842 0.17322626750204512 0.03453705905553597 -0.07364361885723482 0.26693158224958724 0.19980891374778656 -0.23167471865811562 -0.16750355609205841 -0.012092235689389505 -0.007681366585099791 0.20821898292420798 -0.22476211985843025 -0.10147800131926396 0.05781655514731716 0.23154816834566117 -0.25051570614754487 0.009491623967739306 -0.20758828299338145 ]
[-0.08564191141569373 -0.13356606592912068 0.2952853324359341 -0.3153357585441237 -0.3166285106016044 -0.1892969698513395 0.14722020354760335 0.11281921988226414 0.24902287231579806 -0.1811582846429766 0.037091187781955345 0.12410428064722441 0.1109713437773034 0.044640494680856846 -0.037014061121629686 0.05529328970567332 0.19456430004617986 -0.2770455607586717 0.16332444177370034 -0.14744075134740153 ]
[-0.24709776138006723 0.01380892154417401 0.2883055229547277 -0.28075512647317324 -0.011799992583120046 -0.06772051955235718 -0.031139959219551174 0.02044989936569381 -0.27223147751126886 -0.28661290885093915 0.2702309876348612 -0.0955287428585774 -0.1074322583840751 0.08109601924434397 0.2435475964352811 0.07322956397205019 0.0826417446666319 0.2761797015185739 0.014382678359881213 0.06472483378787677 ]
[0.05419037757371209 0.09444624230586864 -0.04543352634948973 0.2943292362798166 0.03823597904615313 -0.22720656550959423 -0.14190344017425047 -0.050386172272017006 -0.2021222274965047 0.14714298459238337 0.33372847854757864 -0.08849542890246358 -0.017127496337454085 -0.25017893611476927 -0.19040302068512224 0.07713694244600444 -0.12682035189685004 0.3210265027163748 0.2177979143250447 -0.31712235951264145 ]
[0.2584772517846236 0.004470751123956883 -0.16576975434861624 -0.11451542376514785 0.282387948546759 0.1223379760550695 -0.10105157410882569 0.19072876890414858 -0.13756192328847835 0.25171496579151176 0.11738125332125932 0.18031007960668718 -0.07509740725911074 0.08326861119214016 -0.1361853307523043 0.19025074381081208 -0.15408720294202888 0.2788541232724657 0.07416226142518659 -0.21146342452811015 ]
[ 0.006518967493144801 -0.004436694584464386 0.004031299570194321 0.010618437865127575 -0.006334510532265882 -0.006554620572362785 0.007873037689326236 0.00010306621252096151 -0.012707610743143324 0.010477831781318236 -0.004942370133810624 -0.0006926580756282975 -0.0068003598883968385 0.006250540340052399 0.009968714430451558 0.0005883714885939676 -0.00322620928083854 -0.015160293764385714 -0.008713868864612787 -0.0008654029065750742 ]
layer 5 Activation
tanh
layer 6 Dense
20 1
[0.05902866212657333 ]
[-0.2656628452179587 ]
[0.4071602587419928 ]
[0.2361135931792489 ]
[0.13953183823327023 ]
[-0.337949456991628 ]
[0.1871517566484853 ]
[0.24887158590685662 ]
[-0.10328544984157245 ]
[0.1305384470873845 ]
[-0.18845552287779474 ]
[-0.008136378761326482 ]
[0.03411474029376114 ]
[-0.4766731045565307 ]
[0.2658433640202611 ]
[0.36370203961117537 ]
[-0.14787799019022554 ]
[-0.11942457045391608 ]
[-0.22511483379806863 ]
[0.2816879058588666 ]
[ 0.006958930534601884 ]
