layers 7
layer 0 Dense
24 20
[0.23294162038049676 -0.0611463674480083 -0.22004268686978473 0.1295283291564283 0.05204401206072695 -0.1605226625054922 -0.31219349649323974 -0.05755556459775525 -0.22280125614605148 -0.21279917324659609 0.15105417426762488 -0.3298510323930214 -0.1625726559626499 0.35411358204454313 0.14382810028830334 0.022783094262122838 0.16967012451586488 0.13850193280547216 0.10872497570231823 0.011460368743994016 ]
[0.3288388411177841 0.25624450393061665 0.04786095791938077 0.23742472706768525 -0.11730926969784183 0.21265901733178688 0.33343559432597786 0.05985159913311318 -0.06770006412773431 -0.05929499211158987 -0.17993740366796374 -0.3114187487048881 -0.1788080961309075 0.054211484540974374 0.37409414417645387 -0.14372470059395248 0.27955310777768216 -0.05857568649465789 -0.35138099581691606 -0.16996948506166892 ]
[0.2643344840889896 -0.2267149713351596 -0.25967446959619206 0.09932037888397015 0.25839063412477264 -0.35132574235672126 0.24339443324444077 -0.12145302394483688 0.03968301234841327 -0.350072522524097 0.2197182563496125 -0.24697351311011037 -0.2321382842198758 0.20626226792238758 0.2973013380404188 -0.10032457838217439 -0.11582102567108138 0.282205101686928 -0.1527689749716852 -0.08920604771017004 ]
[0.16077019886654575 -0.25889722023494544 -0.09024367733890903 0.1915592558872686 0.027407197528020302 -0.42113354291450145 -0.37292218038543573 -0.3459865007441289 0.4194983221089323 0.10236553336541053 0.3612049794834232 -0.009523348983030526 0.2266050447515961 0.3003084388690102 0.02729870814477292 -0.1047808216086313 0.02966636318008381 -0.03479842098876098 -0.04981513015223271 0.04860268034854919 ]
[0.15981125061042803 -0.2910282399654821 -0.2905713746017728 -0.3651549169329116 -0.3113366167440347 0.3105933707689294 0.05035368218231979 0.008459279954099935 -0.4898908159656651 0.22632100651094553 0.22655683328754606 -0.22881645621881436 0.228000941322105 -0.20749441673578975 -0.08787207671035896 0.3200152486382209 0.193901856541813 -0.2702182235233105 0.03980822509143248 0.08980655433006435 ]
[-0.0731314135408562 -0.03256896413661634 0.16261519230292582 -0.27780748378848846 0.26180311568996 0.20716922240443109 -0.20834931985714547 -0.07195410847890864 -0.02174595082836823 -0.30700744354896964 0.07573563850157164 -0.0758433128923374 -0.3250914286069464 0.0614202715553457 -0.1715694451670319 0.07554471085923525 -0.31551545774991746 0.3112204091503531 -0.2306014689095119 -0.17690486696923058 ]
[-0.09868067734364512 0.2595150521892157 -0.005707882357557821 0.4409724097166041 0.13577981263840216 -0.15150958821979676 0.22606555567058692 0.08604044767989755 0.00982322991348829 -0.2096776255080559 0.3544128660159208 -0.2436835273712964 -0.05222283125465168 0.1622556366242406 -0.18557233241275853 0.18287168414228067 0.1976982499788665 0.2876591021048532 -0.22851968586099453 -0.357731883574116 ]
[-0.04781245155703845 -0.2503842432942469 0.007619488760502116 0.009552760142725988 -0.20517413539971782 0.12078100652810962 0.2368697172870788 0.030741129749292405 0.07096382661329864 -0.23012573025502586 -0.15255698095785009 0.15000942346287388 0.18186151345493196 -0.413555610868836 0.24035165921506926 0.04970812178294502 0.19256947874686056 -0.2750686105044355 0.29116779629234196 -0.22213670962142443 ]
[0.30396707015930935 0.08075502928708933 -0.3310401959643204 -0.4490124253205204 0.09233774648166534 -0.17137823382072512 0.34049236171865455 -0.14956107539556107 -0.1812900982911505 -0.3613462252362929 0.23697182416194984 0.01963364325084906 0.10603858766761894 -0.09262565571186866 -0.29684026654923346 -0.13507066013310204 -0.3374961413143332 -0.2830132799896747 0.08833666395172797 0.05010352104913537 ]
[-0.3575219336736046 -0.17384119717721366 0.24846545082173513 0.19689566094170388 0.14304714602652063 -0.10887008005286676 0.04828188054791851 0.29232147910323364 -0.42626293962455236 0.2730891878534176 0.28646198644772336 -0.0036076253731793075 -0.010625680050320054 0.1163593740619537 -0.3677386494698193 0.42568852041381866 -0.02687702324820517 -0.3195475261139584 -0.06619653614802984 -0.02410071847620475 ]
[-0.05188675276740669 0.04315537953448304 0.05907223844665466 0.29021044705360904 -0.007559544881175656 -0.2112954295011461 0.06718806242675808 0.23446751771530017 -0.025842239215408475 -0.1476591010116679 -0.18257215739463944 0.25597413685932685 0.3649174193837791 0.27670431534308176 0.38898809992349404 -0.27723922291170283 -0.24049836833637914 -0.36566000635316087 0.0801247902156469 0.15278814363581683 ]
[0.235253707143827 0.12616998001843968 0.11638780174610003 0.36716142772909033 -0.15155489813681647 -0.24901332019196853 -0.07054818539989596 -0.03732397948507482 0.07479753237299058 0.2070689720504914 -0.2493057548429362 -0.2382837232665569 0.38944649133473835 0.32637903137983515 -0.4457729425931606 0.2808238306050584 0.28190762321347484 -0.1387799717484106 0.20467603160388437 0.02771466971475367 ]
[0.3504436810338056 0.2706018690365972 -0.17736846672670448 -0.4978359458252052 0.4019485756284189 -0.1417936640959936 -0.15841396348465003 0.12286614839531408 0.3133031518931088 -0.21993041676816494 -0.40364234583622693 0.15815483262286698 -0.12069196956964902 -0.1780255328454892 -0.25079850314551455 0.29397236297893264 -0.3441699512854589 -0.28476791061568063 -0.16486210593039402 0.18126129351401934 ]
[-0.21123887585610118 -0.2488628214912951 0.006102651223960642 0.2523242196528541 -0.08219550391678149 -0.3749575892122556 -0.11461650771831804 -0.3019097202689811 0.20055463034425786 -0.20921985904452697 -0.16069153537234013 0.06497707701964642 0.06352268465242354 0.3835549265640351 0.10247305921530499 0.2598138853207162 0.22992719741275117 -0.3530293693683041 0.09222709784796135 -0.2620564326029069 ]
[0.18021285289374447 -0.25350186448439227 0.3590160308350552 -0.19028445629123042 -0.14722444492044648 0.06648382674486698 -0.1596610775011346 -0.16142222135604276 -0.06045060992627127 0.11976312381393332 -0.05837112322461567 -0.2586548986353181 -0.0013916491957675092 -0.1746659753508804 0.2082539875983043 0.05214602133951459 0.12756258537721374 -0.32772895667493235 0.2205104916760265 -0.1887742159485013 ]
[0.3358335107386228 -0.04611355633490453 -0.13874542928910427 0.19581075816956445 0.3724453052912813 0.16718139815778418 0.0036984250374365825 0.26835505304049917 0.10372698400756791 0.14197448915570623 0.07603471124701669 -0.2562992198501773 0.30900453087062785 0.2836901157170497 0.0648295670714497 0.02444059452749061 -0.07021215702027712 0.0836939749301033 0.06125801287499682 0.34334614119373946 ]
[-0.2608803910710995 0.3378759046699767 -0.3194674284417306 -0.4299858261900008 0.05183223302808632 0.24245404685781338 0.2079777634579429 0.009002816261325056 -0.33023868037770027 0.030390721820046148 -0.31968769301794236 0.41980488959248796 -0.07873105360931583 0.358781228797786 0.1402469847745815 0.3241872396746924 -0.09938187310035485 -0.051581363250854384 -0.20043952904119955 0.1517889014060043 ]
[0.17390658028654793 -0.11236372312960721 0.03528091305375701 -0.21566392377661597 -0.2815988951696539 0.37627257796225544 0.2613361199193966 -0.05607550399339266 0.0003405505029938611 -0.21339305475697237 0.12271791052674833 0.27600755870060173 -0.2503791463216969 -0.03886467476998971 0.2822122491179925 -0.3461650838689942 -0.017745721223382527 -0.009942928993843813 0.33858218346555524 -0.2130425916363526 ]
[-0.10508232405548883 0.29658241744047903 0.2504611075402177 0.07259844576275759 -0.28753356726936524 -0.011880692416196452 -0.19312429635103628 0.21835135339127096 0.161514170085107 0.1685101749014957 -0.2221357692112281 0.015632538256919667 -0.25735105795031243 0.3215555754473903 0.011061098109914621 0.11700704887285882 0.21928926141129396 -0.08807604923924672 -0.019359457250162214 0.014804076451028318 ]
[-0.0823769722620565 -0.15896468795180993 -0.21810937949113837 0.2084447470036739 -0.2949841279845274 -0.3501947977103179 0.3835940159303872 -0.28162964110619093 0.11942576660623473 -0.11093411769065166 -0.3702145494438439 0.2333424951556403 -0.2763736986104491 -0.2743449645758542 -0.4459522283894336 -0.08904893539678632 -0.09361980890188143 0.22826741310170715 -0.15939742709666355 -0.1670263486608646 ]
[0.19434099167853724 0.03418441069338229 0.3403238961601823 -0.3603257032123073 -0.3719274654921115 0.24728150989051761 -0.13809714745399101 0.24432580270580967 0.2034863455554427 0.18807921971203734 0.31767063864094136 0.24301013484093711 0.31408579093016015 -0.10791798523176663 -0.3557901181695876 0.11323303211525385 0.10281077245685474 0.17053309193107882 -0.029558235575174927 0.22064983871471344 ]
[-0.18167612552115397 -0.09727377388716411 0.052922598467347204 0.22042090475390275 -0.23873406435098385 -0.3316626210379346 -0.25353356953847406 0.18062468102226692 0.1814888405979083 -0.15121417991520134 0.13712880500615124 0.02006444364613113 -0.10937296809790871 0.29562328057600473 -0.3531880230385797 -0.293860186327904 0.2518254888919908 0.3917660963979752 0.4422793262623695 -0.05467465178088429 ]
[0.30404659361291186 0.25670265383424806 0.2781659488314934 0.12527824684817915 -0.17309629934992007 0.32318111447922426 -0.39199029319360057 0.34831641881885045 -0.4999295211447314 0.04009993829887342 -0.16270678945505185 -0.30451387803242025 -0.2625244323020909 0.2583544391567737 0.005388437288759728 -0.06140085667141787 0.33719101163193754 -0.16228840822153862 -0.3302541979601258 -0.0948710454915524 ]
[-0.11864296853533632 -0.3125242602461188 0.3190106745427365 -0.24015609000580948 0.17452982847418946 0.0522925536561995 0.07335345635191641 -0.22604783403971232 -0.24618003445364423 -0.1362540632340953 -0.029780078703226968 0.2344832817773129 0.07864993757030628 0.025940221029317288 0.3000192061549758 -0.13851484568413813 0.2419110729483721 -0.15342898570641278 0.004084399100646157 0.1509256911816283 ]
[ 0.03149254150362272 -0.03071559014748316 0.007148733971079546 0.1083116965750411 -0.002267933334052905 -0.039726049284229834 -0.07102789393961481 -0.046772852792797665 0.02106884106421481 -0.016127088030201152 0.05816717587167717 -0.059808365494274617 0.015187257932749299 0.03162710594186185 0.0622606310947145 -0.05152145219131337 0.016608951957388086 0.01797688151417809 -0.005620849800007197 0.004714193002082296 ]
layer 1 Activation
tanh
layer 2 Dense
20 40
[0.051844754285656776 -0.1447727882931116 -0.25700307178011444 0.13070874911206223 0.3220801124717527 0.3004375540785318 0.16933273133158458 -0.04816565526650535 0.06520988576123025 -0.1668800890006539 0.0485568169121064 0.0023688026090687825 0.15802414322552336 -0.32931307916040453 -0.22071066576151985 0.14074314441380284 -0.20426268450513152 -0.19244874412806062 -0.2082734551817404 0.16193549551522043 -0.2036677853162379 0.26526794451449687 -0.045170587217515934 0.18258671834466167 0.28649811051307567 -0.11874464708886691 -0.021096330707418672 -0.01579413695893478 0.06997951047224073 0.13472435774129365 0.013568427598998938 -0.01751865539456707 0.021317450215288088 0.013101848273409893 -0.2522133435515593 0.023548804436037234 -0.15014605974874784 -0.3025266315692935 0.2156437528424704 -0.2269433780539077 ]
[0.11224553164771091 0.14392579883503318 -0.030925362672607943 -0.2271709639134456 0.2631169178077139 0.1347067486550451 0.06358469210132542 -0.05219822626749376 -0.10079552056950968 -0.022263842112870785 0.21057303464359303 0.03656778056833046 -0.26490978712310786 -0.11962122007770368 -0.1819459341158387 -0.16293813663286633 -0.17070212658077302 0.23529473488014502 0.2783748529014944 -0.029718298380004574 -0.20667172972477357 0.004672375242393301 0.28374993505946017 0.04106251892748307 -0.16844019294633641 -0.18652351905972409 -0.015141335647881915 -0.13574296250719928 -0.07189517930584781 -0.26188636216606054 0.34302159135037197 0.03899917274386047 0.15736855244535303 0.16225993003538502 -0.07724128618486968 -0.1442290084738003 0.16144337570175693 -0.12536960916702622 0.23683243510238314 0.2368611726153185 ]
[-0.09173026100383991 0.07267013090214303 -0.3195896361848585 -0.18708541875926193 -0.33204253617819623 0.20643266637092383 0.11064832158550202 -0.0883409395011304 0.0011263357659168556 0.18271261086683047 -0.012486215267656739 0.19363413103381935 0.30166257992462886 0.23607892965998395 -0.17824664823065603 0.055541670267693945 0.11397734106885561 0.11111452844833009 -0.04394973402621079 0.10855570370922246 0.20810379006528051 0.013020533133225378 0.130260031718218 0.16908335475692832 -0.19535782892791473 0.11449158010568818 0.2574107247299802 0.20786963253661148 -0.13605241379450833 0.12189644514246922 -0.1801710878829441 0.283693205995823 0.1762305952558593 -0.15880680369325673 -0.07434136615159175 -0.22511234544931816 -0.15036166333820872 -0.2804047193169099 0.33836868989689856 -0.014492230909735932 ]
[-0.01520096579006625 0.099223524302724 0.3280249910408598 -0.2053457021962264 0.2351029304450575 0.08290575840190609 0.14998070231918903 -0.11167000412567081 -0.026672394101739442 0.2728675725946254 -0.26465709601364734 0.03774401399227147 0.06786286817349041 0.09603664633783686 -0.0007405104208953281 -0.20647519712907933 0.16308602205737738 -0.39269757753561196 -0.28313613570320234 0.20618576067777267 -0.26633975946425437 0.07357856315268034 -0.1307096600433995 0.0340520904073491 -0.1263552267450743 -0.17787289569462209 0.047850098643263075 -0.07966814542458069 -0.30383887982518476 0.20067801446393616 -0.25751826915991544 0.21230767937257966 -0.04113671994422757 -0.013166093647188291 -0.021841302969082148 -0.2269398608635566 0.12142813820726042 0.037843364296122464 -0.07496496904083819 0.10116181142875072 ]
[0.1382551356788144 -0.03042768928959392 0.0806700526877028 0.15491728963485202 0.44126285742312615 -0.07444425083077479 0.12584082533967916 -0.2677958323651101 -0.24843913381445232 0.13663241076711682 0.029568638232790788 0.07616452981050555 0.03480549718626737 0.15502621571566322 0.08846321096982866 -0.182167791315326 -0.2492290730866148 -0.26157209319554936 0.04463602056425267 0.1989981511837067 0.2556119000872142 -0.11871928515378004 0.016447982166075917 0.24812209099777027 0.22587281390487088 0.20888882102498585 0.27127594130190724 0.17879474536757234 -0.0460393598130312 -0.3628083400577702 0.2524598872897926 0.24945338405077988 -0.11282885732376714 -0.2072988658200482 -0.008075596835990344 -0.2657140778697528 -0.27468178880856653 -0.2882135736609946 0.04084452381654615 -0.15402782463561543 ]
[0.1950371145324837 -0.039945477149060465 -0.2832882329151483 -0.001954932564261096 -0.4378973804516253 -0.21925200781874524 -0.041128826613129554 -0.2743423225453549 0.313552779097311 -0.19637997297243465 -0.20354128863922952 0.027671270176930038 0.19593986935530197 0.35685933970947237 0.20255432444296437 0.07503872894271146 -0.20911800268250885 0.4090295593522986 0.17710657887757675 -0.255134666381317 -0.15275554422012078 0.021088544685172673 0.15568728717954042 0.3118762013945897 0.2757137010571934 0.07267503426266189 0.24890719145635087 -0.3471875371620029 0.2296170769790564 0.03908537905536662 -0.23249018247453032 -0.16873791051441994 -0.037120128443947104 -0.143221586978791 0.27254560396078076 0.3242622847903735 0.18178428311962833 0.21804392062465872 0.00788107107822823 0.2616856218677437 ]
[0.2178991858422478 0.2669192985012783 -0.27703166166416504 -0.24366355089297648 -0.21259806262536293 0.02655546974761521 -0.16389615088002868 0.2661014253506169 0.07781619006429825 -0.2105034699891371 -0.07719477582070655 0.2990570782574387 0.26726951646001645 0.014227918636580857 -0.30281792985034245 -0.023362671350329614 -0.1736304375714336 0.22365827300421137 0.09204832712288846 0.2556737987963311 -0.1027108149438096 -0.15756346565479887 -0.10311289499406329 0.2555000636007684 -0.2838225263698927 -0.1814355613304736 0.08074542244854022 -0.25775490631431464 0.013613966916601111 0.20771321788999542 0.23751250298391519 0.3093079685501557 0.016473467447277297 0.002627618158996991 -0.22993694324010858 0.13583529221680257 0.32577653081653973 0.15217373916881488 0.017111058675767014 -0.22697069835895262 ]
[-0.21246837236917152 0.040459263231210796 -0.08800487193395608 0.03520249544347099 0.02573236144082972 0.19551155938535508 -0.08660185403337795 -0.016935357250847584 -0.2514967871963527 0.11091415487641228 0.3028954567051619 -0.11124514663936569 -0.30813794056333665 -0.03626333396227227 -0.250576941535923 -0.2558401294242678 -0.15792760089403246 0.03877867320780697 -0.27443582024642366 -0.14765169839418657 -0.26960737858612854 0.10135756919669782 0.2457460832303278 0.004453821729710059 0.005202747622843149 -0.2793989887370448 -0.013405348962659032 0.09039874130416164 0.02302032449585989 -0.11528859023800661 -0.24374507116305524 -0.3001591524718702 0.010258249269725853 -0.24814528672976283 -0.21149977796714042 -0.031941034445421804 -0.3073464977433391 0.13070160700427824 0.19872698311041984 0.010022728048123198 ]
[0.2541636674930036 -0.0492952016424794 0.3848747866894022 0.005983901041410643 0.14071118475263716 -0.051137090838837725 -0.17725621543791442 -0.15293153449081248 -0.11781647514762503 -0.25164560612820974 0.20547672016948812 0.060214979606697465 -0.152014393983251 -0.17618029266787222 0.010881243595437006 0.24188890451025402 0.024788451583669917 0.04517573769376994 -0.3169106305632404 0.0322644225090322 -0.039459034266101325 -0.009056438288821656 0.03020494599172407 0.10871330423296609 -0.3495306815331759 -0.06190921780955509 0.21065340342658828 0.20291277840099609 -0.25941766413998024 -0.24344922501668848 -0.18866862696227815 0.23567345276533255 0.27677345416099164 -0.11798023359100358 -0.30938897896645884 -0.15809218639146136 -0.25974574039219356 -0.19883745912927267 -0.2850844887270933 -0.17918931665606228 ]
[0.24790324098645422 0.22252482229347573 -0.2889983434092981 -0.08065578778385453 -0.1974543858813521 0.07645744255408181 0.15358564495553184 -0.13449847120457492 -0.20159329717959545 0.2942970607712779 -0.08646443213621254 -0.14418778497734377 0.06534558032754335 0.1813447442314922 0.12148168963792995 -0.012926285659653496 0.20922609479103824 0.33104123352291814 -0.12940238444696875 0.015868552927497132 -0.25788364257951757 -0.23716731415572745 -0.20462573041850832 0.18788662850578686 -0.01995760280968107 0.008519777926341187 0.074732031308488 0.021070029083109478 -0.011557681671524125 0.10365364445812822 0.05289575462049025 -0.14719764667019786 0.022431939136331867 0.15733660230995175 -0.07108830876144236 -0.11353439114844123 -0.15130461246074917 0.06943853370294624 0.24632627948069127 0.3167186561679911 ]
[0.15184069284082413 0.09835090804489242 0.3089335573617332 0.05189654561079182 0.3262194622206797 0.20860877833986485 -0.14873415243361046 0.0827901427357165 0.15095898889814705 0.08140818852110818 0.22292677671018266 -0.0830448650315171 0.22006525719039705 0.011924881172138828 -0.2893221845495814 -0.017496689784233257 0.10982928640980305 -0.04208291341619842 0.1383562337144976 0.08806017606012975 -0.0034329682319774834 -0.23264324471213527 -0.26954300161661915 -0.08337314497002633 -0.2237129810918482 -0.305796001364901 0.013014090019647699 0.14348793629897644 -0.055249501460777284 0.27772066000768714 -0.019023245504001578 -0.11887211400754193 0.19036201026388402 -0.1703935975581905 0.1640431148030699 -0.14364044288671413 0.0013111979229941848 -0.10046701852510571 -0.245132550928722 0.18436768666367706 ]
[0.27489970637513794 0.10565667933002681 0.012596636838917779 -0.09659693271663723 -0.19837864965288807 0.12311966536751606 -0.22477963062086467 -0.20843775102666412 0.0871264145957388 -0.12742770215661306 -0.12275049789625575 0.1985886753240148 -0.13138007454885992 0.05414772544571415 -0.24982017902616013 -0.29125415407416694 -0.1424335696668272 0.15186200029913377 -0.1400526042552242 0.3012353546782631 0.2909084324710419 0.020477594058888802 0.25582127655340103 0.016283601635713917 0.19284365106556461 -0.2848640082055325 -0.2562262796569743 -0.15011274805107014 -0.18052390347105843 0.26736576078323443 0.3309598618373688 0.15490550997478056 0.048091640637346805 -0.25905591507744 0.09051190128191547 0.18325258402641864 -0.09532845159665304 0.2384859107217872 -0.10749958453215128 -0.14138099829751613 ]
[0.012513168086562864 0.16262703909148746 0.33234323258291243 0.2928434929098625 0.18227184839262459 -0.04982991391963625 0.2782393405983397 0.04428066840850266 0.03329019789986125 -0.18324406491643636 -0.05113904624449927 0.3148996378585925 0.251524721887289 -0.18052518017429436 0.027726419771127508 -0.11173651529446973 -0.07968035718303343 0.12774515949144205 -0.05763024249728363 0.03609138628785168 0.23612068914087378 -0.2796280880445992 0.08472906018801013 0.13644918590423463 0.058074417733328575 -0.10224052099627372 0.15609649904637957 0.06586183148094037 -0.04719641359389524 -0.1330141253120898 -0.18304702265827705 0.18449408020459357 0.10947788812858324 -0.2868198814179683 0.3050863410100682 -0.11605096451586354 -0.11848047234694847 -0.2260681706359226 -0.34336805958767375 0.16874292234955976 ]
[0.027996662087512277 0.018873173342328284 0.24169937033823133 -0.19861632524211684 -0.08392117085269539 -0.1625441409932941 0.3173923414304105 0.26041168148369437 -0.020664042831557337 0.02783869937342978 0.2048352882729107 0.19774853950960466 -0.3730474172273608 -0.11781110397247088 -0.3159994260012833 0.10435141269805355 0.04504573615152997 -0.24358606382935946 0.14712525210908695 0.3427191392404708 0.14585141081030842 -0.2513195914801492 -0.026787938677547883 -0.2181369258638077 0.23044864554514768 -0.1441859201442521 -0.2604816474881828 0.29778150079929655 0.25463051797865704 -0.13711020371737823 -0.279576282112079 0.15164753167589246 -0.005055014684253017 -0.21776196645143633 0.20413213194508792 0.23029472530766376 0.11380759299957671 0.0600070391386707 0.20288381978521175 0.09004290891830671 ]
[-0.03914232243830676 -0.29854813448068596 0.2753460119984679 -0.044310673770620236 0.004049396351260514 0.1919250616081577 0.22857751969790546 -0.36142095039679195 0.2344610857818339 0.17742814407157095 0.2156629753197325 -0.14532115692453546 -0.2720604561003669 -0.221724106064209 0.03561277511968248 -0.22589289925193803 -0.11616197156540063 -0.2124996172339143 -0.006095155561984465 -0.20766014692527085 -0.07397252462702518 -0.15294460894604298 -0.062338851975274424 0.10703143834772152 0.21764613496638552 0.07568702173623247 0.05682952051768469 0.03256022808693991 -0.1724940406425464 -0.14505449011160665 -0.07430499986910824 -0.005230997338231414 -0.22661662267050042 0.34199596967545376 0.030747247392306012 -0.1169239175603655 0.15877432335589312 -0.28437409083339205 -0.2607240886074798 -0.385065768197683 ]
[0.04406405406667795 0.15814740987223957 0.09162108891086951 0.20619032027661932 0.2901397627188171 0.26193618908633765 0.11052896426448755 0.20416402845035964 0.043767538638145226 -0.07036464218746663 -0.2342222827485224 0.1088343795274394 0.2904776979977377 0.23240467111743107 0.15292436382701677 -0.2428345446776408 -0.26151171642587134 -0.2412797562583397 0.19845506856795742 0.25049113384331056 -0.026901167446188517 -0.13537639382491676 0.1940714494218173 0.021896180597836053 -0.24943538355097372 -0.3226398281244427 0.1613137089046005 -0.3257113495783672 0.019286861458058642 -0.2703350429569259 0.08772886894212276 -0.20465485498970112 -0.21687974459397316 -0.10220074465101936 0.2081968073697725 0.02379886838058083 -0.15715459736957174 -0.13173666267325412 -0.15668412798987813 0.3234051702559721 ]
[0.2501284745232177 0.3284112997812684 0.1776865062988985 -0.3144152217077771 0.15506404206823507 -0.09613462682186417 -0.03659350696265033 -0.14926138224504548 -0.1283654537591041 0.04482104178542524 0.3274303569959084 -0.24996547201039904 -0.1877885484303064 -0.12440189320733858 0.002933562510828677 -0.19353985225032594 0.22643128331882412 -0.1348575909228201 -0.0192436375370395 -0.2149688564759268 -0.18858433830935845 0.14993986821330238 -0.04680826566352487 -0.03872703484312274 0.09242073966746012 -0.25546633463056706 0.059209316389570575 0.21136659067182373 0.16264237089808675 -0.135623215541458 0.24371990146293382 -0.050000976042133195 -0.09567551293409064 0.2196770259357118 -0.17094719909500097 -0.2995502908837654 -0.21165198484246533 0.12982318487790084 0.036339329362613366 -0.2841750516263305 ]
[0.25048181833357425 -0.29072599954406747 0.04820243864987711 0.1535770387772417 -0.012201331641061157 -0.12769993544629696 -0.11396945916543283 -0.01436375449022493 0.005662291306440237 0.17756312669635974 0.23890447571567425 0.2475869247185493 -0.3239132258382825 -0.2710552439069022 -0.055182191622345396 0.2897599679985367 0.15610364019747064 -0.35634147477368006 -0.12262788240300412 -0.2374376495799426 0.27820077176201463 0.35168426938865643 -0.2819922669716558 0.35634231426334984 -0.14100994242581188 -0.11386730502750572 0.23475478099245878 0.22479031829269397 0.13670284365226104 -0.07176084791178612 0.18270108423135384 0.009481932373021406 -0.1856253517520296 -0.3095402601975669 0.025022323356574654 0.09796899255171967 0.0047107129343845824 -0.1317339096145619 -0.15505294012860443 -0.0711225331715707 ]
[0.1785396571318216 -0.07681746504540266 -0.1648445352250164 0.03369434979325485 0.14106663637412042 -0.2136682275479312 0.032860439476799355 -0.1485769576098992 0.26827723953692356 -0.2437963322990477 0.26851238016786094 -0.16077053607411215 0.13928835401518935 0.24881373032420318 -0.1637177159753951 -0.1726128728070053 0.17940481283677814 0.34072142859779964 -0.07806529425260757 0.11371346767991203 0.28012501431210446 0.2867535540185509 -0.06367211634763628 0.08431908788684825 -0.020970937592182763 -0.297112521571183 -0.17897713617958347 -0.13271033821574832 -0.030411168793379257 -0.04875142714378201 0.07778288827762689 -0.036402273102900166 0.03675939384174903 0.2142646630629246 -0.2193378583994088 0.1522647435967797 0.25345232448003563 -0.08586948442994266 0.0058421325592849455 -0.2572683097947964 ]
[-0.19019888416793465 0.03054861581724929 -0.15033309592275548 0.17221478360667422 0.07662807506837982 0.08354254242073625 -0.06331875077850432 0.32596538660210783 -0.048529915707450695 0.14016181151842017 -0.23374688799422844 0.07433059966318206 0.24320236251338237 0.16091111660194254 0.18270471384173584 0.23892448495354218 0.289136504794382 -0.05408957199089848 -0.2649726464295866 -0.10233605271423377 0.2626434192098683 -0.17503021021712653 0.28156202172269024 0.2718870248935064 -0.21473385319093088 -0.16291937535738477 -0.25460320141537823 -0.11946116791680468 0.260789740222666 -0.26195372637933495 -0.22772078069896926 -0.1497863315278065 0.24389872152441447 -0.13446913492257312 0.09944967882187733 0.24185732839675428 0.21711167170773052 0.16863002842123304 0.2033962444573742 0.13984442539024303 ]
[ 0.03221651082001961 -0.041794258359100826 0.01040273186404737 0.031542100271298244 0.1270920678258541 0.0367361540108089 0.012383357982209074 0.017881862780100684 -0.02146879718110282 0.027515583167673243 0.013944286847636725 -0.03468114469166163 0.018985360377590032 -0.03766685674157719 0.002787145289829897 0.02100521585752544 0.0010101197281046402 -0.044191911933582614 -0.014519015447776154 0.024403154058508122 0.006568774237988921 -0.007276305585806864 -0.010879981250115155 -0.005198855462514173 -0.0071558334302601724 0.02847857228563191 -0.010423258221240052 0.08356502254699154 0.00949939580712945 -0.02435957651862131 -0.008825231749435681 0.002614036216849895 0.02364977064913868 -0.017616313389695666 -0.00875860335101746 -0.017739798666776368 0.0009901694164476278 -0.006908079423475291 2.913421023568419e-05 -0.033587550374908244 ]
layer 3 Activation
tanh
layer 4 Dense
40 20
[-0.08260030518552545 0.20647684978803313 -0.05794058694783068 0.09445775226925443 -0.23085409714981445 -0.001119083410679587 0.2976959144681979 -0.22283431738086107 -0.026287715283233672 -0.3282271348390612 -0.1824677066279291 -0.25701538429565673 -0.13662154598042275 0.16946531198649512 -0.2554804951338051 -0.3148188396636088 -0.006014097039399607 0.053588002583630306 0.06639871853256252 0.04753106716822157 ]
[0.0631426585582724 0.10536497033656304 0.27023034915493854 -0.029946334536499312 -0.14012041097079045 -0.1548468418298777 0.04630486684422206 0.0026539432684976948 0.10530806986642047 -0.050734969207331546 0.27400445978181337 0.3059484197444996 -0.2799969414094528 -0.05213204198226574 0.22315970129555843 0.12628792026998417 -0.03817191232671274 0.31414972843938316 0.031155008500530944 0.30946458955061723 ]
[0.12424689612679589 0.0567218767018088 -0.22794282149337586 0.2290509215777979 -0.21659460416599136 -0.39213112762337937 0.28208379282868734 -0.0013271214947448897 0.19900465255480815 0.0031566568271292677 -0.10897400337956936 -0.16138508120783304 -0.21621701678769564 -0.08093180111405088 0.23801083742136486 -0.14916527022029624 -0.09796819525257829 -0.046066156672583444 -0.3138035717112411 0.114372412254693 ]
[-0.27118691548193474 0.08979275587591333 0.1498520661815504 0.05238554138839859 0.10070871717797558 -0.17924953001433933 0.2271893410797038 -0.0853067317245172 -0.12951918892829034 -0.08054643949119408 -0.16677883047517497 0.047328087879412506 -0.1250241218246591 -0.12196032345771946 -0.32766079234307205 0.032657123641631244 -0.14039163358193152 0.29541941743167627 -0.004024983774613459 0.12218838177236395 ]
[-0.006784458542001154 -0.1398004822904937 0.09263402519441642 0.1704479766421127 -0.1695059077032564 -0.12429907714882577 -0.03687524434669834 0.20334607872589758 0.1687587833232285 0.2126557720829659 -0.11077903717514326 0.0059037758531871355 -0.20752542416292208 -0.1492987091967907 -0.22468189583307524 -0.18017301459209278 -0.12456846663247025 0.1058276665120656 -0.07403563017042306 -0.3124858457015523 ]
[0.08278646659908483 -0.03818100013662891 0.02133929416194074 0.2155108866243009 0.2082289356825474 -0.18654808417406438 -0.2144631063982778 0.24355520446562492 -0.27670327633030956 0.22013003066979014 -0.21009777671334612 -0.01460210280766719 0.25232221197671606 0.19347245793629075 0.12045294594249442 0.2673167211562494 -0.24841040539924322 -0.023016119955888627 -0.06158361739334944 -0.16736027491333424 ]
[0.25100141813577903 0.3363953957022221 -0.24522714174322496 0.3039991302897378 -0.027678333813158502 -0.005925153447464484 0.256738547355987 0.13110537928293725 -0.044244398913797486 0.02977512291862132 0.2263211101298615 -0.1967670452034597 -0.08442108540783885 -0.27725225604684556 -0.16346912077004164 -0.1317765627383289 -0.31570901349613034 0.1973936074111797 -0.07599857562138405 0.06649584234813789 ]
[0.036576957405658014 -0.0986854544052661 0.3073115341594998 0.05680677663177572 -0.25939843258945355 -0.0931877446962001 -0.005865355745440734 0.09469545331242706 0.1232953996663133 -0.3002833399664227 0.3300333238294491 0.01842576683463413 0.22596070284509037 0.21477173549243095 0.24200462869962788 -0.03228178669770404 -0.11724867591482395 -0.2119233634551741 -0.26120490272630964 0.010282722316257 ]
[0.1131033944910321 -0.25276568752277434 0.10645605891051838 0.164841579768054 0.10732787733557862 0.28556674095007845 -0.18602606344183925 -0.09853736939164986 0.13039292190141177 0.0289243004215236 0.1525158335230953 0.24294637536552988 0.22565135773837963 0.07321451149887734 -0.055552405219025894 -0.2610791326214961 0.04836866460085813 -0.18009428032985011 -0.1120353488999576 -0.1424097077786898 ]
[-0.2558090057670482 -0.2756167203540135 0.099239075843483 -0.28444979440372364 -0.12426031573716578 0.10146137975554267 -0.11158516950615589 0.3095349993610661 0.24795911914868604 0.02195464054636718 -0.17748979724363462 -0.08628473798193138 0.1444316475949083 -0.2861349067950888 -0.11020852152173834 0.08198243526577231 -0.0271265768899393 -0.01299474830449183 0.16441005688758187 0.17464596355313824 ]
[0.037608963401598146 0.19357384968093488 -0.20955858489066848 -0.1541255376407776 -0.09657616141422487 -0.08699771945266317 -0.2595857847437034 0.05296546561218263 0.1674366517333358 -0.1959527148809839 0.22918272128308084 -0.07056236191329571 0.047250374367169515 -0.1392867171864972 0.16597404116231174 -0.210603673133192 -0.19598768985543052 0.1675803237263919 0.29250144927826305 -0.22062806386286904 ]
[-0.07468300845344036 0.1287803653406092 0.15907041362222035 0.1438544003413967 0.21393931600722743 0.26545686211696823 -0.28003293350091596 0.017973093091209598 -0.0715516015984497 0.23094412128716713 -0.1257273488635863 -0.008542991195127924 -0.08027527934330478 0.08457578731341023 -0.17662095963307406 -0.02472178464557524 0.04102030025359262 0.1580678696481383 -0.04923042685352553 -0.071451124219303 ]
[0.01804387773590682 -0.26741454722622704 0.2648628436973188 -0.17893209805451193 0.15063394631801966 0.17112832427898925 0.039305862110264794 -0.07506673993128195 0.22421159977504815 -0.004509758521351198 -0.08050229363932836 0.1173242082499802 0.285314697034606 -0.2263193338768584 -0.26466427073053744 0.04377004819710315 -0.28209466907995867 -0.2931379568532989 -0.2222134027254711 -0.20037436612890336 ]
[-0.33331419857663536 -0.2688518685006102 0.008975589434960615 0.30821815483673837 0.06678476102123822 0.37399420668883054 0.03353595756956 0.12588138139968702 0.11783724719720562 -0.25366176855616335 -0.100663661497075 0.12069302368964112 0.10021437041625819 0.08893414085071111 -0.19637630323172153 0.17129322309814815 0.039395761066756456 0.1324545509282017 -0.09946232947893048 -0.03561978662920082 ]
[-0.15700987906572114 0.20154257103122813 -0.06788478474477025 0.11718665589845276 -0.1847820629232868 0.003240980759447048 -0.18816189632558114 0.0899622098688991 0.21422794665528205 -0.17023610132808953 -0.1638332941350813 -0.2070670238132193 -0.2818769571587276 -0.17953833225448482 -0.1528491732661178 0.021451744395475675 -0.30354568857165776 0.1365051059956012 -0.11647549758813697 -0.1942633025825984 ]
[0.28681525439757566 -0.19189591443722356 0.10694914495805083 0.031142614706659157 0.09308664086052593 -0.13189016692627464 0.28622933628234976 0.024771488283503954 0.12562151842032296 0.2724918795541291 -0.04080148011428962 -0.29129955902127774 -0.18419463800734384 -0.10325032491288504 -0.01767764773971026 -0.19486313431567787 0.18885068803146554 -0.16373800419428286 0.22747608839119615 0.21762313100825012 ]
[-0.17501388328028855 -0.1021560253164635 0.07829737394841203 -0.15328815893628694 -0.2480076995309043 -0.18544212349346975 -0.05356332442930477 -0.20801798895594673 0.24437729701235167 0.08235236884707058 0.061475221632565254 0.22889440966803032 0.1596407446258696 -0.1573001649713364 -0.002121286134413082 0.3200558415804985 -0.22835244579420483 -0.31242403350635384 -0.22997134758101132 0.14135470759459098 ]
[-0.12467379826919622 -0.20359750386423725 -0.1708245778362982 0.08814733800655516 0.04146901218925651 0.16770159596708675 -0.0029083975695162355 0.02139212299325596 -0.24431820463004641 -0.2039298154116024 0.1785970176673582 -0.275020234125528 -0.061781525324644586 -0.03271424561798185 -0.02351352920765158 0.27890776417266244 -0.2872424930873685 0.00924064021702783 0.25308734527251187 -0.15166682901087294 ]
[-0.10939272372087862 0.1462913460163258 -0.060490368241911355 0.1682996458775452 0.27834898919814893 0.09460940339674055 -0.10601012121408537 -0.21626077325840054 -0.09835573900056471 0.21734111368626507 0.3283664657065799 -0.1153909689223519 -0.04504152897335004 0.258813854298007 -0.06008433840618036 0.09835643241472268 -0.26282772733236603 -0.22329609896175537 0.07065223602582404 0.058954743648874236 ]
[0.3061752884672775 0.1058758317505916 -0.21735856090840158 -0.24312122180978124 -0.27330479061751967 -0.1506307649946541 -0.10933855233042636 -0.24085983062688257 -0.0995598761002763 0.027223438673485006 -0.1919617502789685 -0.03983613194096859 0.012536803425809193 0.22020778869440952 0.28848900126640414 -0.2758759038940703 -0.1391272539362096 0.18617024689986525 -0.28827696058399527 -0.006283770247501079 ]
[0.17197187910390394 -0.08226611799441619 0.18038848117488596 0.11762637051565661 -0.15056751288479012 0.04397112157546216 -0.003710764526810218 0.07101093035133822 0.23707145925195655 -0.032239924789897165 -0.17652439549436683 0.19009295987156744 -0.20623954266123992 -0.10050893702377338 0.22399941805013282 0.05298738646934321 -0.17351423937563698 0.16580480995994135 -0.08052062131343946 -0.2487423348818675 ]
[-0.26711134429790384 0.29566109782759964 -0.1955174347097544 -0.1666549822363744 0.25367773754683515 -0.16400709271288558 0.2724594358081194 -0.02034050388434426 0.22698907547841488 -0.2461094894251537 -0.20996799664957766 0.10829478820474758 0.020602261203983604 0.054214119130721654 -0.1582715496574454 0.16078997113330828 0.14515127163503588 0.002203961413916943 0.17907970223548356 0.02480808064722961 ]
[0.29361156545445155 -0.1444741512647631 -0.022831710074121506 0.08063860018945399 0.2292150954095331 0.25480964722698446 -0.21737212866354216 -0.21693685753882627 0.16887347303326028 0.11513701400712775 -0.26288264910996106 0.31715027324427425 -0.28202830098193765 -0.050587524402975405 0.2320083991245199 0.12362622297791341 -0.23634271668992837 -0.2725785789748312 0.22568388556632504 0.134848366266867 ]
[0.044939002999678686 0.060762222707885186 0.014125564899678584 -0.19825293854206422 0.3837864409834544 -0.013553193114208984 0.2589395021569642 -0.0711056378445666 0.055686091043810206 -0.06555941165508726 0.07037708807693176 0.13449150155267856 -0.19907168532622738 -0.3363430702445816 0.04902948199280548 0.24098298481598004 0.07792430929771316 -0.09738338627752278 0.13759526188311116 -0.22797574908712281 ]
[0.13399612065242594 0.30776858888819897 0.10610654955638658 0.27130580543958865 0.29753434777733956 0.24044850989477778 -0.2426500013969232 -0.12775398434694507 -0.20581409955970642 0.22759132189099468 -0.2776650385165983 -0.2678077806073814 -0.29487755353767997 -0.054145776863414825 -0.3166067916692892 -0.2660512208777575 -0.18541354658844794 -0.15519247913980067 -0.2396976378808065 -0.1284532045947806 ]
[0.23102684873166796 -0.15108210618055 0.20403948476438483 -0.17954584587104666 -0.18512735346098136 0.15423342392418496 0.16498535498537203 0.1217562666437194 0.09919063746731478 -0.1329828777234199 0.05845884672456982 0.2564596573554863 0.13164392386160997 0.08145409067821198 0.2832292615372372 -0.13196999059066727 0.12594186024141768 -0.12739254240653727 0.09797153439789423 -0.014399201073645906 ]
[0.16843991663627875 -0.0684335418162634 0.09319667547471876 -0.28654175349658634 0.1871000381422147 0.1513926991267834 -0.1950410690155 -0.2517118098060493 -0.021585643173939205 0.05916449120642749 -0.06032588305514898 -0.18540474878585914 0.024447563480284793 -0.1713603324465478 -0.34635485171578956 -0.2812490007677809 0.2861154903939535 -0.28618814663816505 0.1577871509899442 -0.11626531992594091 ]
[0.1839665665718457 0.1187578274545539 0.23796090444419066 -0.29655708358092003 -0.21696234430718025 -0.15064026252177926 -0.0659643311532192 0.2913322949722473 0.306037867262377 -0.2214846850159038 0.0546029898130079 -0.29181569447130706 0.07882369550016721 -0.24529678677509265 -0.29400509384810386 -0.005921064594191509 0.050813447732339076 0.11121724950909116 0.31902216886275886 -0.16879285528796037 ]
[-0.24401275361673602 -0.12006675457151626 -0.06279432371097635 -0.1398633185710313 0.30515683270092436 -0.26625789177748255 0.08937592197476688 -0.23792909984212376 0.09909760189917473 -0.24217938928792007 0.2988945574338141 -0.11430507134019098 -0.003184855648880852 0.11313027732238075 -0.11859631477386116 -0.19855379206943286 -0.2762193902083255 -0.07437315190403271 0.08792652083513817 -0.1370068985802794 ]
[-0.12360798036093495 0.21565272343917383 -0.05552253333816611 -0.11529320377984341 0.006402785622415334 0.11087996415684542 -0.0016265785432242586 -0.054572422179115794 -0.12180281989139914 -0.2539069645693772 -0.2872878232050088 0.23731368110203682 0.2808943696132236 0.3052867326774719 0.033433464957219695 -0.22367314849000997 -0.038697114614392875 -0.269637370173024 0.2120658643447522 -0.08115475847335547 ]
[-0.31167096889626666 0.2875930830069276 0.1762202228898534 0.08504378093950692 -0.20696393317203857 0.1290721039068939 -0.17723508892143483 0.16368050704792 -0.09725544331327395 -0.1260449659124242 0.09419227347028776 -0.27948101990712226 0.26808522434894927 -0.26782410479230073 -0.14755404270059752 -0.12300772658805581 0.26829646271854146 0.034335424953857906 -0.17834443689201154 0.012426222100964794 ]
[0.17856662505964657 0.060238363735832065 0.22271249031140308 -0.19634449097757184 -0.1107559551781334 0.07059033624708816 0.07391998351714779 0.22979663319455415 -0.1793406917423859 0.15450194194099695 0.3009194477795956 0.10564467984123803 0.1788138750615341 -0.2158509886108649 0.10840942163325067 0.1280527547244762 0.20119891918492283 -0.2290171329108178 0.12457410704693284 0.01771285442363027 ]
[-0.19025800139747454 -0.09388150743733899 -0.19916889117023442 -0.052597488887352904 -0.18826306221351136 0.014767281162113817 0.30535996928476306 0.3134924811639135 0.22507190632385754 -0.15110688298135197 0.13420292779328669 -0.2618449942491012 -0.005711663500417458 -0.28304041504466587 -0.03658489279745407 -0.2711283294031535 0.19780306934124559 0.07498177382790053 -0.03688615002547681 0.09583100103498093 ]
[-0.13289363307573276 -0.29374671174172373 -0.17831829321091713 0.18107411009554683 -0.06089016839008282 0.2432668785830829 -0.1459621423048576 -0.3208288300344357 0.11929437943930023 0.2714038309754058 0.17553178368831177 0.29141735902525856 0.16183953307431723 -0.04135862922034165 -0.2943821680756202 -0.12023692279244885 -0.024547079478937875 -0.18683934946850292 0.27867177009987293 -0.005397038775668778 ]
[-0.28064675229438274 0.1313367114137083 0.09467432551407766 0.2505520492478426 -0.22594794937419 0.040961716296496524 0.20996571280176426 0.008079077276107202 -0.2959660175502535 -0.2771155083186944 0.23024133654728018 -0.3110416271997753 0.16797496981785537 -0.0950343534333559 0.0349875421981939 -0.02409558862880363 0.07681100885325844 -0.052808118328348766 -0.24865303755706233 -0.1251843408855917 ]
[-0.12354322395639313 0.008314317321336495 -0.03481357929455541 0.2889963484827789 -0.19674999053053518 -0.018630525435345678 0.1776224289790726 -0.2232894298564021 -0.07376783499292928 -0.21890685922526246 0.18789268385397662 0.18976014689449608 0.2889614458429384 -0.058193845791854944 -0.016390031863773913 0.06982449164281535 0.014691297345578821 0.1034877876330665 -0.2374195822282179 0.049613591206427665 ]
[-0.15491134807527415 -0.27364139846455393 0.016427713838141244 0.0628697123452786 0.12572315467458475 -0.2548710865126905 -0.08897427427803282 -0.12732294991965182 -0.0174987517008209 -0.3112049647597396 -0.01837772042400636 -0.1364739283597928 0.14614686686880385 0.012550117632208433 0.03694232336452952 -0.034277867391511244 0.16704695588505863 -0.23928785872406783 0.13457496676312974 0.025895674565925675 ]
[0.27326731906604373 -0.04244967365837841 -0.3002143966668776 -0.10761865323809261 -0.017900972254816145 -0.1704560840106744 -0.2061326368410827 0.3016427393941558 -0.03445311764514182 -0.19700317067741857 0.017956628911171953 0.01042618152922808 0.015772395262430877 -0.21418801516038383 0.2590595494258045 -0.11964198031282976 0.20901159727460053 -0.0573036979083522 0.03643285442309928 0.18292396876683453 ]
[-0.17919385037574304 0.1672668190009828 0.07811159504568133 0.28653461620949455 -0.14301786913395811 0.20662830450159528 -0.06179277563915599 0.15247560538497665 0.08569700252975047 0.002658124062417878 0.18923655694832814 0.010299320550660799 0.1618024181886644 -0.014501910450465236 -0.21548076132100105 -0.16702476192113547 0.005792075357666881 -0.32231014815021414 -0.17483400194562662 0.041082504989818955 ]
[0.014254091338786141 0.026486601064545152 0.30371463590564923 0.18250542295502944 0.2160008799134484 0.05376326212764927 -0.13569492667639063 0.31733082766385384 -0.26248746454131533 0.12974664451370369 0.15168558520765654 -0.17334152072502895 -0.2777845962575925 0.13549907593362517 0.24566547536824632 -0.01591289178450907 0.14326615588114658 0.08323446263206422 -0.1776468843718561 -0.06475168874277629 ]
[ 0.005338311958369068 -0.001189799439437176 -0.005119099586655639 0.0023915222101315685 -0.015288049853755734 -0.037662209341595906 0.01686204628689321 0.013391121651462905 0.011096756044282388 0.04499977508725029 -0.004962570513012853 -0.03311901324058316 0.01911565151322237 -0.0018190078994849389 -0.004266261668061465 -0.01885667342141796 -0.005728579160161434 -0.017219400662063386 -0.0009639819072896754 -0.017362875006037993 ]
layer 5 Activation
tanh
layer 6 Dense
20 1
[-0.17847636266058475 ]
[0.03568450000827163 ]
[0.31640623823658215 ]
[0.07468959443321894 ]
[0.18305801410797004 ]
[0.353353711619654 ]
[-0.16709763404673328 ]
[-0.29505249662801136 ]
[0.30618463431927695 ]
[0.18282085655775057 ]
[-0.2535337927200968 ]
[-0.33195996828679003 ]
[0.17532568535192383 ]
[-0.30282152499120923 ]
[0.4390376858520481 ]
[-0.2335090455425141 ]
[-0.3138323687164202 ]
[0.0820833737588411 ]
[0.352200597387522 ]
[0.25203079816220453 ]
[ -0.008265476822753453 ]
