layers 7
layer 0 Dense
24 20
[-0.08016444 -0.19849047 0.24468729 -0.2662646 0.1457394 0.068969235 -0.23949163 0.12375935 -0.20078008 0.19478774 0.007653795 -0.026006863 0.068188354 -0.23601197 -0.27324086 -0.12623847 -0.013887992 -0.33191285 -0.33361676 0.2741202 ]
[-0.2729482 0.12022703 0.103742085 0.34042385 0.035531867 0.28332457 -0.3790427 0.27973026 0.1449648 -0.2727874 0.014778409 0.20988499 0.0362344 0.3621128 0.073471464 0.10751313 -0.2948427 -0.16689777 -0.07684879 0.29526037 ]
[0.16993111 0.3073737 0.0368006 -0.062406667 -0.108127214 -0.25130144 -0.3216836 -0.3518579 0.028661378 0.15582147 -0.1568883 0.019800665 0.33695364 0.4421453 0.22094423 -0.18582252 0.29977834 0.19131348 -0.21898039 -0.21066943 ]
[0.31154373 0.10598822 -0.14257051 0.101110965 0.15182076 -0.02441477 0.2761284 0.32787678 -0.28240794 -0.005926404 0.014108826 0.25501332 -0.07591328 -0.005450639 -0.025709186 -0.3537831 0.26940086 0.06466133 -0.21934165 -0.3015527 ]
[-0.14347723 -0.41461793 -0.19038412 -0.2270623 -0.01778479 -0.18583393 0.21849772 0.4114955 0.27575898 0.30537984 -0.099612564 -0.087167405 -0.14527985 -0.34239936 -0.3249013 0.0010948237 0.22047172 0.16877258 -0.10135929 -0.13294274 ]
[0.36221623 0.27463165 -0.22900982 0.24982809 0.14535868 0.19668776 0.22972421 0.19461603 0.2925226 0.2801611 0.14909749 0.09282102 -0.12180582 0.07350678 0.30409583 -0.059327047 0.21992093 0.3823972 0.22997119 -0.34793088 ]
[0.22639899 -0.37276033 0.34656656 -0.20153521 -0.026559718 -0.262202 -0.3488229 -0.3728118 0.10670195 -0.3015281 0.1841894 0.03298326 0.3688454 0.08017095 -0.3391054 0.3556667 0.27288508 0.17228658 -0.3557083 0.02988938 ]
[-0.047845017 -0.054457504 0.15214548 0.027933242 0.30354726 -0.036922976 -0.13973692 -0.18298908 0.02932018 0.0078054476 0.009974569 -0.23358727 -0.36976752 -0.3645031 -0.27847633 0.28719714 -0.23407772 -0.28517932 -0.2779889 -0.23920506 ]
[0.2373359 -0.2567732 0.33741567 -0.06921196 -0.079553165 -0.21357153 -0.23717926 -0.2486931 0.417605 -0.3042241 0.3756325 -0.10667861 0.041903432 0.17042589 -0.21385388 -0.27154803 -0.31051788 0.4726755 -0.29970223 -0.09159083 ]
[0.23719732 0.35485762 0.22146904 0.19463217 -0.31464785 0.34305817 -0.070850916 0.07306255 -0.29846397 0.27772728 0.09099112 0.30224913 -0.10809792 -0.12350192 0.22701044 0.21488218 0.15573794 0.23441663 -0.053930998 -0.085397 ]
[-0.29277468 0.13799095 -0.11886998 -0.12929155 -0.073280364 0.2434106 0.09825181 -0.233176 -0.26336974 0.16769895 0.2068704 0.07777721 0.20623383 -0.070735745 -0.15244012 -0.11282935 0.17245604 -0.17779693 0.07703117 0.09707998 ]
[-0.061979458 0.23880433 0.16877717 0.23754531 0.30623937 0.10991374 -0.33656633 -0.007699646 0.13849612 -0.37155482 -0.25006953 -0.082674086 -0.15437661 -0.1311235 0.05240717 0.020956457 0.14747474 0.36196494 0.1855509 -0.3218476 ]
[0.23544806 -0.070939705 -0.07383619 0.32720745 -0.21965115 -0.20053932 -0.15690008 -0.049460806 0.38501766 -0.20510122 -0.057517875 -0.019585127 -0.10747929 -0.21712002 0.026021957 -0.16517515 0.3093849 0.014809985 0.008084323 -0.3196186 ]
[-0.15370004 0.13998395 0.29164225 -0.10409199 -0.16231987 -0.16750056 0.21379663 0.12385404 -0.006081227 0.41669837 -0.12919652 -0.16098696 -0.2969515 0.2298251 0.065549225 -0.033311784 0.19119136 -0.09621038 -0.26068595 -0.30431116 ]
[-0.3765719 0.10788919 0.098329894 0.08652236 -0.18428774 0.43213844 0.40102178 0.015313945 0.282529 -0.098509885 -0.1805185 -0.10280108 0.038261916 -0.020827014 0.038965344 -0.12222861 0.34333614 -0.32106486 0.15670605 -0.41471905 ]
[-0.32136303 -0.1287603 0.42250937 0.15768062 0.0011764897 0.28599387 -0.1577454 0.36794627 -0.015848294 0.22615853 0.121791154 -0.23894165 0.061584465 -0.31659418 -0.3123805 0.22563401 0.10288415 0.05081167 -0.3025293 -0.009164459 ]
[0.11260572 0.4372274 -0.25216296 -0.20711957 0.28314525 0.068133496 0.042236023 -0.16658808 0.12833206 -0.06514493 -0.30582806 0.21101296 0.33013672 0.16040844 -0.22653909 -0.099672474 0.12628682 -0.10324759 0.0639274 -0.14430775 ]
[-0.20257254 0.12096192 0.27683514 -0.1843986 -0.3189334 -0.20126146 0.088865094 0.47413447 -0.1757079 0.26263478 -0.22357054 0.012255027 -0.01240561 -0.19283423 -0.066777915 -0.33695033 -0.11773727 0.2864078 -0.07662263 0.24796222 ]
[0.36643687 -0.10442214 -0.19097716 -0.059286512 -0.32830587 -0.15873715 -0.4890144 -0.08856435 0.13284257 0.08265902 0.022430679 -0.01941337 -0.27406174 0.3060365 -0.06256334 -0.10424932 -0.39864123 0.11167994 -0.3827538 -0.2537257 ]
[-0.36131737 0.35139537 0.29953238 0.038948633 -0.08352458 -0.25703827 0.1606417 0.34414634 0.032194722 0.3492543 0.010069696 0.19209947 0.021873532 -0.22194934 -0.0004209163 0.1992927 -0.10531696 -0.41433617 0.14791651 -0.24473867 ]
[-0.24350734 0.17099565 0.22381307 0.22023022 0.18222693 0.060182206 0.17776406 -0.13658091 -0.04438451 0.07931109 0.059934404 -0.18243296 -0.23489638 0.19410431 -0.3702805 0.19450355 0.3708459 -0.09016141 0.4887407 -0.056219026 ]
[0.24109663 0.0013414061 -0.1164809 0.1931415 -0.048507314 0.35651022 0.056096613 0.30596283 0.17911516 -0.12235187 -0.23894446 0.1507403 -0.18137343 0.36824304 0.32665548 -0.01121522 -0.3439423 0.4896605 -0.381567 -0.01935993 ]
[-0.06903287 0.04631474 -0.14089909 0.2658127 0.20992172 0.340971 -0.4138511 -0.069002375 -0.032401226 -0.02544715 0.23215681 -0.12932765 0.07375746 0.1927865 0.23373249 0.08746958 -0.01423674 -0.25515032 0.10329208 0.02700986 ]
[0.10598015 0.168268 -0.02159225 0.052695617 0.12405343 0.03772897 -0.24794473 -0.24793424 -0.1569824 -0.3701641 -0.20205714 -0.0901713 0.23964393 0.08373888 -0.040370032 0.11412868 0.2991734 -0.03069783 -0.29276463 -0.35077745 ]
[ -0.00010998023 -0.012145825 -0.021383924 -0.021380346 0.025254725 -0.014230123 -0.04118601 -0.021354742 -0.061720412 0.0064243367 -0.055888094 0.06719825 0.03218551 -0.0016678635 0.020214632 0.0010830099 -0.06385576 -0.023785952 -0.029048156 -0.01881498 ]
layer 1 Activation
tanh
layer 2 Dense
20 40
[-0.22931603 -0.13483082 0.38788462 -0.1488307 -0.039346974 -0.047679212 -0.22009045 -0.16641569 -0.18326011 -0.17165917 -0.051743668 0.14248767 -0.13219574 0.030385818 0.51526225 -0.20345731 0.08225917 -0.15642846 0.16682436 -0.34455842 -0.0054371436 -0.2720975 -0.31302533 0.18236159 -0.22884808 -0.0754968 0.14576735 0.1295759 0.15614837 -0.0060974164 -0.27799463 0.16789572 0.085963964 0.18812247 0.1583229 -0.04655026 -0.20115298 0.056285996 0.038085584 -0.1546398 ]
[0.2006021 -0.0017176481 0.06552327 0.13474698 0.14593847 -0.20224607 0.11820699 0.111525126 -0.0107853245 0.24820897 -0.13339667 0.14706095 0.21348591 0.44133654 -0.062406227 0.01706031 -0.2138123 -0.16616555 0.29454353 -0.21456143 0.014630815 0.19616579 0.018977718 0.17351635 -0.0016616164 0.037885953 -0.2668348 -0.061876204 0.18273567 -0.34321472 -0.032008804 -0.18736172 -0.06155752 0.1784595 0.18349066 0.12093375 0.23177539 0.19170594 -0.0065217973 0.22893028 ]
[-0.26575547 -0.3307864 -0.021550544 0.322226 0.24517056 -0.30741405 -0.2009628 -0.3798053 -0.30566347 0.03906118 0.06397753 0.25058076 -0.28979704 -0.086334005 -0.51014394 -0.21641858 -0.30035198 0.010943918 0.16602996 -0.270083 -0.09440343 0.14727364 -0.010661352 0.07263994 -0.0909511 0.15451637 -0.0233475 0.102072135 -0.12748079 0.23988603 -0.12406768 -0.23454334 -0.26650724 0.14178246 -0.15530594 -0.38625506 0.21993089 -0.19775358 0.21847038 -0.00387623 ]
[-0.15583381 -0.17603907 0.24560553 0.3030598 0.05214464 -0.011002387 -0.24452966 0.16100852 0.18877673 -0.16518754 0.14247327 -0.22238138 -0.038853582 -0.35464245 0.23016268 -0.044171154 -0.3789047 -0.16524395 0.24687754 0.08945626 -0.06689216 -0.12911388 0.19147827 -0.16123556 0.28407565 0.2436717 0.29902157 -0.14208373 0.05099262 0.11545417 -0.33638337 0.243469 0.035538323 -0.16584787 -0.2441275 -0.072879925 -0.16721718 -0.12578332 -0.028299112 0.17173408 ]
[0.20674768 -0.28153738 -0.14254317 -0.05119217 0.25380245 0.16455913 -0.16045746 -0.019253468 0.32870057 -0.014250174 0.121042 0.005656819 -0.03719594 -0.18262507 0.11426352 0.2067549 -0.19099765 0.13538724 -0.030049132 0.121468745 0.023364214 0.28106484 -0.20209141 -0.14647213 0.16545336 -0.26807773 -0.15531528 0.26434064 -0.111181304 -0.18960488 -0.13786659 0.25616977 -0.2854316 0.38921463 -0.17954911 0.1556375 0.1500298 -0.033008322 -0.052164044 -0.24181406 ]
[0.10751775 -0.04566303 -0.030144287 -0.28029436 -0.34394303 -0.020537617 0.2072285 -0.04524824 -0.33732557 0.046885975 -0.0310911 -0.045853462 -0.26715076 -0.118996136 -0.12954184 -0.17031659 -0.16387814 0.33470705 -0.25276804 -0.26601627 0.27938414 0.25757316 0.024209129 -0.08635501 -0.22419977 -0.08700647 0.1357714 -0.14910446 -0.2811685 -0.25290012 0.22804986 -0.23583068 -0.19160846 -0.08290632 -0.22114189 -0.2836192 0.15405585 0.0650004 -0.11134599 -0.09212828 ]
[0.3391384 0.22089209 0.11167003 0.08161519 0.15852281 -0.15697946 -0.14497568 0.09746643 -0.23579185 0.2626332 0.090413 0.17295963 0.35390446 0.10258128 -0.22059748 -0.4313396 0.4538489 0.023571646 0.16257967 0.038340487 0.21344656 0.30818805 0.0010245554 -0.0021494755 0.1881553 0.10171962 0.25036195 -0.1710551 0.15834017 0.38518173 -0.27555516 -0.388078 -0.15354228 -0.22482666 0.08337372 0.096483715 0.07926659 0.24482587 -0.052179422 -0.2857312 ]
[-0.21966833 -0.040770944 0.2028854 -0.15571852 0.0025000349 0.28620157 -0.19882369 -0.057613898 0.26918834 0.20345409 0.084210046 0.113481976 0.29487422 -0.33096945 -0.24642634 -0.30635282 -0.26901752 -0.25990605 0.15910667 0.30801558 -0.25841072 0.22849321 0.038897164 -0.26545572 -0.044662867 -0.3127905 -0.01513092 0.105339095 -0.1364128 0.005104737 -0.24570984 0.2343398 0.2637218 -0.056718256 -0.04574455 0.2746781 -0.32846984 -0.23766491 -0.28761783 0.2391672 ]
[-0.072058365 0.10725158 -0.113554575 -0.30368376 -0.20108823 0.15180224 0.1956895 -0.14186513 0.10414811 0.32064375 -0.082909234 0.19449484 0.26056993 -0.30928004 0.069550715 -0.24041037 0.08736491 0.04451267 0.012292155 0.0077675367 -0.24180727 -0.29912585 -0.23856947 0.008382594 0.29376632 -0.14560431 -0.19594818 0.06812516 -0.04393461 0.0857786 0.16220102 -0.20393036 0.02278225 0.107977904 -0.12566297 0.051512957 0.19239055 0.17817406 0.16182525 -0.19773014 ]
[0.3002773 0.054017354 0.2402249 0.19553806 0.35171175 -0.19412157 -0.054901447 -0.29958582 0.24682416 -0.3053227 0.043950107 0.1838135 -0.18580082 0.40670046 -0.22741072 0.18747722 -0.1286335 -0.004567294 -0.102156736 0.24198307 0.18982716 0.02652967 0.24095559 0.25305337 -0.22131047 -0.2638312 0.33648926 0.015381111 -0.15327938 0.26042056 0.2118413 -0.22929554 -0.23778412 0.2973489 0.16073303 -0.12324552 0.22286409 -0.34770653 -0.29593018 -0.020104114 ]
[-0.32512143 -0.14500162 -0.05964484 0.044679325 -0.18137053 0.24400656 -0.14763649 -0.1623315 0.20588924 0.12416795 -0.12882799 -0.17475107 -0.21185724 0.24973395 -0.12915352 0.2663743 0.27869543 0.080389604 0.073246 0.11046762 0.0005025271 0.33862484 -0.32209888 -0.07920027 0.26552743 0.15544382 -0.26544476 0.16511826 -0.11757927 -0.24145848 -0.13505948 -0.049629886 -0.15944505 0.109887175 0.04086287 -0.3122184 0.19439001 -0.09217302 0.23335138 0.23242275 ]
[0.04104508 -0.1284036 0.29713443 -0.23481338 0.13424778 -0.12393216 0.03683751 -0.073831744 -0.0077028 -0.31142157 0.04848107 -0.3267989 -0.03582104 0.06212311 -0.12433768 0.30560112 -0.022127537 -0.019631587 -0.18425588 0.11401896 0.28104478 -0.1387002 -0.16252173 0.17083582 -0.25973314 -0.11336649 -0.17434709 0.283513 0.26986736 -0.045650985 -0.20568968 -0.30467564 0.21406506 -0.35641018 -0.14137389 0.17611425 -0.43761933 0.2898247 -0.21772064 0.031343076 ]
[0.2685944 -0.20995963 0.1874784 0.26240373 -0.2388043 -0.31864488 -0.18716377 -0.12294104 0.08284292 -0.2181049 -0.2333473 -0.10477355 0.08625731 0.063599326 0.29743245 0.13202216 0.0737634 -0.019335458 0.19084188 -0.17766444 -0.26920554 0.16937868 0.10510004 0.18072477 0.069534495 -0.30514526 0.14642476 0.033290215 0.19279811 -0.14081563 0.040924143 -0.31396553 0.16647129 0.0833075 -0.16867916 0.080847315 -0.12393776 0.17469403 0.009438378 -0.20874004 ]
[-0.12054079 0.010319743 0.2513969 0.12849571 -0.2067916 0.14151137 0.1640134 0.046478063 -0.10622184 -0.034469802 -0.035547245 0.16131115 -0.19689542 0.10177166 -0.011210489 -0.1417054 -0.32719237 -0.116667755 -0.10633589 0.026751624 0.07695438 0.23606575 0.24888954 0.116271794 -0.005211364 -0.09949675 0.2214328 -0.24173647 -0.07313234 -0.15436913 0.20867485 0.118537016 -0.06568261 -0.14118952 -0.037133344 0.23681453 0.29909495 0.04484209 -0.19944343 0.14846723 ]
[0.12730765 0.17134245 -0.16902806 0.09956903 -0.052111693 -0.10842251 0.10762294 -0.13422194 0.29992643 -0.20912597 -0.25428602 -0.12304012 -0.17293137 -0.40768296 0.38562772 -0.3065416 -0.028756917 0.041836638 0.022830058 -0.09136699 -0.04285593 0.32757288 -0.2883909 -0.12905534 0.017481336 0.05903546 -0.14903061 -0.33814928 -0.14700654 0.14155006 0.19833152 0.17033213 -0.18679582 -0.16115722 -0.09868432 0.23856144 -0.08914949 0.12122759 -0.31286645 -0.25250328 ]
[0.13223615 -0.25946474 -0.10757554 0.103304006 0.26405513 -0.14789158 0.17982611 -0.10606073 -0.11305805 -0.2123074 -0.26148838 -0.26228786 -0.15706055 0.23427354 0.11624045 0.18209705 0.0151388645 -0.20915093 0.19253679 -0.17497979 -0.07545175 0.06145707 0.1685542 -0.06777953 -0.172832 -0.13993715 0.23238836 0.13053223 -0.11029893 0.28218827 -0.29979864 0.25693607 0.08496144 -0.20691513 0.34355164 -0.1554211 0.2314296 0.26275003 -0.2865742 0.108610064 ]
[0.15075988 0.14928047 -0.2988538 0.027457198 0.10629312 -0.27106822 0.23124035 -0.25518745 -0.13210516 -0.13563044 -0.10144201 0.065751635 -0.24404463 -0.17087868 -0.33308953 -0.24934945 0.40540013 -0.3517843 -0.31033674 -0.085642174 -0.24844688 0.2755837 0.33241218 0.3127682 0.040713325 -0.1214043 -0.034287766 0.06993402 0.11174003 0.28667074 -0.2455548 0.1065645 -0.1698445 -0.07102172 -0.038569245 0.067657806 -0.18184225 0.23367946 -0.12081888 0.12923174 ]
[-0.2864838 0.012184767 -0.025672397 -0.29501742 -0.44825795 0.27577958 0.11090647 -0.25253865 -0.30591062 -0.06076108 -0.19942863 0.18190064 0.031936686 0.052164692 0.080990285 0.19737795 -0.16722506 0.01046012 0.25083697 0.03161074 -0.26163894 0.057123948 -0.17948173 -0.2080858 -0.17265078 -0.01064262 -0.2047948 -0.24166806 -0.31073615 -0.006191114 0.26996058 -0.2601636 0.21497805 -0.14381601 0.21510717 -0.21589625 -0.04133694 0.19498679 -0.10536533 0.30030355 ]
[0.04419925 0.2666457 0.2013839 0.18407178 -0.041189782 0.08810574 -0.1709303 -0.043218393 -0.18808472 -0.060843553 0.04060132 0.16677703 -0.17987704 0.16181225 -0.15602888 -0.28388685 -0.2453734 0.06375347 -0.26324266 0.38597572 -0.31563717 -0.110388435 -0.16825709 0.24672003 0.121827886 0.16854754 0.2431685 -0.06358448 -0.05521455 0.07256739 -0.15104018 0.0058907587 0.12297986 -0.19773816 0.3663529 0.005679261 -0.2654907 0.10765236 -0.20618194 0.032047745 ]
[-0.1432235 0.15868881 0.21072026 0.11280188 -0.06832091 0.2135762 -0.08358713 -0.006005259 0.019657878 0.011458373 -0.064025715 -0.0011388056 0.22757374 -0.38505077 0.03944383 0.3001839 -0.07458345 -0.18998577 0.1333008 0.08821888 -0.046523675 0.28766903 -0.24778982 -0.13431337 0.24951373 0.15156706 0.047005475 -0.10394353 0.16706349 -0.0055297925 -0.11828085 -0.20292047 -0.10013243 -0.14634272 0.26779187 -0.2539887 -0.124944925 0.25667432 -0.1968691 -0.0047877054 ]
[ 0.014645597 -0.0024495695 0.006478265 -0.0252163 -0.1714766 -0.016410757 -0.015139003 -0.014631596 -0.01709974 -0.01068173 -0.002795748 -0.0013293027 -0.021240354 -0.03884967 0.05435174 -0.0002888604 0.027833158 -5.9978396e-05 0.017198674 0.039654654 0.016062954 0.011561373 0.010009947 -0.013398812 -0.027809814 -0.026163682 0.011153188 0.0029076242 -0.0014845309 0.031817097 0.0103301555 0.005201971 0.017819896 -0.023478026 0.001661172 0.01730707 -0.033057652 0.031883374 0.020338032 0.0011131021 ]
layer 3 Activation
tanh
layer 4 Dense
40 20
[-0.3154549 0.194258 0.12033901 -0.148537 0.08869662 0.05519645 0.113046296 -0.14177847 0.26193407 -0.2569342 0.0643627 -0.13012742 0.2959353 -0.11565257 0.14837365 0.14893001 -0.27753294 -0.08065769 0.30345953 0.17154187 ]
[-0.23280264 0.0626537 0.1255224 -0.15286016 -0.0805159 -0.24344645 0.14312221 0.1320671 0.28117773 0.2452647 0.2696183 -0.1375406 0.037294086 -0.2566699 0.25373238 0.109851874 -0.26397875 0.0074059265 0.1267019 -0.19879554 ]
[0.27413264 -0.31063843 0.06532898 0.088856675 0.08160258 -0.11781789 0.19333474 0.15379699 -0.0057614795 0.04703412 -0.14663656 0.07323616 0.22927566 -0.18002985 0.088035025 -0.04340356 0.061067127 0.1835982 0.264234 -0.34782684 ]
[-0.3115439 0.17550309 -0.26672816 0.36519235 -0.22235009 -0.10044549 -0.0075851716 0.011713864 0.12815054 -0.042880252 -0.09040206 -0.16373551 -0.20906465 0.10078243 0.17179804 0.23878253 -0.2890969 0.10192229 0.27880335 0.32402232 ]
[-0.1643036 -0.25945115 0.015314747 -0.031414486 -0.22399712 0.1271279 0.07564538 -0.05596282 -0.15220183 0.07665124 -0.24719676 0.021363094 -0.13646665 0.27478358 -0.19318332 -0.071771204 -0.35191408 -0.2098843 0.1782234 0.30130234 ]
[0.17905718 -0.14795895 -0.20558564 0.07871094 -0.07636863 0.031686254 0.114501834 -0.14304386 -0.11634084 -0.2594217 0.16819504 0.11657561 -0.17940752 0.14757673 8.455262e-05 -0.03661972 0.21774451 0.29548162 0.0069589736 0.05223174 ]
[-0.1626945 -0.36784562 -0.10155564 -0.08815631 0.12690558 -0.22007167 0.32036433 -0.16969785 0.11125713 -0.22009742 0.20537901 0.1692046 0.24571541 0.12157201 -0.19140667 -0.2796359 0.2602028 0.24896055 0.09328989 0.19472608 ]
[0.077937156 0.06859845 0.08339026 -0.22923832 0.24261844 0.012495793 -0.25443447 0.19212128 -0.27120185 -0.10665022 0.2563865 0.20003253 0.118777364 -0.14263426 -0.0747297 -0.24368909 0.22441258 0.23183933 0.060834255 0.038673624 ]
[-0.13614069 0.20791799 0.054077793 0.2685503 -0.035111558 0.0363541 -0.048406594 -0.0849359 0.26075408 -0.28886554 0.19125701 0.23484755 -0.2417489 0.2491962 -0.35834748 0.083383225 0.120524906 0.11125938 0.007974049 0.23408245 ]
[-0.22462662 -0.052568987 -0.24461527 0.11415388 0.09993695 0.039497122 0.11523965 -0.19554178 -0.04255609 0.20960589 -0.20354317 -0.28916776 -0.20858304 0.24746832 -0.16436708 -0.11903679 -0.23835257 -0.19575642 0.3066655 -0.08964833 ]
[0.15689655 -0.33724234 -0.21525648 -0.17778966 -0.25922212 -0.22463757 -0.08075141 0.116747186 -0.24304996 0.37566844 -0.17211552 0.09835893 -0.21725337 0.19241962 -0.3517756 -0.12434545 -0.07704657 -0.03479827 -0.18835913 0.17604311 ]
[-0.13300084 -0.12628259 0.15437536 -0.020197304 -0.117166676 -0.014089405 -0.23193711 -0.19947185 0.057472885 0.07113328 -0.10577167 -0.15625723 -0.25967517 0.21726897 0.12225384 -0.123866044 -0.17831512 0.048726704 0.13887365 0.08102952 ]
[-0.32559997 -0.15429175 -0.12379958 -0.03252454 -0.14601247 0.32026792 0.027532743 0.010569008 0.19521399 0.08382469 0.39341655 -0.06088519 -0.18966776 -0.27152142 -0.26904985 -0.21814196 -0.14307112 -0.19377343 0.10460755 0.2251753 ]
[-0.18504146 0.19969618 -0.25407264 0.18000963 0.17233004 -0.15955082 -0.08630958 -0.23938337 -0.016909024 -0.06964704 -0.09103643 0.21940371 -0.11206143 -0.0036564027 -0.14422873 -0.31374756 0.09741539 -0.3181929 0.34040925 0.14196819 ]
[0.2086949 -0.07462449 -0.10675435 -0.11375523 0.08540455 -0.010036047 0.18171231 -0.14235069 -0.29819003 0.09459415 -0.20143104 -0.25647002 0.18045607 -0.100321494 0.046299353 -0.08154814 0.22445035 0.26739544 -0.21898104 -0.13795337 ]
[-0.00026250226 0.18844323 0.2940395 -0.0006391685 -0.041221336 0.029582355 -0.12195447 0.24494612 0.027185613 0.22045867 0.011338927 -0.048167583 -0.16746956 -0.04629815 0.09346739 0.03875225 0.25576258 -0.000694718 0.11253388 0.085354574 ]
[-0.2626913 -0.28209433 -0.01144025 -0.2249821 -0.03857194 0.28772774 -0.08730256 0.21288076 0.016511034 -0.25268403 -0.08331206 0.16282108 -0.26956055 0.0660914 -0.109612085 0.109330595 -0.12658614 -0.23406 0.29990304 -0.052355282 ]
[-0.010532537 0.025277866 0.050650053 -0.070511825 -0.1537186 -0.10840535 -0.2697354 0.087244555 -0.2913721 -0.010687654 -0.32400146 0.04855835 0.3056503 0.0067818332 0.17065589 -0.063876614 0.22308461 -0.23568788 0.24884523 0.14816944 ]
[0.329874 -0.10904255 0.15666261 -0.22312441 -0.2123968 -0.24646682 -0.010864026 -0.20559438 -0.2947268 0.116914846 0.16107103 -0.108277604 0.19381347 0.14513855 0.12031941 0.23511489 0.03818154 -0.04912456 0.25296175 -0.18988423 ]
[0.025588248 0.19300842 -0.26734507 0.24225964 -0.16294323 0.0013361536 -0.008682744 0.22928217 0.22114335 -0.074608035 0.07513048 0.24355698 0.1639778 0.17140725 0.30105823 0.25584346 0.06857227 0.066703305 0.2528841 -0.02670209 ]
[-0.09348951 0.22791684 0.035863888 0.018777652 0.0075027747 -0.0917455 -0.10513589 0.35405263 0.08807613 0.16315222 0.082849614 -0.018231185 0.05434703 0.00054662046 0.31502485 -0.18755707 0.2446412 0.13362922 0.19103113 -0.21811998 ]
[0.06112013 0.044088952 0.15621477 -0.23248382 0.17848378 0.07242505 -0.0064585097 0.19988002 0.3029629 0.18732673 -0.15626869 0.1463876 0.21922804 0.22603723 -0.21385752 0.078653365 -0.24098815 0.24845639 0.027315494 -0.020316213 ]
[-0.30444303 0.06547965 0.041439883 0.119943924 -0.1825889 0.06973647 -0.22164555 0.2340816 -0.29322785 -0.2826933 0.22380386 0.015034535 0.10536297 -0.15147896 -0.12869188 -0.2696962 -0.25693244 -0.16192532 0.07846722 -0.038114484 ]
[-0.028937794 -0.06340084 0.2184207 0.17568597 -0.14446123 -0.10454772 -8.319841e-05 0.08832281 -0.10418535 0.18479502 -0.14689052 0.12583719 -0.16366534 0.04383389 -0.32848853 0.031639572 0.15299292 -0.35772684 0.2463159 0.14395805 ]
[0.2228967 0.19826984 -0.04692464 -0.21700414 0.03486792 -0.10934965 -0.2012013 0.2809618 -0.06273698 0.2756791 -0.16209382 -0.20252977 -0.04275629 0.42441452 -0.0038712895 0.06145549 0.04282081 -0.22203392 0.09818678 0.30886045 ]
[0.17018932 -0.07122482 -0.16565111 0.007783382 -0.12478832 0.021735301 -0.028709486 0.009437235 -0.005663238 0.32567504 0.043387864 0.013993523 0.048085913 -0.20626067 -0.14595477 -0.24712436 -0.22073123 -0.35346204 -0.2730136 0.23551063 ]
[-0.16726722 0.21021503 0.1798684 0.076668076 -0.123590454 -0.13503554 0.06376271 0.06687649 0.17457221 0.20469281 -0.09447659 0.043609507 0.27465004 0.07942111 -0.286573 0.29088226 -0.124946006 0.25662607 -0.13309267 0.16710977 ]
[-0.24641797 -0.040909436 0.035357565 0.10743009 -0.23261586 -0.04882571 -0.13260469 -0.2609779 -0.26376593 0.25340453 -0.3125795 -0.15875396 -0.21395098 -0.021163125 0.2918781 -0.17854585 0.15985745 0.3072233 0.18726018 0.049179103 ]
[-0.31921968 0.13934341 0.2687991 0.22937332 0.18031877 -0.035637643 0.21765076 -0.26484805 -0.12017044 -0.2711295 0.11072987 0.06672157 0.13293053 -0.15178104 0.046262216 -0.27886572 0.12402852 -0.034939613 0.27807167 0.24725786 ]
[0.08004281 0.22294319 0.014325856 -0.14182733 0.15829922 -0.15396008 -0.07841828 0.16007051 0.19239508 0.20055428 0.02679574 0.2833657 0.082584724 0.0928546 0.1758953 0.23017615 0.038590625 -0.2371485 -0.18279584 -0.007390729 ]
[0.15810998 -0.08864892 0.2502203 0.124984 -0.28318328 0.1582179 -0.033202633 -0.2983732 -0.21586777 0.15150161 0.2945048 -0.10366771 -0.0701854 -0.2886882 -0.31875932 -0.2508586 0.09897508 -0.30355817 -0.029645026 -0.0882905 ]
[0.10358932 0.18697365 0.14869022 0.0833167 0.044808745 -0.25710636 0.12916033 -0.15058105 -0.04629665 -0.046225116 0.037310265 -0.13065062 -0.23729677 0.21641363 0.09342539 0.26163712 0.2321083 -0.01676774 0.11492612 0.34441182 ]
[0.10970239 -0.2789298 0.17778224 -0.0321319 -0.2850456 0.26230145 0.023931842 0.044720188 0.011227954 0.22849733 -0.023640951 -0.19301997 0.17953351 -0.359669 0.27787128 -0.00014224765 0.28449816 0.07136964 -0.14800161 -0.04584991 ]
[0.15856008 -0.20748325 -0.2231177 0.20989455 0.3431783 -0.19988288 -0.07666549 0.19083261 -0.16813432 -0.15852466 -0.12236138 0.052425463 0.09953994 -0.044964716 0.14698859 0.11165308 -0.14052884 -0.21751224 -0.011825262 0.25216252 ]
[-0.008977627 0.2232308 0.138918 -0.05914817 -0.24271442 -0.25792557 0.06561877 0.028041992 -0.025876269 0.10320211 -0.028185466 -0.14729172 0.19808517 -0.28277478 0.0610885 -0.04656953 0.011018297 -0.12177655 0.09986828 -0.03687308 ]
[0.043845795 -0.090201885 -0.090448245 0.24808873 -0.049894802 0.2162026 0.23230651 0.09815007 0.03173646 0.23971525 0.14501229 -0.13902964 0.120865844 0.2805267 0.20352459 -0.2891981 -0.07802806 0.085072555 0.07379858 -0.15041314 ]
[0.16378687 -0.23899257 -0.23543248 0.11369731 0.21607347 0.025388768 0.19391663 -0.15880217 0.2431947 0.23869483 0.02509279 0.091189004 0.19200613 0.29180387 0.078327715 -0.07299007 0.2130944 -0.330222 -0.1933113 0.3170527 ]
[0.09787874 0.10890784 0.22694048 -0.32543787 0.03949961 -0.22265278 0.26308957 -0.16832405 0.12790948 0.22661968 0.21760973 -0.24386245 0.07177468 0.075042754 0.19046623 -0.018784788 -0.21285813 0.10845942 0.0217286 0.018171303 ]
[-0.16139899 -0.2200651 -0.18856467 0.20386113 0.22671627 -0.097040705 0.24249703 -0.004937451 0.059665672 -0.025943264 0.24110205 0.12141013 -0.030721184 0.08347345 -0.264795 0.00865077 -0.039548572 -0.034395378 -0.0159082 -0.23902002 ]
[0.2496487 0.1612356 0.037991967 0.024114257 -0.15589139 -0.21002486 0.017089915 0.05418325 -0.25741836 0.1057701 0.047023725 -0.05698048 0.090175666 0.039530095 -0.056153107 0.23640673 -0.22475334 0.075544044 0.30235857 0.020194601 ]
[ 0.011337294 0.01144045 0.0151971355 0.011095065 -0.0018242521 0.0067249853 -0.033042837 0.0045430353 0.016758746 0.0045975833 -0.0028606541 0.013206742 -0.0085259415 0.01747571 0.009973567 0.020505497 -0.012308289 0.013692883 0.00024114607 -0.02796821 ]
layer 5 Activation
tanh
layer 6 Dense
20 1
[0.30480617 ]
[0.043017305 ]
[-0.27426758 ]
[-0.16081385 ]
[-0.35733023 ]
[-0.27625176 ]
[-0.022463685 ]
[0.20643571 ]
[0.10028627 ]
[0.026400773 ]
[-0.11701677 ]
[0.30428988 ]
[-0.10266329 ]
[-0.12306443 ]
[0.11290511 ]
[-0.24891022 ]
[-0.32317173 ]
[0.28389853 ]
[-0.30407917 ]
[0.3714355 ]
[ 0.00686321 ]
