layers 7
layer 0 Dense
24 20
[0.10478431116525184 -0.05528399144766782 -0.29633991723466535 0.2141191316859394 0.16772844126838335 -0.29125633747809015 0.12009547425747559 0.013729716650015916 -0.08090599802658105 0.08527293720131501 0.18868250828765168 -0.1027985816895201 -0.28887002342331963 0.18181589200381748 -0.12153873749787733 0.09561130956555394 -0.16800947770542174 -0.07243254084733516 -0.012235120520123243 0.22039875098130352 ]
[0.21512608549600404 0.29589009371107033 -0.20220601000867158 -0.2919766705805229 0.048172678428079534 0.03368505467863986 -0.042429219988586564 -0.013319400420295998 -0.17645677943604496 -0.030546759878479445 0.02935633056820892 -0.20452200804706444 -0.23164711178601358 -0.18505457894371494 -0.364181708498863 0.027188564283448315 -0.15708736889789676 -0.28574973949296556 -0.1914042088654331 -0.19972530395762075 ]
[-0.38957737786608077 0.29488671995008847 0.18562142330598044 0.12825743256005995 -0.16198423192240002 -0.35037689806479977 -0.2404928917103718 0.010999816486324714 0.3173903472698104 -0.07634062586885686 0.21249567729562704 -0.2654793312781606 0.052125962312272525 -0.09701164147804194 -0.050310140523512396 -0.07062086305995369 0.04404097873156632 -0.34779013009405857 0.16580973598075263 0.3044620878327901 ]
[-0.32782465489126805 -0.2948856794170634 -0.1971493700200152 -0.27903642376967697 -0.26347748467661186 -0.24277875806894594 -0.1306300023368379 -0.10040754427808177 0.21967247765406522 0.09767396666570977 0.03846031069782331 0.026582213741294984 -0.323873038512369 0.33978209517320757 0.12413241631860329 -0.19412407588971833 -0.179994087410867 -0.034584028162106054 0.003345228040895454 0.3367513478467961 ]
[0.23237758355506305 0.24449921417290946 0.08409594066709734 0.13228156538327826 -0.20498664965421193 0.3144743251983357 -0.2372280828269184 -0.24208758599472718 0.1821710427385208 -0.024923836527294498 0.08501046001542294 0.15114283885152804 -0.0864925727642319 0.033041515417443865 -0.3503722890540427 -0.38539594832107676 0.17492815269203502 -0.25664492928701105 0.25585293976550816 0.38705280054132996 ]
[0.026657879995648198 -0.15205766138465543 0.2272877684976918 0.17727111635429685 0.3196816081214499 0.2122190952739405 0.1020130602268394 0.325355599671964 -0.031638990640626884 -0.4316547069293102 0.09807016965930293 0.3114395205586527 0.41980917378668536 0.03258314370888887 -0.0541043084911849 -0.15094762022462851 -0.15532015140046865 0.18031390848146497 0.28515000461311796 0.015112278651975251 ]
[0.19681865994845213 0.31337550818936305 0.37871874741491296 -0.31059020434371126 -0.24546719104271134 -0.21369991473625422 0.1382843345295905 0.08014530697567802 0.23252003253193512 0.10056646758837777 -0.24015602969774077 0.3216072950038056 -0.058859978990403586 -0.1264413496899412 0.20595599724822541 -0.38556766765504114 -0.03726034196577087 0.0880877348751497 -0.13996412457501037 0.131001395190727 ]
[-0.03388684094541782 0.14547530039025164 0.09301817668359647 0.12043833341847061 -0.09105664802839696 0.053135372724710035 -0.026471495845967995 -0.09385409855409103 0.20581993608657276 0.3346046392500752 -0.29119040907269594 -0.13616445421667184 -0.36180488185027737 0.38971622416024687 -0.09027328043716558 -0.3003757046383132 0.24092404911209037 -0.14062898865557774 0.2013909176959617 0.0890735178962853 ]
[0.07634038775113237 -0.38845678106314163 -0.3607254033490135 -0.2275353222885679 0.1374493818066825 -0.22636957445590708 0.23930521276178637 0.3338317820707499 0.13000790974063844 -0.09926797679490444 -0.016465567317907766 0.23325886968802434 -0.3067567986529767 0.13383843168737672 0.2939602669468816 0.3382173319778852 0.10442860304736615 -0.11171665420074646 0.284231615369266 -0.03616236230700005 ]
[-0.19385999418350805 0.2052185587432003 -0.25553520668823554 0.007277647476574646 -0.08991828328175257 -0.28587490477325694 0.1368340799436357 0.0768683089939697 0.2346058087152212 -0.2505997210069517 -0.015508355523092189 0.10243009464710455 0.2310120494741118 -0.13052137850034265 0.2857333771227377 -0.41644734890170154 -0.23573729983832656 -0.10058717677084165 0.2727197635706169 -0.39664386156644654 ]
[0.3309457013521354 0.2624746235046487 -0.39682506846970184 0.16083247034172168 0.42778421923820803 0.3378178727959348 -0.3206255386409344 -0.015664128162384747 -0.2136185558622389 0.21811970407950895 0.3543256820599055 0.17836729340775076 -0.17995498858561812 -0.3061751325243962 0.23151975040472778 0.2587588979950215 -0.09422811334053692 0.15045042759881588 -0.24983515519618124 0.1099295717589592 ]
[-0.14155113759769739 0.11122680419555842 -0.13243216307253064 0.028988802673423655 -0.24044930168745 0.17705278468305882 -0.11051969042845043 0.061882118876195366 0.3488207572834439 -0.20748036087607874 -0.16210960092394328 -0.39258500403836083 -0.0735943849619246 -0.2714919515115094 0.09427916222836952 0.3476038481496184 -0.20178093252926865 0.3563284073387013 -0.1899464679661816 -0.3129484600660528 ]
[-0.20948820859482772 0.172567049654783 -0.21590952571559072 -0.35911500484098946 -0.14968528049173033 0.08971576703920299 0.11303998974429606 -0.0769209410240991 -0.30106620841827153 -0.449390150106889 0.0007099000669130459 -0.08646219694159059 -0.2658298425037613 0.11324017358454391 -0.2870717770134764 -0.1502365643794856 0.27211500984069625 0.2754518489623411 -0.16916276448016948 -0.0724249463958497 ]
[-0.11785615982865154 -0.11471702666353814 0.13763790211133667 0.3310043898368839 0.27401315620067324 -0.16586358035712806 0.0457929360288131 0.3885454980847507 -0.3211523395662365 0.0908738002504173 0.23658724654162272 0.17688030368233276 -0.15371967925270663 0.1238256321138124 0.006634064725963411 -0.14550466373111812 -0.28932086842820537 -0.030551537443036958 -0.17619292955154492 -0.17665450386350245 ]
[-0.04868358314753701 0.04806125808747978 -0.1798873424724776 0.2287290080277919 0.316959594874062 0.021688200696484746 -0.15140863513338682 -0.1904587708795277 -0.17376907042615425 0.18956768320974554 -0.15356218404173652 0.0779329925679199 -0.3650225682165426 -0.24751767678660744 0.17614502222784784 -0.2389405542348428 -0.37571679728804996 -0.13124859836556257 0.10919476262271162 -0.05371925569519142 ]
[-0.1472950301784633 0.33547362077522036 -0.34199992806800783 -0.34605768316620544 0.3654902171275948 -0.14866971548839128 0.03230447043795224 -0.14597056007609477 -0.3191500805188591 0.3163035350204994 0.12189888152223 -0.23044546267217322 -0.10114393575668706 0.2904051751122998 -0.42499868529077134 -0.058769150054765684 0.413900807430677 -0.1394198398190237 0.3494733405748731 -0.06768852897980109 ]
[-0.2624340160187201 0.13985338857470098 0.07041324032483624 -0.17282024060161208 -0.018309995724921663 0.11324057745184547 -0.04326445593101443 -0.06216521447224901 0.00809147424618499 0.14400839047301406 -0.23573607683350692 -0.41678583044505824 -0.14318490400689968 0.24667495168917083 -0.33083530545701123 0.33988080907837487 0.010674437297783371 0.30424406678886806 -0.33748629545452724 0.18684322327240466 ]
[0.1532642509384639 -0.2029848875962991 0.16661778871789606 0.1695414577326172 0.13453463001450036 -0.010241412313119296 -0.2089681246431402 -0.3756239436069571 -0.17505642232645285 -0.08211096093195898 0.14018218868534113 -0.19998532514232487 -0.10279730680785262 -0.07537106173532675 0.003114062822057023 0.047435559337360336 -0.07457139967260609 -0.14192776177839014 0.0753224013134183 -0.05274692397991562 ]
[0.09751439912171987 0.0967905663657734 0.1962019668327282 0.05694397215790993 -0.3772127371378693 -0.005128803322308344 0.025898034691927536 -0.01333974009937896 0.2709375042185828 -0.27621974422879886 0.26153135278954637 0.015855536409283597 -0.06331706272383802 0.05836453192473703 -0.45036640654837506 -0.09287771145297034 0.20811854257131915 -0.09995402017618568 -0.2001739682051855 -0.2328235366787894 ]
[0.316807339790046 -0.21053665403089167 -0.3547292292377884 -0.28055240357951117 0.2562677068392596 0.2766997658507972 0.1327683327475149 -0.11564265006910407 0.08919013861645153 0.1840585350163089 0.36648297641125466 -0.03447589322908544 0.2748706017242747 -0.24403133460415033 -0.0827551451109909 0.05044327810773921 0.032590313187506936 -0.08353328452370544 0.09162268335540297 0.1418899729373422 ]
[-0.14316299553849687 -0.07860991695400973 0.29868668744796173 -0.1695284182408304 0.15166472978579199 -0.38812156424655136 -0.059440622286281525 -0.2236754704219119 -0.16225173507718288 -0.353435479028415 -0.31482179738974003 0.1920945937068897 0.08027577842869947 -0.09341202770672845 -0.15550831283743657 0.3044843660309196 -0.4368959089833206 0.36085087426101325 0.10608891982603502 -0.21126111541497627 ]
[0.29903267128665356 -0.17911456965592723 -0.022441446242491267 -0.004089134931268604 0.0621515067655501 -0.054940060958142425 -0.23064185415636146 -0.13906419124707461 0.2629431330399936 0.16446239640672544 0.30993069786551625 -0.07967685967789334 -0.26935843973210954 -0.002346493927590139 -0.12022859537734813 0.04666790258784455 0.27894502006742883 0.3053372535106965 -0.2836861621651709 -0.055667214295352194 ]
[-0.2277390237261183 -0.17880237390533119 -0.07401653475627712 -0.37820586491366515 -0.23176501162880414 0.05335108886323069 0.017036931982837438 -0.2272683323373574 0.24634360159849045 -0.3567085676093969 0.2071463229311731 -0.1634981792393699 -0.3494545580057952 -0.28291265772296925 0.11468124837593054 -0.17882543910587273 0.3746961268822721 -0.07210823560653637 0.2669552619536549 -0.034250223587871 ]
[-0.02983663976946422 -0.2777637207300155 -0.3345235428664608 0.053084321973454134 0.05261205610706528 0.31124306559520215 0.06389946230257988 0.1485613585899003 0.0622319574970422 0.14888131035288724 -0.1628521539588364 0.0015187236144540632 -0.2458280182761133 0.09330425813814558 0.13082219097088188 0.32142083377765496 -0.29857862871785756 0.21624793172290122 0.1390722737936176 -0.32482908254100834 ]
[ -0.028412926645753112 0.06313496709592392 0.023258027324734847 0.03846962884328701 0.056653450590022435 0.010872749546667957 -0.04410277977438927 -0.01320979161954357 -0.019472840051915092 0.013736183870014691 -0.022200641733901755 0.024492731679296702 0.02053958713007545 -0.021020644714415948 -0.024350005025994086 -0.01736556867360111 0.09478833226503182 0.026408172710757606 0.00580845178298579 -0.012582681378876833 ]
layer 1 Activation
tanh
layer 2 Dense
20 40
[-0.06857521396119388 -0.11738217934597513 -0.10557151126748697 0.13477640210661923 0.20739252882402004 -0.1080030354669169 0.06103302314817088 0.2047676480380682 -0.06935807001876233 0.3196122986827498 0.08972750760889239 0.1397408357018971 -0.047069110278149195 -0.08514336380316824 0.01639974643045648 -0.14764957751573005 -0.2056556100868531 0.34727283024568606 0.10140974482927712 -0.1690296444960489 0.28086041139892065 0.17603060991222969 0.39266359795789463 0.18363382798998587 -0.302100910501356 0.028239345481036397 0.25306610333811363 -0.1623001640903896 0.20128577046424828 0.2784475601557733 -0.3523899265869384 -0.06502348809593876 0.1615058571054074 -0.0905368757123782 0.035463736995021845 0.11151082816516225 0.2754294604448334 0.06823016620331623 0.024728974425566506 0.13638452991253702 ]
[0.04591186863666966 -0.29779528695201446 -0.011134165858631567 0.26580082703746793 -0.023419531891558154 -0.22601475560767315 -0.21126821052538441 -0.1590322336483675 -0.13121399678047765 -0.1149420959896256 -0.21873939400035228 0.09717341154099085 -0.2943598579168597 0.1583138842143311 -0.24126645307831515 0.18613540565592882 0.2740974310591366 0.19844705110130811 0.23461101514920968 0.12846518609485325 -0.03304404789299303 -0.10250728839257194 0.13756136877901892 -0.08812068063797084 -0.2801241854597422 -0.010339548283470439 0.28877374181253085 -0.14222093100563063 0.3286425546486395 -0.22049814145022129 -0.2891571035945701 0.2504492340961407 -0.0669734720582531 0.06424371833097486 -0.01607305848117624 0.24755136831315847 0.11181663233726673 0.034465175546459496 0.18091678352428353 -0.24009363930732544 ]
[-0.28248052673444213 -0.13500639819257654 -0.2741821888242699 -0.016890320581566965 -0.10383924592083683 -0.2505924786472269 -0.18014111804815242 -0.22608739868434846 0.27972990490031663 0.1847251468392797 0.25117539250154564 0.10262955802654007 -0.06441459003695316 -0.04525643468352798 -0.015935101396697262 -0.1061384666144085 -0.06612111299349627 -0.280305604858047 0.12115334231062397 -0.2232299248793743 0.29074626855451974 -0.18282939524471462 -0.025523468677403526 0.1528787965096558 -0.006510890030263047 -0.009358184106141637 0.3090330608866076 -0.23213320903779855 0.08093631436648581 0.1675760799205663 0.23076607910307723 -0.04139881099332552 0.25938336870654394 -0.2624163993454723 0.09080202601537866 0.04038259331960118 0.21505533954639847 0.25395407598989306 -0.06049885774132407 -0.03569033679178341 ]
[-0.05061177125550894 0.16944984341222183 -0.05574152886489848 -0.17007308350177736 0.046929657725459 -0.14806748360039754 0.33174075932947605 -0.2608426649497748 0.10800050436390538 -0.1416517264560927 0.015036544071129846 0.16123641853172815 0.057681550132085056 0.17419290641311044 -0.3128079981280167 -0.05716561958450389 0.08690533052485962 0.15047553964241472 0.2569822215411386 0.09111209652070634 -0.3284849965734335 -0.07427899099557972 -0.06804243841438529 0.11151356732431454 0.21491461381954416 0.11267956670073898 0.16764026973668406 -0.11457051739789267 -0.16826581059334678 -0.08194609331756944 -0.238970819970624 -0.1290378016574802 0.18992516759824493 -0.32591773400867763 0.28359886831779035 0.14762133800634714 -0.08728557599115647 -0.1570409943185508 -0.13853298203167708 0.20623882438219293 ]
[-0.08690737142733168 -0.15172993707286994 0.14131600398919808 0.19135727412359815 0.004339061928693282 -0.30154134754311557 0.24310149038096027 -0.11273767447032176 0.07270187993703445 0.0813861775274547 -0.1272832291900521 -0.1417317770368791 0.016876794952442712 -0.2799187860013072 -0.045920698927167734 0.2527754253404492 -0.01870177429717472 -0.11100035198971701 0.227121218620961 0.19352792635881122 -0.30557406794910735 0.04481475286644083 0.186741829709767 0.18990105279445493 -0.018687207700994347 -0.05260168161630828 -0.29959050208376625 -0.22174426149562587 0.10072485580217437 0.025876573041867752 0.02776267303069931 -0.358859493789308 0.25284083685209136 0.24692282564239074 -0.11124025929491121 -0.11551862756969807 -0.2013532955738814 -0.05944478316471454 0.21042366254812653 -0.02372077028673456 ]
[0.1063123226285201 -0.2609949867976505 -0.24997322215251466 0.09158518362425842 0.3144610538037819 0.26772872432722755 -0.1401726371832853 -0.20944063446578082 0.1755517376668993 -0.20597076063582165 0.030978208759463256 0.15611893986560005 -0.12029202344520552 -0.0678597522788526 -0.2100823523730787 -0.06038630120621266 -0.11313990101742952 0.10392541667747503 -0.1717455622232299 0.21939193300116097 0.18959588508005976 -0.060636494170224646 -0.13866085954108825 0.019780686183834818 -0.0596773029200233 0.2439060808195248 0.2020136760307184 -0.05988347712673687 -0.25403476079504217 -0.10051882533000348 -0.2272335711006992 -0.22008248619969303 -0.30106334573314186 -0.19718121930333185 -0.19530065848640396 -0.29318202341872235 -0.11613547283718191 0.05065631103356172 0.31020666311083767 -0.16979052339037798 ]
[0.05860483034506243 0.23632803753559495 0.30046739982740567 -0.2249829977402442 -0.2404498983776617 -0.22777378472204568 -0.2550030151623723 0.0012857034079240403 0.13127798895271403 -0.1154192415807289 0.27715871384919455 0.2588597285322582 0.1997642147175801 0.18221224612191947 0.3441439637132798 0.2616596795251335 -0.02314142935883353 0.14013546657956924 0.3354844258879245 -0.10116622721926966 0.10892565584708976 0.36696849631590817 -0.2626711628704455 0.2191150846716465 0.1535241105340916 0.1272853650592027 0.18469153814839723 -0.17579508848656866 0.1701168215861849 0.22240141095088795 0.3116243390901403 -0.08905106528236903 -0.19648565504995652 0.22645153248412794 -0.07659759754084237 0.2098965878006591 0.1856862661334781 0.23298278490987104 -0.23150115263374582 0.20487580833554966 ]
[-0.12959340635992356 -0.09969995632722632 -0.07331213082799232 -0.11803541553807083 -0.26619387238725123 -0.14662324610164232 0.10811245021114622 0.20026110673158423 -0.20156984198182887 -0.19306579009734395 0.16083262475630322 -0.011403443763247737 -0.24768641658536877 0.378862941176403 0.09442624972465206 -0.23121543162435773 0.2833630142891356 0.10643367635196427 0.09661944532634342 0.041151338871053864 0.0025071023248708466 0.13800658071962527 -0.1684477595227443 0.2677043148192843 -0.2166928354703417 -0.05287212650714745 -0.21291716249246914 0.1440070624675834 -0.0016481678061135813 -0.07164940289901901 -0.22895257382167108 -0.16045677764350674 -0.21198929633107064 -0.18810798305533608 0.10299565388171966 0.010179920518623936 -0.18945772359164345 -0.12166056379802774 0.17221542476255497 0.06108213366262362 ]
[0.09318803930970833 0.12329552459129949 -0.08735015840239548 -0.035575761328746784 -0.17695439250999292 0.24866079000577695 0.01529212075210605 -0.09220416863855098 -0.1222782543837516 0.0627879187850995 -0.1563930315769738 -0.11211712459884628 0.15844414981547045 -0.014573537493542305 -0.0804751014758612 0.19121303881472113 -0.17664456686202146 -0.1493642797227726 -0.006100201417372101 -0.3306381249387134 0.1277207858828769 0.3098700432231039 0.04369154022652992 0.05912135718246575 0.04245799499634021 -0.013528561481737549 0.3173798008308065 0.23899519677299585 -0.1446523267480524 -0.18289817482241172 -0.017986614020029643 -0.3416821853754014 0.062061435503532485 0.009365949218637754 -0.04167857075022471 -0.04828384602932889 0.10247633906554478 -0.13381346309174907 -0.1257199230374783 -0.16354499037677922 ]
[0.06551191694841019 0.15240908298809014 -0.09960111690786705 -0.014159003379190306 -0.2996751093518547 -0.1909992232358898 0.3750612591488063 -0.059443540769700424 0.31092322824639573 0.12976044923179345 0.1629260893803293 -0.2879621498907762 0.023850396049727888 0.1747075600270588 -0.21108030989498588 0.2828745734738578 0.41704522610824424 0.06484708069288032 -0.19009761186415147 0.06437858392072561 -0.00105740393432303 0.25059919597484487 0.0709508267105142 0.1030743637486041 0.08995143003757555 -0.10574774491770571 0.12091787503033037 -0.1051456460907938 -0.054297356019029186 -0.11652647179231282 -0.23659487776924584 0.07304928897719523 -0.22725727724394226 0.19950024995859622 0.30806879652557595 -0.20173727115790266 0.030928952793357126 -0.02787205352842724 0.19014151637484794 -0.10738831398718099 ]
[0.29436807843709567 -0.10690997029941 -0.2281858951581626 0.17746533378454588 0.16190400372316305 0.23863256390333784 -0.05049030661389245 -0.2254346465196732 0.17793729591968147 -0.21666125367481803 0.2915453662633256 0.1681143684152345 -0.014675353051953768 0.07766252263034948 -0.24133682947363302 0.04698181332551723 0.04309440283532065 -0.08129741590566575 -0.30011422288703565 0.10265937340048699 0.17368517682873114 0.23250360368420928 0.05185707237201879 0.06912578321159199 0.13446157480316778 0.1701586830095459 -0.048198058819149216 -0.03573181137777975 -0.035750703806116904 -0.147574136575522 0.08968453768685175 0.21180190375966104 0.0018502635109545035 -0.26063019071300225 0.2076368749174604 -0.14521124419187548 0.02390436846599498 -0.155121617489509 -0.009870895518983139 -0.18886515991415614 ]
[-0.17762768170438595 -0.33131080173732924 -0.11703702210872576 0.16456761658378566 -0.16515807384661213 0.28071202470444095 -0.12509317191462618 0.09448545782447142 0.054038688651479455 0.20099392968097224 -0.19153178970128756 0.06421123843174856 0.12364300974704195 0.3144920391608303 -0.1486048285760574 0.14220404483412097 0.15452319865891495 -0.19967992549192068 0.29115085272888047 -0.25562982417213576 0.3001947601104633 0.051899022335064895 0.08141215337867347 -0.08452162640810726 -0.23739393611033494 -0.22128203455294135 0.28134000792565916 -0.20710319771764094 0.1087016142760117 -0.22336145456919748 -0.12321879546840368 -0.10672898779306253 -0.10758616864234695 -0.3049264732804599 -0.27074394215867936 -0.10599869752355098 0.2746135684233829 -0.16007645300073764 0.26437354873530733 0.20198333163426055 ]
[-0.14505666020306893 0.24234735312311445 -0.26644804088525864 0.2313013478332784 -0.20933689065818956 -0.11585486022235669 0.3005815884270146 0.08014105135734736 -0.016078363688139283 0.22289909505756747 0.08609477234884012 -0.20573717117885612 -0.046162097004427124 0.2721227565741811 0.1810175266221472 -0.26174303150740713 -0.23614794118401888 -0.025887621314375386 0.20014552768269342 -0.18621539303327095 0.29353386809145116 0.18958416551969695 -0.18646670787282704 0.18832462039828915 -0.1600801198417041 -0.11151674983676284 -0.04602888118474185 0.2761963187957661 0.0545569135755008 0.20879428350105647 -0.2169594869174689 -0.29903085635886834 0.18935093477823328 -0.282417713213403 0.19685143331428545 0.29024123359261095 -0.21081513271401156 0.30303878881924445 -0.3450265379260981 -0.22355205307740025 ]
[-0.25801362334734146 0.32218538189161233 0.20654805421159517 -0.13542986820017006 0.08364844241587917 -0.29383845235121797 -0.07249301686136228 -0.07271540650336755 -0.14575032402120747 -0.12770918020847558 -0.18901844010522376 -0.07072831531909766 0.09910095021893085 0.2271479271358228 0.05482326971071041 -0.33048345871060947 -0.044729202217726756 0.21556709571867644 -0.3521361193626409 0.06751037422855831 0.131598028934051 0.40404644517000726 -0.09698554652634837 -0.18153433641113978 0.2227982088552719 -0.0898622647862932 0.01124055593518953 0.14144929562537162 0.17395503393805675 0.010096710848106203 -0.06125868682928481 -0.10909541306258441 -0.259071165812873 0.04575868531126252 0.1442425312139743 0.21831469413128052 0.20262769532994843 -0.23270646552627205 0.054842412135546505 0.04101060837117329 ]
[-0.043386529661625414 -0.1866326579460328 -0.27395555257755577 0.23680700867441729 0.11184929333835417 0.13578619311166132 0.34293135297633787 -0.04380146391922608 0.21297269498234198 0.31202844539488367 -0.11692425741063392 -0.11225431557503716 0.2367587065780793 -0.09071099123265797 0.10865979189037114 0.10906235715256928 0.12039462187806922 -0.2265934805399286 0.16127588895268613 0.14867146944125942 0.16851619038051108 0.19143099272787137 -0.06281048686439361 0.27596283187051374 -0.017121007224552336 0.14978104771914766 0.2078085176127697 -0.1479016158489277 -0.05318914228865076 0.07709412433802494 -0.2601836855913552 -0.025288967839050762 0.06161972718122267 -0.07643543759890005 -0.2508305938238184 0.3076327459781159 0.2016301665168987 0.29037235153732316 -0.17388240326669502 0.05550781034963313 ]
[0.27227415665220983 0.0754154576432518 0.032705394317072624 0.1954294396977366 0.29619109492012485 -0.0764918010025928 0.004711475614094135 0.12738217846656585 0.26483146513418204 -0.2997200059648343 -0.29813472998972684 -0.18203013560037448 0.2954304592190507 -0.13595223721227562 -0.1725128353111193 -0.26292147261843035 0.022834387935981068 -0.15881312574913914 0.11260411571767458 0.26965982109484876 0.075625300338718 0.11536848055781787 0.00671658387223278 -0.2692037695918383 -0.07298909596151427 -0.2523568750074802 0.20914995976164583 -0.09614010732085321 0.17287687489044418 -0.1884371315235677 0.3902019048863758 -0.15418195500486553 -0.18659932069167615 0.14539080838988247 0.373820869916293 -0.05203896088422324 -0.25668990169331346 -0.21022280558563503 0.1602776495333788 0.1781795457075743 ]
[0.16204423808818322 0.3052523942835846 -0.13039594972096835 0.11392164197766698 0.13734948708925032 -0.18322798242824445 0.14612734072457098 0.02315976216280647 0.003944729173059592 -0.1650779579315529 0.16697676957117327 0.16541977205638994 0.11848113005359968 -0.17992277722365435 -0.20661127976760732 -0.09042996739290186 0.043335669900727736 -0.06710109545773353 -0.11578241471038532 -0.27022558242736305 -0.09107281058508901 -0.1978229862606017 -0.21631108832823093 -0.03034628456371636 -0.060421915240391956 0.1655214630373324 -0.020140997803252684 0.07381140180356817 -0.03755043741207758 0.09503406496616619 -0.09232718440530896 0.17741583163211525 -0.22638679371974563 -0.017667305527870557 0.10189038936323701 0.14188887004473266 -0.08798537930374607 0.07130293812934174 -0.2517871799627079 -0.14273171200968487 ]
[-0.12528537619165214 0.31050159841170544 -0.20661952664441863 0.24086044741918863 0.088012573594924 0.24567632504013007 0.04964655767354319 0.02996101064051922 -0.27096963220203374 0.2946444413224575 0.1897824506064673 0.28177112201033894 0.24349656694532867 -0.13575654902586606 0.1621504497821767 0.06600038031455827 0.05658499125484781 0.036942668029045465 -0.005266976970535564 -0.08033356738341822 -0.18485356578119827 0.18997841306605398 0.28180743236851863 0.2248730138480417 0.10890293666672589 0.1335021054354646 0.3017921281066989 0.07497117583861622 -0.17571656378514783 0.29627055427441956 -0.08106706228913264 0.1433159170126281 -0.0857026328048341 -0.14526053448664078 -0.00017655950989113118 -0.1516472656760347 -0.008457462458919629 -0.30309439682174055 -0.08199712091105316 -0.14036646650789206 ]
[0.16083679217374203 -0.04907672815987974 0.057622854638512834 -0.20259533512460742 -0.3241510134962349 -0.23177604453677694 -0.15025658862560562 -0.23215963471683126 -0.18896773051391635 0.14847935722238248 0.048844512814873696 0.2031013927627622 0.28242770314100263 -0.3615357723156314 -0.1454701400537965 -0.05898067439988744 -0.12969120673560058 -0.10415369031329101 0.2577665222049407 0.2063188087673004 0.2859901795258385 -0.2642530907293225 -0.29111291698157754 0.3212428913286005 -0.09110479622955622 -0.17579477182685968 0.09213228201762055 0.06658351154828304 -0.30246765402413045 -0.10788719180795431 0.21551674215099123 -0.3513078252449061 -0.12350703590995706 0.16233809848981992 -0.4326418788041089 0.18953698326588705 -0.14377788551311568 -0.23066711298640022 0.24683773521951657 -0.10457632405103007 ]
[0.24099947297521843 -0.04920220666841537 0.09033012566513698 -0.06651728623327481 -0.15932695775008057 -0.2204085380516532 -0.1997495261008271 -0.28927689453822925 0.04450296514690901 0.12230561968166713 -0.07372533097487662 0.2272688111789316 0.2261939114611383 -0.2701773729508078 0.09648979335072921 -0.14719225987298545 -0.2576060475273472 0.08909413146826098 -0.010642214269308751 0.07348646127935678 0.10986500978008548 -0.06917740120413603 0.014139855843379788 0.11296733718364256 0.15209907174560716 0.10055761487347277 0.13682314812450808 0.12581121449694818 0.2848787825479981 -0.18840808202238274 -0.007618629081154236 -0.14098979417808227 -0.06309043484448694 0.11805481253028882 0.20180156213199826 0.26265008666187756 -0.035425253474259344 -0.02174332951628835 0.16976821265187775 -0.1885763210641594 ]
[ 0.0008152133243853998 0.017468949246539224 0.006893211474438086 -0.05763436953090209 -0.04523099306310027 5.965486330634646e-05 0.03679727543297491 -0.007616003062582126 -0.004145078846175004 0.0063014299096617295 0.010528932724397576 0.002610566673973533 -0.013024600538440262 -0.01832253865528415 -0.007611411937471178 0.005707686217140629 8.544558298064688e-05 -0.014377103809480967 0.005599739313194632 0.0028136441346606907 -0.0028516933867193976 0.013108855837629553 -0.0029148027706651213 -0.008157328641910197 -0.006099507094981222 0.01003120308670058 0.005890747764339274 0.021423206207861856 -0.011181233657170608 -0.0008612084494614186 0.009251936975606619 0.04187085294536837 0.01613401601613314 -0.00036498680698357304 -0.03112200436180461 0.0059035731899960385 -0.03792998128817123 -0.00041430374926102587 -0.018131356669085955 -0.007958868119160297 ]
layer 3 Activation
tanh
layer 4 Dense
40 20
[0.17672993796279232 0.0006061833622331429 0.2744718134126857 0.23545520140695989 -0.2517275228097404 -0.2741941088255832 -0.23864131148335596 -0.08435556121388252 -0.26519744846940935 -0.21270929741193015 0.23355851661264782 -0.18201846847893313 0.00979189682334331 0.3585962849240955 -0.012549314165967948 -0.1415988316428499 0.013637932651566334 -0.14529531038425483 -0.20108140556457735 -0.045098021249040846 ]
[-0.0828951873762439 -0.28914847053000026 0.2023661748631482 -0.08015150179497767 0.02696250867839633 0.16822788193176957 -0.15711434522049275 0.04412987395023564 0.07238774799600126 -0.11732491268912568 0.023464869727139487 0.03722731070307055 0.0961556402224554 -0.001718768586534283 0.15199273492714424 0.08432705218078473 0.03488042548028578 0.301534750881921 -0.27081563807194947 0.27263795643281313 ]
[0.29251128582664787 -0.12696218747423413 -0.1634484664552185 -0.33237734236682914 0.1333352306464303 -0.16862828939855776 -0.2528165205660963 0.3632199063733535 -0.1575089165234732 0.15099737075917086 -0.2792859195917657 0.23513404618670522 -0.20680929793199057 0.24449141595628265 -0.08026902530489897 0.08527749091881602 0.16538715199181758 0.2785525553699605 -0.09175033175488963 0.0001460453035406261 ]
[-0.02839385699489741 -0.13336705282267816 0.21902346803535466 -0.13859438340692062 -0.2379877207838841 -0.21329547677811925 0.10059116992759345 0.2737765169367541 0.23373234741076562 -0.24952157330372 -0.18270849020901936 -0.294029846434181 -0.07633862336878504 0.04693011649428833 -0.11140943356670521 -0.17544062949662903 -0.33248784760225286 -0.2182268973899073 -0.29904034597346085 0.011825433023041669 ]
[0.06346319276153839 0.19027284998971994 0.09392829799690644 0.25855696836067116 -0.18935907576787842 -0.14006631938608918 0.09940954941130631 0.15227720946764972 -0.26758202675585196 -0.2168927611340282 0.244886354593114 -0.2601993516669946 0.13684027748945532 -0.10125940930328933 0.13813854162760528 -0.24514521321088537 -0.04783518463453524 0.03274330942818677 -0.1613531428050707 -0.09142361068383882 ]
[-0.024371975041966882 -0.13513923859577848 0.1269319928061324 0.1839903324239442 0.12893719376021545 0.07812521576629272 0.2525541812214106 0.007959248183244482 0.2645475036025405 0.03113611676792796 -0.07889486042354689 0.161122942088201 0.1610924787867954 -0.21031693907483898 -0.006122437258345979 -0.1729578880292495 0.1948514020690945 -0.26438075567510766 -0.24900276590361137 0.31744244774306757 ]
[0.2671035924230363 0.013661984428494704 0.2131845834238222 0.3094092117442066 -0.3057416086182413 0.15981724332571637 0.2737786015714884 -0.29754414639644683 0.05987960213853848 0.06633075676833412 -0.27136135651836446 -0.0990750053332232 0.17775853088709015 0.18283089718794346 0.07397444477770973 -0.09261268453951521 -0.12159738126317705 0.008271970609269702 -0.16015853925891158 0.15337593965603827 ]
[0.08216347774616277 0.20460753155106276 -0.1316248827069206 0.18950846917950784 0.004318412344543694 0.060757236133975205 0.09879797019621059 0.08859038069163148 -0.06814605887362789 0.13297051796740447 -0.056529568123175986 0.04326821134305091 -0.09779063356252098 0.24576756892586812 -0.06746745295259166 0.11500327179951651 -0.16522481013391338 0.21988151096824649 -0.26653063557619 -0.18039390867872218 ]
[-0.10952581120827326 -0.2059061159042775 0.029516999575580957 -0.33883634468531637 0.15054333762959082 0.27474262487988454 0.07278000597622157 -0.22325567081917944 -0.1861893057824378 -0.38672851083290877 0.3742491353298018 0.13050529502858774 0.4059101904289217 -0.21813656126443443 0.007916016674717391 0.07690776111557839 -0.173417632416729 0.4036393908248694 0.18929370540202642 0.2542502052072397 ]
[0.039792430641097276 0.06068779775854352 0.06612119760143238 -0.0397093004060226 -0.3165521047898992 0.2926428691430806 -0.20976417495700694 -0.1868463446449779 0.2378312985462652 -0.07835230373558537 -0.2778752231981601 -0.16411308226811558 0.23775798273093174 0.18238473148724846 -0.281881628419633 0.06167329512071837 -0.09001759973800615 0.25184340122715887 -0.11892252875953425 0.24981987892866353 ]
[0.23992575100015093 0.26317969486449233 -0.032516426198781916 -0.13412619856035252 -0.1770798421021377 0.2951947132383885 0.049082200264465276 -0.06259592367521262 -0.26388209422107 0.006948868871508586 -0.08504997824854392 0.09173707247820329 0.00959257059499606 0.10236958881878581 0.26654880103730116 -0.36438174264573264 0.26054077476807674 -0.30900487811453586 0.0026251076095033356 0.09206239130316181 ]
[-0.30281541314018645 -0.027189440728595336 0.02790773182402415 -0.17369714178856718 0.018819082195368993 -0.024032858291324257 -0.1545799992473105 0.14204705171072443 -0.007138229072427961 0.06980716262726903 0.07963406318188512 -0.22210635935886405 0.2284052025763369 0.18192814878190702 -0.050596540489866365 0.03725471822855729 -0.20916006867325837 0.21012560837205005 0.06432521846137426 0.03917933270470134 ]
[0.012009796827595934 0.14971884488880707 0.039292416972446315 0.10669967947149951 0.24833020543787354 0.27092625942234927 0.16134032461665276 -0.11633524235114959 0.23349601378716658 0.17292518286187986 -0.0567476921861513 0.09159110191557847 0.13810484675435247 -0.27101846509713595 0.04534503727817604 0.2703367152076919 -0.24249635573338116 -0.2803387406710047 -0.10572281634167541 0.22529646434276887 ]
[-0.05447488728709678 -0.06603174864789049 -0.029258225500609546 0.29010700813706464 -0.1891509366682249 -0.26271143308102834 -0.11276786660812484 -0.1693447164813665 -0.002184929715640198 0.33305997531554893 -0.345968616715947 -0.2721350569450195 0.03512247373525616 -0.01504391876591877 0.2656530892190383 0.01835523564037718 0.03168979404387235 -0.19360008118719885 0.09257644722821093 -0.022019904679259718 ]
[-0.05695846426233228 0.05090002498009331 -0.057362411098695595 0.1651716975330497 0.25207737984564244 0.017949226096943504 9.828553731899855e-05 0.24158089900804067 -0.23914843514521367 -0.047437323941057485 0.2827549385904025 0.2218194121534747 -0.30358687927780664 0.07820667837982834 0.0863671974828376 0.08875717909295638 -0.15741098726114602 0.1494228865521215 0.15074216030413518 0.1439689617602016 ]
[0.2547125009542001 0.09276671097221073 0.22380933181083815 0.2852431546603479 -0.1673429669606421 0.36715185460953964 0.3113128669713275 0.2368322275234315 0.2896825494571968 0.19988118671039554 -0.024504601973783957 0.14824635571202063 0.09446743707734727 -0.10774795587565242 -0.1522175854089519 0.04719995370033238 0.015330202832198702 0.2607281991283453 0.10335416248771778 -0.06996001897633795 ]
[-0.17730686552010602 0.2822708066956227 0.26367071162166533 0.2693580935831156 0.25609761786844937 0.20677900223989618 0.27651185711629667 -0.2402331518407512 -0.1491965757510867 -0.04528966750990153 -0.008886492057267974 -0.06124789654643587 -0.1826567235643531 -0.008367617762566948 -0.08866812823660983 0.04301251168051389 -0.11595445608526136 -0.12245130209748252 -0.07597259866096227 0.11245901587425838 ]
[-0.22881055890096624 -0.26845791342062153 0.05675529385105087 0.1018088908606188 -0.0021328962487056754 0.020921939242385144 0.09461521296076798 -0.1585112806334702 0.24533695608086264 -0.15808090530840435 -0.08388786683761142 0.1420633721508086 0.010817182512276225 -0.05146377997010146 -0.14569856685554894 -0.2230020939386156 -0.30473847986653924 0.31627830856398553 -0.20419535562863247 0.079549166704217 ]
[-0.2364179804867538 0.31133349774375213 -0.1467712496234594 0.29871558931314374 -0.11075715577616566 -0.2538991977107163 -0.1281649145921579 0.1420182828525433 0.21311000705659056 0.12798030356703655 -0.0161657911212684 -0.28762397293361214 -0.12440101848975008 -0.20609249428109047 -0.2765220218930712 0.27052718997572034 -0.24130471168506476 -0.19661586792101585 0.018104019836066423 0.13601403717307717 ]
[-0.16770325381357157 -0.03877283745993039 -0.045458987492155364 0.34188682713357593 0.24479945613513765 -0.36843620169751495 -0.04381640563545394 0.08579588962313812 0.24527655313327867 -0.10326118412810062 -0.030142031808763774 -0.283431304030444 -0.3116833177231904 -0.209278103408386 0.1242932509756402 0.21888978043375504 0.22418387328286793 -0.13023805817276152 0.13187906783200692 -0.09514025609455194 ]
[-0.03588068329944808 0.21648962701942429 -0.0039472749512351685 0.3202221829796206 -0.2773912322091242 0.13179881661297557 -0.2074308201353626 0.13751680135305897 -0.08729183302094996 0.17468249226526988 -0.04469402864204942 -0.18901409148586487 -0.21862000623437022 0.15271443471785942 0.18357605298431529 0.01634475853688972 -0.21878926327915063 0.270832819448564 0.19988476811254172 0.2417619223207019 ]
[-0.16115039767150982 -0.11978823196688967 0.3053657684562852 0.012590418319281073 -0.160720477532604 0.04903775157315949 0.2963169582482782 -0.0418242888494171 -0.16424582466219712 -0.19121164369687021 -0.18906177862000195 0.17959620900038706 0.11051008718112383 0.30138541913816597 0.2487387857274056 0.2657923843454348 0.11895213854857392 0.29614492345888765 -0.08738082706758275 -0.3091100753577755 ]
[0.15740016925421352 -0.22043160922292515 -0.1760558273472312 -0.24194208713621665 -0.06801811557651992 -0.018634586466494813 0.0464657659547465 0.05496883031517277 0.2214094006218358 0.11913262649944992 -0.17292861769358453 -0.10650091341410896 0.055244196942892516 0.052678973505584946 -0.06657931765201924 -0.25781559370340124 -0.13055390867793126 0.09937929513788323 0.11803069263905433 0.15061321957757448 ]
[0.007125569132101315 0.2940574945542405 0.2072391969896413 0.2513808136548331 -0.14117110287440218 -0.014253237986022677 -0.08824422424742351 -0.24135930553650667 0.26086958954661044 -0.09793570455440437 0.21016624274518328 0.29871423137581316 0.35023036271577956 0.025155806448144392 -0.12801319325833924 -0.141749150914897 0.1735790191171136 0.026240030225755318 -0.2685390296908864 0.23389440209807236 ]
[0.08961222948548732 0.2761295342625733 -0.16193921458118174 0.32171590622711294 0.2662539527421919 -0.07797126836427255 0.23304755096780513 -0.08267302551910595 -0.19817319371298217 0.18200911548332593 -0.25057328850545124 -0.1762238807445287 -0.08407196065846119 -0.12088411012040129 0.28304713639517887 0.07714811641969917 0.2828107165865566 0.295171394682963 0.23991409319984097 -0.20438849717077762 ]
[0.21709874347886096 0.15457633456440642 0.2672645362417816 0.2697873456752853 -0.04921661217734973 0.28201334385412674 -0.3473260629906301 -0.3057967245370931 -0.28981620857108964 -0.1996596425002899 0.16550009964685497 -0.08510711727396186 0.21512538387727756 -0.22679953787045234 0.281567070072077 0.10038709966403511 -0.20686463716013587 -0.09484377935599785 -0.1188015194181204 0.0499996337894999 ]
[-0.26702759723109887 -0.05820871011421834 0.2560464144910202 -0.12455950395797247 -0.2643709153092513 0.08802053467190402 0.12532156126544117 -0.04789814317188467 -0.04793833472286997 0.07804200384924169 0.17879959152606806 -0.048620647725946424 -0.14086085104341087 0.08606220828216375 -0.20094203276648842 -0.06460443110035237 -0.3334587750402239 -0.14823247847127077 -0.11079622920858205 -0.04828417465306763 ]
[-0.29742747637489436 0.24923515457281947 -0.021291238224291655 0.015215030461610771 0.1362824128857414 -0.08671085933792062 -0.16697798379512646 -0.23638767319044623 0.12165913193455102 0.10763031635579401 -0.0840037713983351 0.3015706458526529 -0.23174426223520003 0.24726064437086553 0.2313811928848504 -0.0031119234991838856 0.30106827665768077 -0.09135010836734475 0.17946107638954334 -0.20770705952055973 ]
[0.07622590480082354 -0.02413051298251047 -0.18839584795207023 0.07036394183360292 -0.19866852280669078 0.2519778331634655 0.002434648644070554 -0.20815281968998098 -0.07256330750098505 0.25178516578020455 0.10046237496856189 -0.11993477492761463 -0.22589777128913927 0.3258463617161899 0.07104560803422147 -0.20723409572410997 0.0365117245343125 -0.2926007012797154 -0.02574718066374245 0.27677236894887886 ]
[0.2193180220436635 -0.21911481190588308 0.16537037120861592 -0.008179219289994268 -0.06592362801774448 -0.09798567837107272 0.20596218909046912 0.18542349774297526 -0.2703879189430193 -0.20069356958145115 -0.2101930657277441 -0.062479308819228155 0.23219761785955972 0.12084982496416699 -0.2985013233753358 -0.14523132264783434 -0.3347643444959652 -0.030314290902813706 -0.1444425993191682 -0.026924309918627754 ]
[0.06653850697123814 -0.19268117219000766 0.04928348574982382 0.005510621964536805 0.22738408663967385 -0.004701328988482091 0.07097742615546798 0.07235503407564688 -0.23597659160135082 -0.07166554540981125 0.2264662220531651 -0.03425123953840322 0.2013214372261648 -0.15858974405268722 0.10316361978028525 0.23018570837858057 0.046713447496642156 0.3038364012136928 0.23378953893075005 -0.03033608613093466 ]
[0.21914828285280039 -0.05769444626596247 0.05255297070628267 -0.0489967796336675 -0.14062950030613153 -0.0718736031685386 -0.28597084671313466 -0.13639546114837425 -0.011818607729897847 0.14203846544170975 0.2762499731588005 -0.21715684286758546 0.09793213013763986 0.3030695820720446 0.23740454978440778 -0.06869379891758971 0.2989431068011525 -0.1580355684784955 0.2251104052826593 -0.17502297982119822 ]
[0.12620980794309677 0.0032948063744243352 0.06752618209397838 -0.1897451437802294 -0.13649791092325242 -0.1954931255673847 0.18596501301381632 -0.0301748536326074 0.20054902113888384 0.23810235888711923 -0.15032033703069247 0.06087701636500716 0.02509985204932888 0.08784496276809424 -0.3839200046618253 -0.07992769607540257 -0.18691529340500967 -0.2549222036066934 0.2971929596005033 -0.0702329832871258 ]
[-0.12869660667038932 0.02282776398554774 0.234028361782586 0.1738512225842582 0.29297171951165263 -0.16451709881068108 0.27311524221733724 0.11141640630468883 0.1897605593895453 -0.29534717617557227 -0.12498158289703648 0.27252603378754736 -0.26133743057354675 -0.06487851912704616 -0.3113212639636621 0.2028862750513544 0.1003134023510733 0.10633951167810203 0.3064304600155351 -0.198321265936284 ]
[-0.2545161826215106 0.139956496506055 0.1832173998295267 0.3718574129185343 0.0014143132482503905 0.1441267858923425 0.07767143275580479 0.05886148714299545 0.03320384565508461 0.21238833302714594 0.2362656266348659 -0.21512251024184137 0.18580044718964575 -0.006370832825216469 -0.32545346861537994 0.2422970999181077 0.08579625435030419 -0.3099603220870376 -0.22174476009160893 -0.25995732643267316 ]
[0.041221930297430084 -0.1539932595437327 0.1149226180875983 0.10885385245282715 -0.34370228885090065 -0.1180687658195177 -0.11375400659733709 -0.09404005997253298 0.2444374524266014 -0.1778333772507477 -0.23751482962725984 0.0002688632026735123 -0.31146010699150695 0.043607993338141166 0.01241945876079301 -0.03587944359052512 -0.12132029012037027 -0.2813074440904925 0.08418032960425333 0.1631828160472879 ]
[-0.025557811195019788 -0.23385204269696258 0.05775351476582367 0.010380696903631765 -0.11815763071370235 -0.0973543441165054 0.0588234430024392 0.1891657247209157 0.07276229087876673 -0.04284280900722979 0.08516544893675757 0.08550043783046496 0.30542248479148865 0.006031420894567892 -0.0032405391980458195 -0.21918414132690187 0.008554789533483058 0.16114876040988954 0.28114600948465757 -0.28749905648729496 ]
[-0.0471497543049898 0.26006815051137827 0.17011708405584278 0.12691032144694683 0.2840519154726516 -0.14766589892275625 -0.016660405350869448 -0.205562740648737 -0.174835890013568 0.11677608858418552 -0.14852512341126306 0.241056151450838 -0.12848012785765497 -0.14511042125938545 -0.18685310297771623 0.022013670348444217 0.008304441691824042 -0.007368200234083856 -0.1294603777923848 -0.03154922796376774 ]
[-0.00924939697803912 -0.03584707433400498 0.2921906608228599 0.33802695500936814 0.23482716432194126 0.18414198150619804 0.12122735881556823 0.1431403868378629 0.06956468514399405 -0.13318086789635944 -0.135474745036983 -0.020032615820930126 0.19028562165072657 -0.05166723052861107 -0.3190361416523226 0.21064419551709235 0.020082723803608222 -0.20441737076611036 -0.10162385094704447 0.01844221910186148 ]
[0.3208124366476323 0.09813087912972761 -0.1811393667564921 -0.1912763579813244 -0.26495516364889565 -0.2138905567585122 -0.23616920035974615 -0.2679075702468472 -0.09561188465394782 0.23128565267838563 0.009369766023564638 -0.2425987019043887 -0.00023288279599401748 0.15777051149593269 -0.16097607602073785 -0.1532715209021688 -0.05000593283171447 0.30734975433690975 -0.06926063659708487 0.02971372309044843 ]
[ -0.0024207845956170154 -0.004577882735487853 0.00390924916566219 0.0032254505146879922 -0.006512787771806531 -0.0020389584643351697 -0.007671939969416467 0.0007254757381119166 -0.0014222030728411879 0.006288775545896357 -0.006388297770386231 0.006454876227162536 -0.0023838929025292777 0.009873000485892161 0.01309915650309035 0.010693402397313308 0.007679625844093948 -0.01368165165393223 0.004985081466919341 0.0008026364002203262 ]
layer 5 Activation
tanh
layer 6 Dense
20 1
[-0.08122197033526334 ]
[-0.3468108732716299 ]
[0.27963575951584296 ]
[0.13125229285984627 ]
[-0.16307890534190628 ]
[0.009910765080268762 ]
[-0.23524557860730397 ]
[-0.23064441112671663 ]
[-0.3063341334308184 ]
[0.20007336424292088 ]
[-0.07719667277554908 ]
[0.35296124356654385 ]
[-0.31008609591955827 ]
[-0.475113145801934 ]
[-0.4104290000335878 ]
[-0.3918851695391707 ]
[0.45739425026202946 ]
[-0.0090058252431464 ]
[-0.4193090481042159 ]
[-0.2592965273567508 ]
[ 0.002450512195177447 ]
