layers 7
layer 0 Dense
24 20
[-0.34053850517592005 0.170566893053903 0.008131550131010397 -0.049588529168956785 -0.23838083788490363 0.3340916999844673 0.12930841018113673 -0.2997426794362184 -0.3037636681845115 -0.2682860276346796 -0.39624677225901966 0.15267618936564353 -0.3102059584618544 0.06816968097027092 0.3237728909249359 0.05776733968236292 0.28423323589823124 0.25102616755044266 0.3753887220101236 -0.010683449418333307 ]
[0.22375788782758332 0.2804575480011026 -0.20456346333944986 -0.19007966645417523 -0.3648896357597988 -0.010664380269778069 0.11516335729531436 -0.014834795055272017 -0.022444625535499696 -0.096684901099251 0.1667902171267855 0.22217300874887835 0.052798129038604556 0.3141775473966332 0.04045462009515953 0.05114805929749924 0.04823403581729255 0.33095899754645314 0.27627898231172754 0.17404474145634707 ]
[0.15101029937967014 -0.31211081809868196 0.21814379306819234 0.24724908009605437 0.17695730138826934 0.14110186504284158 0.1998553578297813 0.18610298777200424 0.08491986509866921 0.24836610961276728 0.16980477332291838 0.26690837282319424 0.0017657147311765068 0.043514172794691074 0.05108200194837666 0.25145268998260667 -0.012331027296074526 0.16639620372631628 0.22366959411264536 0.299779476824558 ]
[-0.1435163129770528 -0.3093319567508831 -0.22676463180953624 -0.27898068369870194 0.24110950450384763 0.3572351629559357 0.08707254291852409 0.06488155456067946 0.19101158690664996 0.059313614488367625 -0.3788158027645192 0.22330488541114146 -0.04161461110422784 0.0007241685522124631 -0.3037854855073294 -0.22399872172805077 0.43861834368094615 0.057414330149673905 0.05636647979118979 0.3181159157037535 ]
[0.340510350574529 -0.014827349278991545 -0.37725808528766014 -0.36462328361729895 -0.15311376544240785 -0.08337764122718508 0.3234847930265365 0.2401966553421798 0.20734034007559116 -0.0002982999028545908 -0.1805935521269013 0.2629108053761573 -0.0687671840413292 0.11251556919495505 0.16098641295212104 0.3485545809291656 -0.14962957705691518 -0.10504245105267754 -0.0017320658261487664 0.09948806254505752 ]
[0.3411175279676132 0.15942711801351772 -0.09106649618982912 0.0464706122854521 0.05688333718518935 -0.07596762162984526 -0.16956779609570663 -0.19226843093241283 -0.137692354767782 -0.22148744665021033 0.07541697440659284 0.2448964998140248 0.2735588693353213 -0.1503891961229482 -0.14832923729127537 -0.004719905159451424 0.35030091016874004 -0.27441663911190134 0.2209303500059599 0.43472930278243344 ]
[-0.01394721442658492 0.06597893957403853 -0.009136723711878496 -0.01687170608511319 -0.12510278781241735 0.23839325963472224 0.0973776896126555 -0.3183017843236584 -0.3199348596233968 -0.05445687609360809 0.09658843551575566 0.22577978812949046 -0.41378436607282965 0.27624408013385143 0.2801948414335196 -0.24184181999827004 -0.04530288365236873 -0.32060809687232145 -0.04723676484498369 0.360830087859198 ]
[-0.03794648697662468 -0.10176181356432547 -0.031461357368376186 0.016662088252545244 -0.37042314282226674 -0.16797000706975054 0.04898699833188603 0.3574867319620903 -0.08488455539903414 0.12641696627524304 0.2944973619540338 0.18401295543046728 0.20253580419307743 0.22405148379063664 -0.19347930105004 0.22080340967303697 0.25001343865384634 0.27503898603888405 -0.17204670498737343 -0.13992097820621788 ]
[-0.21568775401800033 0.0893098972324874 0.0962572224489085 -0.30432230380062625 0.03385636310176984 0.07306145456566114 0.33100007784619734 0.3507465143569655 -0.20947152752387155 0.2863042489274204 -0.3290772500928147 -0.2881771496568197 0.17135153346711451 -0.012935413920770652 -0.17348750375645655 -0.374612429144162 -0.18102688331606212 0.2029129394071011 0.028076802608809702 -0.1713430603568322 ]
[0.3301757409802343 -0.030929828256539168 -0.178336855388246 -0.29199627451793625 -0.04424053150030731 -0.3242524937004031 -0.2150718864443745 -0.020468921223591733 0.3391882767012821 0.08678765595862176 0.07711038601962958 -0.4072983095517121 0.2758496662905951 -0.2846774132291265 -0.09931591535250078 0.14964640130985724 0.0711589107246933 -0.048584247125631495 -0.2483502548531424 0.2386692188592028 ]
[-0.24456552958441694 -0.23119948098301502 -0.02330049022511576 -0.0807413994014779 -0.1543392601273539 -0.01479882567222135 0.36676311119631416 -0.0042458174850286265 -0.24807871315144994 0.02737823146471067 0.04430562529656507 0.47973085017968037 -0.04552306271111538 0.24922004057417077 -0.2820009292267452 0.3185639612758124 0.05756984150588538 -0.07188671933151439 0.06815899971955183 -0.02678268514751861 ]
[0.1575990429657277 0.18135068861392536 0.03292433096500623 -0.14000528101157753 0.3550135091346186 0.2389831874416113 -0.08198774090837108 -0.05455585514351753 0.36599351595753515 -0.04097393301500371 0.18458954345026682 0.291751501716978 -0.3199019924624942 0.29073507059859965 -0.0960770746173933 -0.03500055798057068 0.15035431959112372 -0.35899487210285497 0.23324459443656873 0.23447414037877434 ]
[-0.06995077205033598 -0.37770957209061645 0.10162296472353187 0.12320192148676008 0.07242416847363996 -0.2113137721401452 0.28169167936673883 0.04974631734661661 -0.2670729659391563 -0.3530386413080223 0.28171116024937803 0.1430703019648194 0.1637798930384589 -0.3934268574344011 -0.05788753160413576 0.336623904836755 -0.08800878546349308 -0.2966649788242313 0.26990738803307457 0.1555637222009963 ]
[0.005821265586621677 0.21631149813687586 0.27522932967279956 0.14602504025873933 0.11414503960145113 0.12261540650239691 0.14789016774004052 -0.0019153988999301703 0.07116877878195992 -0.3849466051719405 0.0500648235865525 -0.12123491700577849 0.0025745104955260095 0.3019088302605645 -0.09680370667380771 0.02841091752809871 -0.011775391890102665 -0.11411742692717736 0.22171000075488836 0.24021132621699884 ]
[-0.24242193698948544 0.31969762631782794 0.20621403573116923 -0.040610820952413314 0.230898668394546 0.08278864919878341 0.14051270091902518 -0.24028041481703896 0.12282305486704022 -0.0038127281698222743 -0.0884883927254889 0.2595191257534007 0.04181685424049627 -0.12261997641152854 0.042203460188723806 0.23577757139367814 -0.2650608107155513 0.0323573019176155 -0.15081926726985284 0.03724431171854841 ]
[-0.25943293885990837 0.010014550184149167 0.3054520176592545 0.4099972628421317 -0.2448747145807052 0.35227541363953224 0.02516286357661058 0.016707609437025678 -0.3571181500710493 -0.13970236076292583 -0.3896235159355132 -0.09644753227606054 -0.1099728785533243 0.36427226528878087 0.21939542596308034 0.04141682775192528 -0.15636372650542477 -0.2456418885944055 0.4758457735449941 0.18449706166759697 ]
[-0.08967248392882629 0.23505315317731915 -0.2975826363007762 -0.1445274273907016 0.3366982253110354 -0.3582899293475991 -0.27264972258426673 -0.04772055852901047 0.3018421678924522 0.28326112626646177 -0.3474595546579782 -0.16254462815140627 0.2590130797940838 0.02268587308769546 -0.32877696235594284 0.23336549970735337 0.023530220563442516 0.16672447516182878 -0.1971571927148454 0.35398342980284486 ]
[0.0711036647843385 -0.0047081563140567925 0.26042890973541066 -0.1842040473421954 -0.3373880712818129 -0.06949662031199991 0.21316936730725455 -0.01908386302605749 -0.17123509187736974 -0.20080392855016066 -0.4759689746304549 0.0677599947755569 -0.27046218525419474 0.13901217022944 0.06647653420935978 0.08168516570926702 0.0694936050686836 0.2012695514711294 0.1811101703757017 0.2977390877912933 ]
[0.40302219288284236 0.02900816172381616 0.22666970589175536 -0.12903058250508692 -0.11466994271571886 0.09536924494165315 -0.25314208346226824 -0.007488895160685993 0.43995692877493503 0.36460264087334837 -0.1961550113757513 0.0002743665958685138 0.06088714165684149 0.015764219072944535 -0.055696821755669194 -0.016948093170565285 0.47829629204012825 -0.175112436962556 -0.27711989353494915 -0.08130577612608894 ]
[-0.06967248415670944 0.05252169201518641 -0.016005662882677303 0.1536900581457035 -0.26303348161226664 -0.06681878949985562 0.21658172879484747 -0.05668876239009407 -0.24114112444278485 0.0017639128492029231 -0.04578584001974606 0.06812211180153714 -0.31160779930835275 0.38011833170026527 -0.3124224349179108 0.1713923572857948 0.018464378354893937 -0.11443320210654531 0.11185287373897744 -0.05988134409996175 ]
[-0.2549920713114949 -0.01622442523623864 0.32888497278348183 0.07502674786370646 -0.31773546734333313 0.24187773804051185 0.17749741616165893 -0.29807107282965745 0.0783712432022464 0.1902188911273008 -0.04531205591061899 -0.11063273904652109 -0.3266684271168152 0.1877609556082122 -0.08756413009179712 -0.018871506960013572 -0.1828057901720675 0.008961489032273963 -0.39839116708527905 0.05949628140301268 ]
[0.2053535211211284 0.37439098110788066 -0.06368311086707612 0.20386231346788533 -0.20272429757895472 -0.013154747081916742 -0.0026127383962170677 -0.23054784419618835 -0.2929209280076101 0.05321526060529059 0.007505018086616152 0.2081239498329167 0.06738374087337631 0.1837337027291851 -0.007134913742543748 0.26502762792519835 0.24576839404966827 0.25440598715936374 -0.009786259438204823 -0.297276656688068 ]
[0.27941208825368435 0.08002560445543278 0.2720743422577322 -0.15791259302565094 0.36271225951379643 0.1943348835653749 -0.41682311092395885 -0.2054417686637047 -0.2913448379843978 -0.09525545497644662 -0.2439981639419877 -0.3814319336062606 0.026974321147818076 -0.34395488637059746 0.3630434344636403 0.3809711451048468 -0.3745044738311031 -0.5813281810497937 0.29973620122088834 -0.1923218644799979 ]
[-0.10406602251452958 -0.03003257046125528 0.30001568635237497 0.08891184752598004 -0.31861903663145263 -0.22541147827840524 -0.07133522863611344 0.37821502698207154 -0.11101540014078609 0.03745286362256666 -0.09150544157833859 0.23094271895949287 -0.2054630325855764 0.33456357619665916 -0.032259007766687095 -0.3591003099070559 -0.12159025757042222 -0.18511029342488422 -0.030817273471226283 -0.07438040902456264 ]
[ -0.014286735543024131 0.01744144443010201 0.01575962339330257 -0.0037443118732350673 -0.0024903684308658 0.03121604152117918 0.0029694889249753114 -0.025837137598574346 -0.030293081338517696 0.007289885070360631 -0.04355285988321752 -0.004345840461984396 0.0025284259962389363 -0.001800840702353819 0.00217413801232244 0.012104642773357545 0.08812396291098551 0.011978506319201524 0.05960600551350363 0.028398746204772302 ]
layer 1 Activation
tanh
layer 2 Dense
20 40
[0.27615970099643067 -0.1883501062435475 -0.26303244052782127 0.01585742844363838 -0.2389667732455731 -0.03661046256265513 -0.22427452855628158 0.16576099901751554 0.32019688968033583 -0.26776897854401127 0.11018979324868765 -0.3520413595251359 0.27622515128001257 -0.10653733621460551 -0.10995477970150676 -0.08060122578720298 -0.10365296945331239 -0.2264272309015691 -0.1495383398229722 -0.1858588597093822 0.27170372857805636 0.19423499406749864 0.2057618241102851 0.02339105254607166 0.11878471947895484 0.20776156597223688 0.29295300949577796 -0.173745217957706 0.238727907548324 0.19912205872618907 0.04316069058425593 0.058740350661743816 0.07292076064398849 0.05424149893193015 -0.2592929880309571 -0.34249021867193713 -0.13082437028331728 -0.09909839113134224 -0.29677836686569675 0.2338979740343145 ]
[0.165778642787047 0.22974643532492722 0.13383587576889017 0.21213980062532584 0.024975183327215683 -0.13409368815106387 -0.08546159526216357 -0.0766542250632741 0.05406668644033982 -0.09264364147319983 0.13862645491523665 -0.35596982795209087 0.20187230211023266 -0.019837660752256205 0.12022359863240639 0.008852338637368607 -0.2096083466406898 -0.11043487639650786 0.058761726233840086 0.07855338704008054 0.273203948837948 -0.2031555390424932 0.2677294515500612 -0.07896970038068236 0.07716148687531253 0.2122137251326405 0.020504942905969055 -0.03269083832340253 0.006815036597122435 0.14268866631146704 -0.12465936938071079 0.043079006022914486 -0.10030177882311933 -0.1925938638554847 0.037400317164396985 -0.3155104810339959 0.03428862693792826 0.19856667831441713 -0.1320435794188743 0.08874130514146562 ]
[-0.3566191459069161 -0.17596978351108675 0.0926362570051526 0.12347785669133446 0.11713070113891062 0.15063982436402973 -0.25607346929884106 -0.009715006642680761 -0.18358749902356813 0.09501755852396265 -0.07407008796911851 -0.015891346419785898 0.0737159387626764 -0.03268401491885991 0.2867927674408649 0.33792808855705075 0.22014502217483933 0.2544887591879228 -0.03516522817889607 -0.2651098928215708 -0.31085500912596703 -0.11301654338175059 0.1415484990625411 -0.22921031598170777 0.17406426596500613 0.16755662073088923 -0.2086735683508927 0.027436384008806828 0.3231921919402555 -0.045112472640336854 -0.11747717394095462 0.054386899511452355 0.14144382358515079 0.20239439616961438 -0.2122436387459593 -0.15018149147699608 -0.17107984194954437 -0.011676617175378521 0.29441878035257846 -0.2557258859937879 ]
[0.16192978720901588 -0.2222150711216701 -0.21615961675333248 -0.22578148500370013 -0.2604818892270716 -0.10990977563897046 0.11643408572181375 0.07093239467075202 0.21507485775121576 -0.2340478405874718 -0.017433679614319443 0.31267167542840346 -0.20116629075653483 0.1837575969968978 0.23333708262546324 0.21381903951334966 0.050754248862291414 -0.15640273907236013 -0.08511432332188056 -0.1538645590500312 0.24980705106483234 -0.05816392417744718 -0.0647158528346606 -0.18584214269148053 0.1671014167988265 0.291813442687893 -0.07956635518853386 0.052691102738265924 0.04365638898260783 0.10486459443225393 0.03966327474159374 -0.1554350604034863 0.19587299023230637 -0.058300932055633366 0.11026621074731739 0.13973853797921515 -0.09102038151311143 -0.10754523097365905 0.08530834905783517 -0.09569938619062693 ]
[-0.18579951985231688 -0.22247708102838304 -0.1073892571311084 -0.0807959462491248 -0.11989522253731201 0.025254903420907863 -0.024350576357598516 0.01190836610649652 0.06581885549982987 0.01887898105971799 0.10290531100720576 -0.10916702125198806 -0.22779227349233752 0.10835145012279034 0.301471840380728 -0.11816319067685084 -0.1384580820641935 0.08334988689800038 -0.053628660876199205 0.1268963200803377 -0.1841757441675634 -0.04255465300031022 -0.30517776342973135 0.05304346422267398 -0.19492702902434866 -0.27521845570118353 0.22326858432065805 -0.30702655428502146 -0.07098012325429874 -0.29221081018827705 -0.18869228606688718 0.046345382880934746 0.2887094571013728 0.12920509859519613 0.02721909769394124 -0.26043962957714073 0.27660161782216114 -0.1344109816605979 -0.10039468881859273 0.28330934572260685 ]
[-0.3631823924283674 -0.1733550403522606 0.04409890949172912 -0.20806222425003168 -0.03997480144188687 -0.03430982525571174 0.010914703994851461 -0.2126840401816888 -0.17138375433655378 0.17211897843056467 -0.23383602376905518 0.022061866931094475 -0.057734963907150834 -0.32566936298033106 0.23613975830048453 0.35028676504338935 -0.008311365782835246 -0.06647846522677041 -0.1850637769407331 0.06907916021307046 -0.22888156851474392 -0.027285823849129302 0.015127369073322931 0.2593344637142011 0.0796258230947752 0.04822415233526138 0.08459967994475541 -0.2499612027954491 0.10258037326422557 -0.07558423652564117 0.13580075577242678 -0.2346128301777797 -0.060613785027449074 -0.134015335415717 0.2798371538551353 0.3130953084449975 0.26552395159922837 -0.08256370222642023 -0.04437187605426959 0.01976786651285154 ]
[0.12046057354891779 0.052760938160526384 0.12890927393649745 0.462799836783484 -0.008963618841593801 0.062499968208924214 0.17717316912670875 0.2638054403363218 -0.31028293887633807 -0.021657025481917398 -0.15216546357130442 0.17783497503285145 -0.04644776755988742 -0.17904510269576807 0.18217507361399624 -0.09303539776529876 0.2791154632955807 0.02527490871837151 -0.17181302159504114 -0.20844031322429815 -0.183419974016814 0.2822583108339534 0.14188733169643622 0.036141624017538086 0.025271975259457916 0.1369998232775979 -0.030066040853224927 -0.006850158632680071 -0.0961783590530104 0.1428321130386728 0.04723433285964908 -0.3073607736487242 -0.26091808367351105 -0.14663671306901857 -0.30685914594830943 0.15599131055296034 -0.2853535774279183 -0.08860466903600756 0.036667589066141155 -0.36882882714756005 ]
[0.21291935224113295 -0.15539789079047947 -0.1614155842913923 -0.033638061557123504 -0.20984674056575023 0.17891794658481816 0.20626007597634666 -0.2636025385868496 -0.03314984500766519 -0.11637978329250023 -0.27002013640948574 -0.12957657201757683 -0.017493039812833712 0.05498176789529807 -0.18525201117696688 0.2036033786685075 -0.04800007124540255 0.11678168228516833 -0.2100028560493915 -0.4110231718194093 -0.1298264810713052 0.1220649931888655 0.3026157668521323 0.11963585561597964 -0.2074118568052192 -0.2396725141011543 -0.20759430456314726 0.17340886185299045 -0.1038482733834805 0.2364764864783201 -0.15707165492444078 0.1677322341479776 0.2915871022293115 -0.29967415053973734 0.13881810817165974 -0.2660868471399028 0.35000750975824446 -0.18654069857425626 -0.298930498222226 -0.25684959281897635 ]
[-0.2596541280701233 -0.1788444583394112 -0.06294276299294489 0.24638197238411855 -0.2619664126124756 -0.1506488869647315 -0.13779467183426358 0.10264612453746785 0.13070880470161936 -0.011181003133118204 0.061181906261519786 -0.13439398059644 -0.034836419473222184 0.16561490901492454 -0.24260436300304747 0.0407440460679511 -0.04092001605950131 -0.14420792918888178 -0.3435733212607028 -0.19725970797092982 0.08735057106116581 -0.15148124336948807 0.044968851929678574 -0.19228703024042365 -0.18659068022814018 -0.12771259749938282 -0.013192833897593759 -0.27906442985674607 0.13679501199562985 0.28651640602706374 0.0627540011169044 -0.25200934842599443 0.0047542909777481095 0.3158087828700947 -0.013533113031767808 0.15300915322294603 0.246463097590129 0.29025519535450656 0.11295301242088196 -0.026536179295313628 ]
[-0.10118199442731197 0.0783235736723182 0.007688078868020717 0.1003031244184616 0.17560463693047124 -0.07266575839210405 0.02445728087276005 0.2575835292240616 -0.0008565623037628905 -0.10557355806383881 -0.21277268971425134 -0.11341275200232061 0.29501473491794183 0.07212308676760981 -0.23784922365649755 0.019014929645018785 0.06523022471881537 -0.052739432677025314 -0.1630126308267615 -0.1025086818129333 0.1049907352334927 0.09960740003158843 0.27368725588490106 0.11905621491929778 -0.06378081967286861 0.12629424003884782 0.20551072273700977 -0.04281309038545976 -0.11647058179525704 0.14284613936258966 -0.2840165513638025 -0.07060939879500241 -0.22049371237833712 0.25256443804940854 0.05887162157781378 -0.35804130365027487 -0.07197578602490175 -0.3247668528893256 0.09303686260111838 -0.08833596126967656 ]
[0.008835928681677563 0.3289750321507508 -0.02719602062044329 -0.08151469629688615 0.0035496694175580663 -0.26753968849974163 -0.21327640954607957 -0.1355466590570459 0.24261111298615057 -0.1010111659854254 -0.22505058752484686 -0.07159484455050269 0.13531449174337062 0.12336931668569825 0.0752697119888456 -0.18521821190296575 -0.053801346238865726 -0.3576263369247676 -0.3296336697159853 0.11126982646933907 0.16896572847818325 0.09481405850658728 0.06177991657961982 0.08394313110029009 -0.02952077556675544 0.33934036489518965 0.07757678692183197 -0.14404080002884243 0.12103258838461575 0.06651319479188324 -0.1639255110176908 0.20053032290244524 0.21304259796592928 0.2888495332862587 -0.15026858760518147 -0.14809988141167937 -0.20606427339015768 -0.33728885157623484 0.11714603321547727 0.2807735346919292 ]
[-0.07745707024548691 0.1521350518867983 0.15241639740492496 -0.14467524867186785 -0.0633950855720272 0.2661423866871385 -0.2329473276994746 -0.06930832516561518 -0.09807599851570388 0.11486421045607687 0.07531710533216258 -0.1746699473129271 -0.16795575292051426 0.2550155984685393 -0.08527634282134308 0.25397677880658165 0.04427587663259266 0.25330483328326436 0.12901581684689356 0.17512436847358726 -0.1830500871869222 -0.08490357306407405 -0.34122129499452736 0.05245965674280731 0.23384595810937525 -0.1884118682254195 -0.20082971635769029 0.3136488316385289 0.2779092453318756 -0.317610018998111 0.27791716410266115 -0.31783250795938206 -0.035043544571787114 0.17680273111352768 -0.21187710263388032 -0.03789727618533572 -0.28469272434475673 -0.12070431161867523 0.3455371109380492 -0.14583545455249902 ]
[-0.22677227851758508 0.234102415842593 0.09270912547469497 -0.22895211415209762 0.1674502937782328 -0.2892057707621981 0.14018018381297948 0.23400285993423764 -0.2171389309180759 0.1998574020950159 -0.23874919006508413 -0.19125690242126567 -0.1822059428752156 -0.1452919126362925 -0.376934866733015 0.12354133963077105 0.29831781182749756 -0.1126617379574597 0.21319182706940418 0.243619263235285 -0.09118111017577332 -0.2463581651393638 -0.24224986077120167 -0.079749143825378 -0.014874620412484683 -0.055007560076805996 0.05729967091092085 -0.24398028200820165 0.05754552353744165 0.21533899046907568 -0.29716187094457147 0.17199870645119492 0.30539118565864737 0.2604307303685949 0.17444405737454116 -0.2727400904126945 0.028322745187084157 0.09821266462162763 -0.25511954160953965 0.1627108365137263 ]
[-0.12525096671557429 0.08322792983323155 0.11505107865112725 0.259145329798586 0.11670698839461484 0.2686432252956804 -0.06871660208090642 -0.26126006477301456 0.07002780803817195 0.09048638951742022 -0.0118239377297455 0.24690591870328565 0.09756872253598775 0.1931597046457465 -0.24029086788729717 -0.2740601474448655 -0.15712232606888085 0.19274211389516185 0.2548811723154971 0.052377822143665036 0.24178152756324564 0.011659683596508538 -0.09761751248202255 -0.19438105054560148 -0.19665502062597134 0.028119992871808015 0.06847081303826391 0.2732315150279349 0.36172514377043524 0.2856341609503049 -0.13402150258722975 0.09369083553281132 0.1787196290183907 -0.1933109512638355 -0.014451162849017452 0.2296172923734448 0.2677392093631016 0.03877181441932953 0.23321486919278894 -0.236787206024192 ]
[0.20513032253655825 -0.2209716685355497 -0.20109722354559775 0.18137799322840842 -0.2794836512134925 -0.00047032084341507106 -0.21758283733528655 0.21956922784728197 -0.20068738697578542 -0.2790923315983022 -0.31932021045151354 -0.2160628901284811 0.06898769430409792 -0.1345177823111796 0.2794040541967088 -0.15358807118274287 0.03880498700472139 0.1763449809454315 0.24567017347555123 0.16117804079899448 0.3061371137006369 0.2393097947232871 0.06128952405091097 0.04019998932726686 -0.1709306693968358 0.11646190290347276 -0.20173871992370418 0.21369903520190378 0.025439556425821817 -0.35881703355735495 0.26018712489939994 -0.1630399013182071 0.10702353252519389 -0.1947270048573261 -0.11003584510634734 0.05371366372786021 -0.28426537641235017 0.25879722559731966 -0.0628869414845497 0.14901593505892796 ]
[-0.23124853840666218 0.15095323758321524 -0.012367477521018501 0.1399385595289865 0.2104013667401925 -0.00043248808419385845 0.08515610226982898 0.0794043375492244 -0.22055511802539557 -0.12441501992583989 -0.1558314749130783 0.02491394245825361 -0.3209080034191571 0.15870483842217728 -0.13076819738781745 0.2114658272415853 -0.2532289739934517 -0.31090511606159066 -0.16119051140442298 -0.26021101129345503 -0.262449410939735 -0.30580313244964374 -0.12498088142919936 0.03692293850831238 0.29825123296741607 -0.08001903309499758 -0.1185410707211644 -0.26042901726826817 0.34116203895090896 -0.04148348141912421 0.15742925190937015 0.2947627428584135 0.08529492892508653 -0.20374292647033643 0.15806493974445232 0.06729127429567873 0.1347088795768822 -0.10428288838260182 0.0443317480945364 -0.2760830913881098 ]
[-0.16749398079509087 -0.1969013900183418 0.1991788244543221 0.09029630010168126 -0.20360715218090944 0.12368421451584274 0.05789631607041599 0.2151489738087883 0.2279947836681193 -0.19960551221278708 -0.23367739555856804 -0.2693336009013357 0.08632156326832723 0.3447278636297579 0.2633705213451714 -0.16328343825611188 -0.24866218133146256 0.010793166979330832 -0.10975255304136063 0.09750824363393241 -0.2772604923223028 0.17192257377699824 -0.0892426636915762 -0.2555289352296179 0.16026506204845933 0.017332153300162988 0.17139274750679012 -0.0394683659448985 0.23358071235150485 -0.10948878324682279 0.25326497879418786 -0.17673057446599186 0.06657310212604302 -0.24655200618162718 -0.07109134989209044 0.3121820879491986 -0.2836315967257965 0.1449317380452774 0.03244245598912115 0.09531644804030309 ]
[0.3563043277535652 0.3780083469514832 -0.08099374542581887 -0.15954971889696415 -0.1986779048598324 0.14718162073398888 0.24415093064878496 -0.2842854537659084 0.19591621083894661 -0.03857783493489481 0.1148415190268494 0.10871274165895507 0.014518829991498207 0.2100348224049475 -0.17315826700258857 -0.3533949068084533 -0.2670839098085934 0.2114393342348494 -0.22476650116413555 -0.2249811648447473 -0.26810599390071777 0.35041952001820453 0.04939036259875267 0.2156215932971747 0.15840769823146045 -0.04961758685077173 -0.16322860079291596 0.015524267725344588 0.0755398951758366 0.13760161428616105 -0.06428768703213628 -0.10135893650316811 0.15115095400241377 0.11667644057371991 -0.26417420423193977 0.22184521841334554 0.019572039811753105 -0.12276246269652424 0.33075800077754275 -0.1960458588042512 ]
[-0.16808592199807915 -0.35176659916153513 0.25140611045863537 -0.24970142526522748 -0.20430684957397657 0.2882706932666562 -0.06940014331205682 -0.0721479253236957 -0.14601908400168026 -0.27780449819706016 0.1289578233467907 0.2781363148356162 0.28054600684029124 -0.3679962138471403 -0.043944907177669516 0.03312633972049046 -0.10031420982036944 -0.18789265636341293 -0.24136142825465964 -0.16623707356519216 0.30775205312391285 0.020542673138513795 0.010712444866761376 0.0425114740086976 0.2586217510516567 -0.1846619982634158 -0.26601754366751273 -0.039720838866240296 0.12249407562191096 -0.2712508091569103 -0.04405383869431946 0.1602644340875029 -0.15948132655200872 0.2721342843000014 -0.12341179407019821 0.18418254092658293 0.2703049074719451 -0.03452752981171546 -0.20843623794648017 0.19586167841474808 ]
[-0.318910781150554 -0.2665517577541027 0.28682661811420385 0.1981106253494165 0.18859898745910694 0.07023301200632959 -0.2215550886894586 -0.33965771715512855 -0.13345287336898265 0.15294776954919753 -0.03397512039366449 -0.07501542892242513 -0.28661619824374374 -0.10428467992561083 0.27282803355032387 0.10275539834678594 -0.06782241184080093 0.07778047871646611 -0.15597360018729353 0.12108578930432529 -0.24520016137179865 0.11462621418953083 -0.08405655762448115 0.23790100588064653 0.010002370657212666 -0.3076340827875253 -0.13261807730489353 -0.13552784956224784 -0.10858984169865203 -0.16958980948141894 -0.08842831854959844 0.16556620606857086 0.07668480498869959 -0.1462909748914471 0.27773481420120816 0.14372162184909573 -0.28266174611721856 0.11222555803305498 0.16743654927217252 -0.11930193295221954 ]
[ -0.06690825938298693 -0.018249976634997257 -0.010087570322139076 -0.004058161039080355 -0.009585926352972951 0.005544184847869615 -0.004302724133457377 -0.026980076705882594 -0.014575102942042582 -0.008449526420724376 0.01360192407114131 0.02585797691056882 0.034366175274174404 -0.03193196489031629 0.004167537186505997 0.055510665124526286 -0.024035891809107653 2.6400153770427806e-06 0.0018575137597273631 0.12955287247964153 -0.0268867796365515 0.0099612165609537 -0.027212487367625125 0.08105676657129085 -0.0041024444936461355 0.0018350963373058471 0.0009513301650197711 -0.01765800569095791 -0.042211448996407865 -0.039369739035541765 0.017555448464856387 -0.03430145889841426 -0.019775026376501127 0.01130459065255369 0.01042339593467129 0.01941046278587665 -0.0766435238322297 0.010754918161392069 -0.005289618160913637 -0.003299041834468691 ]
layer 3 Activation
tanh
layer 4 Dense
40 20
[0.13439925582441248 0.17667329951369168 0.027670848885560647 -0.2836299336018234 -0.1421039253560575 0.1596509087641891 0.06090720399982613 -0.17694439520936245 0.2914250706147108 -0.29931371400706286 0.28287613390387445 0.07651466691018427 -0.223157606401805 -0.0937719685321431 -0.12496643072681135 0.2170321701039684 0.14540442279934845 -0.25052318592915823 -0.15582285351787792 -0.30034544467758123 ]
[-0.14179982832274626 0.061302151247962164 0.02554870392533922 -0.20762806501050826 -0.27779150905541344 -0.10159004528580191 -0.24185387798329816 -0.032639596250985156 0.24473447775436719 -0.30772236230520167 0.17624680393233913 0.12784911331995188 0.28013233320456044 0.17071099227860917 -0.13381779974403962 0.2179339810169971 0.2659738707257901 -0.12247589266151834 -0.23573066781384036 -0.26605409577929634 ]
[0.14972677198315393 -0.18253619716161756 0.06426936876195612 0.02203276298718605 0.26438076377049385 -0.2050454254327918 -0.0423728555550201 0.2905922425485926 -0.07728949470332133 0.19313169436623068 0.26561635745445833 0.19553244218767715 -0.22515789809551842 -0.06980400756263204 -0.30928154935447083 0.05534762995609974 -0.26175743760487574 0.3036662341399789 -0.0008022115136212611 0.1907284955881803 ]
[0.12554912958353778 0.07084249618929256 -0.24993242116783804 0.15732417295555895 0.02256163231726848 0.031016641795726295 0.14140441965368297 -0.2709513598338303 0.26053211892864003 -0.33054083776059046 0.033219401154398816 0.07808566882928475 0.07660777720425015 0.004160372534793566 -0.20807798964162905 -0.14619627043653913 0.06428220730631547 -0.00667231331548792 0.010309377366647991 -0.051492100669151254 ]
[0.20365287176832844 -0.07108222273549336 0.3052529921120464 -0.19797561345459197 0.03228542746239423 0.19642346332535768 -0.059119275670015334 -0.07802648430777505 0.002262426282790811 -0.06816731038692796 -0.15955256226323458 0.09630614808231062 -0.2580313533036375 0.10563041439705093 -0.022366676219100292 -0.2941694014770283 -0.07572326877369016 -0.32843947784971966 -0.26442656961672056 -0.05363647907688287 ]
[0.025526565036112052 -0.01044867393036642 -0.10151489412485719 -0.07695018444394476 -0.26639671374019636 0.23972713159589099 -0.09669718607258516 -0.06736851907790212 0.2939875519349548 0.25578263268376944 0.012197739750693081 -0.060607801993375086 -0.1619471298102717 -0.20265765158362145 0.19003990582121985 -0.16708732844064295 -0.32769692095265984 0.23282480090370647 0.10884924414642437 0.09938999913833915 ]
[0.15014812873963185 0.05272263054181471 -0.14103610869352276 -0.132366649201355 -0.13877554364344571 -0.08305823148047763 -0.28043858129972143 0.14239335566692995 0.06115255388356396 -0.11760367016328542 -0.10343977366767494 -0.2260357397378913 -0.04962074673935948 0.29725147986983486 -0.10061395016950783 -0.09471195819490835 0.18928964394976716 0.2567167578940935 0.16519030007424915 -0.08866173365504576 ]
[-0.27527562004635164 0.071716545105103 -0.19038645004007837 0.17152782730078323 0.026719206194957303 0.04395890814069761 0.20976115089676545 -0.24435718885348093 0.02484151618910781 -0.09689121279323165 -0.09871025192022052 -0.07122617307961977 -0.2803632593904669 0.26292454694235257 -0.2670225889418283 -0.07432122691423229 0.36080150992956006 0.08630308716690693 -0.2191479795559925 0.21886830044645572 ]
[-0.2903150567264548 0.3056920413668486 -0.16546289564161334 -0.19420277176468867 0.2996161421174433 0.04881564812454619 -0.03312703557991116 -0.02828831777470418 -0.23014414206213898 -0.1927228420040893 0.047040746775229916 -0.10771512589782116 0.07723550107005582 0.00196637340589156 -0.3219114739560327 0.1927735213780725 0.2197170957647731 0.25855660714857104 0.2353550505242117 0.008364004334118892 ]
[-0.2295482310551968 0.1536583774542888 -0.4041132490085902 0.2616590658441359 0.21807080520745248 0.09623874139595248 0.0010684573441882873 0.007570982517286445 0.07056640483667258 0.06453980542353165 -0.21950754618678614 -0.2523915046124241 0.10196455229060275 -0.07045142412138132 -0.09492078596606957 -0.06399640808548887 0.05882161619546796 0.0027929346006725572 0.25725127476973797 0.26616968699013815 ]
[-0.11303893136810306 0.18107506969940956 -0.05509097721564554 0.20907770166870807 -0.022582400228304624 -0.12276041986550673 0.23798558161651492 0.043001915033848384 -0.12387235292870996 0.31801040677231374 -0.15404656320376853 -0.00031648030285125065 0.2011087287878664 -0.031873264697144195 0.06773478488355654 0.25907366952202154 0.10919928085632649 -0.014227765064313166 -0.1573264511649528 -0.2570018713327519 ]
[-0.0014919471665048043 0.17194186082028826 0.19030343678018885 0.2733681609938491 -0.23363490681820948 1.689204129380834e-05 -0.20910440587799883 0.13824050601414295 0.2773289741216114 0.17302576982583756 0.19371618750828185 0.07065696301401414 0.059618152371076566 -0.22741602876280617 -0.035354204288502354 -0.05225736043853685 -0.30436886817294073 -0.12231359234099959 -0.07038393088642436 0.20004763859494235 ]
[-0.19905827107760138 0.11954231833702757 0.2370529704877836 0.2836776546203212 -0.05051078382916683 -0.22790062558655025 -0.26988416955888206 0.01317306739056287 -0.15164336758925925 0.24940707783436364 -0.06045694737057698 0.056428191756739 -0.09271275690558452 -0.2108566776797307 0.0027577021218515713 0.019603976765210814 0.1682621251992481 -0.044388673451492014 -0.012160163484947518 -0.22110880995756918 ]
[-0.20734122889647094 -0.2738284206789443 0.18562925468427333 -0.34095923182087956 -0.16610151632809958 -0.05753997567520425 -0.24361128818377573 0.25004096215554567 0.04094752389696119 -0.29670153372237734 0.008187022078979679 -0.010027190904513636 0.14387216615061355 -0.24830180015954675 0.12267204856148961 0.1473125712486745 -0.14778832209661324 -0.1401268719295687 0.2013456319577621 -0.2890715555837148 ]
[0.2708236702189688 -0.11033872605513116 0.05631834063108487 0.27369312030457443 -0.3192592618216176 -0.22229785044093697 0.07740554985239625 -0.10307599782135381 0.3166104765158047 0.04615351725988838 -0.12140157855510246 -0.008470307897941263 0.30264255101412973 0.262223831809623 -0.20756029960318356 -0.16552379092192712 -0.17142086705302248 -0.03955682285095182 0.27783959211148046 -0.0876335818990145 ]
[-0.1602994796537628 0.1168209364259535 0.08352745215770152 0.025974527796976263 -0.26711776335547527 -0.23357339833227045 -0.06581474283298848 0.2387548438847184 -0.02235337773023003 0.05959610707211954 0.09039245198435288 0.1554289315094188 0.014328608453436552 -0.02163585923907666 -0.03625713470336474 0.12117729639254612 -0.13204775220108286 0.26963386748041485 0.03370447402527519 0.16390085568240886 ]
[0.04998292790488646 -0.07783986535554435 -0.07383818845195322 0.16848424671178705 -0.3455270837848761 -0.17444502665604766 0.06914330362394229 0.08847209887449964 0.13839216988791372 -0.2929764994806685 0.2414471341436419 0.16928302359994665 -0.32514525895761 -0.22289533027752031 0.1468124742330367 0.11538406586570667 0.2666322449050333 -0.26393280902543426 -0.013470426876185783 0.2508031923342026 ]
[0.16992640659974947 0.01914092093762075 0.20094287055122567 0.14603706592433682 -0.24240969405544555 -0.29998896829281896 0.03433623104692163 -0.023454527892801922 -0.039143439978193084 0.3207912798897289 -0.187590083031114 -0.2770263875640768 0.19044080464863558 -0.17445924673803415 -0.26210234450665676 -0.06653676645071456 -0.1118974689045326 -0.02503623208956248 0.18070333931578444 -0.058936175307852647 ]
[0.3320248522943232 0.27136603019865874 -0.1622435762418328 -0.10437826404853606 -0.31841063759420385 -0.21354411897125036 -0.15317128663295218 -0.16874092324720433 0.23415431612979848 0.019519273786358364 -0.34460879402073946 0.03570035451584296 -0.10781060103880839 0.2665032061913539 -0.1886608421514222 0.2407916946608945 0.032432452110169756 0.2951749239596877 -0.2721068962455749 0.25808557125075826 ]
[0.17389475776922414 -0.006054826285259959 -0.2812734267432731 -0.2911814357195328 -0.10425414299671983 -0.029590607410932755 -0.21442407283724463 -0.3334352364081635 0.29133907683575777 0.3502778895949446 -0.14049615636435292 0.31109586313160736 0.22518545814652496 -0.03964676160269325 -0.22788029690188258 0.13895982209529661 0.21589886816162837 -0.11032963181425298 -0.026749334147797493 0.056834042074836964 ]
[0.16881505028451216 -0.12175589423632072 0.14170492576562568 -0.004632415228785204 -0.23177323247794065 0.15385328450196395 0.1012667883167589 0.25051252008672736 0.13284631360641483 0.008865484861138003 0.2199159498724666 -0.03546083957601424 -0.2501470107977417 -0.23714341799287084 0.0074165164921085845 0.22565365981177612 -0.1973742317504287 0.2401081132350526 -0.05568760737894047 -0.04068806644094267 ]
[0.08303791820933835 -0.3003514661276447 -0.10620031609967445 -0.07681989982974485 -0.14996075182743565 0.09586048445924719 -0.018003514903754993 0.18774666851848948 0.13383938649682198 0.1180405627996729 0.21489115377412468 0.17453336226286517 0.14150879655060858 -0.05165520274153236 -0.14952017060191086 0.0022409953499385286 0.2934971595031255 -0.1171882493178019 -0.1588433814600871 0.2065717234438493 ]
[-0.30262304425518044 0.2433942534659158 0.12810423634495305 -0.0808891410897852 0.21739546865805903 0.16457574601417743 0.23495358029015265 0.24956465734728714 -0.11428946498856617 -0.08092796126709441 0.2570752953431662 -0.03920004681493786 -0.23905491706685972 -0.2198747533496875 0.15103272650140612 0.33368438483893 0.23619361203925981 0.17469943324232928 0.12111619269318982 0.07590051905536807 ]
[0.10307583656709678 -0.06354392907814002 0.11461842604546721 -0.2557385596657625 0.12015409302959587 -0.2491467713038566 -0.14943644792864028 0.0716132589470912 0.09852709542060262 0.21828423718046877 0.26675494182113196 -0.15004973571069088 -0.047522401294220515 -0.09921587770215255 0.11990576967864791 -0.0913664668759243 0.194256126523308 -0.27835353425604475 -0.22630556867939508 -0.015773285175548143 ]
[0.11541021394613285 0.07720108395435744 -0.1879922841265995 0.015334354916473366 -0.22134560374509976 -0.1683869275618841 0.05364816619549256 0.2117235662144582 0.03963026591981065 -0.08988191646016495 -0.06520502843363588 0.1844132495088302 0.11465113323313757 0.2175422179837969 -0.1753418312841643 -0.2625623861546609 0.006927741149989018 0.015158138679835977 -0.25850439467684155 0.13965438607622876 ]
[-0.21484718251236065 -0.07263546500334385 0.286756851529584 -0.10933736207430488 0.08085451308234444 -0.019893574516335857 -0.2704798920355844 0.1834390284482245 -0.11288011779105243 -0.12510122799036383 -0.08382134178330487 0.015435577636669315 -0.055700516040808355 0.06931023551373743 -0.1398516338376848 0.11038900703790128 -0.1575175643495047 -0.14289812243237965 0.11720590460494508 0.135265243292583 ]
[-0.05611421128393509 -0.1970703503910388 -0.08060190186613146 0.013746066349074828 0.3529322898139988 0.11997573784390612 -0.14414613396515902 -0.05175745104703843 -0.22122800294311967 -0.265592935703465 -0.2783816381907921 0.09633409132780477 -0.09893339846386999 -0.17381827899910357 -0.24052385631265163 -0.007809191145674262 0.19277577959214973 0.1811944519235982 0.08879847957533359 -0.23572846177077894 ]
[-0.25028394397153175 0.20810873778143718 0.0666201449955504 0.07368292664377502 0.18495397142260495 -0.22421068566089847 -0.1548950408599616 0.19156146114751937 0.379627883182271 -0.11864587025576312 0.10862324560490025 0.1418068979380897 -0.059601849909741815 -0.3424038667143949 -0.11792096592537306 -0.15489426380325763 0.252578398554425 -0.2155318377973371 -0.17933370929247042 0.08856634888401971 ]
[0.13517829030912842 -0.28028612588879026 -0.0812997944251369 0.28866552533590845 0.0827181227041071 0.289123362719933 0.06303955851550559 -0.04310451024739644 0.018498644508865104 -0.19868754986147105 0.1316430472335728 -0.15303353322307112 -0.3006116422602503 0.19046647374802597 0.011784733885592478 0.0334419455872995 0.13113087993591213 -0.26966909741975126 0.2159492442113473 0.050715060628380666 ]
[-0.25651478238739583 0.2898766667571552 0.3391475329898912 0.06108330539965664 0.0038383256389568077 0.15921963592076027 -0.1785303778976289 0.24905414775798046 -0.20663653927448164 -0.319872525285563 -0.11870774764746946 -0.312544442128005 -0.025655121353105322 0.228519745190844 -0.09081355139505802 0.09720933283242338 -0.13752157424194938 -0.29573141359372923 0.10758293069080989 0.16756357672787953 ]
[-0.11594224659907562 0.306643514116625 0.13663523680231657 -0.19121003845973789 -0.07399606338888162 -0.01949451582610163 -0.22603946200603495 -0.3014670918338651 -0.28516472120944425 -0.02860827984598428 0.09241200521077676 0.22264312317155696 -0.005157927904585066 0.16509682356138095 0.05522222472937784 0.14708111013995534 -0.05687626712602861 -0.14453874414830314 -0.03418581034976695 0.24900540439196517 ]
[-0.2834082801272512 0.31871344922097167 0.1261049588982313 0.18989397814519474 -0.11400944631699854 -0.21804802134788803 0.20267363225508978 0.23171554298792493 -0.16841148251820798 0.10191568305889297 0.0035736527971317886 -0.12083315999679323 -0.15445488623369616 0.10065634167982546 -0.1691876561490759 0.03506985529622702 -0.026354466993123382 0.07804638353485281 0.2129957567201294 0.1907991464763123 ]
[0.14258904032933495 -0.04731469661366523 0.15967672500954366 0.26842637553275234 0.09601115500553847 -0.12872207048940087 0.06128740915255905 -0.17902401324373413 -0.10730293160246028 -0.3018214006629751 0.3138659934134411 0.0706237354133316 -0.2550108891089463 0.13653939649164396 0.009766290702929137 -0.03133007122943503 0.12403735294733476 0.1560609631245476 0.29590081090947823 -0.036116299967176434 ]
[-0.04042093302898795 0.028337010152983566 0.1294184791896221 -0.1986102181531128 0.3169879626616016 0.22479390284663425 -0.27904641646207556 0.035692087175161966 0.018350338167223906 0.09805570039399256 0.29588737693997075 -0.03251018597551724 0.09884891971753637 0.02989609875699025 -0.24551992270743692 -0.1472912266305063 -0.139964399176448 0.037554323588390226 0.09457890126443516 -0.054555748866712654 ]
[-0.047899640076468686 -0.005249480938628639 0.30252822177703365 0.09742021032102373 -0.09795417486889153 0.1669977906131835 -0.2849664287355106 0.12974495547396017 0.15488742504344177 0.27472159018966064 -0.22334805174069333 -0.15640454575016935 0.07036601005264474 -0.013137726469655166 -0.02027240494549609 -0.07594868535349934 0.009273579668071333 0.23984169050552345 0.09974250354798578 0.35320913610920984 ]
[-0.10402398177980131 -0.2917772588712371 -0.27266449847513424 -0.19584693190926794 -0.04451072079923671 -0.17873728128286906 -0.19455677079742106 0.18942261635135302 0.07013883701884993 0.289568417312547 0.2589798208314276 -0.1678132667105828 -0.03072191673309725 0.09623797582961563 0.2774103550646736 -0.21998250411199488 0.29301895117879184 0.3069059142355071 -0.022953091389614842 0.03742157422487166 ]
[0.0945100433475869 0.3366717179419684 0.30748441831039947 0.14863920477653775 0.2898852932758873 0.006218657067199737 0.11455991947009758 -0.15785724813112867 0.0006679410761464637 0.034762425735248785 0.04794495872782799 0.24794375662611112 -0.332299691357839 -0.18870799959600934 0.1826038825624684 0.06557509636841173 -0.3256053691187001 0.15754011306442023 0.10945150068571564 0.338307944985482 ]
[-0.26354495329707023 -0.22687673892878152 -0.06127630156237047 -0.005020424879674876 0.30755107053000985 0.2445843864767208 -0.1469565933959475 0.24014069913264052 -0.2607466061193283 0.32890198163763407 -0.31954596786817874 0.29488280942829453 -0.10630438264271337 0.19533400246315494 0.11302321987276598 -0.3063486696461656 0.07965437024584082 0.33226597741172476 0.23192337960700887 0.21764957984404548 ]
[-0.09330047264716104 0.004842588945890118 -0.009156866456862848 -0.15153660150756998 0.26767401290445264 -0.050093204308686655 -0.018884474115864303 0.25916402251324344 0.02879970366555534 -0.18825246923102412 0.21119486318704145 0.08952105898154525 0.27766542151092705 -0.022850360336154295 -0.10569632789657923 -0.2932188759356113 0.18823749907556683 0.062001656149460155 -0.2784544661147527 0.1977859963793883 ]
[0.08622439087367247 -0.10288277700032589 0.07907686415594264 -0.08315413337577693 0.011446915163858377 -0.2816535311960707 0.2662651693145107 -0.2878787288508433 -0.3000625979169491 0.26009078200853164 0.28120556179354683 -0.06790325117140397 -0.2784318357317844 0.16262016462786133 0.07343722758479551 0.19068529197339995 -0.09914940466679799 0.19007667947194065 -0.17709078525981853 -0.21234189809093845 ]
[ -0.0031373383727801053 -0.03326293242494668 -0.03452104553320817 -0.004178498391076321 0.010735892732990124 -0.013988536922770106 -0.021315815675146763 -0.027169723161512536 -0.0117551531883453 0.04034761007272805 0.00879621878782183 0.02308810605053611 0.025532175218598324 0.005835029265687801 0.0019047334710833507 0.007493199044076132 -0.0007602108285239455 -0.002548663399244936 -0.011357366073093973 -0.007410165618544445 ]
layer 5 Activation
tanh
layer 6 Dense
20 1
[-0.19329460486712827 ]
[-0.27604595785998304 ]
[-0.19623094672647018 ]
[0.27831712481752824 ]
[0.11230808734662527 ]
[-0.04304708736829416 ]
[-0.28752824006043476 ]
[-0.3111250597619476 ]
[-0.2974144986420342 ]
[-0.3978365654389069 ]
[0.1376940545925385 ]
[0.1408061835157828 ]
[0.29825628312238234 ]
[0.0015282375309665784 ]
[0.06975400205860752 ]
[0.41485660681442793 ]
[-0.18500149502375876 ]
[-0.20753431437297165 ]
[-0.3109162655004161 ]
[0.21300524372024085 ]
[ 0.02337474290252164 ]
