layers 7
layer 0 Dense
24 20
[0.252099 -0.008275082 -0.11941535 -0.2155348 -0.38332173 0.20416068 -0.12987454 0.29067522 0.38914904 0.18316837 -0.28961304 0.036427584 0.21722871 -0.07546733 -0.12804657 0.3306751 -0.26732066 0.26289773 -0.05440347 0.059809368 ]
[0.26742697 -0.009576538 0.036175117 -0.11904102 0.14091793 -0.061790448 0.09293764 -0.10192584 -0.17994775 0.30732763 -0.113003485 0.25719902 0.04727291 0.080497295 0.21171491 -0.06627879 -0.2936233 -0.055432357 -0.3096047 0.043167505 ]
[0.025414402 -0.3069417 -0.0455053 0.07481018 -0.037963554 0.37236175 -0.3610711 0.3422628 -0.067416735 -0.16352113 -0.3004673 0.0009858082 0.051575813 -0.1952138 0.34625453 0.2949938 0.26669443 0.14756192 0.106229894 0.1275416 ]
[0.12721626 0.12557991 0.2594799 0.11313122 -0.09272362 -0.2216779 -0.28554568 0.18238036 -0.12644176 -0.07826207 -0.21008591 0.0034419901 0.09657933 -0.16527055 -0.061764456 0.31500897 0.19015756 0.07075411 0.32316208 -0.25944027 ]
[-0.046890605 0.24399482 0.0552985 -0.03153045 0.21378055 0.117660105 -0.12822194 -0.1987035 0.3046044 0.3240679 -0.13399988 0.15819141 0.114055775 0.3607337 -0.1487404 -0.38877073 -0.040831447 -0.23764493 -0.1200303 0.3261409 ]
[0.23951128 0.36868212 -0.120828696 -0.28869715 0.18306388 -0.32240674 0.013063019 -0.35608128 0.37004662 0.09661354 0.11302949 -0.39187863 -0.19600976 -0.3779698 0.22119656 0.1472742 0.32328582 0.15763375 0.21378762 0.28923532 ]
[-0.05389667 -0.349185 -0.18535149 0.3077118 -0.3365184 0.28575325 -0.023862936 0.27104053 -0.21852814 -0.014157734 0.15288821 0.034978736 -0.033204928 -0.13496096 8.15012e-06 -0.23820738 0.1198234 0.17633477 0.057935506 -0.044990342 ]
[-0.15521714 0.2630908 -0.2180747 -0.29041445 0.25806093 0.121654995 0.12703915 -0.3019037 -0.2021083 0.3455182 -0.024961246 0.34281576 0.21920203 0.21072371 -0.017151715 0.3087568 0.06296493 0.26310867 0.059760448 0.25950077 ]
[0.28251904 -0.09024614 0.25558192 0.11659052 -0.33252472 0.10124352 0.2814382 0.23564218 -0.2521842 -0.26790658 -0.38755214 -0.2993491 -0.18004695 0.3471298 0.22715753 0.09683319 -0.0706773 -0.12281989 0.13265032 0.37459105 ]
[0.051999144 0.35029224 0.21920934 -0.23441212 -0.08448763 0.39831993 -0.22010872 -0.06930577 -0.17005228 -0.07624364 -0.08576499 -0.33025074 0.24051197 -0.3095417 0.33462486 -0.3468499 -0.32151723 -0.16806473 -0.20241 -0.3766285 ]
[-0.27135867 0.14090575 -0.39324477 0.04454063 0.006696414 -0.10724105 0.25430804 0.08028963 -0.006683751 0.059428815 0.12310232 0.28547043 -0.33597144 0.14553934 -0.2643176 -0.014566572 0.15416817 0.21817666 0.41005993 0.33663297 ]
[-0.12061829 -0.13008943 0.007843174 -0.33861685 -0.26158226 -0.03213058 -0.09988573 0.18417296 -0.1537134 -0.150997 -0.18304378 0.0033281012 -0.005048784 0.21657583 0.013449462 -0.18107902 -0.028813351 -0.13280647 0.2758138 -0.1864132 ]
[0.4621818 -0.14454234 0.05204367 -0.24016403 -0.26981235 0.011597047 -0.16536945 -0.30226314 -0.29546016 -0.20764002 -0.13303585 -0.1740573 -0.050463207 -0.08585031 0.19459963 -0.2888901 -0.18070956 0.1056668 0.13925192 0.061311506 ]
[-0.26031014 -0.21020885 -0.28814933 0.15358382 0.02293526 0.007870083 0.12218988 0.2071924 -0.18974836 -0.3477462 -0.04787087 -0.19816956 -0.15747833 0.06779972 -0.29068735 0.35416862 0.010791943 -0.24147464 0.17912439 0.30336958 ]
[-0.16130356 -0.05103908 -0.22674625 -0.03049735 -0.20634995 0.25367987 -0.18775249 0.40099052 0.13280211 -0.019090457 0.19515824 0.07959705 -0.14301224 -0.2829485 -0.068355225 -0.18606074 0.28431126 0.11890662 0.15891068 0.31801903 ]
[-0.121332444 -0.035839364 -0.2352953 0.3235111 -0.1748317 -0.20026943 -0.32445258 0.3073061 0.15669855 -0.20946768 0.12550406 0.32043976 0.3711192 0.04717704 0.15167986 0.024468858 0.04240723 0.20565435 0.12448154 -0.2633072 ]
[0.24562502 -0.18867494 -0.3006676 -0.18175575 -0.100628786 -0.33040828 0.050362166 -0.2861662 -0.056978546 0.35542983 -0.27261817 0.1228777 -0.30092373 -0.075031675 0.2747394 0.119127974 -0.09032784 -0.11385013 -0.31030303 0.19018772 ]
[-0.008059545 0.05139405 -0.10538547 0.018502766 -0.23458177 0.30034113 -0.1499968 0.261314 -0.25228015 -0.21002139 -0.021237157 0.1973747 0.038216323 -0.31072235 0.16977972 -0.1167877 0.35623124 -0.044408407 -0.11963837 0.20463088 ]
[0.102331504 -0.03609432 0.13192132 0.1819467 -0.13164255 0.35231668 0.2514126 -0.25643587 -0.24933086 0.18490997 0.24569023 -0.29456714 -0.28580716 0.18307522 -0.29138783 0.20521578 0.12442354 -0.21562567 0.13137431 -0.20533605 ]
[0.050251182 -0.08528029 0.27874944 -0.072691016 -0.27235186 0.18687429 0.41923228 -0.34326038 -0.22249937 0.2240321 0.36452803 0.27472967 0.3319806 -0.009246137 0.23567255 -0.29236907 0.2729996 0.32417226 0.20585623 0.21803445 ]
[0.0959417 0.07108533 0.10854195 0.1204253 0.26771313 -0.34016082 0.24668069 0.2061807 0.16212542 -0.122865565 -0.27154192 -0.2319895 -0.16890796 -0.11313368 -0.31439957 -0.15898894 0.16186401 0.20717564 0.12262903 -0.37265518 ]
[0.08841713 0.12402054 0.0022433784 -0.4265825 0.071650356 -0.24417469 0.29995602 0.10773167 -0.048314534 -0.37456942 0.016138984 -0.17971696 0.22231135 -0.21303314 0.4068116 -0.36679536 0.08118835 -0.23120916 -0.118638754 0.28404358 ]
[0.11886282 -0.3884163 0.03279277 -0.065958016 -0.19661355 -0.16474555 0.2664344 0.14204004 0.023623232 0.14538208 -0.19741121 0.13125797 -0.1900309 0.06590279 0.22833093 -0.103099145 0.21286342 0.008427445 -0.3056257 -0.2442142 ]
[-0.17884974 -0.1339214 -0.1316866 0.24377479 0.2988963 -0.04540851 -0.13489242 -0.002714117 -0.14140113 0.2733438 0.08428586 -0.24626048 0.114746675 -0.16924055 0.22413652 0.09055524 0.023176951 -0.2281587 0.06791327 0.074164554 ]
[ 0.0028470797 0.001711516 0.02458807 -0.013200599 -0.026265716 0.011428853 -0.003564761 -0.0031312907 0.040777445 -0.011551815 -0.0035466026 -0.019071117 -0.0016435441 -0.036305506 0.029118352 -0.0020410786 0.024827894 0.019546416 0.0025143141 0.03898184 ]
layer 1 Activation
tanh
layer 2 Dense
20 40
[0.31103286 -0.14570412 -0.051917262 0.09475628 0.09322825 -0.07196299 -0.15946603 0.39548048 0.06601184 -0.048919454 0.055321634 -0.17801134 0.07785861 -0.09742446 -0.2172601 -0.07131215 -0.26604992 0.24035919 -0.085481755 0.030148312 0.028505273 0.11036413 -0.17414448 -0.10491268 -0.3138109 -0.007491639 -0.2176132 -0.15443836 0.13639387 -0.058778066 -0.28964338 -0.24423227 -0.16787073 -0.107099175 0.20028715 0.34200713 0.14284986 0.29428804 -0.12572013 -0.049601145 ]
[0.06071706 -0.047656562 -0.1216926 -0.25924602 -0.19811726 0.20111057 -0.03334787 0.051162228 -0.11594403 -0.20018262 0.2346066 -0.19403997 -0.13852558 0.1823355 0.04627872 0.28140384 0.21005912 0.10252099 0.23106164 0.24846284 0.16549993 0.16081612 -0.03495685 -0.120742925 0.11144729 -0.1941695 -0.12974995 0.22632267 -0.3595529 0.049666233 -0.008338641 0.084717624 -0.19098118 0.03305413 0.2642596 0.3084341 0.21128847 -0.276379 0.1859587 0.04349727 ]
[-0.10667354 0.20923987 -0.05473922 -0.2175079 -0.12660314 0.11698444 -0.038186762 -0.16514213 0.18837598 -0.025483321 -0.06353156 0.031287596 -0.057134796 0.27095017 0.053893905 0.009419114 -0.26294556 -0.012912956 0.24423093 -0.23249643 0.09577727 0.12124867 0.175217 -0.13043164 0.058339052 -0.16034037 0.0011727263 0.0022082592 -0.098457776 0.042723104 0.03177827 -0.043346643 -0.1469002 -0.0006860697 0.108620815 -0.048727017 -0.05569377 -0.24542281 -0.2003932 0.2763478 ]
[-0.22084999 0.12760241 -0.107451536 -0.3161152 0.23169813 -0.13336393 -0.30726317 0.018201318 0.11933431 0.051080003 -0.22116137 0.16109732 -0.20752384 0.08602453 0.12206939 -0.04745129 0.13469058 -0.29231915 0.27870288 0.25581762 0.17435168 0.16343473 0.13878766 0.20291066 0.12289547 -0.08790052 -0.16984253 0.18639006 -0.071745336 -0.35869113 -0.27767456 -0.09954822 0.10355877 0.13385734 -0.2644913 -0.13374422 0.059727326 -0.27096602 0.054034658 0.15816583 ]
[0.092966825 0.07760304 0.23750167 -0.23394965 0.1433227 -0.045098063 0.31972045 -0.30487648 -0.19079067 0.24441716 0.103073 0.19450626 0.05975343 -0.0156608 -0.25952366 -0.056852736 0.17315653 0.058883596 0.13609937 -0.04441107 0.06676203 -0.23130953 0.14895716 -0.1908311 0.12773223 0.1880314 0.17162372 0.09548931 -0.03983522 -0.24294588 -0.078635864 0.10420902 0.17629841 0.022580624 0.09224355 0.100387916 -0.21870226 0.012226997 0.22320105 0.18281795 ]
[0.10185632 -0.11410189 0.271671 -0.20322286 0.24515659 -0.15711221 0.12262754 0.1396444 -0.23570557 -0.15460852 0.09273771 0.18881331 -0.25275472 -0.002880947 -0.05710434 0.20645258 0.09208244 -0.2250362 0.2277667 0.17242484 0.120637715 0.08747053 0.18014285 0.1581736 0.06278112 0.22422364 0.044122968 0.34631956 0.1809218 0.09804731 -0.03980332 -0.014161028 0.080584235 0.188397 -0.15596476 0.039332747 -0.24478519 -0.11140245 -0.010427963 0.19608212 ]
[-0.11326431 0.19682443 0.3141198 -0.16156021 0.1787884 0.17200185 -0.010400876 0.05669615 -0.21074343 -0.28826183 0.051678855 0.19413017 -0.20941861 0.21908718 0.1318411 -0.15899216 0.118886314 -0.22197111 -0.3235847 -0.19831184 -0.013933772 0.14633885 -0.032510996 0.11297757 0.14959604 0.16258802 0.12568201 0.08673559 -0.18304221 0.1474935 0.0662868 -0.17925617 -0.13561088 -0.17211081 -0.16782181 -0.03156505 0.27050403 -0.23720244 -0.059082076 0.16950686 ]
[0.18988839 -0.16214894 0.18701187 -0.12883237 -0.29754955 0.1155333 -0.03357762 -0.16319112 0.21602501 -0.2854899 0.16228755 -0.12552588 0.24620084 -0.047975134 -0.27586025 -0.16280414 -0.30859628 -0.11125017 0.32762933 0.15510537 0.09634054 0.1541318 0.10799829 0.18533967 -0.12698692 -0.08176504 -0.011310466 0.08937752 0.115526766 0.17991807 -0.08666619 0.08710114 0.006359511 -0.1376624 0.10768458 0.021439811 0.030471982 -0.26267603 -0.04094381 0.14939953 ]
[0.09896322 0.18592927 -0.38214025 -0.16809182 -0.27520236 0.19707084 -0.26277894 0.38012376 0.17440787 -0.2931738 -0.036600713 0.025049005 -0.27416694 0.33883938 -0.20656884 0.008441785 -0.33004093 0.13109817 0.29205537 -0.0738077 -0.03397732 -0.17998041 0.26217112 -0.07071241 0.015395259 -0.08480857 -0.25819835 -0.15535712 -0.16070093 0.12525912 -0.1924258 -0.33767965 -0.16047205 -0.044347294 -0.19671354 -0.06450239 -0.123521775 0.057723593 0.13986494 0.22959696 ]
[-0.35931426 0.35165423 -0.0116746 0.05146963 0.29743502 0.06855436 0.22470334 -0.11825508 -0.17180748 0.2580671 -0.1097598 -0.051876996 -0.14651358 -0.21973164 -0.19281986 -0.092804216 0.22183877 0.12601188 0.058665812 0.22045764 -0.11853201 0.13776202 0.23497716 -0.231627 -0.14142038 0.042929243 -0.01962648 0.18207923 0.27504206 0.07916684 0.097668275 0.096908666 0.29200464 0.14745298 0.16943263 0.1856146 -0.06449376 -0.13358447 -0.24102077 -0.27745324 ]
[-0.10365537 0.1699216 -0.15213233 -0.038116746 -0.1479085 0.0050982377 -0.27339572 0.10869969 0.11989827 0.20417757 -0.06488531 0.21906371 -0.11219469 -0.035164077 0.18470983 -0.059056405 0.17458785 -0.07615621 -0.117041335 0.11990814 -0.26721868 -0.2034697 -0.13435392 -0.36263478 -0.1549799 0.18436675 -0.018503265 0.34644005 0.1769514 0.111856684 0.055784862 -0.22782873 -0.007754122 0.26709086 0.09023499 0.04234482 -0.2554014 -0.071364 -0.18419935 -0.14219125 ]
[-0.073163666 -0.107430965 0.21594742 0.013183798 -0.113266215 -0.16704421 0.26886863 -0.19881089 -0.35355043 0.12507519 0.23226154 0.2915515 -0.2825454 -0.17762618 -0.036102343 0.033193894 0.030085078 0.2227848 -0.30154333 0.077684395 -0.2886537 0.012675071 -0.22431394 -0.11487289 0.084233835 0.027386414 -0.11757631 -0.0293342 0.015393784 0.33623198 -0.058497507 0.18180093 -0.18135034 -0.23171192 0.16456208 0.2151633 0.08544212 0.27367344 -0.19143845 -0.14492463 ]
[0.009392618 -0.2602144 0.04550475 -0.31131437 0.1825961 -0.2059282 0.30979478 0.17726529 -0.021282326 0.12347363 0.18271573 0.110369556 0.28785807 0.14854167 -0.2667621 0.3618133 0.03525958 -0.21372473 0.23223133 0.06356698 0.24173136 -0.09581611 -0.09519907 -0.19279143 -0.26286134 0.2250787 -0.032630634 -0.0114335725 0.24708848 -0.1356545 -0.10317443 0.28525364 0.10457317 -0.088913076 -0.0212407 0.12090385 0.10362926 -0.13356139 0.28355354 0.093941875 ]
[0.026100816 -0.13146211 0.13595515 -0.17747442 0.17261533 -0.02806617 0.12875703 0.06073457 0.18182229 0.12430297 0.102981724 0.020500993 -0.16678312 -0.2905949 0.2450509 -0.0047143777 0.103867024 -0.053221937 0.26681015 0.060312193 -0.037406035 -0.13151368 -0.13872279 0.26735 0.12626362 0.1043297 -0.031346913 0.019243471 0.054544132 0.11532619 0.02768367 0.27169406 0.14993353 -0.09217261 0.2146747 -0.1197708 -0.3129637 0.35316846 0.22024569 -0.32264087 ]
[0.20044716 -0.21199524 0.3329059 -0.10931085 -0.028256504 -0.19117871 -0.06604049 0.27548295 -0.3239959 -0.28291434 0.120895036 0.09402675 -0.08059556 0.24832147 -0.1585907 0.2515049 -0.121668845 -0.078889325 -0.2854386 0.13558693 -0.26814467 -0.20629849 0.11073321 -0.2329974 0.15469654 0.10362719 0.21314822 0.12837876 -0.19444463 -0.100855306 -0.1672656 -0.23108108 -0.31541654 -0.05247849 0.061740626 0.12217988 0.09549741 -0.27323255 0.21966662 -0.24552046 ]
[0.41034773 0.045621358 0.25000012 -0.15557928 -0.119921446 -0.12608524 -0.177244 0.15321389 0.33791274 0.2039264 0.15366772 0.15785521 -0.029328067 0.04868558 -0.2823992 0.13205978 0.09624379 -0.24336343 0.011061692 0.26093897 0.30653533 -0.1605315 -0.24741681 -0.10195084 0.1416108 0.07143489 -0.04427414 -0.12489244 -0.09363732 0.101336904 -0.014770082 -0.05334675 -0.22912212 0.22844833 -0.19957694 0.24776699 0.040537987 -0.24432455 0.2114341 0.1576022 ]
[0.17548014 0.21686628 -0.03125211 0.2807907 0.18812688 -0.12950052 -0.19290425 -0.11949143 -0.20233308 -0.19062817 -0.19982067 -0.22471394 -0.13086738 -0.2197543 -0.23457068 -0.14117318 0.11105951 0.26000115 -0.0524297 -0.011204945 0.22855242 0.1187851 0.17145465 -0.006610853 0.087613575 -0.12430373 -0.119689584 0.19310126 -0.13342635 -0.23168625 -0.022253111 -0.31989518 -0.2684549 0.14138195 0.11854559 -0.10185431 0.023997238 0.031437375 -0.06443994 0.25115597 ]
[-0.031479448 0.25306526 -0.09639524 -0.15893032 -0.2779737 0.2595116 -0.29831713 -0.12949768 -0.24310955 -0.18072318 0.03540403 -0.124612466 0.11411178 0.24337138 0.19000436 -0.1275216 0.26100662 0.26664767 -0.023636062 0.05810841 0.03446453 0.20186327 0.25185752 0.29187378 -0.12054111 0.17587638 -0.23016186 0.036818165 0.0733758 0.24442382 -0.2841821 0.26288435 -0.26170754 -0.24935822 0.010461714 0.18339044 -0.118577406 -0.00983691 0.30806887 -0.21852118 ]
[0.17750366 0.09660216 -0.17096943 -0.002337904 0.2861914 -0.092077084 -0.21908487 -0.16628882 0.10759345 0.21836524 0.119287595 -0.31828555 -0.16905364 0.19366269 0.26807573 0.045333683 -0.27713746 0.11246341 0.33143383 -0.043397684 0.2907555 -0.088438965 0.17876269 0.13253826 -0.022764437 -0.14993034 0.007451637 0.18609461 -0.05369047 -0.06786344 0.27293035 0.20801087 0.1606956 -0.09650284 -0.21798126 0.13261493 -0.23158163 0.14366454 0.04225545 0.18317716 ]
[0.11505003 0.2513279 0.18122888 -0.16058345 0.026324272 -0.069807105 -0.058281273 0.122698694 -0.10226238 0.2885554 -0.23562887 -0.22992824 -0.19386293 -0.23261268 0.15204644 0.11355417 -0.063003026 -0.32374567 0.12054029 0.21221092 0.06518962 -0.07738069 0.06831675 0.073747516 -0.2467112 0.13898367 0.26164177 0.006469092 -0.20972514 0.045582972 0.22819369 -0.26151088 0.28916702 0.039731674 0.06400035 -0.045366187 -0.01793796 -0.012844828 0.1730323 0.06773378 ]
[ 0.07582192 -0.0117622875 -0.076246195 0.010256533 -0.023718456 0.018655457 -0.01420385 0.077911645 0.009402127 -0.052014023 -0.0015911805 -0.008760229 -0.024940869 0.07685204 0.005014872 -0.0016898483 0.009159095 0.011630921 0.018759992 -0.0033987148 -0.0037343854 -0.0035253498 0.022155868 -0.0023080881 -0.042200003 0.007914552 0.0070946887 0.022438543 0.024215138 -0.05083501 -0.010667471 0.0046969233 -0.008621834 -0.00510188 -0.013496759 -0.004873088 0.014287898 0.010884109 -0.0076827747 0.016848309 ]
layer 3 Activation
tanh
layer 4 Dense
40 20
[0.2626692 -0.18534747 0.19600768 -0.026256077 0.18976822 -0.2545835 -0.21391304 0.27301413 0.28682327 -0.138296 -0.18604818 0.07538329 0.11823415 -0.03127726 0.14814872 0.20080258 -0.036668606 0.06314934 -0.09177856 0.10187302 ]
[-0.20150696 -0.03042624 -0.23796704 0.17080647 -0.10429875 0.19973925 -0.18529451 0.14671488 0.27447733 0.1454421 -0.14384228 0.0499389 -0.25176522 0.07244328 0.20896795 -0.12513395 0.18311274 -0.11184739 -0.28461477 0.10223169 ]
[-0.06023255 -0.03571851 -0.18520741 -0.045646247 0.27425778 0.33675408 0.13708091 0.046349283 -0.069749385 -0.13660929 -0.23514906 0.094752714 -0.09830069 0.29067466 -0.042789314 -0.1642614 -0.0012976981 0.28593624 -0.00082776626 0.2833912 ]
[-0.20872135 0.27820018 -0.2650653 0.11037325 -0.081515096 -0.23529598 0.08283909 -0.17440067 0.21120992 0.2163276 -0.30151358 -0.25741 -0.3166241 0.10919968 -0.127071 0.024697054 -0.07538067 -0.004521273 -0.0008192866 -0.29021773 ]
[-0.15792537 0.22198328 -0.15913244 0.23267955 -0.15019834 -0.16202393 -0.04417663 -0.12841116 -0.081825666 0.0775966 0.29929417 0.015661862 0.0768733 0.1973124 -0.1891481 -0.23880272 -0.06115652 -0.2765485 0.13857217 0.16879292 ]
[-0.16940138 0.21956252 -0.32060102 -0.06851418 0.08910861 -0.27495125 0.30178812 -0.13842477 0.15839788 -0.046154425 0.27994806 0.035014026 0.35304767 -0.08158759 0.05926749 0.18918729 -0.17402476 -0.3245182 -0.015876994 0.17996946 ]
[-0.041025925 0.30442706 0.17638576 0.04506065 -0.21205223 0.2720935 -0.20738533 0.0718845 0.031957652 0.20922774 -0.08374223 -0.27920678 -0.065279536 0.2477579 -0.23344949 -0.18550648 0.15030286 0.18290542 -0.14173757 -0.09898205 ]
[0.35058406 0.19437562 0.013128062 -0.2578751 0.25104842 -0.0018394429 -0.20630185 -0.076513514 -0.03993641 -0.24157894 0.18534717 -0.06565513 0.2319281 0.11872546 -0.22145076 0.26772994 -0.07980869 -0.21402562 -0.088710904 0.22008164 ]
[0.16081692 -0.21087745 0.32218212 0.05988727 0.02758977 -0.3039295 -0.28546125 0.1760875 0.20531817 -0.28081885 -0.23215964 -0.044803906 0.018222118 -0.11907436 -0.23139615 0.15838516 0.094021104 0.18785149 -0.17019074 -0.23276982 ]
[-0.1300418 -0.2763888 0.15656453 -0.059535973 0.24017529 0.17652018 0.23992634 -0.013361144 0.32182965 0.26423863 -0.18987381 0.20126745 0.045705754 -0.055241946 -0.1738575 -0.17563365 -0.34779003 -0.021358531 -0.10571276 0.23087606 ]
[0.15850465 0.2841347 -0.19698182 0.27575234 -0.22272196 -0.16222122 0.19058001 -0.18948135 0.2713889 0.067968085 0.1602445 -0.23981689 -0.036225863 0.042279165 -0.31449437 0.17251025 -0.0025607136 0.24049559 0.24038485 0.079855494 ]
[0.007470536 -0.20449175 -0.22575979 -0.033775758 0.011333539 -0.15013444 -0.012874279 -0.06267799 0.063015066 0.024345258 0.09022664 0.31634125 0.11041103 0.2503763 -0.09155346 -0.016214337 0.10375626 0.33753508 0.1832931 -0.116687864 ]
[-0.12183055 0.13549662 0.29334024 -0.086830616 0.017736001 0.0042917486 0.013556625 -0.25296986 0.2147633 0.27979967 0.14703621 0.25029293 0.260894 -0.21670663 -0.27886543 -0.22448175 0.24350111 -0.07095272 -0.09298143 -0.22300021 ]
[0.26901713 0.016714077 -0.10228129 -0.34633934 0.21180874 -0.05436805 -0.26481882 0.15816584 0.054222424 0.1255438 -0.13154623 -0.0951489 0.28691545 0.08381763 0.26231718 0.34505346 0.11353093 0.29388505 -0.06474267 -0.21427986 ]
[0.10394097 -0.032492854 0.0014468835 0.11673013 0.1008382 -0.18458007 -0.087033994 0.027064746 -0.037002895 0.26495278 -0.24822381 0.04364617 -0.08940522 -0.12501466 -0.23121077 -0.27169627 -0.06693518 0.17068622 0.29879153 0.10241774 ]
[-0.12088357 0.11419805 -0.25068617 0.11280464 0.22174317 -0.325245 0.07979209 0.0026606598 0.09322386 -0.11707143 0.1127424 0.027917577 0.2077764 0.09288013 -0.15616904 -0.059007723 0.22543505 -0.18674257 -0.0843006 -0.0683047 ]
[0.18738718 0.09043255 0.0016293376 -0.041026983 -0.14718768 0.104899034 -0.2611179 -0.113220595 -0.07551595 0.10966033 0.22644573 0.041204233 0.0065161684 -0.026678482 -0.33641905 0.22251616 -0.0922251 -0.23848814 -0.29972896 -0.028829534 ]
[-0.08514579 0.2933441 0.31515637 -0.07234698 -0.17871088 -0.02378997 0.025638275 0.022676108 0.09521516 -0.1050901 -0.26044834 -0.21217558 -0.25810844 0.19783144 0.25425416 -0.24559863 -0.0376711 -0.05438388 0.008137632 -0.14633305 ]
[0.2897709 0.25812352 0.052542653 0.22639431 -0.18460862 -0.28409582 -0.077804014 -0.23038399 -0.29154685 -0.15000744 0.14685103 -0.09405143 -0.16558051 -0.102720566 0.13061894 0.30233344 0.16570352 0.27947363 0.24247745 -0.30339462 ]
[-0.0063902424 0.20297226 -0.00627825 -0.18371649 0.1086662 0.33327895 -0.106968224 0.05970791 -0.22757243 -0.20366333 -0.017250912 -0.31363472 -0.070113994 0.20272142 -0.071744144 -0.094514705 -0.18126312 0.020937784 -0.106373824 0.25172544 ]
[0.14242597 -0.16474496 -0.1813452 0.16274588 0.09021505 -0.19196783 0.060972713 0.06249087 -0.11755363 -0.31389347 -0.11418408 -0.20795187 0.29070607 -0.010582188 -0.09904721 0.27049807 -0.09328285 -0.24273506 0.2230927 0.24440666 ]
[0.20801795 0.12930347 -0.05595607 -0.26026496 0.034050487 0.09300449 0.06400498 0.05975939 0.111828595 0.11938808 0.2139346 -0.014645197 0.09143222 0.085794255 -0.22578987 0.23737428 0.2769674 0.16812027 0.036965635 -0.22516519 ]
[0.085947886 0.03832748 -0.24644968 0.17896852 0.031007392 -0.055423077 0.20939577 -0.15659788 -0.14064622 -0.034080148 0.017883452 0.23083034 0.27501678 -0.2821792 -0.075489044 0.13530812 0.12126364 0.17319633 0.10834493 -0.13472843 ]
[0.23820287 -0.24516328 -0.008447994 0.13803709 0.1787283 0.07862823 0.20556736 0.07311955 0.18434893 -0.2728925 0.015342251 0.249856 -0.071334586 0.058427326 -0.0014871943 -0.03148697 0.009312787 0.3011031 -0.12299811 0.2536761 ]
[-0.1949243 -0.11146996 0.25145504 0.057248585 -0.11762404 0.0041973516 -0.33851418 -0.328915 -0.018833121 0.12157502 -0.2476004 0.13004826 0.045585524 0.13798875 -0.23183852 -0.1579948 0.017117506 0.054038614 0.35088748 0.30337042 ]
[-0.2512027 0.2684987 -0.008806876 -0.0012223516 -0.33341777 -0.23897289 -0.2036665 -0.27584204 -0.2590621 0.011597526 -0.3023661 -0.027777972 0.06642789 -0.0729489 -0.15473859 0.24191867 -0.10180181 0.22609223 -0.09855014 0.2349702 ]
[-0.01230414 -0.33677754 -0.005913759 -0.018699192 -0.22187616 -0.2301145 0.121245176 -0.21062921 -0.081284165 0.24824601 -0.1661784 0.2080762 0.20630072 -0.09266589 0.18391784 0.15152156 -0.30287638 -0.20055103 -0.22506046 0.3077947 ]
[-0.23501495 0.24396865 0.27865863 0.19931267 0.20959811 -0.09487928 0.17560667 -0.095481224 0.103218816 0.1156362 -0.24605492 -0.38294142 0.059258897 0.12289686 0.047871035 0.1104889 -0.20997295 0.3109501 -0.24043323 -0.1409566 ]
[-0.006672317 0.27574572 -0.054697722 -0.09061542 0.16747293 0.21754481 0.22781895 -0.17433093 0.22035062 -0.23336235 -0.28870377 0.048811857 0.2416044 -0.32154104 0.04325047 0.14338365 0.018184144 0.283988 -0.042178623 0.07454944 ]
[-0.06824959 0.26485497 0.008061862 0.22637741 -0.0076391567 -0.19328101 0.059852436 -0.004740765 0.24498291 0.21672748 -0.31922787 -0.18635184 0.25682208 0.2812318 0.17921792 -0.13062719 -0.15746322 0.22785662 0.0049790726 0.1649397 ]
[-0.24626563 -0.26653984 0.05612999 0.22820003 -0.26882643 -0.27161467 0.25538957 -0.30519056 -0.13568132 -0.037300486 0.23694023 0.008452819 0.1793146 0.11856245 -0.06799096 -0.23723722 0.11179157 0.13851722 0.1780513 -0.24012493 ]
[0.035553478 0.080460414 0.08727186 -0.21429229 0.15708415 -0.09275627 0.0038131564 -0.18881339 0.31353855 0.17228189 0.34138694 -0.077236705 -0.26160932 -0.14997637 0.07556947 7.824984e-05 0.05404611 -0.078198954 0.07167669 0.05226554 ]
[0.05500119 -0.28269142 -0.14094102 -0.0624661 -0.23072423 -0.13624042 -0.2844735 0.05885066 -0.2877281 -0.2544211 -0.13978207 -0.13298838 -0.01840903 0.025149204 -0.17047404 -0.1921348 -0.043767143 0.277585 0.04979348 -0.124523185 ]
[-0.32319146 0.008292579 -0.05181808 0.37608594 -0.31385562 0.2589108 0.0052251504 0.021595923 -0.2337628 0.24637368 0.2642764 -0.07411873 -0.091313705 -0.19555777 -0.030729908 -0.07145955 0.21910676 0.1055623 -0.3992575 0.16478202 ]
[-0.17668752 -0.06947495 0.25052932 0.058060825 -0.08774506 -0.07050677 -0.27217054 -0.07931243 -0.055556584 0.11418884 0.1612673 -0.050615802 0.07688675 0.35789615 -0.27414498 -0.03711205 0.084304266 0.10511248 0.29294053 0.18203247 ]
[-0.12265451 0.30591735 -0.25263083 0.16020583 -0.15116137 -0.2810197 0.123262726 -0.27114406 0.29211974 -0.15045826 -0.104789905 0.20457609 0.300848 -0.24744907 0.25725165 -0.3136073 -0.24126768 0.0114679895 0.1087878 -0.2795559 ]
[0.18570106 0.16996548 0.13945493 -0.1651247 0.06969989 -0.25138927 -0.09910436 0.14543694 -0.04880205 -0.19592024 0.23614977 -0.017726462 -0.23849992 0.20713119 0.21642737 0.20931241 -0.26047128 -0.020904332 0.06587231 0.16360511 ]
[-0.08671552 -0.18388312 -0.13466729 -0.22638811 0.11999546 -0.2970211 -0.04084186 0.09787102 0.28299925 0.21566218 -0.278821 0.033462934 -0.3126102 0.08404951 -0.01148929 -0.055951137 -0.15790723 -0.2541671 0.3406659 0.053646192 ]
[0.1959091 -0.15589306 0.18680164 0.023678482 0.031516857 -0.25983965 0.12405518 0.0981424 0.22020909 -0.08216505 0.08481779 0.28425565 -0.06273876 0.17065789 0.34808177 -0.28190327 0.16805519 0.24187979 0.20192322 -0.06059285 ]
[-0.11299173 0.12591955 0.093579486 0.119690254 -0.11978902 -0.29221776 -0.14341183 -0.2418024 -0.05076065 -0.21099746 -0.015060673 0.03411382 -0.11198553 0.011173576 0.091435544 0.29369783 0.12902437 0.097223744 -0.13679697 -0.24131997 ]
[ 0.019484898 0.011609359 0.016187534 -0.010297666 0.013576009 -0.015320353 -0.00704745 -0.0028615217 -0.0013256874 -0.0020060374 -0.0067405915 0.059499104 -0.0041785873 -0.015829343 0.014257481 0.021978332 0.0019517622 0.003902653 0.0033070755 -0.0065608867 ]
layer 5 Activation
tanh
layer 6 Dense
20 1
[0.097903594 ]
[0.3036233 ]
[0.07705695 ]
[-0.047778472 ]
[0.14883746 ]
[-0.29353124 ]
[9.8121585e-05 ]
[-0.3270113 ]
[-0.42570487 ]
[0.5089797 ]
[-0.24711446 ]
[0.022836799 ]
[-0.34925014 ]
[-0.15387268 ]
[0.1766705 ]
[0.3889079 ]
[0.12640624 ]
[0.036698982 ]
[0.024167504 ]
[0.33283746 ]
[ 0.0076007857 ]
