layers 7
layer 0 Dense
24 20
[0.15214730957102682 -0.3519110444717014 -0.28434489939945573 0.12750194752955268 0.2965520947402475 0.12540905792572932 -0.008630446995707112 -0.23511251786262777 -0.13698440819297789 0.18446128989174623 0.10794643776833002 0.1727787642156889 -0.2584418408980388 0.20112726282905027 -0.07535918812278497 -0.20603450967623937 0.3190561885083836 -0.007985324001920506 -0.14827707130487533 0.00954352814345694 ]
[0.16440250372983672 -0.02250387530846608 -0.07862773465866485 0.13892669342062086 -0.09151979754104923 0.1813424967465998 -0.270777212917508 -0.14765781859789012 0.18885714031206605 0.31264125761506556 -0.3445699566356368 0.05664075174943217 -0.09790964880040044 0.0663002374505261 0.0451668270404315 0.23123423632522572 0.37757123304172063 -0.10536361872399713 0.013638246705981624 -0.24774953378198575 ]
[0.18592925144427083 -0.08855621479786757 -0.28225732373599316 0.1388824769845089 -0.17061322744813676 0.023151894126836634 0.4090496505833358 0.33137286105921093 0.14264390961731208 -0.30409821109186747 -0.29290807034013466 -0.17191007247377413 -0.014469044874572661 -0.231156728453667 -0.22297389718383148 0.19170889154421242 0.28895460528743033 0.20357612700784244 0.32777156941015356 -0.026555900271124734 ]
[0.10678930791890996 0.27802650857174366 0.0992630830420016 -0.1274082037891413 -0.018591844311044957 -0.17564611818373457 0.28611797190040494 -0.14545260234435092 -0.1541734059949082 0.2444567685605456 0.1695097374889446 0.1191159675725896 0.25350873568960036 -0.17422475583826183 0.1821455906413708 0.23730359445932434 0.15740600151115014 -0.24313829192692207 -0.018509123176146693 -0.07302080577041807 ]
[0.31974542060326927 -0.2578362144637319 0.25446059106309354 -0.3223491487008642 -0.2191761635056087 0.3005832190049395 -0.17570562166304507 -0.11713890185206385 -0.3377882443033346 0.02117304780952045 0.07918875755417079 -0.33683845032363857 0.23321516235957665 0.02283019680501129 -0.16477979252291988 0.3036602854480416 0.2148762416608041 -0.13630967441958378 -0.2671917437444398 -0.32721137157252594 ]
[0.06038018380805421 0.3219844860676684 -0.09387961514862625 -0.09592223986407677 0.16194943791279093 -0.11970344738314802 0.12541113074543908 0.32808194003257285 0.11371017353476844 -0.23240761516879288 0.2684029242857075 0.2662275875116171 -0.2624071924611402 0.3720874089938227 -0.0041307403239423885 -0.015429497313732155 0.07237362472827268 -0.19924636862434647 0.2418039054266528 -0.18399063962654938 ]
[0.16421630939807622 0.07146861149277547 -0.034331026143604566 0.1323633285339761 -0.25588159702641594 -0.06872783350612705 -0.39849424536573197 0.06514906711210693 0.06497079566296732 0.10407595891188694 0.08306686287957309 -0.3087502063576454 -0.13100267133754576 -0.10315839749492874 -0.18188996162822038 -0.08172875714295028 0.08594997623877304 0.30367413831254314 -0.011051314690040682 -0.006250451458174758 ]
[0.1213294908082053 -0.17421350751218653 -0.0982353689021366 0.2684363868690594 -0.037634682082662005 0.021287262782854213 0.16015566586064736 -0.32337331434497113 0.07772558720085762 0.35924139031930225 0.37604702162417386 -0.021067432351681802 0.28220820463728924 0.04969731654844074 -0.29754559936874453 -0.3186908437425244 0.009295522079778375 0.2854714667005278 0.0530321226767978 -0.09947864170371873 ]
[0.014457468999930499 -0.13740011137146146 0.2865363993488156 0.08949600335839994 0.03549236826782683 0.06537225135969771 -0.2881704519994778 -0.28793285760706094 0.2214897841062959 0.1510989284148189 -0.06942598725681882 -0.1554777121027889 0.24279683383252773 0.09306506440120056 -0.021413586222796887 0.09842184169190288 0.019668626863425052 -0.0993009723038478 -0.27197508548192983 0.20186398133466715 ]
[0.03657454668398735 0.007755638989149317 -0.14181986327366705 0.3059905798452807 -0.0634153849185058 0.008227857505867419 0.0351242815284062 0.33135355496262436 0.38537116217681505 -0.38001017736780374 0.12318677998041126 0.18720753161093473 0.03472514756703434 0.28511973972780463 0.22247683413166736 0.08709873349885529 -0.15133775060665 -0.35323257938370006 0.246916314243125 -0.21556594329615753 ]
[-0.4084630664465184 0.4273521540126733 0.17002277645799224 -0.3016625190200587 0.07987054092774193 0.27092270862800716 0.13563557773802154 -0.30976669777927746 0.2521651163145254 -0.10147196996698671 -0.03347846871903617 0.4031824469487536 -0.04164498394463335 -0.0606886629674741 -0.392170517767469 -0.3490714224795579 -0.19613209671604032 0.056141631768024454 -0.12277829935341296 -0.3435705132565625 ]
[-0.219302649509452 -0.19719495271079793 0.30101162463575576 -0.15779452321574283 -0.45437575339013536 0.3456993977710384 0.24610568057003557 -0.1260681123076349 0.32753052440124536 0.16127708850196515 -0.25508414127052154 0.10271098911016967 -0.3058753307622222 -0.08320910222082982 -0.28703442757830483 0.20652351971904576 -0.21578480973816724 0.13294707484096902 0.243302214827152 0.22342260104185932 ]
[0.038553726173656724 -0.2916903499340126 0.01376806318014966 0.1243354811197895 -0.22137314057501853 -0.047215245395672845 -0.1697682059932186 -0.15389910050681735 0.12249215347220327 -0.14877425104541198 -0.20349180184573146 -0.06165545096397682 -0.10786092861490924 0.36922762581089896 0.14420143564281143 0.44941987345155465 -0.02184920674557283 -0.14323642055553343 0.11575957974269055 -0.31195845506598396 ]
[-0.13451419248728244 0.24079886208108683 -0.2807546588044788 0.025017074192810563 0.06343537502618168 -0.3954989036927952 -0.06137045643075263 -0.12909106013422722 0.3372196322549533 0.19618066505721724 0.2321230193324935 -0.09027831212584961 -0.09622891654888464 -0.1760575952436724 -0.3845369020742007 0.011368080777946548 0.06113631819465851 0.06386878180695453 -0.16910821644898175 -0.013479842362343836 ]
[-0.21524094677673997 -0.323817292447554 -0.03153678468397714 -0.24319547967548458 0.19827387044150913 -0.16618545757324565 -0.09948703467973334 -0.009400536725628345 -0.01776610083623666 0.24429596334170953 0.09123262354568887 -0.263767244629828 0.0056983484789572625 -0.19351535129837738 0.030419030974397042 -0.19002982401490656 0.10773335589558584 0.3030869788000601 -0.13599283084666286 -0.1813651686710149 ]
[-0.03412624935142471 -0.1620759832518856 -0.36757653198434775 0.08964487325973595 0.0435496756116489 0.33733413809350943 0.20971537034256604 0.03384661990867356 -0.11706784513877348 -0.3222117772844188 -0.2509659320582816 -0.014289045430318392 0.1219331658497032 -0.06793789569681306 0.020390062211027765 -0.1600568679674842 -0.10023458621680358 0.09778692730235969 -0.259512624341127 -0.3540103702602504 ]
[0.002533440223316959 0.1833673543839806 -0.07568031776572147 0.21853355994133472 -0.06474694782525482 -0.22707350661620207 -0.024741409637571567 0.27001582045450645 -0.294574428140347 -0.011526536511276275 -0.3263263888249101 0.2574910679134217 -0.3100684847268123 -0.3263268248624982 0.2577396351252104 0.08776915890236489 0.35067987427634745 -0.34648339555708035 -0.013216347138681504 -0.2798894711430931 ]
[-0.07987625569054914 0.04882063115871896 -0.033061916444655115 -0.2777929411338116 0.29909606208793615 0.013497506782493427 -0.172004009157497 -0.1760877243275555 -0.12808270893777393 0.38046472958519967 -0.13462564648281222 0.0949271847419546 0.02329389880633962 0.20618151923234604 -0.039901175758571786 0.3460121567268696 0.11185033492660063 -0.013861148339150411 0.0637207799148025 -0.2232368161640221 ]
[-0.04646626023814405 -0.1577399315691861 -0.12726149376099735 0.15296658641152008 0.16853837533734856 0.004397659262207212 0.0288891779035417 -0.2884261823284481 -0.20676623464023203 0.2985147144316439 0.0913298959852888 -0.08476846539905991 0.308523935654616 -0.07012507516396965 -0.38646036715388443 0.310154594019922 0.22087659218114755 0.1854200798300681 0.08641909799665928 -0.36160829374559134 ]
[-0.05024322270419067 0.0004909546965691656 0.12455506109669216 0.24208584526716295 0.1616781515275972 -0.35143221784645073 -0.3592531582641607 -0.12604879020349083 -0.19160284274542663 -0.16921917735634007 0.3393550071842766 0.032853379863777 0.1974056451018004 0.08048498885198466 -0.051332000713859065 0.036803152170570584 -0.23902490770601442 0.04026852383046084 -0.26427980705420384 0.1734851459950142 ]
[0.2569143067648597 0.015200935130108192 -0.1498492067487232 -0.23348606111371834 -0.36377371814491954 0.277766463449852 -0.045379662140027255 -0.06134597772881077 -0.2945398905750953 0.3070267377607139 -0.3052535390812593 -0.2367739086842317 -0.37410355746737345 0.299676183343385 -0.24495004350005786 -0.21898381533337652 -0.2598775036576919 -0.24761795132644998 -0.18584353135520015 0.27512613070248976 ]
[-0.041390128833256566 -0.16287390484253775 0.38693161887521643 0.2724036330700428 0.005106937316233558 -0.10956087238865435 -0.09963396959008845 0.03382662277346961 -0.29876085191281576 0.2904735763254152 -0.1453509079811182 0.14418166830252424 -0.15178697809043776 -0.23534370657950304 0.20117652805981795 -0.15252751477392587 0.412477314099304 -0.18995630424489873 -0.42642545718067504 0.29910475071225023 ]
[0.025465736728042757 -0.15027361175926998 -0.162060377341436 -0.2656661630743726 -0.1316147500821594 0.03548792786130938 0.09949996244237472 0.43676934373616766 -0.03888177405996924 -0.29766183353242404 -0.3017105962963084 0.2714387110362917 0.000865967736130622 -0.016433782199214285 0.2766591281155978 -0.05713442848673895 -0.196287377717929 -0.12279417162190136 0.04354845277243184 0.19702870293926575 ]
[0.17084889308372692 -0.18228822155599267 0.0755962846907144 -0.07777127275274853 0.245536160899778 0.08524692600129292 0.021203722011718606 -0.03325218730772119 -0.03630974492491945 -0.2486053097927207 -0.04307353817685336 0.2739039292662591 0.019737223346712945 -0.38124908977160143 0.26878825837390147 -0.21567365548220274 0.18130835190134686 0.11865119591635205 -0.2841614026230104 -0.36472533097583326 ]
[ 0.02128692992696206 -0.017023315808946973 0.06576189705275635 -0.0030223430608664064 -0.03593533117068254 0.04736768172457844 -0.0023654686245703806 -0.008918075125505284 -0.02797210220176582 0.016981904041228985 -0.02200597146645762 -0.05100111215554103 0.02075043050382839 -0.016190632227685738 -0.041039506882475985 5.178303754745485e-05 -0.005781344993566029 0.0001474561384205281 -0.033840651196414176 0.006583402329070008 ]
layer 1 Activation
tanh
layer 2 Dense
20 40
[-0.2820152864730228 -0.14715386997402968 -0.15753511636879042 -0.23569694636437866 -0.28886700203174764 0.10441079135611997 0.18269212480518762 -0.13925535039810183 0.06946538798558242 0.16133089897757755 0.15173423592237043 0.1268701250730629 0.20047008405306738 0.17690544212374124 -0.28264768604507423 -0.18981750951018078 0.18141686733395884 0.13746038960132873 -0.24731413250292195 -0.07924934998111145 0.07244531181359048 -0.09987969426126336 0.26077841361238435 -0.21330622048948747 -0.2248268821308406 -0.17265502400334304 -0.10874828863000345 0.07038705876986218 0.18055448054912357 0.2970261663452649 -0.10674833980682225 -0.009913551406392272 -0.03720288816055864 -0.02450392090040697 0.17478209518049778 -0.24748336953898856 -0.2573404500174517 -0.29270486042740634 0.2346699795486128 0.030216822816511574 ]
[0.003057189902012477 -0.3228703017298276 -0.004653326817664616 0.162764468069058 -0.05383440792124829 -0.28794806536409995 0.18836491773125325 0.2489498236051184 0.010175244023448007 -0.01950258909595125 0.2731333573130325 -0.1855807733077746 0.2523541311104156 -0.19303481638317568 0.25181823044884427 0.15098222729170807 0.07679247794917796 0.04628654296920512 0.1509606863060241 0.13845098669410635 0.08603146816786589 0.11513205695783521 -0.24551032979376622 0.25497635199502283 -0.03196379354519868 0.1648546857424742 -0.13574483936309997 0.11125354562394056 0.23494838039373728 -0.2082536803320739 -0.2229825729820363 -0.1182376481236956 0.08056956656204566 -0.006326366289781485 -0.16784038313528668 -0.0400016155888052 0.24406627821807278 -0.2648833544956705 -0.03192961039352958 -0.08690377825789988 ]
[0.24157712940858095 -0.19052610186931362 0.08419759195595619 0.07031282066967469 -0.21186652689774654 -0.18486259206947503 0.1384950393731346 -0.2237180044745911 -0.10528589394214334 0.1658704109765505 -0.219673683642452 -0.27372073884287645 -0.05540695480108181 -0.1292675618389498 0.0929327722100117 0.04338079011372174 -0.028911425861659564 -0.2906467666093247 0.18900531118936137 0.1793444437354013 -0.15630415218409147 0.21224737514981037 0.11914597195478513 0.1339989160995821 -0.3208662395508348 -0.08540724493540146 0.08907373966521225 -0.3028645606171362 -0.16360813353057035 0.14854778643183297 0.2358051232285354 0.08973217494122954 -0.0228447970850564 0.16551351247404783 0.18304106385110358 -0.19046987038650368 -0.10233727775897336 0.028676640165577885 0.0636645713157856 -0.18459419951621883 ]
[-0.33442279743519704 0.2706137927528741 0.03669333467548468 0.2979191486971658 -0.11890657202848368 -0.17107994693566606 0.11144282984374104 0.04741471135559308 -0.0896659656796149 -0.03026844024261714 -0.21287956719599363 0.12851373227599977 0.20159566384410282 0.11170624553352508 -0.08212651423110318 0.28675751625269263 -0.2667240316066695 -0.11916369296322657 -0.18704245296823363 -0.15976430038190426 -0.0785305568309617 -0.13696812136620132 -0.21447524827366501 -0.1874545380788529 0.16373169521712327 0.06831837498968515 -0.09395790427515993 -0.15114049619699435 0.32302249981137304 0.14341827187468292 0.007448826744425607 -0.21514771655952367 0.06130175267188267 -0.013240058792124173 -0.347050016456474 0.09838092192584572 0.19820042242192087 0.23625832758401571 -0.2915270922312589 -0.22886246202261076 ]
[-0.20275169283372246 0.09860674373869305 0.1706733932182142 -0.08952126648459696 -0.050596207894217426 -0.1220592880295431 -0.24924792586029115 0.22262820736227718 -0.2451536965094983 -0.10561259103029187 0.18962582956571225 0.1719275749139865 -0.20169604694282448 -0.034442466740987346 -0.06872842248921229 -0.15167213193293064 0.1991025411203733 0.048225515810372814 -0.08806880291412716 0.18221312975919532 -0.23588979754670447 0.1099409029147187 -0.08713964368940429 -0.30418759372945536 0.16718880232357794 0.01748091459494273 -0.16807269962983218 -0.1994013177153046 -0.172622439122124 -0.21284251823544864 0.21429770469172887 0.06925203625004915 0.054216410822032456 -0.03609989131132926 0.0034310787341665706 0.26882617956420113 -0.15732236119696308 0.29906512937906504 -0.12194523311381783 0.04282249674639031 ]
[-0.06921440850801974 0.2484354200815785 0.08713764851012654 0.23774032160975583 0.014169099848625917 0.314569899936695 0.015919808509848546 0.3233441149449639 0.25434458435259105 0.1241923317309822 -0.23199799753436637 -0.047048095482249364 0.2257452320452783 -0.32763532188495403 -0.12800803709518255 0.01801088789377146 -0.1722217751707597 -0.03407292526237992 -0.25699614576603985 -0.16615371562315545 -0.0312191995821491 0.3263041323561732 0.0008436241207252311 0.26994111456904274 -0.28636138318524174 -0.16829709680053043 0.22775020420163983 -0.05096404763530677 0.04094963553082596 -0.1693309619415199 0.28213810883349194 -0.23186532510434812 0.05397527297413429 -0.18320657492445908 -0.22894855532506087 0.13219265752822107 -0.30216534534667183 0.16943175608875374 0.022105754910725736 0.20715953802515402 ]
[0.013529687849750822 0.2644163554334757 -0.11044044281868509 0.17322387825233085 -0.2184259686916012 0.2554231592040838 0.2556049688948012 0.03534328979514902 0.1429273947149756 0.2461158830421082 0.08643976408690691 0.254986795098648 0.07416337007272522 -0.19080154442604838 -0.19041840141722274 -0.19156449849983512 -0.027818478192880195 -0.32526491941994223 -0.2925437888587701 -0.06153042407603447 0.17876870614578685 -0.15596202934021425 0.14375924626548256 0.17401527563390237 0.0066413156076955806 -0.23664923926462314 0.19127394885317522 -0.20092295428979845 0.06113766812072355 0.044856888461918334 -0.248924012362741 0.1837712880089711 -0.03491058979707459 0.08043097473067162 -0.19381831150704282 0.03532009682857464 -0.06012474553306818 0.011619112209740311 -0.3049825801765971 0.2160003890172659 ]
[0.3228038154806788 0.06393057560557766 -0.2152752539300103 0.028360870289333793 -0.2588001710611224 0.3300092696452513 0.009304767855768004 -0.1478401626472708 0.0672987161701552 0.19897612197771636 0.17510136822722794 -0.2000512470079597 -0.04057632141321991 -0.05861289860922866 -0.20468977746922182 -0.136046780096 0.03730988172866514 -0.20311222748830504 -0.19260207816588712 0.01197961480749188 0.1765014975963473 -0.23063147359722308 -0.20329368446247717 0.040431363127228274 -0.0898743040956683 -0.3162440930513117 -0.1316046448257298 0.27538570945408375 -0.0998104521508007 -0.07544416523926252 0.280849828279759 -0.20649550105363954 -0.23864461245158164 0.11577272774116183 -0.09272642105543907 0.20108955934308317 0.18000756363980377 -0.05232863605648929 -0.23216946828347645 0.21399220791532544 ]
[0.22180842699314482 0.0016528957152449797 0.07028701237644175 0.14182449265195346 -0.15630958283990642 -0.21811379667955333 -0.19934283946897435 0.267307892129136 0.10603718272444895 0.21193134561455518 0.047739622752447086 -0.04766793612638705 0.30501114312811095 -0.21704028105646525 0.007311675144880954 0.19897965067021028 0.0947401505772938 -0.013571311974715134 -0.27624925814993995 -0.2533895672472841 0.04924262043050938 0.14358626257966944 -0.26956428544576033 0.14090183964461203 0.1673404854640704 -0.2461773627959704 0.2570020289216221 -0.14698622605365266 -0.09899722279913829 -0.23300073279332711 -0.0718604027531309 0.21516294670760888 -0.125740902293615 0.22590817444791086 0.328226052645313 0.11111017900312554 0.011746726811287841 -0.25149176047989086 -0.17236691203006996 -0.09537654321320312 ]
[0.31974859484615464 0.17643396650832716 0.18191493064629763 0.12573283717630537 0.2426199667735769 -0.10237454749862555 0.2861773794287701 0.2628684443315032 0.0032905854432022357 -0.1625555469658942 -0.06640978190940036 -0.06021107171205139 0.0006486375114227368 -0.14637866653508616 -0.2562380025905461 -0.25549560152578643 -0.24301778785668773 -0.1993088786301559 -0.22832960249595893 -0.12394695126469543 0.20327603229651436 0.30310193248241685 0.05080675903347849 0.1522203474108139 -0.19635913696905988 0.21895068675709786 -0.12387319865539691 -0.17914732842352663 -0.03320353751585874 0.11106427971589553 0.2048865850371385 -0.10568802597085304 0.09807335479540245 -0.3357849185970693 -0.03090954195974498 0.26071123482703557 -0.05121479793567408 -0.11974421306644396 0.1251354611707388 0.38570419141931034 ]
[0.020298488856069833 0.004257015849084562 0.16695107922784408 -0.0994186715807849 -0.08717437431492818 -0.05185284948323553 -0.17702972424604446 -0.15205033101494528 0.283948257381447 -0.20797375717593283 0.13565965363780305 0.26426479408193615 0.2525849532394718 -0.11013087868263394 -0.32018832199067415 0.2752205039648424 -0.04973771905434711 0.09263808650284293 0.23800250342866794 -0.18903259266072042 0.1079014684756373 0.010442610449723293 0.25715546284149715 0.17855027203189097 0.24828946293403745 -0.10155823035304935 0.008796871976829322 -0.12683339289619333 -0.2342188753059076 0.13732907084334284 0.0033023593238994857 0.18157739296932263 -0.15497503205018917 -0.014258012880868592 -0.10583030486200792 -0.1572664040620561 0.14158166899516414 -0.32446338732532554 -0.27630649895170567 0.06542688092960859 ]
[-0.06233024708665976 0.07856832217207774 -0.3182429921089736 0.14732443037358042 -0.07042758659865185 0.042389904971628124 -0.230398517257806 0.07904429947654651 -0.15703147504120127 0.12206793762211907 0.23970413769116516 -0.09690000505073132 0.12155970736285816 0.1064449590046151 -0.03974441304486317 0.29600323596055506 -0.1105925163355446 -0.2649897637890453 -0.020962006499515164 0.17951047170133755 0.09682562577699261 -0.10680671730131833 -0.1748844610562025 0.26804533908638806 -0.002912572050754893 -0.10274361432991234 -0.05956016529852757 0.24823541234209795 0.13169891960102847 0.2972655326056142 0.11941434174231486 -0.11359292481438245 0.1988106441416195 -0.10110891990121848 -0.15352619730440525 0.28726061926270174 0.1967196070160387 -0.3144076604900808 -0.30042077716542964 -0.26179511435839886 ]
[0.12429167108114376 0.06153195872870816 -0.2534301615786393 0.2793706839647879 0.02686376764386122 -0.04379405313204429 -0.10925516309513475 -0.16237884607247252 -0.16068615350487722 0.0547412872643698 -0.22600193586918707 -0.28029303905900765 -0.15140538212346447 -0.26215281048928124 -0.18823472785149675 0.2311784421571602 -0.29378161367334915 -0.022261791777928763 0.2371987977247331 0.2144367690332477 -0.23104063353616205 0.16301175705591567 -0.07459043910696866 -0.224409254412013 0.3196107170149541 -0.24912332623488442 0.3090038587703963 0.016331603035692435 0.038252452564208374 -0.02915392793096931 0.2938333247699582 -0.22538637163938074 0.17205551375424563 -0.18574774684169892 0.08682201649502841 -0.2086854649876709 0.24481969786738905 0.25115403710293255 -0.01527084866680711 0.19851286567444096 ]
[0.14706263895684404 0.2074875987246317 -0.16933117046543475 0.15172943349277176 -0.0550549942627705 0.2652295279811719 -0.050866185016350096 -0.09629206702535244 -0.3053623341140035 -0.15833459842419964 -0.17991731194772992 0.05244509228878282 -0.25487298033634964 0.0864905838874808 0.2582954731179094 -0.11288100592269985 -0.08375403631161583 0.09892168270541621 0.06225554604171322 -0.2973892400925562 -0.06741476902495311 -0.13894736435484287 0.17503439881848176 -0.02765722907537546 -0.23834346143156204 0.07495750954476552 -0.04836300716763753 0.11407869884343652 -0.13800276356670843 0.19019096836723454 -0.1818984658904382 0.03872629827305925 0.21692766602149852 0.13475442808274662 0.22568039833776568 -0.2832764280084977 -0.12957749781020816 -0.11868145865217275 -0.16562879132018454 0.13690541766488648 ]
[0.20746421500494436 0.13800061837478816 0.04267657405908136 -0.16369465308086942 0.22029828963927642 -0.18559291977216993 0.3304668705753668 0.3329711718506923 -0.1081059145270696 0.06224732206475004 0.05734720689760182 0.2937009930388582 -0.3104339443472797 0.2287861840265276 0.1296626222889375 -0.24270588278854144 -0.28870839823762057 -0.2720098757667079 -0.20625289910801378 -0.2912806296168545 0.2613383735963478 -0.09110815891342973 -0.2453307855411322 -0.024340302264560073 0.06535945390112596 0.2221679841142659 -0.09438621743943452 -0.15679562343304704 0.16387902213854688 -0.29598423541277763 -0.2863207120571084 -0.18598423185414245 -0.15390474342099386 -0.16780884362039028 0.2612536747208574 0.12628552373151933 -0.04637187325840809 0.25846783444076193 -0.13400149144057955 -0.12696908236618562 ]
[0.25723949070194563 0.23506076473838522 -0.009149060404848267 0.1003542644611583 -0.3271398361958224 -0.16948602719175196 -0.20673791863955682 0.19602178237466314 -0.20130192051698548 -0.02519149621540487 -0.24455150080330892 -0.08398656759612512 -0.15910069486604966 -0.1843850306061905 0.052909373159805824 -0.32454286755588957 0.05605523118761387 -0.26645806785887727 0.11106102656113696 0.09023150396216344 -0.021912940328632582 0.2991648537579018 0.22115080337103077 0.29070457128344646 0.014782551615937896 -0.1298898339473054 -0.24126259580307755 -0.08121731047659182 0.28062491726913724 0.08092608592703378 -0.28941714686392267 -0.030602494129090014 -0.14064972387208707 0.2720199844750355 0.13880970168858506 -0.2349333162192398 -0.14307232910925236 0.069346850876089 -0.19720250725615082 0.25772011018414076 ]
[0.2799595631174658 -0.18122488965420971 -0.1484347874194265 -0.07376334232927735 -0.06541667979308227 0.06412600321530744 0.2247354436078727 0.1794265190639653 0.16069646091138853 -0.3058972019701596 -0.07371569393353525 -0.063255487269364 -0.27980186757953246 0.20223030989096175 -0.046344822232217676 0.20309103652186963 -0.07561674544426399 -0.3036829849007272 -0.22906276058771974 -0.17325992790162326 0.1003767277440947 0.2643715718739228 0.14336475857959244 0.24762137769191073 -0.2808309393424849 0.01404653018067514 -0.2691281404538082 -0.038692548805006236 -0.2604504190616682 0.32465894735140755 -0.10564177854764335 -0.21467290173637524 -0.23321444248244846 0.26321851778163524 -0.10118089886543188 -0.15435924761958572 0.20909252734879502 -0.33695607401986244 0.07466786581514366 0.2484908362147719 ]
[0.21189538970477784 -0.1993051486076434 0.12609075674231737 -0.003294656841475172 0.056248980181210446 0.10005701949678472 -0.2265537078045168 0.040429344359669946 -0.045189553674283386 -0.27633204737794814 0.2453990890876023 0.2091240604268198 0.10180455673519855 -0.16902948362048673 0.05752161226066568 0.24571365078874008 -0.05168271996713841 0.08907208389504918 0.07028676447162747 0.08531907556369217 -0.2710068769124427 0.15915999818855456 0.21292972557033088 0.14199982553453921 -0.1636912891609639 -0.06463104529169258 -0.0029641461948080594 0.19567908025762729 -0.32115165818501384 0.1285671141338086 0.042088982235153796 -0.3475770263741962 0.17868888063164343 -0.09307746232997986 -0.06975113615090421 -0.11015920699165434 -0.02288539846294916 -0.31965768076470696 -0.04722243594332649 -0.07411377336854308 ]
[-0.09914887241932331 0.059681036003206685 -0.0045804463894484415 0.013383580028654952 -0.27844440785869007 0.13660794799805426 -0.03654665766905089 -0.13191760027061605 0.28888567889189826 0.23198305996177174 0.0680451549617758 -0.26199619227981563 -0.24200050420835142 -0.27164874405815903 0.2619814260673429 0.2756435291067871 -0.2115707745319036 0.17613642028040685 -0.2393937896075588 -0.1439057046522068 -0.16699760889136703 -0.27450300065275457 -0.20109707526745185 0.16676026134026756 -0.05637078760789965 -0.10131619632912832 -0.11028301570920968 -0.03934713668009663 0.2418766849842871 0.20603008007357113 0.263760109692564 -0.03988731920187121 -0.22375661920757545 0.04798062847249889 0.23823384243826062 0.20773618213361997 0.15003611673534478 0.294873777647272 -0.1630922759569795 -0.10824722985707723 ]
[0.19444931862288894 -0.16102465115272604 0.229989767185696 -0.27923471564731234 -0.1037452072899426 -0.2336353680825385 -0.08152946408461127 0.12810289931442068 -0.15855863951156943 0.20091169993503846 -0.22029739201929366 -0.2950664612252576 0.032285527286208454 -0.29322073793605574 -0.1513573845483548 0.02257435048255734 -0.29002084864922584 -0.04659318828370741 -0.1639991911553953 -0.03447753346813096 0.2025025817162242 0.27171985027138684 0.16311067719628503 0.26147164208677104 -0.3119139213948151 0.10632165841812774 0.2453993260502642 0.2236251207759623 -0.09077130693599554 -0.047844572366640345 -0.18896129507126466 -0.23947788357439942 0.04645161816749276 -0.13565772762657616 -0.21872780384411147 0.06312869152762429 0.09220501518255897 0.16116822914429077 -0.009637520479438465 0.034756319570431723 ]
[ 0.009644872613438148 -0.0004601969656900884 -0.014469073904308294 0.0441589014375946 0.00232851680157877 0.002923580749632327 0.006194915154574382 0.0023509462132987632 -0.01701161839911059 0.008090132397550114 -0.004520077114244656 -0.004454657598486296 -0.022951678454238435 0.005138694904354645 -0.008377660781879041 0.0005208912442913811 -0.0017243295366249256 0.011516324009207145 0.008544485835973805 0.0036771470530514434 -0.005807151587874582 0.025717008222784988 0.0023670446657455555 -0.0013333195652555426 -0.015224947580421238 0.02840460605597311 0.0196822928104514 -0.00157957930290784 -0.00026979969981679765 -0.003991447835905189 0.01208902004693134 0.004325264778319595 0.0033626096743708655 -0.0009105350094546218 -0.02398613614670193 0.004410759741928645 -0.00626551140939685 -0.002808101521382079 0.034446507283197966 0.01821923878733452 ]
layer 3 Activation
tanh
layer 4 Dense
40 20
[0.04017827803892131 -0.05248312675131984 -0.3119477209752311 -0.06389219957204453 -0.2504201065559364 0.108354796176749 -0.21653640937515745 0.15346492331131864 0.22658505209685234 0.03362968652083616 -0.2542645070487239 -0.11468497292067413 0.30787697540365105 0.009084202969337558 -0.08940787680277165 0.18666654100235314 -0.1853379764765688 -0.07097989884884999 0.16766820240706565 0.19159936125709026 ]
[0.061203520959780246 0.19984305875821012 0.27814867729056764 -0.19343826678033246 0.24185346894778376 -0.08673725860096822 0.06797162018759585 0.05083153405589516 -0.05053478968798835 0.02536528934947888 0.13940187734228 0.12823027094335576 0.21417461002872168 0.1996407624515423 -0.08582669325134604 -0.2661601178359077 0.10393791177990817 0.13685560890817028 -0.054003440300526576 -0.11248622118055851 ]
[0.17293923330694289 -0.10145873555046081 0.2734658223968022 0.17499077200009813 0.3097405561407835 -0.11855018346359038 0.2635382563917357 0.07583794329739689 -0.0607048117348349 -0.2618475747276596 -0.16187587983132565 -0.16515520509405207 0.0015689848910215775 0.08636137748721567 -0.2202868341276897 -0.01936565017102736 0.062064543587663626 -0.20922600986823633 -0.2770367341915292 -0.014751843437525815 ]
[0.12018508733847022 -0.003634683576171626 -0.08815633677660653 0.1670058730987478 -0.025414591757760903 0.32632095463953664 -0.1337502013203364 -0.1173713839820154 -0.12229266200630015 -0.01566073356742543 0.1174601193801394 -0.2096538889526591 -0.022519830330686465 -0.00737926864283716 -0.16373101771701448 -0.1250797440314547 -0.24189743326236657 -0.22249700580564413 0.009877885856316328 0.23922436975609462 ]
[-0.19182144208899302 -0.2397905816367147 -0.04984089658756666 -0.340118478804579 0.2158000566999869 -0.08682549090648195 -0.2700934700661942 0.2662649086069668 -0.16109494076697972 -0.07629580634186539 -0.09810282554572392 -0.1384305211076681 -0.1574508040747371 -0.23522285981344218 -0.25125990004374515 -0.13517324792776708 0.17308458212053132 0.19403906033996576 0.3336535765599238 -0.13581157759403667 ]
[0.27170741633329715 -0.2477797760866054 -0.09799990175877017 -0.0661908763632439 0.06695394426977858 0.0565931894721877 0.10381151086051771 0.23098548736118868 -0.11748511235281743 -0.15094134159084086 0.033221565947226486 -0.2558712617856845 0.12649879608809733 0.2782750021163913 0.19595011297923143 0.3021052319139447 -0.26375325394245863 0.16721002332635912 0.18588100482605482 0.08010276410504812 ]
[0.23785432469134835 -0.12972227635254668 0.12602657078892812 0.2474868354970883 0.16282480426751514 -0.1026744089613533 0.21818675205300947 -0.10572165331975261 -0.31237810126567606 0.052760329822401274 0.2711708888510029 0.3041454523059433 0.2661256930936144 0.212580788269754 -0.2949728545727005 -0.20032964314347704 0.24695113991975132 0.05421018079851463 0.035458845200835296 -0.17268285174946266 ]
[0.05899065842436933 -0.013004432948317157 -0.27649283495643934 -0.04400756716795356 0.026074759567597514 0.008863403034584718 -0.050370727024605634 0.3211230509153434 0.08428815840031317 -0.17623741344579746 0.11430975929781982 -0.31689082208651537 0.2501037223951634 0.23372973483660428 0.09975256518262833 0.19853112190301617 -0.2560539067834724 0.13253615619975898 0.18149544310572535 0.03961376957614642 ]
[0.27595184884857926 0.19440868689086407 -0.23478673732246583 -0.03277960591284445 0.07175258949793496 -0.28847308732580407 -0.007346220635176199 0.1611796977036568 -0.12546132857099937 -0.2839808193481607 0.13936131376917046 0.04604916940395727 -0.019144573081258318 0.22062088479240705 0.14681657768865 0.25788779757772295 0.07399614694164976 -0.17316847265290963 0.14202491992408528 -0.18093313134340908 ]
[-0.008358563073286454 0.12576403005545156 0.2399199347000398 -0.14690024116154377 0.16290020838235966 0.20462125726277897 0.3396646918200188 -0.07041835034045534 -0.10736106680563805 0.13390941875715587 0.29368430795483447 0.14876074689287375 -0.1891140913701127 0.12902168459724717 -0.1178444229700676 -0.2509044919995725 -0.043489811234226 -0.1591530115431112 0.047333689018747245 0.050520891545293586 ]
[-0.21099973268369657 -0.12778679770582865 0.12892155795741697 -0.04166882547011103 0.148492239958705 0.03191797702086657 0.14725671945114865 -0.00962103973461898 0.12944476326646 -0.22601701128892215 0.29253136671135643 0.11206652314627137 0.07773688785170664 -0.2890038488627273 -0.3022014522873402 -0.10760011389145778 -0.07574917044631685 0.12991916355299238 0.14955456154363583 -0.052192689187971084 ]
[0.25499855474767175 -0.22104055508581705 -0.0754315933006933 -0.21127462240868786 0.10597238165016383 -0.2982330296619811 0.04170884944850197 -0.015183725060757618 -0.12406649751626403 -0.1324262004763455 0.10474526952729807 0.35961874925280285 -0.1783271301664551 -0.2649718008134704 -0.057223475226750295 0.23056541525410218 0.004138258037501494 0.2909235904539493 -0.24991593521360897 -0.006156330224894799 ]
[-0.059299390579226265 0.019233163318833284 0.32334054965346004 -0.19329354412537192 0.2995213044954595 0.013786386133241964 0.18526344196522482 0.12881201459587355 -0.1275215162107794 -0.06709327258646315 -0.20475898677250706 0.27320461477737584 0.11408253316986129 0.10660451134787229 0.22528735338229042 0.19937711592158486 0.04656731057000655 0.12026637230675799 -0.0601771643880344 -0.3278056131294354 ]
[-0.11527580185106841 0.23159672744305246 0.033645243320377785 0.03520098872497499 0.14182787374639846 0.1775269967152479 -0.11724251150591765 -0.21444292433594292 0.0012765051709009313 -0.030438714591086963 -0.24794062200392086 0.14543407257847435 0.32085472539167464 -0.05678698919573827 -0.2435905837311542 0.21549867125365196 0.0020023023874207184 -0.08219867149337304 0.15757105701008833 -0.2878544631101651 ]
[-0.11880909060558535 -0.2289986227554809 0.13557620860325695 -0.15144292343605822 -0.04114167181789881 0.12294505867202939 -0.2539183592727632 0.12497786624728785 0.14198046991779115 -0.007244924857929651 0.0023993249277259403 -0.23381951078597515 0.09123086334381565 0.18662727733021078 0.08499331984375631 -0.023408374807551768 -0.20744781599823134 0.041872593892385866 0.13760819303364008 0.14970835697561724 ]
[-0.31687710803718566 0.2048840316929749 0.006008332516366597 0.07474286753003954 -0.21786736930562825 0.018615319388816616 -0.06713192056352245 0.06972140073554016 -0.08629754695803549 0.2694780182478636 -0.3022151020545143 -0.16146012228292955 -0.09808319154711248 0.26073478033259073 0.30169065837219783 0.21716800629280142 0.20431511551955892 -0.08145089717196709 -0.06902195915179134 0.26475505729344045 ]
[-0.2190396113097769 0.274739112970558 0.07901147862940079 -0.3154755107467995 0.10569007930999536 -0.010469113577201086 -0.0257601500037183 0.2319799795821503 0.23391639202433506 0.3183937945295492 0.13008531795501482 -0.30077736006501166 -0.004324907863677367 0.1750569819245967 -0.08116295518449317 0.237117405422031 0.18031117734874266 -0.2013248620183848 -0.18222994738046078 0.2860312585168331 ]
[0.07341239658925501 0.19082965711012911 -0.10429814312521038 -0.14858016296693785 -0.016320527706085303 0.17297395077601 0.13220621576934483 0.23581359260289153 0.23579937647286695 -0.10241427066979675 -0.1290084600755774 0.11113803875398115 -0.26800711085057766 -0.17648599996509898 -0.023447374058533765 0.13646741373531168 0.31445159266755285 -0.2959868017678296 -0.06218861631826855 0.2719910623554737 ]
[0.04096509889827748 0.12697790852846708 0.2842373934815236 -0.19480337339692758 0.23528292644145593 0.23106460611945484 -0.0836815637747707 0.10056993860262126 0.11519937931885434 -0.07562188766343787 0.1753490396333895 -0.29850527384297804 0.09678681769340787 -0.1412102139402605 0.12099708039347283 -0.07551206391066945 -0.02405172830317096 0.267515042204769 0.24303788356250522 0.20257424410128383 ]
[-0.07280877578239346 0.1862282069378998 0.05202815322511009 0.2748480532512792 0.02418097882201826 0.036462225232802126 0.15338435424757854 0.3533410433528506 -0.17560125051560824 0.10680392584452889 -0.046900138845665615 0.01295060158478746 -0.10608029539517412 -0.006823088618179386 0.028617793024303433 -0.12902588492544792 0.13734092862361033 0.02824683719095448 0.14519967910972884 -0.2495645021734528 ]
[0.23100205238844906 0.10307851511048799 0.23994880312285194 0.15185745407120918 0.01102125864197773 -0.30104071923994274 0.009796946633108528 0.044654453793629756 0.29689502085521474 -0.1385748210889881 0.11876858912784714 -0.09763205264101439 0.1865841305038295 -0.1470160853417333 0.11316335740137914 0.05712909260467027 0.1448383812624862 0.12108497564384775 0.16200725530092802 0.11795681983346407 ]
[-0.02695246543978001 0.16058361510969568 0.315832040770608 0.2998703192047804 -0.24609257720847078 0.12367233761975858 0.2999228211725247 0.11361904580564341 0.20101840850893435 -0.07611834125539851 -0.15637229941200984 0.13508448252928024 0.22359010177403632 -0.019413673048225912 0.06560594251893756 -0.036677569856209714 0.2587136783595845 0.23184041466286984 0.1051820058100867 0.3101586301285466 ]
[0.006476871071087725 -0.19399164103694097 0.1485887187732298 -0.21757528543619353 -0.16180236430771427 0.2204270484115524 -0.30747663665758734 0.10520956400860539 -0.2273287937567493 -0.2599156204568037 0.161211858209142 0.23422281033162506 0.19103661408532324 -0.2402697612001372 0.07294692088956256 0.07654937108607733 -0.1456041674552344 0.12049601421591444 -0.21458641274941587 0.2343451632929913 ]
[-0.30612496743531864 0.2748784944803648 0.059062502285680385 -0.055730163801403734 -0.17331243577170838 -0.2500450589739762 0.2931954129314135 -0.14797908804628754 -0.00811831214764183 -0.2112759788268996 -0.17610382883683692 0.021490298504740317 0.14823746973230256 -0.11669625470193726 -0.15853417666137312 0.12821051474685777 -0.28823798511213145 0.1162531687917332 -0.2167714910334132 0.042930415970886524 ]
[0.1783199371826859 -0.039844383438235514 0.26578349668193585 -0.24805521017614687 0.3107304974879788 0.10173700378472872 0.06470360239025065 -0.19292997105040197 0.11661228290306208 -0.2192093466994088 -0.12403974462131019 0.16986099868504204 -0.017888450165483728 0.18268424961307309 0.23263518824736637 -0.036653300043890114 -0.2515873495858395 -0.26287602150667605 -0.18306600336829618 -0.01708733950569937 ]
[0.15205707051940395 0.09384973007307097 -0.007407210342332968 -0.018619803234936016 0.09281612347160391 0.29295860559101955 -0.10981367089401688 0.1753036544796295 -0.26707690164741155 -0.0815266871622415 0.023082290494267396 -0.07343559775394373 -0.2024163485605935 -0.014064911692761379 -0.1120651424494295 0.12298563044763555 -0.3421331112391599 -0.013971351421910687 0.04188260397597647 0.1374777593502627 ]
[0.0951199250062575 -0.18695378681102787 -0.2086347930383321 -0.0005765026748990249 0.27378097800482426 -0.2991486064173452 0.025897868604040267 -0.07806906545823813 -0.016389152523464273 -0.20222962874653383 -0.07504866901309376 -0.32016966387581947 0.007826994106015365 0.08990134525220494 0.24607431804990323 -0.252384799383556 0.173404094084208 0.1002184326084625 0.021391526645985124 0.21512655730582142 ]
[0.02253798604359257 -0.24943043927467545 -0.27609796574062023 -0.2466039940284722 0.3172715328974991 -0.17511706810449865 0.07121185125755862 -0.19409333194971876 -0.1315981367942293 0.01967839511857364 -0.2629821267776623 -0.17656093595582026 -0.029445207160934992 0.13594477953602507 -0.06401718026359018 -0.2789518948470264 0.29736450142597765 -0.14765855568287087 -0.0507363670386629 0.15318953376546973 ]
[0.08625130569205973 0.2600586769642246 0.014518214402618086 -0.15826652461823598 -0.094264805389272 -0.12112354137353318 0.2850596429311318 -0.1925157297303782 -0.022500172754546077 -0.1435929626654975 0.07774967189017008 0.14647372480648208 0.08401302937643836 -0.24852401077966416 0.012735459509202294 0.04752431811936713 0.11396649435561003 -0.05922741257884247 0.15145880697917063 -0.3099535566498775 ]
[-0.09375738988439397 0.13117906600067045 -0.12221491031573391 -0.21347093259915537 0.0925397513546991 -0.2517734148274 -0.2674010859914584 0.027868141325049646 0.297614325543959 0.26567790366326505 -0.16840824450895844 0.30988357235304054 -0.11724135483809967 0.010446609127157298 -0.09816310058887329 -0.28804389200322994 0.12819285862358473 -0.04417500920343701 0.2202692640237432 0.17494924650293034 ]
[-0.1314122907664977 -0.07619578109058628 0.24013538795518696 -0.16867445898883154 -0.21001761911163075 0.028741957741242337 0.20757762294644366 0.2408992612238774 -0.09797783691543098 0.1861649964906951 0.047852312170580745 0.27752028682188856 0.048038852715153804 0.13559082318000643 -0.011778875588106637 0.17452887953755047 0.22771562489332758 0.2623015095029079 -0.03021145428442716 0.3398351567890781 ]
[0.12496050016806054 -0.01729024111818022 0.0866847482605402 -0.03897507662959253 -0.24757563720390394 0.19512481308464674 0.2596156684279439 -0.3405957952010931 0.044415872694511596 -0.22602612321859678 -0.05370513991842645 -0.2032161096238923 0.21992891977463586 -0.10653396990644043 0.13099446920367627 0.13139183840086838 0.12266190791099536 0.15659745318078275 -0.2639905542716318 -0.22660024144949445 ]
[-0.13753734445737129 -0.2087342839631352 0.0038184868386534018 -0.04285323838281276 -0.16803964604466554 0.13697539648486504 0.023063556534330277 -0.115263290780977 -0.10102340958149207 0.11332473194497417 -0.02484869166785083 0.1695436569861296 0.03768239150485038 0.22200070656146534 0.24380889915224654 0.19673176005154472 -0.10294083212923251 -0.12138923366491097 -0.18334884134054405 -0.3033753416321112 ]
[-0.223013390235946 -0.2165526737174459 0.1745426542641277 0.14631979721385685 0.26620238858616996 0.27163023204257186 0.24808651667128648 0.10238938497023196 0.011175891596677204 0.16753053994252637 0.16557471806558588 -0.03160295673398433 -0.25133148415784756 0.2894100330514757 -0.1567069014961523 0.06822633291654809 -0.3253331575547782 0.22235337569771457 -0.24578551426283637 -0.04965552650510304 ]
[-0.3320607320187081 0.17613112192885425 0.25678331893770445 -0.12876843862353657 -0.09188899292144581 -0.32369302527978344 -0.23642391985586972 0.2805128384118511 0.24029704258202314 0.2412306114516225 0.3363597517721101 0.21518646132017022 0.012025693089623134 -0.16144142333963857 0.2731370093700455 -0.024416457930151753 -0.15112854162562528 0.04466319929510896 -0.10381134836762639 0.24159587989374587 ]
[-0.1782087092828181 0.011666174633886608 0.2433666915797668 -0.12725585295579056 0.15913027813692135 0.004715764114979537 0.2627879350601569 -0.2917404034152804 -0.18213578540236552 -0.08145578356275168 -0.10417365197897513 0.019890818787763002 0.16603504280860285 0.05672377594701842 -0.16823758176168893 -0.3150305997040664 -0.24177567479627227 -0.11524588448210092 -0.2315351768977051 0.11784009831634867 ]
[-0.23886014259510888 0.21903248635572156 0.15158621056636779 0.15632332714332173 -0.026616786103532825 0.24156011117733028 -0.08636613106328984 -0.08736192823953667 0.09810429625064798 -0.1680453286160777 -0.10035090767372833 -0.3110199531659856 -0.0014638425562137321 0.006760688853197083 0.2482409605768536 0.2951885500911917 -0.2719064764317382 0.0004426094401563847 0.07458948551828246 -0.02346836417579309 ]
[0.06546440838613268 -0.0593113288406233 -0.19579476611891317 0.010748978312170823 -0.22311570603896383 -0.30542469665715277 0.01668259298547344 0.17743839761483893 0.11963758437381047 0.08693989426453123 0.21140133400708627 0.18128218941491175 0.055045705930123395 0.0726007507088435 0.242446367621733 0.0083610012470921 -0.13165396514634087 0.05878454728390389 0.25439655188490573 -0.09610349186861888 ]
[-0.17883776841610877 -0.056460293140967344 0.15527972848247643 0.241401239670606 -0.19792611747199856 0.29801727360660196 -0.039331842213144286 -0.006372258690252416 -0.18492092719983277 -0.2572461008891502 -0.02059120876823912 0.31753872752880213 -0.06414808197231765 -0.07701693301241176 0.18526615976512775 0.30070206741044814 -0.13659740688357327 -0.006856198232730543 -0.20403287361594594 0.1627149810392043 ]
[0.04168079422538532 0.21068458857224695 0.31629893387069485 0.024027566669301205 -0.31570764318425454 -0.12190465420226111 0.15945830288671875 -0.03885323489409873 0.2661511329542197 -0.07330500514823637 0.24188721001851204 -0.18487894570546093 -0.01789419233943688 -0.0013672090993061526 0.3382686955155417 0.07340635728462984 -0.24183560141015664 0.18873009251494263 -0.23320782913323837 -0.04089226088754488 ]
[ 0.0011641978003352478 0.0008049727583210567 -0.032794722619384285 0.0008253457628704919 -0.0075967136269214 0.007327130466578411 0.005473450289071717 0.015520884274256658 -0.0064281344036902265 0.005139809503304582 0.002087106958923575 -0.012265754989685646 0.008630893213080288 -0.0021645440524611596 -0.004022711518302743 0.009455104820308598 -0.01353779779456399 -0.0021407892425246294 0.0053853903988052175 0.006283287366508192 ]
layer 5 Activation
tanh
layer 6 Dense
20 1
[0.3586534623720666 ]
[-0.2646550583306719 ]
[-0.004177259940067815 ]
[-0.13927560781962212 ]
[-0.1874782360119824 ]
[0.03516593567343578 ]
[0.36382651407019045 ]
[0.017655271058984148 ]
[-0.05927196497191847 ]
[0.14809374083978463 ]
[-0.15323830063761235 ]
[-0.06906070742417182 ]
[0.15782725702456887 ]
[-0.43650309671666326 ]
[0.354261024293811 ]
[-0.011568505605455439 ]
[-0.1784888627986734 ]
[-0.2872653428470341 ]
[0.006190954652684257 ]
[0.1074143710120621 ]
[ 0.0033968850290231204 ]
