layers 7
layer 0 Dense
24 20
[-0.4428186352053396 -0.06249398443118646 -0.25484803179707244 -0.0902910290829104 -0.1800861366672365 0.39175039097560505 -0.26955742263279797 -0.07627917263792307 -0.2407416439419808 0.26772989327469293 -0.5146334663736115 0.18845892476828888 0.029752131724655847 -0.1282234832516878 -0.26340341411020707 -0.3190956386034408 0.1288935341383373 -0.3887444844192745 0.07903524285857545 -0.16750793615656376 ]
[0.009018671485968875 -0.011724873223404713 -0.04816502589400196 -0.12470515526629299 0.017614544563605852 0.34901559166193546 -0.30631940666268204 -0.05655940955265731 0.29551407135145474 0.35453692084094907 -0.4580535013191007 -0.23828963106784432 -0.28259288983200254 -0.22267331313616323 -0.37113059603606985 -0.15036084078560172 -0.24991584759407942 -0.30490173363597844 -0.10080627919287084 -0.31148233372250195 ]
[-0.3416651045908913 -0.29829460818855197 0.009823094984412448 0.2202122406341457 0.16696177163485734 0.3872408503973793 -0.24184700495946326 0.17013637576730106 -0.28389054018486853 -0.050269889879211056 0.1650627096286647 -0.21181882327984108 0.16041881535218033 -0.2932735894729203 0.012029936375140982 -0.2058687955522088 0.24388791307399854 -0.27512668123586886 0.019855116424577803 0.20214661270226003 ]
[-0.14773359290355828 0.019351557191329284 -0.3290157010247295 0.08189248369731537 0.17928998278048808 0.2883426850926807 0.012418002468248937 0.273289813731078 -0.4050935466255564 -0.23284581624113648 -0.11520593985497875 0.27248577752713987 0.12941024289936257 0.12160057076594631 0.11368010884638692 -0.16898540079773014 0.21999057421776733 -0.12707302005725155 0.0020162151542133396 -0.16628521529317708 ]
[-0.1380879749415095 0.3436381083506801 -0.141963325137901 0.06072909715784826 -0.18331061319908518 -0.33313310089431236 0.02130114022124711 0.11808105796681177 -0.49359480328832694 -0.22169147394665922 -0.24663826427900717 0.30336959833534033 -0.09039027989070539 -0.208014224945803 0.03689706623341816 0.0446808071440398 0.20954476796244992 0.1484572208666369 -0.29838977683247986 0.2795368178591517 ]
[0.07562445341513402 -0.07346223545454403 -0.08346857680696483 -0.2995078772077404 -0.13869923774005918 0.3049814584514439 0.3273688450013343 0.34206014559160575 -0.3019776795261874 -0.17817765241129602 0.07124679351032599 0.24629185908422213 -0.08706495926157959 -0.0037028871292132874 -0.2951191536925104 0.2557589501484779 0.19816757645671818 -0.30167953026845046 -0.11875474985183838 -0.18194541916968737 ]
[0.11688329056179551 0.35437256963920416 0.19850076128863506 -0.1950228613563532 -0.20549549477941986 -0.3351080364078629 -0.3740873891260086 0.07089231745120642 0.08866005883059139 -0.11996174082292764 0.260784116724281 0.13180115282223007 0.2288371950010017 -0.061100189575331296 -0.18643908908348666 0.2836132028668847 -0.3770176170033389 -0.10150382586448332 0.2082064988381316 0.1952845702449806 ]
[-0.2065248172987414 -0.3121965710063348 0.2818340037650528 0.14444254478327787 -0.3560361816887619 -0.23207126171846526 -0.08917543159764911 0.21773039562167695 0.013743179544826843 -0.13451832523811216 0.01947114807894341 0.09178032958037732 -0.08717544907979152 -0.11332119754555431 -0.1800533099375797 0.1287954408526319 -0.26903446634095984 0.2767601208275003 -0.13333108478459937 0.25606040526981183 ]
[-0.08430610915066267 -0.43981575655147015 -0.05125870507812263 0.4255052354709587 0.273968911279914 -0.3337579650608245 0.36206513772146337 -0.3893923349621786 -0.32791736232112184 -0.2498877243553218 0.22463868353794422 0.2006011153498372 0.48189974363715715 -0.3291926150009996 0.13256698886415985 -0.3256722061662162 -0.13293293278407317 -0.6143115458269582 -0.06262181434714341 -0.3705714581299223 ]
[0.13462844421563963 0.2502986432156753 -0.18251667497119498 0.5010271711346476 0.30388160217830923 0.25491844761803883 -0.033873781707821904 -0.3677362454211568 0.07314074467761356 0.30597974700027414 0.11342556530540136 0.14289447852034626 0.20968052085576835 -0.08000418208053861 0.03369116611315989 -0.28109355167771466 -0.4907193230586749 -0.2097458813534378 0.03436969894312028 0.1643811437618387 ]
[-0.23635775729259242 0.2961014001265754 0.2357748113437679 -0.4256612428482177 0.27168301625415037 0.06927113100895241 0.016473366946940158 0.30251940716905323 0.04499296528221508 -0.38679625370696846 0.26301538025100957 -0.04774893329225877 0.1635072991690285 0.31007878024544333 -0.19708240159522433 0.22434839484178265 -0.5206620850616239 -0.09729030917324959 0.22366307242913183 0.05921585735638935 ]
[-0.20225827631264331 0.050529388794144495 0.38123070845113194 -0.22665155542337578 0.4897403454279665 -0.26542510898549654 0.11998820638394195 -0.3430053033269073 0.17877027416390956 0.15557196882640387 0.5230803687985132 0.36059614169358706 -0.06588750973505479 -0.15103865340457096 0.07937456851737429 -0.38070375265878487 0.11119099890569395 -0.13581614606856668 -0.40816591106097844 0.618207600148681 ]
[0.3916480065025105 -0.19326114039856807 0.02617322922775651 -0.5389219274702743 -0.5715939125660435 0.1053669942356187 0.13277011958539062 -0.3460872422347684 -0.17583300021764917 -0.02861967697537702 0.2857393600946721 -0.29085757931480083 0.3744655108755978 0.2848107597335797 0.052084569358553726 -0.26019597692726376 -0.042347819754747607 -0.1300578669856282 -0.16528502630837247 0.33933283903233935 ]
[0.02859933409024951 -0.024397466545544994 -0.18801922102915272 -0.5783804599202615 -0.14137020821858298 0.3188634687724769 0.14699664867590684 -0.36358237789314596 0.25282310808717956 0.15525831065846 -0.2274480153568814 -0.2995233811019942 -0.39154792853170417 0.6158688938640323 0.28676978452864477 -0.4178686459115402 -0.5291677484326773 0.13494203670566995 0.13781356458782304 -0.3132249219830936 ]
[-0.007276363917239479 -0.11014668543618987 0.0332323912922727 -0.09525699453967276 0.282611604894364 0.42054091907394686 -0.3514156179606124 -0.3839986375877088 0.3004186359420492 0.38260113411864494 -0.19940333899577306 -0.5500876028182626 -0.5484142482156488 -0.33555362655265647 0.42775275977060506 0.45094605718571534 0.050955368913832975 0.6155032706839084 -0.5025735336560719 -0.04276627194817316 ]
[0.1049214449202619 0.21673614173305267 0.6153141373714548 -0.3648178603682769 0.14955411125949455 0.25885391376500994 -0.5483768387261885 0.14632834898407615 0.37970489368113103 0.20510301428090416 0.26804009172122817 -0.005093165929865713 -0.26939412736402263 0.4267811041452978 0.10463353862794429 -0.008408624283756883 0.4032264866316807 0.3691135942855139 -0.03909600963612818 0.6700418350421975 ]
[0.09828235265976333 -0.2991910286339611 -0.39745409535010756 0.3946250604836077 -0.055870266581235305 0.23581570068517288 0.32785343083144924 0.34128768737817583 0.15759099155889633 -0.0676918661937677 -0.09454758368877428 0.10645592463047823 -0.3991551752098481 0.09598500975058305 0.34581706073957474 0.2644918556804609 0.0013646919778100217 -0.11958798886357316 -0.07847493483326334 0.048180588685062885 ]
[-0.20012204987161808 -0.259705459940579 -0.1267544925509163 0.14416805927191118 0.24911423705911892 -0.08524223636198591 0.19328119388314158 0.3995874374697814 0.2258881322890167 -0.16858400086694997 -0.11373918972544222 0.051860458884880355 0.1845836153646403 -0.7156588495929482 0.18898911941345456 -0.022175751622774013 0.6583806593941636 -0.1204702485772743 -0.330082082290419 -0.19350349957992444 ]
[-0.6029579511409652 0.494391225022898 0.01863608376537598 -0.30675321358600305 -0.39529144914651454 0.2769815510047326 0.017093584874696727 0.31966689034284856 -0.6359713722298614 -0.1595092171207414 -0.25189763869828985 0.1947061536395912 -0.07528639094486866 0.6199869478120393 -0.6451949954710391 0.16724002365300758 -0.6407870125260637 -0.7858761862045763 0.23949526971718754 0.413174721230414 ]
[0.09090796106184247 0.06789215675690133 -0.2114025613319977 -0.23927171642085493 -0.2582122917225589 -0.2583217711056686 -0.06655358516904927 0.2363654214759154 0.12847048762817712 -0.21568320471042718 -0.5999798165429135 0.08930875863969077 0.4915603742600743 -0.1367232206901957 0.3793661818736054 -0.5490057076982919 -0.1199073849038739 0.13711050407581127 -0.24614517326075883 -0.33865446156669576 ]
[-0.08055590321701724 0.37040627020680816 0.5654432424158936 0.26512961599593404 -0.1611834338453239 -0.16475154759026064 -0.02829625880687303 -0.008739590196795965 -0.04342408712061128 -0.4208141571014433 0.44900049358343586 -0.12811658189606775 0.03282881354905764 -0.35586341722258297 -0.02442322859373538 -0.0004878847126916456 -0.02310519564850325 -0.36111993710150925 0.05938616655872619 -0.26890643271733133 ]
[-0.30857138694991687 -0.1813687460531549 -0.39296018249000875 0.4719402803990509 0.4794379305620408 0.040762805185243785 -0.30472221318088516 0.7254479678086231 0.2081398663915183 -0.08635818731623453 -0.30834454232596353 0.3925097285491189 0.03178110193687391 -0.5945901601661989 0.24980897471586339 0.5137343610055014 0.5144966467595556 -0.31944729446563846 0.1083221730757997 0.07403285832323798 ]
[-0.1644790352740016 0.0662803008049196 0.04422815647557554 -0.4808052020712376 -0.10537716321114864 -0.1379452765776579 -0.3172132637302251 -0.11823345209100275 0.42772101314725325 0.0018808290407515242 0.25918895579657203 -0.033369092703030866 0.3872741497394088 0.13180003292754378 -0.22738606712308035 0.02620191480301186 0.12869599569631968 -0.19428761478454468 0.054762021135277374 0.22641475392760407 ]
[-0.07742953908773491 0.3393330865687407 -0.2518396006767392 0.038824564104084705 -0.08124273221868915 -0.0855623209885364 0.2600656105306019 0.3536839885760462 0.15517080880380912 -0.20608820005344472 -0.3655672804064974 -0.011589698417101146 0.21617023492852522 -0.17055116949817412 -0.16512298679762366 0.24202801928048293 -0.030600704928596734 -0.48677991511828433 0.5599048509531447 -0.5280784258845095 ]
[ -0.07947363809478708 0.020374994735515437 -0.15912516857470513 -0.01806732394949621 0.05249079684663902 0.09672520359591655 -0.01011438272711802 -0.02463963873051514 0.01252279028214711 0.025756825034462288 -0.11249599876422037 -0.04984889021863724 0.002249746431197505 -0.07966839910780524 -0.02051108691870544 0.00246437690672019 -0.08232255361683181 -0.046689933866676706 -0.012387603048131498 -0.07462354130781326 ]
layer 1 Activation
tanh
layer 2 Dense
20 40
[0.16216700201533363 -0.018661254728870494 0.2712878995245529 -0.2619009203633689 0.22696430746288832 0.11600958683877502 -0.15341072127507638 -0.43535168960312054 -0.28916995521923533 0.45539523316428765 -0.08700746816277696 0.1594289399960079 0.277048420303653 -0.1098702701438889 -0.14648331478161586 -0.2035793680094113 -0.08104254645757765 0.12384694175231635 -0.40517853951342736 0.24621288838331118 -0.03500143654299959 0.21535505328711563 0.07826334328117095 0.08819041640387607 -0.09950353457444865 -0.06210419784859847 0.11552998607903608 -0.26530397420382923 -0.12469308683417005 0.22235234231981063 -0.22183748891526126 0.20132415222866273 0.13598865799261464 1.657797433556019e-05 -0.2894283501027857 0.16531353360554413 0.2555245206174351 0.06456236022402483 0.1843271577428505 -0.350708459756548 ]
[0.024760961823110206 -0.09488511580768583 0.03451504299774717 -0.17230151653429499 -0.16242110874426746 0.07070054792621726 0.1674899956704876 -0.22419946343654962 0.16974835834472138 -0.3833571473432227 -0.216418680452742 -0.17326679247630217 -0.3530978324731405 -0.18384623387846474 -0.14418011319194088 0.17505251269393335 -0.11227103230864036 -0.31892408327832117 0.22701562610476764 -0.3758329243855091 0.11193044491951067 0.13161206369298495 0.23917671689077966 -0.1658976291984211 -0.4022754968268797 -0.19019387934291118 -0.12257539535372111 0.298542641661992 0.3116432341418695 0.22921244109491729 -0.010110864149774874 -0.12217859665637293 -0.23351617413205444 0.010104720816947386 0.07365548016983217 0.2485650373988562 -0.052687261032229024 -0.06673490103898123 0.14975804401899215 -0.01717580138097313 ]
[0.12211456675743461 0.41750629263735334 0.31490546354874405 0.30930033551458 0.27616236057536253 0.2195021498026747 0.051033240035975626 0.12774055789280236 -0.21264293631699346 -0.453518039385933 0.0866306175393154 0.012272687466860385 0.049507283432485914 -0.3032949352236908 0.46254575733258585 -0.2851230570289457 0.29364447959971784 0.137520466112037 0.11270503510558122 0.20731523832481458 0.16601597427686365 -0.15196620044572356 -0.2847986039332619 0.05307434764182978 -0.3459722103735024 0.20486266076749698 0.7190308200940608 -0.30909624339523606 -0.13917444472795898 -0.15990102131021067 0.1549288109552656 0.5600943400185175 0.06919406784263737 0.2112717308409393 0.031047487217702376 -0.24557061169210145 0.05142207840689824 -0.06600404160057724 -0.0852544221601177 -0.07536799423273688 ]
[0.19511106570433626 -0.2388785407479231 -0.1968757160518243 0.19699023931775164 -0.17712457373597376 0.5182094246753363 0.2312751570441962 -0.1007212734925473 -0.14562398610702793 -0.00623334817013166 0.0784393645443982 -0.3314192285530992 -0.2574369733352463 0.1474943226441822 0.19981669304238917 0.22029837637512786 -0.4638696348951683 -0.16589132161667358 0.0365681870580728 0.11173805803620028 0.0380517535607625 -0.013497416422451744 0.1479365427267698 -0.23609672421181005 0.4073615269300388 -0.29000023971223354 -0.05176740045463978 0.18899320951133408 -0.09889256077309823 0.344424830034561 0.2292233745899994 -0.3321956402412844 -0.03434556163473575 0.20774008760277346 0.3064238810071798 -0.15749903960115083 -0.34483772986948497 0.20691687265245443 -0.3399812199270995 0.02295209418122131 ]
[-0.018327234810217263 0.11326431519283385 -0.03867591715270196 0.1947642912596863 0.21571120104159555 0.07458880241289995 0.014583363722242818 0.45868240785485015 -0.027314822308658948 -0.18274452622079387 0.042801022817023256 -0.38240062488508847 0.11604155235258112 -0.26971296145889395 -0.013154890087095838 -0.24857223600874806 0.18261736426017464 0.24414873509067966 -0.23380213362052454 -0.2548852812151243 -0.3402757246926182 -0.2233989724470634 -0.19654359517501677 0.2734720000007337 0.20734397229707877 -0.23787539908904065 0.0843725568537272 -0.14632124467003463 -0.5885505379644358 -0.019800011406917194 0.20918227576398254 -0.11270878705969267 0.12748836778255868 -0.03206050233894373 0.01120375391206367 -0.20764168744992867 -0.04495162298476204 -0.15699090487565143 -0.3413862263806973 0.3179247998940841 ]
[0.26823243136692004 -0.05694627201627324 -0.013201136557438129 -0.18103971572496347 0.13778969456796195 0.0753303955441367 0.17197024374362732 0.08322607741575361 0.28936920572522523 0.18625522449957846 -0.1375038241012193 -0.30217791991003456 0.305057860470275 -0.3428147140681606 -0.24798673920293499 0.14227962483901083 -0.027630163523827415 -0.07178224784345857 0.20541226914197866 0.0007215865506899545 0.18431270917844703 -0.07138848365628303 0.14519744630244846 0.2045652808652642 0.09941780764936572 0.11874247691112048 -0.3049033940266879 -0.026903784743056866 -0.2246219921688894 -0.1576418975212087 0.27093706367991016 0.07140364418538013 0.2960500826245087 -0.0010607995034998777 0.1134273995206774 0.2677860657193122 0.29132683207981325 0.2625987453736778 0.14322976881650623 0.21735979360816496 ]
[0.1133378512942574 -0.05617640467143252 0.2837757583106965 -0.2650853422928774 -0.04872154341312886 -0.2600216611686179 0.41493851646841473 -0.015343090234418925 0.05999944898373207 -0.2468817057110331 -0.3027201960428419 0.07403298092869723 -0.017986386358237114 -0.1500825062745406 -0.14826317766729472 -0.22684264183714378 0.3267277502545815 -0.05849189693531417 -0.16878192482505816 -0.14041164545670948 0.18765984556462675 0.09371272598175046 0.2857113658666581 -0.3278206975601311 -0.10666862895508451 -0.13059182041349932 -0.3019014411725019 -0.18977514654825248 -0.12341352485173944 0.06441349337750558 -0.10418389984335219 -0.2708966859074258 0.18454899936117167 0.30536765030347657 -0.3024454770858168 -0.26914553033584676 -0.1914328017818716 0.17570546642435297 0.007094820581477667 0.06455665247075838 ]
[0.20113025608620844 -0.2331540459251037 -0.40436457772268986 -0.23810977531314814 -0.15000369369169325 -0.28773651934554983 0.048958910512827976 0.16579638202129166 0.12180014938182158 -0.02555024739041555 0.16751948049261411 -0.18380789050031893 0.13550248293558678 0.527949788041165 0.29010545151460376 0.15077066520940186 0.4096277134440081 -0.1906317114381438 0.061987713602505386 -0.28702082739054313 0.06399108462927121 -0.2665949406593664 -0.0823209323923883 -0.34088817247222203 -0.2520578306098691 0.031052106418213724 0.5279337359872397 0.1407299631994326 -0.6021631870172304 -0.1556765120292282 -0.20035192470552488 -0.324633429823582 0.011525058327039076 -0.17146868590643 0.0717709104040129 -0.3318747228471731 -0.2698121922160346 0.15017989534357315 -0.39408537447574765 -0.021355242772520027 ]
[0.06336769505810705 0.09737274433062526 -0.06909693408861715 0.264588359340111 -0.10875256126404388 -0.1477838712608828 -0.013835127554983959 -0.2691141022146209 -0.24094202524305022 0.09167599478435427 0.07909765244340156 -0.295356756060374 -0.05744496879809266 -0.08659197429491552 0.24638650626608455 -0.2948559234334133 0.35552407009023124 0.05346595327712824 -0.3584856783337184 0.1874400437677323 -0.15941864898787939 0.26488235446841385 -0.20301999009745728 0.0805176712133706 0.1193989327967514 -0.26152877271536284 0.329915975053562 -0.15337628668780393 -0.15118062110120925 -0.294358176467574 -0.21507167609347755 0.12327196106577132 0.23446074397975028 0.2321214121478184 0.007953199813495845 0.1422880895755291 0.18831463921161873 -0.0751897619778768 0.27431439789946 -0.022913073722276498 ]
[-0.019210104814988836 -0.13341857999183854 -0.15981086955002985 0.26111394434863083 -0.12437214214444159 -0.1712149882540936 0.0009176510639447223 -0.002900869380437888 0.1657684525912308 0.1619866652583422 -0.2094368209249381 -0.2822813097065724 0.08250423863409188 -0.6075472825395302 -0.012182919140168006 -0.10060069410189566 0.24027162456237083 0.10639012607574763 0.06015576389196426 0.2088403895679912 0.018690783713650818 0.3202494790386571 0.18046754694394188 -0.20296912431163258 -0.34690940733580716 -0.16333047112183877 -0.07293975106928463 -0.15689396878901793 -0.005948069373268212 -0.3195978934438969 -0.13729125285331917 0.1417279493977262 0.08567215934683665 -0.3284298624140199 -0.006840774111593705 -0.031031683584486602 0.0007025679822323558 0.21936043086102527 0.007477504878329053 0.025031115921751584 ]
[-0.17576165228959373 0.16443540534104312 -0.08171957086083076 0.11281068340557637 0.37173263094973263 0.25488600829956776 -0.053430344141076516 0.393296551132267 -0.11086656927261361 -0.5294976448917345 -0.17425047989598916 -0.08082572160204765 0.11449612835803133 -0.2248830989436081 0.5912093065535687 -0.24352206066935725 0.12002853294045022 0.19180819881667693 -0.08260694024777769 -0.08861909233450589 -0.2084756914651764 -0.04888407897928779 -0.25714668163064425 0.02507884598947517 -0.3902203437083168 0.19081203530176882 0.30637317227962146 -0.39457806301812587 -0.40546839746338975 0.29804811608288423 0.12830144823563805 0.408485198851974 -0.04583045416795933 0.38633438301160505 0.10549350941195348 0.3177238732311573 -0.10263523433260296 -0.46613861851027444 -0.1653687070104313 0.22525574577199223 ]
[-0.04847906741867654 0.02521309066018924 -0.2509925100120872 0.010362557245981206 0.23201946578041918 0.3402065077850929 0.1976574932896146 -0.08640933933806332 0.15522372154594444 -0.3597060725400702 0.0994798660360784 -0.020458062787279706 -0.24750270699159352 0.33512710386340305 0.24726900219608489 0.17504391290532972 0.14280752801672322 -0.280404366201699 0.3664596390045303 -0.054161894039965935 0.06581333936543556 -0.020779613729809278 0.050424691720034776 -0.18889855856803325 0.050770021572784325 0.1312111281270188 -0.03293037939783395 -0.00028808637137182945 -0.13877832811753457 0.22566896941886053 0.2277833141266555 0.0009312697965162152 0.1016345477687076 0.08706284664691616 -0.19299837928379582 0.19953039597318536 -0.3056468871142697 -0.04637887108087538 0.07846952022831542 0.03452118251038634 ]
[0.08276595967650449 0.1744965437032678 0.1529278018497298 0.012588272451437454 -0.449013299767126 0.13014981189120453 -0.0452253479203604 0.004417527452621442 0.11033049789643752 -0.3948821007079944 0.17013906653412292 0.23285671366410543 -0.43606042654100124 0.4955144282395496 -0.13883615048695333 0.09492499295182569 0.12611657739424853 -0.3026783304235924 0.07637550925740327 -0.2654850467467148 -0.2768143470468179 -0.29398462909009637 0.10405501475939599 0.029291719496749195 0.10656624774479184 0.06148006721923777 -0.16999947821721323 0.18934285992464728 0.38059164367693743 0.18599252251622203 -0.05665949883356286 -0.07215392121749847 -0.19770041844149736 0.0027472438645155185 0.07418950774596517 -0.22883774685676742 0.13119251378433536 -0.12367856126957537 -0.33764547219188373 -0.018754103494621848 ]
[-0.311249825662271 -0.08004214597748147 -0.1372029374431546 0.05759501772070312 0.47924570561009433 -0.09377268341697197 -0.11251421787500239 0.2646260161525962 -0.23544347513361077 -0.19306207673737166 -0.0628023621450093 0.28149176926601405 0.3149030921270087 -0.3682721806614139 0.46187088557932726 0.17305956958950075 0.24954539950573038 0.018213184336688185 0.27628964317711546 -0.2648010578603074 -0.19662885226538285 0.18461755915108 0.031366889682465364 0.16200111764236413 -0.46447793549846356 -0.2889806239811545 0.0836281436148803 0.05689313191104662 0.11628087123251214 -0.151807574382167 0.09622545596560073 0.30925122868923227 0.19260504610754303 -0.3081572217679657 0.06628461353069114 0.3610737906888674 -0.0012404338520273326 -0.23055360297156213 0.4773961349747438 -0.2924587517268348 ]
[0.33666838087983086 0.12945595082157152 0.13596706500384984 0.29908109433373303 -0.2546519127699289 -0.015862313142886726 0.02407654753580776 -0.27175902060935525 -0.07177015761792369 0.29626636590110006 0.20929759808331938 -0.28280249194101226 0.15307204278746425 0.2024413714684902 0.2491085792835242 -0.3661111649666494 0.2573257516077105 0.155305219054777 -0.054831213288359354 0.2376945965193538 0.1402739612375983 0.11739146655146496 -0.165312557812364 0.24699374523718198 -0.2628199397601898 -0.33451179542781073 0.06632131754117687 -0.15318435717515272 -0.34752051308265797 0.07668428353716145 -0.2595617268192854 -0.10249500120541978 0.05930426764275605 0.09661947412172674 0.062357737697062675 0.16874520338832358 0.06880047983044663 0.3612017289849512 -0.017610926789934676 -0.2585371850895621 ]
[-0.017115970259678114 -0.023130725055398347 -0.16914844090463185 -0.11186818558218396 -0.34324715912132925 0.30592264954154963 -0.21089964212392343 0.29771822210069415 -0.16873701578594524 0.2499887950353706 -0.07298837983699347 0.19268803803536003 0.3131625046960203 0.22822856416685527 0.14762648347029586 -0.20114532861778162 0.002006797939481387 0.32125778123482845 0.3052292931429197 -0.08523483049195008 -0.0885091957402279 0.10119540187558218 0.183981669612669 -0.08866607169068648 -0.06811599867716307 -0.23762132546167897 0.050954616617424786 -0.18354945105004347 -0.017313634335699886 0.2752648602396713 0.2456580332511675 -0.0017833345480060161 0.03988111825247008 -0.08629595418614293 0.04782385597962733 -0.06999202795943218 0.20815341833215464 -0.3102580633084896 -0.07067060136146223 -0.007482499185837882 ]
[-0.2081456339108424 0.0009116926794579251 -0.2963763613966884 -0.23001492978590568 0.12645682872561162 -0.14382448275333054 0.12161308894168105 0.29456988543710527 -0.0336914152915698 0.05990409863740126 0.2044523363309037 -0.1356711099845242 0.370554273180336 0.376328433275976 -0.14134467269631218 -0.048735964348361645 0.4270895058480206 -0.13386326062385245 0.2221011296305238 -0.1599284270042534 -0.24814437208618587 -0.03528109382649864 -0.1363225764558634 -0.05052394371449166 0.24513296892719366 0.0637455626608849 0.15427058663485507 -0.1349739171752834 -0.4658750686409798 -0.28607014251057844 0.16961135198089541 0.08428780314911567 0.12350915177031768 -0.15240939200942738 -0.23421075757999296 0.026993718789222097 0.2770318976466597 -0.11186366263449117 0.34544238876693434 0.10846307180855631 ]
[-0.3302302660354368 0.10122034237948492 0.22589844697042555 0.4471306763793924 -0.06679267647278486 -0.3182268538002136 -0.25725387971362484 0.09278056121298213 -0.17208580836299991 0.3572183610403325 0.3618001055956789 -0.3294819489881764 0.5345489364682375 -0.4331838686429804 -0.1613965008334597 -0.2296506421546701 0.5058026835812527 0.6682876235758588 -0.1759266662201004 0.30148636699414105 -0.037492521511588384 -0.06891955359624934 -0.30149687396698904 0.24931953055341083 0.03901758118340374 -0.3827946086234104 -0.06295134476636012 -0.1152819044407657 0.06713458564170703 0.005006938669040684 -0.04224700299520397 0.7056514298282442 0.15135865868484547 0.07970155243350953 0.14593027099156564 0.4167964924625448 0.05922275330911434 0.35884672701575365 0.34530660770171717 -0.1263177773732411 ]
[0.17562794455467168 -0.07025601126378589 -0.08260388698543027 0.06949671894381737 -0.12599773434324385 -0.16627374553357863 -0.25413608745255817 0.10267239050207164 -0.12651970110839386 -0.3427634675570136 -0.18106657598787002 0.08081717512927945 -0.23279113353210257 -0.0569711512589417 -0.33132621822601166 0.10013944018601313 -0.48189159259523123 0.13550160688956028 0.3042970528718825 -0.104531565042099 -0.05434442463900337 -0.15579676582233576 0.33796068283003766 0.18693933631614318 -0.27923189088294487 -0.002827569600252648 0.2347559201537309 -0.09598948987467688 -0.02567067270360728 0.18853413942303163 0.09864247461985434 -0.20055683745110295 -0.3332758768207379 0.11111164106862399 0.31643974873232605 -0.38759114432143243 -0.25187260705034586 0.03336363304765596 -0.041464186159066635 0.03504738921931634 ]
[-0.4647182985817531 -0.40691025255514246 -0.11674223528345908 0.11887103199961092 0.5755637824801666 -0.032681120449464376 -0.29535886097848285 0.4925514036359714 -0.2230870303745659 -0.5944330239146508 0.3160087313700312 -0.49040983102565544 0.12361994508174803 -0.16958932010451974 0.3524827346417796 -0.33291506604271986 0.0009982668233698634 0.031070032487735634 -0.055619911597247294 0.18901269755999983 0.1917246216984082 0.06370302309697966 -0.36260090252456356 0.24293265902358574 -0.3600562660939632 0.13061735345327408 0.5338102218471805 -0.34030896381397985 -0.48937991456421354 0.34029685128158477 0.022639832520481008 -0.04205000419260858 0.14145611818827408 -0.0423134641338165 -0.14906015568855233 0.049751415219041493 -0.227165577131587 -0.3651345476962772 0.44143518608858434 -0.16016394449865404 ]
[ 0.036226426661268074 -0.09206219894321901 -0.04410030295611479 0.02796742395217009 -0.06617515849347379 -0.07118105021497037 -0.020100340359571395 -0.026253441429718898 0.0290946890935467 0.02110507860539752 -0.0006122367852591324 -0.026481704696707877 0.016655859665322313 0.01118694980882846 -0.06386581555554342 0.02349324809215227 -0.08616641269081321 -0.12885366519990743 0.07398926613518593 -0.05751036751968234 7.5855004160251e-05 0.016298315851782517 0.029417737014700393 0.07948394748841493 0.03405961246868545 -0.04569513616128867 -0.10015168304520086 0.08678076412994194 -0.029314827388075615 2.7611984382255807e-05 0.02638604624969954 -0.09247216750346068 -0.0031586227407654007 -0.0186175754925864 0.007378430553997374 0.025218369156621047 0.046268952631055627 0.009090262756912793 -0.003373503396896381 0.039569677741465886 ]
layer 3 Activation
tanh
layer 4 Dense
40 20
[-0.4133493036110779 -0.28231188876531715 0.17959522075806197 0.019057373014223406 -0.07498404617782721 0.25249167570770326 -0.017984049109184296 0.2705224550845002 0.18493187131141817 0.32948390857049104 0.008322580207888152 0.2713349139054243 0.16741669289357647 0.09265729596845765 0.09501871191810494 0.19477975318214805 -0.020811879882164736 0.3619894158419506 0.26098052171066216 -0.20423965126250723 ]
[-0.21953475887247487 -0.08836793900920617 0.12991720408144597 0.196576861270182 -0.0428892972453377 0.18914980604241266 -0.3248775753135685 -0.15881390355892916 -0.29430054794526467 0.3417487359017221 -0.176372421418059 0.15775428698015362 0.04425962298316583 0.27334634442314515 -0.3116827195957982 0.1732462735767601 0.13717326560342705 -0.26133628705486817 -0.050749868628852904 -0.12575771034743843 ]
[-0.19640369893205514 0.09347998030945233 0.16402119418063008 0.14847326311929157 0.13146240796696285 0.3036415177481425 -0.2910121065166762 -0.28077977200269794 -0.22089235793097162 -0.24128381048024025 -0.22341308820808806 0.1485920295543587 0.13373209184568174 0.20027921868761447 0.04492160768179277 -0.007824469831407933 -0.01968187017376639 0.0778695910472771 -0.1889453484623017 0.030418712302396407 ]
[-0.1350798427892397 -0.2605098558147427 -0.15198571978688233 0.18109768265815893 0.2258889426887663 0.08630668725949028 0.05260100948253531 -0.12981159456734076 0.12330653620811811 0.22634487715807025 -0.27920840473756847 0.19875146935720656 0.29430023442733233 0.1361880226880826 -0.06477652392489985 -0.25273643805282386 -0.12634082260493848 0.13120977780245277 0.06362028526061475 0.1680780825478942 ]
[0.39086649303240983 -0.19518888529965608 0.08965046929638686 0.13654341655905877 0.08587423593673583 0.19572160426924662 -0.07146004327412132 0.27003386607256624 -0.184547178477405 -0.022048442602948637 -0.006904309215420187 0.1468590092382135 -0.10676492982686688 -0.1295255631621317 -0.21818488613067497 -0.2554245727811085 0.19027496851106354 0.2052426760044997 -0.2955444303397209 0.02029197487026217 ]
[-0.24156526529082728 0.22229766144081983 -0.342415180939658 -0.14466840486485397 -0.23813381524707025 -0.21376437119519293 -0.12573684713748143 0.3424309365892153 0.07796541546619698 0.06196447713567202 0.318109111199704 0.3898553360394609 0.11951594927165826 0.0025033468189595495 0.03311983970111015 -0.25938128771321706 0.06117295480831025 -0.30586745222400064 0.036737139959725974 0.21416905873128744 ]
[-0.175252483966012 -0.006526489427643345 0.2018386057910133 -0.00046614930912274683 0.009086226846667527 -0.2583129137361565 -0.2151435735327281 0.28494949414673515 -0.04435163513041104 -0.04448067338874724 0.27804824234146375 0.02490331556017198 0.1832133293098032 0.1642242355468835 0.00804089201940371 0.30117599927921085 0.08382243842235576 -0.12646825112667193 0.1811571261831317 -0.0618391194597125 ]
[0.45076328151113365 0.13037213845526466 -0.02595554196214111 -0.06880015333860028 -0.06818615108876509 -0.12301387241688103 0.12273753144689355 0.22277142783937964 -0.2466849790870093 0.11403947671165444 -0.07929706697340837 -0.38046110893991825 -0.3186799200524644 -0.19134422146645497 -0.2795814539451638 -0.16357728888666348 -0.25266531845095014 -0.07290665969878979 -0.09709858950934429 -0.1244397253182666 ]
[0.27706600512073426 -0.07618137827530239 0.02011450717111113 -0.16423755595475648 -0.22415243667237642 -0.045099466499744396 0.10048114299702303 0.24308706207793523 0.2619149481989022 -0.2748207664230406 0.0976676756042012 -0.06635603777273642 -0.0897730715322337 -0.257385190342774 0.11877505344283397 0.1362351516961977 0.11729752141182384 -0.0017727562980385273 0.3743342855572013 -0.03943904263388451 ]
[-0.34310543796295995 0.2600883780614902 0.12009965932273349 0.14454701126023278 -0.218371480505318 0.28742115037624205 0.16406878775924935 -0.18108760544145527 0.4135092193686136 -0.15111891719704662 -0.03156577153057312 -0.7821521700533128 -0.36018532331639996 -0.3464768419045513 0.5029860860169056 -0.3480028890063966 -0.3868839960512168 0.40127837716158293 0.2781944483773453 0.24116840767382072 ]
[0.17867976355153806 0.19994707972666453 -0.22064677208928027 -0.09699108525807193 -0.060315215436653566 -0.2115268584872348 0.11144478146224227 -0.2461080788507998 -0.012794985347235601 0.28421919357256453 -0.26245703450171837 -0.1308120879804859 0.16475014274994362 0.08492832947851525 0.11691493117040858 -0.07864248881286409 -0.13108438028642286 -0.09163718046870914 0.12397635153230872 -0.3105224579679942 ]
[0.011552134296406334 -0.25296025027170566 0.2907416805021695 -0.10529761773372194 0.205095067316487 -0.09635850566551639 -0.3192648321995628 -0.23872170516146426 -0.4914838150791054 -0.3279588806497875 -0.17787234159163237 -0.19622476010110068 0.25070955333547323 -0.17106855276627966 -0.2715960560665747 0.1601104668594492 0.32147826115245004 0.24325488883787458 0.3531644791870571 0.02303856209670209 ]
[0.32589332325403053 -0.04624931481418397 -0.20716270444969942 0.39581074425684803 -0.028205261294983797 -0.43744926061842765 0.06813198694859532 -0.3223425775901586 0.6114163416945593 0.02444802830276596 -0.2191323041643097 -0.45143239326557577 -0.2172448569322989 -0.06631769832112912 0.3897598377136071 0.10850736611560304 -0.2841194873437891 -0.12053900982400195 -0.24775279421782453 0.12957266772303697 ]
[-0.14551970874177625 0.48665213117342104 -0.2453105394513857 -0.36686880580409764 -0.5004699317999489 0.376262411388823 0.15764778147530056 -0.32081430257172744 -0.31844156962248643 -0.235171269843173 -0.3029743596634694 -0.3583452189266948 -0.29344883376401043 -0.16721747350823443 -0.2330746055913863 0.19992815936250607 0.1945569438668055 0.28826744639461105 0.3028954753453603 0.13786788009809847 ]
[0.154315278712157 -0.1020667841424135 -0.24762310567899798 -0.2882446992352203 -0.003482166598543468 -0.2168945779531564 -0.1435684045333334 -0.04910841824912399 0.22344394562096348 0.3839668469887284 -0.10870110867473051 -0.2020784127830339 0.1401860442115321 0.22723678636693934 -0.16882052294018723 0.03550359016146637 0.15482885133201701 0.13559982717147806 -0.35635806935694375 -0.18514096909397454 ]
[-0.23604444787286186 0.008026541620275024 0.2333849562548034 -0.34491409335735895 0.2916438059607998 0.2311191005617562 0.3305082697148046 -0.06142587689990802 0.2529183259502232 0.016364081093460194 0.2705151350301791 0.4484998410045216 0.2446362877503021 -0.05897854593724384 -0.2828838988572337 0.2680970512950165 0.1806058088511044 0.14700134112342686 -0.07764905822763225 0.16690943638557626 ]
[0.13383545911426367 0.11550118333463116 0.011314974809574196 0.15331781575661454 -0.05592849479639788 -0.3628007596694705 -0.1707955219443234 -0.07636223933940232 0.31249319252540575 0.02625464928679557 -0.22019349894708673 -0.04942193201837454 -0.14083988273370565 0.3023973486074596 -0.2833641342655847 0.12724447109562714 -0.3927901497062175 0.06718392719857386 -0.20061061348495332 -0.14875652768069708 ]
[0.0863082949448784 -0.22666076042501043 0.015555699984653568 0.12065521138270185 -0.014808260861603478 -0.21958677261205853 -0.3730575753050363 -0.2632857769058244 -0.014055501207552508 -0.1818868166013216 -0.3290037480655906 -0.3735167571252709 0.23585782430193264 0.18103598658246137 0.1501087976475498 -0.09825124413167276 -0.26487464595709176 -0.1712159740182761 -0.2942919663041254 0.33494596783635294 ]
[0.24485458201681184 0.23178495270911006 -0.2303995349964021 0.2796704416087899 0.18352802783485117 0.2399491851148915 0.4060422572452321 -0.20228088568029795 0.046881776752955434 -0.11448911125875476 0.15831697690253843 0.3382041719514411 0.09604678328981 0.29979145585039757 -0.41171195089511553 -0.058255060464427084 0.09545340087756227 -0.176536644717473 0.2034481731598337 -0.24590351422382592 ]
[-0.3053724056262285 0.2520136115249245 0.1983805488787286 -0.13134695086538636 -0.16795221370800492 0.18225047675260142 0.02115872640618802 -0.09243247604997525 0.20144914312529374 -0.13990038742537814 -0.19108849925262306 -0.39558285208027977 0.22369129989465872 -0.2788681731540444 0.2852400202735668 -0.07493004549728724 -0.09602484810908694 -0.18810436424173727 -0.37243444909126266 0.27638702906068857 ]
[-0.2993327202840068 0.03134226418584229 -0.0028138077067029754 -0.1358147442401134 0.24146579219463532 0.00018028079358746105 0.019263250371074576 0.024644877194652377 0.17992119788178537 -0.08925578855128158 -0.07292313428627126 -0.12739028395319354 -0.1286164888678841 0.1392640485177339 0.3661283785712321 0.11684832172675919 -0.10539479110271822 -0.16022736953763922 0.08042875805441899 -0.14016325689452838 ]
[0.1895070185315249 0.13762224900119482 0.20132961560002352 -0.01020933594799443 0.1755872464003478 -0.06207573424258184 0.23979587333618 -0.012430752944191246 -0.04401935545091098 -0.30582981230334644 0.16724217876133185 -0.071065985262316 0.034522214431560366 -0.3302103753755612 -0.18708485628993496 -0.30500898949531163 -0.30770787040383013 -0.07378680414517425 -0.27308524208297563 -0.1972989069377111 ]
[-0.1421845331875826 -0.3522425723455078 0.2558599067493467 0.1462487164710702 0.24594048863113932 0.14374730041854886 -0.1257321816859345 -0.15155042165431992 -0.13898183580567186 -0.3443045949397542 0.20912793455641776 0.43445771880379064 -0.2314211536482351 -0.36231534141281874 0.20889539597298568 -0.24880422541449865 0.3330039987996508 0.3015126577071779 0.431755512390517 -0.2929912536411188 ]
[0.19374182692568018 0.06785208730161764 -0.012736023326374607 0.11062038154925448 -0.019654512990757152 0.2795796940735083 -0.03573487799465847 -0.17438117625116306 0.09397467902785628 0.2570083605112072 0.27707569178719366 -0.07252304693224079 -0.23726643681285794 0.07604567655480884 0.05130798395398434 -0.17792629815482083 -0.37822907341617057 -0.17071537393383457 0.11143829199185461 -0.07276787950383456 ]
[-0.17803102734760518 0.10596065103421191 -0.07801608170192761 -0.23182728877657602 -0.16147105959802424 0.19935534274568606 0.15170354352292173 -0.32171290022115495 -0.03988400757912249 -0.40339226635135 -0.40364268695912986 -0.5968986820115337 -0.2360832221239744 -0.34597999660115436 -0.06280362862135032 -0.17355093235133587 0.04271088937540841 0.043376185393832103 0.4719764005197603 0.3637289182190645 ]
[-0.17473527979231315 -0.29906758258103766 -0.2869404368139551 -0.13522093856423179 0.005670921457721495 0.17853852641730947 -0.09734823991296472 -0.08455224750192208 -0.1574117141334231 -0.3079032334751763 0.029329057152431635 0.28251541034789274 0.30637705942851806 0.23099160542799566 -0.31885729065119583 0.1274476257010592 0.1053611891206901 0.03349039445997 -0.08943533704428902 0.15734868238860672 ]
[-0.08200526568028321 0.13479009745310255 0.032411024959487195 -0.2132165735634114 -0.24373093621196404 -0.2998358255946638 -0.23404882542765942 0.05769307251248555 0.2081855486718271 -0.07176693470011232 0.27112381458536067 0.06246096193868393 0.010392155461284944 0.4199490444088721 -0.038962692143062506 0.26093839192719237 -0.19167953255743825 -0.27422561358330294 -0.3612483826251049 -0.22483821224066458 ]
[-0.04213275592584183 0.2678260487861491 -0.16942455004206752 0.12396866626811157 -0.10429741265064787 0.454015831785217 0.22503012102794065 0.038318078789208225 0.23564572564352398 -0.38708306275632226 0.06836194165866066 -0.1850261944247436 0.25065576970269876 -0.2007941709964773 -0.2641985548298887 0.06572830180805334 0.2665778314355665 0.21308262177650492 0.4501302040554486 -0.1176694603128978 ]
[-0.44719211318268376 -0.039242243442607634 0.4361975811629608 -0.2512412758428384 0.1827346126846291 0.03899257781134081 0.015785233094978188 -0.160396847856138 -0.44641696446149437 -0.021597523173323602 0.09216298075425795 0.08067135642815383 0.04656369356215478 0.02895319409190414 -0.0020481776428286046 -0.4911282846560079 0.2884193749770355 -0.12047537460527062 0.3239363283731714 0.22252161007168247 ]
[0.18492931821581401 0.070156489583646 0.23289341822864382 -0.1524959675256101 -0.28114243058184674 0.026636935939067338 0.017200319666842143 0.16958953791340914 -0.3200448536237157 -0.06856615982888431 0.010608141425033989 0.09515806168072705 -0.1805547444176835 -0.223738934623365 -0.25194808329721075 -0.34306792967009175 -0.047871301669065336 -0.2467520568684503 0.37724542323966814 0.06218066195823709 ]
[0.2343123894772628 -0.27841163401746044 -0.24412448390230865 -0.20591273470850432 0.13310172186884284 0.061314564635956664 0.24930475688934958 -0.17288088092584825 0.15522006688616735 0.15303195593027513 0.31050888293925827 0.27599745839822076 -0.15763342005156403 0.03915856180726015 0.08394655273272857 -0.22376146136691372 -0.215397367382891 -0.21115412572642744 0.07864295751566187 0.2143331416488489 ]
[0.24234066312314306 -0.012820549421994317 0.34036790741708245 -0.06926254692537918 0.3283388918243164 -0.06839432414965023 -0.07533359380192187 0.17021416760735905 0.034477198640102014 0.2390130060293467 -0.23229681415557096 -0.39776252415540114 0.24920287984752892 0.0620474716162231 -0.20502831305448665 -0.012796325867245653 -0.4995941897342376 -0.1812615478621077 -0.292769248806605 0.017845021498945596 ]
[-0.013813379020734007 0.1735504162379303 -0.20053531098106195 0.46456147358191807 -0.11653109342081591 -0.3828118525991986 0.2763626639604506 0.14545281131546017 0.29071267805437345 -0.18444962577184568 0.027769959767251735 -0.33192169654095005 0.04544247518496132 -0.07571414543303652 -0.13367106626492928 -0.26196279744051815 -0.36866239494587 0.12300103198851949 -0.20566834826572175 0.15144815530911027 ]
[0.05880961203423612 -0.0019141709987293737 -0.05859762438565296 -0.12016397762231745 -0.18364306068778177 0.2912502263068 -0.26480250819512363 0.23014440271524125 -0.2992103912071388 0.27065404894473394 -0.3258458232357999 0.10901796744855638 0.18289492815888633 0.3223926423829091 -0.17219168440988616 -0.2674155299468045 0.2059608224534013 0.06303308335495833 0.14268727386082508 -0.09481003749316573 ]
[-0.22122826159111492 0.26835239098746566 -0.12306699430408015 -0.09757555050954769 -0.01908615261765735 0.44748345763914815 0.09596974832235902 0.10871828199163065 -0.0665064503549063 -0.1447340723208835 0.23452107798647107 0.43861230606997503 -0.19254726847203982 -0.3284560289088651 0.18525446984042884 0.14669149423051867 -0.12697692607193306 0.00214122780228861 -0.041976299612326004 0.02168769005783206 ]
[0.2944477730800266 -0.17847434152437405 0.2224552688842479 0.13257799191941547 0.23256064049533282 -0.06583070584378353 0.1809644096428439 -0.17400719351498461 -0.14679996636219964 0.22226316405682606 -0.16896409192422732 0.12235536858896409 0.1867590926886798 0.014372985009791733 0.27548871670289254 0.05436464411678786 -0.3652286308965167 0.2089547160907929 0.024664075264945132 0.07553909571592922 ]
[0.17780137337760293 0.15811595879429272 0.31165036157926745 0.15627714987801555 0.25848808859974104 0.14875758798784722 0.021046503393881175 -0.2650106541218589 0.3725204053925551 0.1284707772316871 0.1666566598115325 -0.23359484594210891 0.1828081034938992 0.13121223006530308 0.3480447781676003 0.04747546705691753 -0.3324882314168347 -0.24049262665494447 0.0447207043946399 -0.1287655786898294 ]
[-0.18250314501404838 0.4085567876299577 0.41385689614126564 0.2912093079220788 0.043041876379929594 -0.1667426342478922 -0.3504575365464842 -0.3692993055860054 0.10181654018672123 -0.25477809436633564 -0.32833459485555816 -0.3694446706403334 -0.28585524161091813 -0.38794539748209067 0.2133167958454696 -0.19130326347922824 0.1671044815568735 0.22906188087557788 -0.031322365606197285 -0.30403591187570794 ]
[0.21785539186030575 -0.16919682383985962 0.11013080472164488 0.3913344557822629 0.015629678613800047 -0.19236549602365616 0.08403908004851302 -0.01605469092622897 0.3771426029145464 -0.2688421240806846 -0.10356083205206992 0.03670060963014124 0.08989113201500151 -0.010960824376590583 -0.0870175404830124 0.2911620544022104 -0.011461534771328842 0.21981522595162736 -0.3678819639177763 0.09885411331382475 ]
[0.0799082968386738 0.045314300411382936 -0.38575608996541944 0.20107056849373248 0.005200843387910365 0.26045621524005885 0.11184994434529383 0.19616103484641378 0.1450002877973155 -0.1852488734975544 0.17455157964815202 0.43487195640430165 0.39185738096538064 0.17161987342550705 -0.18404274427783146 0.14758321454881612 -0.0054072152166020765 -0.06453828103086663 0.3545423580838564 -0.2296363798614943 ]
[ 0.04205232978556182 -0.02214054582502827 -0.013731160823199445 0.021345583691892718 0.024480662187192723 0.01817959116070519 0.040384486024895035 0.02548241378758962 0.06330798543865074 -0.0233795673653163 0.022172466908442136 0.11761226294905591 0.0026843546005007653 -0.00806506118612538 -0.017054115768709695 0.027107380648024457 -0.019383228382843547 -0.017155456375478804 0.06287102699412289 -0.019749602846468865 ]
layer 5 Activation
tanh
layer 6 Dense
20 1
[-0.4434567614220263 ]
[-0.12241039123276373 ]
[-0.5503014361439961 ]
[0.5780963714128222 ]
[0.43979335338995307 ]
[-0.28535414670429626 ]
[0.3708931290939961 ]
[0.30026434806065233 ]
[0.2652576831444679 ]
[0.16789807591296194 ]
[0.44679419355146865 ]
[0.18603468538780002 ]
[0.0094025972946147 ]
[0.21773550638508385 ]
[-0.2594350874070762 ]
[0.39043847850375524 ]
[-0.37721574073065495 ]
[-0.17397266865454006 ]
[-0.5431484919326353 ]
[-0.043185321586119256 ]
[ 0.048649754341924194 ]
