layers 7
layer 0 Dense
24 20
[-0.34086904 0.32920426 -0.035329685 -0.33412015 0.19175576 0.046284594 0.015843626 -0.0033320535 0.14179863 0.03677402 -0.08166994 0.27837524 0.079639055 -0.058646943 -0.030252017 -0.20140241 0.20014685 0.14941387 0.066818275 0.17158282 ]
[-0.31515282 -0.06719199 0.3820032 -0.2879386 -0.34262186 -0.24634245 -0.11991207 0.29371387 -0.24305685 -0.30304593 0.18706685 -0.18126392 0.14718252 -0.35547772 0.14950843 -0.19223556 -0.11017066 -0.1950092 -0.24289571 -0.31934118 ]
[-0.119049355 0.09943974 0.268721 -0.17833854 0.32526582 0.34060276 -0.12442841 0.3337572 -0.08011034 -0.3013073 -0.014059994 -0.4059078 -0.16151054 0.053385172 0.19123213 0.016149705 -0.15760936 0.23075026 0.34664127 0.0073097656 ]
[-0.3076208 0.19613591 -0.12984423 -0.27044448 0.19930723 -0.046416186 -0.21888581 0.24780492 -0.246983 -0.30176705 0.2648973 0.022215877 0.035119746 -0.21813723 0.092093274 -0.23601554 0.07119198 -0.0681068 0.3136008 0.3423689 ]
[0.27244863 0.05906731 0.26742974 -0.28480053 0.008934862 0.27664086 0.034562267 0.09960933 -0.25616872 -0.218478 0.2706629 -0.20968425 0.07288505 0.05488145 -0.19696708 0.10094075 0.24174406 0.12043234 -0.02906464 -0.2070078 ]
[-0.30612972 -0.20949145 -0.13547984 0.30554363 0.02968258 0.2668175 -0.14092001 -0.25385606 -0.21717252 0.19810075 -0.26099294 -0.07497997 -0.019136332 -0.06010413 -0.2867538 -0.106003456 0.29978254 -0.35941353 -0.11704156 -0.107907385 ]
[0.13573936 0.2135838 0.07220378 0.29267037 0.11417023 -0.29545265 0.058813103 -0.048146043 0.33252993 -0.26881966 0.15530825 0.3301416 -0.22804417 0.22931601 0.14441258 0.21195035 -0.20736125 0.3506794 -0.04999012 -0.30618858 ]
[0.026030103 0.24638493 0.22424059 -0.13542916 0.12640859 -0.3049357 0.3169119 0.3327408 -0.34694847 -0.2646165 0.36064813 -0.083109505 0.19541824 0.20471434 -0.016822627 -0.28269607 0.16102766 -0.34666336 -0.08521867 0.3703254 ]
[-0.3276973 -0.010480197 0.11104621 -0.3084766 -0.036631327 -0.24588312 0.106660545 0.11776254 -0.116106674 0.08164338 0.25289446 -0.20515467 -0.41788253 -0.051748715 -0.25205576 -0.12614977 -0.22593759 -0.0065426053 0.17425637 0.38809416 ]
[-0.20499472 -0.07377668 0.15276057 0.19031382 -0.09249925 -0.36305067 0.09071397 -0.22584122 0.25340438 0.05385551 -0.0031293116 0.22433876 -0.2969763 -0.31832737 0.19838367 0.10527671 0.022230031 -0.1444606 -0.31521657 0.20264971 ]
[0.067457296 -0.20285878 0.3926707 0.019512864 -0.03044334 -0.08462637 -0.30457583 -0.07032623 -0.06711641 -0.33508885 0.114965566 -0.34361508 -0.42700157 0.35888478 0.20566168 -0.14892164 0.048071094 0.3119789 0.37410352 0.13777438 ]
[0.383848 -0.5224211 0.15286636 0.2802099 0.41675106 0.1583722 -0.2083527 0.400349 -0.2310689 -0.33975235 -0.010504672 0.11226059 -0.17172658 -0.32368943 -0.19768614 0.14908327 -0.10377581 0.24138878 -0.39759767 -0.41957644 ]
[0.045169864 -0.3416887 0.11050902 -0.36796603 -0.20985757 -0.37161195 -0.19844896 0.0368434 0.12120324 0.2636732 -0.13002121 -0.22054261 0.35580215 -0.32007414 0.16141371 0.094763644 -0.23236895 0.23877738 -0.06629956 -0.083639465 ]
[-0.21908148 -0.1452238 0.2129527 -0.24557753 0.22497554 -0.36067647 -0.0889677 -0.2745257 0.0920449 0.2756425 -0.00976567 -0.23379606 0.105889946 0.18092248 -0.2587788 0.34111667 -0.14166035 0.13311963 0.09216004 -0.3537036 ]
[-0.042443946 -0.17463309 -0.19694366 0.09260924 0.04647422 0.20117144 -0.363995 -0.16880651 0.23478927 0.4195794 -0.20744935 -0.1680869 0.1324764 -0.23765934 0.029862793 0.0990406 0.15265474 0.07608897 0.2594712 0.3532045 ]
[0.33331078 0.14208452 0.33789238 0.17161156 -0.21772803 -0.2799099 0.19478415 0.09132318 -0.41036883 -0.1951289 -0.14530751 0.040951245 0.15349054 0.2063474 0.016468138 0.2141473 0.10361644 0.05927888 0.05856176 -0.4812606 ]
[0.41056302 0.077629715 -0.2673996 0.33483654 -0.3364249 0.23508734 -0.06265358 -0.06872895 -0.1777231 0.13197939 0.13144171 0.28745544 0.23597476 0.4082042 0.21570154 -0.22587265 -0.12919052 -0.2883643 0.3913343 -0.16269274 ]
[0.0492223 -0.33754385 0.13787957 0.056768604 -0.26717475 -0.23039848 -0.15504856 -0.11948089 0.09011126 0.28500748 0.25242072 0.20608926 0.269501 0.11063264 -0.08014379 -0.09649426 0.07886989 0.29971603 -0.15863569 -0.2617006 ]
[-0.30562484 0.26139343 0.15438715 0.050509926 -0.24361113 0.05075361 0.3722472 0.3528084 0.16397338 0.13002002 0.092111014 -0.16395308 0.046164636 0.07957919 -0.06598431 0.3790633 0.06792607 0.056073245 -0.088708006 -0.09748716 ]
[0.1013269 0.09199212 0.24006757 -0.08571576 -0.109950386 -0.2851467 0.34068853 0.11706803 0.24958514 0.13530505 -0.20647909 -0.35116825 -0.2981866 0.32165954 0.26322898 0.20485285 -0.26453406 -0.25204414 0.36696145 -0.16012359 ]
[0.29202 0.2578669 -0.26061678 0.107221834 0.038565706 -0.318528 0.21790555 0.07825016 -0.37654963 0.24746203 -0.13724856 0.22590116 -0.18376853 0.057296235 0.40844205 0.09312831 -0.23271468 -0.055058043 0.20562027 0.113967806 ]
[-0.021064637 -0.114040874 0.039721742 0.0039896434 -0.084583215 -0.17026481 0.2936945 0.24720652 0.34776533 0.3602929 0.037109658 0.17023383 -0.23829685 -0.028120654 -0.10550289 0.23296759 0.26665118 -0.2718219 0.04520934 -0.15975188 ]
[0.22145903 0.18394528 -0.1472545 -0.08974515 0.03666446 0.22534008 0.31264192 0.13320589 -0.06306311 -0.19949038 -0.04325539 0.17628525 -0.3197798 0.30138725 0.1083806 -0.25492924 -0.015146106 -0.17092916 -0.34991816 -0.25177205 ]
[0.09289429 0.35772455 0.26793033 0.036057074 0.02507892 0.21032152 0.17670281 -0.10009019 -0.19138938 0.18266594 0.09573798 -0.34288362 0.20710637 0.13051786 -0.09968807 -0.0779794 0.29937598 -0.1465634 -0.13543923 -0.18252888 ]
[ -0.07146961 -0.0053005014 0.04232092 -0.020111382 0.040060323 0.025196712 -0.016527154 -0.003431415 0.020628719 -0.009544814 0.00417807 -0.008887659 0.04116924 -0.014281538 -0.026335396 0.029718079 0.018427886 -0.009390457 0.00049958273 -0.004723991 ]
layer 1 Activation
tanh
layer 2 Dense
20 40
[0.16739777 0.014176001 -0.013157386 -0.32164785 -0.026709683 -0.19263767 -0.32608098 0.33559853 0.29387864 -0.3303646 -0.27482367 -0.18948124 -0.11818065 0.01867121 -0.21073264 -0.06802098 -0.019788481 -0.15362172 0.23776065 0.08577162 -0.041141216 -0.27876768 0.22160165 0.040940177 0.38989267 0.13449085 -0.3125995 -0.025167396 -0.0060305954 -0.30689868 -0.21339808 0.055155586 -0.16857648 0.20278338 0.2919174 -0.24891904 0.17150109 0.2625536 -0.17876668 0.3466959 ]
[-0.19277145 0.17121321 0.30859962 0.35563484 0.12715423 0.302139 0.008029518 0.24362262 -0.040921543 0.07129284 -0.10952632 0.15631673 -0.17093739 -0.33742127 0.050195538 0.3232201 -0.29206842 -0.017372191 0.048935205 -0.22639428 0.30564827 0.13538627 -0.030645512 -0.3562511 -0.4102208 0.08579221 -0.14141572 -0.028575592 0.115262926 0.007492019 0.21269603 -0.27333286 -0.28478917 -0.15510751 -0.0042412654 0.25989586 -0.23302682 -0.16974115 -0.19303048 0.059360202 ]
[0.17700712 -0.2640408 0.013989264 0.37166473 0.11270986 0.14543803 -0.15630436 0.22304785 -0.10028989 0.11931561 0.3379166 -0.087696336 0.23595431 -0.098045684 0.17205971 -0.09382628 -0.12742114 -0.2657207 0.25284386 0.046016626 0.04024975 -0.23320864 0.12898944 0.065209836 0.17664321 0.17591718 0.20519449 0.15227407 0.11039429 -0.27123713 -0.27385756 0.20164695 -0.23606153 0.13509057 -0.03838305 -0.013872778 0.3047312 0.26675215 0.11344366 0.2547707 ]
[0.19130181 0.14466317 -0.08262159 0.23441572 -0.1918888 -0.24432577 -0.1761554 0.2093632 -0.23965147 -0.09359477 0.1374539 0.24292032 0.116959855 0.10990178 -0.22233099 0.016377788 0.22170609 -0.24162155 0.2294226 -0.19526346 -0.14845757 -0.30407408 -0.23899353 0.13598222 0.31561956 0.025605813 0.29951307 -0.10119025 0.22704616 0.20511314 -0.20163354 0.043398254 -0.22264275 -0.1944718 0.089586765 0.09530343 -0.13239048 -0.24774194 0.20749858 0.09362861 ]
[0.2547133 0.27817556 -0.23719454 0.27594075 0.05175582 -0.055348407 0.24088892 0.090131104 -0.27731177 -0.1853679 -0.26080942 -0.07332047 0.10355882 -0.2754132 -0.20846131 -0.27156553 0.22236523 0.27146348 0.024602378 -0.20027031 0.20092402 0.17817818 -0.12646894 0.0020240135 0.21826607 0.14832993 0.1804006 -0.043752164 0.27984682 -0.072925 -0.17345682 0.2921618 0.14431232 0.022399236 0.16457343 0.112622194 -0.019212905 -0.2904948 0.1374071 -0.16067879 ]
[-0.01953353 -0.10263133 0.24818593 -0.059916183 0.189471 -0.10804189 -0.13560556 -0.1974178 -0.22240725 0.16163382 0.2008295 -0.11110929 0.20174097 -0.27939308 -0.0984337 0.07760197 0.21860015 0.024009662 0.24945052 -0.05214689 -0.12136998 -0.260879 -0.2186336 0.005227951 0.24771716 -0.11103689 0.008132359 -0.2588339 -0.08447814 -0.19065301 -0.37369925 -0.1480611 -0.31140447 -0.2139279 0.14263496 0.06823586 0.100427404 -0.14893526 -0.26999044 -0.16323425 ]
[-0.16257736 -0.018491132 -0.23270781 -0.08311145 0.0082339095 -0.17555849 0.08806812 0.17943476 -0.15975596 -0.20214492 -0.018801546 -0.21254921 -0.18344243 0.06419972 -0.10941153 0.07083911 0.18858294 0.07829925 -0.22869137 0.17924106 0.000397156 0.21599388 -0.028322553 -0.008275607 0.22161289 -0.29216328 -0.15633073 0.049716737 0.26268274 0.20567639 0.2925009 0.16350123 0.33299917 -0.22089353 -0.23753087 0.10353928 0.31041956 -0.20498882 -0.03525968 -0.032932665 ]
[-0.0813784 -0.23018938 -0.024701364 0.055226035 -0.27761593 0.19811621 0.11471847 -0.33228472 0.265248 -0.21806683 -0.22521189 -0.24348626 0.1158694 0.07638486 -0.10207627 -0.13110638 0.1811848 -0.31932232 -0.2135018 -0.27130577 0.20358394 -0.06108825 0.237164 -0.24301536 0.037924662 -0.12119459 0.2652713 0.18199122 0.29699805 0.11958342 0.027723245 -0.063514784 -0.18868487 0.07096862 0.15509672 0.20799398 0.29740605 -0.24109995 0.32783702 -0.07095842 ]
[-0.32959026 0.061325096 -0.2465084 0.313328 -0.19943146 -0.10530494 -0.34108886 -0.31304058 0.2573866 0.26127988 -0.115911245 -0.26453105 0.19800498 -0.0710058 0.005638996 0.016403737 -0.17245144 0.06633808 0.21922259 -0.06978275 0.06177889 0.15196742 0.00084908865 0.09092658 -0.05419181 -0.20838682 -0.06605742 0.15586212 0.026916998 -0.13594928 -0.13107961 0.2083169 0.2751868 -0.19334 -0.04030854 0.29330996 0.23098531 0.1972856 -0.23937912 0.15009996 ]
[0.07050556 0.23543309 0.008983294 -0.0039515896 0.27576283 0.20974137 0.18237846 -0.23216555 0.21371152 0.01335526 0.34068146 -0.087894924 0.060345437 -0.15374532 0.06610817 -0.27277827 -0.20033088 -0.33519125 0.22128268 0.013958521 -0.058514666 0.039325196 0.17138486 -0.16448663 -0.29028997 -0.015852984 -0.18305832 -0.33368784 0.2902234 0.25238466 -0.06375798 -0.1277855 -0.25571972 0.07769419 -0.24422672 0.028402936 -0.06462179 0.24899891 -0.22751595 -0.016344408 ]
[0.009257322 0.027296143 0.024152318 -0.20095475 -0.019403 -0.0481334 0.019017821 -0.098603405 -0.33339643 -0.03790033 0.36279264 -0.15445739 -0.30917707 -0.1514369 0.031622276 0.028529758 -0.12434824 0.23243213 -0.11948115 -0.019635856 -0.39267772 -0.08908016 -0.3469743 -0.33694783 0.17060706 0.2292622 0.21856181 0.010715934 -0.17517017 0.30646604 0.11257971 -0.24382713 -0.1533394 -0.1553865 0.20902139 0.13421404 0.00038863253 0.12013176 0.18850493 0.10225689 ]
[0.24519692 -0.22933027 -0.08136656 0.26198658 -0.027948486 -0.20387597 0.049433433 -0.29170442 -0.180701 -0.069263 -0.12499316 -0.13264644 0.22668743 0.3265351 0.21373414 -0.17907967 0.075829014 0.09135588 0.1345065 0.15971848 -0.06890158 -0.057506103 0.12234649 -0.1853265 -0.07482813 -0.05526487 -0.22755891 -0.116579905 0.22657667 0.18157811 -0.04358001 -0.0062197098 0.071403764 -0.2143094 0.24415559 -0.2065182 -0.15157817 0.0035874136 0.32505792 -0.07663634 ]
[-0.26518032 0.16115433 -0.083164215 -0.172382 0.048821546 0.17402177 -0.043062344 -0.21845792 -0.22950877 -0.080747664 0.16470209 0.024498835 0.15723531 0.092865705 -0.026934817 -0.07469699 0.30323854 0.051840954 0.20380138 -0.06958176 0.19661812 0.035382867 -0.030117355 0.07783715 0.11668818 -0.28792673 0.2889985 0.24814382 -0.05093732 0.27434894 -0.048071995 0.14624532 -0.017310292 -0.15954334 -0.20478576 0.09476852 -0.21068051 -0.2830726 0.1762363 0.19122659 ]
[-0.3417649 -0.22489749 0.18806951 0.008317979 0.1861462 -0.02104837 -0.30825523 -0.1305273 0.013256187 -0.20448391 -0.2085354 0.023708174 -0.14392358 -0.17597452 -0.056001775 0.037559923 0.30230847 -0.07049346 -0.31186178 -0.100487806 -0.39928907 -0.20164384 0.07143521 0.16659299 0.21168707 0.25744572 0.12365375 -0.18456379 0.1267201 -0.0116926255 -0.03917738 0.24949335 -0.099275336 -0.0019958224 -0.05819244 -0.23312531 0.19236468 0.060985923 0.19334598 0.24079104 ]
[-0.14775738 0.22517908 -0.1669925 -0.27866435 0.043322988 0.3181703 0.10881365 0.17040949 -0.20151779 -0.25419316 -0.283287 -0.07981754 -0.1860511 0.0019181179 0.27708906 0.057197396 0.27344763 0.08667992 -0.0040002246 0.14812519 -0.18663298 0.33404082 -0.062864035 0.2921111 -0.24369481 -0.03440364 -0.14633334 0.18815233 -0.21807408 0.14079511 0.15895274 -0.05605795 -0.015201874 0.16458182 0.24493665 0.3062348 0.09230519 0.13838634 0.073070094 0.2316316 ]
[-0.07676534 -0.12658376 -0.1573684 0.13711055 0.18801764 0.2140034 -0.15109621 -0.048276607 0.30746543 0.12572274 -0.21007141 0.047272626 0.27727076 0.16781805 -0.0209196 -0.2978558 -0.06638436 0.20142312 -0.09646428 0.121151045 0.12541641 -0.15274309 -0.016773544 0.23443528 0.29018798 0.2050658 -0.17358653 -0.030580781 0.186766 -0.0408072 -0.12055068 0.24483591 -0.083556235 -0.08057009 -0.09479319 -0.028723955 0.18385772 -0.13107322 0.108934805 -0.08092715 ]
[0.13081637 -0.28084823 -0.23011817 0.2725138 -0.18507376 -0.066583574 -0.125217 -0.055558987 -0.2415721 0.08306067 0.17976575 -0.20447059 -0.16099928 0.104512714 0.120356396 0.27910906 0.17692794 -0.09995856 0.05004348 0.17917745 -0.18577555 0.2787532 0.03139225 0.2912695 -0.11030401 -0.2139032 0.21027339 -0.118038386 0.17456116 0.16580953 -0.054511033 0.11841006 -0.13959832 -0.23849557 -0.16293257 -0.3016621 -0.12614964 -0.01667816 0.11527069 0.21850158 ]
[-0.031274267 0.24003088 0.014815636 -0.12666167 -0.34386426 0.28784195 0.22541657 0.040456068 0.040647797 0.171605 -0.20054553 0.26397932 -0.15198639 -0.22014059 0.14178632 0.18116125 0.16216324 0.08649569 -0.16716085 0.3058078 -0.25545388 -0.2741984 0.05079589 0.035935912 0.12502144 -0.16034126 -0.031247102 -0.01483111 0.23146985 0.013076981 -0.37602314 -0.04966146 -0.28338584 -0.22357932 0.29736772 0.20846732 -0.04636451 0.051820558 -0.27632836 -0.16525841 ]
[0.07126931 0.032425024 0.25931013 0.081753306 -0.034821913 -0.2844916 0.01900116 -0.22596595 0.07952209 0.15116467 0.17514448 -0.039082646 0.09948466 -0.18919946 0.20399658 0.031916156 0.16726246 0.19207533 -0.17004453 -0.030564336 -0.1633599 0.10197191 0.014591813 0.044624187 -0.2896377 -0.16208321 0.23119913 -0.09683573 -0.06759926 0.03158785 0.084480405 -0.18774413 0.1384386 -0.23135442 0.08095686 0.15336438 0.18800147 -0.21713918 0.12812835 -0.19562143 ]
[0.10810542 0.15957741 0.20810196 -0.054796316 0.2122351 0.3006245 -0.2817616 0.22764102 -0.20665711 0.07858429 -0.3155743 -0.04408241 -0.22426777 -0.2567329 -0.12734112 0.049650528 -0.16947234 0.115619466 -0.11020969 0.10917341 0.27069518 -0.061077006 0.34206384 -0.16253518 0.20757112 -0.11793642 -0.19794685 -0.24514547 0.29678512 -0.012767685 0.29131705 0.034340788 0.31798187 -0.24026059 -0.046953235 -0.107151404 0.0026803226 0.09288039 -0.20249797 -0.06274582 ]
[ 0.013351192 -0.01899671 -0.012041457 0.024777953 -0.04272388 0.056459576 0.05212519 -0.02654759 -0.010772564 0.10042538 0.0060214037 5.3371186e-05 0.020981288 -0.028639462 -0.008875045 0.048573043 -0.018674208 0.010982308 0.021703042 0.006769371 0.03474186 0.0070549753 -0.002120011 -0.005944625 -0.032372613 0.070573986 0.062755056 0.020196132 0.0079433005 0.022287998 -0.10229612 -0.0031244408 -0.017504927 0.015971636 0.0151912235 -0.018299349 -0.0011488345 -0.054514814 -0.024007928 -0.031194406 ]
layer 3 Activation
tanh
layer 4 Dense
40 20
[-0.1857095 0.28954262 -0.111721516 0.17845593 -0.15980817 0.26565617 -0.07694732 -0.19599237 0.25265124 -0.22319874 0.05554101 -0.052764688 -0.24777767 -0.2853486 -0.034878664 0.15742007 -0.15003687 0.14318343 0.2763687 0.16998178 ]
[0.19761845 -0.28099257 -0.1680923 0.009324172 -0.14168243 0.038398527 0.14723447 -0.15686247 0.11359493 0.038794696 -0.24820983 0.017001636 -0.09132165 0.25973123 -0.07085167 -0.16170888 -0.03930302 0.04865581 -0.32256907 -0.008994405 ]
[0.034610797 -0.019469218 -0.33371496 -0.2609506 -0.16674834 -0.2588524 0.17859057 -0.23140158 0.18313015 -0.06799584 -0.24947292 0.26713 -0.06736372 0.2744046 -0.12860118 -0.1030975 -0.06525916 0.059959903 -0.1322832 -0.16389236 ]
[0.27942044 -0.30044127 0.2639168 0.21298437 0.24333696 -0.18972951 0.12416996 -0.13050427 -0.32243928 0.07249182 0.29681417 0.07510133 0.26863912 -0.18342131 -0.25243565 0.25903514 0.12582439 0.15809675 0.14821693 0.0380551 ]
[-0.108233996 0.23742415 -0.18357976 -0.09895524 0.23714124 0.030990157 -0.0915115 -0.09416761 0.08907636 0.25545958 -0.114200324 -0.11899784 -0.28482845 0.31134892 0.13131343 -0.11205625 0.13929726 0.15111749 -0.2877145 -0.094013676 ]
[-0.15500157 -0.35155624 0.007983581 -0.217167 0.2287836 0.34379068 0.21564786 -0.030196507 -0.18815726 -0.03633543 -0.15871827 -0.069356464 0.2803031 -0.22070636 -0.1280299 0.3156319 0.0963529 0.18804878 0.080835834 0.18279119 ]
[0.11848178 -0.22935154 -0.038958564 0.26616278 -0.25987872 -0.009449744 0.20760208 0.043290913 -0.19369432 0.00038762816 -0.111316666 0.29317674 0.03930164 0.026388554 0.24281742 0.3289005 0.03212386 0.10708758 0.2634591 -0.26249045 ]
[0.12599227 -0.029353749 0.18384686 0.15377638 -0.25349253 -0.22024183 -0.12859945 -0.17293307 -0.3183741 -0.2432228 0.024698213 0.15807804 0.2450857 -0.071680605 0.039491475 -0.22705396 -0.08760978 0.08692711 0.051903263 0.022360208 ]
[-0.14173149 -0.28796887 -0.20866327 -0.11201307 0.16716656 -0.27833286 0.28264228 -0.06866615 0.31400093 0.1828432 -0.18568397 0.032623485 0.11030655 -0.049611602 0.046820182 0.003281664 -0.052359 0.09142924 -0.13402225 0.28716356 ]
[0.21279806 -0.13378517 -0.19557005 0.040737715 0.26426375 0.26245016 0.08531653 -0.011569846 -0.28897163 0.16039367 -0.10407516 0.09963175 -0.08081015 0.06816733 -0.3133634 0.054218635 -0.21468446 0.06366953 -0.16661294 -0.16715403 ]
[-0.1676864 0.16992724 0.26063234 0.35559788 -0.18553509 0.13043725 0.2779784 -0.02820617 -0.23085187 0.1262237 -0.2980984 -0.1023426 0.25492203 0.10148869 0.04820447 -0.21644862 -0.2262107 -0.13730493 -0.23701456 -0.36074767 ]
[0.16759504 -0.2944488 -0.13232967 -0.26306126 0.13929564 -0.13694002 -0.041180428 -0.28509793 0.21257472 0.29287317 0.20077054 -0.04812884 0.068127505 0.0759972 0.03763068 -0.28926426 -0.22354892 0.09758781 -0.020969559 -0.1836094 ]
[-0.017571073 -0.041405197 -0.09373237 0.12329011 -0.12499481 0.3264355 -0.01721549 -0.32605797 -0.028824475 0.1965605 0.28474873 0.07269986 -0.25787202 0.17102286 0.1365066 -0.14431757 -0.20636243 0.06690265 -0.019921316 -0.04273824 ]
[0.34964764 0.23773257 0.221211 0.23892002 -0.3175874 0.20562169 -0.15870698 -0.32480696 0.2451498 0.22806433 0.19022352 -0.2645361 -0.08672793 0.06880553 0.28906694 -0.29705024 0.17297901 -0.070005596 -0.116347186 0.3115452 ]
[0.15672638 -0.31932995 0.112055056 -0.25483322 0.15328306 0.28793272 0.06681577 0.24704376 0.25126833 0.09526556 -0.22742358 0.038896255 -0.10028284 0.22500318 0.011240164 -0.07366806 0.2006827 -0.22251758 0.26720437 0.16760586 ]
[-0.13976458 -0.10776559 -0.18681633 -0.06426695 0.09580755 0.29931843 -0.2017959 -0.1878981 -0.22507334 0.04591195 0.216103 0.23943749 0.3332034 0.127161 -0.07016921 0.28725588 0.19856615 -0.24747868 -0.12389876 0.15320113 ]
[0.21398927 -0.0008814172 0.06377598 -0.0897553 -0.22525962 -0.09786489 -0.18309006 -0.23099838 0.24020821 0.20242566 -0.07115341 0.0715388 0.046647433 0.12260138 -0.13792366 -0.11880302 -0.00013744016 0.15345365 0.083959326 0.039127972 ]
[-0.2913474 -0.041093428 -0.16744766 -0.02451148 -0.030869592 -0.24423532 0.065239996 0.2542203 0.29764202 0.15208 -0.018800752 -0.04031306 -0.29120624 -0.064604595 -0.08390758 0.25393763 -0.20711613 0.030124165 -0.22903977 0.12237935 ]
[0.26607344 0.10024343 -0.0420176 0.24591598 0.29533583 0.112078995 0.17034061 0.0056110527 0.30007425 -0.013695864 -0.19995989 -0.06977916 -0.24970208 0.18441267 -0.05624431 0.046238143 -0.016147211 -0.19322462 0.051544692 -0.2764908 ]
[-0.11394163 0.21810438 -0.16142301 0.17858768 -0.18160959 0.11073428 -0.109704755 0.21570978 0.1449111 -0.2493225 0.31053367 -0.23895186 0.0075065354 -0.264003 0.014892657 0.054266054 0.073488034 0.038152575 0.24534303 -0.2794293 ]
[-0.12681766 0.20544873 -0.17801769 0.17515406 0.16033854 -0.19641049 0.22198054 -0.29527047 -0.12544331 -0.25457388 -0.16421646 0.26753858 0.13609478 -0.18546227 0.23587354 0.26160318 -0.1559778 0.173731 -0.09287031 0.22557446 ]
[0.014675342 0.060797337 0.020006116 -0.282826 -0.14528266 -0.059662957 -0.2813253 0.15640229 -0.03115049 -0.24533656 -0.14213412 0.20825346 0.061681077 -0.2688026 0.20034336 0.36775488 0.20785409 0.12541898 0.18054315 0.1843491 ]
[-0.11151246 -0.07216869 -0.224497 -0.13796791 -0.14191143 0.07956711 -0.22171919 0.28468698 0.21701057 -0.3156875 -0.040290058 -0.20469765 -0.30551726 -0.2397234 0.1238398 0.14107752 0.18532532 0.30812222 0.07501072 0.05000082 ]
[-0.17610997 0.20950833 0.21446425 0.01918228 0.28910416 0.2814088 0.07228235 0.054611135 0.018215362 -0.18080619 -0.3680758 -0.18397221 0.26698184 -0.13654494 0.2784184 -0.24630941 -0.10580585 -0.28204137 0.20287992 0.21661054 ]
[0.10741176 0.30305633 0.1452784 -0.17900944 0.17499462 -0.22168833 -0.20025648 0.203857 0.31571427 -0.27746472 0.07570231 0.14672184 0.015197407 -0.29401404 -0.29342893 -0.34859952 -0.03828039 0.059854858 -0.00859531 -0.24743654 ]
[-0.23900579 0.024174733 0.2181061 -0.03281625 0.07103419 -0.11039946 -0.0413851 0.18195347 0.055864494 0.12092897 0.27618065 0.1323157 0.25615692 -0.2781912 -0.06083533 0.043642126 0.020669732 -0.2778183 -0.21472886 -0.33203217 ]
[-0.17281768 -0.16686101 0.23179106 0.28087717 0.14761321 -0.083116546 0.24817418 -0.25798675 0.27974015 0.062214196 0.0017896052 0.12811561 -0.22783023 0.08343379 0.10268369 0.2793076 -0.23939238 -0.2893493 -0.08611314 -0.11980604 ]
[0.10896696 -0.23455645 -0.07489383 -0.25622493 0.15480985 -0.00014356911 0.024987785 -0.14260451 -0.063956134 0.29954815 0.18773574 0.019299638 -0.020364983 -0.19369845 -0.12855059 0.22700965 0.055050246 -0.18882251 0.24764857 -0.029635323 ]
[0.14252976 -0.3656836 0.26982087 0.102488466 0.3604419 0.14092366 -0.15274632 -0.18733738 0.074596256 0.21011956 -0.25564933 -0.15111482 0.16261974 -0.15174118 -0.20955326 0.0796401 0.0023713615 0.2187697 0.0039335852 0.2577422 ]
[-0.11259737 -0.0045340173 -0.32291356 0.15357533 -0.17111537 0.37144235 -0.15913618 -0.08563628 0.25390247 0.067933075 -0.17486374 -0.25273854 -0.26642415 0.26534644 0.11648815 0.18123513 -0.25940204 -0.24754062 -0.23024416 -0.24973002 ]
[0.2019814 -0.21490067 0.31391743 0.19203494 0.22489777 -0.03310285 -0.06531438 0.19494034 -0.07967915 -0.21588859 0.10285174 -0.11793731 0.1583844 -0.0738561 0.32130542 -0.09476557 0.2848593 -0.07034395 -0.002191226 0.3102831 ]
[0.25307164 -0.081675045 -0.21454851 -0.26958638 0.10032924 -0.06308326 -0.13160025 -0.30248088 0.22378144 -0.10475777 -0.2654552 -0.041709345 0.08576476 0.08227182 -0.08555246 -0.12468719 0.108953774 0.07855678 -0.10541119 -0.23779282 ]
[0.09050814 -0.1611395 -0.14451043 0.13609469 0.0655583 -0.19390626 -0.012618626 -0.24216723 0.1276732 -0.1012367 -0.2517586 -0.09040298 0.08720021 -0.08529468 0.22169128 0.21775754 0.006475757 -0.18692778 0.27025583 0.2723123 ]
[0.22166736 0.32317203 -0.11220534 0.20652978 0.16854896 0.17962317 0.25207308 -0.08511375 -0.20639984 -0.18331386 0.15337549 -0.21290436 0.08191097 0.22874391 0.06609179 0.22673036 -0.29744464 -0.02406144 -0.00481256 0.029816967 ]
[-0.03425996 -0.08583215 0.3058098 0.27469626 -0.2764766 0.25161272 0.29092824 -0.031879492 0.22109935 -0.1935664 0.3302477 -0.0008014608 -0.15316366 -0.2842894 -0.29527783 -0.28142866 -0.097378306 0.1022133 0.2630096 -0.22485465 ]
[-0.26262572 0.11963615 -0.23148386 0.00944607 0.08953613 0.2010329 0.10633172 0.17189924 -0.18459399 0.044431552 0.24096932 -0.053018548 0.19628146 0.14347683 -0.16153182 0.0071313633 -0.28796867 -0.06725405 0.148151 0.19719116 ]
[-0.13142112 -0.08060892 -0.22386384 0.17814107 0.17104359 -0.16035913 -0.062798515 -0.023206472 -0.10902658 -0.094311796 -0.10209057 -0.26313758 -0.18495941 0.1666556 0.17918855 0.18257141 0.018428689 0.2500672 0.09955816 -0.12831676 ]
[-0.022423498 0.20771758 0.08075485 -0.22656626 -0.07844358 -0.20146906 0.28679037 0.19241278 0.2558105 -0.1431784 -0.21463148 -0.27010986 0.08855607 -0.11760375 -0.05128892 -0.02407076 0.25245363 -0.1739996 0.031721506 0.291937 ]
[0.30958137 -0.047955558 0.0146425525 -0.1491693 -0.27385646 -0.08535543 -0.047246814 -0.15850784 0.24679822 0.0033528046 -0.05397113 -0.0052054226 0.33633468 -0.056264326 0.33163056 0.0051794094 -0.048706356 0.10579734 -0.079153284 -0.0176103 ]
[0.010784508 0.24698573 0.100804366 -0.17624998 0.25632522 0.1273029 -0.33902186 0.32273364 -0.13350017 0.22759116 -0.031868245 0.14314428 0.26491368 -0.27476832 -0.19015154 -0.25796628 -0.10314553 -0.11389683 -0.2873684 -0.2189913 ]
[ 0.012050057 -0.047020398 0.014863491 -0.012656911 0.0031934367 0.016305614 -0.0020923316 -0.014173385 0.005003171 0.0022985446 0.009786908 0.010720636 -0.0057504354 0.010217882 0.00021123327 0.050027337 -0.008075671 -0.0044492516 0.006797934 -0.0055671455 ]
layer 5 Activation
tanh
layer 6 Dense
20 1
[0.33790785 ]
[0.054620262 ]
[-0.06692058 ]
[-0.10319909 ]
[-0.027679063 ]
[0.3354229 ]
[0.20227107 ]
[-0.10501793 ]
[0.47978404 ]
[0.48258972 ]
[0.47756627 ]
[0.24258217 ]
[-0.06473214 ]
[-0.44621977 ]
[0.4502387 ]
[-0.403668 ]
[-0.4566024 ]
[0.20056263 ]
[0.03875726 ]
[0.40038633 ]
[ 0.008936182 ]
