layers 7
layer 0 Dense
24 20
[-0.36719123 -0.45632318 -0.19539626 0.18621048 -0.059397448 0.09740118 -0.10319317 0.056969754 -0.39320228 0.2735421 -0.29640424 -0.2625488 -0.36396927 -0.369148 -0.20030616 0.10791644 0.08834647 0.27470335 -0.18611994 -0.24496661 ]
[-0.20819739 0.2677256 0.4870536 0.065488644 0.10248806 -0.19333385 -0.16155635 -0.06268261 0.09436882 -0.18104695 0.031592414 0.08098582 0.29741016 0.18099692 -0.03157737 -0.02292243 0.3441828 0.2756155 -0.013269508 0.1834649 ]
[0.2535644 0.08400689 0.45715135 -0.13704737 0.09625517 -0.3600071 -0.1820831 0.114303276 0.43995887 -0.31152698 -0.35151786 0.12495726 -0.25134942 -0.27632213 -0.28959027 -0.08089776 -0.29767796 -0.14533874 -0.5623276 0.08580905 ]
[-0.24259351 0.1431675 -0.06578709 -0.039477114 0.3476791 -0.29150766 -0.21175483 0.20983343 -0.4478845 -0.15603256 -0.2626683 -0.089678854 -0.29991445 0.24354608 -0.18982215 -0.35708758 -0.12976491 -0.012083519 -0.032696508 -0.10318948 ]
[0.28387967 -0.43628046 0.12770233 0.07004845 0.035624307 -0.25565153 0.22831807 -0.18597966 -0.26336232 -0.20280999 -0.0865892 -0.1091264 0.3177125 -0.30873486 0.08604479 -0.0855226 0.432885 0.29565758 0.26292315 -0.31046933 ]
[0.063774765 -0.17330675 -0.3199105 -0.0131107485 0.18645571 0.12905939 -0.25993517 0.33332908 -0.34129593 0.2913788 -0.33408132 -0.22001833 -0.1427253 0.33548036 -0.103535846 -0.47218692 -0.15490942 -0.36879775 0.20369813 -0.087616004 ]
[0.3658748 -0.008328431 -0.022599401 0.4608553 0.0370236 -0.2472679 0.08363881 -0.26484412 -0.55992275 -0.05915828 -0.4431909 -0.073938675 -0.02971164 -0.20739888 0.3008984 0.18132429 -0.13953304 -0.047621083 0.10562571 -0.14525543 ]
[-0.30382392 0.00078788877 0.42210314 0.022820523 -0.023152674 0.37574685 0.13990095 0.3921872 0.5563463 -0.37374753 0.3447937 0.19497502 0.0037619155 -0.23849818 0.33552244 -0.21425089 -0.10580985 -0.44505408 -0.066657536 0.15534545 ]
[-0.41819775 -0.18789579 0.36467788 0.16560106 0.39859307 -0.02215823 0.028914329 -0.40348515 -0.26098317 0.43279442 -0.04859811 -0.3969133 -0.44257993 -0.14811939 -0.035729494 -0.3043205 0.17011061 -0.15783763 -0.019845016 0.25158256 ]
[0.35784972 0.17881894 -0.24528293 -0.19597559 -0.21487622 -0.23169199 0.19968998 -0.01041741 -0.034330282 0.004952618 -0.1352185 -0.04288954 -0.14303796 0.23969139 -0.055835016 0.09544667 0.07223049 -0.13919106 0.14045288 0.20010999 ]
[0.16774213 -0.040586226 -0.040999405 -0.107103445 0.05381438 -0.22527932 -0.06380705 0.26144138 0.09167853 -0.061747313 0.07777714 -0.25604668 -0.43570662 0.09567239 -0.3230944 -0.24324727 0.028387032 -0.07046057 -0.14789179 -0.12694928 ]
[-0.3507338 0.18003908 0.16190569 0.24258533 0.13786834 0.3009361 0.21203703 -0.3855616 0.71452975 0.4941954 0.29174984 0.0008478761 -1.0937612 0.19671217 0.2955011 -0.4369196 0.19649287 -0.025661707 -0.2809744 0.43355352 ]
[0.058893602 0.4075389 -0.2986287 -0.07123461 -0.10085765 -0.16727613 0.45425385 0.29276487 0.27816516 -0.12726311 0.18130314 0.046455536 0.13556734 -0.25511995 0.30039236 0.03701318 0.26481634 -0.28922373 -0.3169821 0.5013367 ]
[0.3765586 -0.025525331 0.21563293 -0.037780322 -0.15148076 -0.16292226 -0.030731555 -0.015007979 -0.18894145 -0.07643176 -0.21044332 -0.017008085 0.12955089 0.57513016 0.0417941 0.17394263 0.3519905 -0.026821958 -0.37772593 -0.46916327 ]
[0.16725408 0.26412627 -0.19778101 -0.34515 0.26830763 0.22442403 -0.1778141 0.25275066 -0.27950087 0.31760478 -0.2758611 -0.37380937 0.15797377 0.088814616 0.013064598 -0.40651426 0.2466581 0.10634569 -0.09473022 -0.31127203 ]
[0.12424273 0.4595281 0.019180173 0.0580515 -0.06456321 0.46365407 -0.1484992 0.25531524 0.4702968 0.18838462 0.21071506 0.25236964 0.023199916 -0.1900386 0.19769621 -0.3710574 -0.09804806 -0.35543305 0.27641058 0.31981155 ]
[-0.08497164 -0.12052849 0.049319565 0.30249375 -0.26837334 -0.112783484 0.10337668 0.36191583 0.24586898 -0.49187246 -0.22138828 0.67680407 -0.44349635 -0.3620846 0.10786718 0.08475721 0.4433464 -0.046603203 0.23930643 -0.47669125 ]
[-0.047573946 0.48181736 0.040538024 -0.22304109 -0.18073787 0.07631914 -0.44594747 0.062296517 -0.28071997 0.26205078 -0.3630053 -0.46882474 -0.17670794 -0.41914728 -0.042255096 -0.43781042 -0.42828906 0.048628815 0.32846585 0.5453641 ]
[-0.49630916 -0.12562282 0.18742321 -0.307524 0.198213 0.64532363 -0.07775882 0.4613305 0.24982153 -0.4199008 -0.36507335 0.34383076 0.4112762 -0.039592844 -0.22117957 -0.08994666 0.39000082 -0.07077727 -0.4672187 -0.10896074 ]
[0.2785951 -0.63746965 -0.06727876 0.12427486 -0.09051022 -0.2743186 0.06627482 0.24532416 0.20184769 -0.4508829 0.45074847 0.3914585 -0.35294038 -0.09797258 0.20670357 0.5935401 0.29126018 -0.36508548 -0.109844565 -0.16557838 ]
[-0.0868246 -0.46794164 -0.02919571 0.33593285 0.33462346 0.1302913 -0.35842776 -0.116643414 -0.27495766 -0.19093071 0.3576509 -0.092657216 0.36696413 0.10877837 -0.47543317 0.29282776 -0.10630965 0.2559473 -0.19105068 -0.013234437 ]
[-0.35217965 -0.21254712 -0.070848085 0.17346194 -0.39867386 -0.15909703 0.25658044 0.024314366 0.042411715 -0.06987492 -0.17949583 0.110795364 -0.41338062 -0.30001876 -0.021217536 0.24417716 0.22459112 -0.17415768 0.040061276 -0.061565977 ]
[0.21643145 -0.48108855 -0.08117367 0.39813778 -0.36913496 -0.026913883 0.30632603 -0.4578028 -0.7831453 -0.27861515 0.0504819 -0.075803414 0.48620224 -0.3128413 0.17391704 -0.3490261 -0.06869857 0.3281025 -0.2248564 -0.30955872 ]
[-0.19723642 -0.5631145 -0.04652577 0.06863405 -0.1658945 -0.2478582 -0.31700757 0.3647654 -0.060465984 -0.3257292 0.17843704 0.3335747 -0.53133863 0.07626537 -0.10694882 0.49886844 0.02689188 0.20131451 0.25953102 -0.3374236 ]
[ 0.06748883 0.048956685 -0.08168175 0.02836316 0.0063452115 0.012692684 -0.04500326 -0.04245957 -0.11679242 0.13424373 -0.15524559 -0.1285383 0.10265578 0.03138409 -0.04306894 -0.11704641 -0.017717877 0.095105454 -0.000106449705 -0.048685484 ]
layer 1 Activation
tanh
layer 2 Dense
20 40
[0.008547308 0.050510187 0.06221133 0.10168933 -0.15920869 -0.20209908 -0.18701547 0.1886794 -0.14017321 0.15724063 -0.102744475 0.060436994 -0.3144721 0.28334862 0.226191 -0.13241123 -0.14169835 0.2456152 0.12178186 -0.14467965 0.12251257 -0.32114187 0.34104154 0.3581977 -0.27120924 -0.18734531 0.25924042 0.18587276 0.19468172 0.379461 0.08122001 -0.3126031 -0.23307142 -0.22800426 -0.23044917 0.027252417 -0.05757851 0.14253873 -0.14399292 0.123871796 ]
[-0.335266 0.5030201 -0.43434727 -0.28473815 -0.3092413 -0.07412409 0.16724652 -0.32188463 -0.20041472 0.07674013 0.0052822074 -0.2512625 -0.1741413 -0.44120574 -0.12122557 0.24022657 0.38331506 0.13940412 -0.30557388 -0.205764 -0.4554406 0.15062658 0.30899498 0.34159374 -0.25349644 -0.3881452 -0.30888316 -0.40651098 -0.036721557 0.41222385 -0.2689509 -0.5697 -0.09073997 0.1748531 -0.3778338 -0.11653805 0.02475283 -0.19866471 -0.054975174 -0.2496116 ]
[-0.25662792 0.24762142 -0.0061418917 0.003623053 -0.0339504 0.25667328 0.3048257 -0.07509924 0.17735948 -0.20968877 0.28558713 -0.16683185 0.19568965 0.1123856 -0.21735294 -0.10124356 0.06133218 -0.22382449 0.08433064 -0.1548896 0.33036685 0.07577647 0.29278028 -0.10850341 -0.25149167 -0.066092424 0.27777445 0.09928941 0.20374133 -0.02261616 -0.17864506 -0.05435493 0.09108903 0.2775789 0.0573359 0.09329556 0.08785215 0.04675611 -0.09760889 -0.20574473 ]
[0.2746669 -0.39299205 0.3424514 0.31091288 0.23136836 -0.20107935 -0.21719867 0.07793873 0.034965303 0.27078322 0.23138414 0.11154331 0.16026402 -0.0414713 -0.0009282305 0.18551745 0.09655018 -0.15419033 0.24082138 0.099066995 0.108366586 -0.20706627 -0.3384636 -0.06962333 0.28113776 0.25027114 0.0010529752 -0.020956464 -0.15751238 -0.008854294 0.15087427 0.13996324 0.073771864 0.07577789 -0.020686023 -0.19002463 -0.40283453 0.17389977 0.11321463 0.13519478 ]
[0.0009814478 -0.30161488 0.17250349 0.10722132 0.21170905 -0.036851034 -0.018702127 -0.1571737 -0.3284204 -0.17597905 -0.07136108 0.01924975 0.40285748 0.37621439 0.02199874 -0.33099616 0.26842764 0.24150555 -0.24966985 0.26740348 0.087511264 -0.112561665 -0.23105772 0.17388944 -0.30698022 0.30277434 -0.108446494 0.13427201 -0.19177987 0.051494736 -0.33854285 -0.07425239 0.14613296 0.14555858 0.0858981 0.18503837 -0.20160368 -0.2412926 0.09642613 -0.054863468 ]
[0.26030833 -0.19873688 0.15177335 0.43975082 -0.43810904 0.08889723 -0.12065021 -0.22976181 -0.17638902 -0.14648728 0.074511334 -0.1303817 0.35310742 -0.35866588 -0.34641576 -0.24863544 -0.23086143 -0.22698681 -0.26403168 0.28636575 0.30079272 0.30151498 0.23652089 0.030342644 -0.2872197 0.16442244 -0.24283822 0.14820217 0.04936359 -0.37148795 -0.078880765 -0.038465846 0.051326673 0.2874555 -0.03842175 0.23787259 0.054413743 -0.24995805 0.19789009 0.27952236 ]
[-0.3504747 -0.048121076 0.019998377 0.28944832 0.26058978 -0.44134885 0.21354422 -0.21753721 0.08375636 -0.15760447 -0.08630038 0.056009155 -0.2311801 -0.09492792 0.3098388 0.055073176 -0.40583265 -0.2834082 -0.2058214 0.071235746 -0.3003299 -0.13818775 0.041817773 -0.09192184 -0.0513304 0.36928567 -0.21975465 0.13908705 0.29566106 0.31948376 0.025463238 -0.033755492 0.17326899 0.538155 -0.115300305 0.24690282 -0.22495422 -0.1436601 -0.3448934 0.14262211 ]
[-0.20878327 0.2559602 0.14780343 0.29626304 -0.35571182 0.35248142 0.080760844 -0.24856167 -0.14753823 0.21212877 -0.1395352 0.018857626 0.08772877 0.066303894 0.25479504 -0.18095776 0.09342223 -0.013111885 0.27120852 -0.13963358 0.30737093 -0.019521097 0.33123294 -0.06776386 -0.1674887 0.434992 0.17069796 -0.07986689 0.18871701 0.022111585 0.31935653 0.13628843 0.15776397 0.30745697 0.21300152 0.2430964 -0.11275697 0.27342963 0.14437102 -0.25600353 ]
[-0.21984094 0.63456964 -0.01994968 0.046979643 0.109117895 0.54267627 -0.13578789 -0.4212498 -0.17669587 0.16706978 0.3858409 -0.026971849 -0.4611855 -0.62335664 -0.22520201 -0.21719953 0.21749364 -0.42604238 0.16286404 -0.015179885 0.11353164 -0.12247229 -0.10251223 -0.163047 0.2693089 0.42978275 -0.3353255 -0.27433953 0.40866882 -0.16740665 0.15052049 0.02595314 0.1641047 0.13113339 0.20156838 -0.068631336 -0.4348052 -0.3760764 -0.055511042 -0.30643538 ]
[-0.13404441 0.26470017 -0.2641635 -0.32315806 0.45788714 -0.024789069 0.008077193 0.0204457 -0.22152159 0.14381705 0.044085205 -0.08702787 0.3858194 -0.06703376 -0.121682756 -0.06155202 0.3727552 -0.12536527 0.2288596 -0.016615598 -0.29007894 -0.18150634 0.13705437 -0.13458803 -0.17460962 0.0174097 -0.13356699 0.27572888 -0.2812545 -0.2458305 -0.1034864 -0.20443724 -0.17138016 0.14123677 -0.47921705 -0.2353691 0.26996136 -0.14290558 0.28999716 -0.21690857 ]
[-0.1270352 0.2534901 0.29438406 -0.14539778 -0.32887745 -0.26363346 -0.0924879 0.03870735 -0.3107986 0.03134164 0.080372974 -0.16116408 0.33988467 0.05947717 -0.39944896 -0.0073878216 -0.4086558 -0.1142054 0.16759868 -0.06633352 0.15058602 -0.39080423 -0.2568526 0.105838396 0.18993065 0.25664112 0.33250663 0.0152063975 0.29755703 0.24427207 -0.045478463 0.2877131 0.19634008 -0.027885672 0.21325769 0.018089535 0.18699765 -0.22890092 -0.26499626 -0.1914668 ]
[0.153134 0.14738834 -0.06307824 0.13825044 -0.18835063 0.12091823 0.17070203 -0.013541105 0.005619506 -0.020681497 0.4920761 0.055730548 -0.2936722 -0.25143805 0.13349667 0.1742438 -0.49417657 -0.14322641 -0.27471358 0.07055579 -0.065459885 -0.24545251 -0.0922098 0.021290757 -0.033279512 0.46100518 0.18085448 -0.33847076 0.014743445 0.21175443 0.39954042 -0.15411551 0.61383504 0.25450113 0.763717 0.30283996 -0.46645573 -0.4221425 -0.23464292 -0.28867096 ]
[-0.105510674 -0.06718884 -0.21986224 0.30232176 -0.41456214 -0.2515807 0.279828 -0.027812377 -0.03024629 0.15438558 -0.328368 -0.13142951 0.29350525 -0.10879455 -0.06844241 0.1785046 0.240857 0.24747522 -0.14232488 -0.121620744 -0.16794881 0.18377937 0.11690025 -0.0032006605 0.10786059 -0.11714163 0.02218768 0.27053016 -0.26494697 0.32765523 -0.10179438 -0.22204703 -0.035171196 -0.0058098854 -0.19016828 -0.1343575 -0.20621234 0.18963625 -0.46379432 0.18928267 ]
[0.011701486 -0.03962549 0.20683181 -0.17651907 0.5068775 -0.06411002 0.16661824 0.10854316 0.0016431683 0.006556605 0.3093354 0.41517648 -0.12319838 -0.17283212 0.3116513 0.20351174 0.009641566 -0.061990485 -0.034930337 0.38570383 -0.21694413 0.1788949 -0.31063294 -0.026635455 -0.07812306 0.3133144 0.0750545 -0.37991032 0.089593954 0.16595083 -0.13653955 -0.14266595 -0.054083552 0.075608924 -0.069889806 -0.06342635 -0.076088935 0.13019681 -0.25935134 -0.022030434 ]
[-0.038924955 0.10419481 0.16741088 0.09419571 -0.185427 -0.037558794 0.22577468 -0.28626925 -0.16588248 0.06626878 -0.22651571 -0.06605804 -0.3657962 -0.42504796 -0.087913625 0.02024325 -0.102361925 -0.24146229 0.23628408 -0.21574526 -0.19321637 0.34676653 -0.028441677 0.30933964 0.12715703 0.071582235 0.00901169 0.29294968 0.08900707 -0.06433653 0.11450146 -0.1648817 0.056545455 -0.12770124 0.14378135 -0.120134406 -0.14727385 0.14955974 0.0016203864 -0.124388754 ]
[-0.39273843 -0.27698284 0.314064 0.019136114 -0.21295337 0.22768965 0.2721452 0.19207074 -0.094188266 0.10819449 0.5581997 -0.011027633 -0.2808617 0.11272993 0.20738201 0.11286109 -0.14122309 -0.43367943 0.049224857 0.05082357 0.07569649 -0.3533187 -0.20448057 -0.07927255 0.022096876 0.20735931 0.3846547 -0.08284299 0.24990149 0.03933677 0.051807225 0.052854393 -0.16483673 -0.11662932 0.26641 0.027680133 -0.58978796 0.14298664 -0.24556361 0.16338699 ]
[0.058701772 -0.4050148 0.16873004 0.18214442 0.073687576 0.13357735 -0.005755045 0.15402474 0.24921124 -0.20583355 0.33620873 0.05128818 -0.015206578 0.16358308 0.14703642 0.010652337 -0.2849811 -0.18585671 0.04917539 -0.1984906 0.18047978 -0.1311666 0.1095384 0.2100071 -0.19359425 -0.014183808 0.027131498 0.0379442 0.009124156 0.09919644 -0.06594463 0.34862602 0.2922846 -0.14238551 0.322852 0.13834237 0.035055917 -0.2058609 0.06319408 -0.07206207 ]
[0.116578415 -0.21854302 -0.35956892 -0.059175327 0.28476256 -0.18263744 0.08963462 0.27893442 0.045081105 -0.07831757 -0.27060527 -0.10175211 -0.23663966 0.16573332 0.010843496 0.007840788 -0.17002551 0.22137462 -0.14796804 0.27688947 0.16918892 0.025807945 0.20353927 -0.23843792 0.077078804 0.18467616 -0.276002 0.39699748 0.06020498 0.29722965 -0.2882079 0.26066706 -0.18393253 -0.5707803 -0.4639225 -0.39423516 -0.23316778 0.06010597 -0.18389513 0.28109324 ]
[-0.07672763 -0.028769191 0.17352843 -0.17646404 -0.24239717 0.07074829 0.1620418 -0.035389576 0.04936165 -0.058019638 -0.26547095 -0.30999175 0.062282827 -0.17376618 -0.34071124 0.33886603 -0.13874589 -0.18619508 -0.2813061 0.13954832 -0.025574053 0.08607527 0.30636916 0.26845023 -0.23185255 0.09304007 -0.11456542 0.22533834 -0.30384913 -0.0041211573 -0.056809813 0.062383868 -0.2640497 -0.38205484 -0.22717567 0.20915368 0.38661444 0.18061578 0.036153246 0.05830237 ]
[-0.16604051 0.43171746 -0.31661674 0.08694973 -0.17354037 -0.20607206 0.21703725 0.034000672 0.27998886 0.13761859 -0.17196888 -0.16333216 0.4486085 0.120352276 -0.18422157 -0.10285049 0.21562457 -0.17645441 -0.08009598 -0.08913175 -0.31334516 0.25623137 0.051494293 -0.09729406 0.22433847 0.29297426 -0.11086228 -0.20991443 0.21742964 -0.38472405 -0.23331569 0.13691649 0.050198797 -0.21963915 -0.07908104 0.23054376 0.4893774 -0.37665945 0.340548 -0.12977405 ]
[ 0.09257687 -0.014356928 -0.05132279 -0.20946251 0.21722665 -0.022412477 -0.07579827 0.00080013514 0.030384276 0.0072774095 -0.16125406 0.0952272 0.021406189 0.019791815 0.0907587 -0.0066905464 0.102395214 0.019361358 -0.030529141 -0.036093675 -0.07678905 0.06076316 0.002522213 -0.05305955 -0.031261764 -0.045028802 -0.047315896 -0.06512478 -0.025672236 -0.0720785 -0.036412653 -0.028075034 -0.0055925366 -0.021458453 -0.20032923 -0.06706713 0.08488026 0.048321232 0.02515957 0.0324089 ]
layer 3 Activation
tanh
layer 4 Dense
40 20
[0.06679803 -0.24233179 0.103691466 -0.05285093 0.29520398 -0.22001855 0.068627864 0.23982587 0.16904545 0.12421272 0.00015003065 0.27491012 0.0046644774 -0.3187138 -0.22812578 0.089773245 -0.25716728 0.21489671 0.15177359 0.009115712 ]
[-0.014059078 0.34653765 -0.46329853 0.31364313 0.032050088 -0.08885279 0.1773154 0.03354826 -0.31712666 -0.035744887 0.06464707 -0.2525809 0.14950319 0.3854733 0.17671974 0.3947826 0.43788412 0.3286486 -0.42596072 0.2834652 ]
[-0.3373667 -0.25651234 -0.030839557 0.2284595 -0.25158527 -0.2786344 -0.11436707 0.34089014 -0.16012159 -0.28163812 -0.05829239 -0.29358003 -0.07830445 -0.30151218 0.20932034 -0.33371773 -0.35577905 -0.30149597 0.30530304 0.11348328 ]
[-0.31064722 -0.07462048 0.026654541 0.10858421 -0.21630879 -0.18052608 0.22805579 0.065122746 0.13835944 -0.098692626 -0.26340768 0.18918063 0.1705989 -0.0058954973 0.15262605 -0.060614128 -0.25807175 -0.023950787 0.25683793 -0.3497376 ]
[0.20593466 0.23503217 -0.013636534 -0.24262221 0.24180424 0.08332719 0.22681735 -0.010203441 -0.3643181 0.020638859 0.366321 -0.18832104 -0.023923965 -0.41323468 0.18373828 0.2175366 0.07823075 0.06165262 -0.33691883 0.11339333 ]
[-0.041580085 0.0649311 -0.13232651 0.31660488 0.090184316 -0.14822699 -0.024532976 -0.24519616 -0.30561435 -0.10139335 0.18926537 0.044423956 0.33346304 -0.17015357 0.0248944 0.021482935 0.3864969 -0.14448977 0.029491192 -0.13953604 ]
[-0.26760632 0.009952035 -0.16647817 0.049360525 -0.24165994 -0.27286237 -0.0796788 -0.03431047 -0.12764627 -0.31023684 0.018480884 -0.09777768 -0.1636072 0.2575648 0.19562112 -0.13458903 0.3349729 0.14133607 0.043218505 0.024730762 ]
[0.07466602 -0.027028406 0.31276202 -0.17366011 0.43401402 -0.16109869 -0.3434854 0.04817359 0.060778372 -0.09977465 -0.13910004 -0.0013160952 -0.075978816 -0.31709525 -0.041694503 0.12086314 -0.27001867 0.19074032 0.28018898 0.0043586916 ]
[-0.2595811 0.049360268 -0.20320019 0.060594305 0.006091545 0.26143175 0.21763103 -0.09812525 -0.25052437 0.09820882 -0.10155652 0.22935575 -0.3136768 -0.33669353 0.15594745 0.061213046 -0.2605491 0.1038629 -0.21509333 -0.26624513 ]
[-0.076920435 -0.008212404 0.15698631 0.0816145 0.06655801 -0.16337423 -0.19317962 -0.19477801 0.2775119 0.024225162 0.08398061 0.04561394 0.11305733 -0.019437514 -0.2171981 0.11595046 0.33910707 -0.17472476 -0.2720438 0.030453837 ]
[-0.094963655 0.23659576 -0.2713728 0.15479031 -0.24195457 -0.09054316 -0.26817298 -0.15716507 -0.23887195 0.053446826 0.11677335 0.29764193 0.19963233 -0.25501984 -0.1878017 -0.2985879 -0.26197252 0.20071904 0.018771349 -0.21334192 ]
[-0.06431325 0.21869649 -0.35698158 -0.08104873 0.23840061 0.33914202 -0.0120797735 0.06427989 0.076499134 0.37606385 -0.0638531 -0.36744335 0.09937295 -0.15321074 -0.2877537 0.11530876 0.22356449 -0.04980349 0.28665936 0.09578903 ]
[-0.42036965 -0.18186942 0.19344929 -0.541911 -0.01930912 0.12430412 -0.036897052 0.14225933 0.5383465 -0.3354656 -0.30412012 -0.1469354 -0.44182837 0.07410068 -0.04569343 0.2553073 -0.031140544 0.0847333 0.24908663 0.070660815 ]
[-0.16359636 -0.2479162 0.07510785 -0.38019148 0.446582 -0.002212456 -0.35342804 0.07595715 0.20055497 0.12210934 -0.01601263 0.033747062 -0.253483 -0.12949009 -0.17383152 -0.13425821 -0.42854735 0.12404884 0.10899364 -0.07858753 ]
[-0.1805638 0.21115944 0.13777526 0.024283692 -0.17275648 0.31908873 0.18436627 -0.17278543 -0.18349196 -0.07505421 0.18898575 -0.038309876 0.14632046 -0.3190124 0.033652052 0.28960782 -0.055137724 -0.31529054 -0.1685892 -0.058882527 ]
[0.25811237 -0.16229153 -0.12671755 0.08570151 0.21741621 0.30902097 -0.09769135 -0.34089255 0.19582555 -0.006646396 0.005927882 0.28803498 -0.16623376 -0.011760104 -0.16022061 -0.19489992 -0.36000267 0.2748248 0.03202072 0.084614314 ]
[0.06259875 0.043895718 0.29655114 0.27976763 0.0058340924 -0.13567074 0.03456282 -0.34973168 -0.026525037 0.23680593 0.3261199 -0.13117105 0.07116706 0.3033414 0.1801725 0.24642973 -0.06450588 -0.1154642 0.016718157 -0.24957213 ]
[0.21824439 0.061138123 0.38738266 0.18400171 0.10521808 0.103390306 -0.027149044 -0.06556935 -0.32177272 -0.03165663 -0.084213026 -0.20115067 -0.43775663 -0.14385977 0.26624072 0.24435891 -0.064411 -0.24126607 0.08292946 -0.34470147 ]
[0.15916032 -0.21286097 -0.07070887 -0.22023718 0.12287042 0.015322433 -0.33474144 0.21592467 -0.20942262 -0.040989745 -0.25595754 -0.08547362 0.22314934 0.1522904 -0.043354273 0.14101714 0.16355501 0.10695058 0.12774788 0.2249464 ]
[-0.20267184 -0.12247449 -0.2884266 -0.010313716 0.15891893 0.12311446 -0.018829476 0.07163615 0.013868151 -0.10243163 0.2611125 0.030726416 -0.059044782 0.07417406 -0.07692931 -0.0038964632 0.04601592 0.15127787 0.06817798 0.21468472 ]
[-0.17831115 -0.060013197 0.03981556 0.06651158 0.07601806 -0.2740517 -0.17547478 -0.08206603 -0.25550967 -0.13295858 0.10197635 0.2821081 0.22921966 -0.035235535 0.32923913 -0.17078769 -0.23715438 -0.13024627 -0.14080153 -0.1968063 ]
[-0.22371285 -0.27872515 0.28973472 0.08192169 -0.04379231 -0.12212765 0.32785493 0.095623665 0.07847161 -0.057077568 0.21487541 -0.31983376 0.29126012 0.049739897 -0.24171938 0.15308173 0.042779792 -0.0412217 0.042723864 0.02849723 ]
[0.23033941 -0.2599729 0.34069136 0.27251866 0.28628963 -0.31843564 0.32076055 0.23721735 -0.22382282 -0.19487374 -0.17121124 -0.07630105 -0.21109138 0.08659806 -0.124398 -0.18889727 0.08606192 -0.2399948 0.21213321 0.17297637 ]
[0.16119394 -0.09765844 0.16436662 0.2036955 -0.13449992 -0.14291891 -0.25115988 -0.08569853 -0.24154738 0.22305548 -0.31077215 0.0540145 0.1684918 0.37120143 0.0012493265 -0.21802102 0.28723475 -0.18121223 0.14633074 -0.0027193383 ]
[0.21969369 0.22360484 -0.20540226 0.004281734 -0.38413146 0.15787916 -0.10165163 0.10437758 -0.18138537 -0.06027269 -0.23907717 0.07937069 -0.19254935 0.16656514 -0.112702586 -0.034978606 -0.12835962 0.14913833 0.076002166 0.17520587 ]
[-0.23431478 -0.05868602 -0.5382846 -0.074529566 -0.39828986 -0.2520984 0.10174581 -0.26740184 -0.20846234 -0.11841273 -0.073827736 -0.17496286 0.3328126 -0.33647317 -0.1604903 -0.20051979 -0.058003094 0.1119375 0.061867647 -0.16726705 ]
[-0.02103453 -0.27082816 -0.11540338 -0.20856391 0.081792 0.17868416 -0.023382429 0.037224155 -0.13826533 -0.36173347 -0.24115127 0.3494363 -0.0015424909 -0.084161356 -0.03453019 -0.09713452 -0.38583374 -0.17400615 0.23468755 0.10929564 ]
[0.028539632 -0.2622047 -0.1992663 0.06495302 0.091954194 0.056439538 -0.054450057 -0.24436474 -0.0025425204 0.043732822 0.1916505 0.0808229 0.18499555 -0.14479238 0.33763462 0.014152893 -0.2329083 0.23613349 0.20345815 0.07980264 ]
[0.22779629 0.28846964 -0.5406048 0.23175769 -0.3328602 -0.16216183 0.15969646 -0.052078746 -0.2521839 0.15662834 0.051003106 -0.02218838 0.3681821 -0.107705705 0.15093872 0.01859335 -0.003308326 0.08884839 -0.098498665 -0.027875029 ]
[0.17430007 0.044990197 -0.06393984 0.20800623 0.19780381 -0.03273608 0.18669975 0.2829594 -0.1640212 -0.03097235 -0.2117705 -0.06643466 -0.38204676 0.04882059 0.17159596 -0.30716994 0.11928508 -0.089686796 -0.13304509 -0.14542454 ]
[-0.06296673 -0.16217037 -0.25554705 0.2407795 -0.34970602 0.28605893 -0.07457403 -0.050828706 -0.075542726 0.16577993 -0.28321096 0.02053224 0.39536357 -0.3510716 0.057962023 -0.4364233 -0.052480917 -0.022067474 0.29172942 0.24758862 ]
[0.042786043 0.14261746 0.11206222 -0.3127615 -0.15931346 -0.095676884 -0.2592517 0.19145803 -0.06571833 -0.063467465 -0.014597779 0.026112922 0.19026761 -0.18039288 0.12379481 -0.12525222 -0.36506104 0.24076785 -0.1873778 0.120927624 ]
[0.2629328 0.27744922 -0.107075185 0.31438532 0.217976 -0.25262535 -0.17013237 0.2657565 -0.11973357 0.16828004 -0.2008544 0.14085676 0.06991916 -0.23470308 -0.16481684 -0.06384243 -0.010430896 0.28270784 -0.051018033 -0.32816672 ]
[0.043956414 0.3707566 0.004855134 -0.035284277 -0.20173965 0.11164469 0.10946053 0.09927163 0.02792688 0.011631564 -0.2038588 0.23980694 0.17547601 -0.15752472 -0.39188623 0.10896546 -0.16037892 0.12051935 0.28705275 0.28857565 ]
[0.2953874 0.021170273 -0.39990053 0.23696269 -0.292839 -0.33538455 -0.31126475 -0.011810619 0.06990886 -0.14994152 -0.15530166 0.017366137 0.36995336 -0.36321992 -0.14449628 -0.3614122 0.14723258 0.07600028 0.32351646 0.18124503 ]
[0.29163772 0.25054464 -0.021600202 0.17316794 -0.0630499 -0.175953 -0.0953961 -0.07050996 0.051471297 -0.12640873 -0.10390692 -0.27558804 0.25585622 0.03130074 -0.27659944 -0.14511175 -0.062720396 0.18964663 0.24315082 0.025558567 ]
[-0.24039768 0.11393616 0.34998146 0.23422398 -0.12902525 0.2841326 0.078832656 -0.033267833 0.033475664 -0.1510882 -0.1677617 0.0743316 -0.36406553 0.06961468 -0.096666336 0.36420918 0.019172773 0.12519222 -0.22807303 0.06874797 ]
[-0.14581852 -0.14944947 -0.029263657 -0.27073255 0.37449345 -0.30328232 0.015877461 0.21425344 -0.061668966 0.2542643 0.06910105 -0.0030823296 -0.23880056 0.26472294 0.22325732 -0.2532619 -0.36314008 -0.0046801707 0.08085433 0.012575204 ]
[0.03749771 0.24411829 0.38796866 0.107420616 -0.24263145 0.31722295 -0.32063195 0.14428043 -0.14504011 0.1735417 -0.1941028 0.07344838 0.22947964 0.12873621 0.26505083 0.34114778 0.016312638 0.028749233 -0.13369311 -0.023285432 ]
[-0.1417278 -0.07230518 0.18333158 -0.13566737 0.26465207 -0.042343467 -0.09242574 -0.33257827 0.01093564 0.12056521 0.0020990022 -0.076917924 -0.12963688 0.25021592 0.17877254 -0.25932315 0.064576894 -0.31647313 -0.2772884 -0.16304871 ]
[ 0.046443768 0.019420547 0.00088952185 -0.008301524 0.014829601 0.09268654 0.04343531 0.05981802 -0.060013272 0.044810504 0.04690857 -0.044095334 -0.017066427 -0.048500817 -0.0058425376 0.0696989 0.017446233 0.025027081 -0.032351933 0.062652476 ]
layer 5 Activation
tanh
layer 6 Dense
20 1
[0.1652118 ]
[-0.17409253 ]
[-0.43989372 ]
[0.284101 ]
[-0.33187953 ]
[0.1468147 ]
[0.28364947 ]
[-0.028838508 ]
[-0.100707896 ]
[0.4118525 ]
[0.44478425 ]
[-0.059107922 ]
[0.4227471 ]
[-0.3943751 ]
[0.13061903 ]
[0.49234524 ]
[0.12679705 ]
[0.24805285 ]
[-0.25468493 ]
[0.013622776 ]
[ 0.061207358 ]
