layers 7
layer 0 Dense
24 20
[-0.11849502 -0.43883908 -0.5654751 -0.4959022 0.73387915 0.23027788 -0.040563792 -0.3089965 -0.61853564 -0.19452557 -0.86329496 -0.41982847 -0.029429354 -0.22281937 0.08866909 -0.50150526 -0.4641741 0.3096729 0.26537743 -0.5004124 ]
[-0.25949696 -0.12131819 -0.25788206 -0.10683715 -0.06381218 0.28416985 0.23691267 0.18363403 0.34340444 0.1623535 -0.06844127 -0.24431683 0.08974574 -0.43737856 -0.06382841 0.20986404 0.30514675 0.26470053 -0.08137359 0.0059157154 ]
[-0.39127627 0.31234837 -0.179376 0.04043993 0.32845354 -0.028905833 -0.4679928 0.28738436 0.15148754 0.11897212 0.14501163 -0.32665107 0.10247208 -0.411549 0.21047431 -0.05881948 -0.0024011703 -0.2881561 -0.2654104 0.20686291 ]
[-0.43495217 -0.10574365 -0.3074242 0.085444756 0.28384662 0.17978321 -0.4062098 0.17116897 -0.6179853 -0.22626024 -0.6204948 -0.5124229 0.01171843 -0.30862707 0.37653098 -0.10157896 0.033669844 0.17594478 -0.23546478 -0.12198253 ]
[-0.077614404 -0.3074072 0.38061875 0.04899784 -0.134259 0.08140412 -0.04145701 -0.25732252 -0.19213274 -0.10128167 -0.060629424 -0.24178152 -0.5333071 -0.24926643 -0.028696658 -0.42503846 0.11463561 -0.024096448 -0.6864718 0.42275655 ]
[-0.23773219 -0.07197112 -0.2042906 -0.37070158 0.38802263 -0.2129545 0.14891514 0.23881292 -0.25701183 0.14230877 0.11970792 -0.47964135 0.24445859 0.12925403 -0.1706709 -0.11701475 -0.38785437 0.054329604 0.03204183 0.18779734 ]
[0.01811836 0.029697001 -0.5395792 -0.13852789 0.54719824 0.079235286 -0.05757518 0.093200944 -0.17854922 -0.05757414 0.13488139 -0.29800847 -0.12208352 0.07909333 0.24572238 -0.1161528 -0.023387123 -0.14636055 -0.08894632 -0.1400477 ]
[-0.12808713 0.15584046 -0.123663224 -0.10958745 -0.16961147 -0.05389427 0.35241383 0.02611047 0.12998296 0.19903032 0.33161974 0.059254296 0.13493095 0.073049344 -0.32153895 -0.118032955 0.110414974 -0.4954306 0.19968279 0.3762189 ]
[0.31052244 -0.03280717 0.37803355 -0.13276887 0.009545733 0.07208057 0.35185534 -0.044857807 -0.03429265 -0.2634313 -0.36198926 -0.12374117 0.3777307 0.007648048 -0.23946337 -0.5388455 -0.18896078 -0.32448784 0.02265571 0.19972815 ]
[0.037872083 0.128796 0.095849246 -0.20192991 0.11976593 -0.27362853 0.03580481 -0.2080426 0.13471001 0.33798945 0.03735917 0.1899469 0.32345366 0.052486237 -0.19794598 0.20718512 0.45991886 0.2602039 0.35694477 -0.18025711 ]
[0.3269202 0.5145431 0.46724975 -0.121636264 0.088825785 0.28244925 -0.46343604 0.54901844 -0.14664878 -0.11471587 0.33726102 0.17899728 -0.0677909 0.20907158 0.23591511 -0.29475746 -0.34690437 0.1573474 -0.2997266 0.20630705 ]
[-0.24850518 0.31876373 0.088277705 0.10735194 -0.14661056 -0.06786166 0.26046395 0.13546218 0.13382244 0.27151895 -0.15586232 0.33888766 0.009717825 -0.030512832 -0.14502257 -0.31142092 0.34677935 -0.0191477 0.32380757 -0.1985176 ]
[-0.05536262 -0.03455809 -0.028666573 0.20669751 -0.07787784 -0.38693005 0.24981685 -0.06908677 0.30379796 0.17149803 0.23410742 0.1565289 0.12744929 -0.41727516 0.25733325 -0.25576594 0.120257854 -0.3927174 -0.13332744 0.22556412 ]
[0.26965225 -0.09883544 0.14464466 -0.050912984 0.2161485 0.17333828 -0.25476 -0.08523895 -0.40643388 -0.06857165 0.10280282 -0.17511033 -0.33807418 0.15610643 -0.1728472 0.29155782 -0.06543111 -0.13184984 -0.0544186 -0.14834327 ]
[0.26332653 0.28608972 0.28141877 0.4883092 0.1767518 -0.35219607 0.42192194 -0.5386213 0.38557592 -0.23419246 -0.043572094 -0.038247366 -0.08748266 -0.22629927 -0.28229555 -0.5041814 -0.52848744 0.06411672 0.0048281816 0.61669004 ]
[-0.5168568 -0.31098646 -0.069641314 0.0016250109 0.52775127 0.05964798 0.13317782 -0.39394906 0.06792915 -0.3124585 -0.4643724 -0.29949936 -0.048671555 0.2713596 0.5636942 0.022754656 0.10101497 -0.4392978 -0.46051282 -0.16751051 ]
[0.1913839 -0.14059572 0.066648334 -0.1316776 0.21555582 0.25577152 0.34408444 -0.24532129 -0.15817957 -0.26152056 -0.32245234 0.3404549 0.2639736 0.042197943 0.26846972 0.22125143 0.18132055 -0.46583423 -0.30043742 -0.2085134 ]
[0.26122272 -0.33244953 0.0324416 -0.1378501 -0.010407071 0.21785587 0.01673263 0.31920454 -0.33312425 -0.6471969 -0.61455894 -0.09266816 0.20851064 0.21272446 -0.16674164 -0.26373005 -0.658439 -0.120110594 -0.37880772 -0.14567623 ]
[0.19330244 0.04072135 0.034005173 -0.086160965 0.090338 -0.11350919 0.16252246 0.32569718 0.06873647 0.39814636 0.8710401 0.23261282 -0.17549798 0.03477902 -0.25094098 0.042751323 0.41736585 0.22804117 0.25902733 0.20956829 ]
[-0.08878407 0.40152657 -0.16482534 0.38219756 -0.54626906 -0.03860723 0.40687987 0.4920438 0.44032818 0.28573763 0.20259859 -0.15472895 -0.13780949 0.23534948 -0.030706609 -0.10202386 0.2188384 -0.4809039 0.19339384 0.24383782 ]
[-0.15901528 0.13471965 -0.13183759 0.26718676 -0.034462947 -0.1421917 -0.20401749 0.24377386 0.42005146 0.4470514 0.13088809 0.16163683 -0.3223004 0.33454326 0.1652914 0.20230226 -0.1661014 0.28142974 -0.4694273 0.35937807 ]
[0.5061594 -0.20592731 -0.14518121 -0.11756295 -0.20223431 0.31599495 -0.19731198 0.17596991 0.09138368 0.18049534 -0.16566299 0.41710213 0.42284176 0.062260654 -0.61955464 -0.26950076 -0.13287936 -0.030075368 -0.45438942 0.6082095 ]
[-0.0058502224 0.14689405 -0.556262 -0.20133251 0.1988922 -0.0022463712 -0.0685342 -0.19060649 -0.054437537 0.150331 -0.19772916 0.2019282 0.5760455 0.14245938 0.08168063 0.5627539 -0.1825228 -0.1414649 0.21024865 -0.28597212 ]
[0.07175301 0.33138952 -0.18275402 0.24728742 -0.22666727 -0.2593694 -0.066371515 -0.07742369 -0.017518537 -0.3042171 -0.34206676 -0.33921772 -0.12012211 0.15162337 -0.13120954 -0.32680783 -0.34720892 -0.44561407 -0.08467081 -0.083163336 ]
[ -0.031752236 -0.12837516 -0.14798559 -0.11461222 0.16135013 0.012946403 -0.16426916 -0.04290728 -0.10649761 -0.13789271 -0.038888387 -0.13057691 0.020680433 -0.14850605 0.10482758 0.07479132 -0.08875279 0.093075216 0.023065474 -0.11781562 ]
layer 1 Activation
tanh
layer 2 Dense
20 40
[-0.022918725 -0.20849054 -0.3520479 0.3301244 0.097262956 0.057738665 -0.20554912 0.0924594 0.12088897 -0.06495623 -0.01873397 -0.04187645 -0.13281392 -0.19231752 -0.2219021 0.14282845 -0.18947603 0.38904217 0.07040554 -0.2569985 -0.12194412 -0.038882922 -0.010992685 -0.305167 -0.06494294 0.03138635 -0.183264 -0.18792179 -0.2921328 0.17037128 0.054636635 -0.05067974 -0.00806378 -0.41402778 0.25278863 -0.3202835 0.015576784 -0.22687902 0.14097546 0.11649647 ]
[-0.33118352 0.21790272 0.05133934 0.2590131 0.49465203 -0.118654 -0.2895874 0.2320388 0.038471173 0.12898129 0.66114664 0.28684115 -0.18906812 -0.09662879 -0.10362291 -0.034912772 -0.076894924 0.21291557 0.4169222 0.5034453 0.04461518 -0.25904396 0.30510303 0.33648574 0.052295625 0.14570925 -0.02356441 0.107707866 0.016559072 -0.06823048 0.28491113 -0.66568667 0.068364285 0.07875092 -0.027934976 -0.36885786 0.17789936 0.25357842 0.50855356 -0.124522716 ]
[0.14067219 0.13233814 -0.38839355 -0.1535094 -0.19036211 0.14880522 0.19549005 0.27512157 0.19434598 -0.22035488 -0.071971215 -0.13549535 0.33406493 -0.17156328 -0.22464544 0.29110378 -0.17791075 -0.09032348 -0.053395756 0.39611387 -0.36756265 0.058856193 -0.032997873 -0.15892424 0.36747003 -0.26243562 -0.15103172 0.15159619 0.08651239 0.024334295 0.16317695 -0.27202106 0.2447241 -0.20504007 -0.15598652 -0.0736025 0.26563615 0.08815357 -0.15030135 0.03766247 ]
[-0.2587034 -0.301218 -0.019421384 0.31207988 -0.12262852 -0.38169098 0.012111137 0.1578139 0.35462126 -0.10680298 0.052615196 0.080310196 0.094079845 0.4091495 0.21746409 0.27384213 -0.032209136 0.30702168 0.02756681 -0.06096673 0.24860018 0.044675406 0.22286241 -0.43981954 0.14843129 0.2747271 -0.27508357 0.1838162 0.22380757 0.33233234 -0.3557566 0.17233929 -0.11644589 -0.1635215 0.058660686 -0.33800516 0.13127956 -0.14024173 -0.21332252 -0.18661772 ]
[0.07154637 -0.11406322 0.4743185 0.030177267 0.000622747 -0.041757952 0.06466171 -0.46674016 -0.24399279 -0.0065025166 -0.5655383 0.29825607 -0.27264354 -0.1735613 0.40661332 -0.48776215 -0.24298066 0.038811658 -0.14255115 -0.23729841 0.09985599 0.284845 -0.24639787 0.15355527 -0.46982348 -0.083549865 0.13492455 0.29039496 0.13586544 0.045272846 0.21748133 0.63010204 -0.21039076 0.35673615 0.15470126 0.42658728 0.17057095 -0.09411944 -0.2522176 -0.29963022 ]
[-0.21953124 0.104706004 0.007055294 -0.2862712 -0.12795408 -0.25479066 0.2056793 0.03423068 0.085883215 0.08716803 0.06334232 -0.16090173 0.06484912 0.21700558 -0.07300674 -0.2614632 0.023031471 -0.24358909 -0.0052524293 0.015913429 0.09370652 0.18025269 -0.19754714 -0.2908016 -0.2186258 0.010520852 -0.19643727 0.25921226 -0.04732266 -0.22843814 0.28279054 0.41387978 0.21080221 -0.16309887 0.3105736 -0.066991515 0.042918034 0.20220895 -0.221292 0.13022119 ]
[0.0057570534 0.049224954 -0.22383513 0.4805717 0.04608749 -0.3941691 0.2847926 0.24888937 0.37471876 0.17459601 0.03840235 -0.01652659 -0.32750326 0.015445604 0.38005915 0.2270609 0.31366155 0.11041632 0.006597358 0.059864737 0.030426728 -0.20176117 -0.18990575 -0.19506206 0.24773794 0.28343585 0.06551179 -0.19622375 0.05515551 0.28015438 -0.13073991 0.04622067 0.23762983 -0.35286775 0.31253934 -0.049684126 0.3005737 0.12725867 0.48670855 -0.16520081 ]
[0.013155978 -0.34858465 0.11068877 -0.067059085 0.23725499 0.26038224 -0.33238247 0.21957994 -0.2977619 0.004017506 0.5137077 0.1850789 -0.10482034 -0.35493502 -0.34806502 0.15582405 -0.07071316 -0.18313171 0.31290448 0.1141564 -0.027292198 -0.37382284 -0.03801029 0.11211202 0.13057232 -0.064086236 0.23178923 0.2267837 0.09826501 0.21033767 0.18153085 -0.4235572 -0.03165865 -0.22692406 0.122509904 -0.4282502 0.19069436 0.21420772 -0.051227435 -0.24128287 ]
[0.07626745 -0.13863215 -0.26929298 0.16796711 -0.020847129 -0.19619152 0.23565897 0.54061353 0.4906077 -0.36324316 0.4933875 -0.25552282 -0.14237428 0.2804873 0.058906607 0.2094588 0.065076075 -0.025899312 0.044833004 0.44737288 0.14788376 -0.009300209 0.41485214 -0.064568646 0.5909195 -0.30672517 -0.12663485 0.058985375 0.0012967947 0.43391207 -0.1510583 -0.50383466 0.20160949 -0.18980464 -0.19590762 -0.84254366 0.005003937 0.2427269 0.09327409 0.13342619 ]
[-0.3319291 -0.093076825 -0.45266342 0.2741675 -0.1057986 0.23365383 0.19804433 0.39794838 -0.089293905 -0.30883712 0.3371726 0.20392849 -0.050433915 0.015749633 0.034592237 -0.0595211 -0.12001899 0.25961187 0.026971044 0.054628257 0.20424777 0.23342717 -0.06622549 -0.0862346 0.41471168 -0.22423407 0.018237622 0.23296206 -0.2686794 0.25051588 0.08757775 -0.14076586 0.17076185 -0.08174268 0.1067218 -0.2589766 0.13983579 0.11335075 0.2035347 -0.038746014 ]
[-0.34238815 0.15921457 -0.59234315 0.3734217 -0.36610296 0.44345748 0.23349011 0.30850345 0.32974485 -0.11934821 0.6300255 -0.13396756 0.26487878 0.28940794 -0.1340728 0.42333764 0.19762704 0.33286777 0.03342802 0.3639018 -0.018884355 -0.16232249 0.124149114 -0.36191654 0.45862353 -0.25325498 -0.20358953 0.19697884 -0.20854755 0.040091693 0.27924022 -0.787607 0.45966655 -0.356032 -0.09731845 -0.5819481 0.25353488 -0.105080456 0.13194254 0.2588973 ]
[-0.2940231 0.24159116 -0.50086063 0.054682672 0.24267048 0.20346469 -0.22181608 0.5266214 0.24085262 0.077564634 0.21631171 -0.23076089 -0.024278069 0.09682052 -0.22364545 0.29660416 0.18664762 0.34614718 0.3491416 0.13151425 -0.30002934 -0.081212655 -0.18884039 -0.33156937 0.05672112 0.13932252 -0.048653416 -0.1933153 -0.110559724 0.22906592 -0.099309355 -0.43001667 -0.09593828 -0.17484684 0.15322259 -0.5582461 -0.1653172 -0.2317208 0.11787471 -0.2956451 ]
[0.012878005 -0.0254789 -0.15463091 -0.24470621 0.0075043687 0.38651198 0.11155367 0.20703487 -0.16537829 0.03883509 -0.15223202 0.250343 0.081294104 -0.23547448 0.26472583 0.19089308 0.12970412 -0.031168632 0.29535487 -0.11020334 -0.24340747 -0.44514582 -0.24272858 0.2886802 -0.018592702 0.2742761 0.19725177 -0.093178995 -0.06431461 0.006670741 -0.17110203 -0.089441635 -0.014473406 -0.15991804 0.1607732 -0.11340664 -0.28195155 0.2331829 -0.095882 0.09420591 ]
[-0.1011431 0.27193794 -0.19586152 0.19902991 0.22947523 0.06887118 0.24508044 -0.057673696 0.49260852 -0.0034855648 0.28207874 0.33687025 0.040226664 0.37048483 0.20931353 0.13219732 0.007623013 0.35447407 0.28867918 -0.06500652 0.13450758 -0.10081209 0.24610229 0.006905126 0.116388276 -0.048791334 -0.23600909 -0.13111672 0.05704253 0.40117472 0.40998128 -0.2366995 -0.02413733 -0.11846435 0.4419177 0.2262456 -0.06393531 0.052488174 0.25150338 -0.24496934 ]
[0.25738484 -0.30449623 -0.11203578 0.018937146 -0.2965822 0.07592799 -0.26131496 -0.3468732 0.09236959 0.35398224 -0.29527658 0.25471252 -0.11048757 -0.33204642 -0.25053075 -0.49399367 -0.12973118 0.039510865 -0.1264546 -0.32471147 0.15122353 -0.10066341 0.026307704 0.16240713 -0.3719766 -0.24544454 -0.0440988 0.25200507 -0.020662704 0.15350305 0.4210687 0.8276719 -0.6143551 0.49125746 -0.24306878 0.6735702 0.23619035 -0.03205802 0.15426104 -0.034384064 ]
[-0.21140096 -0.087156504 0.06708154 0.19491555 -0.0667974 0.38059077 0.20698914 -0.46721947 0.21361154 -0.017737381 -0.31128293 0.32244498 0.27975804 0.13740773 0.21560185 -0.2972749 0.13548106 0.11856682 -0.045050707 0.13858826 0.14086618 0.23689537 0.17870525 -0.3847846 -0.06228885 -0.16745514 -0.29514703 0.20109661 0.32375798 0.40500587 0.36175084 -0.09775344 -0.23353186 0.28105074 0.35128883 0.40841126 0.17044471 -0.25273263 0.29153568 -0.006215317 ]
[0.11040049 0.08528325 -0.38972455 0.1537007 -0.2854303 0.37821093 -0.13287935 -0.2097856 0.07510376 -0.0965981 0.3140991 0.07856245 0.034942944 -0.19687529 -0.101810426 0.1966905 0.023147073 0.24831954 0.18601139 -0.020209584 -0.23496634 -0.24263743 0.18409629 -0.18503523 0.27947897 0.036603358 -0.08713767 -0.12636791 0.31529874 -0.16277105 -0.098976634 -0.16816263 -0.18053958 -0.11717241 0.14442247 0.22957218 0.025127634 -0.21439868 -0.15535787 0.026877314 ]
[-0.2619236 -0.020485384 0.059150998 -0.37941167 0.100115284 -0.18031655 0.09747021 0.013828204 0.14154178 0.19187537 -0.00652653 0.18633662 0.041957766 -0.26516068 0.15936014 -0.16345754 -0.30532658 0.10515005 0.14616218 -0.20665902 -0.1773739 0.10177472 -0.23116064 0.24529958 -0.14622034 -0.16979437 -0.111600086 -0.1294331 -0.08420437 -0.34006432 -0.15723991 0.2932336 -0.07427476 0.01746347 0.15406829 0.34245166 0.0725183 0.31553265 -0.27943307 0.051453978 ]
[-0.03539781 0.15622082 -0.2482818 -0.31632188 0.3440852 0.3105464 -0.27382535 -0.25679582 -0.06975522 -0.28614667 0.076925024 0.32052362 0.098247506 0.10206612 0.28998977 0.12304037 0.13576713 -0.28073865 0.49744165 0.38624632 -0.13365872 -0.5681054 -0.15333799 0.43621823 0.20734034 -0.06860919 0.11768783 0.08349647 -0.050392494 -0.24002136 -0.3842498 -0.04532039 0.3638934 -0.121603526 0.2691752 0.13302019 0.08176216 0.112685345 0.06403295 0.37482154 ]
[-0.24683678 -0.04465068 -0.09436364 0.23475988 -0.22468136 -0.33066222 0.26194233 0.8283235 -0.13630997 0.126765 -0.11951644 -0.4963686 -0.1931621 0.20763351 -0.027840603 0.81090546 -0.17674196 0.068871714 -0.29607567 -0.18568955 0.16650146 0.51720434 0.41529158 -0.3658607 0.48972893 0.09567144 0.08158874 -0.12073873 0.41678855 0.46632227 0.027989786 -0.35415375 0.047789488 -0.6220242 -0.5173293 -0.55387384 -0.27194598 -0.0017091206 0.13237518 -0.16848576 ]
[ -0.00761737 -0.08082968 0.025270637 -0.17894214 -0.16719937 0.023124257 -0.0148239415 -0.106428795 -0.17547865 -0.03108485 -0.14166431 0.036554333 -0.02350326 -0.060594596 -0.058980417 -0.059521776 -0.081484 -0.1546799 -0.08861642 -0.15146694 0.009211178 -0.07517793 -0.16689697 0.098186135 -0.056659352 0.019979356 0.093812056 -0.014349987 -0.0567427 -0.21284702 -0.046111666 0.13300765 -0.08273331 0.08904582 -0.103707485 0.112569354 0.053630125 -0.027027328 -0.25692126 -0.00068520755 ]
layer 3 Activation
tanh
layer 4 Dense
40 20
[0.034885596 -0.17535745 -0.081882745 0.22092932 -0.104160935 0.1889036 0.21652117 0.14618263 0.33526838 0.0151822725 0.37933868 0.26278976 0.037505433 0.08356839 0.00055755 -0.08885456 0.13914678 0.11632969 0.16764146 0.17885423 ]
[-0.16107368 -0.1587338 0.088056654 -0.22385222 -0.18654285 -0.1471306 -0.13812666 0.20374985 0.26560363 0.06449555 -0.26394233 0.20090143 -0.21751364 0.07776905 0.061570495 -0.23827757 0.027081216 0.2710218 0.40677685 -0.08758 ]
[-0.15884183 -0.3359111 -0.19296871 0.4046042 -0.13933186 -0.22232473 0.35415563 -0.008930476 0.005025925 0.013981155 -0.049927842 0.33532265 0.091625385 0.05493612 -0.25646624 0.0766461 0.08739736 -0.44062164 -0.023783002 0.17947395 ]
[-0.20783243 -0.17256573 0.34775344 0.075647324 0.0049334965 -0.1451315 0.29186788 0.30672354 -0.41435403 0.23697634 -0.35660717 -0.021651087 0.10907704 -0.3051072 0.181656 -0.106356055 -0.431298 0.2802375 0.13948591 -0.3223546 ]
[-0.27538896 -0.11412097 0.14304247 -0.23630953 -0.29607928 0.0480244 0.26098987 0.32399824 -0.18603396 -0.15180396 0.22678302 0.27756566 -0.20947431 0.28472883 -0.2931066 0.12610558 -0.46014458 0.18338363 -0.12836076 -0.25071105 ]
[0.22771123 -0.062649146 0.18787086 -0.44094098 -0.1379738 -0.018801175 -0.17942438 -0.1542308 0.42530468 -0.34330186 0.2786591 -0.41861862 -0.26582196 -0.38608387 -0.20575991 0.056116614 0.3906421 0.24030949 0.15694956 -0.107977964 ]
[-0.16628976 -0.33464006 0.08917735 0.22510977 0.07698983 -0.233633 0.22603448 -0.2227572 -0.44168103 -0.14000615 -0.03811575 -0.1727255 -0.121627524 0.04483454 0.10037386 -0.18475546 -0.18220995 -0.4132429 0.18324694 0.022908308 ]
[0.24040101 0.43435436 -0.078433685 -0.30092254 0.3797579 0.025964445 0.12987427 -0.34656793 -0.01618006 0.24684073 -0.11523378 0.16499168 0.2506503 -0.4178527 0.16484524 0.31542847 0.2716504 0.39066643 -0.16265608 -0.34723648 ]
[0.012390785 -0.05628433 0.4236873 -0.22112551 -0.36915666 -0.004046434 0.29692698 -0.17438482 -0.20205723 0.15483028 -0.14757513 -0.16439267 0.42708656 -0.040383276 -0.06207764 -0.29057008 0.009637557 0.24328211 0.06176219 -0.06260023 ]
[0.21522132 -0.22418849 0.18528049 0.20019312 -0.21973264 -0.02066496 -0.16869435 0.014633274 0.06681933 0.2220608 0.011036788 0.1417514 0.2191072 0.100942135 -0.057060078 0.17806932 -0.10997488 -0.44592458 0.0025196006 0.1768777 ]
[-0.07482062 0.48173046 0.07300356 -0.5475629 0.14928393 0.1269254 -0.11604531 -0.5714494 0.27680156 -0.2358782 -0.31016567 -0.19181573 -0.19315332 -0.39302036 0.20782156 0.11672201 -0.116589315 0.2706997 0.17780961 -0.122975856 ]
[-0.314138 0.058498677 0.3478997 0.30596355 -0.45437455 -0.060390323 0.14915055 0.095744625 0.37728226 -0.27946907 -0.2091748 -0.21234055 -0.05028847 0.24488251 0.14288828 -0.047941245 0.03219545 0.079574615 0.07620033 0.12934321 ]
[-0.09520559 0.1407167 0.04559046 0.10387085 0.030421237 -0.057422247 0.16573943 -0.33144847 -0.04563764 -0.056904927 -0.13258146 -0.37617368 -0.39991975 0.24284048 -0.17941922 0.039296735 0.0067812884 0.23416995 0.007661548 0.12878487 ]
[-0.11190927 -0.44994146 0.12878975 -0.1581036 0.11095337 -0.07516376 0.37357154 -0.045762878 -0.030676384 0.20668997 -0.3989961 -0.108350985 0.109906346 -0.3177314 -0.32830068 -0.036164213 -0.24234957 -0.23092663 -0.14116524 0.24813129 ]
[-0.34538588 -0.4851131 0.21789294 0.035094183 -0.31751904 -0.3046216 0.20735304 0.41305843 -0.039314587 0.18266907 0.16032296 0.20694819 -0.12764047 -0.1454894 -0.37613717 -0.31617555 -0.19170354 -0.22815278 -0.19373164 0.16139966 ]
[0.117598325 0.22980791 0.026665468 -0.0789954 0.37906155 0.2414737 -0.07041109 -0.5460131 -0.13854046 -0.064717874 0.18822412 -0.13665725 0.29317233 -0.43888396 0.019136047 -0.28732935 -0.067677215 0.4251407 -0.05360631 -0.4726003 ]
[-0.23832412 -0.023003908 0.2400022 0.16839986 -0.14807038 -0.032041743 0.21852043 0.08011773 -0.10345924 -0.022280306 0.044626277 0.2037619 -0.20808306 0.04566664 -0.26579195 0.12827219 -0.3358181 0.16667533 0.18997109 -0.39800733 ]
[-0.12699571 -0.09177269 0.24611595 -0.22220884 0.08260319 -0.1442963 0.3340338 -0.3080589 0.114342295 -0.04584601 -0.42531735 0.06088116 -0.19535361 -0.10089463 0.03996762 -0.37054256 0.2018544 0.32896206 0.40232494 0.21889189 ]
[-0.0073741153 0.25675756 0.056421462 -0.18724976 -0.31190136 0.017278746 0.2857671 0.22500387 0.099792525 0.19371594 -0.021887852 -0.18277586 -0.113139234 -0.2571761 -0.26501888 0.19695894 -0.1432882 0.32744336 -0.28967088 -0.35344657 ]
[-0.41906592 -0.15447918 0.22568448 -0.46179706 -0.23206148 0.082138434 0.16865723 -0.4878167 0.29532436 0.03646507 0.1365388 0.03762113 -0.42204985 -0.5131329 -0.004946375 -0.41376075 -0.2627284 0.4002566 0.33070502 -0.312589 ]
[0.2099964 -0.21760315 -0.07909077 -0.09679029 0.07692939 -0.30662417 -0.22745308 -0.010723512 0.059494242 0.103935 -0.27819812 0.011931542 0.11850551 -0.11445534 -0.3332292 -0.04660417 0.096798725 0.15104894 -0.2748723 0.11934732 ]
[-0.098175965 -0.016121324 -0.13452189 -0.17607522 0.12601401 0.17118275 -0.20355234 0.0068196952 -0.19647719 0.3070542 -0.3270946 0.06691987 0.31051674 0.22732462 0.22557625 -0.29666 0.18644051 -0.40189466 -0.22985111 0.27613264 ]
[0.15674642 0.114692815 0.006319067 -0.29673034 -0.16789812 -0.26580217 0.11061582 -0.24306072 -0.3189163 0.18336374 -0.18057352 -0.21206215 0.22517008 0.03000908 0.11738468 -0.19010285 0.033285804 0.2795918 0.09331804 0.0038226317 ]
[0.23714928 0.35740143 -0.31209102 -0.0931664 -0.03891534 -0.21554127 -0.041760042 0.18071005 0.3837523 -0.2622097 0.4997689 0.10188369 -0.37767452 0.031583376 -0.04572669 0.0062130354 -0.05520597 -0.17802921 0.13491692 -0.0876142 ]
[0.15087306 0.3055219 -0.2507109 -0.3979218 -0.02670891 0.13655435 -0.10780853 -0.08323017 0.20056073 0.27234906 0.060593437 -0.06631496 -0.1650787 -0.39417535 0.083896846 -0.27911755 0.10224496 0.2250385 -0.18834774 -0.42592505 ]
[0.20450933 0.010871332 0.07148728 0.22327913 0.29979813 0.027255252 -0.15781905 0.0652274 0.22206482 0.22695072 0.13499305 0.37272182 -0.006452595 -0.24285458 -0.16054802 -0.051115703 -0.039107513 -0.075359 -0.09840801 -0.30137476 ]
[0.162512 0.2892538 -0.20052464 -0.05811457 0.17977217 0.06867447 -0.29047865 0.35501248 0.33817074 0.059360914 0.34925073 0.059630185 -0.05888024 -0.29010943 -0.061952453 0.03302202 0.21305671 0.17878933 -0.19435874 -0.056089517 ]
[0.014703108 -0.02477859 0.0418449 0.07032765 -0.25434744 0.1030007 -0.24089019 -0.24418275 0.17311773 0.0837678 0.19334063 -0.17683178 -0.1322455 0.07648327 -0.12608485 -0.27352348 -0.058835078 0.15400773 0.22597718 0.15943606 ]
[0.17736042 -0.33994114 -0.11230846 0.23403153 0.17130499 0.1384602 0.16028847 -0.05132622 -0.06709842 0.21174306 -0.06636094 -0.11783556 0.3598323 0.199055 -0.0195215 -0.39089388 -0.061990246 -0.17672071 0.25354493 0.07086991 ]
[-0.23136687 -0.31721172 0.12506457 -0.28182733 0.2799438 -0.14009278 0.0063139824 -0.13297388 -0.35927284 0.44174126 -0.11760651 -0.21817543 -0.1123542 0.034129396 0.04090367 -0.25010982 -0.3848508 0.110659316 0.35086614 0.10006776 ]
[0.03175739 -0.44114462 0.366978 -0.09994393 -0.36478466 -0.29175466 0.3842884 0.21548097 0.08321261 0.03832984 -0.3758973 0.3662045 0.18294033 -0.15611999 0.08468126 -0.33460253 -0.055058103 0.16781196 0.05465444 0.329956 ]
[0.29931757 -0.31164572 -0.16377191 0.41677245 -0.47994617 -0.22363594 0.08169317 0.5441538 -0.07840923 0.13696687 0.13467382 0.3662328 0.37041613 0.35953403 0.053515773 0.20111479 0.16103011 -0.4390477 0.20536803 0.008467419 ]
[0.25471216 0.27383864 0.19529343 -0.20250286 0.27895913 -0.2054165 -0.051927313 -0.1075684 0.15942606 0.20620744 -0.01521451 -0.19059132 -0.3583741 0.0763226 -0.14497143 -0.14266598 -0.08794582 -0.003785379 -0.241593 -0.23430951 ]
[-0.15378611 -0.34017465 -0.0873714 0.2207909 -0.4526899 0.09829963 0.18951446 0.091239326 0.25173685 -0.102654085 0.07013778 0.081286415 -0.15496948 0.5145303 -0.055871535 -0.053449288 0.01071587 -0.5476588 0.115859576 0.37357366 ]
[-0.06111286 -0.4281255 0.2696038 -0.075235926 -0.4010256 0.11173332 -0.07726137 0.0008397405 0.104033254 0.29355833 0.06524516 0.015863834 -0.28476268 0.3031231 -0.38798296 -0.27029964 -0.30342057 -0.35443634 0.22366576 -0.19792296 ]
[0.068345085 -0.021259133 0.17711106 0.56633687 -0.37219617 -0.20930082 -0.06061282 0.42508706 0.2817464 -0.101183355 0.1852417 0.13479957 -0.21377529 0.7246935 -0.3501601 -0.0354222 -0.24893352 -0.59641135 0.32382798 0.35383314 ]
[-0.34228846 -0.1895842 -0.13874084 0.085516445 -0.07476706 0.208431 -0.04768286 0.30934376 0.110701285 -0.22680965 -0.26993766 -0.026708636 -0.10929566 -0.036396354 0.1603601 -0.43223906 0.080649294 -0.29551217 0.015731145 -0.0889346 ]
[0.07529541 0.12804516 -0.27366132 -0.18030384 -0.19963245 -0.02213302 0.23801528 0.013692327 -0.10544191 -0.14388701 0.4107079 0.060355216 0.21701704 0.10520891 -0.10141213 -0.013085643 0.056488495 0.4059294 -0.0780375 0.09922159 ]
[-0.2975972 -0.32327327 0.33017734 -0.17211613 -0.050025374 0.24137136 0.38854045 -0.09860745 0.035778023 -0.02480925 -0.13397734 -0.098388165 0.17878632 0.030336777 -0.34784937 -0.3241011 -0.37485784 0.3517431 0.3289028 -0.19736558 ]
[0.13594681 0.30434084 8.006662e-05 -0.3260404 0.0936956 -0.16155925 0.13627665 -0.022126982 0.26023006 0.03201046 0.10132572 -0.16224171 -0.27861163 -0.2901386 -0.123380914 0.23912221 0.08411944 -0.13374878 0.17908627 0.11835288 ]
[ 0.04058956 0.05255756 -0.080710776 0.023804776 0.032371935 0.057918176 -0.08575309 -0.060323272 0.113170095 -0.098668545 0.118359655 -0.058055032 -0.08625249 0.073157 0.059553917 0.11429195 0.13534236 -0.012509264 -0.1040513 0.020630566 ]
layer 5 Activation
tanh
layer 6 Dense
20 1
[0.12086618 ]
[-0.23890689 ]
[-0.65002835 ]
[-0.57613593 ]
[0.6184898 ]
[0.075949356 ]
[-0.1789356 ]
[-0.2506605 ]
[0.5298825 ]
[-0.47346005 ]
[0.36332467 ]
[-0.53784347 ]
[-0.35183993 ]
[-0.30370906 ]
[0.2511576 ]
[0.35711172 ]
[0.14912601 ]
[0.37845957 ]
[-0.38776684 ]
[-0.50151557 ]
[ 0.13875747 ]
