layers 7
layer 0 Dense
24 20
[0.2864126 0.14149128 -0.18030062 0.025148105 -0.12281092 0.27265707 0.35998958 -0.023434805 0.34212184 -0.0077158296 -0.24861501 -0.2053873 0.18143143 0.1367413 -0.07457674 -0.0708828 0.050000276 -0.20718735 0.30355394 -0.35606438 ]
[-0.21302225 -0.10443934 -0.2074277 -0.48079303 -0.16198292 -0.12518038 0.27177608 0.045843817 0.031332273 -0.19827826 0.35855928 -0.1596916 -0.23016466 0.25087896 0.41936457 -0.34189945 -0.33811468 -0.11621095 0.27583876 0.08982473 ]
[-0.27170432 0.16494931 -0.24066518 -0.23592214 -0.33575124 -0.018142305 0.16055577 0.098840766 0.32812294 -0.23652951 0.09580941 0.31361413 -0.3361836 0.40445587 0.21220604 -0.08921201 -0.24791552 0.049740665 -0.18062244 0.34690753 ]
[-0.16391331 0.33331293 0.24797122 0.13212019 0.011248296 -0.36269164 0.38870108 0.20306149 0.1174118 0.25887218 0.02116197 -0.17877284 0.053480808 0.081396416 -0.23189145 0.329589 0.21525335 -0.34465504 0.12454138 -0.14777572 ]
[-0.32119483 0.32102162 -0.05845316 0.02759236 -0.07253188 -0.3367169 0.4294314 0.3112021 -0.45511618 0.15917021 -0.16467018 -0.19480065 -0.2524735 -0.3564293 0.31224945 -0.06377254 0.36030337 0.11875953 0.25188184 -0.38378182 ]
[0.31559986 -0.36025187 -0.15773086 0.33269584 0.20540877 0.08681528 -0.3424659 -0.47411412 0.3392438 0.15816717 0.29045096 -0.019725086 -0.39493364 0.26542312 -0.026994824 -0.1486334 0.10554221 0.19702289 0.09491277 -0.17537133 ]
[0.34745955 0.33604795 -0.31622928 0.44152248 -0.1327636 -0.029964162 0.24471378 0.19402206 -0.33007473 -0.19934507 -0.30863762 -0.3543834 -0.23440972 0.07012553 0.10099583 0.25031844 0.34808263 -0.072829954 -0.0040155565 0.10535037 ]
[0.28758052 -0.22099923 0.1445559 -0.2778003 -0.07887183 0.07630968 -0.11828119 0.25694844 0.4034669 -0.19320141 -0.3044748 -0.0989776 -0.28480902 0.19909485 0.13899755 -0.054784693 0.17841487 0.14742224 -0.20442624 0.3184225 ]
[0.19432513 -0.005540032 -0.23140338 0.20746954 -0.20871003 -0.23249216 0.29719055 -0.09008338 -0.2743987 -0.05679451 -0.11598696 0.2788102 -0.21707621 0.3681565 -0.4333815 -0.043861333 0.33830935 0.093207814 0.075060785 -0.24351338 ]
[0.35019708 0.20019801 -0.021441497 0.022692239 0.28739887 -0.42435345 0.23428991 -0.058929738 -0.050644554 -0.2367182 -0.10546398 0.36269242 -0.27151358 -0.2757774 -0.04219988 0.31846818 -0.29280692 0.08313372 0.14449991 -0.40191033 ]
[-0.37107533 -0.050282143 -0.14558783 0.19884993 -0.39382946 -0.09218183 0.00930745 -0.22534429 0.32342783 0.33879846 0.06187508 -0.53843385 -0.30895585 0.45055062 -0.11409466 -0.23275882 -0.07167586 0.13945496 -0.17722455 -0.34290916 ]
[0.20772989 0.5257808 0.14180908 -0.3788964 -0.10091877 -0.103522286 -0.10380965 -0.4073424 0.16475171 -0.08861732 0.26816896 0.17304583 0.19151443 0.21570021 -0.27682975 0.101508476 0.27786824 0.27988145 -0.26991647 0.0099002 ]
[0.45433977 -0.3157037 -0.21513796 0.28715423 0.033232573 -0.41000476 -0.1853206 0.23753627 0.35263082 0.1477401 0.3763935 0.4278944 0.20459048 0.38434592 0.38954324 -0.0963398 -0.052907277 0.1613318 0.4088587 -0.14334194 ]
[0.30077806 0.4515547 0.31598642 0.10236759 -0.2907233 0.4012391 0.2480078 0.30181155 0.068975866 0.26737958 0.10539477 -0.2685697 0.22786723 0.12647405 -0.27234674 -0.2420327 -0.09326436 -0.090615004 0.33886498 0.030520916 ]
[0.033260647 0.11104457 0.050756775 -0.17307442 -0.2683062 0.2029147 0.16953191 -0.20790946 0.09429165 -0.1572909 0.0044532614 0.2386774 -0.036847845 -0.35771927 -0.22372934 -0.026684426 0.32531255 -0.14591983 0.073587 -0.40097567 ]
[0.44951183 -0.18972136 0.3640998 0.033294406 0.4044223 -0.036422197 -0.36355937 -0.3945418 0.5195324 -0.25132403 -0.106811464 -0.09866561 -0.040901992 0.37019393 -0.17691953 -0.13299325 -0.06405528 0.2542363 -0.28647506 0.1302281 ]
[0.38286084 0.14555295 -0.111951604 -0.18140773 0.05755662 -0.100554526 -0.3738278 -0.22458285 -0.07639684 -0.21173728 -0.10053932 -0.010885365 0.25223565 -0.24063161 0.23588619 -0.31685317 0.3589255 -0.12169624 0.15703374 -0.24048343 ]
[0.059889104 -0.40925184 -0.05833085 0.18596856 0.019343153 0.048848186 -0.010856994 0.041878723 0.33992398 -0.089944184 -0.60504645 -0.006524597 0.06460167 -0.13970417 0.009837595 -0.0049644047 0.38767245 -0.33132112 -0.3331618 -0.21471237 ]
[0.51264733 -0.15406232 -0.28055626 -0.41972327 -0.35100237 0.18275955 -0.08209367 0.19940081 0.23672694 0.15190656 -0.32842666 -0.043767955 -0.11928669 -0.286576 0.059539735 -0.12944257 -0.24222706 0.08337785 0.17985037 0.36669993 ]
[0.29729578 0.18893977 -0.042824823 0.33264682 0.20471765 0.19565047 -0.28479183 0.35912684 0.15317549 0.26761788 0.16130702 0.43306756 0.18719155 0.27647558 0.13074444 -0.075691395 0.12654601 -0.067985766 -0.028894264 0.045852803 ]
[-0.2732941 -0.31126875 -0.031363502 0.35238558 0.3407436 0.15320721 0.5042996 0.014515195 0.0023447433 -0.25457305 -0.08924123 0.17292733 0.09100685 -0.12212667 -0.38131765 -0.24701649 -0.32888207 -0.27294493 -0.08566724 0.12533219 ]
[-0.2907488 -0.09648129 -0.37634322 0.37240776 0.35805342 -0.63297683 -0.29629546 0.29468524 -0.31608424 0.051298704 -0.14645883 -0.3325093 0.10270261 0.09641087 0.2847671 0.14378443 -0.11435195 0.0885526 -0.07706453 -0.28056565 ]
[-0.18976556 0.17633696 -0.20493819 -0.024345823 -0.1278807 0.025605442 0.19382289 0.15707852 -0.094992526 -0.18216188 0.53628856 0.43687177 0.10305606 -0.41725546 -0.270113 0.34160325 0.29425654 -0.12181345 -0.2022294 -0.23187378 ]
[-0.2827146 0.1518573 -0.20440137 0.207699 -0.21054246 -0.13825567 0.08690807 -0.23755848 0.34027025 -0.21650238 0.11155389 -0.14530893 -0.13675717 -0.3592762 -0.29232383 0.095841184 -0.1903991 0.23136485 0.20195827 0.22326872 ]
[ 0.056871247 -0.0018534755 0.08303152 -0.042845394 0.0021167644 -0.0011840714 0.007852101 -0.06796731 -0.030792845 -0.001108731 0.017333219 -0.0027580028 -0.03791141 0.07030174 0.008800802 -0.0030837767 0.04930998 -0.004661318 0.0026821299 0.043436024 ]
layer 1 Activation
tanh
layer 2 Dense
20 40
[0.0842709 0.022983976 0.08013959 0.2066955 -0.2029746 -0.04299544 0.086092845 0.21040753 0.3684332 -0.12280014 0.091852374 0.15662035 -0.21411736 -0.12097992 -0.37320545 -0.08632661 -0.21152207 0.25626817 -0.26850322 0.33995757 0.061527386 -0.0627621 0.21513215 -0.36009777 -0.025693567 0.05280917 0.21091433 0.24784635 -0.21632904 -0.061427824 0.23903306 -0.0008339993 0.1404425 0.20961167 0.15790407 -0.13962622 0.097605385 -0.3268996 -0.17020771 -0.17280106 ]
[-0.14998806 0.25234628 0.23392756 -0.10905413 -0.20264886 0.21891923 0.269991 -0.20370606 -0.009553248 -0.26353788 0.31912437 -0.19203036 -0.29768717 0.020248191 0.240411 0.26588717 -0.10916076 -0.14406668 -0.22477196 -0.2394462 -0.08422745 0.16796973 -0.28818452 0.017458744 -0.15047048 -0.27148458 0.18912435 -0.18035766 0.21259551 0.046406887 -0.06677441 -0.20875746 -0.20661168 -0.2524511 -0.06434447 0.03158114 -0.029830664 -0.21746841 0.19235939 -0.14785372 ]
[0.24246502 0.04767316 0.16521381 -0.14181599 0.14725901 0.23696339 -0.11148449 -0.29729712 0.2387501 -0.15742765 -0.12570792 -0.008887792 0.03821264 0.09541338 0.07396782 0.25465196 -0.12869504 -0.019746844 -0.06355924 0.063315436 0.10875805 -0.110252984 0.111335136 0.1477231 0.18978862 -0.22153358 0.058013845 -0.007875844 -0.06373945 -0.07278579 -0.19338174 -0.25268364 -0.28442916 0.07469102 0.3251732 0.2316862 0.17405364 -0.16972616 -0.19008532 -0.08039646 ]
[0.2944515 -0.27551922 -0.2438375 -0.2282948 0.27306256 -0.17917363 0.052521586 -0.18943779 -0.0017402201 0.22169748 -0.30824894 -0.21905595 0.05882554 -0.3870007 0.0030726127 -0.2653135 -0.24969946 -0.04112134 0.19014528 -0.29172152 0.013657086 0.1960664 -0.33097324 0.031375144 -0.1443685 0.038583938 0.24063614 -0.23202673 0.31793526 0.30249205 0.24851912 0.086077385 0.12070597 -0.0036993371 -0.05767409 0.3432305 0.12872584 0.003925168 -0.2679164 0.11870401 ]
[-0.30362594 0.29930004 -0.14641964 -0.16800097 -0.08894001 0.25354525 -0.08479631 -0.23046796 0.04231127 0.28009844 -0.30871788 -0.0029175999 0.068059765 0.17857794 -0.055849954 0.055413473 0.028132252 -0.032220222 0.13898687 0.23003839 0.12323336 0.21676894 -0.2097489 0.017265487 0.34558412 -0.038014 0.28981057 -0.2885637 0.06750397 -0.19442537 -0.29266807 0.063160375 -0.28095332 0.159322 0.028357668 -0.005999851 0.08876388 0.0840541 -0.29733026 -0.23444816 ]
[-0.17229742 -0.3026817 -0.27316466 -0.15953922 0.20967457 -0.2928159 -0.048501488 0.2612448 0.22601697 -0.2361899 -0.27522352 -0.16323496 0.05725374 0.3379584 0.18222763 -0.10255369 0.1502308 -0.22618572 0.33924198 -0.14983253 -0.07432463 -0.07662778 -0.27031133 0.42265165 -0.2446948 0.20922446 -0.11361195 0.37111282 0.14645498 -0.02382472 -0.050173998 -0.34034005 -0.0067712623 0.21715654 0.23810865 0.30453208 -0.12319126 0.0379603 0.30983078 0.112814955 ]
[0.037162907 0.008135794 -0.11568159 -0.073458634 0.22824273 0.046156187 0.17100777 0.24552388 0.031376187 0.2884779 -0.3387686 -0.2251085 -0.015470023 -0.23798275 -0.31082526 -0.44781402 -0.10918581 -0.22954498 -0.20413332 -0.32313067 0.25744128 0.14874522 0.106375545 -0.1719042 0.37980422 -0.27545217 0.1335394 -0.1951602 0.3017913 -0.1669062 0.12627178 0.118939705 -0.0027564054 -0.20187944 0.31595486 0.28690076 -0.46675164 0.06782968 -0.11647983 -0.18852307 ]
[-0.25786895 -0.022258334 -0.023622792 -0.24791133 -0.07637422 0.2771715 0.015788782 0.27980167 0.24065942 -0.008304093 0.2227128 -0.07374143 -0.15028587 0.15665403 0.034884706 -0.27585593 0.16457345 -0.073535584 0.15324536 -0.0401536 -0.0056679286 -0.047649253 -0.15226205 0.22975776 -0.28590912 0.04207691 -0.10308823 0.27234066 -0.276556 -0.06601949 0.0392682 -0.02762977 -0.045275435 0.049614582 -0.0880205 -0.23051552 0.11621836 0.30704346 -0.23118165 0.009258103 ]
[-0.2909686 -0.26407027 0.28489172 -0.24636166 -0.119734764 0.26111728 0.40822333 -0.101975225 0.20774063 -0.12937254 0.11666488 0.03349306 -0.26623502 -0.039038204 0.36331487 0.4160902 0.24524447 0.085668966 0.0037477696 0.26792297 -0.1169054 0.07232524 0.07223557 0.015535699 -0.23601247 -0.012407026 -0.079436034 -0.13702004 -0.011534261 0.23320511 0.3304493 -0.12878856 -0.20602143 0.21124738 0.01662196 0.10930171 0.13998769 0.10715797 -0.15255868 0.064602256 ]
[0.028558 0.26630756 -0.24509826 -0.01611031 -0.31135675 -0.18158455 -0.22374807 -0.055586454 0.29363388 -0.19262265 -0.039908025 0.24136055 -0.174946 -0.23376657 -0.065200046 -0.110470325 -0.16054247 0.22773613 -0.123997085 -0.093145564 -0.2508222 0.13266459 0.32023644 -0.00027421003 -0.23376238 -0.24275962 0.14311656 -0.095689185 -0.04516809 0.17418337 0.300836 0.12605143 -0.18464443 -0.033469826 0.21690626 0.2566865 -0.044325393 -0.16169493 -0.2606575 -0.075367585 ]
[0.044820335 -0.22794569 0.21645725 -0.18311767 0.23524714 0.14552528 -0.3662639 -0.021273598 0.23011829 0.032538302 0.36398217 0.12090569 -0.14892639 0.10063609 0.28142855 -0.24921025 -0.17669278 -0.32752925 -0.0012889765 -0.14070047 -0.19092715 0.19629817 0.053556427 -0.22038005 0.04466778 -0.25173816 -0.36665908 -0.12505318 0.029893795 0.100213505 -0.19983423 0.31614986 -0.21613061 0.33733752 0.053742617 0.06813002 -0.035605703 -0.0774162 -0.3682133 -0.077736594 ]
[-0.13528474 0.24804072 0.22208317 -0.120945945 -0.074218385 0.2818463 -0.011241632 0.23808204 0.06062307 0.1505304 -0.025903838 -0.34874192 -0.3227364 -0.10236835 -0.010482916 -0.20595999 -0.22192045 -0.11307564 0.04326717 0.038028624 0.0019316874 0.015326009 -0.1938984 -0.11013319 0.333188 0.29704484 -0.12722681 0.25042066 0.036798697 -0.4009348 -0.45400494 -0.12233168 0.052694112 -0.21944666 -0.22078621 -0.30880862 0.29021534 -0.16609277 -0.2370491 -0.06584094 ]
[0.042794224 0.2709503 -0.22861691 -0.18253638 0.08321487 -0.18314515 -0.19434054 0.20266706 -0.20227285 -0.26843917 0.079062425 0.16951677 0.29465672 -0.11629586 0.1596294 -0.18138093 0.30253187 0.12287865 0.24498545 -0.069735795 -0.15075289 -0.026812566 -0.20463404 0.12883164 0.26584336 0.26951203 0.29336786 0.017380256 0.24442829 0.04112154 0.30590948 -0.2206128 0.17038083 0.27806374 0.10265564 -0.20592289 0.06676085 -0.2748867 0.20239657 -0.14187177 ]
[-0.26354185 -0.42094517 -0.19274306 -0.010584595 0.0018807902 0.1916225 0.23705924 0.2572396 -0.34960166 -0.11003315 -0.06581807 0.30029622 0.19608316 -0.2951527 -0.020051166 0.04349631 -0.18452044 0.018496392 -0.44875202 -0.37515882 -0.07376578 0.2578225 0.1188697 0.18461385 -0.2287749 0.19239536 0.07812039 0.054336075 0.13967602 0.38165045 0.2801135 -0.023111058 0.1479425 -0.05254809 0.06887888 0.099027514 0.20377506 -0.2876332 -0.18555018 0.06717818 ]
[0.124364905 -0.0977327 -0.007362934 -0.13576235 -0.13437596 0.21364634 -0.25342846 -0.026548745 0.31263408 -0.1156341 0.07909721 0.21833767 -0.056914676 0.22079751 0.2038496 0.21969129 0.14869228 0.23572269 0.14600115 0.34639806 0.046521943 -0.05750285 -0.0163345 -0.1704683 -0.2459752 -0.04560159 -0.03397932 -0.34927055 -0.23111461 0.14274575 0.22377366 -0.2922646 0.12782475 -0.2661857 0.04074622 -0.30109605 0.253178 0.120388046 0.16339864 0.14501928 ]
[-0.31851456 -0.10943337 -0.20816648 -0.28619576 -0.011994858 0.065917805 -0.09280891 -0.10117052 -0.2198045 0.16071863 0.25921506 0.20251116 -0.1648304 -0.12944421 0.2083414 0.04994388 -0.30403498 -0.085745 0.2133647 -0.11488411 0.08590374 -0.06361326 0.23992272 -0.15612344 -0.112925194 0.02631356 -0.2963151 -0.20340241 -0.12417669 0.26643592 0.09995801 -0.07878018 0.040935125 0.2688398 -0.021124825 -0.18554217 0.17885315 -0.18959706 -0.27629384 -0.20814219 ]
[0.09863762 0.11799978 -0.28871274 -0.28942323 -0.043066755 -0.2428555 0.15514684 -0.019071693 -0.27017272 -0.19784322 0.2759732 -0.28034267 -0.07355111 -0.32995635 -0.17157818 -0.016819693 -0.013305587 0.23996054 -0.14893006 -0.16332668 0.030270964 0.015950888 -0.2889314 -0.19801237 -0.15413246 -0.08522989 -0.2358663 -0.32511768 -0.22058053 -0.16716975 -0.06236177 0.32669255 0.18518741 -0.049054645 0.30791274 0.16350357 -0.048048485 -0.22987288 -0.07694277 -0.29333586 ]
[-0.005920844 0.27557358 -0.04979918 0.3225332 -0.17846464 -0.2627314 -0.072373144 -0.2635349 0.031421367 0.22894344 0.0654537 -0.017997302 -0.35532653 0.023005132 0.32701853 0.3816554 0.115887664 0.18164633 0.2497052 -0.14262533 0.18040192 0.09662597 -0.070131324 0.22149952 0.1812477 0.26259303 -0.1903068 -0.3303943 -0.08086154 -0.23909359 -0.31295222 -0.06664562 -0.3597925 0.027513979 0.2859162 -0.04924003 0.04267986 -0.21649237 -0.09275345 0.16680293 ]
[-0.23932488 -0.06440754 0.18070138 0.013409016 0.26715466 0.21172015 0.03921866 0.05932735 0.22420618 -0.1142974 0.16861497 -0.13927707 0.040778507 -0.029444829 -0.2250774 -0.183555 0.22920652 -0.121747054 -0.2998287 0.2760234 -0.33867064 -0.18162617 0.048795275 -0.23023984 -0.26371965 0.20103364 -0.09218123 -0.17940149 -0.117339134 0.14671242 -0.20333378 -0.19445683 -0.0875271 -0.26934603 0.2496526 -0.088207096 -0.41572636 -0.25051028 -0.15781796 -0.03684034 ]
[-0.3259694 -0.062778056 -0.018173447 -0.021800535 0.2474157 -0.36253676 0.2408941 -0.28936574 -0.23375697 -0.3217134 -0.16720033 -0.32633248 0.26114222 0.30304277 0.044869788 -0.054396644 -0.19354105 0.27600625 -0.18283348 0.15526886 -0.25222623 0.20308615 0.31443727 0.030724285 -0.234891 -0.20745814 0.04841193 0.030306518 -0.22551095 -0.10166434 -0.12623957 0.13297659 -0.106055625 -0.28299803 0.1594958 0.06669676 0.03447551 0.32280195 0.14931941 -0.014747677 ]
[ -0.016810678 0.0194029 0.0077277794 -0.0010978838 0.003862888 0.060567383 0.0015974495 -0.015742213 0.019607395 -0.008957707 -0.026825413 0.13780361 0.04699042 0.008775419 0.05696254 0.0012369138 -0.01321848 0.03812644 -0.038021866 -0.0188678 0.03961622 -0.0063659255 0.0126767075 -0.024770124 -0.049991064 0.00741925 -0.008463936 -0.07105486 0.032766495 0.035600327 0.06548032 -0.0042979144 -0.0062350687 -0.0023748516 -0.053592097 0.0063462146 -0.07575252 -0.005276278 -0.010695589 0.0046902755 ]
layer 3 Activation
tanh
layer 4 Dense
40 20
[-0.15696752 0.08344104 0.13348925 -0.036091976 -0.13245618 -0.25880778 0.17877728 -0.15340273 -0.25620717 0.072824284 0.29446605 -0.24286886 0.031827122 -0.06387241 0.24621889 0.07050938 0.019333782 -0.25988877 0.35056216 0.032704383 ]
[-0.010924669 -0.22783701 0.18933736 0.2719053 0.24917512 0.28577593 0.082508996 0.16195202 0.03783335 -0.005033738 -0.29532424 -0.25296405 -0.25968358 0.20069309 -0.18119372 0.30942538 0.114467695 -0.006791346 0.13622233 0.15351179 ]
[-0.21312264 0.10913718 -0.07837188 0.17114963 -0.17139268 -0.32360154 -0.1485276 0.15090021 0.27707306 -0.07209644 -0.033317443 -0.15730265 -0.27289778 -0.13260154 -0.05084055 -0.07072607 -0.07377474 0.13542522 -0.062908664 -0.009170407 ]
[-0.107258335 0.09883144 -0.11757942 -0.1022002 -0.098900035 -0.1801604 0.20584702 0.14887927 -0.1311198 -0.15506113 0.10901798 0.17283966 -0.256271 0.10673307 0.0035717231 0.28038844 -0.28492093 -0.060336314 -0.0126659395 0.24193706 ]
[0.14745636 0.009804754 -0.14014572 -0.18831669 -0.26062316 0.046814717 0.15962622 0.042734254 0.12925577 -0.045716822 -0.24036027 0.109868 -0.08287106 0.07428122 -0.073337086 -0.1593266 0.21590994 0.22347039 0.24548654 -0.18937069 ]
[0.16844814 0.03917965 -0.043120828 0.22672266 -0.24769361 -0.12596557 -0.18139368 -0.06562184 -0.23029843 0.17505859 0.37000036 0.36395693 0.055584144 0.061498106 -0.18418609 0.33188522 0.4497052 0.00010590791 -0.21309458 -0.1848797 ]
[0.24589157 -0.37304944 -0.044941615 0.06930935 0.036597192 0.0957942 -0.26146463 0.30102825 0.10000163 -0.1962647 -0.07776765 0.1585923 0.23018254 0.18508185 0.2083094 -0.09623726 0.12556608 0.13331003 0.07698196 0.20864978 ]
[0.06748396 -0.34851837 0.18585382 0.15007204 -0.028981764 0.22417095 0.13378331 0.3160342 -0.07684599 0.32270688 0.3525331 -0.20253666 0.18170182 -0.15958232 0.035106238 0.20116499 -0.07578326 -0.099442326 -0.15611379 0.078096576 ]
[-0.31604216 -0.40862885 -0.083936736 0.16295068 0.13019256 -0.2465463 0.21454377 -0.030289754 -0.055586 -0.0240426 -0.079593115 -0.17196606 -0.30886602 0.16325076 -0.0076281186 0.24483344 0.32590422 0.27561837 -0.3786289 -0.21875596 ]
[-0.11435564 0.006213002 0.17113574 -0.020697925 -0.1888438 0.3348513 -0.1016279 -0.023323342 0.005183058 -0.16459689 -0.20255913 0.04891029 -0.10191105 -0.010416493 0.2891334 0.06628618 -0.06885935 0.11055821 -0.0036899406 -0.25853628 ]
[0.2659386 -0.11610381 -0.124450006 0.3348847 -0.05648851 -0.23909931 -0.06524013 0.16625084 -0.060797438 0.1085127 -0.041541558 0.25372502 -0.009191184 -0.049627908 -0.20445684 0.23005912 -0.10905335 -0.10263319 -0.04785843 0.1876791 ]
[-0.2300034 -0.04749761 -0.2596258 0.25712684 0.2829992 0.09834047 0.19286346 0.20609166 0.34624347 -0.017699197 0.16140832 0.14069004 0.1414449 0.07910547 0.016992383 -0.05445832 -0.058097877 -0.10105566 -0.214334 -0.041356787 ]
[0.121991605 0.026116267 0.26093823 0.062016737 0.05921454 0.1284682 -0.108035 -0.30607313 -0.048132412 0.15163404 -0.293639 -0.03434528 -0.14176062 0.14558084 0.13900428 -0.21410966 -0.31888857 0.08632169 0.110005885 -0.07732866 ]
[-0.12375908 -0.25057703 0.19420621 0.16646078 0.1612137 -0.31809115 0.3049059 -0.2765118 0.046635684 0.3220404 -0.14530726 -0.27024338 0.286398 0.14996542 -0.089716695 0.0330719 -0.34252736 0.14170977 -0.16781533 -0.028550811 ]
[0.16823637 0.42474195 -0.15098916 -0.0833134 -0.08810861 -0.16627204 0.006362816 -0.026484895 -0.06453601 -0.07755672 -0.20842317 0.35339788 -0.07009691 -0.16965629 -0.24692047 -0.07427337 -0.10973473 -0.112705156 -0.2668013 0.3955191 ]
[0.18472667 0.10357071 0.078562245 0.22377244 -0.20541278 0.13328157 -0.015671106 -0.12972273 0.37482977 0.05817028 -0.09323543 0.18398832 0.16933508 0.2613687 -0.15386789 -0.014693109 -0.14249024 0.21022233 -0.10501446 0.34678653 ]
[0.010595963 0.2389832 -0.0640685 -0.11222703 0.16624701 0.20661063 0.26437598 0.16693883 0.16135442 0.18640251 0.0901324 -0.27373946 -0.2768425 -0.32037896 0.19195719 -0.087404504 -0.1447077 0.16936396 0.20697938 0.17399491 ]
[-0.021262143 -0.082663186 -0.34858105 0.07986901 0.20919469 0.24686721 -0.08481333 0.12647073 -0.24374284 0.13012819 0.13213244 0.12558635 0.0021610556 0.28600356 -0.2608167 0.06831968 0.15317944 0.26124093 -0.06306057 -0.18991105 ]
[-0.071706325 -0.13842715 0.15124983 -0.4091163 -0.06470172 0.11155603 0.069294356 -0.031732865 0.12695347 0.22391517 -0.29430646 -0.20732267 0.27230015 0.09742623 -0.2244993 -0.24417041 -0.3851167 -0.17330024 0.35389543 0.011755012 ]
[0.19788957 -0.2601956 0.21110885 0.29604796 0.3345288 -0.028088717 -0.028946554 0.2842782 0.20009737 0.20390427 -0.13769564 -0.2662574 0.1288707 0.055865526 -0.06791693 -0.01013885 -0.1425645 0.0030521604 0.16243014 -0.09758166 ]
[-0.22703199 0.26970598 0.2269884 -0.1958747 -0.32909164 0.28740367 -0.14378841 -0.2323376 0.028903782 0.08997684 -0.32354403 0.25156516 0.160867 0.23630594 0.20214827 0.1095479 0.08712344 0.2121602 0.06382024 0.26740068 ]
[-0.23292951 0.23637159 0.24761245 0.21104154 0.008007088 -0.1919282 -0.09488815 -0.07494669 0.16503315 -0.22190985 -0.037687488 -0.0016401958 -0.20809174 -0.15737848 0.34675097 -0.22552167 -0.26855272 -0.04253196 -0.023548024 0.13678025 ]
[0.18465266 -0.044384286 -0.12083203 0.23797739 -0.30870053 0.23098148 0.2729566 0.026190817 -0.1714561 0.1176087 0.040021196 -0.014936939 0.047421698 0.16833499 0.33878362 0.18396741 -0.29119694 0.110565856 0.15932986 0.11858161 ]
[0.073307656 -0.19094695 0.34039563 -0.08043134 0.1914837 -0.09366832 0.30770278 -0.20952594 0.16898845 -0.321783 -0.3387638 0.1709046 0.33767512 -0.25809282 -0.008991453 -0.0328554 -0.13277915 0.32551023 0.005958694 -0.1630656 ]
[0.17225748 -0.14366809 0.13699302 -0.25716892 -0.4162971 -0.13062425 0.33042192 0.07822104 0.029182078 0.29472607 0.27206764 -0.15154749 0.27504584 0.17690119 0.040956177 -0.06335042 -0.32273865 -0.31099105 0.29822412 -0.15438719 ]
[0.12116434 0.030455023 0.025002493 0.04263052 0.18001665 0.13444556 0.02962735 0.15570839 0.038283497 -0.010969962 -0.024146007 -0.08587765 0.28166753 -0.027093537 -0.047843367 -0.03018887 -0.3699299 0.24585746 -0.34146297 0.17459027 ]
[0.075428925 -0.28372797 0.11451506 0.15511516 0.30248976 0.26838592 -0.049925514 0.027439244 -0.04854224 0.15758888 0.3207461 -0.26451486 -0.2262127 -0.21000025 0.0768296 -0.08805423 -0.025226898 0.22494501 -0.12860359 -0.19317023 ]
[-0.24566065 -0.31964642 0.09034948 0.09353016 0.27657273 -0.2846539 0.03491832 0.13328819 -0.13808408 -0.14460878 -0.30525595 -0.06974713 0.15129009 -0.26975197 0.20146164 -0.21053998 -0.038808625 0.25813696 0.14792638 0.31548375 ]
[-0.08937249 -0.14365582 -0.06154091 0.13463774 -0.23603106 -0.0009535699 0.16583608 0.079414755 -0.11374088 0.18584824 -0.040094387 0.36691365 -0.11303042 0.16684906 0.20470218 0.3034979 0.15805267 -0.25874445 0.35105976 -0.06640613 ]
[-0.14326638 0.062215436 -0.03182553 0.15505451 0.2630719 0.10476299 0.04534037 -0.090240404 -0.21923152 0.22269498 0.07198257 0.26156437 -0.09958517 0.0868312 0.08689968 -0.14035578 0.13280246 0.19840576 -0.23653364 0.07582203 ]
[0.055367492 0.29003236 -0.21060736 0.2807479 0.20488434 -0.19422854 -0.13326155 0.25785467 -0.043256763 -0.31432095 -0.23804101 0.313549 0.116910174 -0.07766301 0.2387929 0.1400922 0.10847799 0.09343739 0.1100591 -0.25690597 ]
[-0.022606175 0.16684152 0.23782891 -0.08281284 -0.29344398 0.30584455 -0.12928547 -0.023823278 0.14211005 -0.07750606 0.08180518 0.2315982 0.15885463 -0.28070375 -0.1480324 0.07046846 -0.024422627 -0.1275864 0.2790075 0.22846277 ]
[-0.079973996 -0.113562256 0.30640632 -0.15996933 0.30701956 -0.12533529 -0.01499702 0.09756304 -0.2430133 0.08144128 -0.2566667 -0.032635614 0.07363976 -0.0053599286 0.19313668 -0.098717704 -0.116941735 0.18560939 -0.18171988 -0.2414671 ]
[-0.326981 0.009101014 -0.1051411 -0.23001161 -0.007381444 -0.024769483 0.007636228 -0.15571964 0.25497898 -0.17957442 0.14408013 0.17328529 0.018763961 0.031930733 0.031703364 -0.31433147 -0.069715984 -0.18594322 -0.3368584 0.11917389 ]
[0.09538075 -0.052190043 0.13221353 0.13282719 -0.285673 -0.26326057 0.29690823 -0.3210512 -0.27297208 -0.17755522 -0.12543026 0.2633936 -0.18322282 -0.31160337 -0.09522934 0.09895877 0.11528818 0.21659493 0.12074035 0.17734806 ]
[-0.24743621 -0.26393914 0.2924273 0.015214651 0.17098586 0.26321176 -0.20249765 -0.10034278 -0.17181991 -0.13721001 -0.2709443 0.3864245 -0.06437694 -0.04140499 0.34703317 -0.28247902 0.014849679 -0.15485632 -0.092907056 0.11931166 ]
[0.15060577 0.36440098 -0.1714327 0.07844032 0.03694858 0.018161383 0.17229153 0.3315199 -0.12151849 0.24052416 -0.07581604 -0.08287802 0.19471169 -0.19047102 -0.20252319 -0.11096131 0.056714274 -0.27388257 0.23058438 0.29593563 ]
[-0.016514914 0.13882005 -0.28875187 0.06207523 -0.10071825 0.26624486 -0.2263518 0.1625216 0.098167025 0.19381987 0.18329228 -0.34846115 0.3443574 -0.10446344 -0.06349746 0.1582744 -0.27915916 -0.27595758 0.2047522 0.17061146 ]
[0.04590478 -0.12128632 0.17947225 -0.31196663 0.13071305 -0.0065049883 0.27702105 -0.17225322 -0.089908116 -0.27777955 -0.28567582 0.12567286 0.09175068 -0.25920594 -0.2373819 -0.09494882 -0.320388 0.12464993 -0.17951249 -0.26048228 ]
[0.21203618 0.2792571 0.0993694 0.098685235 -0.19873032 -0.25360644 -0.22171195 0.24768136 0.15584701 0.13248058 0.082982965 0.22246294 0.030489534 -0.13180906 0.2663331 -0.36570844 -0.04602791 -0.03432017 -0.019161705 0.11574353 ]
[ 0.0021581599 0.03869842 -0.0015919614 0.024001978 0.024936989 0.0006336124 -0.006650228 -0.003304896 0.024993638 -0.017690333 0.0054997196 0.0322446 -0.026790615 0.01832822 -0.016260987 0.027958198 0.035749495 -0.009172532 -0.0059027667 -0.0031612245 ]
layer 5 Activation
tanh
layer 6 Dense
20 1
[0.11964418 ]
[0.29837695 ]
[0.15240607 ]
[-0.24215813 ]
[0.4686682 ]
[-0.39434364 ]
[-0.04353658 ]
[0.073284104 ]
[0.1401255 ]
[-0.01038278 ]
[0.21413471 ]
[0.3579123 ]
[-0.22626913 ]
[0.3007369 ]
[-0.3675625 ]
[0.058297586 ]
[0.10014935 ]
[0.08499025 ]
[0.2156915 ]
[0.19878833 ]
[ 0.021508671 ]
