layers 7
layer 0 Dense
24 20
[0.22281202125594074 0.20707151749949632 0.07174589391647442 -0.4019869046162331 0.1277672153735063 -0.2901812640167294 0.23267120531025595 0.16841630530538568 0.19935931285262445 0.27741662886420076 0.27014650652018307 0.11269334636269268 -0.3386716652653554 -0.1308274320304346 -0.07199668180642121 -0.03667356717872848 0.18583177935283066 -0.358741062314367 -0.17738178242528457 0.07412173887784775 ]
[0.08915099271699742 0.1611855000059771 -0.1571716877226444 0.06208559437504741 0.33023474035393724 0.06719529139638376 -0.27106266224847686 0.19997592774286185 -0.09926135338000996 -0.3293205620575691 -0.15835829320057118 -0.2616381383223726 0.17137577009381186 0.2821489468048281 -0.026669773537184957 -0.1794197095421234 -0.17339739332982423 -0.1944147419098469 -0.2628136808245088 -0.4064860732844794 ]
[-0.04286623497681497 0.23307447835661632 -0.24802097365919984 -0.2381991376512705 0.10093839745807297 -0.4001397100552807 -0.04805977872210068 0.3227213346090311 -0.07710450157476517 0.058941656017874405 0.1322294697426407 0.030778944654589642 0.04517613320046664 0.1741101896392354 0.10736259428878585 -0.03670673221222296 -0.3149489695024573 -0.22397927068122642 -0.24716614252609204 -0.4260870619979987 ]
[0.312895353537176 0.4257569232735076 -0.38185449364338325 -0.3715771435140561 -0.1267954297107372 -0.1034949612016332 -0.12789547988499245 0.0741890894593244 -0.24364964084975127 -0.1274920750670851 -0.23303813420172712 -0.2617622903815988 -0.4199719186860191 0.30793683358504376 -0.16497881503017 -0.16372516151283772 0.22317761315358942 -0.0914067260039788 -0.17834100787734625 0.12984803190110988 ]
[-0.03005924771510606 0.357712613775632 0.03328655449121364 -0.5700817427865944 -0.25971530518616714 0.11856407300125678 0.3057124240509644 -0.10175220481294629 0.27040370788141765 -0.06421625868737871 0.3398409230594008 -0.1593290534476809 -0.7338122947453186 0.20165015258040064 0.33015098341568944 0.42274863506181454 -0.30981082337764687 0.19806547475262104 0.15590669100962448 0.3965141705304022 ]
[-0.3268110585777802 0.171239255587893 0.3924095166035774 0.34219863975373077 -0.1958971222891477 0.13422024746125463 0.005418786497185578 -0.3173172839270795 0.17768199028766415 0.03337720463679503 0.19292758826929188 0.02260835013819811 0.3101075578702226 0.06650671936522137 -0.1277972512089607 0.3257045084946585 0.6964964105306923 -0.3595701986918482 -0.07828927668406307 0.23883009627627927 ]
[-0.3049371484897001 0.3629092837330533 -0.23357014387316635 0.27781447888569416 0.03460352757913767 0.1745985169294702 -0.17626235018521247 -0.0797246586272329 -0.25669317703086164 -0.30341600159946025 -0.17431733021354004 -0.2114738809455718 0.11021651672829269 0.05894940864790777 -0.33185832753968025 -0.004413230450690077 0.7026392546520804 0.17265572250286848 -0.1282056010521488 -0.15962097914144877 ]
[-0.09232949918191523 0.18276789461690512 -0.10001375827484923 0.3914480911298479 -0.22963131536368986 0.010685268775627983 0.3289480522899904 0.02344762861282368 0.2466678831746331 -0.3541860464570262 -0.3187325230410733 -0.06774223643453144 0.22858458405327847 -0.2971524977257845 0.0005455662519098495 0.17297557820667106 -0.1824881865615767 -0.0932185795345834 0.0469793232837485 -0.33928457730367434 ]
[-0.2782653132318092 0.10517843191982136 0.006785046045535821 0.22266255325116666 -0.8096099668828816 0.21305408060443598 -0.09375443648296411 0.5156500795673372 -0.2306611511274443 0.3261255728537888 -0.040846851344903116 -0.42467576582187844 -0.2653113302846386 0.15965028687767605 0.1370016824683266 -0.1651460527599639 0.31798813905316037 -0.08743567523228421 -0.15784464088530592 0.2870091152837597 ]
[-0.004166736921035314 -0.12196180398365711 0.11519661330209723 0.1368299686793661 0.013928009237769769 -0.3883131009219212 0.17585999882776054 0.03404603209709596 -0.40109387600167 0.2779329380211669 0.1757482921304619 -0.3663539778672825 0.0961005693957661 -0.26994872868104464 -0.2565440063891231 -0.3277264601428996 0.1814189427943373 0.03896484476444391 -0.47307749237896035 0.47378334220297935 ]
[0.04554400833007403 -0.20017072172496844 0.2188835188854333 -0.28520973565915786 -0.2353771609216357 -0.052385665198439506 0.08172620456294569 -0.18337658398670173 0.23675687697566933 0.14619643264571416 -0.1750117503642316 -0.13560776411494688 -0.23733426416459227 -0.0074095943651393496 -0.26029780012069226 -0.3793417145453355 0.19408744023828872 -0.09836879604391928 -0.2827025078565848 -0.18925261795777648 ]
[-0.16391665413076295 -0.42946779819691155 -0.12288012516175022 0.28011701078997353 0.006116284026901108 0.12090913775885 0.3992599497695643 0.6067637078478194 -0.27645410876697113 0.1771322595279619 0.14663983350162801 -0.5235588680978887 0.2084869132395532 0.46622211562515803 -0.43352190772879284 -0.6194480594030076 0.2990220867682764 -0.002787829564714302 0.22220645853975363 -0.8676370888428264 ]
[0.8741335182622914 -0.012674532530136793 -0.047544698863025356 0.1974693386829346 0.4276034486580816 0.4056506471086057 -0.009549436081171698 -0.2851092467769536 0.12305278902324604 0.5088053490481911 -0.3199155966168923 -0.013388150846623887 0.33001032560830645 -0.012862632038972298 -0.07833484124997284 -0.1414475026642674 0.47974333693816285 -0.31432392729437747 0.07869345862968641 0.022347573107085735 ]
[0.24734442347415525 0.1040629180801767 -0.1906943015387257 0.23171075977653205 0.5153358417320809 0.0965153738021765 0.13936546325908103 0.19608907987084476 0.06584517589590347 -0.4976696080421349 0.15700766627401838 0.29807108930016324 0.04683364338944818 0.24223100041645315 -0.04197985199258823 0.43466891904680316 -0.4472338014777717 -0.07333752942387403 0.1638212531121194 0.18874146712670775 ]
[-0.13520238916057245 0.4649246111494745 0.07889655444624379 -0.008769869921575735 -0.17147893336021788 0.062212320445781046 0.24116720141767126 0.27983950540128544 0.26403083328673804 0.1353392408205884 0.2684950690921411 0.3045123221141486 0.06575694591468857 -0.17010091873216382 -0.2718023521975096 -0.006225418992450202 -0.23516798751572615 -0.39279996245003135 -0.13392414438644223 0.1573553434601366 ]
[1.0044672260129572 -0.47423864219335576 -0.14178861221759495 0.4486260679531437 0.38732145855177913 -0.38085519085722064 -0.17786621886719312 0.20530700907365232 0.06985778883315201 0.5639145795247542 -0.24400618861623333 0.06811158096283698 0.29364831451172235 0.016626080114157435 -0.22806771301280798 -0.5733036805244556 -0.13393456540973545 -0.34370312343740844 -0.08776901506758468 -0.31766338722119764 ]
[0.4261199595530079 0.22461801230403725 0.4043373934569746 0.13406912283299538 -0.1746970267141431 0.3981935543334178 0.3017688964384471 0.29446599069582635 -0.17342802545373728 0.183939003838216 0.05984770750931749 -0.10269142982815821 -0.19034818183863136 0.10180668574285379 0.0027282015436082413 -0.2892664839107237 0.14550100266872487 0.1350765215352897 0.18514291048858514 -0.3597140151063607 ]
[-0.338290667906469 -0.2591120448033086 -0.09419403933588683 0.3544082716637368 -0.31105984701677203 -0.04099277888648463 0.27400364719506626 -0.5224842489037431 -0.03559977060671598 -0.005125491651217723 0.12122744649607986 0.27919451318941024 -0.3954248913261224 0.14173615151234006 0.3016677562576065 -0.27025359921532865 0.5829518065888978 0.10690151105919228 0.45156139277432233 -0.31416399317225946 ]
[-0.278051613106615 -0.2724230049237334 0.29874781785775034 -0.12123660013304254 0.05615190498200626 0.1373261131382362 -0.8623838775710387 0.09906996792040293 -0.2910079019119425 0.2984717998073672 -0.0987596594791551 -0.5491102635725358 -0.3551271921298567 -0.7706092942203747 -0.12781647187702566 -0.35382076609564594 -0.541458819359877 0.26187256246118096 0.4097583699137348 0.4112279409060788 ]
[-0.07484632688243997 -0.1517392253275166 0.4300756128151711 -0.822093218541378 0.045933489230262324 -0.26870341786882784 0.13768093238243356 0.07240111308925634 0.0945299066248584 0.06743706319983489 -0.2890787784690953 0.02620376574034957 -0.4376082031000957 -0.33766824256093236 -0.32057425597319966 -0.28571200519222034 -0.10921345444127302 -0.25305240180347804 -0.1529950777061288 0.26619179704948237 ]
[-0.24754873924243884 -0.021056370793608562 -0.5169513128067244 -0.4404529170416503 -0.22253823151401722 -0.5252937714448292 -0.40242208088776804 -0.23483520912656797 0.15124052014412862 0.04306915696939659 -0.18035167811122907 -0.03892138394629757 -0.5427596290210149 -0.3461850746230623 -0.3068297494522092 0.05216509911632809 0.18275547200376321 -0.11218777670007216 -0.17884585032905337 0.10017052936484747 ]
[0.19992253882088465 0.32707697491506726 0.1503613438303929 0.04411361461424221 0.16362781285042702 -0.1851055616301286 0.04896421229297224 0.1234199827873153 -0.13513955460705046 -0.2290604820084244 -0.13850202767959138 0.3104639083952388 -0.04502991755239332 0.05127167219230762 0.2780313556945646 0.2788710875251253 -0.023947836720101184 -0.02296964742230678 0.4293666746632286 0.22128705427002698 ]
[0.37103539421681503 0.07661757173421013 0.20329496150661316 -0.1860320504101023 -0.06335850468383153 -0.1598225997155142 0.13721881031396954 0.23849725798625462 -0.31543809900749537 -0.06913387846963777 0.40112598227450863 0.08869373793115355 -0.2520652566838327 0.07804135437231083 0.21544500652339782 0.08383370291382893 -0.04879285303844812 0.002515315119821111 -0.24640753579574345 0.3713624156465869 ]
[-0.08281853392949792 -0.007141885463117863 0.3739458143241618 0.1811474336690872 0.36535050500407046 -0.21824829154550165 0.20992430078797958 -0.1948826680495731 0.12536223084547446 0.04803409873701989 -0.30757856713995174 -0.2902385717897768 0.48372715194227195 -0.028669071479622367 0.1053095356016067 0.2981429702042502 -0.10217582649063045 0.1051459809615907 -0.23734981012141537 -0.4952962699923216 ]
[ -0.09817899785486726 0.10177915780640497 -0.04601698937934886 -0.005067898049908522 -0.0242447372049913 -0.02151203597620767 -0.004578535919450809 0.009340974702901532 0.005880534254082552 -0.010969439904244666 0.0017795555957758405 -0.020029716809397406 -0.03448794799238185 0.005179628617377644 0.03392247848063427 0.030215933814456978 0.01731898072660814 -2.8914579531227072e-05 0.005678264628485632 -0.011362758050467018 ]
layer 1 Activation
tanh
layer 2 Dense
20 40
[0.28230339986898906 -0.04833920566562297 -0.3157695638129806 0.01867073362099592 0.15866110964121238 0.1389120455266057 -0.24329233583423546 -0.23102566581218587 0.204489485862625 0.3044601723328839 0.08723897954832313 -0.07810539601854483 -0.12258807674667811 0.26565649146786735 0.16738697031687108 -0.09421827925250777 -0.09146116409366183 0.02739284351940094 0.2423320049953222 0.08349690781815677 -0.215408613967632 -0.24208418083514302 -0.24210466650646673 0.12211647075222602 0.24547249743473354 0.09384977317493491 -0.24182600514790986 -0.00673911265806007 -0.06695383446961138 0.19156677304621011 -0.23192677611448087 0.3070743682352449 0.05327470320998626 -0.07882339588102413 -0.1634346207685009 -0.2724456313018154 0.12330416999869143 0.2661002993321475 0.12728254500448993 0.04143418273422086 ]
[-0.09379880287141575 -0.20206925079218405 0.24971399882693193 -0.04213112922744887 -0.12967446226791382 0.3074998675330196 0.20739351060901312 0.2558871122450094 -0.12667501109460944 0.3103611812055648 0.28473455511703283 -0.19972987969151404 -0.17739911590554702 -0.3576143167809932 -0.04122912794958437 -0.06895251030448325 0.12139720636875943 0.17005532322638992 0.019641428886127313 -0.12345621197909817 -0.08643268907989912 -0.01705011619780737 0.21687621157382245 -0.13359904550971233 0.14971160847761075 0.011914871354950419 0.13912208595483166 -0.08900534311202084 0.08748395354738353 0.06220413106208507 0.08381713679038129 -0.21832505594690277 -0.1389118779542478 -0.0371316466782357 -0.17398898340333682 0.437063239657525 0.08808102241462373 0.36382657690709375 -0.020993551229857146 -0.08755468019892282 ]
[0.07340223245895061 -0.0744836934863417 0.2581040212756788 -0.03681739731850431 -0.022981961872732402 -0.228700065668471 0.04586935623416954 0.2301107381979673 0.4298161298485099 -0.20894894616936538 -0.02211357104358297 -0.16569336169303436 0.08197351532827546 0.41984073686344936 0.11872389752418905 -0.042163933597705636 -0.16653720745115058 -0.259107763302821 -0.29671505824469313 0.08219129208094118 0.36677379986178216 0.49110859887998437 -0.13506585548115937 -0.003573856358813159 -0.11621003093171861 -0.13931727236537322 -0.131037585303881 -0.10019588184473827 -0.17375828508114308 -0.21375769644682466 0.16422876968734165 0.010657105964086273 -0.02740453264884426 0.06904505663323893 -0.27704178106662414 -0.3084597720104527 0.25689722371394497 0.33080425555596343 0.04764503522831764 -0.05173131339540328 ]
[0.25811314517880773 -0.12968968727524668 0.015175075883603914 -0.18689947897808107 -0.10808630801527148 0.22772040209675798 0.05276026741028938 -0.22856779944040764 0.23887541684315364 -0.30615288677536706 0.03882691603312302 -0.4301187558653156 0.2801442856580794 -0.021650359401485235 -0.05860253076721608 0.23630201177851654 0.1442668073561518 0.24459726320763153 0.049421046831230234 0.29779565867318486 0.22254401512515257 0.5491905698350862 -0.3534038711307792 0.2673855452498594 0.3221964980784611 0.05485309561112797 0.12190945258503233 0.4792220708007218 -0.1992829453133932 0.15047778181384477 0.3177473084943051 0.18072432678981656 -0.2827584230167894 -0.10901348192002239 -0.3207430139518495 -0.06365832150687066 -0.2877655745049571 0.31348360212346216 -0.20363838381159957 0.1942096210903312 ]
[0.2167299127141052 -0.1367722198844355 0.011383408664771924 -0.2757647964294717 -0.1977439589793483 -0.0974595663752378 -0.1335375452469741 -0.32899307684187645 0.15551786220826225 -0.15970491621706276 0.23979831468928545 0.32631757461870475 0.1822121710360476 0.03999641482289091 0.32534668975004316 -0.020368312017429367 -0.13881082943771444 0.058527907780798166 -0.2812692069417603 0.004803301235664549 0.257884424996369 -0.35610318243203026 -0.34813174754273135 0.1105452317336055 0.15545796682988114 -0.15957894140391357 -0.06389498035746223 -0.10049396088525277 0.0970344764902783 0.11064527522747011 -0.16016942080312188 -0.18951208389621402 -0.2232168895289011 -0.21902946382146818 0.05816789213072731 -0.2346123144368476 0.1146702293009115 -0.023632239944970636 -0.1257474398235051 -0.29480446262320775 ]
[0.23266210827711553 0.3127162522529942 -0.15892387539410563 -0.16139770682893237 -0.12016778733430288 0.26939037250124725 -0.02065029287415136 -0.26794934030757944 0.26534858591705557 -0.04989726554100678 -0.18790837163199733 0.16871762127418127 0.11309538053584901 0.4114530267985262 0.30107349659222155 0.2275289751248967 0.043298911466128256 -0.11413447829153674 0.11374845218412286 0.15794924215894826 0.02489674602265531 0.4261200335366603 -0.28633694996438946 -0.08687078001922427 0.26770160575701846 0.33441311065274637 0.20817658247860485 -0.08162775913811755 0.041727492702743986 -0.15886076318923822 -0.03409335044321737 0.06717519043952214 0.00427636208320423 0.01301143415502694 -0.24992138410139514 0.10416480539126155 -0.11357443086474821 0.7871814654247761 0.09039252572717778 0.22482353875745612 ]
[0.019646551029224458 0.20040855001844396 -0.10326557260909999 0.04803189232701976 0.4448439697110467 0.21612746086954218 -0.02163074892822689 0.13718648337322636 -0.1601611300020648 0.4500322515670599 0.08269395941006967 -0.19554061234749723 0.04969142981801958 0.44528056843314767 -0.02495131672620609 0.17494848956127323 0.25055548760992613 -0.27802974000318137 -0.34551989823364604 0.3580579894828844 0.09250579079798388 0.4810355644468206 0.2022051987851502 0.25288658215728904 -0.28986630282902864 -0.1758474147161019 -0.036069180193954324 0.21359829124099675 -0.19895509712626988 -0.10677620829538764 -0.10899951024431585 0.07146259885946113 0.09864058364013177 -0.23484924124311257 -0.38956449311345226 0.0894020070459399 0.17659136258359162 0.0482407718729689 0.32298578992069454 0.06742537752957861 ]
[-0.30034788618613895 0.11437873567330419 0.14369084335860166 0.11618016439319341 -0.02753402732113109 0.24161121911884748 -0.32510040466929857 -0.0820183850877459 0.3972435536498484 -0.06444639764283497 -0.22920447003701958 0.09962055812232767 0.09900541133820089 -0.2173571554165598 0.24109274908640463 0.11560693428955941 0.21156963601155723 0.00898159768151467 -0.2659665250456715 0.32235386090983387 -0.12283727140767567 -0.050537049481325674 0.2499826945202384 -0.01116237282790031 -0.04363849620437394 0.10741725929543004 0.15067098457165656 0.1790456630570186 0.1572001967718329 -0.05985876385304289 0.2340776622721045 0.2565667501636483 -0.01637689390051665 -0.31920973580686 0.02935975970635681 -0.27925512545472675 -0.12661051723345104 0.5823121180055117 -0.20231238844199312 -0.20601087601510978 ]
[0.2413147086789308 -0.3609080715656518 0.06737661549083074 -0.10187176274242372 -0.023613715737583425 0.07388647648511892 -0.054512607417095835 -0.3395616159380076 -0.07635140934643174 -0.06928323765452803 0.0636070188279259 0.040393754013250904 0.03274366942845437 -0.2785783952662 -0.18142529459578033 0.045129138028872695 -0.2588750343555706 0.2667348018415445 -0.05464829472787116 -0.16947566972790326 0.09688759261153218 -0.3381328464361933 -0.10348860831163201 -0.016081497516969162 0.022829529728891653 0.048723809660044116 -0.10937768058158757 0.22376986735416748 -0.09639962361872086 0.20544792508944476 0.07212157735232406 0.10203083398316613 0.40760399982670564 -0.1286223663621441 0.2753985990937671 0.2157577777181278 -0.0782756617908552 -0.1232245727276569 0.09486814205704369 -0.039573233008416364 ]
[0.23600847568540975 -0.05143774415449085 -0.2893475900964061 0.15884516271414953 0.6304017506108252 0.008305177878230879 -0.10267498113945744 -0.0536923094430387 -0.15718633837009396 0.06668740018864669 0.1833580097477344 -0.29627218449657655 -0.08755426469349724 -0.07007985847817073 -0.06888415337546958 0.02835720526746305 -0.028639387804962356 0.003929137397526903 -0.4447540046960234 -0.16340051976508344 0.023650985129367894 0.4051750871691055 -0.2907638057933886 0.19769374298999132 -0.0995033709590916 0.2165563297555862 0.2728082808100283 -0.30075194538932654 -0.10386649869241228 0.24517167060702275 0.25862468654441095 0.030608626457211675 -0.26689554046914243 0.22339003229812757 0.16988300802518286 -0.48038912422449986 -0.31160137934910537 -0.3791859263792858 0.023025595737714375 0.16251681212109897 ]
[0.21103124403029738 0.2155166707745644 0.36300948108540415 -0.1404204285323132 -0.21452928033431198 0.3142328222938189 0.3501700484344332 0.27262047688062385 0.06614163717242692 0.19937054292601025 -0.08503694717073453 -0.20058928919456293 -0.17355050839839148 -0.09276543097732765 0.3512243205842171 -0.11334570008080687 0.05427139033727665 -0.17637393764788503 0.20118024444599558 0.1430085296265893 -0.04007822248293694 -0.37965904996757266 -0.10271261421159487 0.2061695114648517 -0.0004636932346102843 0.05495475294046583 -0.26406450610617715 -0.07721240930041849 -0.22846251164345913 -0.03577603005641953 -0.23568784514214935 0.13701123333120163 -0.20083413625572993 -0.29232871150766493 -0.31612924195241154 0.40439931351572 0.039470312317047555 -0.190946442371801 -0.08434591386369317 -0.01070619895720457 ]
[-0.031981686497944625 -0.22722207818748125 0.3432253542209478 -0.16634047607113175 -0.3192449638003454 0.3377957706355172 0.06412635527587338 -0.39745303004006227 0.18411702140261874 -0.00941245166395111 0.200233193284501 -0.07204390583944903 0.012856119385608733 0.16003593449553508 0.08452992419495788 -0.13795901179821693 -0.37731025925799816 -0.017914916430480085 0.09054790035245643 0.14344521340578467 -0.02866322975950924 0.11305842795985417 -0.2685044750319725 0.15895063384761346 -0.028981157868054747 -0.1329113254509557 -0.192449511322122 -0.30562421953639995 -0.10393072602485104 -0.20345603639121268 0.12659996712440955 -0.3169484120502774 0.294583687616662 -0.31352446543557455 0.08565518694338022 0.49015477043871736 -0.19511987907928166 0.2356101484549357 -0.2552102148497886 -0.4990141052803967 ]
[0.2864261545879267 -0.031181919750115486 0.14233037798013157 -0.31154299294293586 0.33664860893043885 -0.06278432524436948 -0.2830034911143433 -0.20989190868267488 -0.054607406721008535 0.05242658743111801 -0.13272482436334168 -0.20378208161846917 0.021456499350020686 0.42544729368157175 -0.3227518534266353 -0.17213607253803362 0.0992478087262408 0.134494071879018 -0.3877506188606878 -0.2188572421532152 0.08005021680049536 0.3603796137761121 -0.20280506792291955 0.11007834882698081 0.0075093036622610266 -0.022994889659320877 0.2879607907523939 0.0929366275501284 0.022356883950364514 -0.06142571676462261 0.07259239589340372 0.06491624558269529 -0.019003499702191298 -0.2475783712312289 -0.021308641235873334 -0.3888118337531919 -0.2001474606170062 0.48484136842481784 -0.14621275084951676 0.11164294781468763 ]
[-0.09437287790047012 -0.0731776323664969 0.23642335194705993 -0.2538901979274264 -0.27798659577170254 -0.18874763567434968 0.2442989536476135 -0.2036264825170728 0.20763940955169885 0.08892878510385116 0.29723204633001976 0.10777085263391319 -0.16138982155699952 0.05579137667835448 -0.09525021504744198 -0.2480334231030757 0.14795371942415048 0.29320935666468456 -0.1801895056079966 0.19651617640136004 0.2136908494425083 -0.320052515156808 -0.2129463811559757 -0.03526018251395707 0.11684617885004861 -0.2225456935610625 -0.18839953618870395 -0.3021979225378028 0.07756569533345582 -0.1841770881557272 0.2273082853816908 0.08892290943309993 -0.3226875976933146 -0.035952865950615746 0.022842030396684716 0.17167599425425792 -0.2046705594877226 -0.08597907806724653 -0.22053102708225603 0.026857832554555323 ]
[0.2093631078781256 0.1947837746379174 0.2593814054116495 -0.2801127357659829 -0.27784078570653503 -0.06698698479149437 0.12640157801995974 -0.07746877306568747 -0.09566378167870715 -0.2005684916635709 0.13147245043450262 0.3724526675731366 0.050272535353669 0.4009549230557806 -0.36176579945697984 -0.22802065819227704 -0.08283441457706128 -0.14544378167224636 0.1402649599841523 -0.04949877356042385 -0.12057334066623807 0.18225458532164318 -0.19629826060287076 0.12227640749664548 0.23498369717194514 0.2780585604449035 0.15328848497762887 0.16698820127359656 -0.10430719260955651 -0.23784812623110585 -0.23270330204479814 0.13384211805718707 0.21664087877682311 0.0839045791326001 -0.29011703633856734 0.32551497606921725 -0.07615005496993464 0.2792322702814167 0.2655612727182462 0.3412248205184162 ]
[0.24525494124963368 0.010536856404163545 0.36050481544463014 0.21547446836999357 0.1231183551333872 0.24589084476658774 0.10657578012685931 0.07909458092968964 0.36233565226564035 -0.35619132203759196 -0.32070640879885637 0.1491537203505203 -0.05750799124521215 0.22407585375895492 0.30667712766915994 0.1527688171487171 -0.17253788944323017 0.29720554777246594 -0.1481924965281742 -0.22082393504180486 0.17706205329590574 0.06822088951859592 -0.3300349908631313 -0.07458704924929258 0.3521570212208623 0.08879165575410781 0.16282111464986046 0.03310260708529907 0.29568018879964514 -0.052468618538895805 -0.04553323059663968 -0.26420688052636326 0.29174381076535383 0.08400963674626385 0.0401518667377272 0.34567471743482986 0.06946605985471024 0.41386178130577583 0.1808564740717607 -0.07756553742247774 ]
[0.15016862760604155 0.32623073163079214 -0.24312125066064533 0.08293219472762473 0.5706716320048898 0.19253046137643257 -0.045962379484236066 -0.34492658439785073 -0.017473134313732437 0.3965013441486639 0.15953636101878865 -0.33278233405483015 0.04726252333036162 0.05015100586765428 -0.27049104945404323 0.18156200824959384 -0.2269024515049937 -0.4245425350235118 0.09967425512860763 -0.16264586279204457 -0.0875072704231946 -0.0682496956871685 0.3237165017404449 0.1593844049745907 -0.14588345202028338 0.21978145876819477 -0.21462726053015405 -0.3423257531972901 -0.32564558829503926 0.007875848343135773 -0.28169920690072636 -0.09856870248514478 -0.16969774298390478 -0.11139236398884796 -0.17838139030946099 -0.1567295849615583 -0.3612990432806002 -0.4659816633041713 -0.08303754232671993 0.37822097585769004 ]
[0.10136308425371932 0.20266383512296082 0.12412245016158414 -0.04653606985107587 -0.08597656899012875 -0.24686958954536872 -0.134733377542718 0.5219707166029853 0.09309244604122598 0.09774585714742849 0.11400957693961464 0.39175781718368086 0.195609309529038 0.2747935553694285 0.26804813235308605 0.2095906639255078 -0.24594222552679765 -0.1827024004575563 0.05349129543425569 -0.27913004483832327 -0.17859325105105206 -0.0742249667316239 -0.028030351008494093 -0.24049547802127522 0.07352123511640454 -0.1682571316476583 -0.24153779588479862 -0.12175121390758241 0.2864305053374294 -0.25496529823333075 0.2647858260224277 -0.2727843754351576 0.23776676505612615 0.1995133064516031 -0.29715978646098085 -0.11839067472018368 0.24091376199313194 0.0633492265662643 -0.10311280035740479 0.2789594524764841 ]
[-0.21848653603375898 -0.21981440731041907 -0.004905683057826353 -0.11933998717925637 -0.3500153628529853 0.1514518215606373 -0.3609300275739676 -0.2483963391580456 -0.06481751091617509 -0.3777752705927965 -0.16765872732367043 -0.014519654039395515 -0.0028633182666171013 0.17095645360163922 0.18151964463748985 0.1767997014439459 -0.2110380325233944 0.2967965670501665 0.3929176467525633 -0.08155742533824958 0.02025005833041759 -0.11970443617422562 0.2809236549299369 0.06772185177516735 0.01040959688482397 0.02929527608062345 0.29689437203074615 0.11318322283390655 -0.185879051088387 0.28856570677262555 0.3204046624338973 -0.18452636084493101 0.38240197202345244 0.12846774493773477 0.04746789495135114 0.0634504800864549 0.24104002118503326 0.2542431026781456 -0.11161168078198258 -0.21555352969012584 ]
[-0.33629732010551966 0.18786047108327603 0.18932628834549986 0.302446113918856 0.14928894926307765 0.2659752672130471 0.34183309332516054 0.13999356209162775 -0.2634236444418319 -0.2010251323070077 0.2378121267911531 0.2678266464389625 -0.3102312951010298 0.17147976366138676 0.3384657313762393 0.311463560366236 -0.29985411694848385 -0.31681629712415554 -0.14380207683516738 0.003930920769411531 0.03463167561518371 -0.03170898666818668 0.08927224269413946 0.2736635003250744 0.2877357564198163 0.0188018603991067 -0.1706450732205624 -0.42651815343193933 -0.09161275969849793 0.15993401915611086 -0.15308784952073498 -0.257119904427504 0.12367978630872446 -0.14984191925028997 0.4515221351276258 -0.09146442373672695 0.12430312232651505 -0.18455557147918403 0.10384013247812028 -0.004096513248915961 ]
[ -0.06063228797870309 0.013281309557280461 -0.02970243582173724 0.012332775262506843 -0.057103889825712816 -0.01944425954764807 0.14065865768455718 -0.013756482086741876 -0.07040352719741648 0.07097984626095322 0.024779866107103407 0.05662781452550418 -0.05706876344514651 -0.02646736791480066 0.017335319911723275 0.01921238021740995 0.004700345925446489 0.009330452695645216 -0.01200133063726717 0.005800746139821004 -0.051702750092540856 -0.18221440127831645 -0.014903299615221672 -0.015829181591610477 -0.008339133544903336 0.02018263058788944 0.009184839998148103 -0.07141103342730114 -0.0088158067891652 0.019745580229146402 0.03766980571365909 0.001944206302208983 -0.01482647109439602 -0.03366663559419715 0.005454764680743784 0.06076034623210418 -0.04778646916328335 -0.04411387251788962 0.006777312396573829 0.017231698010340142 ]
layer 3 Activation
tanh
layer 4 Dense
40 20
[-0.11878466351259223 0.27322760873002044 0.19612143791950978 0.239856753864944 0.45638346909020333 -0.2619928166162996 -0.2835821366204978 -0.3299042627508119 -0.1748275695472566 0.08449024011103067 -0.1246685386346784 0.6463082908668281 0.058087011405137376 -0.011878108543458199 -0.018504817161745745 -0.031043754510777826 0.05775202129765594 0.20945401790602908 -0.1641549398127458 0.4598412936077145 ]
[-0.14078602842434354 0.020576687215357062 0.3331468240998395 -0.046223489970772635 0.2613557152064249 -0.33033131428689255 0.19617034763758104 0.3079078909742534 -0.27244011807125457 -0.09875203173215641 0.011168336824104544 -0.25527759491630264 -0.13620284452737777 0.11743435734929372 -0.19693422042790942 -0.30713936070393916 0.2676954279957846 0.18029659511836474 0.09465636444276822 0.15847944713037637 ]
[0.35390484217299345 0.16741576122952345 0.2681008739080262 0.2766364218102787 0.06988821257457124 0.25515292221703895 0.03732872076791351 -0.22121959533650945 -0.3331257632034287 0.07005049413302343 0.002853978921078465 -0.15875144765851926 -0.08884021744847405 0.10284636441704523 -0.11729118622160153 0.047129510299939587 0.2822791089318554 0.1755947977200428 0.04455859073235242 -0.313575026772863 ]
[-0.06301295605080738 0.1313867289634845 0.3820199407624311 -0.034938422594404946 -0.2715703181999002 -0.194335433385901 0.11710634779278771 0.012676555412386298 0.17837634143548423 -0.05431288500962617 -0.19164545217975706 -0.04942517994878542 0.15384391886989435 0.08219792073072237 -0.23555114780098504 -0.0503690585453853 0.19020619158368884 0.20727858152164153 -0.03770699759284401 -0.14744418347910115 ]
[0.02215483699869721 -0.14557374920471852 0.16773429847992216 0.0475016994395627 0.28188096432816084 -0.12875513402688568 -0.29065881055831383 0.016657111598572798 -0.3131182349355423 0.043367886519137935 0.20859159521070075 0.36711452130636657 -0.07821480180619732 0.20451165246448577 -0.02925592269827105 0.034661019837590276 -0.330546405830043 0.16292148456304742 0.0951799904084 0.13437085824837675 ]
[0.06919277557664387 -0.016085554117084466 -0.12464510474558457 0.31378470044071066 -0.2817460941571033 0.028007406483540866 -0.2538017262213667 0.20796284256695655 0.06293538540994971 -0.1888740837800584 0.33343410977545895 -0.15108355005737295 0.11854177766892217 0.10980115433789879 -0.17946293986907444 -0.2406785125785826 -0.0073001886974454425 0.21861761754073616 -0.09319135605898436 0.173674226646948 ]
[0.25915487369102913 0.1897147536404218 -0.03126254541913171 -0.10610862897128083 -0.4515618219628844 -0.10751767144276703 -0.26085636811766866 -0.21726740552360374 0.27125580272104155 -0.2751151650458951 -0.327423211984045 -0.185339342325817 0.13712493344618 0.34533613482075354 0.2245571434915568 -0.16082252276542944 0.3354656576551447 0.14922487894450262 0.026588386396624794 -0.4563842947126056 ]
[-0.006260075937077396 0.14662185590514956 -0.22641288882555732 -0.07812213690254491 -0.2707232280853137 -0.2797092911963903 -0.10740210940956647 0.1930296491453328 0.05955328874231285 0.28002917742236966 0.31792684936799337 0.16479453341344408 0.23302692269081482 0.2601269932334886 -0.3903709878472517 0.2845256067779944 0.2766398717651804 0.1337711679919748 0.1878893774568617 0.04030571837339122 ]
[-0.20281440832089587 0.30308775608152394 0.13026838968588755 -0.1313652550433842 0.39073106246680067 0.016084364044700962 -0.14288262646904365 -0.3303569023287104 -0.0370625724843074 -0.049221589989349133 -0.009894753409610688 -0.06461094094242496 0.23194487548132053 -0.2626156288027122 -0.24534582290261248 0.008226469184020625 0.21652392938358908 -0.18397328870001456 0.012056374508192497 0.08583203704469641 ]
[-0.08363048108766138 -0.246766651047434 0.031611025520805025 0.11315556312767608 0.03025229393120206 -0.3052264593515386 0.2875707686595975 -0.28238649767879237 -0.3700452262849979 -0.28296043928307507 -0.18773836635641725 -0.04228838588202981 -0.05637145978605245 -0.18291657562699476 0.03554495855500242 -0.12383341226449737 -0.06827715794945448 0.1475517869308174 -0.3394724822967487 0.12550742064892864 ]
[-0.16781424717714988 -0.18859383416561323 0.11514530638854246 -0.28388242076210235 0.12193534950177924 0.1418904041585587 0.20507256460263923 -0.22104214131745337 -0.2602149252996325 0.03836035226688116 -0.37007615818871126 -0.19510431319089067 -0.1427233182874952 0.0041168402944272596 0.09685314817231347 0.24500417126733698 -0.06116298030314015 0.14166458217543568 0.15679464921616257 0.1381894005343012 ]
[-0.13023394424711784 0.04949444486107113 0.23756535208577703 -0.020296276549141574 -0.15940254539476312 -0.2051655030628619 0.30705509236377754 0.027650594743008995 0.11263819833389299 0.24621820932922744 -0.4397358616755104 -0.21165430966247237 -0.06716967963381555 -0.02099991472199705 -0.07307851840480872 -0.24875129785435712 0.3108863604203178 -0.24056616686603483 -0.25516727605310435 -0.21489812445615566 ]
[-0.27547000301611474 0.03846259250203006 -0.2277956994984899 0.17992082682639382 0.35439574174476784 -0.19804268062679814 0.35860244371844846 -0.0809116000447713 0.007303881442117141 0.2542702975375366 0.07070652623625277 0.1368980253810438 0.1636396226546276 0.046459888519025265 -0.19307400184503096 0.3117051309904371 0.026425250299303798 -0.05070496769442648 -0.27820013103284946 0.3447820347904128 ]
[-0.33339851362978423 -0.3083073209916898 0.11758147955610973 0.17533639896989475 0.45012023556856146 0.22503747314768957 -0.06488177555691861 -0.2959866385902463 -0.04951727414832736 -0.3805716957918692 -0.15609349001165182 -0.18134484984901447 0.206535607312311 -0.12683377995323783 0.08803737448580184 0.09112673968492192 -0.1998629921745443 0.3146812712353258 -0.16017723493752853 0.29508466379709736 ]
[-0.2521089782854741 0.05950420159123242 0.24647899441736404 -0.10001482438028914 -0.0854194831304941 -0.04297370414371033 -0.1954100602179545 -0.00716454033050686 0.13418314714566512 0.24009805081721258 0.1693854884944862 -0.21312247319492836 -0.16981029647164733 -0.2786036969136525 -0.11398771306592614 -0.1667723615695298 0.22821131697203054 -0.2944877336136072 -0.13763161242754746 -0.20972625754282628 ]
[-0.1872913229952986 -0.14332109330265744 0.18576218072469725 0.16004400987693995 0.07828940996997433 0.07763327036390649 0.3019177012405927 0.24874534947830018 -0.01755638450149301 0.2372939264723007 0.005158432974547101 -0.1903619884831936 0.12950619796367122 0.30634741528746745 0.2606747816622808 0.029552700687773298 0.03811547732807731 -0.17740122379704107 0.2651087781940518 0.3042091997042792 ]
[0.06780599400232448 -0.13878750282462304 -0.2415871165904752 -0.19778689195041896 0.25425641246948355 -0.008880252717787153 0.23972689230067604 0.17723692889193446 -0.32266998332800684 0.16440777985313068 0.3638791312359671 0.15296878420515667 0.2572165985794919 0.2571305532131671 -0.04424205950354944 -0.10922403388523015 -0.00919150457132217 0.08073831572366197 0.1054739882628925 -0.31736787197483984 ]
[0.12782485295975138 0.16976709248221464 0.19660591761499868 0.1704017752809469 0.15945670663350975 0.1372197911711433 0.08513198800175266 -0.06582736440825736 -0.017610809434171308 0.11994375927492999 0.09322707217384618 -0.01788193985475075 -0.27400353956195095 -0.3341025029071229 0.0625386644180659 -0.21124420128602345 0.056203397307465104 -0.10561611382095365 0.29608374719091685 -0.1293150347152316 ]
[-0.16200440167664912 0.33761510872544825 -0.029772001694865505 -0.15882030175112732 -0.2020094490659121 0.2220447343704136 0.043527366517532355 0.3568682156207825 0.253815572622058 0.3230209450544461 0.18878943109591947 -0.23122898395879707 -0.25303743954275626 -0.056544786451217466 0.3376089125480055 0.2566570059889978 0.3191280987855015 -0.2398322731742912 0.14861972281226615 0.25841230473360766 ]
[-0.0803215790621081 -0.09391013070170709 -0.017337785306423187 -0.06546109981059547 0.2123416837810256 0.21452102355436545 0.10324964665408384 -0.1417542957302451 -0.309823938455835 -0.15914210529439524 0.3452589658721875 -0.2310386736069183 0.03729604182485302 0.0032534832116280963 0.21042577462766618 -0.14007067801687081 -0.19983926369297975 -0.02624388948167023 0.20046578049480016 -0.281454892251982 ]
[-0.0952772685262506 -0.1863420972444417 -0.0290669542364083 0.1431631682190792 0.3862121865005839 -0.057592928719678735 -0.09605380127928136 0.07816367282974639 0.06205734387655943 -0.2507482849825241 0.3339464514130632 -0.1346152871094463 0.020616560641604515 -0.20164683162906002 -0.3012180125238374 0.13607888950397892 0.09474198856104485 0.31444445532889137 0.2675392570745237 0.027301677775008488 ]
[-0.24362187444475294 -0.012050966276119212 0.2631335583605148 0.09465210700063563 0.38549939782366965 0.1835730565846462 0.27708654326324583 0.2025541464653061 -0.15590117991991248 -0.2349722025863038 0.33045350518841543 0.0062146132284620625 -0.1657160157779752 -0.15680730554848762 -0.10257281283592987 0.27117993791087736 -0.21163004370386448 0.32286497671764874 0.23534016083284706 -0.30041284845666255 ]
[-0.2794531117556552 -0.053097786315554535 -0.15707493017493507 0.1224639879363051 -0.1305146733299423 -0.10379107844937255 0.2730640843231502 0.3515891959838295 -0.20887876199600464 0.30906167752411523 0.4356878423805031 -0.2846899901532556 0.14494094851688405 0.012927205234761489 -0.3397268961150353 0.11444407984037093 -0.2643234240822191 0.27525863172668796 -0.04717282100983153 -0.03747091213381022 ]
[0.015082923442097463 0.06325308664900563 0.2671921594802715 0.2318117227724686 -0.009397088888991469 0.039456702060639746 0.04838670806453496 0.15056268024107403 -0.08959187652463611 0.06200471139570141 -0.2504633054123739 0.18545383494734444 -0.16418773104321502 0.11636716153230581 0.24110977892679944 0.10503320635379128 -0.3133009178174365 -0.2590544588458477 -0.13948697641744234 0.03558184406804745 ]
[0.264367944181774 -0.019185747577384355 0.06866060710190038 0.1000923133951455 0.14647958098115457 -0.0021774991997064175 0.06435940503840415 -0.15772227169106207 -0.1059452522328235 0.06915787341218674 -0.3688113484207595 -0.19282144256567518 0.05988586010415302 -0.14262842584423494 -0.02985588619491476 -0.013408790377302254 0.03544086423302349 -0.32643461089923526 0.11251270468025625 -0.2997534434249892 ]
[-0.24388901648963265 0.16434191024929695 0.07705874698779142 -0.11620304457107082 0.05579055113753458 0.20931204727092653 -0.31293353665825946 -0.013634467403911945 0.014421708258056082 -0.06298858095117978 -0.032748425467856467 -0.08330397667226057 0.04397597361436637 -0.10735514332333183 -0.04580515771835964 0.07993495401087579 0.23635655098319336 0.04619408420380474 -0.08647752067299992 0.16061184520827526 ]
[-0.2980093435783887 0.06896034590866763 -0.17075351232889344 0.14951932570305101 0.34112088052625084 -0.04191009214037566 -0.055510733239596946 -0.1710267681238357 0.1840209174772435 0.26862758649121843 -0.010160748642322734 -0.17026257497914976 -0.0935959066753395 -0.2348287219632313 -0.1315282958484912 -0.032294322466548474 -0.14236292325479952 0.13595093847014011 0.23539264613974503 -0.1920683109656421 ]
[-0.01083927381649743 0.11337927115527849 -0.226009218607719 0.04622346298903012 0.28953579194983764 0.1023125470300945 -0.029321513631792695 0.04338728369689198 0.03047228670391543 0.25719411967257183 0.352863848830996 0.14574566705904532 -0.22915029681037719 -0.31484370846981585 -0.08680459715470078 0.06705194585206184 0.21485736270143727 -0.0792971691139879 -0.03045102256538698 0.18666956529274492 ]
[0.028162600682793457 -0.16149359889030188 -0.005383091898265177 -0.07594681132959724 0.05148709395578139 0.21074380130322576 0.07469443033872149 -0.16272388770951318 -0.010451037637269869 0.21317061101880624 -0.11410627332505499 -0.18645793368210137 0.38638777578503575 -0.20177367424704337 0.13998529600325416 0.30534807489427823 -0.15021743910831484 0.05036992130512848 0.07124859833160968 -0.05325173005999156 ]
[0.09626593075855076 -0.11893620269086061 -0.230528787971727 0.05164116990767112 -0.09785597484233596 0.20954240887447723 -0.07954849202243862 -0.1772637147556865 -0.20603749328798282 0.23478119687328478 0.10327903171208395 0.2864325161819095 0.3421219195387658 -0.12166358662460747 0.17712696512967085 -0.24723036222524625 -0.04112525443516416 -0.36577917729431375 -0.3314640623478951 0.18444199625228158 ]
[-0.16365882780873137 0.06743661588746165 -0.23455678577687888 -0.05183559338561548 0.18171213872521277 0.3270672297479408 -0.23464269372612526 0.08578086755572788 -0.23088918694217883 -0.02433111487050396 0.12841584844735454 0.0983804245342274 -0.018484000641842607 0.17871750769737316 0.22016775094313118 -0.26102094258073777 -0.23990773508631819 -0.3420068115778379 -0.3166091523860398 -0.02753280030413449 ]
[-0.20492936978170176 -0.16406315534241217 -0.13490378745742043 -0.23915839383737625 0.14008338681490085 -0.02975165538165218 0.19316548291723862 0.10154554947791315 -0.012194271841510361 -0.15040343931045902 0.2017511647601425 0.23901636134136664 0.07067734141920426 -0.15496700984836256 -0.18866464105282932 -0.22586225137076898 -0.005382543595030992 -0.1889438011780547 0.10228825431504124 -0.19812358347901102 ]
[0.3370750106198536 0.09644147816532347 -0.15777263423513443 0.028215443977675128 -0.05521624299797931 0.0516642713200229 0.09527527857586585 0.03897367458844405 0.2862688897834925 0.22870238824782996 -0.1350922860589207 -0.22613387342223337 -0.018637884533231047 0.009358854301625794 0.17107216578505155 0.3458725716807627 -0.18816878025584877 0.26605108743671263 -0.2633759310333363 0.2517686037145881 ]
[0.21426302574001424 0.15324913021999942 0.050177723928736616 -0.11844599348022429 -0.18683659323863097 0.03459538937849913 -0.17990663934280982 0.07084084382606275 0.2042033589597056 0.05025411828865598 0.001495286098651961 0.22634045507185319 -0.04871023282606838 0.18779544191803532 -0.19288506043089593 0.3066473955654652 0.20703834827872566 -0.07291676755071488 -0.1516672242410576 0.11550120993612205 ]
[-0.013691609573729223 -0.11998125893926065 0.016409813499232966 -0.09782656072675555 -0.3314275832564417 0.008876887424122532 0.004387560150414829 0.30228491291059023 0.2217133685566992 0.28538440960169537 -0.2752752787008597 -0.043633054791692716 -0.04317601542627014 -0.27026952794371095 0.09933881743470299 0.22264218654807616 -0.09219121304495718 -0.12620482305141573 0.27401772583445133 -0.25633713649432155 ]
[0.3313364501314714 0.37519408177942326 0.1255897508300149 0.2501570613451168 -0.34216476577243465 0.29404495445762097 0.28980869136417275 -0.05845824699665976 -0.2636444358726665 0.19136379576475016 0.26551599604489934 -0.2859797536475153 0.16443026807810054 0.19911490929047776 0.2811749916803101 -0.1711696725633293 0.0822853788235007 0.10307012214582809 -0.23275973750892 0.21855328329543589 ]
[0.05155241300501226 0.13972549000062126 0.3411964847717319 -0.2503711110479827 0.06245995290303823 -0.23905968326621763 -0.00580973516444755 -0.1439977583213561 0.2836397726035593 0.0224776196286487 -0.1783425835633144 -0.2957346759794508 0.2730761984808899 -0.28809605344554334 -0.09846354921122269 0.019846873209011663 -0.04941895111306786 0.16649767782062913 -0.17649645843896902 0.06270011479799513 ]
[-0.15656438524594815 0.13471106744196296 0.13955483758245832 0.15625186970577196 0.3142030142155273 0.3278952629992762 -0.31216907370467656 -0.31224197541547116 0.08742995826660974 0.16223124065886166 -0.011499878884058323 -0.4047200329254095 -0.2861505509137807 -0.1547483707575147 -0.12555153890219392 0.14369547548139633 0.2245117759242084 -0.16903667747974685 0.210847651702588 -0.03873644837128769 ]
[-0.2194175407373763 0.18873062563507179 0.08586009857866611 0.10827716108148497 0.152838529206645 0.040478806219216505 0.3020783057458473 0.3177469392591352 -0.12886625662295614 0.15973874306843425 -0.16028753256391615 0.08511117251174254 0.026755119586345306 0.21486343613978937 -0.15051902144474627 -0.13830440828396495 -0.1673480748218427 0.1694890163253496 0.04679986789509628 0.290091479377273 ]
[-0.25359124460313515 0.07664549404491791 0.20558321322867287 -0.27762171303633737 0.29087854237945954 0.04062877864646585 0.049479154242580425 0.23330626892098885 0.09663659177586231 -0.3110839235787067 -0.16772339200834294 -0.2218774109120585 0.12898573454354606 0.17462523856623824 -0.14403576244269747 0.03350641132424715 -0.17634173053125837 0.3215192161031267 0.16303802345030582 0.35548690028213703 ]
[ -0.020561415694928822 -0.026860024542392856 -0.020387061544884913 -0.03356587106389554 -0.031190500842699427 0.013016235471074736 -0.020857273803897406 -0.021148353568611358 -0.00990885222848123 0.004420176266542778 -0.09662423566513757 -0.015874496786927948 -0.03866890600627272 0.018234467733201136 0.03928801284585111 -0.05418581372127008 -0.0027841325854942706 0.0014063613462731626 0.02302711402780542 -0.05159739440016364 ]
layer 5 Activation
tanh
layer 6 Dense
20 1
[-0.37997863339579996 ]
[-0.3957717336253575 ]
[-0.030540938197051767 ]
[-0.45975541785266744 ]
[0.4660328559430612 ]
[0.2721398592308276 ]
[-0.032104775420051426 ]
[-0.4593887215364373 ]
[0.06405673182863596 ]
[0.4372114135565593 ]
[-0.1760735308119032 ]
[-0.22429802682667205 ]
[-0.20178729870486922 ]
[0.361490998291241 ]
[0.22822704290283383 ]
[-0.2561239008643506 ]
[-0.07929405134087317 ]
[0.41619307950947965 ]
[0.013904083787835073 ]
[-0.10984468932510034 ]
[ 0.04630289336591666 ]
