layers 7
layer 0 Dense
24 20
[-0.5129749994688854 0.33433385375517655 0.40719369857805365 0.08761137714343001 0.30714924808854827 0.2230029168003293 -0.2973732161129727 0.03240736961567113 -0.00881876879529407 -0.25178349450760457 -0.2545226700271902 0.2944817448200264 -0.281539309160365 -0.07664802577920148 0.40258332785327283 0.1602418519961165 -0.14689787995646908 -0.123796615818808 0.2621601997070577 -0.31308711971580855 ]
[-0.2101622039955814 -0.12191871123108622 -0.12468888358409894 -0.4986768426120298 -0.12926387211192564 0.06957405483537879 -0.06953577836181082 0.05678260249890759 0.03920456304247211 -0.3801477640640632 -0.027981226450974197 0.2789569190387626 -0.02851525610317803 0.0756062475434444 -0.281685186175006 -0.04153915270201171 0.0008086096958860138 0.08551503072826258 0.40756391578083 -0.22034887211036816 ]
[-0.20342509050906776 -0.17582767515075676 -0.34464301563897665 0.0593074996860932 0.02440650418714281 -0.2164702202259933 0.4070457066944137 -0.2668229679829029 -0.3583341643723558 -0.4193780133562927 -0.04715387420604573 0.23612423740140806 -0.07652064703949889 0.34367499564285064 0.2567726742160662 0.21599299106465636 0.169907491139273 0.08136299924288269 -0.22977032992450883 -0.4801581754298219 ]
[-0.6550259414319648 0.0104133403739374 -0.35393239063046883 0.3272111420719541 -0.009242956047757678 -0.028692230137576626 0.2819345107579586 -0.2305102364627341 -0.10695782619605891 0.26948030879783813 0.11521672671386665 0.031183433564285254 0.3446715776279974 0.29445983994077257 0.0574950258133516 -0.05932469970978934 -0.1878981578807763 -0.13854668281526583 -0.28763583122507236 0.12201858069493936 ]
[0.29131982940896806 0.5532872638659313 0.38994398508401856 0.4206346625841278 0.08299017455138888 -0.06494790204346139 0.4609859794453557 0.24277775552746583 0.43748139666160124 0.5232507498467149 -0.4412526181446314 -0.16276142915090977 -0.13161842964024956 -0.4736416240921411 -0.4124420257711086 0.01317778493070938 -0.05321887969223505 -0.11695137470953897 0.051675439304630595 -0.05701579163732652 ]
[-0.15489128567924057 0.3516409275323666 0.32764226651602485 0.06582058332038453 -0.025453707945632557 -0.2868208220241706 -0.2804407199430989 -0.03239586721529434 -0.08530801319668849 -0.15024032874028953 -0.03279698254527518 -0.16879807011110512 -0.2993783298909878 0.2623623852073756 0.21396580712523802 0.12550472459493858 0.04813402091080634 0.1811640609994056 0.18944870142274572 0.3277532549596076 ]
[0.10551818142265532 -0.01580191743874891 -0.005068104049332941 0.4663538504682202 -0.25228212332180183 -0.21873369962061695 -0.1726654024257442 0.1347612145478332 0.005610710660250389 0.025770037247750816 -0.19915799977771925 -0.19322454554013885 -0.22418774899875604 0.09520284886374358 -0.27996001204908055 -0.302606629577135 0.15012711906793003 0.21596004480934014 0.3527785218084297 0.02011096861684493 ]
[0.46198008217257036 -0.22445905299621122 0.20642109624598787 -0.10421379842354625 -0.4014442349642332 0.4431934744625978 0.16330646924559036 0.3911720367198265 -0.27707436519323414 -0.20995705070608914 -0.3075189466507598 -0.2176893712424717 0.20812430857102152 0.17233138052387015 0.46364232351664236 -0.10173479600444064 0.4224549004898369 -0.061376009422176345 0.18715300684458308 -0.27605631544173365 ]
[-0.15920489059387216 -0.350119892943045 0.2831139166152194 -0.03590624034385813 0.23314670143440633 0.34135866055255853 0.36751262206121144 -0.21074849262792097 0.3204057110503241 0.10630049381299875 -0.350157814776772 0.24812661218484408 -0.15521162124308277 -0.12129139272933881 -0.4326365641678998 -0.1714994892852509 -0.24878968838932777 0.32915079907485184 -0.07791165337320557 0.2382294593298288 ]
[0.27447473750465684 -0.4429514792623007 0.3275550306654451 0.20921069901333342 -0.38048426341327085 -0.16798739749751837 -0.15132871288514643 -0.4345190659046805 -0.19376870197243748 0.04639467258213081 -0.2087121581166708 -0.19996266805584217 0.14787299968994327 -0.041148826229379466 -0.5415652421799398 0.4026032110616706 0.09848510357488101 -0.46083042168580873 -0.508305971177276 0.3659386557105913 ]
[0.16572717493617756 -0.516866243760885 0.13561613064668845 -0.28602306833512453 -0.31724021978271044 0.3150071578133358 0.21399739046755525 -0.123770344251882 0.02859483181832249 -0.04722106490045437 -0.2670521453353366 0.45536109918545026 -0.28136925134418517 0.13829506428844135 0.30012826628751915 0.2824195988222614 0.22992199299240648 0.23937719726709286 -0.1782285271478209 0.23314818638882323 ]
[-0.1996084909799852 -0.4034206300622816 0.4080722044336096 -0.4778240992616138 -0.23608112471377604 0.007991808198307991 0.4759415951175595 0.41531114405203506 -0.30841866677556384 -0.2674388949204552 0.04327210342077071 0.05232728523549584 0.4202395050579603 -0.2502269427097769 0.4326991248007998 -0.10569774476511683 -0.27027555438857814 0.4896700047867141 -0.39118797786944953 0.06179140080545972 ]
[-0.33356243648623407 0.48289398616825474 0.39140060002738203 0.029740359226827467 0.1654494119715755 -0.08793090398246595 0.37936784302569576 0.46294143506835844 -0.2726262455106222 -0.23794194046594733 -0.3590699609964117 0.22306217308837784 -0.19495750529776829 -0.13701531528920294 0.1557153333571611 -0.07513850634358257 0.05449206063525843 0.4515936189497736 -0.3645016423760577 -0.03935964361128704 ]
[-0.3238995357911139 -0.029561336148107544 0.4127928230674459 0.02015538996485703 -0.43713541360391117 -0.45644787166582645 -0.14442177682966983 0.44019739432137334 -0.12616787132301466 0.23530676710256868 -0.4930568413082942 0.07359846764571573 0.0848218083705634 -0.31588912999053215 0.13957280437131064 0.39043271929714296 -0.06384622250634804 0.2708944006508771 -0.36441039890024135 0.36924257535506905 ]
[0.008410854618482774 -0.174468526649593 0.053273306468607555 -0.29920257346921325 -0.21457634114644217 -0.2035715720917707 -0.06168401772832995 0.05566792147178245 -0.2923072702215795 -0.2878952834501784 0.05604253477992518 0.13556560156033107 -0.34020268489376415 -0.3898786205582147 -0.06460089554812865 0.5081058940250511 -0.01180592373266124 0.17508257792939863 0.12176353658914711 0.20912628815400336 ]
[-0.18729615728671886 0.34122369224458504 -0.4130338554388216 -0.05215843108513973 0.1294574941237524 -0.12721692393323164 0.5841514036219662 0.5617219948852148 0.19061034876194302 0.07266016890207123 -0.0697547923654534 0.23046630650126512 0.002357209071616508 -0.00202747220625838 -0.11454691910583777 -0.4406566348730032 0.06775132049867931 0.17448390154715668 0.26215932143828713 -0.43439389662158406 ]
[0.18315382116199289 0.21631642364320866 0.11057099662735788 0.39144227306695834 0.12837623786574462 0.2710044024527169 -0.3948800727161882 -0.3283207808724696 0.5220460554803182 -0.25917678563575636 -0.09981683378281264 0.44714417722973965 0.44179477321095223 -0.20158382359947222 0.3008918081160392 0.6921120467547377 0.2097093015012613 0.2997420238463987 0.3443190935736942 -0.3142072521236077 ]
[0.32297367219838075 0.0726103234634872 -0.798848426669953 -0.01982905490653735 0.9492712750206053 0.5964521730309656 0.3150528180320306 -0.40084071062679827 0.2645488132638778 -0.05147686962683113 0.07984657619206978 0.489717833369635 -0.2019477767060652 -0.22632112890216696 -0.07779576355787046 -0.1781836553582291 0.008247099814406335 0.3521973608397076 0.49313147358007986 -0.1652713585923045 ]
[-0.006272709735654181 -0.3618573957159702 0.0876175422107567 0.27129527695714706 -0.06055072756640578 -0.1155478755145262 0.026148904440004533 -0.3811108188786421 0.475611632000828 0.2159011271571292 0.08367789169194773 -0.4435592428911502 0.22783200085515534 0.4093675780956612 -0.41443039096914386 -0.7421131675162148 0.000768434408059009 0.3003915120035699 -0.5898270336390792 -0.2522637340869605 ]
[-0.3824814981690541 0.4151105251239093 0.01305985111195413 0.07596732693710603 -0.13545799682948173 0.6000849898825038 -0.4672506028688401 -0.23331984717355408 -0.44106073398307716 0.3248176548273383 -0.2415552780302822 0.000688052290453969 -0.09741104009683332 0.5584685508500753 0.49864622298169925 -0.18930041432413144 0.13936621174942207 -0.2342446240474384 -0.06242077225944448 0.13102327672944136 ]
[0.14724144649274756 0.33709093727990913 -0.5667758655215693 -0.29189471798759187 0.34723802821716937 0.17762122645535283 -0.25152291701039586 0.1760119892648107 -0.49930696828569404 0.12165329525259039 -0.1503800424479577 -0.35027351313273564 -0.44583377600043345 0.0861219812863091 -0.008850590390076246 -0.44343231133673017 -0.4641237752009074 -0.37040880081035515 -0.4838140220456669 0.355517930019804 ]
[-0.5417260259735165 0.34784144761186714 -0.274854277980099 0.22732020116147314 -0.10272366139281697 0.36282245753640585 0.6006061180804052 -0.3457878896345547 -0.18820443940716539 0.004935160493768304 0.4669940951898748 -0.6515191596411468 -0.5821189890502414 0.2201733901843545 0.5102574626218155 -0.05029510585485921 0.04287889714343805 -0.057397795386254995 0.6349471490686516 -0.7373080087900934 ]
[0.01803956804098042 0.488017295351435 -0.23509084793407195 -0.11511720430323655 0.6305928017175436 -0.3315399476585435 0.11041316268936459 0.4831329938339455 0.2744172893949161 0.2288371355575085 -0.12705897179254516 -0.4894691260699244 0.5051843341879064 0.25858977344388806 -0.3693061230797235 -0.04703182139118252 0.20375556124469638 0.45310970183583943 -0.3300086258373578 -0.33224372563255433 ]
[-0.3708886045948492 0.09570581227256028 0.30078833569401436 0.31576838298395227 -0.14026134107754387 -0.15868376878237572 -0.3840102851163449 0.21973786697471476 0.281019385274725 -0.6329094640489344 0.40745462522492654 0.0764966089640595 0.22851991591182091 -0.12997007661856377 -0.24812936227062385 0.2391627852354004 -0.09164022599656402 0.12554205027134774 0.039538868253127406 0.5636700940145364 ]
[ -0.16867814719239602 0.04108397969657604 -0.007287927582051375 -0.037884170052150556 0.014559730755155674 -0.13359620298947972 0.07892752449830417 -0.06135960318679637 -0.020224120809522073 -0.07842805232224116 0.13652956464239963 -0.018471263745461052 0.026523461918458755 0.07240378874498578 0.02810299787741064 0.032411024603878125 -0.08619683760568976 -0.07175338490087704 0.0798254257373226 -0.039289054129592126 ]
layer 1 Activation
tanh
layer 2 Dense
20 40
[-0.07601937906615358 -0.1878267998183946 -0.26287908865255377 0.20166784566552182 -0.3485080964089997 -0.39829727064040055 -0.25029922112250536 0.3353646422430898 0.07593679095299043 -0.14969673479809995 -0.2839357601902672 -0.3019797341284343 0.4859601160224354 -0.007023769553387434 -0.007548871229931634 0.1357960174716188 -0.19640817132832972 -0.17095354719158293 -0.03603645773966078 -0.031037849729831913 -0.03190083831646701 -0.1288200535195235 0.35170926231400607 -0.3591144346292099 0.2127368896179968 0.24815557678756295 0.318418675370215 -0.05583167383309428 0.21009370069482036 0.29604041930612685 0.17773824943403566 0.19365275542263555 0.1296319367702364 -0.0638674980022629 -0.21210034788743803 0.0977096470007872 0.009621241231140769 -0.06139237112101853 0.3574985471534154 -0.07942261258507081 ]
[0.03842208185724679 -0.02321382308661088 0.5864767350522898 0.06686392072435517 0.17177712644397433 0.45757768921124553 0.06579380104169691 -0.1406311705143051 -0.029187253094040633 -0.255322735373533 -0.023099957594891144 0.5307657072413817 -0.8042577156092411 -0.41458331814041516 -0.3510992495913346 0.09609096922231603 0.3393572645540095 -0.11198282811886802 -0.3873306002815971 -0.4250414122703149 -0.09234633052872601 0.24776550434662112 -0.3526909355743441 0.015902867999633977 -0.18365783662987506 0.40319368354689267 0.1592876397452999 -0.03831219244757909 -0.10305458382857619 -0.46160575360793393 -0.18708243851913717 0.22762113883801752 -0.2822471091351151 0.16929670471689795 0.1304836907843669 0.2314237087087419 -0.28527104429003064 -0.14157552374600546 0.2661738928585915 0.3049363099661441 ]
[-0.028800458618616912 -0.06805735984989046 -0.4268342143143578 -0.25064194989477223 -0.2599978111565368 -0.7261044874824277 -0.16914583887246412 -0.2502801777178113 0.5600553746810785 -0.1383337765361071 -0.407488492364771 -0.4584984240764511 0.45368185864392546 -0.19092250087609214 0.0324975518265649 0.12640122253154823 0.07922802676822731 0.10280058285004696 0.02966093793036062 0.33482648728613834 0.07253226716751138 -0.37308008243280766 0.13243052187999638 0.4141884049437137 -0.11153839022799454 -0.32303490062702184 0.22362702982326318 -0.4678703500273228 -0.3065840078917779 -0.7870370294402318 -0.6582640423913031 0.3921456665221185 0.37861375587941315 -0.014072923717915324 0.026472772028508586 -0.041220762048499504 -0.028335151555401387 -0.16813868456674472 -0.6153671708907368 -0.567114845988827 ]
[0.2549226364619715 -0.09896683539357833 -0.41883168721460795 0.05456414416477325 0.03836130557279334 0.3166636296213729 0.03201743639170382 -0.09927573174640021 0.41515588388758506 -0.032190889354636876 -0.10294919582524878 -0.28394060444251973 -0.5264840702139061 -0.032490420878999594 -0.3489647013894752 0.39258097433209105 0.3739083582466939 -0.16758994352819154 -0.15250079183717585 0.02935121362905861 0.12450603923439296 0.025814874091413677 -0.24175768480881268 0.19001303516502138 -0.4907227604968558 0.21432231288809664 0.3791675109334066 -0.09119793818203259 0.6713457068011991 -0.5522917146085569 0.2582471204038112 0.1361155066472008 0.44439301070244325 0.12130342392608152 0.28821020883772436 -0.05554883679583017 0.2994388819539863 0.39889254287756504 -0.6043879943408399 0.25624607757978135 ]
[-0.08085028538169854 -0.417573808687461 -0.24280288120995858 -0.05233997378643023 -0.029203964410719204 -0.1822327826545607 0.06377261905116884 0.40061842913040463 0.03464569955752628 0.4647871714091937 -0.00442419108012557 0.1600017223584915 -0.2741537240891546 -0.0577199717961039 -0.11787433822779413 -0.2846543397561991 -0.22872891038302523 0.25325286398724534 0.11369270230401857 -0.39110858533643633 -0.3631348056567249 0.17644659371274993 0.2618868686933234 -0.2024884832212545 -0.022220165379172284 0.43131643628143723 -0.10823175602175739 0.15521582252311886 0.2627907738379977 0.20365580529524735 0.4037786329597199 0.28762665120800285 0.003233803937180628 -0.20903164375909042 -0.013454571974961502 0.25825642986578223 0.14875340061715547 0.3128737660920886 0.32684907530037693 0.5977746970320318 ]
[-0.09749047083904683 0.18851359577365673 0.17083259653507174 -0.1503164111641208 0.3832130522949236 0.13850325690813042 -0.4358096095072051 0.22799449785012582 -0.19862850004742114 -0.2535950359204481 0.2723976675906241 0.34522020719444324 -0.5214321068664126 -0.3924647210331421 0.30589595334073205 0.423025797938846 -0.2715499185455188 -0.05020881462627732 -0.22863010301117476 0.1991648974191869 -0.3485138821710341 0.2221337099633159 -0.285582961418837 -0.2602243835385961 -0.3054345526972589 -0.12827067108716 0.2754438117745127 0.0713218140383935 0.15444674617468157 0.14375788601160847 0.16186315385262307 0.38463574444210247 -0.2464618784140919 -0.119975438655706 -0.12434518561958824 -0.12016097101429986 -0.3838541531710248 -0.3877963311269845 0.3194760817440632 -0.17214233211912558 ]
[-0.21717293231180504 -0.14489534618058017 0.41040905977007586 -0.3022027854244672 -0.187455404914975 0.04513448997797016 0.057797272195488684 0.19749314649211544 0.4769621060054754 0.29325500795283527 -0.28110594436886316 -0.13068531985705262 0.10624012870103781 -0.012151605306476111 0.12702729796731077 0.22062677907299202 -0.4636220623612019 -0.32500269306411067 0.16942099559002996 0.2668099229754633 0.05522790757815488 0.01580960518487469 0.08089363403384559 -0.11422663923627124 -0.02723428188350329 0.18348141897353368 -0.23586415292987517 -0.03970630141419896 0.36955749715175634 0.09174205492940518 0.37077098822135474 -0.10605716938253128 0.11975786457474952 0.48912516880403784 0.1587230753019068 -0.14171244664362034 0.23961007124115163 -0.14073216685198905 0.1229887365015069 0.2034974718738652 ]
[0.07819962248139747 -0.08254076369143432 0.009149336976597765 0.06764540445982054 0.006387068665318041 0.21828984638248466 0.30218058965568706 0.21562578774396615 -0.19616273801610912 0.11540071700518682 -0.19716046562490458 -0.035575964172321124 0.2600557994945729 -0.3340490978494745 -0.2754643621062631 0.2071840005283807 0.09411957132816963 0.05075484834535957 -0.5901775315381828 -0.2553898877224056 0.17379203665435178 -0.07062362740858606 -0.24958046308818413 -0.06349553290671239 0.32479409205721393 -0.2815253448700856 -0.15613880458667462 -0.1384025884476531 -0.054033014866936756 0.15758717013633683 -0.1352197117437828 0.07512477176609599 -0.2339927391313993 -0.19623365258235217 0.1875029667558517 0.14572619825229072 0.2361183432729106 -0.08113500419998282 -0.0950142347248045 -0.4049233479756348 ]
[-0.31223149297967784 -0.12750332453106303 0.025586870897287704 0.2517984177892682 0.08830884987090837 -0.37406351054280096 -0.24939984229509804 -0.05069814902794859 0.3323909381448633 0.4658230923900269 0.0791649946806264 0.20262184047157106 -0.025150310655873174 -0.43379562858051024 -0.035499536748996946 0.3128433894085117 -0.13159351499432162 0.3166001223114867 -0.40791277423498035 0.11555155741524341 -0.009754795168250278 0.2844291444388834 -0.5297538186620331 0.4731707743918098 -0.42267604359771016 0.30623626618725935 -0.022409369784682814 0.05249071633502988 0.6944885348100202 -0.2405039879243218 0.5360879473852325 0.6160765059019028 -0.12367326260042243 0.7721262779864706 0.28228468231658277 0.339745809616373 0.05928936412392719 0.14022399990776158 -0.5964535554056557 0.45017377243410706 ]
[0.28624349382835024 0.08157654968937338 0.02816787639116441 0.3927106727654788 -0.2753116817203813 -0.3519067335499305 0.3120483450257519 0.014291781040102605 -0.26520394321829843 0.3371300894380201 0.13442363511409483 0.44415412567525603 -0.11133478506787053 -0.15420379287753933 -0.30105418844593984 0.07706815823895083 -0.16099662184940838 0.14996988127242297 0.2653698972035742 -0.25090944347118255 0.4207106991062412 -0.2523886812738626 0.32952023150998005 -0.10384095525965661 -0.029308428899865156 0.20763129289935622 -0.1654616322889711 -0.16914702640286977 0.049169965220786 -0.18537968191296655 0.35378792751449145 -0.011278327553432754 -0.06269530747113332 0.2730889228219592 0.08354395245122578 0.3329132991817397 0.0021174556110677505 -0.3309393787531712 0.11499973603089648 -0.05094615738317108 ]
[-0.04748899520068231 0.21743247588403844 -0.13515789917522586 0.1684417789594387 0.3128451816755876 0.2139331448661735 0.33569282187320704 -0.24067814474262691 -0.050895847896844405 0.07993972568234783 0.1980806705514069 -0.2748513125982001 -0.16522652139152377 -0.053775628946677555 0.3356508857277376 -0.23147311625934316 -0.004566297547077131 0.21043232188190975 0.2878930144849547 0.11891763769388601 -0.1538855330439175 0.2807106466455546 0.005921324109851062 0.2596451561431154 -0.001974581560483946 -0.20776719904675203 0.038449349011653755 0.46253226308935547 0.35501634009983485 0.2962428208150783 0.18285795343434122 0.10370229457656062 -0.3644525940655502 -0.1176357789845624 -0.24916368904159344 0.012715805440285654 -0.08563328746912527 0.35059534262557557 0.05462267665981215 0.19803105830113582 ]
[-0.1267653508329402 0.03921942422741544 -0.024753182090546652 -0.21075298572770043 -0.30372919456253256 -0.40808479033017203 -0.30435066629519403 0.16533376192022337 0.26138935806721036 0.32062955800177073 -0.047941290735306855 -0.174769313442271 0.4687813270678731 0.4316001730046393 0.27809769237053583 -0.3013857885470913 0.23718948681110852 -0.06536852666076556 0.07270528165757928 0.10181268690218134 -0.09147475140264902 0.16082983430787565 0.19059790888627537 -0.13652705154145017 0.07140803136985446 0.22000940015003526 0.32525681062821366 0.12060547997746049 0.19590893162769416 0.15680055514405644 0.006530940772680769 0.07106423739897744 -0.1469894978067776 0.12215955560275842 0.03227796874310883 0.1901330235587565 -0.10800132341685335 -0.07229380227376334 0.1372162063619604 -0.3743595906471161 ]
[-0.25603638159907105 -0.16508276447197848 -0.4366078976620443 0.07669825476346673 -0.3301992332470804 -0.06089789381038289 0.1134805050958615 -0.0812144301375444 0.36370572111469046 -0.076349584255714 -0.21036199807026745 -0.3591027097440607 0.5480305142972242 -0.19378147135146898 0.058870409646507964 0.11468109290551158 -0.23972952753312937 0.2293037620276633 -0.5086143009918047 -0.23498240989571692 0.1353208364401223 -0.16251858780621523 -0.49107418246263285 0.7043294943218993 -0.3471880926029169 -0.37979405964777885 -0.21176070290734567 -0.1397577887395526 0.3519426305231605 -0.6810410710103713 0.4412128942032442 0.23046904327811782 0.3550437010227926 0.35479397233864274 -0.4002910762589804 0.45294182119041926 0.564500632362413 0.18718027097602447 -0.9425838804674481 0.21792919762201537 ]
[-0.17926265650464546 -0.1586773862185546 0.1348053080016061 -0.08347514237437367 -0.004159755895214946 0.2282408541209793 -0.20848384320476593 0.16044235120770903 -0.42904733172399506 -0.05116938694544263 0.21395744660339625 0.41648433292281906 -0.5413551226591464 0.13528211899639941 -0.045819712014916684 0.2200887082247 0.14217443784976525 0.3382671257228829 0.32015803588534214 0.07281657308517187 0.3926420264361688 -0.011740670253159774 -0.3107509647963136 0.22679855477846123 0.07050782240912278 -0.16102746366824594 0.015096369527959706 0.15995618962057745 0.10441958553480439 -0.1512924598192844 -0.0711182340107713 -0.17020732479751288 -0.006189480882288067 -0.20547126048711237 -0.34642542175392194 0.14543568464437467 0.14890684947576768 0.24885310004443356 -0.2470428658089732 0.12436935770063638 ]
[-0.15496101028488188 0.3658824720375996 -0.056723523852728164 -0.409754520508039 -0.24763530450941204 -0.006474827433284478 0.16600567453422016 -0.280129776523802 -0.38034399999029594 -0.3896045306842019 0.04507129075750515 0.28120620721271405 -0.3987487102616036 0.3733337973148682 0.3837861827903411 -0.11213281851167506 0.25998778038645626 0.10320756098257877 0.32213752977365284 0.04253786445841005 0.3305246094731912 0.05347376098093708 0.3790932099597173 -0.16349480797626526 -0.33131775651496026 -0.2796562074074642 -0.36651629193867924 0.4662244199100143 0.040063119789128514 0.19326906002450636 -0.3683704727445154 0.294236594086447 -0.11725733497793658 -0.2832295007208965 0.04500108701727477 0.010483223171901887 -0.20891809364704717 -0.27315332371950896 0.26018565381749503 -0.18120742273810284 ]
[0.3155169959866026 0.49676931399447966 -0.5737793822737691 0.07446701930581258 0.04319006509255812 0.3323720924182868 0.13397762246317313 0.10328898387081364 -0.02469274088138881 0.1847559682593 -0.2071209878330868 -0.3387826125099102 0.304772354738442 0.6245912418806694 -0.16658473608684413 -0.2751198053387328 0.17568304699197707 -0.3779306438646592 -0.08715287515608011 0.298848978105505 -0.2353638460550354 0.32925082077971723 0.1639138437493207 0.10556496952980228 0.09458220811012258 -0.3456999748509955 0.5847742476858554 -0.13815927961992258 0.10362540400257918 -0.7700742070859677 -0.25400538537228096 0.364397353827606 0.05796128862458994 0.08919720604407042 0.20029717193452917 0.02145956494193026 0.04030441656431006 0.1106872368869542 -0.32463298291987264 -0.4380472115098472 ]
[0.012907137410736102 -0.19384914554614202 0.03996523324814022 -0.09559466840679401 0.2930034556177767 0.0546444716884314 0.40357773005931596 -0.278678007262898 0.10563968798845277 -0.3848235833638331 -0.048952701547970205 -0.42349491003838174 0.10231224117638663 -0.10451418703092495 0.14056059244634683 -0.2951950037082776 -0.23216762041984385 -0.33828474961276606 -0.2562553708582639 0.06712414187239718 -0.20523536198443748 -0.06668487794367921 0.05323671373771374 0.17129102648924138 -0.35800484654363857 -0.1763833579771182 -0.013138697237863293 0.03351129489858778 0.41591912781592555 -0.1327598738103997 0.18557410259524829 0.2767406330717162 0.010071530707350475 0.20375075129596343 -0.3154775394824727 -0.06995581832262852 -0.14478587425206704 -0.15650448436159778 0.09531899982041654 -0.09655704944452179 ]
[0.005726786614960708 -0.1948276706686848 -0.14599527601133463 0.23275239089173977 -0.055090161894834816 -0.1486501488310869 0.16868241836819978 0.13216423637076427 0.3383427735523164 0.04707311157393778 -0.35862569851982756 -0.3281552216784828 0.04699914066444107 0.022620035450345775 0.1589067851350399 -0.21452001317431477 -0.2771778280635172 -0.11789442188776517 0.15493025536842378 0.40062321412153085 -0.5703609759345744 -0.039454178601215494 0.28051721950031244 0.054634102188064325 0.105516664907054 -0.4035309279176297 -0.02637675136854133 0.06016353266192584 0.11229021299579196 0.032708592778715 -0.008565712199525722 -0.03511154934462871 0.47252169150284584 0.1567088370657789 -0.14046731155800926 0.19420746322564328 0.29499387732010374 0.028774989463457648 -0.47061470280935164 0.04004667910514085 ]
[-0.24135339259415914 0.5104341858265894 0.026328328746865533 -0.31985325557474176 0.2996714763871285 0.38088225686082844 0.2541473074312477 -0.2929542261700046 0.3831962628910624 0.03893034328809885 -0.20354332748398496 0.07326487425031492 0.09666493431467776 0.05486465062488074 0.5585278694135726 -0.02738430096787929 0.07829611398623669 -0.6024364709010328 0.09368425495522009 0.3579136797648354 -0.5348310048475391 0.4027720862046191 0.3177945386319305 0.021975516693195113 -0.6839300213211831 -0.565722357914395 0.38858610565958823 0.582332093180603 0.25726788106040377 0.24593192260994348 0.4521833383226794 -0.17994764355316206 -0.08776218115284609 0.2699532627436366 -0.1297185406302205 -0.1384213110065047 -0.3641601294796319 -0.23736548818302697 0.25555577885378983 0.06329566911978488 ]
[0.4081030230023458 -0.11702911601713983 0.09809302614987969 0.10128591227734923 -0.25727888474403676 0.274198618137262 -0.3112714463134999 0.12291582494022436 -0.2198545907666403 -0.10329187364629146 0.012202771987605578 -0.2727761831280178 0.1609439186608049 0.37413780721485246 -0.318459052324345 0.16166429775640673 0.27935407293046693 0.022301972987519087 -0.05197220028626296 0.24367899316513572 -0.044444530061680435 0.08018182491062885 -0.07324330306102425 -0.45442242394156224 0.3527666451323187 0.017890456132248565 -0.19069471222431641 0.15327197634205497 -0.5945940182076863 -0.05780344959392228 -0.1350306223296825 -0.2605081570985339 -0.00898000442962174 -0.2463381195697013 0.26997760395028986 0.054813484764497766 0.38477808934061764 0.07186465350955132 0.17252994410371034 -0.3837493224322958 ]
[ -0.11873896628945696 -0.04991544396942042 0.0010562329205389663 -0.02580268160867943 -0.11148427385844017 0.00801904069059775 0.08187951461963874 0.06931352004941149 -0.20258040671033564 0.11524842819362022 -0.006581238353600328 0.045495168958654665 -0.06450601370033202 0.17489152193322083 -0.00475920809301088 -0.15696482161230563 0.014486226403130312 0.0022210671785914704 0.13472267062224386 -0.054051144788634986 0.19974882831945606 -0.02533015472015249 0.13592249298913017 0.004934462459910178 0.17501858266319775 0.08692012457661222 -6.670328822034851e-05 0.08124533317176888 0.07740303590228985 0.0229776057687987 0.12082703194290767 -0.07342480659031916 0.028592971912473234 -0.09176813449803968 0.013473978858979604 0.14219354037584028 0.004067042326065784 0.10560359803728266 -0.025526831147342055 0.12648891046777444 ]
layer 3 Activation
tanh
layer 4 Dense
40 20
[-0.04173040111254288 -0.08971358347637096 0.030888324525592346 -0.22845147269174237 0.14142142719239226 -0.12503130954355268 0.1136623208156891 0.31735584224573005 0.14108642991854756 -0.21078274620536902 -0.011739798168098918 -0.3272650688262337 0.24559120516321728 -0.34537942510928155 0.3446711571056449 0.24095335102761756 -0.32278789572033506 -0.32947671082289887 -0.09377713399250709 0.04687343529209077 ]
[-0.47929303830965303 -0.08202533617182195 0.17736633883363292 0.1035220991093842 0.09467926918725439 0.2949553720280532 0.30033291571413184 -0.12150613141679424 -0.3498008795772646 0.056470242768662735 -0.26166348291264585 -0.12787236703991123 -0.05958853589193455 -0.003197373281988907 0.07966761143101794 0.10099610426729515 -0.3070690958479613 -0.229544894963248 0.23791340405425715 -0.2870538822492942 ]
[0.12073501948068181 -0.24871280335531387 0.2231797572133012 -0.20314156842663628 -0.09984792924530882 -0.05940213382409235 0.40243379831042914 0.30583331016174187 -0.10067404506995124 -0.10693982533682765 0.24193570692906186 -0.18231504574749463 0.22310703956016056 0.17194628662902678 0.007380864843323927 -0.16087631902585392 0.09092153894914083 -0.24804300822436665 -0.08098155166206868 0.25375873430351725 ]
[-0.05629416996254561 0.28191856041688884 -0.31775037533278244 -0.019051054179587638 -0.0710772620586648 -0.049613208740482626 -0.10540518384327599 0.010147756168515935 0.145657762093265 -0.18368545444058798 0.2012708610257076 -0.013594520715201366 -0.10286306088280948 -0.15141656951108584 -0.02310615657893084 -0.07113240460616889 -0.15047306564819535 0.16423664605126087 -0.2711036330546883 0.05433921518167237 ]
[-0.38839142652190023 -0.11264883261017064 -0.09125024305828824 0.1883513139104471 0.4899872949428235 -0.05717403341704572 0.552624868479255 0.12528515461819614 0.03161436796616666 -0.08710782690340865 -0.41508474832345027 0.17870535857474537 -0.055849501498066285 0.018640357098177223 -0.2737581429071841 -0.22608390258991073 0.19971547984106047 -0.4495776377851066 -0.15529393187585144 0.11914856488202233 ]
[-0.21732095504330878 -0.2608095788112709 -0.19511983756385626 -0.17206003884727045 0.2902064818691521 0.19295358009380745 0.08855687455589104 0.2764775736788673 -0.2971341132756605 -0.35803204258762655 0.11075164788094645 -0.3108881238242207 -0.17117563972624855 0.06906388732134666 0.175631436143078 0.1741973154253502 0.1449860529754323 -0.17294895615648365 0.16511046386827258 0.06929145382646366 ]
[-0.19429347010125664 -0.060728041255452975 -0.6237312987328133 0.19979505903750666 -0.08131965617993436 0.2338863202799384 -0.08483788531235459 -0.1938576244718766 -0.2402700706397076 -0.12388396437438975 -0.24798687180122886 -0.08519896271328535 0.13326814461699166 0.19105588700350296 0.09240855993086951 0.023852149314377416 0.3525528073225669 0.1319481495297277 0.27817131493481284 -0.2020591558913728 ]
[0.24695588159646456 0.12026196321528553 0.0878804284470952 0.17885505297979912 0.03379421466584724 -0.09141582321864397 -0.22328981611397344 0.046716089857754814 0.3766543904739107 0.09645217127569632 0.3615792134984845 0.007106150694517553 0.21653970850268597 -0.14773176106746963 0.14339986177932024 0.18533099257454821 -0.18537501031291898 0.24401012464363797 -0.3938356554203071 -0.27520343464695696 ]
[-0.22432085880055927 -0.12084522362129972 0.08687282331051918 -0.1442055769535893 -0.11743952654858614 -0.10485367264041429 -0.13369583097459165 -0.3043340685862561 0.3870842660932659 -0.2872870539529211 -0.46578747106375173 0.17425912545807187 0.26673429259017145 0.16350858605695878 -0.22218414181748655 -0.012818811928326653 -0.1914685113117916 -0.006513479842925671 -0.08289488194466381 0.1728104213735632 ]
[-0.05567089375147235 0.0006026960976109776 0.040920154192060965 0.14448117049468423 0.15501682053611648 0.033823970083497655 -0.11901873638575108 0.15380754965919577 -0.20536824181157445 0.15516632075479128 0.20283881385168914 0.3807668507144199 0.11136786955797784 -0.1619316022789322 -0.16337767037865233 -0.1278463137221816 -0.18122421898615979 0.08685955416720968 -0.43648568371985064 -0.24667645210860686 ]
[-0.3087605409316536 -0.06076914748535893 0.12821068166817726 -0.11324714024289381 0.2935865163744262 -0.12747936459337889 0.13057555470137744 0.2567434059180155 -0.06501642496379027 -0.021521169834277917 0.10189537372202923 -0.2187823906618709 0.21710390280144806 0.27356134158208634 -0.003216062462407022 0.26759965882718106 0.17496426047692057 0.1282618256766952 -0.330062161427924 0.04272442740163838 ]
[-0.3411371797849583 0.028619508222438438 0.18230896119667972 0.11749403400252513 0.43892582999954116 0.13646829015395034 0.32457423667707674 0.45635864449097907 -0.33748583183539826 0.4169905238623768 0.4383054453697942 -0.36562691564607275 0.05911592625146721 0.28112834591787417 0.10150241159629377 0.1435611519473124 0.03267579009384036 -0.3311257560501626 -0.3856129411442397 0.20851385915319062 ]
[0.1705874852173666 -0.1849443421733151 0.09386049312846331 -0.35986690299255547 -0.35366135651419883 0.22383809880988298 -0.42310822457843617 -0.3940211498585853 0.5159259687832513 -0.472331229014961 -0.044064284895198466 0.170265447446905 0.12019918583167225 -0.041784885984957235 -0.22961907778245252 0.15069730145757815 0.18463732347649467 -0.09449525447657622 0.33602610097715735 0.1178548159690532 ]
[-0.053994149774508705 -0.24103241798204664 0.017972921661697665 -0.38290686846615696 -0.2551591167473308 0.17685266539088973 -0.12368573284877825 0.13312513971083584 -0.2803449969120118 0.04619789536589569 0.022324685099667417 -0.11350032479807812 0.027059305721535448 0.03817238995837521 0.15306242541199439 -0.242376752285405 0.4190494265580674 -0.23570208244254862 0.4641338726379 -0.5673669216939781 ]
[0.17686514111136645 0.053122947096224955 0.16570009079804598 0.1600891083903761 -0.017595111562079796 0.09463290836577379 0.4053366989183119 -0.3027697052570123 0.04414843026192052 0.16201325740340863 -0.1896108198134283 0.45437134932673645 -0.04169055745642875 0.3685467181653162 -0.07966903097084468 0.04402206074427231 0.2511507015341158 -0.3807978276970011 0.4107303836235621 -0.18952252070583586 ]
[0.11974086206677427 0.49361840066258256 0.20769139024132824 -0.029589925464661906 0.39896202870607245 -0.1420986458909401 0.06040665215647173 0.41264229272301417 0.18724112895041337 0.021011461093431577 -0.11625102364648117 -0.4051730922692074 0.08377491746161791 -0.20206974787070614 0.13035768814953405 -0.24363391939765588 0.08047127390027126 -0.15063327525831138 -0.21224134211777781 0.21739346055074563 ]
[-0.31004352653539474 0.40452900285021554 0.19328231184496758 0.12812346347654124 -0.08506146818740824 -0.3836596294490266 -0.1176835339926297 0.34026806143874705 -0.4393549050210812 -0.318895506937846 0.14093251209924743 -0.1442154658312212 -0.13166825108811459 -0.18023928898735905 0.30815265113679635 -0.11691565392185466 -0.010564351920241266 0.0413838786797786 0.18174936090690524 -0.139807335902021 ]
[-0.042246992094117725 -0.11034751359407753 0.08811710743477945 0.21035884002746555 -0.23069785831729495 0.027693368075629856 -0.2351062267935627 0.2267703514207894 -0.07631180976463649 0.19086722936867828 0.33920707752660123 0.10870676698416074 -0.17643623749475507 0.05101257097863148 -0.14319694970688066 -0.30733851184971933 0.31053199963840883 0.44482620965067315 0.23672816622942133 0.2926508549375399 ]
[0.15363722522368117 -0.4143366134856884 0.08283291223286683 -0.1543317375608994 -0.2655778002457037 -0.11549625479716909 -0.18635284424717713 -0.2644615677767499 -0.20464751985232582 0.23310663122317873 0.3542632451165767 0.07859190504633566 0.1478851256106669 0.37564997324979377 0.027439245595582244 0.1265724754043059 0.11854168834385528 -0.29921857421407905 -0.21457840266281683 -0.4003730638256089 ]
[0.03360064111310043 0.2935777757753102 0.3861807501431793 0.19905946476960398 -0.22263343506548916 -0.03105332479736668 0.1142058770417326 -0.40159156907733295 0.02146957720434857 -0.13216717665229413 -0.29056592736043363 0.16731831602389932 0.03600193562530143 -0.21554778199562993 -0.24731199035757395 0.1137197549244558 0.061432180884490026 -0.07796870195416568 0.27876908471688805 -0.20116988179526554 ]
[-0.3050936864223517 0.20770636716042654 -0.14786956154643294 -0.12998161958180707 -0.1548782505372321 0.2275366427067435 -0.07453650436773292 0.07246589672370331 -0.2798322330976083 0.003785571627189149 0.4603036370706835 -0.18325693302739834 0.08673693006745282 -0.01586514313515766 0.21482742753323908 0.03569839509023828 -0.20213580473337006 0.31499382720328734 0.15228488552290706 -0.037034818283919815 ]
[-0.09562822322627261 -0.45547389899974167 -0.08061745153823119 -0.16707688235255444 0.04891416724024452 0.017542982139911734 0.3411064342337966 -0.31970824594278224 -0.2728805832046422 -0.052703825511805635 -0.043216121642364214 0.07666771867197535 0.018633556943800807 0.24272254293528014 -0.10094678977694568 0.14239043051112246 0.3832935888501319 -0.10053277515293921 -0.362992080364326 -0.15847747293488598 ]
[0.4104808666598751 -0.48212015900737226 0.04479034152411335 0.08516212913452499 0.030327480180019205 0.24227036949432354 -0.3686155553661904 -0.30377240543459966 0.19360547794742938 0.12812056088859214 0.05374109353122342 0.3226345066780312 -0.15327466814578986 0.20697312028906117 -0.23979191824437496 0.07343063588427107 0.48264586326389963 -0.3426076184989117 0.20537315299619952 -0.50495287895089 ]
[-0.16278829168034517 0.03670072171055168 -0.3470354012513787 -0.2794028638182311 0.40096839514241944 -0.1938575745534977 -0.19161142926972174 -0.2826454780315218 -0.2085606876271137 -0.04697120530008616 -0.3880054986426795 0.42872730505858 -0.05342028419914234 -0.36947135160286204 -0.45983828874138344 0.16037781252587432 -0.30510160571170697 0.03537644077278839 0.2472994272853433 0.42274228252168594 ]
[0.296455292464976 -0.055262216976581326 -0.05233716504765474 -0.1376410062439731 0.13902788022281978 -0.4523758639013109 -0.2163700933140525 -0.00781601985422713 0.037493836034013975 -0.312290910366008 0.5379500256189453 0.05653178673678076 -0.2315080869276028 -0.27371857005841765 0.34250972180629624 -0.20593505681603388 0.013649949778159894 0.24955188859493993 0.15758469763620778 -0.26398087957065275 ]
[-0.13331080724281727 0.21139664983530493 -0.14818821122915604 0.17516778615830111 0.0068940564973662515 -0.14903207194251344 -0.3428032380178294 0.001620603702429034 -0.13101556808311748 0.29713468183621394 0.48398351245296023 -0.17323496155794008 0.21910576244903754 -0.2725871630307123 -0.32874870390274613 0.27662787920474396 -0.20955195494727552 -0.22933912009989021 -0.5310742510296538 0.07808061579118332 ]
[-0.3642206270035166 0.08984183183990477 0.47890638725033136 -0.01710592577031084 -0.1535312907041345 -0.22571722108355002 -0.13303277415152276 0.12961313367416238 0.09018633743134576 -0.21509582521753162 -0.3962102686524326 -0.10511113384286352 -0.22968485443772949 -0.14526563199556458 -0.13752049229447608 -0.09192048318598094 -0.19298115946514657 -0.17101597717086076 -0.14820889358314812 -0.1751413685135084 ]
[0.019210266031322424 -0.6755067771262783 -0.06562294188072318 0.04035523460739931 -0.11605825484493902 0.09185506348360493 0.44181697823916355 -0.05466896365368812 -0.3453674712293137 0.11353641850638234 -0.14249474997950456 -0.07468215053840861 -0.16851545546729405 0.2620709532025026 0.13117673769336646 -0.3204746570764177 0.42118043319196097 0.009536594069918376 0.02672304825888456 -0.3805331747915451 ]
[-0.026064359679684214 0.004960653484041169 -0.14750577207290672 0.3023878487843639 0.25935984759807107 -0.03736188768717033 0.22507529494890588 -0.2832013702161285 -0.2555690157374527 0.2091288597234752 -0.12405578464044195 0.21205194403075225 -0.22991366810845726 0.22224608405304064 -0.1217311143346448 0.011193418859331766 0.2690878778935708 0.2866176680026119 -0.4210595406056608 -0.03757620310096202 ]
[0.35797478250463377 -0.5188475689369602 -0.30785816101488844 -0.1777512095459559 -0.24712619409151837 0.2869076885974217 0.3156437429186034 -0.08148841013145391 0.13064614649744524 -0.07961127492692865 0.3861461384916923 -0.09529336315421705 -0.2330537015366971 0.3257048175009785 -0.1284974026773669 -0.2147250059468367 0.2981364573373286 0.20401592866620888 -0.1623927004518687 -0.21076645256508728 ]
[0.08569920561895823 -0.030219241996179404 -0.2702675942869295 0.16211677426759838 0.39313698372117567 0.1980397095531895 0.33481530551361516 -0.29717935545748225 0.2354366132050791 0.40350803894202386 0.015340079283866407 -0.05991648667684739 0.03179412969312463 0.2755365794196258 -0.10748747795361335 -0.14014746764695477 0.07517771624547355 0.014382851937370628 -0.32737531534968073 0.33248267375059815 ]
[0.17331442201711728 0.23544941059646216 0.25006761219153295 0.17457170541466602 -0.19931155560865807 -0.2635429690327407 0.05753569143001701 -0.06182079236237742 -0.24561953310374082 0.2901285535858669 -0.3501458368329097 -0.14096305583603563 -0.09340040292099257 -0.07372559510417578 0.2354777092538147 0.2212385230610486 0.25173569346607444 -0.044831209240464145 -0.027709341253581488 0.26457859436002357 ]
[-0.045533333317641644 0.29509753976355757 -0.1884760223817033 -0.3798909046551618 -0.24370546911582888 0.15987087113650983 -0.4777931342124645 -0.16222698451561826 0.13344557900328813 -0.07061816170526854 -0.23054407766291043 0.21490414949051967 -0.1371279470095022 -0.11160903893408113 -0.24529037261813416 -0.2527796958448479 -0.13153250359635005 0.09888848317879458 -0.08987377339673597 0.07669460774647437 ]
[-0.07490156122485377 0.070090488129442 -0.26167583427751806 -0.2340747055556711 0.24054323430403357 -0.09435203594087749 0.18806746626012935 -0.21669403017615524 0.18699004178253667 0.061107938726568486 -0.34871989280428467 0.08281212802466752 -0.1693233660140589 -0.1653769316456629 -0.06703870911694122 0.16692629438543255 -0.19991248434992914 0.33407912499639375 -0.46390171540329844 0.13368000900441687 ]
[0.09983880345909102 0.18086729091515677 0.3175201726479354 0.1923904820977921 -0.0015036565210761247 -0.5428622378196523 0.21996887328652057 -0.26398026333379937 -0.20865306382160378 -0.20946314996839044 0.26835707052341473 0.08244620312957524 -0.2865735017390104 -0.2745403700742262 0.061951095764934426 0.18984485575126586 -0.24171573532990182 -0.28428315205583876 -0.33135344473588507 0.3517650973955152 ]
[-0.09884735016213807 0.04242117600319161 0.125977938972058 -0.07239127064854968 -0.3090502642394076 -0.10181962625603337 -0.3796573338824858 -0.1875308252676121 -0.2521867409738794 0.23562900708459447 -0.16959743583402365 -0.10535098190023758 -0.0637551524419848 0.09175465106674956 0.08948726775755218 0.17643523267134606 -0.1989504719257899 0.2850868427325387 -0.1686206700996525 -0.07665197543621668 ]
[-0.14896252165930632 0.23543842547290225 0.17374032612101814 -0.2770303209885219 -0.3834956952358902 0.16717613504287043 -0.19678240014834997 -0.3582075816545356 0.23306985716311476 0.2020383840993566 -0.0643316315572001 -0.002658931999449188 -0.2628150156046569 0.19652294582156501 0.13723615985161658 -0.14075376543577994 -0.008518143831709506 0.3439547662532746 0.18478565690723275 0.2633399124508013 ]
[-0.05500964429627759 0.0877965912077566 -0.343210465861148 -0.374308283684375 0.15557862213931162 0.29779200115152615 -0.1355737291594504 -0.3247007363266359 0.12425451960400123 0.21321110506943058 0.08974310780515714 0.048299155702218564 -0.1263464151956351 0.35428986077350033 0.08382541559552063 -0.2708910228435179 0.4443209216770385 0.3717536695408818 0.241200870117694 -0.21376202353199683 ]
[-0.12977543911784478 -0.5546545683117312 -0.04863355122582625 0.17634961012913117 -0.21333299841991377 0.2037869917161283 0.13834906095127386 0.36283382644201506 0.1547541291380561 -0.031888194816677595 0.2928294474067399 -0.37276843537633153 -0.1231818659114717 0.40189920690918934 0.10249804446449352 0.17735048312618384 0.42466414360978544 -0.315666214028091 -0.19879418905591192 -0.29847731405453204 ]
[-0.08892864688895309 -0.566757198426573 -0.246087731345588 -0.18296164228648962 0.0076255066782669545 0.09311857524385797 -0.07592968299786958 0.13285423136108054 0.3025344528541899 0.535268469831084 -0.010076457320427298 -0.045221617717653644 0.3475073837765 0.525290860408093 -0.25898033438040435 0.24966798636313595 0.4708157297641685 0.2991182199962181 -0.25973069802927795 -0.1750977136355402 ]
[ 0.03659628956655545 -0.13218227165049098 -0.1112552009954896 -0.0932712231977536 -0.0929048701036749 0.04307599420267089 -0.09795686411099831 -0.003088015167352616 -0.039661617817943105 0.0775578673653586 0.05056003671336713 0.01805519174452052 0.04003047383807699 0.06126699686798284 -0.023249229206383785 -0.0019413915672171513 0.16143226102248606 0.06797224764735973 -0.04995998107091891 -0.09329314990874751 ]
layer 5 Activation
tanh
layer 6 Dense
20 1
[0.24999723781866678 ]
[-0.22998862691118208 ]
[-0.19896987812500008 ]
[-0.19038157051405766 ]
[-0.3735215939730649 ]
[0.10733893716446373 ]
[-0.6775625261636853 ]
[0.37585316664634394 ]
[0.4457980343252346 ]
[0.5746106728356851 ]
[-0.6903546784670975 ]
[-0.31539368484709573 ]
[0.025110516719950172 ]
[0.6393313031107551 ]
[0.0591172791230201 ]
[-0.03327059923813413 ]
[0.17242472116485733 ]
[0.6124537475344373 ]
[0.3570324713013991 ]
[-0.6381412954176475 ]
[ 0.13169870793110108 ]
