layers 7
layer 0 Dense
24 20
[1.2352303 -1.2729939 -0.058892183 -0.71928555 0.10919429 -0.12304638 -0.0972389 -0.33426264 0.42706656 0.49370122 -0.7579775 -0.24039885 -0.012270954 -0.12914982 0.57491046 0.21268673 -0.022395179 -0.6523823 -0.33628717 0.3558533 ]
[0.17475097 -0.5093717 -0.5426659 -0.63515437 0.07747418 0.5150453 0.45698917 -0.9174159 0.008146022 0.5795345 -0.49965143 0.23125339 0.023815462 0.12748331 0.0011001276 -0.77995384 0.42684183 -0.40845412 -0.60895884 -0.22075485 ]
[0.26131666 -0.6728354 -0.47499037 -1.0393584 0.4045069 0.39678708 0.7384366 -0.9184185 -0.14104788 0.7373742 -0.37379256 0.4289823 -0.4184312 0.5292559 0.2769767 -0.8833612 0.4832311 -0.2880255 -0.2494303 0.18980415 ]
[0.6028917 -1.0825425 -0.53723 -1.0107279 0.07131997 0.22532465 0.0905401 -0.69656247 0.4617776 0.457093 -0.85604614 0.023605572 0.11995137 0.36925173 0.41913223 0.2743564 -0.44394282 0.025202066 -0.51823497 -0.04284347 ]
[0.77662164 -0.08453087 -0.18488061 -0.08952468 -0.2177979 -0.24975595 0.039102014 0.5335655 0.94711864 -0.16358684 -1.1096404 0.5211905 -0.5070216 0.75819916 1.3049066 0.5628625 0.41447285 -0.72398293 0.28807428 0.53191334 ]
[0.1434058 0.21275966 0.09836961 -0.32139993 -0.0966399 0.22669365 -0.87582994 0.09277041 0.31030124 0.12918645 -0.69197375 -0.09133042 0.09852192 -0.2728474 0.43338266 0.63714695 -0.3188417 -0.24998479 0.2090394 -0.43742797 ]
[-0.17772005 -0.18275648 0.6316748 -0.29024008 -0.036972933 0.1943415 -0.91292447 0.08438396 0.03354573 0.11585879 -0.20158255 -0.59537846 0.25329378 -0.22332671 0.4520717 0.5079725 -0.34268603 -0.4002159 0.19469218 -0.028922504 ]
[-0.7267653 0.80761814 0.12935244 0.8790242 -0.12032461 -0.01663515 0.042948768 0.7035648 -0.16563256 -0.7443345 1.1464319 -0.31028736 0.56931597 -0.3634543 -0.7308804 -0.16845392 -0.20190893 0.44511056 0.3860074 -0.20231307 ]
[-0.062386945 0.7970918 0.7265991 0.7108754 -0.074915685 -0.25874582 0.15276103 0.7805639 -0.33810464 -0.68428034 0.6415258 -0.4435345 0.1788227 -1.0971224 -0.5701008 -0.059212815 -0.16298261 0.43052155 0.04662029 0.21932939 ]
[0.1897158 0.24976547 0.36210132 0.31511837 0.481515 0.3213869 0.46737254 -0.074545644 0.792394 -0.5271841 0.12216379 0.42188984 -0.016348021 -0.83315223 -0.6668303 0.26973477 -0.7939518 0.57752925 -0.24034776 0.31552973 ]
[0.035825815 0.059411984 -0.6680659 -0.19933048 -0.37225503 0.07492999 -0.19972976 -0.43434894 -0.28367648 0.068094075 -0.35046792 0.07185749 -0.8407739 0.5124387 0.17905329 0.7654246 -1.5894654 -0.22426419 0.6203621 -0.52527815 ]
[-1.3372256 1.9201869 -0.17965443 0.4948141 -0.41735002 0.39712173 -0.025611222 -0.084452935 -0.3969759 -0.77846766 1.029377 -0.7239028 0.5289711 -0.96521294 -0.26717874 -0.7889286 -0.4640298 1.0832055 -0.37102592 -0.709404 ]
[-0.40656483 0.6065997 -0.37449968 0.35188746 -0.41165054 0.39662755 0.16525061 -0.35911793 -0.45989683 -0.096790954 0.4869873 -0.32400906 0.30746338 -0.29338294 -0.6313899 -0.3277985 -0.84693205 0.19627346 0.39551175 0.47669074 ]
[-0.22663349 0.12338166 0.33103365 0.15805978 0.113528565 0.39943734 -0.47503778 -0.84321034 0.771554 -1.0525807 0.057270013 0.55142766 0.0337638 -0.052725017 -0.7683522 0.16984718 -1.073768 0.6396923 -0.32767132 0.49114096 ]
[-0.28258628 0.04868403 -0.59492743 0.07080635 -0.44930428 0.5458926 -0.16792248 -0.78639096 -0.2985692 -0.45271963 -0.056051552 -0.47533312 0.96660554 0.39440855 0.11536977 0.75891733 -0.20144394 -0.21995014 0.6485464 -0.5324717 ]
[-1.6324472 1.9325718 -1.2535089 0.714837 -0.23430961 0.8571656 0.80811936 -0.124538705 -0.40710917 -0.30381426 0.870744 -0.34973937 0.9450274 0.090496846 -0.7916716 -0.902412 -0.63378954 0.3862648 0.13102813 -0.038217165 ]
[1.1048865 -0.23787217 0.73113513 -0.17956081 -0.1302221 -0.17845947 -1.0768996 0.29456332 -1.0801678 -0.027411234 -0.91287184 0.35381737 0.24944465 0.21564516 -1.4618028 0.86625487 0.0800515 -1.2162863 0.72203636 0.7935778 ]
[-3.124957 0.16837417 0.44495016 -0.04525643 -5.108233 -8.083117 -2.5330117 1.4158661 1.095119 2.2643437 0.55553454 -3.653934 -1.7932693 1.6597376 -0.7811789 -3.906704 -0.09268372 -12.988163 -0.4581736 -4.525802 ]
[1.4923321 0.15028428 -0.11870126 0.4134195 9.612062 -7.1260767 0.23385316 -1.7070192 -0.452332 3.400663 -0.13803715 3.4443183 -0.8753195 -2.4928815 0.087393895 -11.951935 0.5233556 0.6437173 4.0184965 10.006881 ]
[-0.07952683 -1.458187 -0.69265497 0.6757752 0.014426479 0.34494182 0.67337376 0.7372092 0.15566626 -0.7015858 0.8999331 -0.8438383 -0.90474236 -1.3068274 0.71277463 -0.21717957 0.08676843 -0.14976 0.05230651 -0.2768587 ]
[-0.7413611 -0.7149407 -1.7042526 0.44118354 0.44209415 0.25114515 0.9080026 0.60257536 1.7617854 -1.2333677 0.9022807 -0.67585737 -0.6800688 -0.9225901 2.256049 -0.68943846 0.41043773 1.1756912 0.26237798 -0.99474597 ]
[0.57487226 0.121681206 -4.709849 0.1640287 0.5870698 0.3137412 2.433188 1.5370511 -9.315613 1.4937513 -0.15155837 1.20144 1.6435919 1.0067403 5.132018 -0.023944478 4.5750675 0.4733862 1.0637096 0.14582328 ]
[0.16653936 0.10931777 0.9122859 -0.22411913 -0.51755834 0.12488587 0.14218357 1.897307 0.30276096 -1.2225084 -0.40587112 0.14047591 1.2535466 -0.4776464 0.10253865 0.84586364 1.5235915 0.14334406 -2.9047773 -0.7658612 ]
[1.2209083 -1.8889985 0.9541229 -0.8234571 0.035958435 -0.9648769 -1.1275611 0.23177136 -0.27976078 0.43101525 -1.4785576 0.7446669 -0.052209426 -0.2894255 -0.9391845 0.7297114 -0.35852715 -0.8533255 0.4148584 0.5002487 ]
[ 0.40785033 -0.35435683 0.0002914765 -0.7013645 0.1360386 0.10264432 -0.06707554 -0.5457556 0.13919859 0.5220241 -0.39942744 -0.029976454 -0.07375387 0.4735568 0.34030405 0.051385112 0.18038306 -0.19767496 -0.32363465 -0.15364307 ]
layer 1 Activation
tanh
layer 2 Dense
20 40
[0.48862365 0.56132364 -1.1894947 -0.3981637 0.50883293 0.17453445 -0.21533579 0.07005226 0.5531044 0.5600121 -0.7003722 -1.2046267 0.6062574 0.09038442 -0.19505414 0.2214491 -1.4967982 0.06952265 1.1302114 -0.48891512 0.09988302 -0.97721887 -1.6472057 0.16123007 0.7978006 -1.168841 1.304733 0.20518398 1.7192563 -0.1890083 1.0780404 0.71397215 -0.48345885 0.0031261893 -1.6902245 -0.57216996 0.67999476 -0.00023569347 0.23950261 0.78208935 ]
[0.9560036 0.82446945 1.1727622 -0.2192035 -0.30009285 0.9825257 -1.1040068 -0.034647997 -0.8020124 -0.6972407 0.36622366 1.6853045 -0.9731722 -0.8097467 -1.1737198 -1.8610611 1.2607833 0.15224296 -0.027533038 0.9901125 0.6486563 3.301399 0.11277864 -2.1256776 1.079251 -1.5571158 -1.536638 -1.3148048 -0.8799499 0.38870728 -1.5853654 -3.4156396 1.4519087 -1.2953424 1.8185498 -0.67620105 -0.79329336 -1.9519721 0.40816882 -0.14611368 ]
[1.2335356 0.2435013 0.03279906 -0.8023376 0.025586307 -0.37594956 -1.3397971 0.44197324 -0.2826148 0.16108803 -0.09899659 -1.1811237 -0.18267693 -1.234319 0.33425194 1.447603 -0.06218024 0.3119407 -0.049073387 0.022822587 1.632725 -0.011973619 -0.1819645 -0.20085154 0.3549818 0.4637072 1.0795871 0.005799351 -0.13280568 -0.38232186 0.92063653 0.82248896 0.22516379 -1.2688282 -0.96352243 -0.42981362 -0.25295013 -0.81360793 -0.32357344 -0.2768147 ]
[0.24452843 0.55708086 0.9859905 -0.1401435 -1.2713875 0.22460711 -0.45374307 -0.37305704 -1.1118069 -0.70932484 1.0565394 0.8936098 -0.83691245 -0.39158264 0.08017057 -0.24468774 1.1767117 -0.035960913 -0.45532975 1.3505259 0.68385834 0.68879914 -0.61003923 -0.051511593 -0.36063138 -0.17934676 -0.995038 -0.04157471 -0.16678898 0.099784486 -0.63793695 -0.3296099 -0.13126262 0.0891023 0.8799526 0.20125496 -1.1031846 -1.1062272 -0.08165288 0.5792877 ]
[-0.03189878 1.3668739 -0.12841237 -0.44005385 -0.5270077 1.6235042 0.4484519 -0.38895392 -0.18855168 0.22750628 0.21101391 -0.09214915 0.232436 -0.19971736 0.3156132 -0.5628818 0.18378587 -0.9390754 1.7866281 0.19509093 -0.050137784 0.19936441 -1.8839695 1.1103295 1.7428559 0.66182894 0.20736194 -2.2600265 1.3278667 -0.4977808 -0.012594479 0.68815815 -1.3327419 -0.42888424 -0.83585465 -0.3233559 0.1517286 0.6984649 -0.43978086 0.51859254 ]
[-0.25348654 1.6381266 -0.32258004 -0.10840923 0.8961969 -1.6757897 -0.029430537 0.5144083 0.319604 0.3403177 -0.6816724 0.07038411 0.553069 0.19836174 -0.89101166 -0.6216799 -0.2983406 0.26249403 0.5566798 -0.64527404 -0.45470408 0.4219901 -0.875507 -0.096430436 0.5094985 0.3935044 -0.008910205 0.20415547 0.8747876 0.88286203 -0.5504745 -0.8170971 0.63339025 -0.07012733 0.42262912 0.051867053 0.5455972 -0.2643721 0.90017736 1.07778 ]
[-1.3444796 0.0014290494 0.14075504 0.2945765 -0.44002587 0.77630115 0.564942 0.33169106 0.4213556 0.37004018 0.053336594 -0.16333929 0.25536928 0.8401434 -0.51741105 -0.4071814 -0.010586268 0.32537958 1.5344179 -0.26830122 -0.94314015 0.07492873 -0.041339234 0.002565799 -0.2704185 -0.1991615 -0.18815565 -0.49751225 0.59802365 0.2635919 -0.320752 -0.51626873 -0.31653792 0.3339299 0.65655315 -0.3296508 0.26582658 0.3526849 -0.19075246 0.17420787 ]
[0.26814678 -0.33579054 0.51666105 0.44868755 -0.45984852 -0.5821173 0.460726 -0.03076956 -0.68856514 -0.8745775 0.8407688 0.75783354 -0.7844901 0.29481104 -0.07234259 0.4390788 0.53328073 -0.002185871 -0.3514184 0.39274058 -0.28048578 0.008412629 -0.16463311 -0.27855948 -0.6651106 0.10261896 -0.2568751 0.732951 0.22883499 -0.14443614 -0.41815552 -0.070952 -0.2793732 0.4087498 0.13805689 -0.21928325 -0.60686153 -0.055902537 -0.17081271 0.413997 ]
[0.2169503 -0.41755345 -0.17822604 -0.8898501 0.6643696 0.19308324 -0.43276176 -0.5646755 0.5543164 0.033018135 0.05324842 0.56425005 0.085944474 -0.78656465 -0.5139371 1.7621812 -0.24880518 -0.16310355 -0.6758938 -0.40826502 0.71815217 0.28961915 0.5600344 0.3565607 -0.48381346 3.679173 -0.69351053 0.03515722 -0.28705928 0.485681 -0.8974961 0.5199879 0.5563471 0.5560462 0.28426316 0.98250335 0.48790613 2.7096162 0.49861223 -0.14172445 ]
[0.66177845 0.4366362 -0.4095283 0.04375116 0.60055953 0.062143896 -0.19551122 0.25971144 0.14959374 0.1257054 -0.37073925 0.092741236 0.577477 -0.16962491 0.22870904 -1.0205709 -0.34922424 -0.115455076 -0.07288557 -0.16175073 0.15638779 0.38298085 0.263534 -0.76109236 0.8152655 -1.2961594 -0.20110582 -0.7470255 -0.32448742 -0.04470721 0.03800093 0.11533904 -0.036295984 -0.5238866 -0.22383642 -0.92286247 0.20242587 0.30757135 -0.0891608 -0.54116184 ]
[0.54570365 0.2960091 1.0438089 -0.36899078 -0.79201293 0.5977698 -0.26757652 -0.110452674 -0.96727604 -0.70163476 0.74036473 1.3386102 -0.9974949 -0.62168664 0.09168877 -0.87235206 0.87305737 -0.100707665 -0.14338483 0.74860215 0.46641266 0.9901885 0.8033459 -0.25059664 -0.3727404 0.031525325 -0.8989866 -0.2720808 -0.63617593 -0.017169407 -1.7992393 -0.45060065 -0.05536235 0.056991305 1.4862096 -0.303199 -1.0275999 -0.4380764 0.7772094 0.43007284 ]
[0.24886537 0.41030744 -0.015931558 -0.068544075 0.048361987 0.19733109 0.037856165 0.22478414 -0.06663201 0.09940982 0.13587709 -0.18442555 0.046942286 -0.45442766 -0.094140165 -0.26085913 0.12407195 -0.09257978 1.4581963 0.16305625 0.3856617 -0.50949335 -0.6017221 0.29033267 0.49064106 0.1409797 0.14392005 0.21919425 -0.29053828 -0.2209998 -0.270808 -0.21612972 0.14426197 -0.12554325 -0.5389797 -0.06057617 0.002064469 -0.51194876 -0.37108976 0.6725868 ]
[-0.14050294 0.29407766 0.2755444 -0.40180546 0.004223656 -0.048722528 0.26160076 -0.11678681 -0.2918733 -0.4204781 0.47710478 0.53326404 -0.40096512 0.10021132 0.18286622 0.24511199 0.21285538 0.2758344 0.82309675 0.23254232 -0.40628442 0.34450632 -0.15061595 0.47950527 0.6092059 -0.6598563 -0.38368022 0.45047718 0.53557855 0.41214657 -0.4277822 -0.80408216 -0.3243746 0.056287512 0.3762816 -0.25050363 -0.26531982 -0.7370411 -0.20244126 -0.06809183 ]
[-0.34061816 -0.04521813 0.07812105 -0.19004513 0.031239774 -0.123629086 -0.066472605 0.5268287 0.19121015 0.22277546 0.24939214 -0.38619748 -0.1509946 -0.18208306 -0.05332618 0.31080624 -0.3112255 -0.06988333 0.37646323 -0.0235863 0.17428692 0.17735371 0.12204272 -0.37534943 -0.13997443 0.12361457 0.5003117 0.2338024 -0.48733118 0.40983343 0.45570442 -0.40256143 0.57844555 -0.43772954 -0.27980456 -0.27566722 -0.24809183 -0.84758085 0.26284242 -0.22226284 ]
[-2.0840716 0.23139365 -0.091892414 0.76862967 -0.1601292 0.78265226 4.546076 -0.33068317 0.108083434 -0.23599811 -0.5616715 0.8415225 0.7304533 2.6864097 -1.3234721 -1.1655518 -0.3534055 -0.6691504 1.4149374 -0.15076211 -4.7082725 -0.6734769 1.0394231 -0.8277114 -0.21319343 -0.31602532 -0.6383098 -0.6612981 -0.37672007 0.5091828 -0.2664168 -0.0054165497 0.36840698 3.2675714 0.1999227 -1.8751137 0.20899646 2.3343859 1.0029507 -0.3709811 ]
[-0.2572744 1.5971676 -0.37208253 0.27754825 0.35277057 -3.481118 0.36400878 2.102689 -0.22921741 0.1481275 0.18345489 -1.5060959 -0.34268805 0.10761834 -2.6212544 0.9343616 0.072899 3.452018 -0.049322363 0.20806521 0.08049052 -1.3009653 0.10956104 -0.67905444 -1.7733563 -0.44703448 1.1299963 1.795925 2.0716052 3.3227415 0.99032885 0.48430434 2.0047004 -0.4046988 -0.77278906 0.016560566 -0.084140964 0.0683715 2.27099 1.5291735 ]
[-0.9626209 -0.5747251 -0.038539533 0.29812223 -0.06821172 0.2828616 0.52336884 0.13486592 0.28572625 0.4541547 0.15370134 -0.08564623 -0.074571595 0.685145 0.0086874515 -0.35806265 -0.06549379 0.5191528 -0.14208408 -0.28724757 -1.0882105 -0.7839417 0.017451994 0.3005023 -0.22603796 -0.20807345 0.5865551 0.55789036 0.9911479 -0.3736784 -0.030068643 -0.08018052 -0.2073922 0.72265357 -0.33933163 -0.80985326 0.20790699 -0.08793607 -0.23071048 0.059416752 ]
[0.33745176 3.4560192 0.24228676 -0.64287055 0.800369 -0.042418446 -0.040992502 0.7135499 -0.14971635 -0.25643048 0.41574517 1.3309997 0.3710364 -0.1838807 -1.4609724 -0.8727618 0.24955344 0.49262238 1.2686896 -0.4310138 0.17101817 1.4850844 -2.2476814 0.0995367 1.232161 0.51425713 -0.87553465 -2.1490862 1.979926 1.6382982 -0.8706374 -1.274355 0.7712254 0.29584464 1.1283888 -1.1576803 -0.3074228 0.36892864 2.0911257 3.011023 ]
[-0.61676806 -0.896126 0.4786976 0.4399553 -0.67967725 -0.42152828 0.37628078 -0.1907036 -0.664776 -0.55518764 0.6371187 -0.32782823 -0.36482593 0.46635962 0.697055 0.012319176 0.79334635 0.1766436 -0.058627617 0.92725873 -0.44583675 -0.79892284 -0.7990245 0.16257712 -0.64063793 0.12597543 -0.11010986 0.44961584 0.62230146 -0.539602 -0.10218943 0.3323279 0.03324794 0.93609375 -0.1715134 1.3636799 -0.67270666 0.4979038 -0.0541148 0.7560218 ]
[-0.08015883 0.29135817 0.045021847 0.29948756 -0.44081134 -0.46524143 -0.33250472 -0.41415185 0.23790684 -0.0873024 0.25235552 -0.5155741 0.0724187 0.24432765 1.5178275 -0.12163822 -0.012167478 -0.6320446 0.20929715 0.06496084 -0.09046044 0.16693942 -2.4743643 1.1111953 1.7738239 -0.361325 0.28043246 -0.92519045 1.3332076 -1.6718421 0.22132733 0.07863187 -1.6307825 -0.004444436 -0.36988315 1.1579436 -0.3417094 -0.4470938 -1.5463048 0.9141772 ]
[ -0.15475093 0.19569121 -0.93561316 0.06524929 1.2655736 0.43365088 -0.040072672 0.28363332 0.6906209 0.8955467 -0.9980639 -0.6894592 0.8135647 0.25089738 0.28097063 0.0761696 -1.0666746 -0.029084403 0.4117229 -1.1820866 -0.28583968 -0.19557633 0.7002111 0.41122276 0.7431811 0.31365013 0.4936492 -0.034708623 -0.14111035 -0.05245845 0.8985469 0.35350388 -0.05091782 -0.28129098 -0.5531165 -0.23332408 0.87601465 0.99618924 -0.2579543 -0.5708658 ]
layer 3 Activation
tanh
layer 4 Dense
40 20
[0.24000932 -0.13973112 -0.047245577 0.22547516 -0.34991074 -0.7739086 0.20024088 -0.5478016 0.16427524 0.8130258 -0.37290016 -0.28073856 0.25016809 -0.29316512 -0.5284846 -0.047907732 0.2962827 -0.85653883 -0.8729014 -0.040272295 ]
[-0.3973972 -0.49658173 -0.6940581 0.7606541 -0.017072724 -0.0026631693 -0.93202496 -1.3160617 0.4490879 0.90338856 -0.15479417 1.04646 -0.7513341 1.153944 -0.8937242 -1.2501507 0.89522415 -0.8661279 -0.9348543 0.20431691 ]
[-0.11255424 -0.10657627 0.9052028 -0.09141316 -0.28581947 0.27289432 -0.5072319 -0.1824933 -0.19803922 0.5004676 -0.0020545952 -0.16924432 0.43679783 0.9015051 0.066931754 -0.52214974 0.16958162 -0.7145187 -0.68243647 -0.25758567 ]
[-0.014188813 -0.09139916 -0.0012663336 -0.20878568 -0.14399791 -0.30723485 -0.2874886 -0.031144002 -0.20988585 -0.23036653 -0.07515683 0.0757639 -0.2605361 -0.3446712 0.21782531 0.2990431 0.094366655 0.16953298 0.1960088 -0.25551417 ]
[-0.42438307 -0.81876194 -0.41794106 0.22386259 0.4483409 -0.16131262 0.4930991 0.14419907 0.47281662 -0.47112173 -0.7546273 0.3905294 -0.8772674 -0.3223114 -0.35706344 0.8713406 0.23372926 0.39052132 0.24413636 0.84729284 ]
[-0.6381705 0.64175254 -0.12884569 1.8459754 0.8949576 1.2955873 -0.7086651 -1.2171957 1.691594 0.9015244 -0.42525437 -1.2501338 -0.57136 0.28812802 -1.3985379 -0.4978029 1.4659858 -1.1565574 -0.26017404 0.31618834 ]
[-0.61449295 0.9132785 -0.32019314 -0.027542297 0.0709822 1.352162 -0.012744351 0.30508676 -0.91952926 0.20723622 1.1691252 -0.0493601 -1.2139641 0.22799207 0.89253837 -0.5433682 -0.12835567 -0.28144026 0.27091053 0.34349278 ]
[-0.28252476 -0.51377136 0.104170725 -0.39562446 0.39550096 -1.2671103 0.23859914 -0.1659087 -0.53634024 0.37646946 -0.060915217 0.0919017 0.29827034 0.23339821 1.0475143 0.2547699 -0.76206106 0.035622437 0.096853234 0.13655575 ]
[-0.30175096 -0.46521872 -0.8400268 0.25789854 1.0444125 -0.03557553 0.49620378 0.46130267 0.50391716 -0.3213447 0.117144026 0.039264724 -0.90403897 -0.97133815 -0.20540299 0.59117705 0.3189837 0.55303043 0.64699507 0.8771049 ]
[-0.07129669 -0.35413575 -0.39400852 -0.23361552 0.6255209 -0.55547905 0.36845452 0.3972322 0.36032423 -0.124343894 -0.043061487 0.003026022 -0.5380774 -0.77818036 0.16563167 0.07421893 -0.09278699 1.0830058 0.42528772 -0.07862137 ]
[0.51992863 0.6248732 0.96816725 -0.02560788 -0.4835724 0.13556309 -1.0863731 -0.7189296 -0.5890455 0.60549426 0.27568546 0.23835325 0.9220099 1.0378464 0.044622894 -0.64828426 -0.5730356 -0.81586605 -0.73161125 -0.29067382 ]
[0.2744878 0.09805335 0.32423228 0.6867472 -0.4397628 1.2767375 -1.052215 -0.9791726 0.04047621 0.7818938 -0.8293851 0.09405301 0.62389016 1.2480028 0.06599564 -1.0465013 0.19870509 -1.5539999 -0.7469047 -0.6856584 ]
[-0.30268705 -0.4441502 -0.8518254 0.35663214 0.4105031 -0.017389353 0.25298703 0.23262656 0.46038285 -0.47979972 -0.34997287 0.08067825 -0.79369986 -0.8325993 -0.3917393 0.5620258 0.44695425 0.30689105 0.5696979 0.7605999 ]
[-0.44028038 0.31496918 -0.091573305 0.25653136 0.4708879 1.308121 -0.62357384 0.48598528 -0.3832546 -1.042026 0.6255975 0.12260408 0.23925677 0.6850173 0.17424545 -0.1943807 -0.319429 0.44733587 0.82290536 -0.81584054 ]
[0.2555225 0.7198943 0.32139322 0.98917234 -0.32719716 0.9525217 0.545771 0.673745 0.23835567 -0.51579213 0.06832938 -0.6197627 -0.47584185 -0.39304098 -0.49557418 0.5790772 1.3422903 0.64188224 0.9885298 -0.57626295 ]
[0.20605223 0.25166187 0.44112113 -0.08197713 -0.15079479 -0.470827 0.57001597 0.5935106 -0.027244665 0.15486488 -0.365336 0.16688451 0.48579928 -0.48268324 -0.13071305 0.07039093 -0.53681844 1.1612015 0.9723053 0.026524018 ]
[-0.03372784 -0.012351943 0.66149426 0.10249206 -0.6705083 0.4051848 -0.80363935 -0.50998485 -0.07177549 0.6312816 -0.20106405 0.36634392 0.51600367 0.8823123 0.08234752 -0.5872177 0.09890089 -0.3942554 -0.5268604 -0.31560877 ]
[-0.034163598 -1.3074365 0.4401522 -0.56485623 0.04319404 -1.1067783 0.08337277 0.29930332 -0.5599209 -0.14098954 0.23784697 0.4966245 -0.40685698 -0.10257501 0.96159697 0.19934921 -1.026563 0.066751815 -0.11065806 -0.5092692 ]
[-0.29241773 -0.35658124 -0.3035422 0.22510892 0.42105156 -0.58544 -0.39724725 -0.462335 0.21223937 -0.16977319 0.13997711 0.0275772 -1.5743289 0.25032115 0.122842714 -0.6155132 0.16893521 -0.98531747 -0.20676649 -0.22517364 ]
[0.695267 1.0282522 0.47586542 -0.39056852 -0.69154674 0.36250582 -0.44730255 -0.077372156 -0.25639915 0.77446836 0.946275 -0.33767667 1.3182043 0.9706446 0.007172114 -0.97435766 -0.089492425 -0.58084536 0.14193662 -1.0072587 ]
[0.8444223 -1.1587423 0.153009 0.2630576 -0.47529107 -1.1797793 0.70182043 -0.5756905 0.87412155 0.1907043 -1.5027398 0.2544721 1.4253256 0.100077145 -0.21118358 0.08028613 0.06403974 -0.33229417 -0.59357643 -0.6180565 ]
[-0.26178724 0.29186547 0.5258115 0.30970985 -0.15814477 0.37081724 -1.2237693 -0.6099103 -0.14492808 0.8953763 -1.1843184 -0.019718528 0.5915978 0.9129886 -0.46007854 -0.40390927 0.43851838 -0.6269819 -0.49644205 -0.3154305 ]
[-0.14111115 -0.17555714 -0.14001662 0.5267988 0.9697147 0.18995476 -1.0812656 -1.0174956 0.82704073 0.97072893 -0.40040806 1.6718905 -0.8179556 0.89633477 -0.76627034 -1.4286174 0.5875561 -1.2041314 -0.72528327 0.4421665 ]
[0.12905206 0.39118218 0.08384458 -0.11485989 -0.43328053 0.08460936 0.09063802 0.29139718 0.2633064 0.12225066 -0.20078878 -0.21252291 -0.07706715 -0.33494154 -0.18397377 0.19927678 0.44274044 0.6278355 0.04676922 -0.058739386 ]
[-0.09305095 -0.22867092 -0.697213 0.3368611 0.23507355 -0.4360572 -0.4825452 -1.2303061 1.3549253 0.381665 -0.4769233 0.2915248 -0.741029 0.14986792 -2.1979325 -0.37919948 0.5894446 -0.8260486 -0.86869884 0.6322148 ]
[1.2664165 0.09151211 -0.20080045 -0.1345704 -0.15055361 0.14407846 -0.28143376 0.8639475 -0.44593886 0.7007632 -1.0467038 0.17755535 0.15624303 0.0115534635 0.5966298 -0.48209098 -0.13857919 0.061390027 0.5690206 0.8556355 ]
[-0.056054704 -0.19825508 -0.953166 -0.21848634 0.4317563 -0.48052862 0.6637991 0.5355936 0.12323422 -0.3309852 0.6607696 -0.17445306 -0.29177773 -0.93046695 -0.24270596 0.600047 0.11830385 0.62097025 0.25950944 0.40126747 ]
[0.10604495 -0.08227301 0.7802807 -0.54686946 -0.38218892 -0.21720943 1.1548522 1.1173649 -0.16583538 -1.7654946 0.05102591 -0.75313777 0.56129754 -1.181287 0.39474142 1.4167646 -0.5482149 1.6082504 1.5791197 -0.95050395 ]
[0.060616538 -0.28649852 -0.3498751 -0.3812927 0.013981732 -0.8712725 1.2296181 0.9764094 -0.18357661 -1.191653 0.4242867 0.097784534 -0.31367055 -1.1753764 0.40184265 0.33123267 0.24226159 1.0583701 0.8326948 -0.08537524 ]
[-0.09897815 -0.74808085 -0.37831792 -1.3460401 -0.17008041 -0.9964318 -0.07175432 -0.22365259 -0.64746666 0.7064171 -0.6284786 0.8506372 0.7171484 0.16901879 1.5875822 -0.35111424 -1.0452108 -0.8810065 -1.2049036 -0.023370761 ]
[-0.19189534 -0.24097553 -0.44926694 -0.028313942 0.25395247 -0.286311 0.3768739 0.80200726 0.40480813 -0.3810052 0.19196308 0.2014463 -0.7238229 -0.37665588 -0.39848498 0.79492503 -0.048021916 0.8085839 0.45187303 0.921392 ]
[-0.3369187 0.32788846 -0.7220118 -0.28693917 0.38164973 -0.7521415 0.5380556 0.4536555 -0.2503876 -0.50785965 0.9972002 -0.13319631 -0.76756346 -0.71807843 -0.21318406 0.24409223 0.21803595 0.44510007 0.19874167 0.62467784 ]
[-0.13499878 0.09757772 -0.31267643 -0.61293906 0.33764815 -0.60634243 0.20968679 -0.54421693 0.389078 0.4007355 0.03110349 0.5750467 -0.34660682 -0.7150901 -0.53150743 -0.27981672 -0.7088774 -0.46890128 -0.8886776 0.3613429 ]
[-0.6638201 1.0156868 0.05549354 0.012793886 0.18447536 1.4560717 -0.95756716 0.38197118 -0.97963583 -0.23511991 0.11829439 0.11285801 -0.807856 0.50655425 0.737864 -0.33384934 0.22996755 0.020992648 0.021921162 0.22222683 ]
[-0.1646772 0.013283895 0.24389431 0.18049285 0.041057155 0.9869216 -1.2947067 -0.44697466 -0.098968625 1.1347208 -0.70024663 0.657043 0.67063916 1.7481545 0.18278812 -1.074836 0.1613559 -0.8049406 -0.5700414 -0.32897374 ]
[0.20159554 0.017759306 -0.08448765 -0.03733749 0.14524513 -0.26435876 0.4656297 1.0604442 -0.02115049 -0.08050373 -0.089485146 -0.11176719 0.32808787 0.011579338 0.33710647 0.74458003 -0.43053105 1.2809827 0.2838348 0.26313984 ]
[-0.25218612 -0.38458762 -0.8846532 0.26271012 0.595833 -0.4412527 0.7744105 0.13745493 0.43828246 -0.6945894 -0.13025746 0.2754238 -0.8386752 -1.1212716 -0.058410283 0.8863338 0.08874654 0.63068265 0.566882 0.5856023 ]
[1.1957605 -0.05978659 -0.28700018 0.201939 0.40543884 -0.5320753 0.69284034 1.940489 -0.2381816 -0.40599626 0.7956909 -0.59581596 -0.3918007 -0.32956466 1.3619286 0.5649973 -0.27394238 1.8552994 1.2916517 0.46906075 ]
[-0.0961684 -0.6046355 -0.1353209 -0.9210356 -0.2804264 -0.38131833 -0.050019246 -0.8842272 -0.071248055 0.8428051 -0.44443974 0.68518376 -0.20352702 0.6637021 0.113664426 -0.9596888 -1.2370203 -1.3702596 -1.1230642 0.14753285 ]
[0.26955393 0.96301925 0.50330544 -0.81928074 -0.19171566 -0.2916006 1.3384278 0.7248787 -1.379423 -0.77367353 0.22961369 -0.33857328 0.22762008 -0.8819559 1.5301697 0.849217 -1.9296055 1.0458516 1.3690343 -0.38680553 ]
[ -0.387272 -0.6058493 -0.46457306 0.4075129 0.53679085 -0.18377733 0.5056131 0.12203606 0.3111107 -0.35404864 -0.6041383 0.27475613 -1.0078464 -0.54128486 -0.15610248 0.49210405 0.19903706 0.4145229 0.19821915 0.48335463 ]
layer 5 Activation
tanh
layer 6 Dense
20 1
[-1.5154296 ]
[-0.70927197 ]
[-1.3678286 ]
[0.7031046 ]
[1.7097445 ]
[0.2611829 ]
[-0.8075608 ]
[-1.6085113 ]
[0.47827077 ]
[1.6233003 ]
[-1.05919 ]
[1.8493705 ]
[-1.5580798 ]
[1.2222569 ]
[-0.695888 ]
[-1.2037988 ]
[0.41149122 ]
[-0.89476293 ]
[-1.5111068 ]
[1.8923568 ]
[ 1.7639246 ]
