layers 7
layer 0 Dense
24 20
[-0.06989120897519757 -0.11048464323856598 0.08587220573253133 -0.21220334429696097 0.2645532368146852 -0.14003541773222142 0.3410721382222936 -0.08733018291061828 -0.20400030604226868 -0.05759439627009224 0.1972099283168759 -0.0553215931707665 0.1753549079970595 -0.16440227025941542 -0.16660817695241123 0.26025191902130623 0.2632580336196659 -0.3114054054057368 0.3276392032843006 0.17764525838181597 ]
[0.04832531130303881 -0.10025148651650519 0.30082681792124955 0.1867629204348243 0.24662395862011183 0.31891030788388025 0.06803135331720478 -0.34916796708818326 -0.2023236093117153 0.07054920914772488 0.12628465045023177 0.13426924424763992 -0.2581275931991791 -0.34529714392452554 0.08215995715841887 0.023407526573769995 0.005420112206461663 0.1643724229257746 -0.19339903902553904 0.31298848999714435 ]
[0.2219084394246117 0.2302301496557324 -0.3420013530968434 -0.028809939078941704 -0.0020699871957813327 0.36197444103548443 -0.19408635688577933 0.07508424041966084 0.3165075670289611 -0.12373025332596992 -0.3463590094085644 0.19921767788257708 -0.06011614737863308 -0.3706448664935945 0.37707430833715294 -0.11648558730048052 0.30119028781713253 -0.2729916390341235 -0.07882515824521513 0.12440523594917897 ]
[0.15589025993541164 -0.005308154078960479 -0.0924114855406612 -0.2965294693126332 0.03404405165307691 0.07800707523940253 -0.28456974651097844 -0.2888489345597278 -0.04289925873254116 -0.23762654140674813 0.06114010752322536 -0.015265429888643644 0.354092310780229 -0.2193624305042316 0.06833898369710843 0.06811807229171832 -0.08314047443929269 0.27053823920484815 -0.12161408415913835 -0.2644823547955632 ]
[-0.15783678895372147 -0.27746337667807813 -0.07253085099585063 0.3141305902925459 0.2113898813383267 -0.21610073962301163 0.08176468804620757 -0.10733339993158084 -0.037595634659353686 0.184334515620224 -0.36231720832848796 0.06882735910478759 -0.025074198960083185 -0.19663357424081707 0.03183030369890882 -0.38901486215526465 -0.22899893320662282 0.16735044692916412 -0.2756311921737959 -0.2729697195133984 ]
[0.19172537868152217 0.09704272537902411 -0.19694021900731645 0.38289055759324186 -0.27275796887152975 -0.17972444556800982 -0.2771893782820066 0.030116420118332474 -0.10108251826762887 0.4354476110498591 -0.03756713056003064 0.15778881680290768 0.16095600799469148 0.10180419290544514 -0.3548988981213133 -0.007613560200082726 0.2065865534173142 -0.007190478161592218 -0.32731866705991486 -0.0743247896167333 ]
[-0.1387548902780658 0.045490907526618905 -0.060967953400334625 0.2816225101727721 -0.11056678937603333 0.2914393806523772 0.10035562275503265 0.23724086544270317 0.10575541704459407 -0.20216291223302113 0.11521191343470416 -0.43427505715130504 0.3086349180893137 0.06940190621446221 -0.2673262486137383 -0.23798267328694847 -0.24264968286293087 0.040131751968417936 0.15572192409317656 -0.1536180799022957 ]
[-0.011647348758666198 0.2676478593526245 -0.24854102650001392 0.11131992045201565 -0.2668882820603022 0.09595472620927877 0.14253795038581157 -0.06638302470832762 -0.3818409812395617 0.11177206871792578 0.09087681835596687 0.011377853810399349 0.1909989939160867 0.15840015005181393 0.1894485852219824 0.29084244172733825 0.261799561102964 0.03124532864661954 -0.22087640685785884 -0.20059828189475484 ]
[0.21334862913403468 0.011608156243857647 0.15864555519011508 0.08419359988528549 -0.2276652346961547 0.23156421527123275 -0.05282154346347608 0.17741002882066234 0.3242310497118525 -0.027229862153307846 -0.009411094315093705 0.24798379950501015 0.07276554418733999 0.2515813319274881 -0.17915694529697884 -0.22771714504134302 0.21785955997110734 -0.07105134381604968 0.23116355996422966 -0.10687888473753854 ]
[-0.13627477427962265 -0.20201959678843007 0.24295973123213357 0.19717926975508837 0.299192030312938 -0.0009733388971368262 -0.01032649592236183 -0.06602230659226281 -0.05859464639558688 0.17793062747518792 0.10716244323943373 0.15199404680141612 0.29544290405020335 -0.19593122768492915 0.18394936356585434 0.0003550902982825576 -0.1536145574315049 0.004100322258231661 0.07536828541978527 -0.026057056075418916 ]
[-0.2069523193046377 -0.2617437722167119 0.006874130109947986 0.10629901053984671 0.002638453444472201 -0.16558923576180246 0.024209535061104438 -0.3083603525905618 0.006471815573649377 -0.057468972700242406 0.022603616248655842 -0.040959145687481935 0.23548317229097526 0.13301409444346976 0.3807369948089565 0.34559112915467227 -0.09141826687008461 -0.1508585984434977 -0.1363537143917608 0.24850328343556186 ]
[-0.17555222386361763 0.2641902690174999 -0.08249562944603409 -0.10984291863670721 0.2743147871415847 -0.5327502922845383 0.18491325336551678 0.17891216294372345 0.06514617878174682 -0.21797647449139315 0.23731505998857566 -0.023287234384180382 -0.27739183024916086 -0.4462340345087879 -0.19291654311938514 -0.34780549318366116 0.3358904579352123 0.27902480907358157 -0.1478692067736489 0.11350751724663011 ]
[0.1857386684411377 -0.2586157452849 0.22988443885530535 -0.04510378639391148 0.0932462908151386 0.15645077641683833 0.032504639157661455 -0.060957062533276735 0.03832733207716543 -0.2755352364597103 -0.1878347026998021 0.09863133855111664 -0.09029492217897969 -0.27051549773398 0.09017541760471337 -0.22844796458394964 -0.05100940606348149 -0.3692655270745628 -0.36437851964217666 0.27692215252150343 ]
[-0.28653905940546115 -0.06290906111320799 0.20847037897201362 0.22010682707429896 -0.11369410453391253 -0.16379420107168602 -0.29985586921810453 -0.22593342987467366 0.024708639851545765 0.12884976036501256 0.12662468532577614 0.32746920138787416 0.05869508446058183 0.27743141290386225 0.03018751230750122 0.22857995460688957 -0.12864641968786472 -0.034743333481007464 0.15771194073736325 0.24592546633331983 ]
[-0.3905382169661158 0.279288366379141 0.23214402288117392 0.030442035603480883 0.29042577211363235 0.07900926686081984 -0.3048520857142563 0.2636441118700949 -0.4838560204766184 -0.061397863401316706 -0.0065090239037675565 0.31760675649066006 0.08737357236059362 -0.17325135155592947 -0.0792691460062775 0.2745869346414413 0.3316055597913718 0.4520039298935137 0.45499035317919445 -0.38836845443230916 ]
[0.19580712810590895 -0.045189874785885355 -0.1006079483212642 0.3144643110875432 -0.03278260718333693 0.29017756007899864 0.0021411841726361545 -0.24040150163189242 0.37231485406119375 -0.5047830524590834 0.3778652620116133 -0.0025646089583694215 0.12187517235461767 -0.16674411559452354 0.30928109322264524 0.3189352527623565 -0.014086927667930047 -0.24213192408587275 -0.05353296584461617 -0.3136100286130461 ]
[-0.21242663194660183 -0.003608280061265248 0.17159309589108784 -0.06124412467035876 -0.08722080330320611 -0.059137927608856444 0.3102613734364752 0.1831079249576375 0.06293452716776926 -0.39746649365344905 -0.3262210679667828 -0.30737026352774893 0.10719888458477053 0.0744543523129663 -0.07621440435161511 -0.23313566790945808 -0.26121619003255603 -0.12460939922793152 -0.08427720018649672 -0.20243809515062422 ]
[0.34951657115384865 0.043162075116654486 -0.31239364925987256 -0.047326381535868135 0.329229732967887 -0.03276064698695147 -0.23158097495245247 0.14426657807310667 0.1659956038615223 -0.17290370096497604 0.2191183703700083 -0.5582659301467852 0.4156014006034255 0.19992090837077106 -0.00011399093953423124 0.2359267583640643 -0.10771534668031324 0.12240215684977804 0.4301482308808909 -0.06713729616036886 ]
[0.19115691944348712 0.18328512167405261 0.12871424390831512 -0.045117799738785276 0.355843750410126 -0.35047287246728565 -0.28206785436014165 0.015023956014107782 0.39492792951609684 0.09986519144168929 -0.6043600463130185 -0.36036706519078177 -0.2646255865894063 -0.2288171205083307 -0.1806440179092334 -0.4199355005615453 -0.32225393185770695 -0.3440506137693006 -0.4249593948567782 -0.30750295588071946 ]
[0.3114651116170865 0.2825753891606389 0.35339783054916246 0.14595684348386898 -0.1765633145867547 0.14862463811949955 0.03128893116915335 -0.130250643356935 -0.03814504893237959 0.3132685465230774 -0.0336477695505688 0.11014522336319554 0.3953679352798231 0.3654217373294817 0.3975200276057391 -0.04950298130423451 -0.03524001755096892 0.09133498376392617 0.08450631661292117 -0.36754199280906447 ]
[-0.3006167092671246 -0.44596233315074263 -0.15449235428618435 -0.446212331136718 0.2046054385515274 0.23091614487615789 -0.1653964095053716 0.14579645772440541 0.34013944387523043 0.21931970614034355 0.1496883805181603 -0.2120714696745057 -0.16373654683311198 0.17728595856355361 -0.1686196271555316 0.18659543047815083 0.32573451784631796 0.3110588593498616 -0.2654093990896027 0.2126600284467141 ]
[-0.01667910934220125 0.42987793527471246 0.07181877487894023 -0.020760458877609616 0.45170471888001107 -0.15683689275801863 -0.14145550667191478 0.04000839167175658 0.187532538673138 0.14148576947265368 -0.1084495936856603 -0.1495816616443635 -0.3178416518856565 -0.20625924081967129 -0.25446851046010505 -0.2455396322048832 -0.27240671662707533 0.09558208262286913 0.03653837532273186 0.027167926284037715 ]
[-0.040504655277851236 -0.07301556526349931 -0.4692458168869182 -0.17465906927169533 -0.12799116630570945 0.1144259109344933 -0.32159021805511673 -0.21368718892433947 0.06546089059196987 -0.371090432116701 -0.2030470315728392 -0.26166566494412724 -0.1708884068165599 -0.004320412846756949 -0.1890469106428148 0.10499119264138877 -0.005591503052336851 0.13993125962479763 0.15170497840128483 -0.09252196887245612 ]
[-0.2908086612654436 0.1911096071046482 -0.012791532948936802 0.2519640281534646 -0.17252491011841883 -0.2752286831518483 -0.2511647684113651 -0.058580014037055525 0.26950075493957143 0.08590278041168552 0.14185652183732383 0.14889634950288677 -0.007306621721269566 -0.3767195890729773 0.250864243335229 -0.34077766103537965 -0.2908731955629791 -0.2021829663088445 0.20523442551518123 -0.0656368342712946 ]
[ 0.0022527124016922567 0.05833077595950049 0.012437779257432611 0.014831087919826494 -0.026604922879428037 0.06361935883635243 0.010650069080706186 0.049030705669245174 0.014607968272466194 0.09406459019291372 0.03982982207904913 -0.04569484337587465 -0.007659315481125674 0.003493595248939195 0.00953093933211415 0.0013027991146907462 0.02179243108431008 -0.004506076162160943 -7.065711817338534e-05 0.012776764710869613 ]
layer 1 Activation
tanh
layer 2 Dense
20 40
[0.1454708412286479 0.16465642415915213 -0.15189392078336797 -0.43929776898791095 0.3272145217099533 0.18485083835420343 -0.2894084895956133 0.11013546736595799 -0.1828957107771405 0.1645842368301052 0.10987206625419588 -0.055027662574069686 -0.18997309217600983 0.267827244889923 -0.0650200630472132 -0.01109190042629679 0.16093719174254212 0.07759330576472682 -0.2608442816147304 0.06143988316253627 -0.004778124164821981 0.32091779197839515 -0.303835722353488 0.1226039133036171 -0.24932707670820867 0.19506238577004914 -0.09016866924743745 -0.11274691222249014 0.015880249369570446 -0.06321941951063553 0.12341778905247322 0.2313923427694265 0.29926067837296405 0.34718555821231045 -0.08116497788276777 -0.21368567078235262 0.27351172646611077 0.20458805256547752 0.03611923656302345 0.19820250047422502 ]
[-0.2261454098072465 -0.10428888686972679 0.06009083923019997 0.018127153396591635 0.11982537024208104 0.1957776066697125 -0.2924250661220181 0.07988167878204998 -0.23861660837154486 -0.11312800621846708 -0.24578322568239436 0.21406244034579994 0.14308557441548092 0.1288088866887905 0.13353720114367215 -0.13989225849733153 0.25907504035053047 -0.2960346165928918 0.061893034660147235 0.28916396148065987 0.18304589958247014 -0.06848823750142793 -0.23467169536989457 0.3341273398334126 0.2644072759347168 0.10932029240816928 -0.2524055556663718 0.009708593896448526 -0.24747361463139353 0.03904242362465228 0.17597992679889135 0.2522861773198449 -0.31033839998682544 0.153303902244204 -0.17814157928351507 0.007968274599323458 0.0991753762210357 0.05072793122772201 0.02000567545171477 0.041078494911175656 ]
[0.37704955580846494 -0.1122527403353456 -0.21004563434594184 0.033507351670785876 -0.23308310112295294 -0.18018926698251023 0.11376117253120031 -0.17446506732937592 -0.2874648000669584 0.010177329677394618 0.1445542414823689 -0.13734681675735627 0.10622249111414837 0.09599924941930678 0.1141527676311697 0.19009285095750963 0.2659395060641442 0.06951887724527296 0.06133007770785001 -0.22664327709903492 -0.1332240426501604 -0.20424046455769534 -0.004524688977754777 0.11893917213731041 0.13291395399954176 0.1676212274698545 0.12649380912530064 0.25675617351920554 0.10610634080639648 0.1714983990503576 0.2800350937508856 -0.2734945255296884 0.268288854154876 -0.28560860131054566 -0.1137699957200641 0.06499288457342493 -0.012778942516001594 0.1910015653774359 0.052703734563120004 0.13348085626034453 ]
[-0.07405384776894408 0.10559485217919648 -0.05668994822498665 0.12575459681898196 0.0006122096409067423 -0.08506198946065399 0.10556284538684545 -0.2037456552519154 0.08120939270079026 0.10617799673789166 -0.060939747834077226 -0.23826939899853933 0.20987180558669094 -0.3293598155006379 0.1931154925007694 -0.1948030303270563 0.16421649963907028 -0.02033110596939451 -0.15496853404224126 0.31408090873999533 -0.2808720099063997 -0.0672280631618746 0.11853299509779858 -0.0013923127595087883 -0.05504271174541656 0.1343460911270345 -0.10097304619113523 -0.1853078095454298 -0.05803064978404211 -0.24873542404346038 -0.22733324152896175 0.10374945988607683 -0.16422413385945242 -0.11595857067414701 0.19957263093110805 -0.16848959004862185 -0.2905378053320041 -0.26220953054008544 -0.21062846565972226 0.21860984889790322 ]
[-0.02977396767552362 -0.1623338436701497 -0.1898876168713246 0.07281665129633894 -0.15442709044569325 -0.04705078598954415 -0.16176817500111867 -0.03670515550040516 -0.1531000195602936 0.17337395330422975 -0.28557162416396115 0.1521939927699465 -0.20815464302338824 0.033654940242591906 0.12826666594605446 -0.057329337214558976 -0.14717376261047305 0.24932320998980384 0.14403580025331683 -0.024257457918827365 0.2504678526226762 0.261001960075728 -0.20925497533699566 0.008776225811654274 -0.06566124076811167 -0.2985773050919922 0.06260176841415935 -0.32281534949138013 0.053575073570000006 0.37225877039365146 0.16427128854392392 -0.022367533986348897 0.024668179912261695 -0.051391540330000436 -0.2768794817994706 -0.2549010531773292 0.016057179812709384 -0.043606413152414696 -0.10030242955649135 0.2855779486637737 ]
[-0.4652229551121362 0.106613711733907 0.14638805509774414 0.27057263124433595 -0.16539203396010588 0.15500908802064806 0.15658905662578265 -0.29602930180189563 0.047662228897952984 0.13762494860784397 -0.15289936375104907 0.2484836474581741 0.08205894610149062 -0.009505217103256202 0.11911180115877976 0.08492123527351528 0.008889173114198071 0.0022464217871237886 -0.2834957661273933 0.020618847550586926 -0.27488475993955325 -0.07271298236012202 0.08132858415109263 -0.13818949212722162 0.13383012246936243 0.020243357787833382 -0.04815576872453383 0.24266861427407668 0.1729972201202693 -0.0229637428350974 0.022532297748079414 -0.13949704545304473 0.0663396455591072 -0.1369331611885094 -0.11005291540460349 0.07171697306002849 -0.12345123341508119 -0.2589821934832739 -0.10297014951451873 0.0829284913757077 ]
[0.06820041985844025 0.1632831117637596 0.05274451731285984 0.3255074450650978 -0.0374333318312075 -0.12552626570199063 0.2629663889075338 0.1277177617564863 0.15529664522184472 0.29382939938254704 -0.27117410643840056 -0.15244292920127853 -0.2778057577143014 0.1397535859337151 0.01620843085238769 -0.04184543981108227 0.2194245046734326 -0.2947867550514795 -0.3101137248592588 0.17948203951881728 -0.012665370602733095 -0.22918898423404724 -0.03307611002938279 0.2310191330375151 0.33026474517487464 0.2764855639301602 0.01664210774940926 0.18969543502063227 0.23886655601603107 -0.19766204674760812 -0.1188043042620324 0.26583817603447857 -0.14998786282813426 -0.2859408181715711 -0.03609263436549328 0.2597796122393367 -0.13674323469032754 0.3183155959577821 -0.26461777259964997 0.31119954326251725 ]
[-0.2935639141898818 0.27567684300383355 -0.03569460535465456 0.14387529728094012 0.25479022622107883 0.13903193430093866 0.125516272787896 0.209131564969444 -0.2115825735052771 0.003922540632149746 -0.03923917715778964 -0.20912295632395195 -0.29582766813059536 -0.15707430350494808 0.06346199618069832 0.29010341962988523 0.13982428265957197 -0.27448091275864206 -0.10335721266319507 0.07565696975783041 0.100628488592583 0.046101580268068806 -0.15666048892229825 0.09732925986114116 0.16507382925013717 -0.08830678159995325 -0.2323804279856171 -0.05072727535924352 -0.09579939827967082 0.05151460398613415 -0.1974787856830855 0.20053489753987255 -0.2925164689386703 -0.1475592229377363 0.2813111830621778 0.2677078616110162 0.10616128165440454 0.15419524717364433 -0.01879477366539051 -0.22520354700660863 ]
[-0.35109622077194613 -0.2635911487353012 0.3750264805130909 -0.07651957991991618 0.00971550769017784 0.08463631174769612 0.04742803367077447 0.06807690983475351 -0.27284302801772664 -0.07468685443253763 0.1285318693542248 -0.25826984242588213 -0.09584861159216229 0.13025186197829375 -0.008126631663005182 0.26084033063272466 -0.16371852119536628 -0.07181730410347939 0.2160691715866858 -0.21693056590769566 -0.006207447099337994 0.09970089559973938 -0.21201776321772378 0.1471324581012048 -0.28984912077661634 -0.18882572675331766 0.2015885022561624 -0.006249894200200865 0.13683114936928434 0.03157263771960591 -0.29993069087548313 0.2840264358882149 0.11583365050398935 0.10714027826039826 -0.29018265248263736 -0.22951806787933332 -0.2122269066689571 0.21448687638123687 0.061391376641941775 0.15442462847674307 ]
[-0.34033681283260614 0.028933019551998274 0.24933844620008286 0.17030179863862266 0.00801590048654918 -0.0020959451675924548 0.0362501347866426 -0.27628634172717154 0.12026563207279391 0.18895840292699928 -0.0033952150682684625 -0.134747834526252 -0.3026471997365438 -0.13485686402757338 0.04703217964836799 0.06922293874428519 -0.0850176206500969 -0.2991087705438344 0.2017527532162819 -0.072840275182302 0.09675917554692025 -0.21527665012252187 -0.20276421718833287 -0.23513125529945142 -0.16123427444493335 -0.26476548867268873 -0.08618135462451403 0.2597323226517176 0.23525236598432572 -0.2259367284379541 0.19556442941419766 -0.16583221074805257 0.007326288072025286 -0.0031036131950016852 -0.20584686639310965 -0.09723988568272968 0.06564869311664805 0.031026914183741514 -0.2202978548715142 0.27697588203482104 ]
[0.32327124912843186 -0.03653170108539771 0.17161777095333125 0.13621531550848903 0.02680513719235615 0.29227630007828126 -0.13598102360680867 0.07662483757806164 -0.30309745676402167 -0.095132377375932 0.12743217167733645 0.053465684704552395 0.07350096577122703 -0.20602826649104547 -0.09548475210076983 0.18835951907424128 -0.21652513718436625 -0.03951673614336482 0.01187929937390921 0.099686220807951 -0.20275670521215228 0.17982873533164426 0.0008654851225981749 0.21657502355600933 0.006803100486480728 -0.14280835576945058 -0.11286003001225935 -0.11922466857639831 -0.07576741775481748 -0.31066041276528283 0.04739461657339069 -0.26793380259252264 -0.13108918249060547 -0.05490880170639066 0.1067244616755597 0.15996368424186436 -0.26093337290216684 -0.2141312457625352 -0.28701104147425255 -0.15040534968745778 ]
[0.11027991579745298 -0.1626361569057746 -0.31334124671530256 0.3624176546126987 -0.06479318216251027 0.29101850523215506 -0.052324898201871355 -0.24786059088143886 0.04811580048364189 0.27638035258791055 0.2867096139107157 -0.07323394160225744 0.12725808242859207 -0.12737757750778825 0.29473402642798496 -0.12416124312262346 -0.17637940685823636 0.29959603803805623 -0.144006028151472 0.10025593264731218 0.07598160856030368 0.08315476364718052 0.23153357218156465 -0.18177397124943742 0.20916703792621918 0.3543727117554682 0.24105011503780285 -0.20036475568288314 0.12780692145275344 -0.08579996101972537 -0.2585310060925515 0.023999709964386922 0.09893897439521065 0.18460539482136842 0.16224283571840897 0.2898334454249689 -0.24851854320108668 0.1693055340899215 -0.3060976757982102 0.09845923105454 ]
[0.23088114794821601 -0.1775433744634703 -0.1091029559818554 0.17502635180637868 0.25534265502363546 0.13044841399339985 -0.30684709066733595 0.15667524797494561 -0.038647148535957125 0.2453365745136768 -0.2029527374301899 0.1152388132830183 -0.1488047556910412 -0.19939264203721926 0.04119795530401002 0.08909649139875576 -0.18112101176464718 -0.11763604284993782 0.24490232009168253 -0.014550507915529394 -0.26147718233999273 -0.10523466235972748 0.07837599342710898 0.18303392676553973 0.3109452544345543 0.0715405149093012 -0.06219533328273924 0.27021902448118773 0.043790210603770544 -0.2895712081187068 -0.12927116278773224 -0.022054109487201292 -0.08984607973004398 -0.17784973689122743 -0.1971648832290977 0.04062058160403261 -0.2941639384878108 -0.2660883901789983 0.24294544610574967 -0.03355970262281916 ]
[-0.12081394605210631 0.09377758532524094 -0.11212844818450678 0.26141343013605967 0.15911225441126853 -0.3104569048027237 -0.3235105303950102 -0.09487675342174255 0.21043661021835977 0.32664497882982135 0.15365463331611554 0.2609097817752149 -0.12666570601258906 -0.04567930435055991 0.16831270658410333 0.25792445423536475 0.0204100819802482 0.01626263704090113 -0.20206615313226067 -0.14872705548068674 0.03926512354650066 -0.2167202017537291 -0.2596162332922467 0.1289268241278876 0.12869967107037242 0.0787328643541997 -0.1345734035368382 0.011334135879790971 -0.21119606677511124 0.22554792066858934 0.23290751555930925 -0.15902714752352148 0.2748317828520594 -0.1934313786743735 0.10307113035852963 -0.18861502498678914 0.13151678571104153 -0.12206574634616307 0.2219967842635355 -0.22188198440549708 ]
[0.17691964005327923 -0.28314359691920016 0.12494836852155228 0.16588965842690973 -0.16398633921590783 -0.04350239652818093 -0.1251926660726016 -0.10142693913266455 -0.04585369020466889 0.2622778171492503 0.2232209504100157 0.043859908021070065 -0.17564543034702287 0.31256897425154995 -0.18489616069032194 -0.12950816563742223 0.1282793903777267 0.15580889066566833 0.15811168915586513 0.24422034023189884 -0.2342435501112145 0.2374906613405274 0.2419991949429407 0.005403392847580692 -0.15479762448185094 -0.01190018095477596 0.02011675166417098 -0.11549877984859576 0.08627534064767176 0.05813307366592054 -0.28032124271926173 0.26660974641646273 0.22158530496639328 -0.1366182266085052 0.08073064304738768 0.10774993052199247 0.07554332517142794 -0.04610350133550212 -0.2306660967215319 0.22707551421887182 ]
[-0.023490951259026248 -0.10655956218810872 0.15386037508433353 -0.14223996551566984 0.1541317874821215 -0.19808519301346741 0.0661190471595533 0.12788238935939775 -0.14264813189354872 0.06324002169178472 0.005873404134451676 0.21983979446993773 -0.32640923504529246 -0.03518527740524402 -0.24007442518264818 -0.03633732893413946 0.07647421496116127 -0.15779226064281698 0.16486592596294633 -0.2650198278448827 0.20973530314535 -0.19439068338314028 0.175160596425158 0.010192051056224562 0.041096955653107586 0.10959127420392267 0.01860954038126367 -0.04017039603652541 0.02088794747259486 -0.2612316167546895 -0.3047727039087575 0.1588506320631231 -0.07612599885169243 0.1835664411415061 0.008639143170739926 0.156891358162349 -0.23885992922297186 -0.2442316278140151 -0.2677155773608433 0.14547101023557518 ]
[-0.3321973026824203 -0.23465389342328935 -0.06617291333134971 -0.34339989908349516 0.2924521938804722 -0.029905263678992825 -0.07029013899934645 0.345097946975707 -0.27381679475440185 0.2628126176220182 0.1709999937286174 0.01837434889563947 -0.15275765039694514 -0.32574696824164234 0.08277256616190126 -0.06382145149992088 0.2359775208815135 -0.09398353647363177 -0.03956249080020252 -0.1661401627968306 0.3080749627472021 0.3963463848361361 -0.22482436363203695 -0.05546881183268831 -0.14522398184808763 -0.0504960830882218 0.15616692967552845 0.2614905247494399 0.06531409012880594 0.04377032776341059 0.1641126680529709 0.12355918796129205 0.005469964796874617 0.22501234166783704 -0.029871246459297535 0.24989918915782908 -0.18741589525200908 -0.21567379157600142 -0.18380277167022022 0.13070272205257175 ]
[-0.10585577242050252 0.17826531565570228 -0.019750959672180483 -0.011760275816031245 0.1136352548175241 -0.049037048924477265 -0.22062637730105567 -0.03399636596837753 -0.24054652193084997 -0.22146401666738647 0.23762622412689682 0.0767399427998437 -0.28385924420365644 -0.382416135111871 0.29648463800204095 0.23332381020207166 0.057215921036545464 0.020422169233870018 -0.1768771480386714 -0.0986903262276239 0.3224301792796025 0.26338175750461423 -0.18372267572845535 -0.2601759616422716 0.2835658895077464 -0.0565730116963891 -0.08045538252065373 0.018065706933248597 -0.2535234322753699 0.24476667822466894 -0.25394394119732944 -0.2613071212018154 -0.14365332492923583 -0.015912627610856638 0.07456703048940946 0.3363634681195146 -0.22210426340176853 -0.3253945804500932 -0.07585902084508866 0.14511347595342103 ]
[-0.06771903067390288 -0.05413386141499315 -0.22013319673089798 -0.31321389096254976 -0.3050949505141025 -0.2842065634023696 -0.2873639470193098 0.3209434629602722 0.289420347726138 -0.29269344530159835 0.07642458466875696 0.18109180299961222 0.08944748891837973 0.006401586190915722 0.1061054934226959 -0.22476202728109193 0.0014209152416963034 -0.2814588318562954 -0.10489648505518082 0.2082677564083333 0.1397294094317561 0.03004430614649503 0.05639700733480492 -0.2611114455554281 -0.10797868076167058 0.3081004741090498 -0.22143218888459382 0.007927713723923396 -0.20926018016666215 -0.09245275255613807 -0.06473090645775861 0.19080789332206197 -0.18441960761995907 0.18435523789963346 0.1992184818451422 -0.07852447042040207 0.1532365387622917 0.17095928548690437 0.12672937152693275 -0.011580521276728036 ]
[0.3777081450906379 0.05597095977280903 0.14341740732589328 0.1955365461447391 -0.12070458026371508 -0.2936563979791801 0.12461019234890038 -0.04892408556250165 0.05304446183483504 0.13639366093839797 0.12285400078590168 0.16403605597434476 0.1510322213704503 0.14497378374720718 -0.29187788918760216 0.16150656892148701 0.2295685800997033 -0.07120403903074486 -0.09878654485384432 -0.09830784194009894 -0.27061919690897196 -0.06427818196407774 0.025920718835028778 0.07505295406878464 0.06935721076641066 0.23692046931890354 -0.06807069329942723 0.16512263640860209 0.06027434369789203 0.27165797170384176 0.007627926796773281 0.20517188446559648 -0.19491270336548852 -0.1356496937858103 0.07963732236771742 0.08876376591285864 -0.2777377643025571 0.2963223204138842 -0.0022392695403563277 0.09019277055589378 ]
[ 0.12685356328726546 -0.02064049887157423 -0.006130708941477957 0.029271775844821976 0.011268129679803273 -0.0012183617007117558 0.011204136791771162 0.020115727203956355 -0.00035819541757907034 -0.010965688149233216 0.015465904305517938 0.00862429980589543 0.010050989277086813 -0.0060724245779265155 -0.008137599718885075 0.004593009738621395 0.0015038436916877916 0.010601500321658193 6.115334877229218e-05 0.009815772220728285 -0.0056709797773923185 -0.02476954267515625 0.0031427942010572533 -0.04714478912544988 0.04819646401875822 0.012928325247260246 -0.027557755231890014 -0.0023476701664430985 0.012367132953753853 -0.0037850362283125254 0.013107768212797466 -0.011133285117740553 -0.009891351952766355 -0.03459207146156027 -0.008170364325154262 -0.01616316267740018 -0.03518827713353842 -0.008824941898187838 -0.019569143118427612 0.009891544476060913 ]
layer 3 Activation
tanh
layer 4 Dense
40 20
[-0.24512745612899509 0.2369886433243721 0.08237494629749531 -0.3272307529910874 0.2781036405310448 -0.24883764186252605 0.06183544729781439 -0.3020133129612915 0.12009227708979119 0.2524177706247764 -0.23535731706479515 -0.13775831075540232 -0.2924024510072454 0.003251803780692019 -0.21858635926442405 -0.06633154308629914 -0.10526079961851538 -0.21958492865788035 0.08981842735231725 -0.2590131053204339 ]
[0.14265645924390769 0.20421439534302682 0.34163858691059473 0.287501028763011 -0.2740603327677226 0.3302545140535545 -0.17116167001982074 0.14715218911976274 -0.2631197792738538 -0.16088454742780367 -0.18257237307206706 -0.21852623777640764 0.25310007912271193 -0.11350575688043765 0.014103961012122919 -0.008643324023680002 -0.08729452065908808 -0.1974389606766864 0.09103186252171117 -0.05860266188908566 ]
[-0.14767823689002785 -0.23472934928860628 0.2533810724362453 0.2527028744249278 0.19741721447525035 0.19120409150154946 -0.1758285784431898 0.08705852387578022 -0.022230096492018573 0.2645263074514706 0.08579057415669196 0.2910605887078281 0.26234406049866105 -0.24331309155567588 0.2093463453779332 0.06801422210172035 0.2387352212653338 -0.13505399910915122 -0.15820619720252221 -0.11704251972795657 ]
[-0.17688915891612683 0.1325588318098677 0.18939457834759893 0.33354800005579727 0.19217595325582287 0.09860337266329924 0.2443507278957545 -0.10531146012663001 -0.03336589785183239 0.16028039890016393 0.14095884178362988 0.26736889695884564 0.014320510960955454 -0.06837061696106145 0.2897161820084041 -0.28511315353075883 -0.29075828666981834 0.26463363835060083 -0.18798500882203759 -0.016150836530882832 ]
[0.08943716045596772 -0.31431960747287324 0.13484152478582717 -0.014762836706671898 0.19390174512027947 0.1167198313159362 0.1280279615549154 -0.06378495959240928 0.1907439370315313 -0.3571983514279643 0.210663091554036 -0.06095169708492485 -0.05430319398193396 0.0007900253079643742 -0.04613727357300169 0.18010300515404223 -0.04974427308030135 -0.0870932221738392 0.12833368417739446 -0.05263141887446876 ]
[0.1448202050412663 -0.11492012874791557 -0.21967299836613705 -0.25961481324175073 -0.11655193534590698 -0.2244985203175309 -0.20946622961462405 0.15889814386956003 -0.19311633642785767 0.24965357311048675 -0.11961793411807232 -0.18113268051185216 0.058853235058299876 -0.19391532715154153 0.11207028890932282 -0.3488710694427533 -0.17553547743416667 0.23653139279343727 0.046516616241851806 0.10157835878200686 ]
[0.13426500020285434 0.20688015059732345 0.057088844056174565 -0.09392469172748534 -0.24526057524517292 0.0665620569385609 -0.12642433368478273 -0.23120138365963708 0.21484364318775678 0.014976676792196865 0.3012837499149225 0.05952641416068771 0.24883696238038866 -0.08913804279430801 -0.2777818864061552 0.0837957920268838 -0.32556232242350175 0.12892495966067394 0.19277777126384618 0.20382090394165223 ]
[0.19755917479686816 -0.12050806308875875 -0.24646757184622214 -0.153447524728467 0.06992498909159636 -0.14608891861189027 -0.06835334665263908 -0.2624654821588976 -0.1728322351134664 -0.033485209180484816 -0.32214382741848063 0.2270874975047146 -0.0610461547314165 -0.018316072132261798 -0.29750079328671747 0.09715250703038214 -0.026995734025078356 -0.05574714732405421 0.2626851809312194 -0.28574825014371663 ]
[0.17422302572506246 0.25361424215775763 0.2756318276186637 -0.02148492339339535 0.06648402268159008 -0.2094376643437192 -0.13880198065258423 0.3260873423265207 -0.27378766214143313 -0.14189788960614014 -0.029355366492231406 0.13089658594930806 0.24092441360173503 0.02512797652000728 -0.17865771728465057 -0.06675419302680156 -0.2395217854135376 0.1484791706928632 0.06015899678798086 -0.27125381607663973 ]
[0.07813879356817897 -0.011465212589773609 -0.08671299847827199 0.20062046156246516 -0.015967416007861432 -0.03056980228360315 -0.20855778996392563 -0.2304124935225009 0.09774060079892924 -0.16160531370346928 -0.2716124699704114 0.22000385304183595 0.3092061747397186 0.2838616060883045 -0.09341040451222657 0.07030975621583105 0.18705045883717553 -0.2022988136300826 -0.1375267807891307 0.29763386751148685 ]
[-0.13072055245187536 -0.21414135196627798 -0.2960490433915684 -0.21898588397377175 0.152767234459448 -0.11606387753136053 0.2804268051049966 -0.34530755917645045 -0.1769383905567221 -0.08911888884604885 -0.19240048610650437 -0.005210819824991078 -0.04402183382091563 -0.04725630970004524 0.22494030333728407 -0.02526141265904659 -0.2780713393801377 -0.22321551117556154 0.0001518109016902266 -0.09439960108294286 ]
[0.21624891855922615 -0.017307686821073625 -0.32370254409784743 0.2158423320730381 0.06799790311379929 -0.21378084714020312 0.05223547265687861 -0.23902387965599373 0.29705991324426867 -0.062077344260698455 -0.1613385071176097 0.12497760857847955 -0.2841451487132116 -0.12224701290655642 0.1969672340485616 -0.19480752420824293 0.3042721171973309 -0.2207520425382849 0.21604461713964057 -0.03318938178280125 ]
[-0.08113295172923529 -0.287192532701838 0.020951376535341997 0.2473991407215575 -0.13098197465626443 0.13353249813438742 0.002507982912523919 -0.10141331004557438 0.04473705351186917 -0.31160004098327504 0.17918244125245913 0.05895574926067134 -0.06551729604348923 0.024059672277838142 -0.11628413780961896 -0.05594122307630794 -0.13873779526376773 0.20414967555931346 -0.30549819618416263 -0.27922393733150236 ]
[-0.07820475853722482 -0.14267185823751635 0.054380205084811374 0.08760641349722934 0.2857139337197057 -0.024695378168351236 0.006842229451354733 -0.009167167039766213 -0.3383877389584437 0.1886207887947975 0.13162739296020654 -0.0007758878500006554 -0.24060325527729878 -0.1848069284377633 -0.30944622207724165 0.2987948331293501 0.24264624144128255 -0.2845530922627286 -0.15437467630366722 0.2751863144448623 ]
[-0.1591378186739352 0.3181713706953506 0.2248306214732511 -0.2950144441877605 -0.04096228941277768 0.24161105897520724 0.013015447735936169 0.3068867966989894 -0.20388496828937558 -0.038191686295230926 -0.27408223312446406 -0.1442265781072531 0.25770207190443795 0.278899929198218 0.25600070502266686 0.17235742695375145 -0.1234637750220436 -0.16976561535655155 0.09608615405683804 -0.15393868170105834 ]
[-0.23168389514248833 0.31402966021066775 0.11294725970825611 0.19835513049907988 -0.37276875110708935 -0.01571770322974336 -0.10006814213074866 -0.21684537674366022 0.23538382546991662 -0.06866488982922117 -0.23314561358591532 0.2540817467714669 0.18853640334497232 -0.014700568283065672 -0.026060775222001883 0.08412336329980744 0.11713207150597377 0.02703665228195647 0.3186697122149055 -0.23199123606751562 ]
[0.07395174905351759 0.16170272594482338 0.15244444339879046 -0.1639764544267376 -0.19481056307876868 -0.2333440312248795 -0.18068794142916028 -0.08392987909575665 0.30865630492067925 0.1916437295350551 -0.2405459929289498 -0.02560613805618485 -0.05043973950603509 0.14309101821796275 0.1828297568868933 -0.06760715751427825 0.020106151218112284 0.08265434163735698 0.24680756750512295 -0.1489712536579349 ]
[-0.29469586037304396 0.3350857351151732 0.1351990128748817 -0.008415926814916274 0.14480048888190955 -0.04453183407887453 0.28037474237672644 0.19038707158825763 -0.12537284298659992 -0.09798066878301971 0.003066637317778745 -0.00938207956289982 -0.19115640862095723 0.09314828991651682 -0.07852513510423445 -0.2626686234236095 0.03136771572924543 -0.054310818180212946 -0.08673364264244639 -0.1816799798093126 ]
[-0.24215480663177694 0.18640401105941226 -0.13143846256267006 0.02965459196392504 0.11009224221812815 -0.16624085335201674 0.04700981610233168 -0.22960413553499084 0.356101629996509 -0.14262879180918178 -0.13470446747904294 0.2913033345684657 0.07240349797228655 0.1628322197681653 -0.007215500509197056 0.2289651774478203 -0.11625975742446563 -0.04673666583343136 0.15674282675612672 -0.043083658690688184 ]
[0.14186638356391026 0.1617837750292455 0.288792381535017 -0.18764838750605134 -0.15786178764507944 0.2410772262990908 0.2619761104050679 0.08840030852139168 0.14885033657491056 0.07962831807641871 -0.14517036707984207 -0.19968418793064677 0.06571637715573339 -0.17958340473786666 -0.2635419913822075 -0.03754218128843279 -0.3158235461548761 -0.047122365831304976 -0.05192201447063285 0.25511143313630597 ]
[-0.184014847390986 0.2589534816861832 -0.06627313499585466 -0.2231589266613297 -0.034198521991077833 0.12965640472379125 -0.17675209551199803 0.2840829118460124 0.23928625189814315 -0.17118852568935933 -0.034539396695728315 -0.16254088317291776 0.2732536199396355 -0.08285673961582488 -0.25843743576369993 0.35324389416697444 0.23377880321764302 0.10455717719277824 0.14046696432407274 0.26475267669170327 ]
[-0.035353533607232306 -0.13546229837252544 -0.17744513703691545 -0.2181085260301943 0.13861109663874582 0.2395440020206455 -0.2075541190492676 -0.32289817302153057 0.2891949979572352 0.14300385389053272 -0.03887568145927839 -0.24196962371453998 0.043751361352230934 -0.1131054644207722 0.11964980970456386 0.03166711508253114 -0.08605584141807834 0.15886792280092443 0.2589687145510894 0.13826989830064051 ]
[-0.24721868726754834 0.237516799835456 0.17852984830074786 -0.22669005143266177 0.31967961242749715 -0.27247805259028973 0.028827752527491656 -0.27935122537167695 -0.1054879943967277 0.23069899935805424 -0.19945759074257055 0.2584027036164598 0.06511830268620064 0.21437845824253274 -0.005898702606887531 -0.22620023255919136 -0.17419925608372464 0.25114623869943 0.1755830072529301 -0.16756948730967972 ]
[0.2813326787019572 -0.05126947621227077 -0.0007971496365603665 0.13418509005959806 0.006387531061247607 0.04910913613300548 0.11452535684780264 0.1368467527806737 0.27092585142800263 -0.04278257504911499 -0.24139149068355698 0.22668508761623837 -0.1126419489804867 0.18155412658388437 -0.011716420854284522 0.14358035408291903 0.251632038880994 0.33175303317511534 0.08805565975671659 0.14231926605179643 ]
[-0.3130655802606522 0.17462537680549947 -0.11171136617417116 -0.0571036483344568 -0.03883254712327619 0.13312510722169935 0.2001187931187372 -0.048863869539273956 0.06202944732425271 -0.26246859231120556 0.2601684297147925 -0.3004423219017785 0.24251436604742108 -0.16159648613579655 -0.010122999648943486 0.11445342477085578 -0.08249589540580718 -0.02420058165943107 0.29420779110846496 -0.07071904580728197 ]
[0.07028765748438241 0.10324785184819282 -0.09661974876453427 -0.2798463423825457 0.041498330218422357 0.15812279499700208 -0.22486307541797104 -0.2173351445044846 -0.253300046832177 0.10057661954824149 -0.16920662453652247 -0.05126395416539085 -0.07234269785791723 0.048072891137282886 0.11830144500641401 -0.1808778515925384 -0.0025442165422102877 0.010358962021410064 -0.2594940916232298 -0.2038932204753373 ]
[-0.08239704967242056 0.24537360185279622 -0.04276084832699088 0.2130879824985979 0.26847744841841586 0.16815655643569316 -0.06324450491126356 0.22689777675796904 0.02303339541751258 0.3656407119159222 -0.014372617348945996 0.09946507160904138 0.10883913257001789 0.12537617443332993 0.04752255648637601 -0.16362254834367937 0.027419729083300433 -0.17727727600537452 -0.22008003027866838 0.11526861540679846 ]
[-0.15557331211764394 -0.07107847943011882 -0.17899427922752256 0.2306333648795379 0.08832681998357621 -0.2110538674690557 0.21016713759625352 -0.15573457591687423 0.24948244563009672 -0.06254166536539701 -0.010497435481733852 -0.1536668754443211 -0.03018589180690228 0.16985757460204792 0.22496611180923617 0.22699618009561795 -0.039431738167622805 -0.23314623498278206 0.18636586562564691 -0.03408624156138415 ]
[-0.07417367247086622 0.025304394427254403 0.038447630846377534 -0.08206400937538066 -0.09903660701973548 -0.11709429182654219 -0.021726775254588302 -0.0851486778740543 0.04438236129568575 0.051717970583228697 0.02633117090223709 -0.13338809983364625 0.20871246575201316 0.08733099791814888 -0.14070203900263104 -0.26221195152868393 -0.181054727190416 0.07575563815721521 -0.1979845090271016 0.2164362713608725 ]
[-0.18390120866144324 -0.07762838326267424 0.027595200550459657 0.04828959296734624 0.25929779954068194 0.080405758729705 -0.04275792302666648 0.22242214311703445 -0.23659285714338604 -0.13992285491736736 0.004702830294272084 0.147722929597381 0.15189697124328577 -0.14480973623952648 -0.17964525844004417 0.07468377041806956 -0.061883211745735495 0.04739317128058096 0.010809744841017977 -0.1008316223480998 ]
[0.11984778820689491 0.2142457630005912 -0.10195448220656729 -0.19107316589542936 -0.15774687042015292 0.12997329492054685 -0.2301975882427428 0.0595009591277288 0.09431354476956398 0.00645147543701198 0.07435602376334007 -0.07784218002336568 -0.10591551888452135 -0.11034746558216514 -0.06928803804622324 -0.22313240332131237 -0.1434591189739265 0.04120324435155153 0.1935074135284319 -0.0325937372826844 ]
[0.013030464356466447 -0.05600665275715334 0.2758336913115911 -0.05683302282578496 -0.04192000046956747 -0.36122884632565555 -0.06860951316832072 0.17197308184716226 0.030969534449780758 -0.06121453765711547 -0.23955411888716954 0.11373846363316979 -0.14920248634273622 0.14947190313655406 -0.05382207422321344 -0.09005988211246188 0.21333757357789784 -0.07522474418469169 -0.14389243441573601 0.038933470302972006 ]
[-0.13576946648169827 0.04317052994493963 0.14967801261475214 0.22023017352296126 0.08749608984514605 -0.14323362567638132 -0.2998447465043437 0.12098072961878821 0.3114658434778819 0.334815020322692 0.04842006964288439 0.30736873704272855 -0.20889856040397745 -0.27820885450514493 0.12715405320863388 -0.32310217534877317 0.16050724314295117 0.16989613050184313 -0.3186413831564689 0.28385429528822165 ]
[0.06891344839346389 0.2311406602434323 0.033308026900004 0.20924513029502795 -0.08390223129426046 -0.022165240708107988 -0.0340002041710579 -0.16083012866789229 0.09381560572665235 -0.18201311249279983 0.07529563166693586 0.2956955884393779 -0.10356704972902903 0.2650505317149257 0.05927595701887812 0.21589215111598972 0.21487298295138774 -0.13681406320772138 0.1503775956413878 -0.20942069427672047 ]
[0.22065190396527995 0.16825658453167228 -0.28789756152509643 0.12187226161518838 -0.11502863879860585 -0.3513421535146781 0.19003914453770335 -0.07528478684072613 0.24809115932605336 0.17554656800549578 -0.11659498361186572 -0.1717793531632635 0.20981913861802948 -0.06183754234950832 0.3303523829165647 0.1045868320552359 0.23705941255086146 0.08796963259020964 -0.23539114783372436 -0.2259949692513912 ]
[-0.3154231023671216 -0.065627906043346 -0.11011669568058513 -0.029752913668844937 0.06522981916895038 -0.04264337168727015 0.19938727839794013 0.2102743236261183 -0.286969359527978 0.20309581168949173 -0.018819358611472714 -0.22884402216004354 0.24309687453577994 0.09686718926874797 0.09670283722807423 -0.230156337752313 0.23567308456014738 -0.22587797076293215 0.20410193526070597 0.21746483723833596 ]
[0.026024362339391663 -0.25810593490431694 0.006824221013887836 0.3181174437189678 0.0984250164909383 0.12086032410458115 -0.06840760135295867 -0.008184190202208647 0.24433763092000996 0.23085792957680412 -0.20662589127753 0.29943964960244246 -0.04438336864145767 -0.21874138723131928 -0.0685789470119195 0.08105041051316621 -0.2639547952842538 0.01759625541931674 0.335033569119765 -0.13656960493949724 ]
[-0.2513904348743479 0.2748914828472383 0.288413568351212 0.09870457738016104 0.12347209310790251 0.18232832557501744 -0.2345687853385977 0.22981620157065694 -0.02857414603075569 0.35939545690939734 0.13321392237499163 0.16064535068395977 -0.2669545295419372 0.2593459669644619 -0.4166244220748714 0.07233992360667482 -0.04074412263534867 -0.17130455170927647 -0.0447145176224971 0.1639182763502346 ]
[0.30310953216278036 -0.243898540876451 -0.1451926927604986 -0.2560409659121055 -0.14558416979539807 -0.030641669345407848 -0.2489178154878379 0.109565247086999 0.20855103582887546 0.09817650268767378 0.1540855728483287 -0.01688914962133856 0.23955969770826152 -0.3087919013479972 0.038401084256897866 0.10814661667179312 -0.0336655070366317 -0.026664767611518328 -0.07178921857655339 0.10726820688144029 ]
[0.05128825115764502 0.06846618428773772 0.17854774140173033 0.3245834865976718 0.08621830292975106 0.1329996411699164 0.1160923318080943 -0.18344263929160093 0.19895285059841528 -0.032972537887670926 0.09235865298771966 0.06086389540545705 -0.2879703943547096 -0.14906545920980988 -0.1923045060464334 -0.1309381465184453 0.1834708824928879 -0.05623709513472878 -0.16227453834458683 -0.1570354296719797 ]
[ -0.007034458239678474 -0.0015891373515487148 -0.018315588537784467 -0.014027385595914824 0.008337001185283546 0.006536075126286238 0.009712776566009862 -0.0014199731852800777 -0.0033880721306106107 0.0065528200603035 -0.003911556202513484 0.006329169566044483 -0.01462849440646254 -0.007678385212744483 -0.01960881155068562 -0.007326515663253852 0.0005794969833088123 0.0002538074007690092 -0.010696572985584626 -0.010468176461467601 ]
layer 5 Activation
tanh
layer 6 Dense
20 1
[0.18668618089440048 ]
[-0.12805345008986593 ]
[0.33962681898398706 ]
[-0.49362879983451885 ]
[0.0682738284165944 ]
[0.33940397502472963 ]
[0.4172240053923493 ]
[0.028730776084526646 ]
[0.13847349671103967 ]
[0.2082225311511326 ]
[0.12176294362788964 ]
[0.008990884356366349 ]
[0.4544795936735932 ]
[0.012508637516146776 ]
[-0.40761675381729373 ]
[-0.18795301290243724 ]
[0.38726260153197617 ]
[0.09064232361998649 ]
[-0.24809177812432842 ]
[-0.467646296217911 ]
[ 0.005916194938509922 ]
