layers 7
layer 0 Dense
24 20
[0.1755064872261486 0.25467363595916603 -0.039097245793792104 0.3312999106919314 0.30451834595512645 -0.23658411396949425 0.23273277400806222 0.10246535299889273 0.10780128716566151 -0.31564183584103656 -0.3002033935765022 0.13919445994489338 -0.20653407386698572 -0.10906802639221391 -0.18776102159466498 0.07781065451503043 0.3542612993210881 0.31054067185609496 -0.13309955999390236 0.3184589632954341 ]
[-0.005492723234125173 -0.2840380229224281 -0.3912751720110838 0.016428322038394307 0.3610836298877774 0.006749482765433096 0.21283857289281924 -0.4159623364181327 0.09086832006213205 -0.05249937622449605 -0.12582242599524365 -0.2997061988755461 0.29451618860326517 0.12046456547180846 -0.045678106122623297 -0.28790378422324453 0.05406243814890466 -0.24244494904277364 -0.04204654202211246 -0.06057197385682971 ]
[-0.1485871478042199 -0.2209767221241495 0.07608486812940407 0.16895778889914032 0.1607431895993006 0.10368315478888351 -0.34326263781472033 0.0278296183937683 0.22090835848214102 -0.23072323865481342 0.03290623701925278 -0.2847065347433327 -0.14220117134410662 -0.10562711298852381 -0.2639647438429431 0.22270309449565107 -0.313371852710223 0.154382527010264 0.2396921542043807 -0.011648651542697092 ]
[0.17772662515357648 -0.27446529510379397 -0.08410866355305997 -0.1040893218982706 -0.04091187965929418 -0.21475887824373993 0.01783435124317364 0.15821972628179698 0.14712209809280236 -0.19244579151725738 -0.29986807493238943 0.006700572673497636 -0.07208643864263913 -0.3281386388360746 0.33507990255859804 0.17039965038601457 0.2584886243265813 0.3583747393278893 -0.30068357874676593 0.11711300129206233 ]
[-0.2820344110073259 0.39626678019154676 -0.2578026098886115 0.06535490653560405 -0.052441759490174544 0.009369941539459586 -0.2831853447496136 -0.21342347220573327 0.10826810132051312 0.014517013383294964 0.2422429591388282 0.3807682933926155 -0.0758577465647259 -0.42036700206594346 0.23706319592803993 -0.12285521581997366 -0.2733942855473334 0.11322180793096634 0.23312915305485107 -0.0905536107776817 ]
[0.004798456866811494 0.2280350226941971 0.2642925201548649 -0.08837582955377503 0.20302590716299213 -0.29237091479342103 0.19778778680133788 0.2075965512391692 0.22997558976919422 0.34127111796864573 0.18605082281305832 0.41323044906318607 -0.08713176838509826 -0.3854327341881789 -0.23611160870592837 -0.3195845318886278 0.3290576479331475 -0.2586001009077921 -0.042490262961429104 -0.00840613326595167 ]
[0.2635839767595414 0.10758849048099102 0.2188439209391439 0.270380904393231 -0.30520857257564277 -0.03231119141531058 -0.2065957282043236 0.18785996856693898 0.34649766086789574 -0.10105453395892035 0.30064603106639254 0.09351626494285173 -0.004522027865640397 -0.2834617025745106 0.09586055106481563 -0.12117760891928331 0.16132298236004003 0.08122261446247564 0.09031145520668114 0.01804243212800098 ]
[0.12520829564836372 -0.3495455785195729 -0.011942036913326189 -0.1552753746225417 -0.1394993145766274 -0.14206333002265228 -0.01674528312251129 -0.16229271231876732 -0.02728689099395247 0.33521505740407087 -0.03645349379327875 -0.3869330981807299 0.17435088500880588 -0.21330990600231117 0.22057363833251695 -0.10189348982828096 -0.22558009570848842 -0.1895715963132738 0.28252364917676986 -0.22863694630206471 ]
[0.32151736261447283 0.3308590651882397 0.19921316029083505 -0.006879147140212917 -0.23058262832234613 -0.19133223792927032 0.23232408660567327 -0.109789981865706 0.11023757206829947 -0.3307005509447419 0.3434914301232678 -0.3106329302280466 -0.33736426626375904 -0.17935011669729092 0.3504330210666087 0.19822579310331617 0.10910148857411632 0.40024307957309235 -0.2915366950386623 -0.12846998762942452 ]
[0.17652879838523927 -0.26242462227381236 -0.16425043209218199 -0.24294219783052906 0.3636116941983161 0.11409263171932843 -0.15369802038267882 -0.32992750597198195 -0.29416331542088237 -0.09038233191802068 0.22561082544421185 -0.005327224808812833 -0.3149517594898801 0.1409163802450465 0.1971726907081286 0.23190608550201952 0.33616164226158257 0.1713731042106431 0.054562290163530966 0.07312721155866823 ]
[0.2869292739020717 0.1909217433430896 -0.3936281370466842 0.1833725341862114 -0.07186199513099979 -0.41585017456008616 -0.26804012820763984 0.2822672852166806 0.025615732349792933 -0.3218337443007427 -0.043566836028114855 -0.22574874007673096 0.3382186826889541 -0.20352381550413665 0.2372138062007205 -0.0024625322984785265 0.12876183634982769 -0.0019708919633042794 0.02654199419835542 0.2203504480470357 ]
[-0.3072363257537751 -0.2496918917201941 0.1400279631441404 0.3409329316627394 0.09188140958879436 -0.5766158134861757 -0.11021003930864137 0.04684393776324169 -0.27013919961604277 0.17175487803290004 -0.07442167185767579 -0.4178168528094426 0.29976172149988767 0.39724994129930147 0.012926020827117631 -0.36831003921890143 -0.2820387207849857 0.5565071032015281 -0.5843954582815135 0.08964084274527383 ]
[-0.07540423325819798 -0.2579793883571877 -0.19893928389681864 -0.39616931080163703 -0.20150582342903534 0.18586023098589063 -0.3818630969971549 -0.07700795322758894 0.25976698669875403 -0.13727359472862938 -0.02769023503657975 0.09986147181595616 -0.07560243594818696 0.0486998379398531 -0.3165198202911406 -0.23513969982329413 -0.459800475350537 0.09342287883054871 0.15097697165320884 0.18115361316197579 ]
[0.026296838374386018 0.3200696794084104 -0.031077669183866 -0.08840415156844547 -0.29567810861707433 0.3516115519837378 0.3419444885471438 -0.34145401453815877 -0.3648628500691037 0.02778912652820922 -0.12745100860658046 0.1288291882357585 -0.02455111125132496 0.13918051471260637 -0.38372069254244995 -0.36313228519354085 -0.22262131247264094 -0.047082094885738605 0.4417241194854997 0.27677616700362173 ]
[0.2848703213222094 0.03438698474052079 -0.11985131051500775 -0.04366308969356824 0.09181710144583272 0.02029437276101976 0.06920916033953955 0.021863143321836222 -0.26197027961541003 -0.3028587871709184 0.030945699800678333 0.13406990665836307 -0.33708139830836065 -0.1795755217780544 0.2789886829064732 0.33794997230597906 0.09716313270574073 -0.06326194562767613 -0.20493594395141634 0.20166766509515974 ]
[-0.2613388338911574 0.05222239953768384 0.2942654929723985 0.20660132667941045 -0.01927737856155068 -0.1289421087463249 -0.30773080999756053 0.33934010792574115 -0.10801139554432704 0.35616244773533173 0.21236153227500174 -0.43115701446681537 -0.26308683854677195 0.030183335001374666 0.3367437304405738 -0.41603918048307087 -0.2431655242821224 0.39842397626935105 -0.18912739297523753 0.26901805534989354 ]
[0.24397413967236753 -0.25530113128059984 0.13384847317817006 -0.12500259909103 -0.1443193504585606 -0.22534577844955309 -0.4109271785652429 0.2806680495518184 -0.25973564831050183 0.014210005918379344 0.2493112753139889 -0.33407889781255873 -0.2019867018313413 0.40790867771618144 -0.13373735321308353 0.08344740163235898 -0.05095358310403413 0.024377943928033847 -0.15233621133587658 -0.2818312210582164 ]
[-0.14047247110451994 -0.36221870641132725 0.574650370881254 0.24856170462814198 -0.3837827100938674 -0.3384754637150649 -0.10045767178599697 0.32105304450453337 0.06183023166393721 -0.1802409655056857 0.1875934539859936 0.20323425995039132 0.3308029975310017 -0.4621059596057119 0.48522205268360963 0.3438036273895256 -0.15442860449793597 0.07919523932512997 -0.5668720991502768 0.33265194182171876 ]
[0.3064690627245288 -0.28270950516242843 -0.07814493738933119 0.10856951714697706 -0.1761854661661166 0.5396251160345567 0.00963112287720654 -0.038217526502247454 0.04733874610253967 0.20225201644443402 0.15947038447732126 -0.07205059445676208 -0.17657931937424018 -0.2778026131157226 0.13220564400680782 0.02113736007938118 0.060411064094076934 -0.2829640107703148 -0.28458986418299254 0.29122524139358547 ]
[0.09784554540315779 0.06427090083057395 0.41693540522172656 0.3574251508359458 -0.05818221752221411 -0.1202504941215166 0.03710867765097335 0.3675043264371434 -0.2523765984180515 -0.06224422106219367 0.021708199395645777 0.2674678836453877 -0.0710207443243709 0.29628157735512695 0.0939332491921684 -0.18917935670568622 -0.11826464414170275 -0.11378082596621382 -0.33598451764202136 -0.005532143471838113 ]
[0.22528683407770597 -0.14037286519598316 -0.05169751714481753 0.2116739704744274 -0.07687898733875424 -0.0007432392564583274 -0.12048680081257418 -0.31145331151081335 -0.3127111121825311 -0.14613137967013343 -0.09089189342698574 0.1356744109369021 -0.13868132095694333 -0.361524286000188 0.2781426040606375 0.3813728982822335 0.12538661770271392 0.060995850358475316 0.04254483011978832 -0.02414955998317222 ]
[-0.15726678220896864 -0.16329108784239915 0.2764870680632047 -0.3412784632411116 0.004048155780277058 -0.4693477549682228 -0.4256889292352527 0.0039177919774270025 0.4084688256775792 0.506517620681442 -0.19270199080308476 0.26714730332367775 0.16137786363475107 0.2720046592252206 0.07353848618086763 -0.35835263978783755 -0.5617802790297519 0.061536725017633 -0.3063978302317144 0.06536520204271863 ]
[0.15906037142711307 0.18974712469283866 0.4376582923857406 0.18665399528114573 0.22241562848525215 -0.39303989342088397 0.2832707382600022 -0.452391557056236 -0.4904738886806498 -0.45106940429409353 -0.12282225199516865 0.0868042375581533 0.10290781979421204 -0.022442648276469714 0.24418410563801612 -0.040141221387869436 -0.6187441855443852 0.21856353542439058 -0.21927002064601184 0.1104776131558847 ]
[0.3252116925825793 0.30346398201407326 -0.16049117318360698 -0.1630709851925767 -0.1779799631718054 -0.1547684328464392 0.25468959829834636 0.2610217141545249 -0.15063472688564622 0.19090202743321563 0.06486658400391207 -0.22188648775107112 -0.21186918659974072 0.33747674308900133 0.34407238111396343 -0.2073821119763824 -0.06805744065230601 -0.28804276218894903 0.1677051457677574 -0.24159945629409146 ]
[ 0.015259975399573739 -0.005349529352759465 -0.08422419946369564 -0.024892150766244823 0.00752981406585098 -0.007716102934213932 0.002543958711564973 -0.058762221365157984 -0.018641827841631632 0.047440248802408005 0.028565017034517685 0.05766046070057789 -0.01133400871615253 -0.05615711545170005 0.029153865404202485 0.01848724880566079 -0.02073984653917219 -0.019453516421900956 0.03989449980464244 0.015975063724657713 ]
layer 1 Activation
tanh
layer 2 Dense
20 40
[-0.15371557748372733 -0.2869083168307012 0.2596302558470283 0.0179923190123415 4.0241192938113724e-05 0.15871508327512351 -0.17047757117167164 -0.01513071957936476 -0.008986443386847903 -0.18404479668670967 0.30019942902092117 -0.09209320761731964 0.1107950472147342 0.20849770938762635 -0.12012865090553747 0.1551393288109495 -0.18306331577165003 -0.10641068100088752 -0.1893665300321745 -0.01205171796692828 -0.26629588667986204 0.21880555601098733 0.1875849946774719 -0.25916651881583486 0.006998086862323494 -0.017477913058803557 -0.19997829713454096 -0.1331861493497826 0.1292445274544583 0.04466511488048828 -0.11857969970474024 0.1704694654677675 -0.09413245149940726 -0.06257216052519869 -0.29612220865677313 0.2447369341579438 0.0846261178996645 0.08282099938922598 -0.14464272951639862 -0.20710580991332958 ]
[-0.222980569382303 0.2090112703603158 0.14422206875007068 -0.022978253944715324 0.30149709941157987 0.11908944411465333 0.23885335241843467 0.07121931429148291 0.20061687547188722 0.017985226607409168 0.0019360581622547696 -0.24516669720476175 0.23914751375403448 -0.10332729377579287 0.168218649700151 0.27689968727854014 -0.14070326452818857 -0.12612193218999332 0.05671714686122788 0.14369214634230829 -0.19943888043405075 0.21897190162266042 0.03525880629076393 -0.3449513021117513 0.23655110755940917 -0.3584710509551747 -0.2598993899260499 -0.15677494672677314 -0.15202192320770475 -0.3524440007898014 0.15708601045758014 0.07330675561839656 0.2254839871955694 0.05893196572817566 0.22056289370009435 0.18059342954099553 -0.259077766597974 -0.2890149661532296 -0.10345134428655847 -0.21671887147320795 ]
[-0.1928871533915041 0.26637280257387097 -0.01291294829774638 0.14432099496938156 0.10536797121965888 0.0647532318237125 0.04792484133746931 -0.2201895049746642 -0.04514912401122186 0.36040402991788 -0.2473967502677914 -0.33691962244247153 -0.03357321135312414 0.006983990595272145 0.06254716580753797 0.28973014508902917 0.015978374855223423 0.25253219410567035 -0.002055503741747337 -0.11967803706995693 -0.042124669808900714 0.239239522905671 -0.16338911516139568 0.12255040812242843 -0.058329911412436465 -0.36668997190185254 0.23255788616557432 -0.20953657854282945 0.19237361914377815 0.11012687506892711 -0.08672760617760158 0.5407687269385192 0.038690384161370904 -0.2410957954673778 0.2896727139298771 0.09332199760153014 -0.2638263790006271 -0.11558437515278018 0.1633251531094421 -0.24885781072927418 ]
[0.04644845433187818 -0.2962699222721222 0.055292017566028195 -0.2153962674312807 0.1773895607746368 0.30410461065790806 0.04327833752163249 -0.21179736681858985 0.08571748174874741 0.00914228856541426 -0.33235838321895955 0.2531638233297633 -0.08201254017950613 -0.08330240466320592 0.09179112344857882 0.1681690399863204 0.09898373942969371 0.06627074006471584 0.10588391646490895 -0.23870481855961825 0.1916955580340906 0.2174192105353649 -0.2102774037072581 -0.2625483667997084 -0.14035009400673126 0.02894077681981347 0.2105751148440066 0.25606513677601467 -0.18728486091634716 0.26483354468004533 -0.26935195164542575 -0.015816475982585166 -0.09576653937301098 0.05822233662836739 -0.30048610532497844 0.1963670340304853 0.24662651289503174 -0.1572722414994612 0.13255248647080267 -0.15708077734717815 ]
[0.05525684380035408 -0.10355437121858027 0.022039033463327744 -0.23465031751757914 0.1208285810397837 -0.15558061137575085 -0.23266537993997055 -0.054207788844944 0.1670183840651046 -0.2773132774567827 -0.14008989638665237 -0.19749319524927572 -0.29852977438571726 0.25295400492267517 -0.360122971714443 0.25138653334929484 -0.11288619863570146 0.2032536555618809 0.14282703074840516 -0.13775690550162265 0.2358340747112533 -0.036052356047104904 0.058148680480208687 0.04383832874979764 -0.018005467680220554 -0.259151221857562 0.2738697206331244 -0.17167272476326834 -0.10302715620776337 -0.0974548980643512 -0.24101477171526003 0.15102271120576122 -0.23134516917818096 0.33881021050072924 -0.17493287202638602 -0.006732166574764892 0.2838285042497557 -0.11952368793460397 -0.11502540344456157 0.19405800519661506 ]
[-0.15326564513597554 0.205485102168577 0.28320653361616593 0.17420629660127177 -0.389938617820235 0.08243822944741241 -0.23193444621346754 0.08855424119526373 -0.19108624254402662 -0.24982081314091292 -0.3416819176572521 -0.04267736688471037 -0.4322572262464132 -0.03677004015041486 0.06741173742804075 0.4012574359280214 -0.03509193036355784 -0.26412766270103283 -0.10253120565978255 0.4696337600009174 -0.4018508884480363 0.19430476371651936 0.5400307645135802 0.45180040210493655 -0.10235788094297946 0.45276594409817317 -0.1295934371721638 0.21647653849408405 -0.10310808676749775 -0.08880355153951504 0.2508247025740983 -0.24758342135246386 -0.3751129697649731 0.1297612400373504 0.43899371780785895 0.05521584931218722 0.17030840347060228 0.20239587506857082 0.30896077472731864 0.1654827782495815 ]
[-0.17517872471813517 0.1025096925818981 -0.1699572076627516 -0.07659145050581456 -0.040633966644989264 0.21396112143163504 -0.10368156053928351 -0.2440778946476778 -0.19860704444434643 0.060621561250328956 0.011338295973321841 -0.30400448147035153 -0.13438673331218065 0.040307877490683104 -0.2777471904457285 -0.031046558924284987 0.021471289133578784 0.15218047383282599 -0.2740947315825644 0.009964872690880477 0.31283373335870923 0.1580009726626686 -0.28134262978323427 -0.015852766585518995 0.0002673388967940588 -0.19281794788979173 -0.19015090329612996 -0.24433021316280315 0.06389159747133077 -0.019201609484974617 0.06443516475902021 0.21760009215910486 0.21795185553757335 -0.10050944570790196 0.21293274001563212 -0.1887374269435754 -0.3151375443683341 0.03867636594505569 0.18962328555958455 0.3270515215483874 ]
[-0.07913871176592652 -0.06458584719871777 -0.02673317176229896 -0.10241063178050447 -0.24260582544723922 -0.27563077248630335 -0.2925021534428949 -0.12301310513063915 -0.09066265278177536 0.02684981258265735 0.28674318677810234 -0.07754757132068765 0.25487957705426256 -0.24941038166029414 -0.1877921437750331 -0.24263571027785016 -0.03527495363120425 0.05729286036968716 -0.29730027018204985 -0.14465506836565037 -0.05151294093037842 -0.1486016563078064 -0.3955315328338956 0.02994160537763592 -0.03486707918588979 -0.08530948448335339 0.33615561549518586 0.27846903104663606 -0.30041244538831513 0.06759021483969688 0.1356286374733397 0.3987123079242657 0.08563991977242162 0.06925631549954876 0.24545712569999625 0.17140984282247293 -0.22084400414291858 -0.20515044239896835 -0.16290931467578523 0.1908146846040601 ]
[0.14315544997472704 -0.27833013667321616 -0.11823190491225892 0.2817658990592434 0.05942705752611268 -0.16021835575316892 0.18120968592907663 0.0012756495251159408 -0.1386548750296004 0.06578428964638386 -0.3314056448727153 0.10854589710915201 -0.1541432137810777 -0.18976015669809115 -0.25200304282594344 -0.07097518473966473 0.20973309786486177 -0.15511729295727938 0.1120904742307336 0.29023815811721815 -0.22762605221233975 -0.05073721202888172 -0.10741876662095011 0.20722760877259921 0.19877298740390406 0.15249861892868027 -0.2615001004146164 0.13414607151508326 0.03344840010441626 0.24743885602333854 -0.17601305503996723 0.12905468603252396 -0.06090578281854005 0.07104282532251677 -0.21862751485544063 -0.07076330490290808 -0.3006530287629288 -0.0023078922614316304 -0.29376184252421345 0.03714057666880139 ]
[-0.30662679016554467 -0.21395426731826778 -0.026766136717675377 -0.19661299265088725 -0.03268794289188973 -0.10213408271821497 0.10895995633500984 -0.15988290822725357 -0.08496973458421245 -0.1797537151148413 0.10258327486992555 0.09603912263984805 0.2799834554862347 0.12166303316205108 -0.149326677982689 0.02054952755029279 0.20039202196073164 0.2477336728264467 0.07828529817880922 0.2452137037321916 -0.2669924749956508 -0.1673886081601894 0.2269569588629332 0.16265632511161576 -0.20861316719855771 -0.11695031939904359 0.07417765300090687 0.21101512555264926 -0.18723328227184682 0.08419142144119021 0.28628295123680025 0.3329938073647153 -0.04996758351052486 -0.09181049948820272 0.3010938291284855 -0.07324625744574147 -0.1867449448980244 0.29290096383993525 0.19910925217141878 0.1523009835806402 ]
[-0.2115902087447568 -0.12306745225942792 -0.10225839897382266 -0.162768007033139 0.2075626698158296 -0.004178460599527321 0.07056341004620648 -0.23043749195036672 0.17607015755177102 0.07225795403627858 -0.009897664187210345 -0.17581820062368517 -0.08953562968830964 0.15670283624598685 0.3240367684991817 0.07645182681776537 -0.26707252397647213 -0.2855160514363019 0.03565065222829959 -0.24282311397394046 -0.2061486131724296 0.2017607834121588 0.1031468083482152 0.22448877174594647 -0.3330276151899846 0.2086204092613931 0.0936217717266854 0.22106582616133813 0.008030617471134385 -0.19465369942598226 -0.032664573600706404 -0.02418550806004751 0.18608401057427326 0.007256775250424279 0.2457878968666115 0.007702805490918155 0.23661897168720747 -0.10093064237209975 -0.1922888397019824 0.018081146896839154 ]
[0.20554585512863896 0.04421014420980492 0.12725814861888698 0.05721055025511523 0.4047659741939335 0.14902752354486448 -0.274685627634825 0.03596282770040663 -0.10010685272694449 0.18182332765544632 0.1317065248521776 0.17638500493434625 0.25100588096596704 0.4087053269328813 0.01198387430675372 -0.026375453754720384 0.19457187065328627 -0.3021782261010346 -0.05228230586965672 0.2586174020618254 0.04889080737416576 -0.22984426375823455 0.2969429475488657 0.31376044816103205 -0.03007668759774419 -0.33962461009372696 -0.11843623384252167 -0.03980306878163711 0.1684452982643481 0.20581174596529933 -0.2928727659459411 0.08467296616197403 0.4071207268254986 0.08125034961995953 0.06864919514829294 -0.24663345117897773 -0.19729783059931683 0.3005329176402034 0.20172153825108818 -0.2923919369074215 ]
[-0.22490204455564444 -0.29396815037934476 -0.15397771980754044 0.1356326730349098 0.20909846819684536 0.14821828715891916 0.12854517165891935 -0.16979068696199273 -0.2550911881985084 0.022985766781961375 -0.06499545545891568 -0.05111652058097078 -0.04681863323712609 -0.2945048675127352 0.19961267394590962 0.23467481257078532 -0.20259269761329396 0.08687903773313788 0.13130376001135255 0.2506025854504253 0.09657117810123494 -0.2027876873353514 -0.08253302571457687 0.16976384477408893 0.029739490068702645 -0.2848211933005834 0.2844908869859488 -0.07396071721476802 0.22041712378483383 -0.18800071045463734 0.13079905303709838 0.3024912299651909 0.148323230927664 -0.09927858424884894 0.09500532881206272 0.19250340302629762 0.31856937875251884 0.27018010739942727 -0.2009384024450949 0.02521087278518041 ]
[-0.11491216686309313 -0.008539626547837114 -0.33947747818313045 -0.1656843715426758 -0.3984421360768174 0.13101900144310857 -0.0216537104332222 -0.03804131303309898 0.34043711298082874 0.16485173415872956 0.2046594888511159 -0.5156075093977268 0.06421340933102442 -0.3237144054233204 0.09409847897298886 -0.18458752723965952 -0.08834915275197316 0.3454254843913768 -0.3323161367992913 -0.040390701797925636 -0.21426682975280384 -0.3743049652316574 0.12809350514202333 0.1686786601691268 -0.02740315942693225 0.23334816824819832 -0.2585921295301256 0.2035979026620644 -0.24398589868505138 0.08816645144203605 0.04724340529591692 0.4454738774449137 -0.2059292635183436 0.2139556939287903 -0.1835979109318593 0.24686170535866434 0.13980708051250745 -0.19646098823131686 0.17258215919605682 -0.18728322927845797 ]
[-0.09479538856051406 0.17527534278091184 0.2991537703007604 0.22829813503343266 0.1843063680746357 0.17606029668248327 -0.20602832184961498 0.3443730893476554 0.00480027465173968 -0.14405603300347744 0.28181862006529995 0.09816949427475481 0.31703639515416465 0.38798088075000714 -0.16785990493486302 -0.22038658059167038 0.19735224443282776 -0.26518003554683983 -0.13181534978949772 -0.2733630648494451 0.22618699809683757 0.3182206683194018 0.1076895043277382 -0.020567310738061385 -0.18840676126813752 -0.18197197716587798 0.13414549091122627 -0.16918904852429215 0.16509095215162078 0.14062922594182475 0.21409230481292088 -0.06880536940971911 -0.19872965838597278 -0.13391795811187812 -0.03862495768696277 0.1496628927208762 0.3369926323837716 -0.0898787713985219 -0.1253056423867342 -0.15156880934624903 ]
[0.04574274568381055 0.0595774187210894 0.2707402937857285 -0.0011185232711706488 0.27617567989548253 0.03846782255867311 -0.26993343542136367 0.07436409614042383 -0.0680656114166768 0.10288499731305278 -0.20082845680460018 -0.07329096371441789 0.1483222386725795 0.005792307086946646 0.33894639118955194 0.06296674290797268 -0.25807057070192285 -0.01054008130483277 -0.345744061964862 0.23574349169708095 0.3229628147943796 0.07516459648859164 0.004468167889427368 -0.25491535840915547 0.2912681603374043 -0.10190892485395721 0.011428315483432948 0.17079609417699312 0.04951632948667662 -0.17438494954886838 0.1003210182199969 0.06911261202622204 0.27125686912255875 0.18904010303911645 0.09792343040040219 -0.1168036108203693 0.06767177256892884 -0.19640240684054883 0.26814169822832945 -0.21928882433923252 ]
[-0.15643242223859524 0.15907028670747023 0.21595764708056245 0.07955555811108792 0.08010579770498079 0.08351297604152731 0.26078781831335784 -0.2513851281114292 -0.21018085113602095 -0.04058408750735112 -0.09361449108967432 0.14145568764112498 0.18884831333519037 -0.08502293951926665 0.19725374353977732 -0.07767911233691027 -0.26956703374393143 -0.07585372468113277 -0.37570630106384273 0.1023265995659201 -0.0746523972075036 -0.21225180635863752 -0.1630073662419073 -0.14819036507550487 0.14483228852072144 0.29603067025101226 0.11571220679721111 -0.20368826150344016 -0.024136048597218168 -0.017234668791910716 -0.2639287482411193 -0.0018785730988341957 -0.078086400026122 0.288915466947539 0.17304269539331868 0.259350131171066 0.26277454577962894 0.23599123213953696 -0.22399962893390044 0.3626799591710569 ]
[-0.22352099789095703 -0.3031943349879436 -0.2929947638717824 0.10541812877572433 -0.03332614953346671 0.19260227755175835 -0.3280266933247344 0.18934917197892362 0.07328345291292283 -0.24346828245553945 0.24498224192468576 -0.13995265549825572 -0.14198446004875873 -0.23570091105759125 0.05099099765577315 -0.03290748251720078 -0.11660924894312134 0.08847205598047458 0.19266167710205928 0.10818215508390533 0.18314557724451708 0.21365753958403016 -0.09125196129813598 0.182226012787902 0.23671181045871253 -0.2510976078675616 0.24481786183598217 -0.28978873490545454 0.2138164955129557 -0.25267599045125533 -0.2554507246280239 -0.1433797269321938 -0.2662149193493942 0.3211783377430389 -0.14260249039074577 0.19385363371119427 -0.2461669974980749 -0.10423456930599093 -0.14556483110924268 0.27336489984894224 ]
[0.02759750812220577 0.2442158704136987 0.17130919988913126 0.15168426863723183 -0.23620032304200267 0.2008940473643537 0.22347658816489321 0.03426467338427261 -0.08988867027803076 0.12153233065659007 -0.09003294024089632 0.26345434415152535 -0.22048095030867532 0.2406487223798488 0.25905213994964116 -0.19664205844133187 -0.22832611817936238 0.008649177614890778 -0.011957055111762378 0.2988256333828019 0.22851928886199405 0.01144900518300859 0.29862989780440197 0.1028742870291919 -0.2368527159124411 0.0028011662298353555 -0.16921009717337335 -0.01249935344185335 0.07340192306449753 0.0518794621871941 -0.09656647811763217 -0.5239870346624469 -0.2591221054382919 0.25325556856750286 -0.2411430206002938 0.06958445639111713 0.28822659030167685 -0.27577096538513346 0.018608089404419575 0.23660682330203334 ]
[-0.1797331127865618 0.2072233021765688 0.2503829106344841 -0.2760789655503749 0.133715997012074 -0.10571640069012762 -0.2567267923128266 -0.06568761641482374 -0.09003477390486249 0.12387743552815249 -0.01413399153604537 0.19509218555682514 0.12473940727178286 0.09228147347693486 0.2113704288624447 -0.24752046999709554 -0.3040272078346286 0.15622820464092785 -0.12268635162203272 -0.00047132412509024406 -0.054138523482829645 0.3335149418512903 0.048654673321801165 0.06018599499473474 -0.06489717693685698 -0.0549759636304157 0.2279344254285546 -0.052551688497956155 -0.22588444833524773 -0.108017331306875 0.2522873697373773 0.28018908517936725 0.2916590542685419 0.11149826514093059 -0.18605998646801233 0.07243046572481388 -0.013501520741431525 0.13759900820317428 0.17244068159293582 0.3465991028342793 ]
[ 0.02143106159417506 -0.00043398570998818544 0.00781784216728799 -0.014580113197737755 0.00486765051314294 -0.00999465673259626 -0.03801868030325609 -0.048325024363064614 0.008396482796328548 0.012188507560091232 -0.0018640179655924588 -0.004609803197854279 -0.023495534204075744 0.0304250657276912 -0.025902900591393822 -0.019569233845672388 -0.0037797370253910764 -0.015608126085811802 -0.08160681818471018 0.0030796538729903934 0.0021830937733572273 0.009715261233010994 -0.04739464553475332 0.019397347190673632 0.02378941632836439 -0.029605697006814993 0.008087566747888698 -0.0026330067626593183 -0.029499773877391396 -0.002660399444769527 0.001304352336565564 0.035430080616725264 0.07168619791840718 0.04789364768900052 -0.005155693838908336 0.007548796315839948 -0.032173330057735115 0.0026878272867866403 0.0009052905018711037 0.028405591250047837 ]
layer 3 Activation
tanh
layer 4 Dense
40 20
[0.36072403372146544 0.3392447204354879 0.07535320022568731 0.22611258527968925 0.042553697582456085 -0.04204519861501412 -0.4031349523782902 0.256399619247417 0.12682797271458185 0.11520874888972582 -0.12235342462591056 -0.14964987668712162 0.03214580013135318 -0.32916438345483856 -0.15981261657853985 0.09388500079116781 0.20720019333340256 0.08779948541869181 -0.12116627161163293 0.054919838557542844 ]
[-0.18343153734898818 0.19334532107878513 0.1424990300759991 -0.18592909770869412 0.15211824576166516 0.2604122540589692 -0.19022518479698386 0.17602771706406678 0.24440083937602214 0.20252966860666904 -0.052865961670452995 0.24758940565527246 0.2031845564245618 0.14554096158447294 0.08703850435848033 0.24728204100914075 -0.3005810934335195 0.3176309605675286 0.1962361544950866 0.044218327908020626 ]
[-0.10041313613155674 0.03153268818110307 -0.11611694888114238 0.1684973597339777 -0.328219211564236 0.09893366500772457 0.11099620084421595 0.1082519932537952 -0.012287599861951663 -0.06174146167631676 0.2715078366035529 -0.21091118288768854 0.23772168776515487 0.14233511617521102 0.1822464071677333 -0.1909541072733599 0.00010949047075621028 0.24232303392230023 -0.35558110745501254 0.3367410726373406 ]
[-0.2231374519262287 0.21412735909316336 -0.2523467254803457 -0.23861524016058439 -0.2165834776650997 -0.252488414644758 0.15144139642997193 -0.1621335390467896 -0.24450750079206388 0.13586496373962217 0.04707312047211836 -0.18156949860206537 0.2644455414189236 0.20370059771968885 0.004884356563239319 -0.2929893390401126 -0.08786511818768794 0.0866761313058033 0.056257053051972886 0.0447944496614051 ]
[0.20946118898787583 0.09568848813290205 0.36009479745121403 -0.2810146093649499 -0.12769839106821 -0.04785486663332783 -0.0007850511079142173 0.034550143681941724 -0.03672174084019675 0.0010200597808106625 -0.013138405438597633 0.13987891505745345 0.2504092926574539 -0.14417023417534697 0.03047493468925229 -0.12341205646162351 0.11571888271250784 0.38685069443873377 0.10294773627740923 -0.07136548775867725 ]
[0.14407860810316653 -0.13405228206290776 0.35268813862810244 -0.3614153904853172 0.11374189303198912 -0.3329276775352395 0.3745963174053911 0.2959012228783586 -0.11828890385109618 -0.16294703536139807 0.18944219359694867 0.25751106878725155 0.07460938654599514 0.3615658225081966 -0.01790344799887934 0.18810254664589868 0.06688714405955269 -0.020065599282635408 -0.3046578265113558 0.11850523494856323 ]
[0.1782930293997709 -0.29798467384884075 -0.2555038631417501 -0.03652008840443432 0.10378021877796395 -0.1530841770134879 0.27054052189120875 -0.1072099580086297 0.24102987689710648 -0.17254646783318892 0.0544615169756603 0.1993648376956257 -0.12719517787691695 0.033553441556598146 0.2480844031737231 -0.07575328066559807 0.06410389233995786 0.20654565906031971 -0.25740989240243756 0.03067046314850909 ]
[0.0392014408996287 -0.005614190817885737 0.023969668053009346 -0.12693543862534923 -0.1518612311238434 0.006616438054025978 -0.18128167647071694 -0.22974551624736722 -0.26700826625723856 0.2697152007400545 -0.22408871590935206 -0.021770769768433222 0.2649253596577362 0.2367288184848342 0.21643647889350584 -0.026714840202571276 0.16463498335701088 -0.11536995653262277 0.11897622132259027 -0.12903030287734654 ]
[-0.297283035386749 0.03867452170717366 -0.11042772933633409 -0.10073973685659628 -0.2674070275814656 0.12116741888988096 0.26957307567649447 -0.08517253154520006 0.24300006047817815 0.17715692289935042 -0.2586297584131332 0.19848822754531908 -0.11283390826586201 -0.046280618997084404 -0.12219865005759822 0.2696263744414623 0.09537122462397231 -0.06178455890206055 0.18863180556301648 -0.04419654634635459 ]
[0.23436234658519625 -0.07452663746983436 0.2126988258814513 0.14543533362309435 0.29317611871082105 0.158428977516304 0.17481219991905858 -0.21456625043874364 -0.2942261493057539 0.16311916285953038 -0.14829071624471782 -0.2046886071605197 0.347157085563692 -0.15419138147259687 0.12771246218976015 -0.15117853876252801 -0.1604069823860977 0.2125089996242723 0.34089388498400436 0.09024339484638692 ]
[0.21415122245137116 -0.09838390316023927 0.16370971279519345 0.07435178937144278 0.2621005554958966 0.28889410144236427 0.011542782490458361 -0.16391706579200171 0.31730415034970877 -0.20770154723989545 -0.13283021505086454 -0.23855529357864827 -0.005155021573628047 0.24216401582374292 0.05608997348039267 0.06681182651459364 -0.06494065906527671 -0.11672285173658276 -0.3040405530861105 -0.09053929650984091 ]
[0.1287123142403894 0.29687169505058447 0.2365063634834664 -0.07534142607258307 0.17562413963648252 0.004644177470236835 -0.2584501772068287 0.030162291850556838 -0.019789829557196863 -0.07458411605976321 -0.15605761028830364 0.32086104712484226 -0.22167490366929476 -0.04350857335368614 0.16877364549118534 -0.07845743124045142 -0.15583429910199095 -0.07926122184899452 0.02467960676499043 0.12105315535797213 ]
[-0.18366313786966143 -0.13130659144029025 0.07053569975149779 -0.2231174175056348 0.10757089635685772 -0.3084245784711094 0.1574852400553325 -0.05880094999988296 -0.29663095621046737 -0.3099585570541769 -0.17090446840550347 0.04117366303022335 0.0621912880900064 -0.19572022357182484 0.3346255658456738 -0.17173988249790126 -0.24046633743198403 -0.0868067889205111 0.2326263197993798 -0.0403423360266239 ]
[0.08269874422817215 0.18995055082317874 0.14302634908202874 -0.29813187478596737 0.1145295286565439 -0.0921794692112297 0.07663138118089104 0.2918481986646764 -0.21939520944678315 0.21764690193003958 -0.19671022666358895 0.1303678866854798 0.1630277388956257 -0.11712804785249062 0.15694465045410952 0.1558059628776385 -0.11086086288865976 -0.30683117967581364 -0.22689003444456493 0.07630281839308402 ]
[0.009097597246635896 -0.09263473710759655 -0.26580633385442304 -0.001960607033079449 -0.262159986222161 -0.09438880456003032 -0.1306758811938275 0.15842269297889924 -0.19317932464718646 -0.1304251574774066 -0.08957877858778618 0.12073259918379235 0.18025877270208154 0.1025272944140356 0.212054131617863 0.11986348832401605 -0.19208505248357527 0.03597105657646084 -0.23754842436037532 -0.17064692791496938 ]
[0.11764643487675289 -0.04899938054153493 0.006044962908764001 -0.256501722930027 0.30495706105117465 -0.015475927431183542 0.2785054763155094 0.13177031544169188 0.11005462706636167 0.18609093833494816 0.047342637691109225 -0.15119621212412532 0.13470206550974045 0.059592071404627016 0.07781235023074246 0.19857022222519308 0.0124761488285641 -0.23524998868717503 0.1939932607962219 0.09582064143839777 ]
[-0.08273523583430689 -0.05781945164805981 0.1127211676373467 0.07938748020603632 -0.23064293235749606 -0.1144071735020324 0.20685622420518532 -0.11934921940467094 0.18121310872577287 0.2574985057126541 -0.23591406232480516 0.056392133202113906 -0.19031449190129793 -0.30821963564701726 0.2031110874066401 0.15882444948054875 0.020201763124082995 0.2287749056095113 0.23724298062173077 0.009430975911853176 ]
[0.11468209697344356 -0.10456668045088807 -0.3286603361138252 -0.16102406174831632 -0.20462156692225175 0.021694199900279577 -0.13022423192151905 0.1035619137150855 -0.2539017681742252 -0.23357025339570336 0.11591550054368908 -0.12697505391539143 -0.009256820608846385 0.1594268191881972 0.15997571439208674 0.18096509644971112 -0.046633347202187404 0.017446396494337508 0.28182040578579703 -0.07491119509334858 ]
[-0.1861661348494545 -0.2633294570919461 -0.2032021619863989 0.060337063745424094 -0.05907721108751462 0.1436794936149428 0.14455227256101388 -0.12365768335175184 0.2886470037302495 0.15681346453022538 -0.03814964807756897 0.2726354179407492 0.13318291848008126 -0.05984446657609144 0.02411472842848606 0.00017516916734796025 0.06751119059297708 0.2005572120474142 0.11847373153682611 0.035992472299758244 ]
[-0.1207163205623501 -0.019241987769504414 -0.09486116195217008 -0.012996464126756238 -0.10286856931151246 -0.17388956468205774 0.24660757544865383 0.2267782408150755 -0.17366594964121077 -0.21035597734001932 0.21530769710685987 -0.10102511614974255 0.05929543576622765 -0.23488845445306272 0.09259517960044976 0.0820192542236429 0.07667678243985064 -0.22941552497282058 0.07973270159706876 0.3087449136717565 ]
[-0.23284662635316047 -0.1256990513165976 0.2377679758859321 0.06370401946640225 -0.10721191594342466 0.26973180586786455 -0.27762324646189424 -0.29571833960525845 -0.04899951847910619 -0.03594793753453363 -0.1473623894522534 0.25249482568146364 -0.06786167197287853 -0.0750050352448979 -0.08712615280316863 -0.20687654934211122 0.11709255816156727 0.2914183531197255 0.037492305561903756 0.27461078004278977 ]
[-0.07776501786233242 -0.1807223119473756 0.32142931733184377 -0.10676793327456845 0.30021014481870206 0.074711984835901 0.2262409038550728 0.21236302431160212 -0.09029297905266825 0.12321376737484895 -0.03241989012980325 0.3165518916543146 -0.22287880109189995 0.3219143498196131 -0.2865421409087426 0.005995612609291896 0.1466697282242869 -0.29665353407693945 -0.3155217381362241 0.19864289743907435 ]
[-0.28427130604954454 -0.09174645779534565 -0.16021859723242765 0.05106985758194345 -0.14782499893432136 0.18076569266124562 0.12483173059533906 0.10351460834101774 0.038372826063867216 0.10765589484334795 -0.1892854161172639 0.09978915470083959 0.12627397446276659 0.07481148693584438 0.1387192609312141 0.052302225130038495 0.19967493608005638 -0.04465757462419999 0.13748406404433441 0.2664759168830985 ]
[-0.16939203576604422 0.17763029997723018 -0.22284715062126803 0.21477513281227575 0.13689443401528548 0.02688051333603828 0.06297861610006569 -0.09658208934223206 -0.25590029594528657 0.27215925451645845 -0.01622474895310787 0.0720539934587821 -0.07629386082901818 0.27220112985341804 0.23623524091304907 -0.11816738522366803 0.2473664042952305 0.08616115515131144 0.31298871115599974 0.15056178400076148 ]
[-0.04576247808200882 0.04336604152531087 0.2006376549747945 -0.24033217241129182 0.2217502147990784 -0.12607614905444647 0.29670655767660037 -0.13179990029202915 -0.1879048113662894 -0.11694856963329224 -0.19366114222963401 0.13981083920055337 -0.1434634887866293 -0.3163726264308776 -0.07783037021165033 -0.03278860234623248 0.31332993698647366 0.11560726817616736 0.25194082429408315 -0.17566803809869821 ]
[0.00796348393381002 0.25018836448731196 -0.24092443690848844 0.19223839820431465 0.13012819293935055 -0.14230665397835307 0.004191087502588714 -0.34374580816778105 0.1958504282585016 -0.07161860678799047 0.06887013917721999 0.2085118661965411 -0.28450997762718333 -0.11116953829942576 -0.005341517396805008 0.01675143407229608 0.2910145954482827 -0.27426829234079286 -0.25950552503359237 0.24201966121461252 ]
[-0.16128711470560764 0.20944380842357566 0.08869174573323213 -0.15514308989259906 0.18465036781611568 -0.17743796055556865 -0.18115681331717579 -0.21049564536242563 -0.3010556819970581 0.09893663462615747 0.003046954229484622 -0.2803281809364251 0.18211234032291146 -0.30618533758814037 0.2755809162873645 0.2654174627218981 0.01072976785389705 -0.22205031631688835 0.30935077281525364 -0.30446786767808726 ]
[-0.15903297799835417 0.08642811654661958 -0.08450120892428332 0.2473338961562227 0.2616884641837111 0.1606708902723863 -0.2949029468717814 -0.23252779580158225 0.12207346101711701 0.1731747558779885 0.1971492103944262 -0.007944644455919568 -0.22020429234730504 0.25609013646367357 0.2132706238691498 -0.2543534362867908 0.24040337815369564 -0.01895670394518277 -0.18373322747049725 0.10492968355869675 ]
[0.06699957497197624 -0.21260022866257294 -0.2028944131361492 -0.012674651947116351 -0.1201228007055841 0.25367531329217546 0.28698736552934295 0.04394083358796265 0.13285930092153633 0.10890323343687797 -0.06160461100193855 -0.009057464587276564 0.11467462620877572 -0.17646099591854927 0.27024912318360306 0.07019077065235425 0.05311977731461378 -0.1317966087180701 0.22002424215415753 0.015520992685091325 ]
[0.0014340990277862803 0.2532942386729657 -0.11796582402974967 -0.06316325119247868 0.09492230603833214 -0.014961190871908236 0.2098833452681639 0.07713589887583928 0.07580547627712944 -0.1926155629157647 -0.18578727815086 0.2421935509255577 -0.019490911140213712 0.1810586979981645 0.1806166078699954 -0.057639637972628034 -0.16002157610038614 0.18632871231735285 0.1592371940798877 -0.253403802601258 ]
[-0.14204753536284856 0.10852467707862792 -0.07086561386077496 0.0899932800343853 0.24362270970149782 -0.1547587632518263 0.07768829326023248 0.14417039544202834 0.0679875500681497 -0.11452334101266502 0.27979521147646214 0.26278834233636267 -0.1599197030515767 -0.2370706115651281 -0.06206262042016327 0.28698743221561346 0.0201858062814365 -0.15542330079448724 0.060170419231395676 -0.1364240966162348 ]
[0.23148459870390797 -0.11775617249406417 -0.06378879689203269 -0.016285705793620757 0.1479638544126835 0.23754068387917857 -0.10256702852186796 -0.040233920946432675 -0.22279888188365643 0.14216790390592465 0.0698093187113049 -0.16509784247045436 -0.2801369454395076 -0.13746190020434512 0.06842568592465716 -0.04191325491727654 -0.09510224164329603 0.21128423425275067 0.25971141561141275 -0.2781601294306983 ]
[-0.027209068006828117 0.2740270239264238 0.3543212916124425 -0.14663094612367103 -0.1789846207987349 -0.1393950437373739 -0.11811307144301772 -0.26157651307168395 -0.27139223371231025 -0.019005306780423593 -0.10269471585383018 0.20488206987999602 0.1591827317540473 -0.2106207805950642 -0.026054570402769078 -0.11383607712135238 -0.30748630225477386 0.2759730894565879 0.08915389175313418 0.14643133998195437 ]
[-0.12937742494660834 0.27191447590427953 0.26982443970882936 0.028845984067838375 -0.03221484979993915 -0.19847306898461978 -0.16479258069640645 0.04776321700021494 0.1396837181670736 0.0017629075396851236 0.2860981226682102 -0.12315432713809484 -0.25326374785922 -0.3177021307764447 -0.14922049322569603 0.25668333150212785 -0.056207063281824975 -0.2158263264031548 -0.23054939435740726 0.14512480059166707 ]
[0.031034482645875477 -0.10591331982765409 0.1623450792002895 0.19303077803187527 -0.11993895259896895 -0.08875085772438543 -0.02637952390206822 0.17205287400683936 0.1542621117549944 0.26038271966424836 0.39022450194385316 0.08348439998266283 0.1647348384185517 0.17069260993119245 0.10096541286159216 0.05488682823047156 -0.2248676939567292 -0.12039566508765896 -0.05692938471649393 0.21960877855877425 ]
[0.22707276634700874 -0.07734645171897217 -0.07725452879568047 -0.13456435807608644 0.22694027406180461 0.2243342954486576 0.10995903746311216 -0.04847080042662961 -0.205651471400676 0.23462864183707477 -0.06761037656301722 0.08986630302666877 -0.2661990959293116 -0.3103960488747769 -0.28613842976363213 -0.04506270955547588 0.10147933661685848 0.22680999458176723 -0.03513243485009615 -0.06270331550541844 ]
[-0.053835975006754445 -0.1732452984539852 -0.1767942852483662 0.2608907458356481 0.2668064039142027 0.1922452815020101 -0.05670411718511082 -0.022290232847095307 0.17899452072466568 -0.3228601527083228 -0.3231651791155709 0.22215539102756968 -0.16520278859213638 -0.044728273278489335 0.29370180160931214 -0.23893264264618186 -0.10174325585697477 -0.014958567573843673 0.10134029858563504 0.28614801886959174 ]
[-0.2129061741917751 -0.03662672210356432 0.07980485556727498 -0.11953341308039667 0.20213347848119442 0.06433935541794356 -0.09014685480633054 -0.13112332492663942 -0.1490087626406386 0.07939794359535556 0.2199207099070802 -0.1361283588500529 -0.24425135317105853 0.06268587899827165 0.18163713119990071 0.058377647138986154 0.29911727397811605 0.037113063783947485 0.2773028504350975 -0.006271591469956488 ]
[0.22931619021709213 -0.0867292695801543 0.276242848571931 0.04938077154721957 0.06183085800114629 0.20898348461284605 0.07495202178941207 0.15885966473508709 0.05192293773756748 0.17226776233041544 0.3696699893392822 0.029125037942185125 -0.18878949763287425 -0.1877192545971062 0.2885553294409726 0.34083015556296137 -0.014639202217834851 -0.128712219452052 -0.19968898713215938 0.20466276449293386 ]
[-0.06950316441167137 0.14397202270303 0.17521512639483147 -0.1404933327217244 -0.09509514510049955 -0.09086508926503437 -0.18229336051842998 0.2080704775977034 -0.3283171662481408 -0.3263551964474678 -0.1443445642347702 -0.20873183022170205 -0.2763893922647451 -0.11852309387568688 -0.013533655744494038 -0.2937386139051706 0.04489697782742619 -0.20855460979242507 0.12469378242240381 0.009197138542571946 ]
[ -0.025449166900294067 0.014502186150535817 0.006214800383141739 0.014606692805755054 0.0033325823635462467 0.00816852296748823 0.011529181005013137 -0.0066681153391399866 -0.024514695267991868 -0.008449948615029564 0.013841431044409729 -0.017183803892404446 -0.011824176543974201 -0.022612937395901776 -0.02977962762677455 0.0013432257703312098 -0.0035124002896168736 0.001203485603976983 0.01683523955240846 -0.00935137074017737 ]
layer 5 Activation
tanh
layer 6 Dense
20 1
[-0.0042516436598406095 ]
[0.36459281542570976 ]
[-0.4303923514233475 ]
[0.3476773330288019 ]
[0.16806335713842954 ]
[0.1519855665173271 ]
[-0.028534931751179146 ]
[-0.20379440201909516 ]
[-0.42988349634597034 ]
[-0.3087960035100048 ]
[0.3769915002601954 ]
[0.42698141765413405 ]
[0.4328546559802028 ]
[-0.06337878319445654 ]
[-0.4758880992213563 ]
[0.34574413146533267 ]
[0.05599834285455612 ]
[-0.40934434368816713 ]
[0.2869807295376464 ]
[-0.3952181265315457 ]
[ 0.013701505169732155 ]
