layers 7
layer 0 Dense
24 20
[0.22579462796882396 0.22872601831167852 0.13461516941854446 0.22243432582989717 0.3530043980125736 -0.320725205853653 -0.017510537876553846 -0.28362015151642433 -0.017331809105123747 0.3172753330891427 -0.19800468885663994 0.17360188237485752 -0.08571791158108939 0.05530506903310589 -0.29156946332658074 -0.14035950275601117 0.02701875818619493 0.008421419074875425 -0.06407619181928621 -0.38530361376125355 ]
[0.1830901695190879 0.3117591025645147 -0.2707200250887737 0.3374484812560104 0.3661207827946343 -0.24841549044731281 -0.04888772035460638 -0.05945027481452902 -0.1504486669760147 0.22488850295441343 -0.31759031706625096 0.22539786244045865 0.1456944110754334 -0.3744841817839767 0.2073997408013654 -0.38880038907470504 -0.12140527806352107 -0.28901233326904585 0.03644585199212688 0.02235561460181899 ]
[0.2568629469302119 -0.374964152614249 0.21557080839584442 0.048429933469634874 0.09843541016011136 -0.25012367354454546 -0.22263633742202343 -0.3379607407565762 0.05188053580851708 0.28991671960867543 -0.21289036367235536 0.0032218751025994774 0.1764516676228842 -0.22834455510440788 -0.027505222188722905 -0.31759735015384816 -0.08492455777169493 0.14298979947291 0.2708109617388233 0.13668869767691752 ]
[-0.1469252422766392 0.01532883761069587 -0.29571816734340867 -0.12970055489155105 0.10214328892772952 0.15188838752150718 0.12312246840884108 -0.02389069017672716 -0.021767523661016648 -0.03840991668955556 -0.02708912828835214 0.3765779241276206 -0.07018927883183106 -0.2655661393343826 0.07882714887547664 -0.3789351885603119 -0.026272700163278175 -0.09201699863392442 -0.05106986729100719 -0.2482713069928765 ]
[-0.3729006594883198 0.2897303861937576 0.41375845755825064 0.08074817064788178 -0.2893711548372052 -0.39414548080434103 0.23950291024943648 0.27729039585753057 -0.3540797766861141 -0.13033842321516684 0.06842102634949968 0.2207672304329798 0.07179992943163255 0.11485417449062083 -0.17145627984510253 0.08523191705130169 -0.11702100486934454 -0.002616603825002907 -0.15548734848912812 -0.28617016083908264 ]
[-0.20222976962408376 0.07824792922842685 -0.13215416856706516 0.3361237640870898 0.1559069070576339 0.12349846324446132 0.3114410367252862 -0.002300492325199957 -0.1421648230683299 0.21484886544953355 0.32338089132012343 0.07159287771715163 0.21394627334920022 0.11688027273001228 0.13700734728884403 0.17498014661522795 0.17129932580600452 -0.05734820012191023 -0.2630777450253667 -0.15832426235525207 ]
[0.2131800210942256 -0.1935932364257605 -0.09179525604020354 -0.17404837817321137 -0.3211765742389289 0.29205803468958347 0.1983370056591636 0.10489745913829206 -0.3227605973521318 -0.11568508360504816 0.13163059331467158 0.2066309962227503 -0.2619851627844814 0.25266798866612117 0.34998803418899654 0.1452654287279488 0.296909819896579 0.3632919797402119 0.3893986406693513 -0.3679652052805159 ]
[0.2482099335276732 -0.08020532312723963 -0.358412822788153 0.032991856934298694 -0.1861522777474951 0.2811371296203052 -0.28542999630944804 0.358815635508831 0.30598091948357936 -0.18827651651388175 0.24754581338715007 -0.1765060829379422 -0.03824008385581853 -0.10897278412410648 0.0690835609687412 -0.15225768168862913 -0.1631213977358344 -0.33802124427154845 0.02026672606051558 -0.15469372803836975 ]
[0.19318614646043372 -0.23274269366366965 0.02177692827250149 0.023297535192457454 -0.04718595900841705 0.19152792272643487 -0.07866871366963676 0.20820676233161353 0.3438129566598735 0.1918574318715863 -0.10578170951060822 0.1583199690558862 -0.14966685983933128 -0.4035236438138614 -0.31147805421271074 -0.20046006251073256 0.0784433634784705 0.31620862757646484 0.015218799710110864 -0.36619137716860534 ]
[0.012707908656814763 -0.10292542583745701 -0.002000786543326103 0.26649501753454063 0.10460685171917881 -0.099956806299077 -0.05369404148148729 0.12568411086761969 0.2610949554242581 -0.2581126714353158 0.27532155191923674 0.016872225429107383 -0.06844288223920494 -0.044659211529194845 0.07913512876033146 0.06918183185088915 -0.2741538649658832 0.2662666710234923 0.07676885338245452 0.25483630235591154 ]
[-0.013412554598478899 -0.26908411066237087 -0.13917431831503846 0.34863907557920365 -0.22787446657931792 -0.2520453281628969 0.00706562667860994 -0.3585449512643232 0.26896056230271737 0.23175263579168362 -0.0532828365503193 0.16524823802646302 -0.1423357457911746 0.10150761575726973 -0.15899000516064424 -0.003103988237283325 0.29170956354595273 0.3577167274856302 0.0370383374600356 0.14160013151039744 ]
[0.13157931031722242 0.24970375041824483 -0.24500758605232176 -0.08813586447990723 -0.000796126875749803 -0.02173135737015398 -0.06456117682571232 0.021553216550569628 -0.1543944422963536 -0.05855606800434225 -0.06966807173200902 0.0997554028300745 0.031880731636639514 0.36292653348912923 -0.03404671848186558 -0.045592388825320164 0.04974222863727246 -0.304286020601319 0.23087493253340802 0.039907913371263495 ]
[-0.020721534866439958 -0.007377202629362269 -0.06167707977330297 -0.21960422940475424 -0.2917595566012081 0.20939347368858244 -0.2249068691557856 -0.4240390350969495 0.22340735368234108 0.1031265200918777 0.003208537774920785 0.22585609696198716 -0.0553565863461731 -0.2364952057116841 -0.35774851699362636 -0.2713903657090395 -0.10402394276320208 -0.3022627200846389 -0.1599157987323192 0.513257375361874 ]
[0.10251260870354294 0.025369017811089675 0.1691098540521585 0.22353995197926743 0.2899321712619571 -0.1557271433274204 0.18301557061153506 -0.23869590263799564 -0.24798059011491017 -0.2509931883147469 -0.27004857188675585 0.14931662134290888 0.17065542773278075 0.06365960786646845 -0.13747271996767546 -0.13014524757163645 0.3737410278959351 0.12366664034837858 0.18234641673059204 -0.2909671671526116 ]
[-0.31909699332895214 -0.2328873343651435 -0.18872707120428742 0.05485912712099871 0.24431425286774003 -0.05072048127672414 -0.16579593716607774 -0.249373176523968 -0.24626506828814085 -0.2874336264671086 0.38952002322301454 0.03886294993841616 0.20515825785939035 -0.05413102527590982 0.249119029972553 -0.09552270183457506 -0.3610606614761127 0.3329316068277655 -0.056388757135241475 0.10537987202174245 ]
[0.3101907091056919 0.00343627908646847 -0.04806134045341706 0.04504770876812593 -0.15791809746226404 0.2420117985306493 0.3072652267181534 0.2351181463410958 0.5182899980260545 -0.0563570814356835 -0.15589702741847108 0.14283890811724692 -0.19096811683749845 -0.0023294526299183303 -0.18103320884296253 -0.25432980916784154 0.11348723457825416 -0.2986047175581595 -0.45328483640323053 -0.09008555461006863 ]
[-0.22572566657261567 -0.17215328183678943 0.1476386648107465 0.020899404339868997 0.0016286748439241167 0.23111839998953823 0.17230667986424703 -0.1952768880680896 -0.22392099339660632 -0.12072209414167963 -0.06816523792477423 0.4887189110527649 -0.06817847221020601 0.21310131244847932 0.3420105099589381 0.3388446907837248 -0.2328390342783169 -0.39235492898105573 0.11334261453987957 -0.1606534005181331 ]
[0.42039064529097514 0.1734820000926898 0.3696621503340164 0.20810964700544093 0.4749016224502443 0.18915091586033678 -0.10220681891395006 0.15583476171963975 -0.04791761462792563 0.2530438224146548 -0.24235504232234345 0.1670745061989387 -0.41674614536327653 0.005098463217395079 0.0011544389317534574 -0.07496651165037405 0.12444215415952764 0.02910031502461454 -0.04599311657561818 -0.1811284856371591 ]
[-0.21976270774969006 0.2731262090945721 0.24936855700073915 0.05565492608183225 -0.3188754331116312 0.09833722612293473 0.25742053039222473 -0.2181635220369982 0.12575682017573747 -0.2905491459396664 0.31728874449881694 0.11344708866081366 0.2586425946476362 0.3236673911626086 -0.07338550720434192 0.002951636434159555 -0.3844194610941781 0.03862653078091205 0.27001889023371856 0.07965182836848746 ]
[0.44148386661002986 -0.4104723630920549 -0.0677740134067569 0.1821007150994007 0.08078558753095001 0.10359286094686204 -0.07908831199009057 -0.16737887565682882 0.364110052592421 -0.3457510583914412 -0.053535730028233725 0.2016510446556249 0.03250406254086935 -0.3843617635834268 -0.2626736739999369 -0.1177056972924257 -0.3954335626595928 0.10324804857022477 -0.3841823830002187 0.3105633411284551 ]
[-0.39961266698824516 -0.03650617157359588 0.08643704927931241 0.3346237016441451 -0.12652814794591113 0.2944036428294409 -0.24036372138871362 0.20285392874117644 0.20526255847350328 -0.12152476996847156 0.35500945551771323 -0.3970003768964231 -0.4173891559820348 -0.22349010538220773 0.17751460277811923 -0.12064363624934284 -0.17026834097114818 -0.05928650386616112 -0.2917678302903 -0.4157169407878371 ]
[-0.14122186187799912 -0.1559167751452328 0.3785495247664774 0.48997972452711447 -0.06946449954585009 0.5288574632344472 -0.17042411519332534 -0.4050595641942336 -0.16349332238243733 -0.013897681812364816 0.27882086456768873 0.1931960405278425 0.01011149398897728 -0.05419595529688826 0.2288485456968259 -0.1948196565452749 0.15040035265833412 -0.11836252915750176 0.1363226782190023 0.18044605879324774 ]
[0.15705827545279033 0.37831406486137154 -0.1275558189250463 0.5685069581086442 0.382166254427799 -0.15425113093469575 -0.31868986858305476 0.1117955975718418 0.2327727972143845 0.11922813381328497 0.24335954794243048 -0.09830007699792553 0.30075467120950006 0.25018616718633707 -0.0761627277913185 -0.4005839082651283 -0.1063206948903981 -0.010321589776793632 0.01281028883612126 0.15094033187603334 ]
[0.318371134983043 0.06297373685540196 0.3084080100420431 -0.2582428087553154 0.18183516461961796 -0.3277637594608461 -0.16083310259112993 -0.10669129177927787 -0.07650675478883472 0.09485638400145772 -0.15415409573507788 -0.02633994832225563 0.20107779103706597 0.17784600253088748 -0.06375842950073535 -0.293735031693259 0.2925031437775091 -0.020406641783501187 -0.13972774902160787 0.10827348405080639 ]
[ -0.007731695173584738 -0.015663701498766242 -0.022491855946321217 0.0038949022193684795 0.007174971911411107 0.03576541317687575 -0.012208455097404692 0.001245854436860186 -0.04912641938573823 0.009923840349602408 -0.00723464918487437 0.010154314405559106 -0.0038073739237808987 -0.0019486785188623282 -0.022212544416623067 -0.05661242326664369 0.048823999262424436 0.004036448265621573 -0.035264662171191855 -0.05559811392211391 ]
layer 1 Activation
tanh
layer 2 Dense
20 40
[-0.06441961438341826 -0.15615262622542517 -0.2504502138748801 0.2425895697982844 -0.1679868457234183 -0.03362779054568603 0.2634235894357181 0.16790697704954147 0.17450275054109807 -0.31242119366653054 0.09247012669768755 0.09051981835223097 0.11507382890442644 0.16534117878438473 -0.002634971707956521 -0.23145462130744213 -0.22610960788667664 0.19746666004971591 -0.22350795265575343 0.16745861243108656 -0.06918517172560684 0.3197753734565065 -0.19160699675804765 0.2937004678498108 -0.128222272498655 -0.24938224296840103 0.13083622608430123 0.12086851107170075 0.2663232266657043 0.2114714381276377 -0.2222283111753713 -0.14104968408544882 -0.09750986311299988 0.1737342142685831 -0.035629231190179314 0.20105343042410523 0.27745327621723986 -0.24505340250951627 -0.21313385368776366 0.16685938312448828 ]
[0.23408792571116557 0.06257353298462838 -0.25763218533932747 0.050514392209175744 -0.10247393423606935 0.2395615465530672 0.04696163864442706 0.06052579384695494 -0.06900479933677435 -0.16852862789722625 -0.24974854848418315 -0.043095967681986855 -0.31169034664015827 0.1979748556103168 -0.008927042743978972 -0.24998749493907352 0.08099666688667337 0.07838567273944091 -0.2102764801255224 0.29992756376305146 0.2443381065803409 0.09199523973205351 0.1528141101821742 0.23189136021421167 0.10617802016347445 -0.15079955139784984 0.29539487074192083 0.23888639930143885 -0.11488241105775007 0.21190745492195937 0.057127316068001296 -0.13304941205409415 0.2200203845413098 -0.2235356874641712 -0.3388201255708139 0.1643873138940559 0.008697220367147478 0.19880681374839057 0.2440659617424542 0.12572568671247006 ]
[0.23276217220117393 -0.0273892565542703 -0.2229052880280488 -0.3240745858840968 -0.18479035064694802 -0.11762757594254507 0.1303151509280991 0.12053494042669077 -0.09012456028643377 0.027848759536937412 -0.21721770833528664 0.1431118463024238 -0.05068752706349002 0.18028692990910308 0.0986535073560764 -0.043092938005568876 0.1934835824031446 -0.08462329113816588 0.10271541660878039 -0.04223011810781638 -0.37772557938942725 -0.07763291581442974 -0.07294788308445162 0.1448770099097124 -0.019169516672400796 -0.11369334803386572 0.3679065803887424 -0.2194363496562954 -0.1387989652479827 0.2259638580442174 0.20550755672528132 -0.09765766228067566 -0.12640923542287782 -0.26461563609236827 0.11266344884746299 0.1665516294047488 -0.001117215569750952 -0.23997656701783326 0.17178845368434953 0.014665031893567798 ]
[0.32927938952669966 0.09834089310840385 0.2515821757545124 -0.26716171366674274 0.24490866865460387 -0.16848608500335124 -0.34522877157311876 0.0573104489073202 -0.1982926563632507 -0.10498402435559255 -0.3665570123729284 -0.07321311755178952 0.00026573918121477677 -0.34164431190071326 0.032792423202164044 0.04647503393774892 -0.08959609185657369 -0.20944469835678334 -0.0616774065687049 -0.08315814264582777 -0.005737824858459319 -0.22078503945079395 0.21908569929960875 0.33015548291094066 -0.08137611340408342 -0.11474596307199776 -0.2877796979000492 -0.19930757308329314 0.1046727676141164 -0.042043522855123874 -0.07897643107584412 -0.19668343334761335 -0.10640291754115773 -0.05635696582223764 0.4432677170290864 -0.15246633546928212 -0.1523302564887028 0.039296487970077495 -0.23714301874277177 -0.13370811357683002 ]
[-0.12617963551744105 -0.25937444373287494 -0.004782715558859477 -0.2486693355297456 0.300615302289697 -0.14781335339595603 -0.29198727193853724 0.06562142173298148 0.2243813990972491 0.12423424962307447 0.27431431008559537 -0.20117565963362175 0.2734249948871168 -0.06099333344542195 -0.09245932381660667 0.10797953330927083 -0.03282189961662346 0.01704163106949882 0.05241611158503235 -0.0940354155185819 -0.09594565165590331 0.26746785915101545 0.04653395459672391 0.15214548390542387 -0.2488090633383483 -0.10929388711091162 0.16643443200608962 0.19427474505604156 0.18797440386077224 0.09279729480446205 -0.26952412274516463 0.036162854969777294 0.033292492638598674 -0.2924930032697024 -0.06259906380796744 -0.2877748095112511 -0.08451589848020044 0.13133480186735802 0.09396914849993834 0.2084291550339422 ]
[-0.25709974035891076 0.12979372773768263 -0.06267266638013207 0.021242545860070284 0.29267719930550834 -0.0757272028162825 0.29364464131275286 -0.21184974370831236 0.14637996817329355 0.11211789969704793 -0.14706916663669112 -0.3202993763320421 -0.18095541292464212 -0.15473779201654897 0.3088367023070939 -0.04000240903868145 -0.17902891081859065 -0.04080114489645395 -0.16735188118025215 0.0023119933753532984 -0.14744622196913257 -0.034251946202260575 -0.3484227764927807 0.13187465139247181 0.025778038529738565 0.11982322002638522 0.16977419726171486 -0.26265434601882826 0.24340380135244463 0.29497525835191846 0.10256404885352698 0.2959174001779428 0.034427753574982796 0.0945306089678692 -0.05323187520554858 -0.1903176199646368 0.06744925252367263 -0.34651775147874603 -0.18876435237133496 0.16641612104084777 ]
[-0.3235329215950038 0.23787345880633112 0.2928434888234817 0.1865373050339539 0.05045681889510072 0.1553430339085631 0.2579958838304601 -0.2448390661176443 -0.23378362552669638 -0.21545575379437334 0.19622366927054996 0.16190498531077233 0.03226817643182004 -0.11100003472611408 -0.2162989482255886 0.250171172642538 -0.030184849336633658 0.2195135311891434 -0.1071351530358114 -0.03850232705149212 -0.14022115117865722 0.2590315471114401 -0.17136785493510995 -0.1400227492751402 0.29235291697889876 -0.0562016357599888 -0.22817497624818955 0.265671652452211 0.05910232509991488 -0.17358377221215585 -0.20461968257459717 -0.0946920927621767 0.2999537857789777 0.24098770990812393 0.09781174470266783 -0.21569581995838877 -0.11048400941364826 -0.2179644495477278 -0.004893981213588137 -0.002235271546329341 ]
[-0.1623176444985811 0.15496580269546448 0.18742444830294888 0.25134347746962166 -0.11917635320983877 -0.009144281471919211 0.07133921048179824 0.01264403138724661 0.1655793219833187 0.15762237404486434 -0.0714511501366391 0.20079451644048163 0.3333212508847673 -0.21353275144726158 0.18619887998433488 0.04462026262943253 0.11494301075309615 0.13357771217325734 -0.3091084876215145 -0.04272423771784387 0.16064931871185545 -0.09721788051356799 -0.11752147200058227 0.06580735426364777 0.17085103996074044 -0.25135930250005056 0.21765610461236673 0.25233811318080923 0.17065999802214832 -0.27843268994314396 0.18407791536533163 0.015105596587224757 0.2247909496911446 0.22830346669778576 0.05116821361575477 -0.004526203492551049 0.03293723261044395 0.21355070668438947 0.30272198112867993 0.09484091889291854 ]
[-0.2617662984585173 0.14929602847008266 0.23511293372190117 -0.009483144026375671 -0.08067400563075978 -0.18035842146996967 0.3095226545343371 0.07600171341136998 -0.21272389003750003 -0.10853790024682793 0.042096041153661445 0.03224684481222611 -0.13131541459661145 -0.1316836734733168 0.23068626203027756 0.21518907693292094 0.012408473402195605 -0.05476690066285589 -0.019429069165066003 -0.26439537079668385 0.18473819659878066 0.36191051859313983 0.13838445657002155 0.06434307727574885 0.12762743092919934 -0.12581816416600544 0.14433069456377667 0.16526279012670914 -0.13049334572444918 -0.017051612630829917 0.23967578165075246 -0.2603081211022301 -0.025430474565463483 0.0006895145651125114 0.09888665104664204 0.1161786685551461 -0.10630698665006486 0.01968876992127578 0.17597146892589996 -0.18666762217073235 ]
[-0.13131548877819332 -0.04997499216965013 -0.10985411952454444 0.0015708655821008613 -0.29439239232321224 0.19632327463932775 0.22063458053393917 0.15090595445534039 -0.18539042268294234 0.1624480012425287 0.11737113368649273 -0.26743680556021215 -0.16781201230290485 -0.007178939290962807 -0.23564353223955573 0.10931718343415545 0.0897660419834404 0.20917910114203664 -0.05395982327733455 -0.23039159427485326 -0.12144348926705663 -0.30531883945897187 -0.06899581001664579 -0.048336176350563004 0.2600184311078681 0.29673616096976085 0.15573392563170407 -0.10887833107049966 0.013021600299566663 -0.2562837578942552 -0.21631804144852462 0.3123926324882761 -0.25822960985512955 -0.20092124650284862 -0.00379705260286355 0.11385601825307119 0.33008165453364274 -0.2204906372816181 0.2681650058250866 0.008672408591184082 ]
[-0.36198952836401815 -0.24059056578601198 -0.17633083283879425 -0.24979863905611777 0.3206068739223444 -0.3065706323889864 -0.18959316890319197 0.0765511503012707 -0.01708108603882456 -0.15662122133008977 -0.4000530357682671 0.08232162640371325 0.1837137011974697 -0.2397259284498733 0.22386883169037003 0.2900546390730532 -0.11241855711286348 0.01078073546646211 -0.17956686142865705 -0.17885377324986634 0.052764030667661437 0.014868203559466067 -0.288899049362107 0.2049974297719535 0.13137329019568975 0.07960684688192265 0.0187730654188593 0.12511828060615746 -0.08521003332432281 -0.18572026760103383 -0.23595859786005446 0.09180322250030645 -0.24821047440043953 0.025944927228949234 -0.08169065462040266 0.2508228439389461 -0.08150035736206912 0.0015646343648656618 -0.23889361964162598 0.076503181434274 ]
[0.23585687575235809 -0.040939607155360484 -0.28340184625596454 0.17227203087050735 0.2043327894318638 0.1158000192464622 0.09615955695759375 0.26998264674973327 -0.14690244188677215 -0.06393650265302188 0.2782479349243961 0.21468517908287998 -0.13045397345528822 0.05452416896399447 0.16481780859541448 -0.12348683569158454 -0.09336520290661993 0.1452880072884918 0.12537350007897982 -0.1824584191325606 -0.10739817717994177 0.15740004492705884 0.14917690433781092 -0.25878465739686984 0.22673522869608706 0.1861374650402661 -0.3398244701816047 0.20385279354522287 -0.1316758613925925 0.33257592314221934 0.09254815601846916 -0.16238898343172764 0.13207098631765735 0.30005431368152863 -0.2837015488619045 0.23752213098999744 -0.14982840927038063 -0.07358816993613651 0.0786025500033409 0.30566947827363006 ]
[-0.13658271599982896 0.01187347773082258 -0.08194569338085679 0.09757095099894095 -0.3235692597414428 -0.2649115253178645 -0.2913494485619019 0.21200666787462732 -0.25726317259549125 0.18390459348839452 0.25972374252187536 -0.15272170158455445 0.018219444287245458 0.2346175790785521 -0.056393966791946096 0.3155687609379708 0.06116027844244624 0.31085611884288067 -0.22138279997715696 0.012327616523876105 0.18123948706167423 -0.2214419150540783 0.13127927133657386 0.09961557457596085 0.20719925752756835 0.2494463259977823 -0.050202575638724614 0.03468192253653608 -0.06020263456785775 0.015060615735455992 0.2730797566803862 -0.0843647909890055 -0.01456207924881077 0.15209390831733502 -0.031163310262098926 0.09509915582678476 -0.2944418962980831 -0.09280686589492482 0.09266969361858508 -0.2123034270240047 ]
[0.20750066810019793 -0.040021519857652565 0.09301981787686452 -0.27740359975096807 0.1296269477119555 0.0991437234085928 -0.09843249824239585 -0.016804180771782567 0.11660692513048425 0.23768525243332536 0.0018207075377475869 -0.1783054690165934 0.07206086824011498 -0.016999127902530723 -0.11990121134232556 0.2004061231690276 0.2530403803769142 0.13277649785677115 -0.21995751251163495 0.09998795523059202 0.10230659081460271 0.042126734177720844 0.02643516692075889 0.25282247014368175 -0.0644922952533727 0.28939381160895145 -0.12419146291369448 0.30827120726974494 -0.272525218741936 0.02972109255715489 0.1110070499830697 -0.26344379399745554 -0.27264341128206726 -0.16960950167598138 -0.30765162179680394 -0.028340150872936707 0.3868270212269919 -0.22833863868584278 0.22041658388938395 0.2018248243982607 ]
[0.13670495076936312 -0.12650787485277473 -0.053917160209911684 -0.05598058226393405 0.06849878618470671 0.20916916712785502 0.25551540621180413 0.17496244961244437 -0.2839998263117329 0.19395009463235158 0.17087718265019308 0.1419794222015416 0.19431630304551412 -0.07048497316395101 0.22566819978477812 -0.23045860419116912 0.28716937500267364 -0.25391644053861945 0.1427402245374467 -0.34723532318015893 0.06830093413289637 0.037800461653263916 0.16129999701779016 0.2522921417654787 -0.07628500530580143 -0.18157533369939657 -0.06221783883184183 -0.14852386594836195 0.0004015906364430585 0.1987787946265959 0.15105434538643106 -0.047788552135707214 -0.28528284715940755 0.09411355314579217 -0.3088255410270013 0.24031458275747591 -0.14416092670244768 0.052788102328416714 0.0019364976004662693 -0.1733369283048581 ]
[-0.021536679144693337 -0.1577879550765558 0.2115251400627342 0.17185084315498086 0.23841892439718826 -0.30049900212227426 -0.08343101774910953 0.1482844614811222 0.13307600918344012 -0.17712169113179405 -0.06286192450909113 -0.052474516782343855 -0.22146549642294888 -0.20158197197636138 0.2090239636944733 -0.23702254317152976 0.2420203042232425 0.0916782188748078 0.08145823111791407 0.03915873315992021 0.006663986459592232 -0.2907231672426472 0.26025068446880306 -0.11232249741405187 0.0758336106413552 0.2609364888658368 0.05165325328124028 -0.08012726177767028 0.08755485067155622 -0.04853286761730055 0.24613991025211004 0.286102103047001 -0.23250677700205194 0.26741157590727255 -0.2504670087528754 0.23013551831449947 -0.21310733543782276 0.13268921198514327 -0.296227764449773 -0.12763450433013843 ]
[0.014680299295635798 -0.03681481750114683 0.32849746146638203 -0.14847398957259203 -0.08727953941934886 0.16427300471901993 0.16759123182212965 -0.1596600925198533 0.3342784770870628 -0.20134060408579424 -0.12168367512459397 -0.06086141522604528 -0.3980459064155466 0.33929066642929406 0.2359318191787513 -0.04964695029880207 -0.1079211323469829 -0.16165746821837004 0.11850576858630027 -0.324773867523936 0.006224101547632235 0.26208347166850704 0.35540451315785637 0.154533774581614 -0.2980362369771193 -0.11764985325134747 -0.3210745170258278 -0.05051582579626796 0.2567119825457472 -0.31669001871720376 0.2771147505006009 -0.2450142274787275 -0.12353692466268236 -0.11907742668135277 0.02664729708233485 -0.041025003838133615 0.3062918067966488 0.3353024763594259 0.09555287377810762 0.2603654846707487 ]
[0.24568735676015743 -0.11340960179718622 0.15941368449468254 -0.02444690300303199 0.044933252073924644 -0.17412872384491926 0.02416674509153321 -0.20925843336884042 0.08260515168254491 0.28198873977279487 0.09995005947012547 0.20932674018376193 -0.22709653331322166 -0.19064715332590434 -0.2307178037715844 0.14560391054190225 0.2168377953440726 0.23439187916314005 0.37935917804204217 -0.36640564345048154 0.12035180100546851 0.34656277646850303 0.05611945641858476 0.1911186352392853 -0.13278939112369673 0.22691157383787616 -0.045256352876524374 0.2512887316530927 -0.0283735179411444 -0.2918777370068039 -0.2945000879544708 0.2681233580801481 -0.13806465001373786 -0.3430712331521353 0.04326843493747141 -0.1999464648829345 -0.13602628942724831 0.1552342797534307 0.20550771193196107 -0.30709692691731805 ]
[-0.01247018557228664 -0.1925463536393847 -0.1110889585165419 0.21044497510325733 -0.10945015290819375 0.011120744957567413 -0.1924429142830762 0.18003050428331469 0.09182087928875417 -0.1962691596215915 -0.22586582543534506 0.2500409348560158 -0.03761622517528119 0.3188204813116763 0.06230891465239639 0.21007559140706555 0.2285477641644569 -0.14712359800413805 -0.16236407359106328 0.15012358425400907 -0.28191058202373265 0.12392735571652969 0.24329957399091082 0.2994752967564254 0.21248012868317534 0.35143439996249703 -0.18710415871342745 0.2639276396860627 -0.3400001729269266 -0.04892915200809551 -0.047652655664809355 0.2028356194037994 0.09691846868835123 0.1757958551116287 -0.21673219167656602 0.058833438612833286 -0.07601463262653232 0.21527541263189384 -0.20549498561373922 0.25622724150752657 ]
[0.17572837204152336 0.18266738795047305 0.1307337577445961 -0.1371770329262261 -0.2990892162478913 0.11720634097599758 -0.08291906822048462 0.22011005198277023 -0.08074291847576603 0.1442112077522714 -0.09560641117718038 0.0678865498986711 0.18206857737822899 0.038984107370189994 -0.3290946062954189 0.3545776070982014 -0.006966652872898606 -0.14373676785529071 0.4317791465632804 0.25584969996336454 0.2522361615385913 0.14174937015032063 -0.09166939356382624 -0.1263642247062731 -0.043648123138818044 -0.1753809302125019 0.01930594131842817 0.015001927956355451 0.1141820433036514 0.22065722367366172 0.18318511344606325 -0.12757975310969719 -0.1713323728023243 0.3098996889988039 0.06867837732203702 0.023476121139031532 -0.15728485793505392 -0.16977072098823984 -0.15809772084349658 0.09246622716421381 ]
[ -0.0056130545932413295 -0.007935485004626994 -0.013615092547542378 0.005384591455277099 -0.02162593143957067 -0.018433534616382252 0.008753154999886825 -0.04040308374834545 0.017153849875704296 -0.06564847371401562 -0.011307250903748482 0.017691816089704666 -0.01896155135164964 0.0026606932433356906 0.010351437321796126 -0.003622131790998693 0.02945028989976412 0.0099417738409188 0.06228769213360909 -0.015048271960167054 -0.016538213210694184 0.025438534061081104 -0.0064975560523347796 -0.029655098643525963 -0.009127028720710549 0.024441720494990275 -0.04049059747338147 0.0328710943613161 -0.015989258915154226 0.007181514821515115 -0.0202996690503422 -0.01748319350974881 -0.006048028925336936 -0.03173904695370072 -0.0215187957018331 0.01859063504371176 0.009005924167027642 0.02489474132896166 0.02777160532755393 0.040406343929199444 ]
layer 3 Activation
tanh
layer 4 Dense
40 20
[0.16703359468833084 0.1509737494909111 -0.19414028991721008 -0.1633796779100244 -0.2063445995409373 -0.2881062343046722 0.013439643680910085 0.08967747887836681 0.05332087532746789 0.3042377030138719 0.18023654833401495 -0.08715111672888444 -0.23501924477345143 -0.26929102459399074 -0.271174125802718 -0.1061446668334562 -0.18477494582962012 -0.14911334448506577 0.23385639730743912 0.10902215528885086 ]
[0.18446427038578647 0.06810426739338042 0.013844175124183001 0.09649051721763074 -0.18578401050076898 -0.059708776238435686 0.18970679979892366 0.015095783267880096 0.18687409121208656 0.08841352393898655 -0.009000299328509187 -0.07016763614850081 0.22403230582867106 -0.1347558080850348 -0.14678713705159543 0.14432730798956642 0.18223813612687856 -0.18841120654423374 0.04479304703760426 -0.06536697705034039 ]
[-0.09923520062098284 0.10974683574881934 0.06162006248935121 0.2566640826354946 0.2699013101469979 -0.14367296224616496 -0.11923273627099726 0.06893698993860718 -0.10747621064065406 -0.10499459382754958 -0.05061872634179578 0.27196845680381715 -0.2662424259974631 -0.16556646066750788 -0.04608037365038297 -0.24632629073365236 -0.16929454654206447 -0.03627696108770108 0.1124894860891732 -0.05990910075677128 ]
[-0.026913925152166427 -0.30838866708312795 -0.23111282591812413 -0.05007958864442765 -0.1829921044878948 -0.14262819051477654 0.28209986612508625 0.015701747992502534 -0.2977016122075235 -0.19111961588864 -0.1709555739097926 0.24643418768715314 0.19287768862750285 -0.22979409858632519 -0.050264137443149975 0.07927843411154481 -0.21658201337538313 0.01407277082193273 0.049036177699373074 -0.11392930984638776 ]
[-0.03748719417210013 0.10157037535979486 -0.009326875796695394 0.18992769757729683 0.06906428011346277 0.3248790873421195 0.1475110945853273 0.0609388391396334 0.1620689119621213 0.24688955221608727 -0.04312308978746059 -0.048204729177146 -0.06039834172126491 -0.157988277002365 0.28327910278991025 -0.1669608874699405 0.15545994734666502 0.06765294901176887 -0.16596178605755432 -0.23570579635160338 ]
[0.07305243462490031 0.12326986143398184 -0.16300474307456378 0.15664547457448594 0.020522311729689168 0.2741932636079827 -0.2893445256864333 -0.05346435116061524 -0.34819996516784746 0.1011245697418685 0.24914311158341648 -0.20268294262167846 -0.06152283676579489 0.23880907697006143 -0.19685707331480848 0.3016250802936237 0.12791449013690298 -0.26714917845005076 -0.12463931559475921 0.009600837903263652 ]
[-0.02225312434524511 -0.12522950034392094 0.14722565990182396 -0.0069770418006448 -0.24049009680790354 -0.3054068115276577 -0.03725568456280391 0.06998290224558769 0.05877185503871228 0.22163111141596922 -0.21037238721034363 0.053495772386076466 -0.1390085159117716 -0.17750380558509202 -0.23861580294684295 -0.2209781153971619 -0.014386117621079015 -0.18152141344233222 0.09086526506277455 -0.07391547746526542 ]
[0.27070488850390473 -0.16779847976333778 -0.3223431389427867 -0.23066781889113114 0.14821044780403697 0.14463799751091183 0.2464266728163265 -0.1744036778080462 -0.08033153373890757 0.08129377511779547 -0.19795574261531176 0.07325512424159737 0.25412579391830437 -0.24805165453631142 0.19237105136416868 0.13191538660036833 0.0003858848642913794 -0.20747168696778304 -0.21705829953818953 0.1579707349874967 ]
[-0.08179957650112171 -0.2688579295304276 0.13528836564421437 -0.06289365664355757 -0.35423035045045825 -0.24013351849573142 -0.2472091198629842 -0.10476125659081406 -0.10333452494949916 -0.12032845410635534 0.17735382793277518 0.17217754936648524 -0.009536551729004562 0.2670837314952775 0.3764895921749081 -0.13698082667911352 -0.13116752637053716 -0.04219471145738867 -0.17692881787453177 0.14907863477140593 ]
[-0.004058897191322096 -0.02969964640730016 -0.2847612252326622 0.0013328662061946168 0.3003905419556309 0.25363804087075686 0.23602303412516612 0.0789204337301477 -0.12917089597138404 -0.24165017485348955 -0.07859340904242704 -0.2547981386491012 -0.27106800246508655 0.1485100773115594 0.19453688678589254 0.28172125188819946 0.16431939858784286 -0.12268295297908655 -0.1332418073565608 -0.23838632485191788 ]
[-0.14410664651065744 -0.2938356986469627 0.007480873922197727 0.3184458743261358 -0.3291261265475176 0.24712631941166613 -0.17249644162587754 0.1358677957615038 -0.12054555116786245 -0.06546796479122685 0.034668722094446804 -0.10642626914752681 -0.28566739727313767 -0.0738489134851146 -0.24831971899644278 0.01139283024144114 0.03549237640177663 0.01343389354769875 0.030992317613359813 -0.22517462416288148 ]
[0.015726448441853693 -0.1586144672276727 0.08546985327971952 0.20283073168310775 0.30969387332148596 -0.0951168805709051 0.24458743625639223 0.2854734872441438 0.20749220545765137 0.1741885092607543 0.090471443474875 0.29506869458096935 0.11475497274937446 0.25440115983487077 -0.016987987026718006 0.22335349105774333 0.08369105878265644 -0.05158975026260045 -0.07427635639227836 0.18338688750791926 ]
[0.2846364543099924 -0.12006645054572737 0.31193377598573296 0.16710395902724157 0.1871833030102976 0.1773327105449721 -0.09062823968400552 0.0021737559525852423 0.21669274657835427 0.3079599417217745 -0.027878185069196423 -0.37309949481319366 -0.08515470783183576 -0.06737345411878252 -0.19519019756532288 -0.19467262526432877 0.03308069239473813 0.1658258810166908 0.03436403359000532 -0.23837457739160772 ]
[0.1946229737400897 0.08322415958910015 0.02429377934235795 0.1549670858345728 0.1519410346807053 0.22567504314164916 0.2687357806039689 0.08819327204702501 -0.27348556792222467 -0.28841422699177155 0.24538345880613793 0.05716484973112201 0.023889609689901333 -0.2753493618658051 0.0800574529157689 -0.06419075383699063 0.10589729165348863 -0.09547966425864267 0.2961415983905092 0.03629899755257461 ]
[-0.028456338776042138 0.12609710379880254 0.3349465592117354 -0.008266895983847548 -0.27396364652691624 0.3043098571460788 0.28114238667889024 -0.1868219984922867 -0.016430990283312144 -0.04187930734570101 0.19260453657318377 0.07516901298350889 -0.17575025436347563 -0.2627083076638123 0.03155507448258345 0.24092426357727537 -0.2800020293244994 -0.23947210591823376 0.08454175273901336 0.16784372157305966 ]
[-0.13925356847252934 -0.21969506978607914 0.16263286515345018 0.19496374499070446 0.024561861160398678 -0.19659519956011723 0.23479539365583693 -0.25699193227948613 0.12613224324012978 -0.1986136296051167 -0.19036498706465516 0.16954393133531231 0.2091435712941641 0.24916112906580826 -0.2857015982521717 0.1073800646489865 -0.1197700545986204 0.11432398200119875 -0.03621794120864279 0.3255889100487609 ]
[-0.22680016676222453 0.13095656971369596 -0.004744840306566356 -0.22575718019557742 0.23602048063879574 -0.3069872467667181 0.24277792532910336 0.04597379079682075 0.14393324161149912 -0.03583855450210139 0.2354323273663604 0.22975753875314697 -0.13096652203275513 0.02090369969310993 -0.2273846536411537 0.32284612095654736 0.16932564680576415 0.13564744429301168 0.026366575570986102 0.07490052679079898 ]
[-0.22195227425451397 -0.11218055145736464 -0.07564000741513616 0.2527773356071924 -0.044586540756019664 -0.10491257320325295 -0.22991546861943257 0.3005851409954768 0.023080954382346242 0.029885572913728734 -0.030897972743415412 0.029747395740747355 -0.06468298818945195 0.038002328188776004 -0.06541186298661926 -0.18439981676244976 -0.0508740060941063 0.28040325541928346 0.11805240056568318 -0.30343700153254916 ]
[-0.17958910901481753 0.31155392379084307 -0.013232325091542322 -0.3143766619906235 0.13073055452289176 -0.3413561011589666 0.2176674417738445 0.06789011568314789 -0.11855204396090727 0.16577717219332458 0.2472000358312492 0.18759692798097075 -0.2653823479635401 -0.2128336971852962 -0.04928991953295616 0.12147198867712176 0.23315504359918543 0.09362297003651407 -0.15866713672269228 0.28190478783291584 ]
[0.28812286434079315 -0.01050895972879254 0.023209593674967385 0.24888410455122364 -0.04442991085370178 0.2345729314986205 0.14535313993941154 -0.04577420454370682 -0.09079089032803259 -0.0030147570769143497 0.1341129742610244 0.3157336214744384 0.2271585593738258 0.056492250759855325 0.067134289374837 -0.15480484117979942 -0.015650419940746223 -0.0005440897263234762 0.1143376710221865 0.316627538209851 ]
[-0.10153010903421379 -0.27682182168865804 0.0822343183026197 -0.3086474985889814 -0.03386719444789204 -0.09591115535353562 -0.22610633181352552 -0.17103867921839402 -0.22935086992190581 0.28744333561314983 0.05345778807770129 -0.005380355545474865 0.02242584465113541 -0.0734263172552749 0.10930467163083771 0.24420916034144594 0.204066331553811 -0.2511862311568477 -0.3271465261882052 -0.29368560341696537 ]
[-0.14064526843692382 -0.30317449227429066 -0.30885333989737407 0.1370286854126813 -0.3038610989380329 -0.2592123304708196 0.2661517954663022 0.14418097714396527 0.09935863969055542 -0.1803255945040031 0.07763764077040021 0.31899474161376856 -0.2215087697432445 0.06004216590802751 -0.2214902473838965 -0.22376395516369849 0.31321019092313507 0.2350748892065728 -0.009328948424864843 -0.11431858455500062 ]
[-0.002815144432838197 -0.1505972205729303 -0.33090504538139665 0.017425871738346584 -0.287234467206074 -0.11807728481313284 -0.20172001782953936 -0.06237248501648109 0.08855525752610983 -0.16233694586633712 0.09734606998872429 -0.1232237175511846 -0.12878364114021582 0.08919888078042523 0.17237098715345905 -0.2042225694738664 -0.0059300278458407265 -0.27854077920785086 0.3230093263484906 -0.11032204303215551 ]
[0.21984769665495202 -0.01871505950731907 0.13949331192937625 0.16080637375668225 -0.14673927700052644 0.27885735983340293 0.22568713856987224 -0.2110174646462679 -0.19158176414320974 -0.32499174700539324 -0.13802695395380943 -0.06042805173476908 -0.05352325603205641 -0.027985169418164278 0.012104687469344557 -0.10298004597581402 -0.29560521641294607 0.2205909901795261 -0.25399968373764714 0.07902489052662608 ]
[0.031042688336991257 -0.16429458585484297 -0.04588436033779086 -0.029214397753754572 -0.28601164381351946 0.14928192891470138 0.16096722949188302 -0.028740953896913585 -0.07245705751068755 -0.23171418972891805 0.009551779318780393 0.09163024233710751 -0.11772203847290162 -0.1442263517536877 0.2037629353600056 -0.1741745713343011 0.15653681002132688 0.10082473312585567 -0.23578172713215562 -0.1296273453963126 ]
[-0.23543434915006162 0.14200041575605585 -0.07485566067963731 0.3119813963235344 -0.1947807731930157 0.05706916552447918 -0.225841189754716 -0.07546637003401459 0.06384404764843525 0.15527107816590702 0.10931194391424257 0.29642486551857716 0.0045777938353086375 0.0007874622273175571 -0.2171460010685797 -0.1408305254252885 0.30300247602986197 0.2155947538774844 0.21134110860954083 0.2872506629661241 ]
[-0.26778220346670334 0.29692300265170496 -0.04572862541122264 0.01283876068104105 0.06637395332534451 0.2682579944358614 0.16738639402777952 -0.07234313178989409 0.20943652941259053 -0.006474638353187568 0.2335899963834636 -0.040812290211006144 0.31517073929770345 0.15846114731681835 0.27506124808043464 0.1979433457948165 0.12870241347113337 -0.3068568366702919 -0.21824393507823975 -0.012984172598149256 ]
[-0.16840644866149596 0.048813446357275025 -0.08248812736429875 -0.17514532622575163 -0.2055972047076566 -0.2878868307330188 0.10279038236063845 0.28399560583811917 -0.1745275135837876 0.11204340194772407 -0.10710451303187127 0.1528084408092655 -0.14232409878451321 0.2663977066343909 -0.189816927474608 0.29434662017582625 -0.29187575050104203 0.27539331739317224 0.28764993946035583 0.18420277062112966 ]
[-0.15919614613194394 0.29612435657681235 -0.1699144303099562 0.1088961142759072 -0.19088204344385093 0.07205838174377675 -0.018408670515324223 -0.3427198231075329 0.2544450920791421 0.33375227897219445 0.16693598106929575 -0.26349155536385216 -0.2179973837595338 0.082907458943519 0.2967734010760287 -0.2627208270123929 0.24833005715402134 -0.33025178713117154 -0.005966830119970391 0.11432113938638544 ]
[0.25377574755469107 0.3149192703814269 -0.05029266888255024 0.07330654063164029 -0.118081514575842 0.3641497835253125 0.023412315818068952 0.18236168871112124 0.14699657191885515 0.27220402937696114 0.1082976110719261 -0.10385969536842493 -0.2763670141774254 -0.24710598723781682 -0.02189428501305856 0.24558677290398104 0.2741731615977658 0.19031877890570367 -0.10863840318425085 -0.04744240472948499 ]
[0.22830914987256787 -0.26700083048370105 0.22695972087750269 0.1442524503792915 0.368367695789227 0.25236136778853285 -0.2654487402750682 -0.1778716263595137 -0.14955813525989106 -0.05387419639935504 0.22825116201595988 -0.2496336185821499 -0.03824777816591511 -0.028605545344030495 0.2567646681997397 0.2004197782552151 0.2077443331316253 -0.17974160342411213 -0.011553346408411097 0.12416049222919105 ]
[0.0033330556723345428 -0.13510587019386275 -0.22267256887217884 0.06808470125497634 -0.12103196086255444 -0.08353688415988314 0.044863788486774164 0.2040979223870732 0.15394459928664364 0.22576627920294187 0.11579327128636135 -0.22734152137996272 -0.06371873471863655 0.3438746667961948 0.3004804280247314 0.10699006311187496 -0.12282962000049007 -0.025016240812258814 -0.28268563803743146 0.2345067169831397 ]
[0.14737871183200826 0.14226355782209518 0.2949836824207559 -0.24913741956121838 -0.09723206266324409 0.24889678409963056 0.24684723443018816 0.3229932165300136 0.23089604979765288 0.2674227338017479 0.04469669611647789 0.18690455272438838 -0.25891174721523447 0.022410757021744932 -0.25278829209519726 -0.2926258565779993 -0.1175688270084537 0.08739551759489744 -0.013684291930705354 -0.12237213671453107 ]
[0.05180719561723589 0.22427525409221072 0.3432857052103736 0.03069302866255323 0.08007763810709431 -0.18259539975941197 0.24226301695011634 -0.2097979728669078 -0.0890842331784168 0.019941073541991417 0.20818585871777648 -0.06473880538700699 0.3206037904354399 -0.3533085241834559 -0.012093930157715121 0.01926809274841143 -0.21262202588390702 0.09159764447805256 -0.13912055077883703 0.32820931551986404 ]
[-0.028903915944375698 0.13520820107136594 0.18389957110310948 -0.2143155986170534 -0.1933987992827143 -0.1612510808795679 -0.19521072763897876 -0.3398892151725608 -0.12700559346334692 0.03956854183490784 0.19540642625755647 -0.1472593977394524 -0.052067033222628574 0.11695470063431736 0.15082352869162347 0.2532666159243706 -0.11259234601157855 -0.05851711770399544 -0.25692514578350667 -0.3408625863814563 ]
[0.011174513480031026 0.025016653273123586 -0.11750467301086956 0.25141977381440156 0.09766580860455126 -0.036647684872668104 0.3622746724239569 0.08233799451057601 0.2320981700013018 -0.04344255570988987 0.04377624364764602 0.20210200020341973 0.01609830494300509 -0.21071710407975186 -0.07247328994094333 -0.09507387532789731 -0.025524991584380752 -0.09506909006334632 0.1417693435984501 -0.08681433400799174 ]
[-0.31389626933457226 0.052393641692038376 -0.19695405249856396 0.014804758808079849 -0.20040366006744817 -0.30087917326403524 -0.10775415312352402 -0.18264338471088257 -0.09857055936003829 0.13089250536969138 -0.09679117057034647 0.014640444349867712 0.244066586995373 0.16736744841400333 -0.26093633955042667 0.20059095163471174 -0.2928667254680088 -0.21480720473085982 -0.09483499822609852 0.25818783418181046 ]
[-0.18068734380793267 -0.27299946995132895 -0.15606968056685566 -0.007569925126400853 0.28443961050565675 0.023642951818006817 -0.07161995617566841 0.16830724975191014 -0.03241885408053089 -0.13048226611891522 0.28691708546220196 0.08710570183694505 -0.2821433887249497 0.31253381969832994 0.24424323147789223 0.28717200611479504 -0.037409833048404825 0.2163899057060102 0.1858390736459561 0.1261315342849316 ]
[-0.19805291346732326 0.30406685396307775 0.19207277826696012 -0.22127306423577608 -0.08372004344877558 0.2626920549803026 0.12474498648225238 0.22603444356211472 -0.07784121316899276 -0.0559390719306704 -0.2119938753391716 0.15612602864164332 0.12208480841549803 -0.1070654156669247 0.1915655947943869 -0.1775043439381434 -0.0014056414322141074 -0.16272208568783395 0.2764510312306626 0.18910246824865315 ]
[0.24556744973976194 0.21544595270050831 -0.11254196338132981 0.2294169445112324 -0.2306059404428886 -0.044644453169889374 0.0011267451424805258 0.26786475954847583 -0.08766725736321215 -0.09273992751419151 0.1266000602696288 0.11585339796027404 0.22908658253336106 0.07642558873160776 -0.04096229305018309 -0.24127217939416953 0.2759539229742885 -0.29371234616654157 -0.11628108963006369 0.11198161647689191 ]
[ 0.005449856489824368 0.008798676746698571 -0.013216482349230136 0.013716820274894676 -0.025193399857317264 -0.002442621451574954 0.016791115978641514 0.04498674659877133 -0.028151646852635857 -0.01655795426496788 -0.022552034762986648 0.02109774887580678 -0.010658687633083721 0.007858302750452411 -0.019725320595787525 0.009348050855195814 0.019110144516097518 -0.00932501470921825 0.03668040007152129 0.015389280476049108 ]
layer 5 Activation
tanh
layer 6 Dense
20 1
[0.05985367668648176 ]
[-0.20275056803840286 ]
[0.03584115267041093 ]
[0.22676115497808744 ]
[-0.26904021137745915 ]
[-0.36763742368396385 ]
[0.13182215522089366 ]
[0.1995059762801201 ]
[-0.3450650267221366 ]
[0.16929052530494373 ]
[-0.07049349485170567 ]
[-0.45001581401349244 ]
[0.2834313344028099 ]
[-0.30888509465467046 ]
[0.39047643121861336 ]
[0.269218563219211 ]
[0.28512260779136456 ]
[0.19676837959351692 ]
[0.3874711316962716 ]
[0.01669624231957456 ]
[ 0.01989772413280472 ]
