layers 7
layer 0 Dense
24 20
[-0.12575439 0.3411526 -0.29191753 0.1236752 -0.09713984 -0.22235827 0.10526224 0.042358786 0.06568705 0.07546255 0.30571738 0.35118663 0.41615668 0.34683484 -0.041023027 0.13998033 -0.07874683 0.24519473 -0.22691093 0.17227593 ]
[-0.40619493 0.0810781 -0.32198063 -0.32790232 -0.30207604 -0.35189748 0.25872406 -0.0011982115 0.026110597 0.31278363 -0.27485412 0.044456046 -0.13397743 0.2875035 -0.18504614 -0.3762505 0.29699555 0.24297933 0.08000053 0.037472136 ]
[-0.3163844 -0.18522237 0.2204252 -0.28268754 0.32085145 -0.18817429 -0.018007977 0.30311432 -0.11397233 0.08600846 -0.099368006 0.07618198 -0.19376853 0.017079009 0.14161235 -0.39024338 -0.12397711 0.3434501 -0.21527384 -0.3726856 ]
[0.45501074 -0.030532597 0.117709614 0.15531966 0.40651232 -0.3272976 -0.123069964 0.11214716 -0.24432886 0.17171894 0.18734397 0.26520634 -0.09119585 0.26989585 0.093531325 -0.26076785 0.15321754 0.073139906 0.23116706 -0.039259486 ]
[0.24504209 0.2557525 0.16972238 -0.02697707 -0.04140983 0.17704427 -0.3661608 0.3677936 -0.0638823 0.10217793 0.26594043 0.19959362 -0.24124411 -0.060833745 0.13080102 0.2888739 0.39004004 -0.06491005 0.25786266 0.2697434 ]
[0.2422377 0.24558853 -0.25345162 -0.13709109 0.05581122 0.29917297 -0.25563318 -0.10395102 0.16397841 0.3275459 0.38006508 0.3282936 -0.09767228 -0.060455777 -0.0061078193 -0.27230066 -0.026368432 -0.14042869 0.29046828 0.15376273 ]
[-0.2385437 -0.2091072 -0.02915922 0.40883315 0.23977262 0.31417757 -0.2874368 0.25423637 -0.19777372 -0.06291191 0.2056916 0.18512112 -0.2725387 -0.21141714 -0.21112315 0.101009384 0.2800787 0.17515136 -0.23360792 -0.119059585 ]
[-0.115392365 -0.37823603 0.2072363 0.16810757 0.123158194 -0.1524834 -0.27122152 -0.25441575 0.21445593 -0.12602988 -0.058884606 -0.087017626 -0.11282522 0.033556446 0.27144885 -0.29602078 -0.20970562 0.0057453876 0.022209143 -0.29502976 ]
[-0.1671743 -0.3207827 -0.26755142 -0.10821614 -0.09614494 -0.051712785 -0.37818673 0.17363095 0.00045543653 -0.14323483 0.06717246 -0.10347664 -0.06367662 0.30361035 -0.03431348 0.22113344 -0.3338024 0.13143982 -0.2269069 -0.26112187 ]
[0.2646362 -0.28909343 -0.19777183 0.22050424 0.2325027 -0.1287285 -0.25257736 -0.10738592 0.08368403 0.10266188 0.282326 0.16847196 0.24586725 -0.2086351 0.12132135 -0.039735593 -0.15152726 -0.09985986 -0.158723 -0.0328673 ]
[-0.29788706 -0.35989344 0.11438107 -0.5385351 0.05041191 0.080660336 0.22616026 0.36486152 -0.007721048 0.27033886 -0.021262879 -0.37756935 -0.09238737 0.128872 -0.2190292 -0.23969954 0.26457527 -0.22648893 0.45685455 -0.17543527 ]
[0.0042847367 0.1338973 -0.1522884 0.55861175 -0.16138144 0.47796345 0.18754005 -0.041698482 -0.20464382 -0.29946423 0.14057267 0.01120659 -0.22538282 -0.31839037 0.03368506 0.2995306 -0.11355186 -0.26830545 0.25370112 0.3250036 ]
[0.3218668 0.03591284 0.38440984 0.24016008 -0.24064846 -0.24173321 -0.44702286 0.5603231 -0.34579027 -0.078212 -0.05019142 -0.0977309 0.15693405 -0.097960606 0.12127779 0.28917792 -0.15927288 0.21943775 0.24380486 -0.4100449 ]
[0.133614 0.18659118 -0.1217499 0.1214119 -0.11101858 -0.12003253 0.06581694 -0.08749776 -0.27556476 -0.127044 0.26611525 0.06113401 0.18564063 -0.08623291 0.2925519 -0.25748572 0.17558838 0.05760158 -0.3956673 0.00013251617 ]
[0.22550435 0.22955617 0.0769836 0.20869678 0.23226191 0.22611757 -0.03182777 -0.21426743 -0.19359374 0.25469854 0.17933048 0.13183841 -0.08923889 0.35738537 -0.08087825 0.09731914 0.1923647 -0.07660347 -0.15437247 -0.11701553 ]
[0.5502025 0.29787242 0.24926545 -0.100392416 0.21022843 -0.09019442 -0.2953152 -0.36522418 -0.14090231 0.2072982 -0.34110314 0.34388548 0.072500765 0.15324603 -0.18675882 -0.34125546 0.14834307 0.1184442 -0.37157145 -0.3335784 ]
[0.24795553 0.21958932 -0.09176602 -0.17858507 0.1259298 0.21068387 -0.1324399 0.050596446 -0.07287085 -0.13765451 -0.08667528 -0.24569345 0.31321454 -0.0658554 0.30496746 -0.33378187 -0.3368266 -0.26808596 0.07845724 -0.1314941 ]
[0.290687 0.32224202 0.1697863 0.12655927 -0.1682232 0.06478375 -0.19674748 -0.248131 0.3894055 -0.17471121 0.16145352 -0.07468559 0.3558706 -0.12333448 -0.22631952 0.38117585 0.19171812 0.10602232 -0.430128 -0.14877957 ]
[0.025339931 -0.029001879 0.1259461 -0.11597137 -0.0030124516 0.008765964 -0.24757412 -0.26415426 0.13160263 0.0415816 -0.11745517 0.33285934 -0.39453468 0.25182217 -0.26189345 0.20521876 -0.3533807 0.32353085 -0.04596147 0.2885477 ]
[-0.31599993 -0.27977142 -0.20249791 -0.39081335 0.36311185 0.5489222 -0.27907848 0.07401986 0.14813837 -0.16989951 0.2772726 -0.3217973 0.112397954 -0.18477748 -0.26854274 0.09473597 0.16293311 0.3370965 0.25948617 -0.39223167 ]
[-0.3298921 -0.34219614 -0.40022904 0.07564257 -0.04653762 -0.10808468 -0.072654516 -0.077551566 0.300387 0.354324 -0.02615271 -0.016702631 -0.19744615 0.3812237 -0.3372625 -0.04362341 0.093665436 -0.14599979 -0.053859916 0.1581016 ]
[-0.20440318 0.2771597 -0.18518977 0.28567123 0.0039693434 0.33276543 0.20463282 -0.064670876 0.22214282 -0.41229597 -0.045079485 -0.13299233 -0.12987143 -0.020267542 0.09221643 0.14026093 0.07865393 0.27391484 0.031219328 -0.42372537 ]
[-0.24633572 -0.09674256 -0.38284165 -0.1289839 -0.02400801 -0.39759627 -0.11027572 0.32048768 -0.0930399 0.2576603 -0.28624997 -0.32487842 0.2937661 0.24608046 0.18660161 0.021517964 0.18301018 0.09986457 0.080068655 -0.5105047 ]
[0.2003024 -0.15297005 0.051831614 0.3513129 0.10070598 0.1759345 0.12814158 -0.2374772 0.27024454 -0.24587457 0.021285353 0.050998494 0.29328105 -0.18418181 -0.27502814 -0.007192715 -0.37247476 -0.32753265 -0.39246133 0.38886952 ]
[ 0.07401312 0.022441564 -0.04741112 0.043470006 0.03174088 -0.0014398675 0.081947535 -0.07066982 0.021385893 -0.020826053 0.02736829 0.09972558 0.009681685 -0.059318714 -0.028029826 -0.06404003 0.056825444 0.0017285715 -0.009832685 -0.015916415 ]
layer 1 Activation
tanh
layer 2 Dense
20 40
[0.12449589 0.38159135 -0.12165983 0.045609046 -0.29839545 0.2619235 -0.2946346 0.1380327 -0.08390763 0.15791734 0.27741233 0.20346318 -0.2283041 0.36254665 -0.10299243 0.26915625 -0.17420062 0.14267673 -0.32224676 0.19468965 -0.17146914 -0.25355715 0.30241373 -0.16278632 0.08965017 -0.14809774 0.0789665 0.12965532 0.13465317 0.24299052 0.00393805 0.071472496 0.24819013 0.2829677 -0.0072037205 0.188233 0.26233482 0.06889878 -0.11419396 0.3201372 ]
[0.22751166 0.23411587 0.26231727 -0.20037572 -0.06207755 0.104159065 -0.09425238 0.18661816 0.024549972 0.21898255 0.3122536 0.15072335 0.026540793 0.2058663 0.20643044 0.107882954 0.0620407 -0.2706852 -0.04292231 0.40029556 0.22818671 -0.3703396 -0.10170215 0.14910313 -0.11495848 0.45271465 0.113836646 -0.09944083 0.02119755 -0.09336891 0.26901582 0.105563805 0.0866766 0.24499308 -0.23878427 0.17878975 0.09089916 0.0023722295 -0.32707298 0.31337434 ]
[0.22879925 0.35497946 0.410014 0.27028 0.045878224 0.20150611 0.29651973 -0.16370744 -0.14223374 0.14979751 0.18722787 -0.37330818 0.0835553 0.16548955 -0.12603958 0.12446382 0.022213824 -0.110560805 -0.32222325 0.3308328 0.049005017 -0.3749952 -0.12956211 0.02444413 -0.12259304 -0.28286862 -0.07633931 -0.16064322 0.014171307 0.091974735 0.42794508 -0.26527 -0.27117613 -0.10894411 -0.018413668 -0.22099917 0.32447022 0.20444003 -0.051226582 -0.21833438 ]
[-0.18030082 -0.29746062 -0.19384478 -0.12677461 -0.34956932 -0.13820666 0.015169274 -0.050072983 -0.18241741 0.2508777 0.2550881 -0.12918308 0.26703173 -0.05044615 0.054039735 0.1814836 0.14594485 -0.17757468 -0.19844577 -0.030326357 -0.27185535 -0.28819004 0.2219498 -0.021467622 -0.18144225 -0.12700377 0.21135996 0.12630537 0.13513531 -0.1648038 -0.29845265 -0.20507923 0.14225093 0.10999294 -0.21612102 0.22031559 -0.025322821 0.10287912 -0.16345581 0.38828617 ]
[-0.20192224 0.12463301 -0.28095904 -0.022721607 -0.22610581 -0.19191939 0.034531098 0.1519462 -0.19132097 -0.22251682 0.16562015 0.26209143 -0.17165066 0.21125798 -0.11123101 -0.29544917 -0.15586114 -0.278395 -0.04027601 -0.22161426 -0.2046199 -0.20565344 -0.13057923 0.04773902 0.21893376 -0.38006487 0.028162211 0.119680054 -0.10213973 0.08398389 0.15007192 -0.19575797 0.0014570039 0.100329295 -0.2224482 0.20101398 0.24383843 0.081853844 0.044904955 0.21318527 ]
[-0.18089943 0.021146161 -0.19578122 -0.010142151 0.09225928 -0.15940909 0.042526275 -0.2162522 0.009446837 0.16301091 -0.19648698 -0.23512615 0.07169143 0.24154153 0.1580375 0.103512965 0.20977733 -0.1420284 -0.036076862 0.09676837 -0.009990337 0.17387426 -0.164404 -0.024333687 0.27381095 -0.21268603 0.099483706 -0.060992304 -0.18469088 0.05396864 -0.16940199 0.22684348 0.036829982 0.27192965 -0.17340481 -0.15767121 -0.107944876 -0.20757362 -0.07136558 0.09883076 ]
[0.25458238 -0.11487301 -0.17709287 -0.15332867 0.22190097 -0.26170194 -0.058267973 0.25851685 -0.137752 -0.03459328 0.1682634 0.06221938 -0.2804517 -0.14604577 0.09210292 0.08427175 -0.096450284 -0.10358595 0.11437134 0.19350635 -0.04319773 0.20979652 -0.032058533 0.19936728 0.085346274 0.25781637 0.16664045 0.2007796 0.052079592 -0.13274574 0.14342196 -0.19308035 0.14123157 0.102232546 0.1381282 0.2103031 0.08069718 -0.23934346 0.2234483 0.08501946 ]
[0.16890593 -0.14486708 0.18450525 -0.2221034 -0.2122759 0.099133484 -0.30250323 0.1423393 -0.15353629 -0.09313026 -0.011974383 -0.28530297 -0.11781269 0.27744877 0.026964242 0.0755851 0.067726165 0.04502318 0.27755088 -0.30954307 0.19816118 0.08497747 0.055894528 -0.1978943 0.060308248 0.13883176 -0.1464011 -0.108322844 -0.12852053 0.17654051 0.031912204 0.08379099 -0.37323138 0.202084 0.16541941 -0.23110631 -0.08266513 -0.14077564 -0.2394249 -0.27446377 ]
[0.1965086 0.26053593 -0.1395282 0.1875455 -0.18781357 0.33638465 0.18966804 -0.046545777 -0.21918686 -0.21754928 0.067395784 0.22515894 -0.18741944 -0.23145138 -0.040796757 -0.015099239 -0.09840469 -0.039682552 0.29050764 0.08078932 -0.2533048 0.08579365 0.27234307 0.19360802 0.27545822 0.22021864 0.14198586 -0.30089107 0.09306718 -0.26992178 -0.13721949 0.026883693 0.20700525 0.12273698 0.2336222 -0.088666 0.25722617 0.04359132 -0.19950674 -0.24307217 ]
[-0.10692552 0.12290646 0.16946435 -0.2158898 -0.14720759 -0.20760149 -0.19829682 -0.04062389 0.14670317 0.31975546 0.017342025 -0.22546013 0.33812517 -0.15431136 0.013813032 0.3109511 -0.19463073 0.19745432 -0.22376582 0.037576605 -0.17090674 0.31361747 0.28027984 -0.118663326 0.19730513 -0.26415223 0.30601004 0.059157785 -0.25156653 0.008238365 -0.20327285 0.04581817 -0.24524575 0.29545125 -0.2683229 0.3560323 -0.07886411 0.17999049 0.10831784 -0.14050302 ]
[0.01728382 0.17846596 -0.17613143 -4.4103654e-05 -0.14281738 0.2730644 -0.27373618 -0.03561302 0.0056737214 0.08893586 0.12732755 0.105671585 0.28237447 -0.24595281 0.05780457 -0.13757357 -0.15459515 -0.19387746 -0.07351942 -0.23522823 -0.0873105 -0.12947486 -0.1192533 0.26166964 -0.0712196 0.14579488 0.21808556 0.08553295 0.20821442 0.12998629 -0.2516101 0.15285957 -0.03485406 -0.14502415 -0.12057067 0.121381074 0.0899544 0.055462763 -0.18190145 0.17577206 ]
[-0.20273939 0.33595482 -0.12217344 -0.09569649 -0.094685316 0.122802705 -0.20506907 -0.0072745383 -0.18159539 0.19863683 0.18237384 0.03891868 0.28167474 0.33203772 -0.02619401 -0.0016569876 0.13846767 -0.26327607 -0.16222915 0.28750053 -0.031407025 0.027610738 -0.09690492 0.010037063 0.005934197 0.22783455 0.30007666 -0.057539925 -0.111857355 0.106080286 0.124066435 -0.051525846 0.13138233 0.13065724 0.10575203 -0.10754625 -0.16333428 -0.06845648 0.21753125 0.15351525 ]
[-0.021603199 -0.038719013 0.34424773 0.22646306 0.015743151 -0.2896014 0.15406963 0.20766854 0.33554617 0.28018618 -0.100383885 0.032548744 0.19958091 0.16880044 0.3103995 0.18920833 -0.14065532 0.19519311 -0.016620895 -0.26894897 -0.17418535 -0.06735537 0.085540295 0.29695395 0.38619766 -0.019286167 0.038820077 -0.2482148 -0.011916168 0.118676215 -0.28914037 0.04279428 -0.053553466 0.04154821 0.26346472 0.27779743 -0.16907062 0.07402717 0.06843839 0.13075276 ]
[-0.19477561 -0.06038725 0.15934883 -0.11338674 0.22443299 -0.1013729 -0.1942618 0.3009239 0.31619346 0.15696289 -0.08927841 0.23478219 0.18549997 -0.203932 -0.07696143 0.17543106 -0.20535022 -0.23906721 -0.1315896 0.02663305 0.19868603 -0.22253573 0.18339421 -0.2557374 0.005019861 0.010058027 0.25962764 0.26602376 -0.25764963 -0.31866595 -0.035799652 0.29790264 0.015261952 -0.1167668 -0.28864744 -0.10701109 0.14434977 0.09274549 -0.18242872 0.19008589 ]
[0.22156876 0.101339884 -0.23088786 -0.15204209 -0.20425066 -0.09314797 0.2744573 0.24724849 -0.30469915 0.280151 0.13864574 -0.26772925 -0.083701074 -0.27995455 -0.25442836 0.18769814 -0.24739495 0.015646499 -0.24461311 0.012437169 -0.1988981 -0.22025298 -0.010299504 -0.06717017 0.14400597 -0.26191142 -0.10688794 -0.218275 0.08550735 0.29855576 0.18179956 0.29358637 -0.11942909 0.37805265 0.00045363844 -0.30597633 0.25332847 -0.19671135 -0.2677759 -0.23795435 ]
[0.22305065 0.24488997 -0.23344687 0.17249003 0.2016996 -0.28302595 -0.2085534 0.24880552 -0.10711013 0.035756424 -0.01243349 0.12966776 -0.2339856 -0.2776103 0.032910954 0.07419661 -0.2030135 0.2845377 -0.2582574 -0.028836858 0.19450457 -0.21641266 0.04209023 0.14730687 0.09226584 -0.13802361 -0.08404633 0.07211274 -0.33998343 0.00477758 0.24504407 -0.10141358 0.18101332 -0.052577477 0.063683845 0.24312541 -0.15940753 0.27432173 0.06440417 0.1851411 ]
[-0.35971725 0.105763786 -0.2714645 0.3082704 0.24860631 0.288632 0.043354236 -0.091796875 -0.21659862 -0.06659427 0.03727925 0.08094619 0.11566756 0.061693925 -0.16969386 0.06771515 -0.35538578 -0.059780344 0.21307817 -0.08986452 0.1476034 -0.06759284 -0.069252945 0.12446379 0.031638466 0.07508404 -0.12872647 0.23264217 0.15646651 -0.07924206 -0.15559371 -0.12305408 0.2086152 -0.31954798 -0.11332496 0.24651152 0.111568294 0.004760784 -0.045839638 -0.12447015 ]
[0.25188208 0.30235863 0.1790044 0.25706902 0.029706508 0.21104155 -0.023522766 -0.18003592 0.25892898 -0.08543782 0.023804069 0.010036029 -0.05348793 0.30423132 -0.2796345 0.11611111 -0.1917481 -0.06615345 0.011995452 0.16231452 -0.14818323 0.06320645 0.123749904 -0.09041373 0.20422001 -0.3541671 -0.1287842 -0.21320239 -0.23235895 0.14681353 0.092434056 -0.15390736 -0.15799601 0.12625094 -0.21388212 -0.1831956 -0.057444703 0.12796307 0.12750292 -0.11980362 ]
[0.12558131 -0.24630672 -0.09659112 -0.34336343 0.04212445 -0.005229284 0.15371014 -0.2989718 -0.057688475 0.22684096 -0.054513328 -0.16998696 0.22326742 -0.23074105 -0.27153072 0.31950328 0.16351323 -0.33336684 0.22262241 0.17017838 -0.105719835 -0.027939118 -0.19075584 0.022108886 0.0096376585 0.15306509 -0.30892193 0.010416765 0.26679838 0.17371544 0.11682789 0.15745334 -0.38227475 -0.16562082 0.11267632 -0.18610218 0.14255248 0.07328912 -0.14569883 0.24025272 ]
[0.18452768 0.29976097 -0.26428843 0.14644057 0.06722659 -0.07860594 -0.2103399 0.17241938 -0.3019032 -0.0044744303 -0.3239248 0.026767548 0.30636358 -0.09911032 0.27643338 0.096073866 0.23679766 0.044041183 -0.19985542 -0.11320991 -0.17116465 0.14349848 -0.043036282 0.09668608 0.18398125 -0.10203418 0.12881918 -0.17175245 -0.18693367 -0.016668282 -0.3621463 -0.12186245 0.08157201 0.18922022 0.032141387 -0.10634503 -0.27596352 0.24672513 -0.2517652 0.021094874 ]
[ 0.0033765656 0.022015637 -0.046484735 -0.00905167 0.006298288 -0.018235361 -0.017819863 0.00071426394 0.00426038 -0.0053035575 0.010779033 0.016017344 -0.0015733995 0.02501163 0.013255401 -0.013994578 0.051899366 -0.030911006 -0.0043746587 0.034018334 -0.011902065 -0.0064831236 0.016981686 0.0045182356 0.0078030564 0.014466798 0.0046586557 -0.015185911 0.0030270163 -0.0063038706 -0.02699668 0.009253085 -0.009455975 0.06269766 0.018276285 0.011373847 0.009939302 -0.0080502555 0.033823952 0.0099316295 ]
layer 3 Activation
tanh
layer 4 Dense
40 20
[-0.052953508 -0.0010262665 -0.2702064 0.22736996 0.15176257 0.13826492 0.20474508 -0.094316944 -0.073134854 -0.0078121806 0.06285677 0.0449086 -0.2407189 0.1945142 -0.07360892 0.06918774 0.22504173 0.059298825 0.17418675 0.22130847 ]
[-0.26360947 0.3080874 0.32476205 0.31616193 -0.029729458 -0.00938537 0.08701354 0.22433376 0.05055186 0.08100218 0.10786877 -0.12860511 -0.24291858 -0.09793048 0.12168922 -0.18637916 0.28859502 0.041063257 -0.22424307 0.24178377 ]
[0.015455155 0.036393132 0.26221418 0.17339794 0.02377196 0.20650783 -0.0841953 0.28913832 -0.18152535 0.3228202 0.30934626 -0.08593943 -0.22083893 0.31909943 -0.2899045 0.12822191 -0.035479534 0.23128761 -0.12362424 -0.1839457 ]
[-0.07580554 -0.13712856 0.260814 0.057361875 0.07424128 -0.022052206 -0.23999743 -0.005749448 0.032132264 -0.082449906 -0.16142997 0.29065028 0.055369955 0.3069497 0.2360356 -0.27866855 0.081608325 0.21189232 0.20874983 -0.19525494 ]
[-0.1657721 -0.25287405 -0.2256458 -0.086633556 -0.28303242 0.27650902 0.14733265 -0.028782405 -0.30082887 -0.21990123 0.053039007 -0.012101245 -0.008031243 -0.30077767 -0.31032753 -0.18203965 -0.1308721 0.28492108 -0.3103817 -0.18736385 ]
[0.23585615 -0.051130082 0.3146298 -0.025940282 0.17132872 0.21254316 0.0644445 -0.16557844 -0.23623917 -0.1568134 -0.14623122 0.105849326 -0.14356649 0.01364899 0.010950986 -0.039713554 0.003309984 -0.02451781 0.13443561 0.15133838 ]
[0.058553867 -0.24162622 0.13432711 -0.13023908 0.13118775 0.29333284 0.10705934 -0.1014965 -0.2675043 0.10571222 0.1632841 0.24331869 -0.32978714 0.2178204 0.2735155 -0.032770995 -0.05031577 -0.17689179 0.22922778 -0.041568972 ]
[-0.10703824 -0.28191695 0.23167689 0.050028082 0.12949097 0.1769533 0.08311621 0.1900138 0.0024506315 -0.08713099 -0.25144714 -0.13376713 0.10070735 -0.21430841 -0.2718819 0.19813709 0.08778681 0.1689382 -0.21084924 -0.24945202 ]
[-0.28222206 0.15361708 0.29457033 -0.07011691 0.13636824 0.0179607 -0.09163528 0.027153209 -0.042271335 0.08286046 0.2617572 -0.25183308 -0.18659566 0.272379 0.19923072 -0.10809675 0.09632743 -0.17674878 0.2508809 -0.17472363 ]
[0.09502288 -0.15634234 0.0065917643 0.26592824 0.10472671 0.10148643 -0.2094002 -0.1855747 -0.19078702 -0.13056487 -0.035460167 -0.111495025 0.09808872 0.23918729 -0.11514286 -0.24804795 0.056113742 0.0082037 0.20810772 -0.0186671 ]
[0.27194196 0.16405997 0.063402176 -0.15466268 0.27777314 0.098121166 0.34532288 0.21195254 0.1590643 -0.019058704 0.24098402 -0.108652085 0.24997793 -0.080147244 0.11689579 -0.156729 0.115269035 0.22430551 -0.20361435 0.21421622 ]
[0.014339006 0.11952476 -0.09289166 0.097647786 -0.123720415 0.024833506 -0.05474753 0.26788267 0.16508363 -0.25013363 -0.25916594 -0.050421655 0.06322676 -0.19366165 0.28338924 -0.04095846 -0.0009842324 -0.057647977 -0.31480852 -0.26164553 ]
[-0.14225546 -0.17855059 0.017383568 -0.21622716 0.22665653 0.16369766 0.121334165 -0.07065915 0.014989395 0.08626997 0.2857552 -0.13462275 0.17898513 0.14664997 -0.28196967 0.041713763 -0.026198609 -0.010274082 -0.29566208 -0.20222944 ]
[0.056167934 0.04914412 0.26266912 0.23430084 -0.18537182 -0.23249203 -0.03894746 -0.083979435 0.22823162 -0.05301199 -0.30140984 -0.23924138 -0.114249915 0.042119343 -0.16280705 0.012828301 0.21905947 0.2061693 -0.16965067 0.2958249 ]
[-0.12597956 -0.23548526 0.23781756 -0.21591666 0.07162555 0.16972487 -0.02888946 0.07896962 -0.18324322 0.04634501 0.17533177 -0.21264832 0.29323664 -0.17556973 0.10775314 0.19110516 0.282681 -0.20410109 -0.15162788 0.22484697 ]
[0.28078675 0.1093322 -0.11574204 0.041598685 0.20068768 0.0017270485 -0.22736189 0.0055310014 -0.2935909 0.16800572 -0.17310119 -0.10223935 -0.23183496 0.070292205 -0.30441543 0.1940087 0.15245937 0.30687892 -0.24258813 -0.15912329 ]
[-0.2324185 0.25351217 -0.30475476 0.08857159 -0.027735239 0.13805753 0.023910373 0.19450274 0.26755726 -0.24468407 0.33871815 0.1524961 0.25787425 0.14364515 0.17344733 0.094645865 0.061659973 0.03253428 -0.06283661 0.2584084 ]
[-0.06928847 -0.17598532 -0.050925642 -0.13838448 -0.030082604 0.21800144 0.16327108 -0.051353186 -0.018093845 -0.10451119 -0.015096624 0.17311417 0.12057469 -0.23712522 0.06143737 0.03196751 -0.2645351 0.10101593 0.11942263 0.118259266 ]
[-0.052636087 0.08340248 -0.11480809 0.1012897 -0.2921507 -0.104042836 -0.26758152 -0.28066254 -0.22947468 0.2665234 -0.17574134 -0.0782194 0.0473013 0.08030593 -0.29289007 0.1792006 -0.32179308 0.15614891 0.057748143 -0.12807818 ]
[-0.25867096 0.13845903 0.059609126 0.12320038 -0.22995868 -0.17543705 -0.021007696 -0.026974242 -0.12285912 0.026113492 -0.12917234 0.19753084 0.1955387 0.32345113 0.02862638 -0.3687369 0.42359754 0.26940414 -0.17172275 0.22069241 ]
[0.24795543 0.06010521 0.036260024 -0.32200363 -0.095146455 -0.16800834 -0.315143 -0.20821258 -0.010054334 0.25906742 0.013134841 0.080638014 0.29984567 -0.14843225 0.009840695 0.28709093 -0.28597468 -0.040249262 0.0026674992 0.01584471 ]
[0.30148453 -0.09222506 -0.31029496 0.2695849 -0.19192874 0.054825842 0.11331715 -0.15177283 0.093410715 0.07532729 0.18321317 0.103173 -0.18756135 -0.2029606 0.21142286 -0.25935668 -0.23607257 -0.14717105 -0.05008894 -0.23601204 ]
[-0.20429747 0.030902825 0.019140167 -0.24133211 0.1729842 -0.22186355 -0.08665561 0.23040251 -0.11351464 0.009338577 -0.041417513 0.13454285 0.2776416 -0.23754165 -0.20553792 -0.060128752 0.19649297 0.12271685 -0.049140327 -0.25438187 ]
[-0.2990269 -0.11698672 0.26510805 0.14840972 -0.13759558 0.27295336 0.027558794 -0.16231517 0.24925625 0.120790295 -0.2747677 0.08608343 0.06832919 0.20997216 -0.15401179 -0.016272834 -0.09129398 0.0029578814 -0.14363487 0.030733965 ]
[-0.13868651 0.12417054 0.29528764 -0.036269743 0.22341575 0.2812816 0.05721393 0.00091538153 0.23301409 0.03674373 -0.2849631 -0.16686171 -0.27305636 0.10755344 0.04251236 -0.2831322 -0.24692652 -0.03959175 -0.09365978 -0.18382686 ]
[0.11378265 0.035384923 -0.18496756 0.06805503 0.055542264 -0.029362107 -0.26226544 0.23451664 -0.23181796 0.28029773 0.2707021 0.013117269 0.34620705 -0.15224084 0.2902871 -0.2472729 0.08433706 -0.034422755 -0.20729223 -0.08790372 ]
[-0.28080294 -0.12530363 0.07700177 0.28163496 -0.22959952 -0.30713633 0.05397052 0.29968253 0.28472844 -0.2867919 -0.13646993 0.1103362 0.29711407 -0.22630365 0.17966543 -0.010558533 0.11664312 -0.21724096 -0.23599562 -0.2652447 ]
[-0.15507889 0.07854671 0.14327395 -0.2848772 0.16835569 -0.17848922 0.02738126 -0.099194676 0.18559198 -0.2093057 0.05501357 0.26576743 0.07982087 -0.1624867 0.2740622 -0.06825521 0.22392553 0.23476353 0.1701405 0.19019637 ]
[0.20969835 -0.17038214 -0.09361769 -0.2457988 -0.21476594 0.32834783 0.31756705 -0.11738043 -0.2541578 -0.025396353 -0.067436494 0.02674143 -0.1013826 0.23299345 -0.058443747 0.26562682 0.12891893 -0.15635341 0.13931067 0.17646511 ]
[-0.0030378192 -0.15143603 -0.29893926 0.124114625 -0.34903026 0.055657305 0.2638267 -0.18439022 -0.054734778 -0.093593694 -0.22455257 -0.15070385 0.21820211 -0.12389892 -0.07220313 0.23173936 -0.23180683 0.01775663 -0.14070362 0.32838067 ]
[0.17020926 -0.2079657 -0.012725592 0.19081727 -0.006802594 0.0074429074 0.1095629 0.16701701 -0.3108664 0.28462633 -0.21513423 -0.012022366 -0.043888222 -0.25605977 -0.1806644 -0.09661027 0.10762332 0.16828369 0.04274597 0.22477783 ]
[-0.013242653 -0.010672997 0.14545652 0.059304062 0.3548686 0.07204658 -0.042450905 0.082330085 -0.1964698 -0.14156115 -0.15925184 -0.235192 -0.016968789 0.10133737 0.16423377 0.22261459 -0.060813654 0.19521293 -0.13924028 0.1847008 ]
[-0.27755582 -0.12455392 0.08713381 -0.28265414 0.078023024 0.29918814 0.32869422 -0.09306598 0.24929379 -0.10780182 0.27345657 0.2692715 0.29026985 0.30845872 -0.044390526 0.052680057 -0.005518519 -0.21776754 0.26475146 0.10512233 ]
[-0.050473277 0.058549926 0.29098296 0.03849486 -0.037819542 -0.101003364 -0.00021429337 0.14607564 0.25163 0.036060605 0.16854711 -0.22110148 0.2928016 0.29846764 0.0892107 0.2529891 0.09486055 0.09235318 0.0109325675 -0.042143732 ]
[-0.1549933 -0.25064355 -0.26799184 0.22427025 -0.2579832 0.26404795 0.2796906 0.21974967 -0.1934861 -0.013564864 0.14217447 -0.002101358 -0.19115427 0.27568075 -0.24185082 0.18319257 -0.017304856 0.2663034 -0.10297448 -0.3197085 ]
[-0.05177894 -0.024447054 0.26934874 -0.1010068 -0.24526872 -0.3161335 -0.16775873 -0.13688928 -0.19177237 -0.053172484 -0.15067242 -0.030886488 0.015719747 0.08586525 -0.23600519 0.22562303 -0.1284033 -0.0029605213 0.103120044 -0.0028391113 ]
[0.2940429 0.12575985 0.20509079 -0.11876435 -0.2046778 -0.114186354 -0.18786156 0.034650337 0.18855394 0.15941042 0.0003485712 -0.0045102793 -0.055420354 -0.10463472 0.26000887 -0.21236424 -0.2807012 -0.005111532 0.2831465 0.11307823 ]
[0.28312215 -0.029060395 -0.11074294 0.21283093 0.29375625 -0.28713596 0.0015404589 0.15445249 0.22458568 0.26616514 -0.030696463 0.06741366 0.20097528 -0.09820695 -0.18990538 0.19887602 -0.11235301 0.24519165 0.07639339 0.14206518 ]
[0.0056849113 0.06665367 -0.0906368 0.20085295 -0.24570835 -0.042169534 -0.124056466 0.026521726 -0.3232586 0.11141283 0.06373531 0.20534825 -0.23910181 0.30867454 0.05459657 0.17510843 0.18388125 0.24582137 0.13068366 -0.27951452 ]
[-0.37027648 0.21631058 -0.067365736 -0.16099192 -0.23182882 -0.29519638 0.052624565 -0.117239386 0.39989698 0.19281182 -0.3354097 0.08614089 0.2933624 -0.24687205 0.19134806 -0.06288414 0.26345938 0.19019698 0.25264972 -0.09933676 ]
[ -0.007593952 -0.0072343275 -0.006902196 0.0017405361 -0.005253922 -0.007050383 -0.026210574 0.013672349 0.013260394 0.012322871 -0.0036338053 -0.022478413 -0.0027155047 -0.0022549038 -0.0049778954 -0.0046959585 0.017180359 0.016596053 -0.0038959002 -0.001937939 ]
layer 5 Activation
tanh
layer 6 Dense
20 1
[-0.12231384 ]
[-0.24995705 ]
[-0.37986442 ]
[-0.24874845 ]
[-0.215621 ]
[-0.08428327 ]
[0.028359398 ]
[0.23262134 ]
[0.2620538 ]
[0.12700087 ]
[0.016512508 ]
[-0.47328657 ]
[-0.41721228 ]
[0.16614349 ]
[0.16740909 ]
[-0.03486992 ]
[0.28970006 ]
[0.14150807 ]
[0.08235873 ]
[0.20709053 ]
[ 0.0034855835 ]
