layers 7
layer 0 Dense
24 20
[-0.039803658 -0.2122111 0.16365649 -0.3105573 -0.25999236 0.21446802 0.31076077 0.1991866 0.2039727 0.028694415 0.3132737 0.056180853 0.084395446 0.1440771 -0.43079272 -0.21505412 -0.16125381 -0.024723914 -0.11420282 0.1648997 ]
[-0.10350502 0.22936071 0.052163832 0.20764811 -0.27094984 -0.15892299 0.37186357 -0.34426305 0.060813867 -0.17430279 0.40117922 -0.20530896 -0.18988006 0.3062955 0.3142472 -0.26787767 0.46872976 0.23710953 -0.019911384 0.040635727 ]
[0.4394774 -0.35262462 0.073472515 -0.05910983 -0.0438779 0.057230867 0.048284672 -0.18593733 -0.37594184 0.35652328 0.28951564 -0.25282365 -0.16114186 -0.2872095 0.12719403 0.20233452 -0.095519535 0.014430956 0.29809666 -0.17252824 ]
[-0.33054167 -0.061375264 0.13543956 -0.13691583 -0.26035526 -0.38376632 0.12590098 0.03638051 0.2807204 -0.18323416 -0.28820482 0.07457296 0.25204024 -0.19116336 -0.2568865 -0.10358885 0.025816005 -0.2938614 -0.0014971397 -0.05280476 ]
[-0.1645179 -0.13069072 -0.38201392 -0.20448382 -0.21950836 0.29117787 0.06393236 0.12054397 0.21728536 0.042337168 -0.028459115 -0.27389616 -0.001784172 0.16021398 -0.073911615 -0.00072342576 -0.15734632 0.13618161 -0.17963281 -0.11222696 ]
[0.13531081 -0.33573517 -0.43557504 0.089810655 0.17140137 0.08237398 -0.20967005 -0.2850717 -0.06426695 0.35965097 -0.11940491 -0.32473886 0.2543651 -0.22887376 0.09462615 -0.081325255 0.027022615 -0.17634986 -0.30354947 -0.22039719 ]
[-0.28470576 -0.37416533 -0.23529355 -0.103271365 0.2019357 -0.114062525 -0.07855775 -0.21370594 0.4369825 -0.07432939 0.456534 -0.3652717 0.18060222 0.22145316 0.12107069 -0.43140888 -0.43283856 0.45989862 -0.11109876 -0.12324559 ]
[0.03895818 -0.07066578 0.10017877 -0.067791015 0.14905655 -0.21302283 -0.27124304 -0.20365678 0.14713173 0.18729644 -0.015635114 -0.07498466 0.15163828 0.051653977 0.112532035 0.23237833 -0.48784974 -0.24514239 -0.22598127 -0.35731658 ]
[-0.1383825 -0.011728086 0.36720416 -0.34074396 0.31837395 -0.18546897 0.24835935 -0.31066206 -0.22560306 0.47021106 0.09132258 0.08365368 -0.11931311 0.039581995 -0.26763234 0.21618252 -0.120180316 0.47993883 0.33932495 0.3793677 ]
[0.35977924 0.27635017 0.0019650832 -0.11357563 0.29155877 0.10246428 0.13792644 0.22530589 0.033731084 -0.09194622 0.27531487 0.37485236 -0.1200617 0.27853203 -0.020847308 -0.33468702 0.056307476 0.058252696 0.3138481 0.11970745 ]
[-0.14286076 0.36296567 -0.5188167 -0.048064165 0.16011843 -0.029760212 0.006093658 0.078139745 -0.380445 -0.052762523 -0.18447824 0.44057685 -0.29884404 -0.08793698 -0.08379799 -0.13683404 -0.5393676 0.11218015 0.47185868 0.08193549 ]
[-0.3020329 -0.06718901 -0.09553627 -0.07908639 0.35540622 -0.23392259 -0.5116876 0.11970131 -0.38241786 -0.08801507 -0.26393616 -0.10352392 0.29105526 0.15242547 0.47485358 -0.2842998 -0.40512395 0.34477076 -0.33871645 0.3861466 ]
[0.08217407 -0.10376964 0.04798581 0.4343847 0.18909194 0.11319345 -0.23587209 -0.2811748 -0.14569958 0.1955152 0.025656054 -0.2143723 -0.088080384 -0.022810489 0.35728773 -0.18276797 -0.2070044 -0.14394948 0.011058948 -0.3452369 ]
[0.34167603 -0.25649148 -0.00061461155 -0.09274338 0.18805423 -0.030054858 -0.06431038 -0.13590074 0.049317356 -0.65800434 -0.125375 0.30462402 0.32908663 -0.3392834 0.0001547166 0.48975667 0.6632057 -0.49750546 0.13192537 -0.3779616 ]
[-0.46293834 -0.49081725 0.48127496 0.5672001 -0.15359156 -0.3851723 -0.047760017 -0.2085046 0.5834994 -0.56276804 -0.77724934 -0.33180952 0.084888436 -0.08328944 0.027043665 -0.39146864 0.35310978 -0.16620304 -0.146102 -0.019288456 ]
[-0.17084582 -0.016584562 0.29595086 0.15623267 -0.062254623 -0.14491092 -0.19317557 -0.22458151 -0.24059218 -0.33524925 -0.078772806 0.16686136 0.1127554 -0.14053597 0.57530814 -0.043498937 -0.32365122 -0.041926388 0.34872502 0.28102818 ]
[-0.2159717 0.06878688 0.08030634 0.09673125 -0.06611212 -0.28308693 -0.486608 0.6153784 0.47375837 0.0024814664 -0.005239268 0.33245304 0.30593228 0.15456706 -0.12750137 -0.27647322 0.20644535 0.040197063 0.66191506 -0.21527652 ]
[-0.7440738 -0.109728366 -0.4480179 -0.022359002 0.1325345 -0.35957286 0.0064741652 0.47115564 0.06190476 0.38939962 0.25052267 -0.2949929 -0.023075858 -0.45991874 -0.25251082 -0.19554152 -0.56171465 0.42281497 -0.09186531 0.41478932 ]
[0.2628347 -0.117083475 0.11734865 -0.5276363 0.046307202 -0.23218799 0.22605501 -0.24518512 -0.116193675 0.5198844 0.8173862 -0.201105 -0.2046484 -0.7609054 -0.34122267 -0.02911679 0.3961999 0.15301031 -0.042013083 0.1968755 ]
[0.2146574 0.008331846 -0.2297594 -0.34425893 -0.23174232 0.12852748 -0.026013397 -0.23182502 0.35685363 0.023452088 -0.58972025 0.16705963 -0.0017722507 -0.022644911 -0.12829301 0.32040265 0.07828275 -0.032886524 -0.1375801 0.056446414 ]
[-0.30855286 -0.21887536 0.25249127 -0.014206104 0.18838532 -0.1387627 0.32427108 -0.31512567 -0.2478578 0.15707366 0.119777314 0.038852397 -0.11561045 0.24980943 0.18024121 -0.1370667 -0.43353817 -0.22776252 -0.25740635 0.24577065 ]
[-0.795862 -0.059858497 -0.017742181 -0.0067499075 -0.19679087 -0.47426873 0.075013466 0.14586122 0.578082 0.20037769 -0.10222766 -0.24802455 -0.1724967 -0.16133377 -0.14331713 -0.5550055 0.11274933 0.78442085 -0.02385532 0.2542578 ]
[0.42182493 -0.009014779 0.3657081 -0.035821456 0.27390587 0.457982 -0.15182659 0.5450424 -0.035045415 0.23273766 0.6002572 -0.17561753 -0.40201506 0.12419515 0.24378338 0.19555862 0.5155013 0.29444966 -0.27353665 -0.23684852 ]
[0.11692669 0.4266327 0.06912853 -0.10607067 -0.31893295 -0.4102234 0.25421214 0.5535785 0.09424765 0.10105272 -0.3667516 0.28584632 0.08177776 0.06613144 -0.3311354 0.17233653 0.2590068 0.4126786 0.28384966 0.10391057 ]
[ 0.07801482 -0.016721942 -0.060179584 -0.03028741 -0.113997154 -0.06167709 0.034962583 -0.100016706 0.05354189 0.015004101 0.1495706 -0.03558557 -0.0131483385 -0.026708698 -0.08056709 -0.07668909 0.09052773 -0.0625743 -0.06139172 -0.017116033 ]
layer 1 Activation
tanh
layer 2 Dense
20 40
[0.18891309 -0.3976492 -0.012007881 0.23638178 -0.2209309 0.10421527 0.15276098 0.74652666 0.44242975 -0.08160572 0.048781063 0.19808829 -0.17353489 0.25773996 -0.59736353 0.5453707 0.13216867 0.36836308 0.5153948 -0.064338215 -0.14896454 -0.2101381 -0.49628696 0.0422515 -0.29070798 0.052318554 -0.337511 -0.45052812 -0.011740685 0.07432307 -0.21995609 0.0074212216 0.13669145 0.45095873 -0.05682811 0.37047964 -0.36363655 -0.3673097 -0.3596699 0.46029636 ]
[0.14149554 0.12086111 -0.2744156 0.2275012 -0.14589591 -0.2349883 -0.16568248 0.1466611 0.17720708 -0.029245708 -0.28645983 0.22228098 0.29025143 -0.21804616 -0.20202437 -0.18343635 -0.16735438 -0.26018783 0.26102987 0.13064209 -0.0055018845 -0.17181028 0.08890315 -0.25339836 0.027242044 0.09660641 -0.018959757 0.067028984 0.046872098 -0.032400113 0.40310085 -0.2211878 -0.29566374 0.18275268 -0.001484096 -0.0112315845 0.27470616 -0.018382648 0.21942154 -0.22310917 ]
[0.27924922 -0.06948365 -0.2766195 -0.24238633 -0.16017154 -0.14493443 0.24799956 -0.16314492 0.2250662 0.27266756 0.2635096 0.30823705 0.067140855 0.16801788 -0.079863556 -0.3034694 0.15837237 0.24750152 0.033211093 -0.20513788 -0.009202422 0.12100248 -0.34724644 0.1671117 -0.032047838 -0.21758641 -0.10308694 0.032915268 -0.3163423 0.11930359 0.08534794 -0.111251146 -0.019438306 0.13373694 -0.053044565 0.052252226 -0.15658446 0.019785486 0.29812112 -0.19073375 ]
[-0.034937263 0.10117877 -0.14066897 0.2205771 0.0047128494 -0.14619508 0.08880836 -0.025379041 -0.25679657 -0.13991626 0.17074066 -0.083179645 -0.09197796 0.14985411 0.12857126 0.22102308 0.03715788 -0.008738058 0.26707506 0.28208557 0.300684 0.3568596 0.024448628 -0.26542965 -0.041394655 -0.02542053 0.018413426 0.14805268 -0.124340035 -0.08612988 0.013964127 0.22776465 0.37163022 -0.29844528 -0.24228127 0.030017484 0.033656623 0.10374604 0.17367451 0.10058115 ]
[0.113673106 -0.37500954 0.3493778 0.2395328 0.020122016 0.26415345 -0.09273381 -0.007259427 0.13540217 0.14732131 0.29079193 0.2798069 0.24442491 0.41630805 -0.13771893 0.39966175 0.45832434 0.12151082 0.15560609 -0.139139 -0.1026658 -0.06074178 -0.2838142 0.07890758 -0.10887589 0.37704095 -0.48828536 -0.28789812 -0.014242105 -0.12828697 0.45547423 -0.5080332 0.13216949 0.05695274 -0.0480915 0.38762778 -0.18109703 -0.2355872 0.24472995 -0.35465932 ]
[0.30590585 -0.3062206 0.26989356 0.30027217 -0.2998494 0.11571657 -0.23024927 0.20489965 -0.28251562 -0.21720697 -0.052066565 0.39608663 0.04121109 -0.29055244 -0.058971226 -0.13604341 -0.4778871 -0.004883231 -0.061317977 -0.3393695 0.14253394 0.18938884 -0.18664782 0.262283 0.23256373 0.1669174 -0.029716613 -0.36819482 -0.21724565 -0.15427184 -0.2921521 0.025799723 0.23073997 0.28423405 -0.10480827 0.0828948 0.044573944 -0.114185795 0.22386505 0.22168575 ]
[0.082283385 -0.036128953 -0.18445174 0.2239657 -0.12843779 -0.08721101 -0.21774188 0.24026094 0.1570866 0.12312835 -0.092426345 0.03212965 -0.04762951 -0.055151157 0.1708104 -0.10955826 -0.19044527 0.16679662 -0.38661355 -0.16984276 -0.08196053 -0.38724282 0.08169747 -0.038055725 -0.17841989 0.05275326 0.38806313 0.049101107 0.055629876 0.33512816 -0.027170897 0.23980796 -0.0670982 -0.2363341 -0.17238331 0.107904375 0.13109459 0.43578747 -0.019315755 0.43616647 ]
[-0.14822407 0.013409115 -0.3914229 0.14184129 -0.17060661 -0.12062431 0.14190759 -0.36395454 -0.148925 0.050897446 0.2822571 -0.2116366 0.007321681 0.014798771 -0.018436905 0.15058726 0.13440663 -0.17836921 -0.08813943 -0.0044852477 0.15070371 -0.17571878 0.35004747 -0.15011741 -0.0017760973 0.42447188 0.49915853 0.030744508 -0.05902099 0.15463643 -0.2721933 0.07958488 -0.042321257 0.24091136 -0.13752641 -0.19973934 0.34550792 0.037771143 0.01490159 0.28949445 ]
[0.12512898 0.37029436 -0.28696418 -0.4246635 0.40784848 -0.031124838 0.054695196 -0.15375072 -0.50743616 0.28388268 -0.069126636 -0.34562796 -0.16895168 0.1637667 0.17664643 -0.6439495 0.010738602 0.4187916 -0.1599475 -0.26074862 -0.25797936 -0.011715442 0.6004423 0.37481058 -0.3388348 0.12216562 0.174235 -0.055369414 -0.09088802 -0.313068 -0.42022386 -0.014396343 -0.12829943 -0.29630247 0.27501115 -0.2505866 0.20084146 0.2749155 0.30978465 0.17962669 ]
[-0.13389264 -0.15925325 0.16894473 -0.15593253 -0.12651205 0.06817033 -0.32140693 0.19891572 -0.387745 -0.024660764 -0.2845828 0.06759872 -0.27893773 0.39476418 0.3025375 0.028365407 -0.29343235 -0.17085284 0.33053002 0.12124393 0.2830018 -0.62330943 0.047139883 0.0141437985 0.3140071 0.8193221 0.2569175 0.5035726 0.30278596 -0.17442589 0.3609746 -0.42829314 -0.02843854 -0.1935327 0.3559755 -0.09594074 -0.1174616 0.4664633 -0.18047708 0.18915813 ]
[-0.17809877 0.34086502 0.4085614 0.19259936 -0.30765268 0.2957589 -0.22618274 -0.07160854 0.5120644 0.07869722 0.21350296 0.54015565 -0.10497894 0.283924 -0.36174166 -0.085883476 -0.0068769376 0.04641603 0.07652132 -0.14878911 0.25428835 -0.1912461 -0.5577136 0.25983334 -0.03911794 -0.12936503 -0.28015342 -0.19258282 -0.044086844 0.28145468 -0.09931698 0.29339814 0.05965158 0.17702371 -0.050886203 0.2819204 0.03288674 -0.033931486 -0.028096054 -0.33335605 ]
[0.018087903 -0.19856031 -0.012760589 0.42405373 -0.21563788 -0.16956091 0.0178067 0.2793616 -0.24463212 -0.06361419 -0.14896792 0.12994471 -0.043438584 -0.60054654 -0.021150863 0.5903591 -0.32561767 0.2351754 -0.2594714 0.22479011 -0.21487129 -0.112909704 -0.10321269 0.2737402 -0.0876712 0.15396105 -0.027013244 -0.59726423 -0.253731 -0.00702206 0.4687626 0.13676098 -0.418654 -0.14894721 -0.2730427 -0.009898169 0.2930289 -0.03570013 0.108924784 0.08921644 ]
[0.19941294 0.08047883 0.054239325 0.12107486 -0.123781815 -0.44566014 0.28337532 0.08257062 -0.2601749 -0.28605345 -0.024203638 -0.09845014 0.15983626 -0.25757945 0.16463201 0.42698237 -0.026684145 0.0730752 0.05132133 -0.26709616 -0.050421935 0.16149071 0.123389795 -0.23518638 -0.26581907 0.12999345 0.11169024 -0.12198064 0.17745104 -0.15647464 -0.1544725 0.2612811 0.21218535 0.061338037 0.112696886 -0.3625897 -0.05830914 0.24604663 -0.015738271 -0.15593462 ]
[-0.17378719 -0.4084127 -0.10400255 -0.1443315 0.26287898 -0.1483948 0.0895441 0.11187386 -0.07862735 0.03579128 -0.05367036 0.34468293 -0.039773654 0.24529752 0.06380939 0.31943202 0.26651922 0.1786865 -0.04967893 0.299772 0.061021265 -0.049671777 0.062152985 -0.27083766 -0.26842865 0.023200907 0.076500505 -0.056179915 -0.059379045 -0.21016447 0.2091053 0.21565299 -0.012384503 -0.31357503 0.15668675 -0.08317833 -0.14771481 -0.09507931 0.1602628 0.035511486 ]
[-0.25168085 0.02909781 0.28105375 -0.02227152 0.20864572 -0.21754552 -0.20270687 -0.32334596 0.21918213 0.17775632 0.056209754 0.8585915 0.2935664 -0.03440702 0.27428702 -0.12797019 -0.100771375 -0.4400738 0.16650222 0.08344509 0.5735834 0.4866861 -0.05665404 -0.39322862 0.20304702 0.07408643 -0.640916 -0.6273933 -0.36102644 -0.090657905 -0.26993144 -0.27733773 -0.24139443 0.26660898 -0.4260822 0.37331337 -0.29299623 -0.2573228 -0.2469593 0.0129040945 ]
[-0.27326724 -0.26266962 0.031355184 0.108800344 0.25465423 0.068468474 -0.04442624 0.73850954 0.061171673 0.049795587 0.25923485 0.18508069 -0.42938644 0.5418368 -0.3125832 -0.021389479 0.15644366 0.56209385 0.25747252 -0.18134634 -0.33504662 -0.10683448 -0.4234531 0.3932482 -0.38338688 -0.108071685 0.013206073 0.091819264 0.06693625 0.21402116 0.19405612 -0.09614265 -0.26602927 0.27543464 0.20240355 0.21123146 -0.004094695 -0.18793659 0.0867157 0.19308808 ]
[-0.033898264 0.24557345 0.15481436 0.54813135 0.31142825 0.102736495 -0.12281209 0.13074881 0.22890824 -0.14138764 -0.1954034 -0.48960897 -0.6109476 0.58283293 -0.28503022 -0.22159192 0.050010864 0.58495915 -0.09727772 0.18083577 -0.35099578 -0.3225346 0.056979522 0.48267314 -0.4572249 -0.44422427 0.45560557 0.34879336 -0.30006915 -0.29425117 -0.33771768 0.33386275 0.33208758 -0.07159543 -0.23236337 0.014245343 0.63824755 -0.29735187 0.14608626 0.23282804 ]
[-0.28236425 0.027165465 0.0058689164 0.21778646 0.07423832 -0.09657949 0.008409805 -0.27272075 -0.08732302 0.19775039 0.04932053 -0.32110447 -0.08438343 0.13075438 -0.13346612 0.030151898 0.1692527 -0.111578524 -0.045193873 0.12772201 0.018960688 -0.35477248 0.17563768 0.17467521 0.446139 0.072639056 0.22683641 0.56455106 0.38239914 0.054240547 0.11574674 -0.19267699 -0.414612 -0.027381305 0.4391356 0.09972311 -0.102335356 -0.20478773 0.18407013 -0.31596076 ]
[-0.33664685 -0.105931595 -0.4749215 0.20815955 -0.2177028 0.13142101 -0.04859354 -0.22024405 0.1336532 0.044050273 -0.09702704 -0.1107358 0.30285406 -0.4713116 -0.2567047 0.25896347 0.062130056 0.008219896 0.082619585 0.030324237 0.059006117 -0.16556376 0.18146788 0.4764756 -0.3910593 0.10249622 -0.17889199 0.0030139857 0.13329835 -0.36507326 -0.1924979 0.029092355 -0.39403245 -0.021321058 0.330471 0.21230438 -0.17172807 -0.022786785 -0.13043378 0.1817822 ]
[-0.031549983 0.2234659 -0.17261936 -0.2798836 -0.19071148 -0.18138906 -0.16645084 -0.16711451 -0.10320566 -0.21362899 0.13325185 -0.4039611 0.1381319 -0.029573172 0.12882733 0.10288405 0.08119832 -0.24721302 -0.41646633 0.19678256 0.059793223 -0.3541492 -0.16773963 0.10734226 -0.019860612 -0.033625692 -0.20281373 0.0036839894 0.16644762 0.22504118 0.19892545 0.20873362 0.033203963 -0.3516533 0.28663963 0.17706636 -0.07918566 0.44095275 0.13483845 -0.06847288 ]
[ 0.03459952 0.07190543 -0.08246576 -0.028604053 -0.026718082 -0.029708507 -0.02889599 0.017519921 -0.016845338 -0.054964297 -0.06443186 -0.25253448 0.017708102 -0.087134786 -0.08932773 -0.05227806 -0.13748254 0.017229598 -0.12156099 -0.036066096 -0.024649289 -0.030187543 -5.425955e-05 0.04856028 -0.020700447 -0.05322084 0.26874802 0.1713705 -0.03412349 0.045282956 -0.041836623 0.09926885 -0.0070463624 0.060443074 -0.023849053 -0.07088218 0.25693363 0.1447869 0.010506242 0.10363284 ]
layer 3 Activation
tanh
layer 4 Dense
40 20
[0.09387143 0.1796186 -0.008234454 -0.35555425 -0.42345402 -0.09842973 -0.22741993 0.06278645 0.22283699 0.1930097 0.069417216 0.16051877 0.119291365 0.31170645 0.09239248 -0.23162797 0.071082026 -0.27011862 -0.27810436 -0.057633214 ]
[-0.14789322 0.39620632 0.11336863 -0.31954718 -0.43854854 0.17825478 0.3432803 -0.2058411 -0.045685984 -0.015199106 0.15589175 0.10866125 0.066895984 0.5090414 -0.026516905 0.15555891 0.12303183 -0.10626468 -0.19095069 -0.06911929 ]
[-0.31502447 -0.2702299 0.0009894574 -0.3305534 0.16034517 -0.06457309 -0.2502505 0.42767024 0.111763686 -0.35865828 -0.19071548 0.35308456 -0.07681697 0.04527193 0.10171401 0.22861233 -0.3388193 0.41709194 -0.32022667 -0.17825177 ]
[-0.00541028 -0.14383946 0.28729516 0.20900114 -0.25472027 0.30444533 -0.33296046 -0.16892831 0.12509386 0.10176719 -0.19274457 -0.38581303 0.258744 -0.14081925 -0.31646025 0.24624453 0.40333542 -0.3291082 0.40383554 0.27538136 ]
[0.20948005 -0.29243818 0.34019417 0.020307753 0.34933418 -0.26148072 -0.2470301 -0.14373027 -0.18446892 0.42804712 -0.15222487 0.12991068 -0.091114625 0.11530477 0.25236923 -0.24802037 -0.2799762 -0.17995708 0.37126586 0.088604674 ]
[-0.08294415 0.053172104 0.11554211 -0.16676499 -0.20818602 -0.13628212 -0.076668665 0.043818027 -0.13144384 -0.5109288 0.19447257 0.06386051 -0.054464944 -0.2970727 -0.23285429 0.17631803 -0.16726011 0.13667287 0.1599205 0.3913627 ]
[-0.18185797 -0.05285582 0.17664656 -0.12115465 0.23215435 -0.23371285 0.27522248 0.0061030444 0.04123324 0.039137445 -0.13634904 -0.042970918 0.23264122 0.020848496 -0.22979021 -0.05603741 -0.094371006 -0.39688435 0.0906541 -0.30583942 ]
[-0.24218734 -0.2795788 0.38788414 -0.007570607 0.15571782 -0.13641061 -0.57024276 0.08804179 0.23554665 -0.035092756 0.24342307 -0.277785 0.06099102 -0.4388033 0.11156643 0.1620318 0.14977586 -0.24128523 0.11358988 0.018076025 ]
[-0.27267307 -0.12175354 -0.22639072 -0.53542155 0.06483364 0.28205577 -0.22447155 0.15370068 0.27443123 -0.18857314 0.028281892 -0.043031003 0.4204681 -0.105491616 -0.587398 0.60864645 -0.2443517 0.23007104 0.06658297 0.3959978 ]
[-0.19824532 -0.31736943 0.079927206 0.12390087 -0.09182268 -0.07732442 0.058484823 0.14997585 -0.07184414 -0.012564907 0.14910801 -0.12206851 -0.23008989 0.17546041 -0.1343832 -0.23882647 -0.24213548 0.014294848 -0.096823 -0.17424469 ]
[-0.1579442 0.071387775 0.0060188426 0.06627458 -0.10807456 0.12706324 0.08820214 0.34033707 0.17169653 -0.054967634 -0.04907726 -0.19030783 0.22198732 -0.2142384 -0.31381348 0.10388527 -0.34285307 0.25819793 -0.039924756 -0.24407966 ]
[-0.2975216 -0.25078803 -0.014716842 -0.4828766 0.08461453 0.48499438 -0.18419594 0.21809502 0.11221975 -0.37105405 -0.10863264 0.2744777 0.09231299 -0.376073 -0.6604418 0.39124462 -0.42766127 0.21684247 -0.3302647 -0.024909826 ]
[0.2940109 -0.11271671 -0.20709768 -0.301536 0.0022710403 -0.14187774 0.3996573 -0.21915928 -0.21432161 -0.10798842 0.09781287 0.13217099 -0.086084686 0.13176 -0.34234872 0.3013402 -0.26925975 0.03618639 -0.13764144 0.11867816 ]
[-0.23669723 -0.36483014 0.4393838 0.3116057 0.011161098 -0.056333847 -0.36098212 0.16973893 -0.09374674 0.20519415 -0.4127057 0.11363165 0.12588778 -0.073418185 0.30722874 0.18073523 -0.031416867 -0.061913267 0.35537806 0.34485316 ]
[0.33011916 0.005301383 -0.16501753 -0.36978337 -0.096739076 -0.021890603 0.32737336 0.04507044 -0.011644749 0.17962319 -0.2763304 0.027019667 -0.12838446 0.2264663 0.3922093 -0.2951089 -0.28223017 0.40062383 -0.058778923 -0.23788781 ]
[0.28881058 -0.13366835 0.30186614 0.32168886 -0.0122055365 0.29367083 0.038082153 0.078458294 -0.0988016 0.188065 -0.0121707395 -0.3642385 -0.15126729 -0.2617181 -0.16521716 -0.13625553 0.20650661 -0.1901589 0.34056956 -0.1892232 ]
[0.34302655 -0.12965222 -0.176041 0.18751292 0.342685 -0.24696633 -0.025852837 0.3061757 -0.23603933 0.060586605 0.026506353 0.23909098 -0.23737514 -0.04543544 -0.0142811835 -0.064804345 -0.34650487 -0.26572245 0.3095131 -0.020522496 ]
[0.016613878 0.08908887 0.5075777 0.27022275 -0.15566356 -0.3246818 -0.2738966 -0.3286858 0.36547363 0.5930957 -0.10266287 0.076590866 -0.06498047 0.0655431 -0.04281409 0.17761375 0.30211994 0.08140441 0.17702891 0.34854552 ]
[0.31558463 -0.29778254 0.2055593 0.13022599 0.38479367 0.1181457 -0.098943785 0.1881847 -0.25677824 -0.098186105 -0.31196004 0.21580759 0.29641223 -0.08470277 -0.2195262 0.21986818 -0.11620861 0.05700574 0.24709876 0.08406166 ]
[0.061720584 -0.15607998 -0.24754818 0.26484454 0.38810277 0.16328052 -0.0061675464 -0.027745198 0.116261795 -0.031797778 -0.001773837 0.16226797 -0.08851031 -0.17168061 0.10347156 -0.14614175 0.07483227 -0.14189124 0.26168683 0.07241457 ]
[-0.27105722 0.05647189 -0.14263539 -0.35214078 0.091118224 0.27613404 0.21813627 0.12162641 -0.31388527 -0.17484938 0.07670088 -0.09262679 0.30085522 0.03273452 -0.11329681 0.035628233 -0.25978595 -0.083652094 -0.45277065 -0.104427844 ]
[-0.43273482 0.21175316 -0.119201 -0.35786432 -0.084476106 0.26983288 0.32817096 0.6325178 0.19112366 -0.16863878 -0.24071893 0.43219852 0.5359622 0.15541367 -0.0847141 0.38298127 -0.26989973 -0.28345016 -0.34179026 -0.53307474 ]
[0.1906643 0.25109053 -0.14404674 0.52032495 -0.24303275 -0.43895963 0.4124264 -0.07856272 -0.20570418 -0.079720296 -0.35777926 -0.03513484 -0.019363135 -0.11678208 0.41222808 -0.40598133 0.23460403 0.1835977 0.44528845 -0.16678555 ]
[-0.3477964 -0.12515633 0.049327254 0.2245055 0.1933892 -0.2214536 0.10554868 -0.10298701 0.2029742 0.01955417 0.079041034 0.06416793 -0.2990964 0.03937638 -0.09794917 0.27409026 0.36765495 -0.30328128 0.12196219 0.414431 ]
[-0.010342861 0.30754068 -0.1092446 -0.5086914 -0.19374768 0.043290466 0.18945092 0.0433225 -0.35903236 -0.0081813345 0.24907893 0.13312079 -0.14160445 -0.28247812 0.11167953 -0.03305389 -0.23422384 0.48034966 -0.089973465 0.04094576 ]
[0.28753266 0.05090351 -0.120077826 0.124566056 -0.095365226 0.15367182 0.010419548 0.15485221 -0.4781787 -0.37281692 -0.19167584 -0.19992308 0.11389584 -0.27163854 -0.1940878 -0.32727647 0.27623647 0.32539338 0.21323036 0.26274115 ]
[-0.13474226 -0.00061138906 0.13331757 0.07894591 -0.5005285 -0.20931171 0.18076627 -0.49935856 -0.24439597 0.32752427 -0.14484312 -0.06758572 -0.11863244 0.30397516 0.67152405 -0.012184045 0.5796365 0.14239585 0.30271253 0.112531155 ]
[0.27315155 0.03303914 -0.23079579 0.41468868 -0.29376152 -0.32883477 -0.18206303 -0.1194682 -0.25203663 0.3484983 -0.22074695 0.1414509 -0.110140376 0.07610918 0.28330705 0.18281831 0.09263756 0.27697748 0.19770576 0.23657599 ]
[0.23892635 0.20671445 0.08202247 0.24752985 0.22376631 -0.093268454 0.11622916 0.09937459 -0.35657108 -0.104781665 -0.019443829 0.0943806 -0.5055889 -0.31130362 0.20436123 0.06674045 0.3154722 0.2471946 -0.14584166 0.10953226 ]
[0.08637366 -0.0069558034 0.02794731 -0.018756706 -0.27004695 0.024068227 -0.065123215 -0.069829606 0.030508796 -0.01256443 0.3651945 0.18278678 -0.27088922 0.13858108 0.012346229 0.13213387 0.14090474 0.1703354 -0.4138233 0.18752667 ]
[0.24853487 0.04243854 -0.07781883 -0.22412789 0.14284834 0.041079856 -0.1258691 -0.07583816 -0.26154155 0.046181664 0.21785706 -0.31616333 -0.27923268 -0.0099955145 0.21485396 -0.28829154 -0.21086489 0.10489901 0.28603187 0.22963649 ]
[-0.05412057 -0.0535076 0.024504887 -0.23317337 -0.5017379 -0.1618523 0.2444309 0.19592753 0.4885369 0.010864225 0.32344267 -0.15171243 0.44395766 0.43335006 -0.16801645 0.03102684 0.3359022 -0.075256735 0.0046712453 0.1252551 ]
[-0.057441004 0.16008446 0.16149937 -0.35278523 0.07875257 -0.25838712 -0.2141021 0.22653766 0.112319805 0.11126665 -0.15595245 0.2483114 -0.05563071 0.18728334 -0.44582415 0.063184954 0.06377563 0.1839789 -0.21915652 -0.23038474 ]
[-0.25978827 -0.15406333 -0.2375687 -0.09245413 -0.05167102 0.35988724 -0.21817057 0.4855865 -0.022235015 -0.027059993 0.31352106 -0.21366501 0.3961226 0.026915334 -0.45974687 0.42656305 0.07214055 -0.14984493 0.16139917 0.29945076 ]
[0.07620142 0.15762934 -0.13719366 0.32578975 -0.19425529 -0.007398804 -0.08889346 -0.45864788 -0.15327074 -0.42793286 0.03283118 0.03731124 -0.069871366 -0.16186967 0.3863996 -0.2546356 -0.13159505 0.12853403 0.4005005 0.15664077 ]
[0.08941037 -0.2539275 -0.0067432434 0.09381033 -0.18522291 0.35648888 -0.38025904 0.35010973 -0.206509 -0.106231056 -0.2835424 -0.32887167 -0.15615216 -0.34019667 -0.55904245 0.3061933 -0.3157016 0.19894405 -0.1937285 -0.22306392 ]
[-0.19142391 0.15328278 -0.2147356 -0.07298366 -0.16383073 -0.076700695 -0.23698428 -0.107563384 -0.08599026 0.3773888 0.17854142 -0.14002852 -0.06472018 0.36795133 -0.025399324 -0.16092823 0.39309895 -0.059141714 0.24246852 0.019060278 ]
[0.14397058 0.4371542 0.024418695 -0.24289703 -0.41680878 0.009696471 0.200888 -0.27176762 -0.08572178 0.0093873115 0.1571943 0.092612125 0.061858937 0.028900553 0.35185364 -0.095764756 0.22621459 0.32335836 -0.035744518 0.081594735 ]
[-0.24007513 -0.22633466 -0.023700407 0.040239073 -0.24266583 0.21513166 0.21462296 -0.10511081 -0.15939139 0.2606722 -0.11501102 -0.025690563 0.2096462 0.14807926 0.1140095 -0.3461124 0.2806227 -0.2228367 0.0029114606 -0.100159995 ]
[-0.19547038 -0.21384835 0.1880206 0.4125238 0.34111542 -0.5071834 -0.05277723 -0.20715928 -0.15077898 0.32244048 -0.13633308 -0.3532829 -0.29256812 0.13113928 -0.25531253 0.15324536 0.47959256 -0.15676641 0.4040026 0.3273234 ]
[ -0.051862817 0.053798866 -0.028388621 -0.021604624 -0.14311036 0.013688105 0.043855812 0.0014919708 0.03907269 -0.12315178 0.06087281 -0.0014958535 0.024985263 0.055231128 0.01415294 0.045248296 0.10320066 0.046241634 -0.024872128 0.011065227 ]
layer 5 Activation
tanh
layer 6 Dense
20 1
[-0.40392983 ]
[0.6785939 ]
[-0.5249968 ]
[0.327626 ]
[-0.28775865 ]
[0.6947725 ]
[0.7179772 ]
[0.43363583 ]
[0.53724784 ]
[-0.25674123 ]
[0.6439601 ]
[0.40869242 ]
[0.4095446 ]
[0.6884151 ]
[-0.43190822 ]
[0.7082201 ]
[-0.6850927 ]
[0.44583794 ]
[0.3315285 ]
[-0.3971539 ]
[ 0.17599565 ]
