layers 7
layer 0 Dense
24 20
[0.12753626503955032 0.16494923171136683 -0.18486058225447255 -0.07722939246745465 -0.21527826462135113 -0.053109579777033566 0.057186699233370754 -0.19714862741400482 -0.23401083797186625 0.019632219584496888 0.18004263390530625 0.2602207514070132 -0.19413520952435373 -0.24010189390138725 -0.2916984443414165 0.009135864994699969 0.16166770076352052 0.329536986567313 0.0673225261640286 -0.07549216881917403 ]
[0.020445093350520856 0.31379898892017 0.003759856330151558 -0.21270117563683516 -0.23899090462120523 0.24915826792074347 0.1642593370437738 0.3107281853221564 -0.2848659845343608 0.1014555443328538 0.010128329837268649 0.3223053147826184 0.28109864779087457 -0.2682415488938563 0.1881115793723236 -0.31111977913090705 0.17503016940780794 0.15856235276012182 -0.3265327632597913 -0.07673433209977583 ]
[-0.3293369718336305 -0.030345768955946432 -0.13022434384704218 -0.4331921935868638 0.09887126275933329 0.4142613150394708 0.08820088338003075 -0.3340767688933828 0.22019410205909895 0.0766942366719818 0.31335113520651314 0.1919918672551222 0.012689438768177118 0.23034080022098297 0.01254356811250932 0.24222345277230578 0.20246971127738225 -0.05292609050896215 0.27664019777585597 0.3206311296881153 ]
[-0.009479687821175453 0.2606540835984312 -0.2849434464255456 0.21777252319382123 -0.22185291695939446 -0.25286377558127887 -0.15753751775347163 -0.2521497490635521 0.2778915810501152 0.28667723327593353 -0.30734535532087487 -0.05096592435096663 0.014059695603326943 0.157254171645899 0.21406745747971206 -0.1678155457898243 -0.17200761248103003 -0.2591832332289117 0.10883733334015544 0.16173382803980682 ]
[0.4060344624628654 0.21114264583361242 -0.0034436037516849993 -0.07438707752779085 0.2534486683326097 -0.20950855971142768 0.047506332023527956 -0.1034569318474238 0.33003676743554033 -0.3483767231741303 0.18405242008003153 0.2731916768047091 -0.0532676979188807 -0.27540887367267713 -0.2654961488766343 -0.29243322325775584 0.012795393042207379 0.193079477533616 0.2644042231375088 0.331720192681947 ]
[-0.3706192245715272 -0.12865246277730372 0.2281176827348959 0.10770539186386813 0.09565619411235343 -0.29238250978366526 -0.15011571945360133 0.22488370789805714 0.3066767520787669 -0.20317200410343553 -0.14058800382828465 0.08470962012412062 -0.032902741607918055 0.1707647718972276 -0.32638395247524943 -0.18079645168403 0.11656331933157603 -0.30669987631772616 0.32837979901878783 0.031468327598363745 ]
[0.15871822050234338 0.12185515218039066 -0.24882253847877803 -0.10492880533448218 0.05688099744694511 0.2598823581727708 -0.3367671709180238 -0.3018914505251296 -0.02429362817973258 0.04526074497131484 0.14038440717987952 0.18059799444674796 -0.09121116763330037 -0.19533274576023826 0.23835008062573668 -0.2507878564460037 -0.17795559477684528 0.3341636349179328 -0.24191301845300342 0.14375933641476546 ]
[-0.11566771298485326 -0.05709324571585919 -0.44716713695479043 -0.21156668950716923 0.11142298236026253 -0.2760327890254032 0.2888558700302812 0.3467038376893502 -0.0224948906303229 -0.003985211603381306 -0.2338356336167766 -0.10068648098946062 0.1599966463183108 0.07591233217207402 0.2785703728989772 -0.10240620889829286 0.10416204715791329 0.2754191434666514 0.1461436063573352 0.05375790787569069 ]
[-0.15741339621568468 0.1499698185211232 0.12698863492568876 -0.2527254710515607 -0.017602813030534556 -0.2121403678562417 -0.4036852130286386 0.2610616914274905 0.383309506530378 0.0625630683655446 -0.2561836268370652 -0.16011295310814863 0.08433171993723548 -0.20552687984818444 0.1213841419769211 -0.18705743315007653 -0.3312228131328654 -0.40004681714162704 0.35945244860696257 0.21469141875910122 ]
[0.2427457706085741 0.369684212960529 0.2902056522452289 0.13758891709902807 -0.1551109565036294 0.4471404194326815 0.36605768998290233 0.31449849086571086 -0.00995420223394631 -0.3035885050201547 0.1129059651177662 0.3443584821266038 -0.0567920799486572 0.03190617421437521 -0.029489008952874457 -0.19945746733531647 -0.08662822679675164 -0.34054270125671066 -0.014631281525946357 0.4534204989075595 ]
[-0.2951686121148579 0.11132474743356723 0.07514021421838767 -0.35517427992322753 -0.052258184504748215 -0.14046871325817012 -0.021229973608412236 -0.007682024668258903 -0.008468887042419214 0.17374808654281224 -0.23002883127212786 -0.2456600865153875 -0.0065632344849261715 -0.2326172139469684 0.1533619488662026 -0.27652064536485443 -0.23382749955587404 -0.14116699353166634 0.31752917590888613 0.1402482233555295 ]
[-0.14515878153928755 0.21597443203075556 0.1571329862035909 0.218337709047689 -0.12209305078905998 0.41832792357545634 0.18933499545518817 0.029753624715701858 0.19694686829521232 -0.2854332286706364 -0.006379987192725578 0.2282934941472091 -0.09342667650389436 0.3108071620754132 0.25747952154898196 -0.3166678361752754 0.04224423155787713 0.28811501721883925 -0.2876805520563007 -0.3167814818820412 ]
[-0.265360402124246 -0.11503720102494482 -0.059373356550388175 0.28296016914258054 0.2698944952787045 -0.2386793292409102 -0.20465912029570854 -0.18819437139833814 -0.4000224099874809 0.22498838129938792 0.019450769392124097 0.1250480306604668 -0.2404081444223662 -0.430639610649523 -0.2511768814965748 0.292259410504394 -0.0030497855548912225 -0.3032160270857958 0.3190818223625584 0.1311614583776087 ]
[-0.034143077912021834 -0.038352499799485955 0.016165344264020252 0.053155833963398284 0.21619262297956088 -0.09412055493550696 0.1641332106997838 0.2257561150888776 0.2634460813352381 0.389885415363132 0.40634794858178913 -0.16020261422787693 0.07076760322567822 0.3605156614186807 -0.1592189296379191 0.3194070057275211 0.04653788218701416 0.26792594775828554 0.08813559900383662 -0.09697420577990973 ]
[0.39185679134294227 -0.16923057056020846 0.3615672477879407 0.2936866032323811 0.5066789661478689 -0.14914300553506318 0.23945307856862866 0.3206131709292679 0.429313559169624 -0.0075779574846115035 0.27431167878217977 -0.3615960660538991 -0.1997713866210354 0.048575332780611644 -0.28954707984095696 0.12158018505092147 0.20823536438494983 -0.3601447060009503 -0.40602527220490836 0.4033006161663863 ]
[0.17385713779915282 0.08221066792670528 0.3721932478001379 0.2306186439413631 0.4037782769560391 -0.47891680946587484 0.4288133194679287 -0.1580880731395593 0.11505138910887998 -0.062155800026929546 -0.11835336801776426 -0.06672593016602855 0.07152947589218239 -0.1885062997164735 -0.006453408511891363 0.1793366320016587 0.2365764104290434 -0.1503523525557955 0.2771819077630084 0.2388731667135735 ]
[0.2940576325060299 0.31423986564216777 0.1794167357753006 -0.04352661419287263 -0.15607029589731772 -0.15849168774609337 -0.05345070918017666 0.020829621845188124 -0.3189579561814111 0.3391254619662839 0.4145534841755192 0.36660587720887644 -0.17481622672670505 -0.3656749577535357 -0.24124429912399623 -0.276419835165473 -0.14535272327783014 -0.3768054345564568 -0.09677304809473503 0.09378083688756514 ]
[0.10971041550689625 0.3422559593447758 0.28447184582428536 0.4275148726468347 -0.32903424972054496 -0.2334755239318277 0.3154967851403975 -0.1209350175189592 0.3256391768141585 0.44247167589787134 0.0832819215499839 -0.15684614954309098 -0.1963081416173596 -0.10793699426759236 -0.07632543146809644 0.22341624151450837 -0.08350116457295424 0.18579616848600353 0.2424717758137641 -0.09550439124949554 ]
[-0.24786479274686418 -0.2108847048507342 0.11476584989877207 0.23900141500597372 -0.3830599294290081 0.3057766423518521 0.18230435413709223 -0.06907609040419282 -0.3906180956082473 0.010278244744597993 0.35809474818636117 0.21335780026901252 0.21214408537661344 0.37829348645861854 0.03924547045702781 -0.08470733307868948 -0.1317637886676817 0.26220026923274226 -0.02577525632469447 0.17622497230245635 ]
[-0.12724037879061062 -0.2640005314724559 -0.14463677098896352 -0.26186198137091027 0.15134490330631503 -0.07264225525130352 -0.0570526037901363 -0.02510080412204319 0.09325308218561262 0.18344906568904876 0.3783709376667559 -0.18174072268582145 -0.3199836822078313 -0.1349295128017788 -0.10583075156600785 -0.18021938070921206 0.02287791918560546 -0.07941077813308801 0.044292074838182274 -0.1303256958096093 ]
[0.3037153980453143 0.08870565400890622 0.005637715581931891 -0.09545827859459408 0.2242049158575579 0.22516971907900882 0.28234964487125463 0.11476829641454295 0.033684478871198444 -0.25110667555931393 -0.30467843823679824 -0.25471832219366897 -0.13631866563290804 0.315508162554679 -0.1776642612160193 -0.027637328121483767 0.01433455588419142 0.0331219051330092 -0.2805080020059135 -0.021265630622934475 ]
[0.5074143651381482 0.3550280507677139 0.26313487891153076 -0.037278226056943656 -0.017211514310450222 0.3799978941811052 -0.3038590720089515 -0.399284273592487 0.3831434688306165 -0.4791139774133658 0.006663424753119403 -0.36083247620655595 0.2781414574492549 0.08666003354310037 0.13215112320822806 0.07060169726459817 -0.1684802964585367 0.05992621646146645 0.39926175612900733 0.2819106942663593 ]
[0.01490327414295371 0.29562452058062655 -0.18715036228548868 0.19075599481277383 0.22796182751411925 -0.12413313794506446 0.21892734835990818 0.12480830558631471 0.20102887698314306 -0.19679550385620392 0.2389569602267527 0.26920124786977523 -0.36167149425203443 -0.1281690899233378 -0.17508974170364605 -0.09253287271561175 0.12200887705139885 0.31183693892944236 -0.025075969164102426 -0.242125349784245 ]
[0.36745297441230657 -0.22226820152555649 -0.11895854781382095 0.021650535261722826 -0.017797850944860416 -0.2994440070980252 -0.20428104500383945 -0.2924267007983001 0.3115800992931889 0.10647855182738582 -0.18230980825016224 0.08115113095942741 -0.08648943238015519 0.26856101230663915 -0.19632418769856885 -0.19141653438577 0.15267778118231898 -0.2847945822001143 -0.26264457020644844 0.26201856011093455 ]
[ -0.014792698553243439 0.0028716824207424174 0.07294181400318732 -0.09437239990512798 0.09794521826743229 0.0665168969245314 0.023641135048888436 0.02371975977691511 0.02009400926868857 0.01081884417695202 -0.081958303842808 -0.01897549954994681 0.05261601094788221 0.0288835885801936 0.03849973118728158 -0.023964201481023798 0.02514319718142082 0.0323336034832117 0.015951983451607282 -0.050078689398236724 ]
layer 1 Activation
tanh
layer 2 Dense
20 40
[0.2784699405267293 0.09807457314494498 0.25573053797518547 0.2770887251392045 0.24772481961387027 0.22052629010601055 0.2314803454686331 -0.25781882976387527 -0.021436992407102718 -0.1826283580928851 0.24731912812050058 0.28484222560344624 -0.2529633343499954 0.15516831809575646 -0.15629213528501779 0.12469138831484641 -0.18489801887609672 -0.18468046957096557 0.09939827876701106 -0.20802563381457678 0.19265394872508199 0.22107740725847083 -0.2884603096461446 0.13848484520547477 0.11207998976850418 0.01619771616319578 -0.19835890904161999 -0.24332868511303463 -0.02904320279994893 0.2687918960333792 0.24213871572702733 -0.1255048290602969 0.11427368214080476 0.33037173688665145 -0.026662430162702064 0.10197551196836453 -0.17637562452388936 -0.06675240057956607 0.08376362402156672 0.12572604745656102 ]
[0.18398099269173182 0.09612963289491962 -0.15165626674766045 -0.18754231772702354 -0.07874918679937419 0.15384406400381323 -0.2817701895420469 -0.1529720017938194 -0.03621778154085996 -0.22913012029371765 -0.22000267272107915 0.13172906738372914 -0.012599480169402176 0.009915464016366097 -0.19713059762970062 -0.3600698528127924 -0.23843835902221922 0.08812680910497553 -0.03320181228214868 0.16319052724045094 -0.21169861808099816 -0.27787569986018607 -0.11996891300646072 -0.007398578627038747 0.2572359894526999 -0.16037083276417374 0.21788918905964852 -0.1479642009282452 -0.2629539421723052 0.28132657698464647 -0.2351122719494989 0.23324600853139626 0.27090459880327966 -0.2695756350516682 0.06320208615248425 0.2574982530714771 -0.031116196785462884 -0.2013799947307086 0.26451988227632467 0.12228642817451706 ]
[0.13903251395150992 0.1781965509557691 0.2977784117849768 0.02137073974390852 0.030347842557449274 0.12117449192697867 -0.20452862413810638 -0.20968611971332113 -0.07539025229075934 0.08333378541127191 0.07434495045730184 0.23870267729208564 0.18524073902034865 0.013721291043199853 0.2719767773761366 0.1924105588999647 0.25201509605320893 -0.2595867014536808 0.1711903199930783 0.07708584631617658 0.005774318697506376 0.10284198511829333 -0.32216429434197574 0.061541890019434005 -0.12595213383081927 -0.12777535755869296 -0.11574392408268401 0.3229295382982983 -0.22046018459714248 -0.2235667037341219 -0.056308150679184155 0.17745598819072736 -0.16128599455520445 0.1540843368417858 0.14686068528974594 0.13900278862666848 0.059015864321872405 -0.3918821630357337 -0.3125778176498893 0.372854575275971 ]
[0.12022518915089296 0.10250067702345438 -0.256077649873321 0.2282224805364838 0.2668831349724681 0.2690811715867978 0.2662476226812808 0.14950147695604935 0.1473950382650089 0.05416143970357006 -0.17447657710320258 -0.29833097058686237 -0.008479495947383921 -0.29348159171875027 0.08746534860949175 0.2462284232619657 -0.050758384325357564 0.30590536737532487 -0.029340196189873425 0.011141865987926821 0.06965259071489172 0.18896939704138238 -0.1351194907800025 -0.2551329181913727 -0.23640152382897334 0.2856190766614118 0.26273795484106854 0.23618812980790369 0.2264897363525243 -0.2142760636673504 0.013621755159329833 -0.19700978967221877 0.1147207864766448 0.2988060729944188 -0.2593767836497668 0.30773548719044114 0.13801542061657396 -0.06301345157742348 0.29297138987156435 0.09578894379194872 ]
[-0.14759247086286925 -0.08089084407493037 -0.04554928253368461 0.12723460203889353 0.20066853751987238 -0.21422174707040392 0.2633491224852277 -0.11264627305458581 0.192805565892224 0.3059278376560026 0.24699561169882608 0.19602768983235025 0.31859047830802895 -0.10374801616283565 0.2464861614262336 0.35771991112606866 0.3221240839386114 0.19392660736787182 0.059411580351144494 0.29732634791194335 0.14724497327760896 -0.22067256229011492 0.1970109718250389 -0.08236387279284632 -0.10827980809465583 0.0039575608844587455 0.013214339102498227 0.306409525267038 0.07658820628561698 -0.21897498804760887 0.13605591487965485 0.24026985810088167 0.07074860799165837 -0.2066711162745518 -0.2445198423766176 -0.24072762626803965 -0.08194434762181028 -0.18354932389338513 0.1831676331533792 0.12083073239145306 ]
[0.33005441801297064 -0.18877671019245268 0.13312241965007582 0.20064602829013384 -0.3461043894194972 -0.26672823003667706 0.1483893175471467 0.19854850303363827 -0.20150755001156637 0.18350995182466398 -0.19793727752582907 -0.04163514159643062 -0.012860211246141166 -0.12542201157067484 -0.29829280400259633 0.030964659295668884 0.14658109243398765 0.1736912883756481 -0.28364139759447854 -0.07663218148597455 -0.21120068537446451 -0.21396478045632117 0.07598342103703369 -0.2831968158253076 -0.17132053203730235 -0.13577207064466584 -0.0589852709815665 -0.16764368037403077 -0.08374636419460355 0.04718833837279609 0.043819306371487336 0.1720853526251274 -0.28457067349840715 -0.015407437458112124 0.2749906512103599 -0.07522793116757263 -0.09026893872864139 0.04454515403460029 -0.32237660460679135 0.28625302188268875 ]
[-0.0890680291996124 0.08812180815403892 -0.23281878520076627 0.06875963668684183 0.11336162349297431 -0.1276395872763078 0.2258693033409849 0.03504193476633319 -0.14576092871270588 0.0699763459467698 0.07759357016735324 -0.10874507772146987 0.14180316321577172 0.12282437379702688 -0.10272367279558571 0.2937517206366018 0.032730236611179186 -0.2696423266088446 -0.061262039909995764 -0.06380493316757428 -0.14599857743430988 -0.09041391880048054 -0.1993629088246534 -0.3115136255389939 0.11457343425853588 -0.03140794301186174 -0.05249688353836835 0.2702311759471416 0.20861887200261814 0.1937479690564343 0.30114784890822166 -0.011054635795829736 0.24907479333081706 0.17016169733153366 -0.15644615203112486 0.31135016498949347 -0.14072890010688122 0.32353950408386256 -0.10401480765231941 -0.2274571027542689 ]
[0.08775141120744714 0.15020780429177058 0.2302904464094235 -0.0002088865606331234 -0.001675710542385812 -0.12105253029468176 0.15336811207677076 -0.20256250300972797 0.16875860380764493 0.2711852935471287 0.19153788673252095 0.34510772274205576 0.231101498970342 0.043973746888048816 -0.06596566484605737 0.26754351361237827 0.30268501442006707 0.17262978717407135 -0.027028048768963992 -0.1797388911569001 -0.037021865021780044 -0.11006490734064227 -0.1556212905123045 -0.25368666976788923 -0.07645717826799688 -0.1789079924524549 -0.030467206755607122 0.1153728897241347 0.21345604961866727 0.09484811391825432 -0.22490082441287815 -0.10955423132936816 0.057415874922374814 -0.05455141157551168 0.1369162970989165 0.2627399795502108 -0.2488237463619328 -0.21174944932237422 -0.20718249170806732 0.18016617607374827 ]
[0.0656712557126915 -0.2061105431018062 0.06328403601639596 0.09867892297182002 -0.30738609565909564 0.0015299693683972215 -0.2309094164508107 -0.1966745431985871 -0.12132522234261625 -0.11962365442413471 0.24993002767639136 0.11195879047816575 0.013618141820729488 -0.059177512551659546 0.18936340152390146 -0.20449063080602267 0.2715069263631354 -0.21500467067951926 -0.17018396431612712 0.15427827559441198 0.22818659754565282 -0.007490298821071991 -0.1752192625753769 -0.26339489861179394 -0.3887699072523347 -0.17731941190432238 -0.3018404577544586 -0.06338224830293139 -0.2104881320731273 0.15396224103619924 0.2657358188460783 -0.028191993605340835 -0.10233718560808366 0.08348942230052367 0.14351737546316562 -0.07183116939449496 -0.005659150957057023 0.13056537591132375 -0.14996402816402948 -0.2555289860961747 ]
[-0.16214585427318756 -0.07134445622154789 -0.2446424598228379 -0.16829995296621206 0.07434936944285028 -0.19661985641770788 -0.2009627396292908 -0.2223056573958003 -0.29025138249495586 0.2282353234066965 -0.10408317954276872 -0.11118621622174786 0.07903901630536882 0.21321436917744957 0.20617828071218974 0.30631382786142247 -0.30446315244588923 0.23492387989315244 0.24377298863180283 -0.2617764866148506 0.1643042416154055 0.15255018765733908 -0.3400113527781971 0.05559664954188527 0.1382605904844916 0.10677906473437285 0.19518821512206558 -0.10360634481793461 0.3175082013940317 -0.11144775743013796 0.08362492487833918 0.18726155871150077 0.032853374060309436 -0.3374770567756409 -0.17316211525148223 0.04494662719088122 -0.13448330539129022 0.030431269580235665 -0.11621092871853529 -0.022512317863933307 ]
[0.08400689981856893 0.2601240021353887 0.267442699304534 -0.20251729461706452 0.37067649363850463 0.2973206355381167 0.005423114431138836 0.16879018715554833 0.16421710938754625 -0.01916418887164365 0.15143258402111473 -0.23787944997732288 -0.3275018966672542 0.21774327050173437 0.14483434068713624 -0.33057868391904177 0.2377743934872846 -0.20841262636923838 -0.08785698124748247 -0.28389105121225466 0.11099371919545621 -0.047439164749463816 -0.2978822641230858 0.1794778272593158 -0.14179797203488062 0.3310030670765913 -0.1054673243971995 -0.06251247331543827 0.28734301695884956 -0.15083236479903078 0.2929830668364044 -0.21675620797305875 0.005032713902598929 -0.09686864206413416 -0.16252707431193505 -0.23705324792150262 -0.19722477667613364 0.008887712551922396 0.02724259428300201 0.08281021249275579 ]
[-0.25220218357315105 -0.00967305189931975 0.29928743852365264 0.07633528083612227 -0.1890387703110007 -0.22836994633568186 0.23818142407230025 -0.17249175559430968 0.1820447004933179 -0.20510127158798894 -0.050596888499235985 0.1716117364123892 -0.27625280386688206 -0.17501511344396176 -0.050086557521271904 0.21275733578233746 0.266025112667397 0.38351142298110047 0.14158079359428358 -0.12733509123522316 -0.01189603809188866 -0.10831414584440276 0.1608174770428432 -0.21972392102516491 0.3764852776523994 -0.20994677782669377 0.177087254349564 -0.11975749513344834 0.222682072467335 -0.1996640247642259 0.1563702901439902 0.0320899148547119 -0.2646177846033782 -0.1371241520045244 -0.2243245485844162 -0.1683190238699532 -0.3246865037658671 -0.007661957220542075 -0.20473321118331936 0.22417396651195937 ]
[-0.1318469379496577 -0.24725809434438523 -0.10271455078841013 0.1715506424816776 -0.0852679166042875 -0.158124128727462 0.24791635099825587 -0.08175430410996784 0.1689900329112147 -0.10488502788226993 0.002977034941228983 0.1695761401868331 -0.0584587544963399 -0.31995751646160575 0.09790001554793515 -0.2833017463380757 -0.17796211716813945 -0.02742415454235943 0.2988082003981171 0.10525465006673666 0.007806665590777912 -0.0023321263706312556 0.14230049977392917 0.23891663670213087 -0.0598541765248075 0.16619973952281225 0.15800017091383478 0.1816896056551853 0.23316575557931707 -0.30349730210877696 -0.28915590759323057 -0.20322847537491687 0.18840648722500644 0.11390156879079133 -0.1109116490123106 -0.16688331097828477 0.3017056024720576 -0.1407426455777882 0.18867233183894813 0.10370194092790523 ]
[0.17128936665432706 -0.20202930973402053 -0.16101284649521155 0.08902962722782608 -0.03720417911360891 0.2532696917741428 0.4136181617779574 -0.21813698472242243 -0.16305114765743986 -0.04944193710797439 0.2747903063821578 -0.28453631619885433 0.07450416122549705 0.352492622204582 0.1603674346528023 -0.2821051892603942 0.04920649332431752 -0.007498491497853697 0.09073561537246148 -0.1467396109977185 -0.20461052591513249 -0.182160907508615 0.256919229162732 -0.2977775767142462 0.011569239901329664 0.2657970135433177 -0.36543047899666936 -0.05142692546930743 0.19212264545495755 0.24813740393909428 0.1591549729578473 -0.11749067791962961 -0.09624981408422792 -0.3097911768477829 -0.11690463349163972 0.22212410115143383 -0.07955031328960281 -0.33653460464166024 0.12095563272711968 -0.2674013205299759 ]
[-0.21696216851228836 -0.07612613504824152 -0.16077590241888354 0.06649411011686325 0.17504886828913865 0.004573235315137618 -0.026717382715656695 0.08533833068087586 0.04696222585545587 0.21568062934717025 0.2451875527605339 -0.07645012370340049 0.16134661201908587 0.10226863789900031 -0.19765459318801754 -0.19526753267435448 0.13310319925200978 -0.07538342926358398 0.02810028103505792 -0.3468919714162771 0.12078761148687225 -0.28721731345283 0.1923314487443668 -0.06470214643800304 0.08161517286008561 0.23535292171857597 -0.17736226644645559 -0.2636921813525226 -0.052268262387970034 -0.21733759404316197 -0.0317607712776273 -0.2037100872715498 -0.3574597271774369 0.14939678000294895 0.22913158133972655 0.11880298591163094 -0.11751118047311213 -0.2502247687366918 0.016141572818672845 -0.2860039895272659 ]
[0.26109574892746873 0.12885947470102857 0.015369630983359975 0.039906594097372156 0.0009855650510597756 -0.312493593771907 -0.08741622663681707 -0.40936018657927725 0.1465796436482797 -0.007402091891824026 0.06865795048859497 0.20655108418022067 0.011412852714159403 -0.17608368858606283 0.12096028137812481 0.05764019966760424 0.17458683760548385 -0.10771312153417684 0.2317896958154718 -0.13191111230468844 0.23041363112628566 -0.36510809755002344 -0.11479231192573484 -0.17117248868323054 -0.42758087148020496 0.04295294444087623 -0.3096195453543974 -0.19223680634609905 -0.07457470664988758 -0.08765678903037243 0.22163597080891864 -0.10200901196584365 0.3953421922513504 0.11585746629312785 0.13492199031352273 -0.14558081584212632 0.23583879188491635 -0.044144891308104145 -0.08802191347717575 0.1040560159284179 ]
[-0.05812433632206308 0.18529595952758426 0.20668710278395963 0.23202374469827333 0.056831921309167796 -0.25971168150898405 0.17023865852312456 -0.10466179606499673 0.24498611983115515 -0.24575241932303366 -0.20634202118268744 0.3272578583312785 0.07742621777544527 0.25251020314588996 -0.0697274911831869 0.2564642964797571 -0.26116130881245486 -0.014854955036210834 0.11727604893898373 -0.11419559988171532 0.168513194204689 0.13235429549937372 0.15679344088873506 -0.15027055403409412 0.03936563998335074 -0.12197022240823835 0.15584392399516436 -0.2694467996208022 -0.2137510944672216 -0.24835955156793907 0.15941866215234077 -0.06019075282238931 -0.30479354954380955 -0.07134412614120432 -0.19722377990102494 -0.0845644071509857 0.20962992138335598 0.10884655268049441 -0.15659265253660318 -0.13945973401223435 ]
[-0.1337637724231388 -0.17237513285834685 -0.2967029922419138 0.010657155709604488 -0.04663336554811325 -0.06198739316584807 -0.04979469738269093 0.3291784244983188 0.18233100801880855 0.3528329899491857 -0.15413632237123198 -0.20825489329573688 0.2329120811941263 0.2591613977578538 -0.2379145180009127 -0.19236627680084645 0.06926275246674658 0.14963270884353458 -0.12172154215111011 0.15004580465700385 -0.005484091171099346 0.23718263988332342 0.010768101643416 0.20943621664082493 0.054829311500189486 0.2097503792332633 -0.18746012250353733 -0.24025730934102524 0.06528419424000557 0.21265446738043575 -0.22144221847123116 0.190646376377571 -0.0046172169182573004 0.19943739806079577 0.349566963598443 -0.2769040215888523 0.04947384774621512 0.1463685839878163 0.09070663913776328 -0.17581646677333698 ]
[-0.30303016933182625 -0.20223468892162091 0.01721211396495105 0.09175771965624506 0.30157210678112495 -0.11840627152510087 -0.005469584730284255 -0.1938228958283605 0.21864953190598727 0.01516916311815407 -0.25411786209777143 0.07189860269121752 -0.095794764945673 -0.16687450349385866 0.03302231382667608 0.23908211995391648 -0.3485595909147217 0.07531248732051608 -0.27978468636356785 0.03162736031756417 -0.09024279148943748 -0.3795164432322992 0.07707328749593664 -0.1254373241425983 0.16310835906928592 -0.019761347637711393 0.25233552660282793 0.11830510416719027 -0.2572808730720974 0.01796528693616022 -0.1763741430654728 0.17452492853394022 -0.07837664198713754 -0.16895178968240857 -0.32137669937082597 0.23750243255344078 -0.2203767216714239 0.13614450493316724 -0.10158009389325617 0.06288713460940795 ]
[0.12715717127133758 0.3023562789695942 0.3172794205739849 0.15579078776275493 0.16672157076805666 -0.04882026694214757 -0.335591744516868 -0.26641311276842466 0.0985125166127412 -0.3551315891561333 0.35119626903600765 0.14777926846130748 -0.19107925340192633 0.18133036701462726 0.23114651759591892 0.1004052229256059 0.043813721596313394 0.3264990892504475 -0.15151451302821248 -0.18371796693477477 0.06217263350077433 0.2395905901807138 -0.1354033577673041 0.28693051682223286 -0.07782419734419826 -0.23439624711628682 0.17637945423491977 0.2510154987075534 0.1063081518484655 -0.26006504049770596 0.09413263284880731 -0.19972074640097798 -0.05546187413346741 0.3368605431483759 0.18988539630712384 0.13949628829177657 -0.11937654512499996 -0.018726185176296574 0.08724625077408378 0.027443917456931224 ]
[ -0.09210064399309646 -0.00019660661205377387 0.03797210940156654 0.013355854972890487 0.04086253597230963 0.008879679573186205 -0.025098166811089118 -0.032821280609900694 0.05163098153223633 0.006866973364371607 0.030603092362378865 0.0012868867060708783 -0.019735424202996708 -0.006721157790442269 -0.060355615172911624 -0.05751457815238119 -0.004554451088270406 0.05579651441201359 -0.011720630211733737 -0.0037519944923241223 0.08584046740148898 -0.0071442087912240845 -0.0024747624723921264 0.03177872653656495 0.04594251600300089 0.01644119455368369 -0.01140385822147081 0.00422232669447373 -0.027177455365765678 0.020935148029475405 -0.00902649986075008 -0.021810808822996196 -0.0021670163159591867 -0.011344853564401144 0.009382536582855795 0.0032430293464991993 -0.012982072813553338 -0.007231287615624965 -0.012344359679712731 -0.09244844260645005 ]
layer 3 Activation
tanh
layer 4 Dense
40 20
[-0.17791276272825282 -0.13198436721550588 0.08218220269213355 -0.2087326221030085 -0.3246375088123562 0.148089511446874 0.022444998130032933 0.2532779354706041 0.11158553888320265 0.20153657290597243 -0.1659599728767776 -0.07219989047245406 0.1337695679996762 -0.27796209375772085 -0.08477766459904029 0.27339522776610437 -0.06778297348767985 0.1978683338273925 -0.18054555466168154 -0.2170974991980717 ]
[0.2601114067761124 0.004810884066837957 0.2771322977183387 -0.13651306583415315 -0.2674879347667385 0.30019640699766365 0.23378699063029706 0.24623786672296574 -0.15899258046341344 -0.21716396814239627 -0.12010427140732635 0.1377278340982149 0.012459063071091972 -0.01762450414834792 0.1754219153183882 -0.1644322415761401 -0.16633942023664094 0.19113478822563523 -0.15027153322951997 -0.3965554586135488 ]
[-0.19667549443461316 0.2836450241664738 -0.09600642171349805 -0.00626370787371653 0.09800382745512817 -0.14032109208832777 -0.2702326740564201 -0.17556683653137742 -0.2795432221434349 0.08527207927899044 0.2603157036469751 0.236477518580758 0.09209137614198175 0.13575671514117718 0.0889476584106044 -0.07744582643463259 -0.20384338195639165 0.04198907669597973 -0.2557101937805128 0.1211127220238893 ]
[0.08653150760830111 0.1229267265613098 0.27778027201947314 -0.13481735149655225 -0.1254585345690728 0.21025159549003794 0.01570853250864923 0.291002728958453 0.21181122341014758 -0.04613953121748007 0.09175690353101074 -0.07130320870721438 -0.07564919878294707 0.0025316215141740735 0.239044050931435 0.05498509825184511 -0.12372264642768223 -0.18152524157508862 -0.1005448147252694 -0.23930570459637002 ]
[-0.2847592465091934 -0.11125837436778241 -0.2832837443306858 -0.1834756710047454 -0.19962547486429474 -0.22758937297113058 0.26985146493898615 -0.19407516266699146 -0.04706072154304374 0.02849438842835163 -0.32349612535450306 -0.09078638244649564 -0.14704904087161774 0.0607199403413641 -0.17869458446234715 -0.025769655620665747 -0.08223703893660872 0.17215325948944032 -0.08629910937116325 -0.2591643659426774 ]
[0.08026140984785736 0.04193988279304868 0.15931902815083707 0.00047462645402278537 -0.14948685906087375 0.01112399998110777 -0.23301238646922967 -0.18925081134831562 -0.1336646076739847 0.1142454106399503 0.13393571522464437 0.22547469797970437 0.08717783418293079 -0.16231608450187357 -0.11329824466244875 0.02428432015098563 0.022531295434014362 0.012065163860403643 -0.015298836841786886 -0.033159546625834965 ]
[0.16684680026861298 0.21294318911912022 -0.10298385033588675 0.058895984254421205 0.2719254217151085 -0.11334172612193953 0.1561834145084875 -0.26432273316657434 -0.046777031464524034 -0.2364332046947378 0.08854343180097922 -0.18774732200739228 -0.20808202614719454 -0.230618286579388 0.012036123867408377 -0.15267932949682292 0.21006152521371535 -0.09100114180928819 0.03596848074805719 0.19711976138434395 ]
[0.24253756654564723 -0.15432250814100085 -0.3005507528635818 0.05206120918206271 0.16107813319708486 0.24003402191803472 -0.20853339530046547 -0.25603625990987283 0.26248860162638415 -0.010172732326859273 -0.1428481235808232 0.16850607611411106 0.3170558306875141 -0.03963456704251528 -0.11711427858953692 -0.13188140301116463 -0.23767024760584354 -0.03360512852166902 0.17453558234095587 -0.061612926674214384 ]
[0.24603711286381227 0.1192771619947232 -0.11186064569126174 -0.3369933344290759 -0.23494996245416966 0.10621429042814622 -0.004539124237476441 0.08086287681751354 0.08991328385772408 -0.05547380570499228 -0.17680845829608524 -0.20302654489258315 0.05935765835841476 -0.24910260726495673 0.04318049767692221 0.11841450513137558 0.242688652643965 0.17622795423696722 0.17246662950906594 0.21938585056764667 ]
[-0.04107898076561103 0.08405348275537104 0.04745508057315532 -0.1696341999129452 0.16868019889490482 -0.29092592664683525 0.011419976290309627 -0.11814544996797054 -0.0494368319606863 0.13543834188276407 -0.024599225489119865 -0.06584875607174039 0.26352468263389833 -0.20561069950758382 -0.05687068602339523 0.3262452146992302 0.05655819171858133 -0.0031678795639101002 -0.29633394956437686 0.22984452834910343 ]
[-0.3213851559157191 0.13892631220778717 0.2852378428355779 0.08746866581427334 0.244474673445237 -0.09879592755076035 -0.23284968954048205 0.2347658248922153 0.13474950975117184 -0.0753319597971199 0.10016844143700825 -0.021615254652781742 0.29073112987079325 -0.12463680420562213 0.18679770808409965 0.15968903415379138 -0.032505987715875144 -0.2844980681333574 0.15359657801509785 0.19649855313832698 ]
[0.0041453795162679505 -0.12601314617372 0.035657114544656386 -0.09260700031340127 0.14635548784555125 -0.13688514505511706 0.009101132567899902 0.015063623958940914 0.018899020949604467 -0.16941586844553466 -0.24363359662305573 -0.005375400845789384 -0.27624719988850593 -0.19618895089738644 0.041470104287762516 0.253324111184311 -0.20001421145964465 0.314639567949237 -0.2928724513611784 0.2959701200532383 ]
[-0.09706340551554574 -0.23316582843694536 0.23103782762966246 -0.2336531289840032 0.2662318695326577 0.2293939170970822 0.28528465022579297 -0.20019345874761327 -0.05052479199170229 -0.08298661707814607 -0.24163629850308116 -0.21017444317845227 0.08416373055328082 0.23144791356867972 0.0540663272139666 0.06997914276943097 0.14292763303647976 0.2063927764856675 -0.04415198756657324 0.1373326733502609 ]
[-0.08345204730673604 0.15254452861536633 -0.30360994554963056 -0.22701808459602615 -0.06324568146556354 0.19647660752871418 0.1819453204778522 -0.26666894037076794 -0.13762823704644034 -0.13822370253794244 -0.1815085311090565 -0.22242455820745713 -0.18513696498321322 0.23171884080735483 -0.35959172366546754 0.1529218148293251 -0.19576559714084055 0.10154162164009267 -0.22463206579937683 -0.23633197032486036 ]
[-0.20907761274555203 0.29137626626588764 0.25483517523471017 0.09597364091343116 0.07405275839370126 -0.1262154422442685 0.055635548085890246 -0.17134787722267744 -0.28461744147065826 -0.3105126822317451 -0.2713329062142151 -0.20300207336444326 -0.20090292640634017 0.30362759424197094 -0.2857899913588793 0.17100215897743765 -0.1359555942095383 -0.06630215177282058 -0.16767243950861052 -0.07094914192581674 ]
[0.35100896833174006 0.3410559914200192 0.2411228146443845 0.21129133563827596 0.1216418058455655 -0.19929788859029818 0.17818787462748162 0.24068365489903898 0.16493786129055013 0.10223772314238665 0.34092642196582007 -0.2703999816727331 -0.0691777108208157 -0.12970063557092334 -0.22820501259026862 0.25892520999964047 0.012209294041370684 0.3212573494253626 -0.2689294539744084 -0.16936165061803937 ]
[-0.0832063645500766 -0.13008349280458897 -0.2996417929694646 0.09644860487962933 0.04846833939416012 0.005415993682693817 0.317176856284781 -0.07981776763637449 0.053509222214672456 0.16951539081408235 0.26018283192926805 0.27476967404556574 0.2155759099407849 -0.14888079785414846 0.08117126834595507 0.28980818004148035 -0.3218641391052918 -0.1994780008421511 -0.015006594362678923 -0.08187892017566606 ]
[0.05861647344240513 -0.1394086575883749 -0.209028423935964 0.06402223573749585 -0.2003663428639221 0.057123935950869995 -0.24931342520381397 0.2942380514983523 -0.004873577760473545 0.19481694544647096 0.23135747027034215 -0.2684202614061035 0.07083541620372427 0.12559966257040883 -0.12217869746589656 0.2459354749251902 0.1811876205220365 0.09293853535377238 0.08358013417997484 0.19821477062106269 ]
[-0.0673225988452611 -0.09441754177794494 0.2836920970549172 0.11154274294891109 0.18136116789778883 -0.1435742887093041 -0.07557022206384985 0.16161994397227492 -0.04596224531750267 -0.1468676046119369 -0.0913707237199417 -0.04396247525586291 -0.10398293322226364 0.2979997835667413 -0.23413989065028906 -0.016655547850735124 -0.10833075068597815 0.20271424255548104 -0.17314791451829226 -0.22713519066715004 ]
[-0.10289001394858506 0.23313956959490284 0.018238430422128755 0.0522922136189631 0.1882325290096224 0.030261119762565222 0.14197164612745258 -0.18788010384124926 0.1684194435633667 0.19645425435607186 -0.14358021697469275 -0.10723713221659233 0.2698755210961714 -0.3341721628697701 -0.2471973612844208 0.03714211542645111 -0.12533687292811452 -0.12153573005705531 -0.14403287852323415 0.15060155446002463 ]
[-0.1588814732587145 -0.029659215532209283 0.10711863169167209 -0.10434180111580069 0.05590712804697204 0.0027779966859509844 -0.13909328035050147 -0.006302422528405671 -0.07863482782023115 -0.26855524081270976 0.07440351035518139 0.0812668125690565 -0.04040576854747548 -0.21699692542604393 0.2760443972163496 -0.13491304207535126 -0.022218783790020374 0.2357123513293824 -0.14294186703914488 0.004033354525584013 ]
[0.16003769600347167 -0.22917482966789954 0.12491566748003795 -0.20158911196391863 0.04822951459664441 -0.30896948955798476 -0.0371163074091264 0.11262381138860798 0.13055448256867958 -0.10676204069363407 -0.08231093017995639 0.21256237496768918 -0.1240878539921084 -0.22804603252474123 -0.09702374649362014 0.23559059515769074 -0.3271310102243116 0.0008943386723790972 -0.057828733876092386 -0.27949716732599045 ]
[-0.246700062623846 0.14589698203854556 0.18588363548926015 0.011059640144571104 -0.10018866900040721 -0.20697537356892165 0.2235210316227659 0.06581030555600349 0.20850760664717413 -0.11908361623269594 -0.3294081058210564 -0.30775179759278787 -0.13469673984008984 0.165815314410934 0.060796401150997645 0.00667638402082631 0.09296795532919658 -0.3002455935939177 0.1559686533769348 0.1565566444186693 ]
[0.2097212352232439 -0.13916662961283027 -0.2881802707258388 -0.20398252892940508 -0.14396722112006063 0.06292155732757784 -0.07794924731979654 -0.32190728666000834 0.051964684010833456 0.3123437559762105 0.1761900385673211 -0.01611421721761805 0.10901204304001498 0.015080815499695891 -0.12980988128639892 -0.22468454592813766 0.15404643341169902 -0.34291701607638375 0.015276961613440228 -0.046039363250049155 ]
[0.06489009288088422 -0.22454855919503985 0.019205024734096708 0.10315139873469704 -0.016730650509494318 -0.050637845017935716 0.23835111439522597 0.10044952809017074 -0.1947161027659539 -0.008613541589658954 0.05781900249674695 0.08471027826855748 -0.2059574069880696 0.1992736534464516 -0.29710744242258086 0.08991458296607811 -0.1817382692414616 -0.18526508853526008 0.006971958364933965 0.24406542272052473 ]
[0.07685986198291207 -0.23892200195196805 0.07529242025467413 -0.10606599600402244 -0.3191598514169663 -0.24115318857801812 -0.13090158327280388 -0.02390734659449311 0.032028758844589396 0.13371204082629762 -0.15150890658241273 -0.2762440735060776 -0.20232411730240363 0.12035634980571101 -0.24024003919132994 -0.0456701930933766 0.03782891959465971 0.2176392128666765 0.04733323297575535 -0.2289974197289493 ]
[0.25865614652154206 -0.14264737548331075 -0.2034267837305072 0.2450767842363652 0.23728905423089425 0.19093396025984355 -0.3015450063368375 -0.11916802154897088 -0.04581862020288405 0.2927146440874265 0.28658579503154663 -0.21747210643469608 -0.2503908733460015 0.10665654669340026 0.2511088679422456 0.27248375674656744 -0.23431695057314111 0.11261818595716004 -0.1855620647907739 0.11079345489670027 ]
[-0.02899354090351173 0.03986695295428231 -0.01137262393907709 -0.098632147887743 0.22536769132229487 -0.2498030533395937 -0.1364561025980517 -0.06343466800386194 -0.06270052412637249 -0.25753179092969136 0.2751889405122254 -0.22998559479723563 0.0020936239949241576 0.13411575354793107 -0.1645217121586557 0.2573273545683932 -0.18146659223013475 -0.1995963727156343 -0.17733866627580938 -0.23510874209979837 ]
[-0.07071861579910416 0.2342232198959586 0.15306245802141247 -0.20925658495685678 0.282556440303941 -0.10323054006085161 -0.13678891556651437 0.2754540472092078 -0.2517456509069241 -0.32857391032085453 -0.205863911416557 -0.22955346097254498 -0.1996616928094474 -0.005374766753288502 -0.13546289200252154 -0.1644480963739121 0.1017891355581421 0.23990551653010517 0.022940005756959564 -0.14351046225668604 ]
[0.10330712819266616 0.07039905353460338 0.15326484973953663 0.14453239078876315 -0.3126874017338972 -0.21093646218459994 -0.1948150684502341 -0.16383748647788057 0.24160256285351628 0.188227083254129 -0.23491622404236556 0.026984395647454203 0.013936494706475885 -0.16328005323374808 0.3386849895855994 0.05615210344757229 0.13636742300998636 0.00032603051062977034 0.14585755207531062 0.044417839018565185 ]
[-0.2274768449790212 0.06262600135899385 0.1281556460987715 -0.11257202086564354 0.21892898698302335 -0.12159662792772698 -0.11504182771697684 0.1429472533298482 0.18842319181215758 -0.05323738110390243 -0.18566561811621735 0.15415052095165369 -0.1633427818612461 -0.06875992146157316 -0.1310963793113149 0.1625930717575646 -0.1921241806139066 0.09636506472874908 0.19713337423889857 0.1468799879754926 ]
[-0.24009425317081282 0.08533834583624841 -0.14986878018269426 -0.15273375330610664 0.24076317565019895 -0.040682515138716714 0.1471975077264546 -0.05401103737054082 0.054428225153025596 -0.06055153281270667 0.045934810569587356 -0.26134545305590945 -0.22090605255736975 -0.19601183616548037 0.2554587960225112 0.23719266556765398 -0.2603539769561757 0.011742330210798674 -0.2539744294584797 0.30131397767595247 ]
[0.24199767668564445 -0.016370435032462743 -0.15204039587011392 -0.053873802552863274 -0.29090809720251265 -0.054538615656984785 -0.019307706421929836 -0.08710886279700067 0.20787416123667424 -0.1811093968846915 -0.34176461908611167 0.2767810502898078 0.20556913356975842 -0.0983884697951661 0.0005977313913989617 0.23538019243140854 -0.06134916958785579 -0.1435801006737284 -0.05253631949120763 -0.17597602295555292 ]
[-0.2707262341001679 0.035536997774536006 -0.16618507248555406 0.1469616806986176 -0.3340776704671569 0.293988124495988 -0.10103578783882532 0.04254472092754336 0.1531624274888037 0.2488994184321477 0.19987205269810163 0.12412080402667762 -0.06703236806602918 -0.14524276784983992 0.27513607799549 -0.06193820411553839 0.2357844974076566 0.2200871095261283 -0.2528663758809929 0.10817412080368245 ]
[-0.2981401300537962 -0.10879621571125082 0.11228353195532144 -0.04586210828784729 0.19715696526942983 0.18818973989562413 0.3201824444142912 -0.3011812666821326 -0.18092715858525146 0.007003718428902211 -0.0367541552604804 0.1840687543965509 -0.06697470846091813 0.14759444727631277 0.13020229352229593 -0.16623666875512694 0.2572956105758089 -0.17235182042257596 -0.28423990668431043 0.18421923692362688 ]
[-0.12163772252525443 -0.19239186347894924 0.08960793585071009 0.1959134485470892 -0.1891145052719145 0.22112867430811392 0.20983179477024141 -0.04235145347364189 0.1414008188593638 -0.07214917856142046 0.09698352035074097 0.04746374935266076 0.026290093214819947 -0.08194440319156875 0.14681077443835738 -0.1784815110651274 0.19925540906364445 -0.19222443341369994 0.2875735936577153 0.008239260542080204 ]
[0.32046205578203096 0.2252388510451798 0.3734486052730794 0.3242629412408145 0.07998383095198285 0.15096700483730432 -0.13079649438378477 0.27027422200355966 -0.21882326812444813 0.165126758671723 0.014040019314496091 0.17930089737361332 0.2676272703969751 -0.08612122070179097 0.05609349040375721 -0.1884671341536608 0.047422683835475876 0.1440823937495123 -0.010511639196844013 -0.1329680640263531 ]
[0.11896715906392641 -0.12942887882103926 0.29960850083589013 -0.02407490653955339 -0.33858519952835414 0.0973458935728913 -0.0403964839053504 0.0021954280537024684 -0.050227039937550455 0.22921402420836512 0.17663595016913636 -0.12173234573634434 -0.05963979414248756 0.1594955753578147 -0.15471206469078025 -0.05498724558560948 -0.2678476924825782 -0.0807831641903695 0.042013157633972176 0.06490292979807238 ]
[0.2216274128388453 -0.06237990133987201 0.20731274321644416 -0.16199980524290544 0.002901715508009425 -0.2652511382444162 0.0974076053137452 0.12126099150951046 -0.23284638275195219 -0.1417627432459896 0.03528268891771132 0.11806970938206036 -0.33513735967362834 0.060616183117926464 -0.055448432171953464 -0.07194680240117701 -0.24995078830416342 0.14582060858414111 -0.18760330455487398 0.16177188165438525 ]
[-0.2603226244939438 -0.2825530361317883 0.18228982357174509 0.0022876697705922354 -0.20352690295259906 -0.11971878666408772 0.14314055350574265 0.02468370577891639 -0.23426502286352166 0.0913736733557662 0.27352152705516114 0.1150296607879909 -0.1777010901730767 0.18227764607542296 0.07700241524440724 0.2557568790926769 0.07023803490115034 -0.056805951074751615 -0.2954991197348305 0.1395941316253063 ]
[ -0.003869641137459713 -0.0021368642144612916 -0.0033612500111738063 -0.007267176618837482 -0.02334110306834592 -0.004511269000776426 -0.022687075662188583 0.00038949916224433035 -0.004543218569770216 0.005462955869982049 0.0001163120277442613 0.012581419402593556 -0.006679222205544396 0.005374578101448624 -0.0038011350115869998 -0.00776978049403511 0.004541005247253408 -0.00528990316750661 0.0050965422954494756 -0.009408568403478434 ]
layer 5 Activation
tanh
layer 6 Dense
20 1
[0.06022750523470139 ]
[0.17322531738111005 ]
[0.027038272481639855 ]
[0.17219597000306247 ]
[-0.3941321266265012 ]
[-0.10396376896377284 ]
[0.3164471687269539 ]
[0.1377318372857538 ]
[0.15928423289510862 ]
[-0.20684274402671604 ]
[0.07410312393689764 ]
[-0.32149740408199157 ]
[0.35442308852699533 ]
[0.17107525379838537 ]
[0.185316039110272 ]
[-0.36162375365654853 ]
[-0.2654176191894918 ]
[0.09667875501911537 ]
[-0.19689163442847904 ]
[0.09403482395746374 ]
[ -0.0013255611631573245 ]
