layers 7
layer 0 Dense
24 20
[-0.15616511 -0.23839268 0.3067121 -0.1370511 0.1918383 0.31788075 -0.14965817 -0.09005935 0.19112392 -0.2761787 0.093209974 -0.3523383 0.04630925 -0.08132058 -0.029702261 -0.19629349 -0.08626585 -0.049442723 0.15513848 0.071118444 ]
[0.31759128 -0.13663796 -0.04779747 -0.35127518 -0.21361835 -0.3248577 -0.073488295 -0.18394697 -0.24593218 -0.10793968 0.037892967 0.20061974 -0.37690035 0.13511078 0.18761843 -0.25350955 -0.0144614065 -0.15652154 -0.0631165 -0.24844138 ]
[0.15935099 0.012452859 -0.06531208 -0.2901071 -0.18079028 -0.26745015 0.25709108 -0.37097073 0.40432942 0.11803903 -0.18967049 -0.15259022 0.043430917 -0.27164117 0.28940728 0.19729891 -0.13775174 0.056740988 0.31971133 -0.27955845 ]
[0.27121344 -0.19970495 0.38830465 0.06155264 0.12458729 -0.15223987 0.1925923 -0.23989111 -0.039899055 -0.22987182 0.10851792 -0.34265873 -0.0884683 0.092813596 -0.22584675 0.10388778 0.24232815 0.018162714 -0.049916204 0.21981052 ]
[-0.24027888 -0.15067165 -0.045338735 0.4411799 0.033816192 -0.023833657 -0.121205896 0.2518925 -0.0047819917 -0.16954474 0.26250696 -0.14218459 0.14812808 0.052808654 -0.24824774 -0.2448634 0.14596567 -0.14059685 -0.57796246 0.017560534 ]
[-0.14571877 -0.043452606 0.30987632 0.18448916 -0.40439174 -0.13140278 -0.34879696 -0.021875774 -0.16795503 -0.035083678 0.16376735 -0.13081455 -0.3124368 -0.22424765 0.4270827 -0.06271736 0.09800648 -0.30849114 0.12755156 -0.0146024255 ]
[0.21472804 0.3347754 -0.10740342 0.07999302 -0.1939487 0.19805971 -0.05190734 -0.098940946 0.08631824 0.2736682 0.40707642 0.093175985 -0.07269417 0.2695857 0.39382693 -0.05132196 -0.08632961 0.23188303 -0.04175321 -0.15799314 ]
[0.33287805 0.13525383 0.0352308 -0.0667659 0.41827354 -0.11162996 -0.17471756 -0.1047504 0.12604441 -0.22681478 0.17055014 -0.20731951 0.05241632 -0.10769 0.08255708 -0.34511396 0.23773374 -0.31745097 -0.24291883 0.27903587 ]
[0.021008184 -0.02989821 -0.056150593 -0.33308378 0.051454905 -0.050266173 -0.17656279 0.19232906 -0.34354007 -0.16688178 -0.08273243 -0.31906372 -0.2609709 -0.23034416 -0.022492994 0.5590278 0.02246257 0.33760956 -0.147523 0.6374818 ]
[-0.22358748 0.2398208 -0.033288002 0.35125634 -0.16130316 -0.10072817 -0.23849073 -0.31871974 -0.15530688 -0.29497463 0.17112492 0.15719494 -0.11995417 0.37008193 0.053003184 0.3185339 -0.08472703 0.46631593 -0.07595264 0.27668783 ]
[-0.5367865 -0.04376857 -0.17545763 -0.33960247 -0.35685673 -0.27448112 0.0066516083 -0.44942874 0.02040933 -0.13623194 0.40882808 -0.30401874 -0.34289607 0.087194845 -0.20959598 0.28527144 0.19848013 0.029679112 0.2709334 0.06368379 ]
[-0.58107597 0.12142569 0.096148655 -0.09082143 0.44705594 -0.5518541 0.055183902 0.019158589 0.15440682 -0.34578326 0.4484756 -0.018173384 0.29420936 0.54685485 -0.24205792 -0.02879241 0.6628516 -0.44030535 -0.11475125 0.06878714 ]
[-0.21061698 -0.15433183 -0.13239948 0.31267577 -0.25089806 0.08014656 -0.24311015 0.26338318 0.24682973 0.12339273 0.24847387 -0.21417828 0.07944484 0.17370155 0.14256646 0.25121805 0.21254745 0.16900271 0.0923841 0.14874382 ]
[0.2862952 -0.24588399 0.18749674 0.065637946 -0.35039 -0.3254613 0.11180734 -0.15739565 0.101818115 0.4184088 -0.22787368 0.27219787 0.3815382 -0.20342803 0.1673115 -0.102063216 -0.2739571 0.33620068 0.24321923 0.3469358 ]
[0.31754163 0.30382535 0.12279881 -0.23441814 0.27344733 -0.21392053 0.4719557 0.2680852 -0.2733014 -0.15094082 -0.24746782 -0.13827327 -0.06156031 -0.1574777 -0.2769459 -0.27397904 -0.18559204 -0.2966068 -7.098494e-05 0.12469702 ]
[-0.23927644 -0.17127515 0.15664315 0.10945391 0.28324872 -0.30249712 0.2573884 -0.08320552 -0.13756643 0.18183748 -0.06679754 -0.30162254 -0.24104743 0.071807235 -0.38775668 -0.27120182 -0.11547951 0.002187117 -0.12983106 -0.27926552 ]
[-0.21490179 -0.05470271 0.15425801 -0.013520514 -0.03540658 0.305303 0.022377621 -0.29433924 0.3636017 0.054066475 0.087427996 -0.16630733 -0.19132455 -0.14831422 -0.27182955 0.21661776 0.1873244 0.1205133 0.07577993 0.07291435 ]
[0.22593267 -0.40921327 -0.056790296 0.11242079 -0.22865072 0.17687449 0.19819798 0.31217417 0.18064894 -0.24119465 0.07582481 -0.30352184 -0.42417282 0.24368887 -0.42620996 0.38889265 0.26462522 -0.6453854 -0.5829067 0.18469948 ]
[0.03833437 -0.19918059 0.14105938 0.35756475 -0.21726583 -0.018494781 0.23744373 0.29323298 0.42262134 -0.34026787 -0.6502771 -0.19223002 -0.071151234 0.10653618 -0.10728912 0.53088874 0.38382915 -0.09181521 -0.49014622 -0.5182087 ]
[-0.2502003 -0.2830416 0.1766423 -0.27435207 0.11736245 0.24793185 -0.23337781 0.3111594 -0.35337538 0.30152106 0.0030960701 -0.32002622 0.20587112 0.04386541 0.3418167 0.041889135 0.108055264 0.3486464 0.080252 0.34141964 ]
[-0.005330794 0.0851137 0.26521748 -0.21409221 0.016364167 -0.07853096 -0.1918262 -0.27516282 0.3347114 0.025673462 0.34357458 -0.2733291 0.1137831 -0.08914643 -0.42448124 0.20194083 -0.023937443 -0.18013439 0.04969383 0.045961075 ]
[0.6024828 -0.16630886 0.19625777 -0.13327402 -0.1289672 -0.19582993 0.42650092 0.4641632 0.33962506 0.00814818 -0.21825011 -0.1913665 -0.30367714 -0.30469936 0.11348299 0.3857004 0.41667435 0.043522425 -0.58758533 -0.22793859 ]
[-0.16818625 -0.27232543 -0.23827179 -0.09796912 0.31783676 0.31930652 -0.15177968 0.28137374 0.0073721306 0.26047814 0.28004164 0.2725875 0.32674992 -0.38174933 0.2660017 0.07473723 0.28618634 0.020821106 0.39439988 -0.6203992 ]
[-0.3659145 0.2043785 0.051320516 -0.015832806 -0.3345432 0.32557255 -0.18782887 0.3918951 0.059632324 -0.15696757 -0.01869151 0.09664605 -0.2985645 -0.27762255 0.27066857 0.47345388 -0.44439888 0.31598946 -0.12763508 0.21571146 ]
[ -0.041312754 0.007598091 0.051547494 -0.05827172 -0.053512815 0.05736033 -0.08317209 -0.009401321 -0.02363459 0.0019293003 0.0051892423 0.012833627 -0.02652945 -0.03588581 0.12330456 0.00052055996 -0.07017543 -0.011403243 -0.047587305 0.00043685513 ]
layer 1 Activation
tanh
layer 2 Dense
20 40
[0.06572727 -0.43768948 0.017563598 0.09082297 -0.47661284 0.20047885 0.12781516 -0.35859418 0.06663324 0.11706959 -0.020613741 -0.061566617 -0.0834757 -0.21576855 0.38554767 0.23707184 0.051967483 0.3189714 0.017505 -0.2727657 0.06335923 0.17120582 0.19370389 0.2766579 0.11182484 0.06736121 -0.29148313 0.2364146 -0.40186077 -0.31011873 0.23585415 0.15987669 0.12555264 -0.13679406 -0.010650896 0.11283656 -0.16828492 0.028886482 -0.18150882 -0.2810765 ]
[0.25295588 -0.13305561 -0.2726341 -0.11899755 0.13840364 0.045252323 -0.15804271 0.29443806 -0.28036 -0.23526941 0.07440709 0.23345941 0.18196508 -0.14731003 -0.117331564 -0.19458435 0.13667978 0.22741558 -0.11173212 -0.13751587 -0.20916328 0.02074364 0.07944387 -0.29924858 0.014521305 0.35964316 0.003831037 -0.2166811 -0.05837329 -0.298978 -0.15376024 0.20719238 -0.2230317 0.28968862 0.10198811 0.038277786 -0.20819129 0.07278852 0.00945584 -0.11808357 ]
[-0.010087666 -0.32428005 -0.026765017 0.027552083 -0.09621478 0.20367223 0.16904305 0.08424997 0.14395207 -0.22933348 0.03832232 -0.11121426 0.16931279 0.047957793 -0.12936229 -0.1378895 -0.059337012 -0.16878639 0.051570933 -0.14539218 0.10512748 0.073737405 -0.12929426 0.17928863 -0.25377876 0.09052161 -0.20818856 0.11871168 0.041898765 0.02141144 0.1611605 0.028959021 -0.04733095 -0.045291275 -0.08159657 -0.1338818 -0.032850884 0.2707556 0.008203071 -0.20849194 ]
[0.2145719 0.018156106 -0.085801676 -0.28324717 -0.13696036 -0.019996367 -0.15847117 0.44726887 0.013068029 0.060325794 0.21775106 0.40461913 -0.24029379 0.0066427593 0.29342297 0.3563094 0.105685405 -0.10035792 0.16646351 -0.13678887 -0.2575685 0.065862775 0.08661374 0.10894 -0.22871707 0.11929064 -0.25359112 -0.1527999 0.011358233 -0.37485117 -0.29596815 -0.12395089 0.059973773 -0.13032502 -0.14675897 -0.22415836 -0.05068477 -0.30954358 0.009971865 -0.13213836 ]
[0.23762171 -0.15630887 -0.1645063 -0.26387516 -0.16072568 -0.20057614 0.09438649 -0.15948486 -0.02393496 0.28431782 -0.16650009 0.0038736009 -0.40786663 0.17300455 0.16807741 0.124253444 -0.35339257 -0.17465183 0.25078988 -0.28907788 -0.08317835 -0.055499114 0.008414107 -0.19144903 0.16180909 -0.025890596 -0.10889882 0.25612375 -0.10844323 0.12976581 0.1283966 0.2491811 0.019249745 -0.27818432 0.16806237 -0.33736598 0.16449866 -0.28314424 0.35272667 -0.08090164 ]
[0.14347243 -0.08679172 -0.4599627 0.13261384 -0.13557814 0.43739423 -0.2055258 -0.15157457 0.12512739 -0.054106627 -0.075244166 -0.030751145 -0.016996289 0.25196648 -0.28146228 -0.18094167 -0.0324713 0.2327973 -0.17376278 -0.20166525 -0.09163901 -0.36334583 -0.040570088 -0.1837778 -0.1767784 -0.20693742 0.33845147 -0.15126745 0.012764525 0.13337071 -0.056168083 -0.24743238 0.464033 0.33072937 0.19913797 0.06342461 0.2216733 -0.18217519 0.061454136 -0.24969958 ]
[0.0602747 -0.22699347 0.25474414 -0.2369489 0.1776869 -0.1296323 -0.37462568 -0.3240371 -0.11010353 0.1463011 -0.0005885727 -0.022144416 -0.0027591072 -0.05044954 -0.06739645 0.17644815 -0.10250984 -0.29396042 0.20977232 0.075410165 -0.012890197 0.018747369 0.22201729 0.3716716 0.12773168 0.17908458 -0.24550071 0.20079507 -0.065046735 -0.04095403 0.049471647 -0.13368614 -0.11924265 -0.31596416 -0.09416193 0.01489233 0.12150713 -0.07035566 0.046070132 -0.11499824 ]
[0.3068728 -0.3827498 -0.08242163 0.18801194 -0.2918308 0.35950834 0.12863325 -0.25177926 0.21864562 0.20366216 -0.07094301 -0.28524172 -0.34318158 0.35117945 0.22484644 -0.18022683 -0.02527693 0.035539556 -0.29801685 0.20943846 0.14237234 0.18560623 0.088914625 -0.28367543 -0.23041567 0.4339019 0.24429116 -0.32408667 -0.3301955 0.10676483 0.33500287 -0.10348218 0.20594034 0.08199554 0.19480628 -0.2202524 -0.120170034 0.117069386 -0.4039646 -0.0075354585 ]
[-0.052167732 -0.19887888 0.11127457 0.120070055 0.23086777 0.241383 0.20537841 0.328129 0.070103064 0.25624198 0.16158453 0.20946203 0.033772882 -0.10505782 0.13756575 0.20968603 -0.17763495 0.0165553 0.026418677 -0.07080483 -0.012780509 0.15780392 0.03614164 -0.114257805 0.21045302 0.37791517 -0.04490902 0.24849273 -0.13410738 -0.21578476 0.020349015 0.00830921 -0.10156034 0.020877665 -0.1424772 0.30208296 0.26864105 0.16188005 -0.030854484 0.003883805 ]
[0.12636645 -0.27265134 0.38524473 -0.02758444 -0.25972348 -0.15314327 0.15628535 -0.3363837 -0.15752296 -0.14775252 -0.24416651 -0.24466361 0.21942353 0.28559542 -0.18086201 -0.028388545 -0.01911646 -0.008461879 0.10662962 0.14900292 -0.37411907 0.40527162 -0.12877153 -0.12581113 -0.2242808 -0.18904191 -0.2033403 -0.2096162 -0.35503474 -0.3178686 -0.18876399 0.06411661 -0.32111344 0.10230971 0.16372304 -0.18173473 0.23342167 -0.19316524 -0.06346766 0.29432663 ]
[-0.08863664 0.17040925 -0.26782116 0.26299956 0.41311556 -0.27379307 -0.30557966 0.40735897 -0.17981204 0.19117318 -0.03222936 -0.21413447 -0.24075726 -0.21557316 0.00788304 -0.22697088 0.24219105 0.2565228 0.00051306334 0.21436314 -0.043572344 0.26301655 -0.22774625 -0.15754408 -0.15702678 0.0825313 -0.19479127 0.16261582 0.26311415 -0.21297197 -0.11834858 0.095250994 0.17103134 0.25532836 0.08079357 -0.150015 0.1543611 0.1706217 0.027912466 0.12490402 ]
[0.24775678 -0.06409839 -0.12496621 -0.118292645 -0.08947387 0.01258604 0.1719839 -0.14596173 0.06865355 -0.03416181 0.29249802 -0.11676803 0.18400075 0.29483932 0.30260184 0.182411 0.17128377 -0.09605791 0.096610345 -0.009781163 -0.37282383 0.071986124 -0.0289174 -0.04844726 -0.12775855 -0.2908933 -0.10449075 -0.20769003 -0.24762344 0.14282031 -0.22390181 0.21877411 -0.10050445 0.1077533 -0.121849254 -0.18476811 0.3616311 -0.07926901 0.033565693 -0.01853716 ]
[0.22415128 0.123820774 -0.18595544 -0.24443835 0.28381145 0.087025926 -0.18617514 -0.008987054 -0.22398911 -0.22189933 0.26079682 0.046220522 -0.13795924 0.33348507 0.37533978 -0.04927554 0.21945755 -0.14637035 0.099509664 -0.32380658 0.087727845 0.23093398 -0.3079194 0.031244788 0.1725598 0.09332149 0.24523343 0.097481415 -0.23400198 -0.37978715 0.089498095 0.555741 0.0083969915 -0.10484779 -0.037626226 -0.35465157 0.27501422 -0.32544497 0.24897023 -0.09368446 ]
[-0.1734927 -0.21106774 0.18233402 -0.248077 0.36104766 0.15813445 -0.20438926 -0.14624675 -0.2075178 0.10390245 -0.26916006 0.11446418 -0.19864325 -0.36919397 0.02115274 -0.24919271 -0.32607016 0.028229615 -0.24823667 0.02967177 0.3230011 -0.24437188 -0.3256909 -0.018504769 -0.35479933 0.13474713 0.08657698 -0.29507735 0.3921075 0.1177042 0.2895917 -0.4259915 -0.08186195 0.18174689 0.24114965 -0.22401002 0.058728434 -0.19984086 0.093395084 -0.058150537 ]
[0.28008422 0.23936863 -0.29380533 0.04472284 -0.1121998 0.15987378 0.18475638 -0.24487753 -0.19883162 -0.3537268 0.22231351 -0.18984936 -0.024731856 0.25575933 -0.06273475 0.050325338 -0.21146026 -0.04197472 -0.093879186 0.31757826 -0.046373628 0.136263 -0.13322088 -0.005210978 0.25852704 -0.09516312 0.084370434 0.07490693 -0.31400743 0.21139649 -0.18438788 0.24919702 -0.13601209 -0.10550965 -0.19025637 0.2817074 0.18489748 0.097143404 0.18457693 0.053322554 ]
[0.14828014 -0.1267127 -0.16622034 0.15548594 0.030042892 0.4591306 0.24355584 0.30965266 0.113453604 0.10246894 -0.20632678 -0.2875701 0.031715985 -0.15002573 0.21262087 0.047353484 -0.26471603 0.00032173295 0.21823804 -0.18003644 0.3917308 -0.12613298 -0.14646432 -0.24502003 -0.26284626 -0.26537642 0.15916865 0.07246727 -0.160087 -0.11553697 -0.16640423 -0.06760556 0.1218021 -0.05362837 -0.23440735 0.37344176 -0.1527918 -0.2135504 0.059703093 -0.15182863 ]
[-0.00802925 -0.08722597 0.18971546 0.12980573 -0.036505166 0.04851742 0.021964813 0.33822793 0.32156792 0.16740146 -0.11092539 0.28274298 -0.11950268 0.071347676 -0.09045544 0.17677487 -0.3087898 -0.26584703 -0.2971203 0.070095465 0.07141804 -0.16218472 -0.112500325 -0.12802058 0.2662133 0.37829474 0.2349279 -0.24198829 -0.028993277 -0.23490806 -0.09358922 0.24066323 -0.16745624 0.12647803 0.35479248 0.22219718 -0.22229473 -0.1744996 0.013562856 0.20569685 ]
[0.080092326 0.45796612 0.092159174 0.24770664 0.15162846 -0.17253639 0.14551683 0.24379958 0.24597314 -0.1818843 -0.19903147 0.22591339 0.20247738 0.01983769 -0.0238577 -0.24233408 0.27131656 0.24357371 0.19019742 -0.30200475 0.1860576 0.2259949 -0.08027771 -0.17760272 0.28366423 -0.4297574 0.14044423 0.120535865 -0.24815565 -0.14033027 -0.23130348 -0.16005747 -0.26699865 0.30089092 -0.3113204 -0.28029418 -0.08061044 -0.14616649 -0.32580227 -0.1953046 ]
[-0.31102565 0.18119018 0.18922335 0.09527779 -0.2897851 -0.067844816 0.21191236 0.09110564 -0.113976695 -0.11999835 0.10768364 0.124220766 0.33940738 -0.106786296 -0.23452438 0.15484285 0.19700144 0.29509807 -0.08913498 0.23720336 0.015616633 0.14081393 -0.2183533 0.2530265 0.08192486 0.12518318 0.31741908 0.016423592 -0.024127144 -0.11397692 -0.26352373 0.24824864 -0.051725864 0.21734603 0.054735593 -0.1287303 0.031306293 -0.3064409 0.13329281 0.015423175 ]
[0.2275154 0.26518863 0.19776103 -0.1428081 -0.2467262 0.018414091 0.22654112 -0.22078902 0.24115828 0.076309204 -0.18058412 0.13489677 0.33046475 -0.04073185 -0.052917674 -0.24394524 0.18904035 -0.02785693 0.2999981 0.37146053 0.2308309 -0.36168087 -0.008060811 0.17264053 0.18653794 -0.08512032 0.24613427 -0.14080195 0.044806726 0.30928198 -0.20482546 -0.069198556 0.16324 0.4659273 -0.1287006 0.26675525 -0.257851 0.26162514 -0.028254805 0.22014248 ]
[ -0.008853499 -0.027019175 0.056141928 0.013641631 -0.082768254 -0.040129475 -0.04777604 -0.0005817445 0.018126823 -0.019711534 -0.027293079 -0.028185328 0.035282396 -0.00393057 0.0063863713 0.00874452 -0.01249882 0.047744144 0.06549171 -0.024815924 0.07256908 -0.0014926714 -0.011515196 0.06201436 -0.043528516 -0.06466919 0.051609844 0.0063307704 0.061178368 -0.042907182 0.004122325 -0.012644046 0.016437795 -0.022633012 -0.0094574 0.030372139 -0.014749223 0.04172466 0.03345738 -0.019497875 ]
layer 3 Activation
tanh
layer 4 Dense
40 20
[0.2425221 0.09517476 -0.25397304 0.35138363 -0.2686519 -0.23776111 -0.31720972 0.24150339 -0.09494213 -0.2617856 -0.13138756 -0.17218049 -0.21687508 -0.12522359 -0.0969901 -0.060198314 0.095363535 0.23980354 0.06548773 -0.2293053 ]
[-0.30713654 0.06882122 0.022935882 0.10486844 0.14423837 0.30056146 0.2226029 0.050577115 -0.27710938 0.33763424 -0.04110683 0.049856786 0.40045244 0.20844632 -0.170951 0.22156103 -0.08802461 0.08952968 -0.060329314 -0.26422834 ]
[-0.18697058 -0.34293658 -0.032484636 -0.11368803 -0.08875858 -0.01145711 0.2381439 0.10201644 0.118919834 -0.18050735 0.17552069 0.117294 -0.07325592 0.1988469 -0.27153537 0.02543822 -0.19020301 -0.1955372 -0.0572155 0.006812268 ]
[-0.2436739 -0.24768524 0.03612454 -0.14195335 0.34624413 -0.1576919 -0.030232593 0.2878727 -0.22590037 -0.03980258 0.037836414 0.20908323 0.008668102 -0.24742645 -0.12482401 0.09747352 -0.1872092 -0.14117163 -0.15939932 -0.27409068 ]
[-0.21192078 -0.07454825 0.16756463 -0.1604049 -0.27660728 0.26394844 0.46559158 0.098230414 -0.08785739 0.2211476 0.23573484 0.101092555 -0.34469292 0.013730272 -0.27605468 -0.069231816 0.16312508 0.017109143 -0.13082588 -0.264302 ]
[0.25958398 0.23134793 -0.28825992 0.29873237 0.019062884 0.20145708 0.12873472 -0.09561277 0.064243436 -0.23249966 -0.12509526 0.18341888 -0.20913397 0.15514794 0.2810851 0.065525554 -0.15436217 0.25915048 -0.26599285 -0.17891258 ]
[0.21876457 0.23455931 0.17469564 0.33969995 -0.16649748 0.0772253 0.08132417 0.20560707 -0.14551729 0.07940207 0.06612992 0.38324958 0.049158677 0.2274153 -0.005021065 0.15378922 -0.018147696 0.18889223 0.36105603 0.2815795 ]
[-0.1432092 0.24996535 0.2738511 -0.12742288 -0.1102264 -0.28017747 0.06313539 -0.21457684 -0.19731961 0.40555313 0.21049525 -0.35194686 -0.23996957 0.022629563 -0.22659661 -0.18485366 0.3381421 -0.03051364 0.12532242 -0.064411715 ]
[0.059819426 0.29510358 -0.332781 -0.22056669 0.062088028 0.09806007 -0.22827327 0.10969146 0.1674981 -0.08636973 -0.14915012 0.010876186 -0.18295448 -0.20417024 0.18311617 0.14816473 0.18502925 0.09121568 0.2778084 -0.10866922 ]
[-0.21626692 0.06494602 0.273177 -0.09011275 -0.021450942 0.1485825 0.22889805 0.2474215 0.3207728 0.11653716 0.1274646 -0.2761659 -0.30121744 0.0018130273 -0.0031128763 0.059720322 -0.20473295 0.049997754 -0.26354626 0.05458443 ]
[0.049260363 0.16397536 0.23225933 0.27450004 -0.084020734 -0.2540251 -0.022970002 -0.18704495 0.0066701886 0.016263979 0.14829174 0.10271718 -0.1051797 -0.106222495 0.10513564 0.3047688 0.28779626 0.17373286 0.01859177 0.26470384 ]
[-0.22613172 0.28485495 -0.23414214 -0.1606631 -0.17062998 -0.16125965 0.2502622 -0.25294256 -0.07238654 0.1368834 -0.12035314 -0.2757259 0.07188619 -0.05371455 -0.18945716 -0.13684835 -0.010472074 -0.28922483 -0.25622576 0.08555642 ]
[0.14554586 0.13531075 0.06332778 -0.13820122 -0.031340178 0.35355285 0.036633745 0.21437657 -0.20598067 -0.07710152 0.042170603 0.2780621 0.048360538 -0.11227419 0.3457692 -0.052599 0.022620756 -0.28570774 -0.029994968 -0.042447485 ]
[0.2563313 0.35798672 0.2535359 -0.16090517 -0.075062424 0.1520382 -0.1375586 -0.22625807 0.108318 -0.25561988 -0.046918467 0.041319773 -0.07096832 0.12292568 -0.21548438 -0.141545 -0.023749 -0.015287931 -0.17214315 -0.15769471 ]
[0.39365256 0.43110108 0.17430238 -0.34860498 -0.16092017 0.09964495 -0.20454787 -0.15150975 0.17024556 -0.3013825 -0.2059307 -0.036835644 0.06667128 -0.14743856 0.018020373 0.08565713 -0.01208507 -0.1015986 -0.090670325 0.24625227 ]
[-0.1634246 -0.12660551 0.01186035 -0.25006813 -0.023608666 0.059008144 -0.27196607 -0.087876566 0.1002043 0.15864283 -0.22176601 0.14540952 0.05890734 -0.22448686 -0.27877712 0.35546803 0.11372294 0.23603055 0.09513253 0.21519104 ]
[-0.024671156 0.027016478 0.2410317 -0.023922281 0.28106618 0.24679877 -0.15474874 -0.1974082 -0.3610985 -0.09822909 -0.0028235058 0.14825238 0.34263954 0.22028434 0.08615816 -0.09090644 0.19212715 -0.27836296 -0.014708279 -0.29196998 ]
[-0.059678603 -0.16237958 -0.048806757 0.41477144 0.025763692 -0.2080248 -0.28881064 -0.3020933 -0.28091133 -0.26619905 0.21430269 0.10557488 0.3378205 -0.11482355 -0.005520729 -0.17542115 0.16635866 0.25437754 -0.12322063 -0.21776512 ]
[-0.09027114 -0.021166204 0.34537372 -0.026576461 0.22356336 -0.13561061 -0.17413208 -0.25442594 -0.040893815 -0.0843192 0.041235145 -0.032915484 -0.2937598 -0.2106581 -0.09384449 -0.084378876 -0.020951962 -0.33265695 0.2441948 -0.002791641 ]
[0.16323312 -0.012803478 -0.04890699 0.009742558 -0.031496674 -0.2427578 0.22481135 0.25778916 0.12432326 0.14993201 0.3867311 0.26229745 0.21222366 -0.13313508 0.12287811 0.2914707 -0.23882724 0.20708884 0.18782975 -0.08838348 ]
[0.16482943 -0.17098455 -0.119803905 0.22943601 0.29866743 -0.07042834 0.22896966 -0.11671911 -0.16238321 -0.092584394 -0.089190856 -0.14264879 -0.3021195 -0.17894424 -0.15139134 0.13043362 0.00802403 0.1385552 0.27926275 -0.062044144 ]
[0.0755874 0.2762137 0.28728727 -0.07065233 -0.07616527 0.0009735196 -0.26928747 0.017827682 0.20218652 0.18003666 -0.1967141 0.30106 -0.14976175 0.14381799 -0.23893176 0.09839839 -0.17440984 -0.32205623 -0.35001665 -0.014958706 ]
[-0.020836337 -0.22645202 -0.24378896 0.29244807 0.15713796 -0.13782214 0.1138844 0.34471858 0.29636312 -0.17469333 0.0018628117 -0.17026627 0.1543577 -0.20564066 0.2495841 -0.04563332 -0.24188349 0.21530184 0.21907574 0.2741605 ]
[0.24086416 -0.35625827 0.17135532 -0.048203614 0.08970806 -0.27118957 -0.071758755 -0.13353744 -0.07557465 -0.22556154 0.11544318 0.06662536 -0.07497387 0.02970346 -0.26059005 -0.08363581 -0.088694625 -0.18420696 -0.062595956 0.22346963 ]
[0.18329076 0.25309595 0.07511158 0.1355804 -0.09863251 -0.11955054 0.16867286 -0.11856607 0.105782 0.10073433 0.190979 -0.10084822 0.30629537 -0.21514072 -0.04069913 0.07404744 -0.27371612 0.21947291 -0.2792271 0.26089367 ]
[0.081116304 -0.34985304 -0.00057565613 -0.07591227 -0.17891085 -0.13972276 0.10836296 0.34960842 -0.18486239 -0.26637694 -0.18981712 -0.13529056 -0.34287143 0.24709311 -0.41516286 0.03333025 -0.14367168 0.24825543 -0.2711267 0.27206102 ]
[-0.16848916 0.086212985 0.09884353 0.2779351 0.30797842 0.22335795 0.13250619 -0.2611488 -0.33502263 -0.1894799 -0.13262846 0.20975696 0.16443412 -0.06681604 -0.01921694 0.047822364 0.2556428 -0.07429583 -0.20516367 -0.17084861 ]
[-0.06895037 -0.069190785 0.24922875 0.10781427 0.057493366 -0.09112938 0.10215356 -0.26812252 0.0030281516 0.021359175 -0.0089744525 0.039849833 0.25537553 0.10294812 -0.004560736 -0.27578798 0.29001734 0.08262166 -0.052877396 -0.2544979 ]
[-0.41455165 -0.1481463 -0.08884142 -0.26710004 0.11192635 -0.24877375 0.41654435 -0.37154648 -0.11724515 0.1250789 0.08590592 -0.2091377 0.09338823 0.23922272 -0.26312628 0.24728766 -0.091069736 -0.17327936 -0.012986823 -0.31464428 ]
[0.12727535 0.1501432 -0.17663305 0.29463542 -0.16258927 0.055438474 0.27939638 0.22585866 0.09636257 -0.08702461 -0.26129282 -0.21633059 0.31625745 -0.010116445 0.34804016 -0.19295585 -0.19314335 -0.09090918 -0.033649832 -0.09948831 ]
[-0.27248174 0.10640022 0.045354534 0.07326468 -0.020423822 -0.1071273 -0.22425734 -0.09285602 0.3356462 -0.286157 -0.24677865 -0.35260108 -0.18104486 0.16614984 -0.24497718 -0.037938442 0.25214043 0.18756214 0.106169984 -0.19329773 ]
[0.273405 0.23652911 0.2942538 0.2505562 -0.07303295 -0.17619962 0.05544121 -0.12140363 0.3021467 -0.14111756 -0.07308695 0.2950878 0.1073223 0.23592451 -0.10066096 -0.15756209 0.32527372 -0.021697277 0.025561582 0.12554583 ]
[-0.3304818 -0.074428484 0.13682827 -0.13014936 0.27485588 -0.008773945 -0.020764185 -0.24507356 0.30898154 -0.18729307 0.17645483 -0.09209728 0.23955175 -0.28943455 0.27643913 -0.22997914 0.1020537 0.24601898 -0.06337715 -0.075815946 ]
[0.2902642 0.26214424 0.24594092 0.20539582 -0.1374188 0.029290004 -0.007256772 -0.081465766 -0.39188173 0.18261248 -0.054187883 0.1251387 0.16350827 -0.087834984 0.17660072 -0.03688557 -0.04149606 -0.15577662 0.19088903 -0.21636777 ]
[0.0118481545 -0.09745143 0.20976658 0.09031263 -0.3106871 -0.08917998 0.19884357 0.035499267 -0.008255276 -0.2758793 0.1716073 0.06644353 0.20682989 0.03715152 -0.31901854 -0.0118164895 0.33817953 0.2713245 -0.08762666 0.25763384 ]
[0.028421648 -0.21770379 -0.2303755 0.33173996 -0.15001269 -0.26691183 0.11711403 0.17547238 -0.3268254 -0.25598836 -0.26623797 0.03156458 -0.24188508 -0.22537158 0.3367163 -0.19224043 -0.12543726 0.2996951 0.1487223 -0.19067024 ]
[-0.06676223 0.13637954 -0.12008799 0.030273728 -0.12459542 -0.33082125 0.10655673 -0.1601388 0.13612615 0.18678491 0.071446024 -0.2105359 0.2740142 -0.13774256 0.043230433 -0.002845549 0.1955535 -0.296697 -0.28153723 0.28688535 ]
[-0.35714749 -0.07016355 0.03235955 0.3357348 0.27525318 -0.23115335 -0.2768023 0.2321819 -0.13683939 -0.30813476 -0.22130944 -0.030059254 -0.025567839 0.11444825 0.16154738 0.14799859 -0.32198367 0.25162092 -0.1268179 -0.05359055 ]
[0.05379497 -0.33677474 -0.17004956 -0.25367117 -0.12368089 -0.056019057 0.28328443 0.20343311 0.09820339 -0.20607655 0.33666068 -0.24895994 0.019249972 -0.13782206 -0.1293692 0.27049273 -0.04383157 -0.23836131 0.13905051 -0.11850099 ]
[-0.30182675 0.022701904 -0.0025172378 0.1970144 -0.11782751 0.022513727 -0.051660225 -0.25843355 0.030634463 0.21000455 -0.02770206 0.16304302 -0.23052491 -0.1922678 0.087747395 0.25436532 0.20035987 0.14379783 -0.18001603 -0.2024538 ]
[ 0.037083756 -0.017827107 -0.015497416 -0.050508857 0.036039297 0.01879092 0.00037398213 0.01214465 -0.015980063 -0.027330061 -0.023438366 -0.015843421 0.005885877 0.0008935733 -0.03967855 -0.011640308 -0.0041333945 -0.006726207 0.0108224545 -0.0047576195 ]
layer 5 Activation
tanh
layer 6 Dense
20 1
[-0.1321499 ]
[-0.34507447 ]
[0.19779927 ]
[0.38182658 ]
[-0.4605496 ]
[-0.28924772 ]
[0.31708223 ]
[-0.18640594 ]
[0.5336114 ]
[0.46996328 ]
[0.20664327 ]
[-0.40923715 ]
[-0.39394718 ]
[0.11406916 ]
[0.39571476 ]
[0.26961097 ]
[0.3391276 ]
[-0.4706871 ]
[-0.14585812 ]
[0.44951624 ]
[ 0.00076434354 ]
