layers 7
layer 0 Dense
24 20
[0.1928088726732485 -0.5991652231553646 -0.5251184680452852 0.05117454261877559 0.4377771031060969 0.2597793249557639 -0.29146514492564707 -0.2736880761905022 -0.07005914404200858 0.14289862259127 -0.1734392039260185 -0.09746575308312247 0.21790686999369532 -0.025351419580108434 0.26287753703351346 -0.1878320000375278 -0.42458906904988203 0.10404120994894493 -0.2642874666115339 -0.02388617445461634 ]
[0.09698613945968929 -0.25870797992544337 0.11625433954178013 0.323368396295242 -0.12044849671410124 -0.2728053373407019 -0.37038292400027384 0.22307267299573616 -0.05991054898900096 -0.039393959382661596 0.2415439274619994 0.12274206977092467 -0.3404587295069611 -0.06778319883373995 -0.34008607737311713 -0.06816804724808259 0.2638593648318325 -0.12115437908037929 0.16529879331055206 -0.4398398167446548 ]
[-0.006793920628267905 -0.24775566334924026 0.14485430435078223 0.2173245735297698 -0.20427695950271918 -0.011077793295413097 -0.11395205113208252 0.24254806029706516 0.13725110790251024 -0.22231334723802385 -0.2815881636151916 0.20594742829615081 0.20836574157310678 -0.22294495589487728 -0.3715918965602869 -0.3870041861190046 0.23355845780443313 0.14240865643933165 -0.2523478682130251 -0.006675340314675837 ]
[0.2800562078450709 -0.49701980196826834 -0.4487488253920952 -0.0004000533354310276 0.015445426136748923 0.2657847140725814 0.3703529303040103 0.00992512303543166 0.08192682075617333 0.1754346220666669 -0.366647409260647 -0.2659528106566674 0.07096650261167288 0.26498407896540466 0.1383403973421189 -0.1631014681781335 0.08431641050893812 -0.3685758411250281 0.36380609014449905 -0.1750320951903954 ]
[-0.1832681918181878 -0.23198163403084907 -0.46599102560657246 0.5202637394441066 -0.22342164558320268 0.459635674768788 0.0016137490386696337 -0.4362150456972859 0.01447591387806802 0.2424627118629058 -0.1454213841334658 -0.06956199441576442 -0.30892523321483173 -0.274989641262585 -0.10196566762105361 -0.2423455942215096 -0.08563239400974587 0.5426021170550677 -0.17218807292455188 0.0992490558152462 ]
[-0.03790997779051243 -0.24142383438346038 0.06718604417920401 -0.19291235858579509 0.401130412180819 -0.04218431943059459 0.41045096810354326 -0.19368558355569426 0.2922949154956227 0.4150653946005625 -0.4469374449768388 0.0021114529661914435 0.006437820180529959 0.08315035119761716 0.2343585758822167 0.1162831588314351 0.1720711731408544 -0.3996029003214048 -0.12303777246074282 0.27764830152579073 ]
[0.30622041421643487 -0.11933598754717431 0.32093131565752686 0.042333893081502844 -0.18260123837152775 -0.3415211851145428 0.09726463713004907 0.2170486536123267 -0.25942360916261775 -0.09788315812531645 0.07579214952056824 0.21087909774021335 0.23117080283962144 -0.3019989074073901 0.037468017575356095 -0.2741949019325497 0.011942712850712548 0.056212005043161206 -0.10317149348496787 -0.13589226581484767 ]
[0.11541996452186012 -0.03793051118291511 0.4904314105112663 -0.5463174370411323 -0.13526765037742286 0.1222085752199368 -0.2763472933822668 0.46827102719400915 0.08731210624278558 -0.5120750301290798 0.19426085628213496 0.415557600215399 -0.06734415004479442 -0.01114413264257529 -0.26615947005199475 -0.036202966293674456 0.21644667579033547 0.20557834496188732 0.12161110697946627 -0.2117929926319133 ]
[0.05013275059096236 0.08251030393267307 -0.370147910122429 0.12179199654275735 0.1653122627317957 -0.28970256460722216 0.07183581391633508 0.0908978618375594 0.07682702847714526 0.13044371232603286 0.32591271082138246 -0.014561928296839513 -0.10466484723393141 0.5122861027167518 0.08334322763546394 -0.08142888745666528 -0.2272258431078102 0.22158918322024854 0.19079519691292604 -0.4545235144143158 ]
[0.11760392078564987 0.30901853351952097 0.09309266074021642 -0.200559017175187 0.2793739738541974 -0.17748015222298089 -0.26294593679227496 0.020505548570809932 -0.12040437200264861 -0.22820115913747882 0.13168998165593315 -0.1593059737212378 0.05015618015327455 0.09592545410420913 0.06661707021626594 -0.09333823990094915 -0.3579457839390174 -0.09218237447279327 -0.12025200914204326 0.28050944912636566 ]
[-0.466423977386899 -0.15555948130259703 0.15898681236665643 0.037091577826193683 -0.11921058551230222 0.02414550841632769 0.20796848235498244 0.008389053884503362 0.029461128585214255 -0.044195540629650185 0.2954156874469504 0.24053428555614742 0.25342648685846136 -0.34704900232089175 0.5719987038776454 0.2583670288728703 -0.03308142025209603 -0.025939003349545523 0.4960634688584355 0.2900377532187006 ]
[-0.3864644872448608 0.26641647879056096 -0.6347866793034203 -0.040583614365719806 0.41337444696676273 -0.3014592624084784 0.0711044922392388 0.1217934613479641 0.48731603022224307 -0.3918499049953236 -0.21435075201155587 0.017814247492830376 0.32481927260627996 0.38764331438206034 0.23535031556285554 -0.33783321795402965 -0.03338273445475167 -0.10617277153135941 -0.2213802544730698 -0.22790864532707572 ]
[-0.41548343778219793 -0.49316494724650306 0.09257474308067076 0.14447391899895987 -0.08352910309626488 0.23238901758860583 0.30052645469157824 -0.048125014743960824 0.17568351871113494 -0.3287384492256011 0.23950889980504164 -0.26390963061480993 -0.9228168342778107 0.01912385586216497 -0.24640294593224663 0.3124103640648391 0.13368066345138765 -0.41782398162572226 0.3982098155317464 -0.2633854884333801 ]
[0.30366856457105346 -0.15284226558857258 -0.07130715208531281 -0.07734195385196622 0.32360661979274696 -0.04774335375902679 0.2108352003309696 0.14776363913532575 0.12876882767180997 -0.17170475777884647 0.049293698394470016 -0.04151902598704875 -0.47800613473836384 -0.07403498734137726 -0.3370277727694955 0.38792566507416815 -0.4348238991720797 -0.2137806774918274 0.046355321377602864 -0.09121307096167687 ]
[0.32834326252602253 0.16774104776316892 0.025714451569005193 -0.17362624594107465 0.019668612426106416 -0.17796707348849203 -0.1279448736211843 -0.32557036069726203 -0.15537253269270646 -0.06766000958038665 -0.2466864987927537 0.025471098671802417 0.15550876963605317 -0.42143446511429317 -0.18487830671836364 -0.06890627444013829 0.0034819714622393704 -0.15549668292541108 0.173891592600082 0.21170154065221247 ]
[-0.3267151179551788 -0.3819065467188376 0.25908677701183946 -0.18926835350731477 -0.12448866049889103 -0.2760517081119785 -0.04692798674264791 0.26832379747027013 -0.33278262598015107 -0.4069915277006809 0.16962814603713708 0.20782286066436095 -0.602853796894825 -0.1698608083051058 0.01140964095327027 0.1365544297828112 0.40840661310890825 -0.4384118257164901 -0.09632647682037636 -0.19987509860540564 ]
[0.41685186740519353 0.13175623964227082 0.004626962446096786 0.5550861674759764 0.43168434249872895 0.4668755745022675 -0.03707520309000142 -0.14451543386917026 0.21523334453576753 0.4616604416625294 0.25872964731998294 -0.49593013367776606 0.26485150095001425 0.09395228112272569 0.28114288719623154 0.5377294232858938 -0.18249210944412395 0.050399340025656 -0.12424107704859598 -0.0003265311358760276 ]
[-0.019479502791715682 0.11979349010502435 -0.42832095506010925 -0.01348135351431375 0.21600900284856814 -0.15609195411646787 -0.07932842930303256 0.053533721092144416 0.4116702007784344 -0.39804641849579414 -0.22742037772858767 -0.4015418430939026 0.2887056411469297 -0.22440144534585466 0.2724400634716727 -0.28776403744910123 0.37272701151934146 -0.2663325392784122 0.17570577830931972 0.4712092831810237 ]
[-0.002158596936503223 0.016371558531118196 -0.4174440345296833 0.3777396051406008 -0.012880410908826722 0.5691266943723864 -0.086677736505582 0.11745828944870368 -0.2949569980805642 0.09882234686544802 0.3158837268288491 -0.11092860143989312 0.24254638936652473 0.21860625603163156 -0.4369975880900979 0.11165014469802778 -0.23617344833860537 0.14405212474938195 -0.28748656638883385 -0.2806704714064203 ]
[-0.18996568370070366 0.3278377626514925 0.00893241623699479 -0.14555024799928248 0.07744673021160918 0.023538967564062253 -0.12679108300319128 -0.20518962149272293 -0.04710131974570667 -0.16689103278860243 0.06984093086419166 0.2388889269640532 0.09849580725722801 0.4608064357211931 0.09726597279679897 0.056700421303817146 0.32775176222315794 -0.04904549465888372 -0.184280192586206 0.11214347335106734 ]
[-0.009508918842110622 -0.16571007510825664 0.425198194678179 -0.4775682064593417 -0.4531710407696288 -0.4357747533550555 0.15425758425806266 0.36286611942780794 0.267688145745606 -0.39824094791910875 0.07204407983822159 0.5677777118961683 0.06368752178225907 0.4771506683685782 -0.0016146912392480477 -0.207690772942516 -0.08683109989781425 0.05627387244312863 -0.398195115262055 -0.17910204305589336 ]
[-0.41414736663987584 -0.048920977683332346 0.27556458984521875 0.2439278031607819 -0.8873782084797895 0.47335918031497926 -0.16888730249788514 -0.2717611714070416 0.35641130695377193 0.06694065525971454 0.1687501362115201 0.17167541953323429 0.8970616960867057 0.19927003041177427 0.6186155509109367 -0.5034816265178285 0.41158277192001386 -0.5880361152295601 0.19480992880711956 0.156774200429701 ]
[0.43877056220323146 0.12034408784263312 0.28366019342695115 0.15703508598651472 -0.4307362834328981 0.03483645298090403 0.1197123014994726 0.6515076201024254 0.40899742296302916 0.0881056279936899 -0.07699192541527408 -0.026036545280289373 -0.32174678977914656 0.6507220634121764 -0.3846924966954146 0.15136174513561548 -0.40095085636552963 0.33716764067057065 -0.1482573478035229 -0.6390255514597553 ]
[0.36438407098588016 0.19432306745144204 -0.20462884600591857 -0.2697405948403109 -0.04344798076442055 0.4481551202762597 -0.20645929368914848 0.20246227570982575 0.35568376052856565 -0.13297080511733192 0.028756800324721377 -0.17757753027943993 0.5682740875703661 -0.24776529451042492 0.732300463514528 0.19474881119320187 -0.44989180604240603 -0.2940599768968021 0.0676475924258475 0.34183711483170853 ]
[ 0.08945325955307756 -0.04801877363811671 -0.024963652161255418 0.05278466513312433 0.06279578362260624 0.009968773130708788 0.02764422388557115 -0.0688367292081199 -0.05480854101627707 0.0770149235537803 -0.13035855837595298 -0.0780792546434528 0.0792602222096747 -0.034124164128626844 -0.0693091452648875 0.005113192671317567 0.005548818053665987 -0.04104791507608132 0.019810469939222478 -0.027220638668663786 ]
layer 1 Activation
tanh
layer 2 Dense
20 40
[-0.127292204884621 -0.07491105801139841 0.10182061027540538 0.2398275576578228 0.08293973637365017 0.2732077167550404 0.5172667913057865 -0.24875244805133429 0.4349993323434273 -0.008646379571564366 0.1850963819563925 -0.04448758740927561 -0.25227335222497527 -0.2751715020532683 0.23699418791469876 0.08128127572313355 0.04938247432028775 -0.15995898308369785 -0.22417234337721845 0.17386029025125155 -0.06375198670686623 -0.014147153799100117 -0.08294704870095222 -0.22054604961006583 0.006435432055944227 -0.22138740135907514 0.18303170130819094 0.22000691623915178 -0.2855984608862708 0.13753000888295422 0.38853858473063274 0.03166765657273548 0.19296793903012108 0.014294211584688113 -0.10687228218715177 0.40132101571885814 -0.15791446272905543 -0.09396096025574965 -0.02472611105830725 -0.20171885268268844 ]
[0.03429500474695065 0.23583232111471972 -0.20285876849662215 -0.3922009179534139 -0.14187030572012363 -0.20857171652996762 -0.32238115282217716 -0.11938925717353284 -0.07850449640323796 0.2998952872137967 -0.15981609250101117 -0.11007164657076414 0.2042180671551965 0.34007638071862595 -0.013813743616302701 0.17636008160943364 -0.1808540841300182 0.044908335276709864 -0.23668768754201783 0.16339894633733085 0.02838981900660289 -0.10830254862755427 -0.23493707885869172 -0.35790354903633026 0.378635421540508 0.03421564000354416 -0.1617021824672118 -0.3384617732217698 -0.16512862359785982 0.07850341081990768 0.34695040830046864 -0.22424721512784007 -0.25538381234740826 -0.20219137750649602 -0.10207710910978045 0.1976791694498128 -0.2966947755680078 -0.12251676943060273 -0.17374462511413902 -0.3121429223550276 ]
[0.23613222054727254 -0.32321408525665907 0.3258262220215917 -0.10308292243644712 0.03617723184506047 0.10687265631803257 -0.4450138656125361 -0.11991102282969082 -0.43180706012289355 0.3570708411704439 0.3304887788196112 -0.3947027397701977 0.4612430084235015 0.22523526708767863 -0.24042787762049977 -0.3732737833824455 -0.13643055064356535 0.42321149568698047 -0.01072986441508891 -0.084102793690364 0.3290191902744659 0.11978000273678412 0.24863020317232018 0.07268013606940987 -0.013038612318019796 0.29245963267865943 0.1557049659829435 -0.24554048331296183 0.2024716024819383 -0.17238632756868125 -0.17285319723549314 0.2070270716002274 -0.2539425833678425 0.03217164259604161 0.2551188655292657 -0.21181027380839212 0.48837908931441615 0.07037791901928159 0.17971675972403728 0.5446002390731179 ]
[-0.021966435830013068 0.10690093300342748 -0.11465435559839539 0.1011203695945271 -0.2696345135314594 0.022638155786823426 0.20329710997835043 0.2400168822207697 0.4850902137741875 0.08260100336961107 -0.08248940742536187 0.3737895656519373 0.11821474245580511 -0.5045745800380479 -0.1525228449336369 0.4634652847122566 -0.30202631151625126 -0.49639307606515815 -0.10282431689219755 0.599580855875057 0.19282682553597755 0.21505725818326807 0.08370714341620734 -0.09056236078268329 -0.3111763527465618 -0.2524171599656282 0.056324881202461714 0.5800039752043002 0.04981127500675819 0.484325090391962 -0.1570541308155084 -0.3873370178934581 -0.19189728687924823 -0.05961520179752736 -0.22704266393819245 0.21920717826203578 -0.5851346751768912 -0.20042164040820717 -0.2091785848516741 -0.665275546710404 ]
[0.3554863613735575 0.012406622999747794 -0.0666097954579492 0.39940437857064104 -0.1150616116217642 0.019831984785920166 0.2530764909579801 -0.13465291048414613 0.5943672265588531 -0.36356964806460934 -0.10364794905034379 0.39108234101906036 -0.2573980112781441 -0.0038366277924348226 0.3676663402158782 0.31817210479298225 -0.12026937266087179 -0.5203348543484491 0.3891374766886892 0.17848756032014954 -0.44779632795609575 0.31467062306731286 -0.1236778777003109 -0.10100517155803505 -0.37955639842427485 -0.006571564589443508 0.35480635316934034 0.263161377554714 -0.09847462204594608 0.13786795058584855 -0.0438399268894267 0.08281207348147922 -0.15948876191019581 0.3183655246704942 0.016245905295999452 0.2920132033808637 0.05158147786526077 -0.15161106361169907 -0.2248755817679724 -0.4475830152342466 ]
[0.03811222289587027 -0.1296288514401889 -0.17978944316080547 0.4086381877214941 0.3446645185072104 -0.3722370190213524 0.7692524571341761 0.4225120397406252 0.8165671144391917 -0.2989732259218439 -0.23510430097074364 0.14872861714909916 0.1585141897514326 -0.1120496800870261 0.16136412183933682 0.5697536447632029 0.03667446176475066 -0.6380526168667806 -0.22915524499999126 0.3608696778107721 0.07917737345434511 0.3063983420065063 0.23906150850344404 0.2240158461262147 0.15153566777728592 -0.5134811031291946 0.1796877777941982 0.018549186699471025 -0.3352737250355806 0.6331031161564364 -0.29430454696768915 -0.3387574750695193 0.23319356670887303 -0.21493004197083382 -0.34155264948030883 0.04457560888390387 -0.18020191819077952 -0.47049445880239155 -0.21071063388389524 -0.729696970106869 ]
[0.1959071826443161 -0.2387032123048589 -0.28864080510015633 -0.07508681579568936 -0.10355310568017245 -0.24686380371487912 0.11906848319985026 0.2694655385575374 -0.16031925386994378 0.020781034540600075 0.18248542463104359 -0.2695829999429811 -0.08011114825220854 -0.25616995220000566 -0.12053156704039428 0.005670510007456402 -0.05115559556666996 0.2119614525492718 0.1248913097879509 0.14285671104810427 -0.23831861105471386 -0.05899033301671449 -0.04124246282675961 -0.1919007329330449 -0.3079575439931183 0.12471547327511132 -0.3260116120395647 0.16828395658518186 -0.1969238735502128 -0.021009626853385595 -0.22309384824242134 -0.11564920663917805 0.13734071153728467 0.21462977418234583 -0.37208014673277057 -0.3154987698345601 -0.0695606899944457 -0.22542824027958405 0.11673982926728718 -0.14166149208227283 ]
[0.1834507864299591 -0.04351007309423201 0.2462896280183441 -0.38796271363461965 -0.2195062677780645 0.2898139536216836 -0.20599942468175944 0.1540160006769915 -0.3030079268768228 -0.2119167728794712 -0.08822090592550591 0.07629373676676428 -0.23233290956295266 0.2620397277361915 -0.28179841921140186 -0.18988644554454354 0.10737276154932202 0.09890809998571669 0.021797823279056525 -0.15811394817219307 0.20604878746868413 -0.2843034226584558 0.14801302298648467 -0.21710328773975876 -0.25795868045781695 0.44668323214501343 0.16341763172821672 -0.18680277378762425 -0.0584440573933143 -0.23042523052895464 0.049299018775481034 0.06455701921811194 0.12394333944161716 0.10239586658968713 -0.012161049651573394 0.25494997012674164 -0.03974860923627625 0.3581299309112846 0.18147866884284158 0.4305914610869569 ]
[0.2579323924594894 0.26390070457532944 -0.3666286800397182 0.16492272147442721 0.3900262169403264 0.06088864090358824 0.14679823491850927 -0.08658899046286116 0.02512948719257493 -0.2576765981500095 0.2106225022215401 -0.005046217164906806 0.21404447505087232 0.42413229355862647 -0.20565028528362014 0.27313661700965197 -0.20039508529191427 -0.030737852047918336 0.29522231767222845 -0.17337975870154435 -0.18418719665005306 -0.4026414332943932 0.12981386588039207 -0.23204425977463167 0.16764092606067638 -0.1297136334305943 -0.293554862926039 -0.3405485784765064 0.06654416523463126 -0.1747417492790381 -0.069620208740785 -0.30022360362790773 -0.12102152398239166 -0.042659578416929904 0.25495807732373776 0.3147370722702489 0.13820530015210133 -0.15681223312439707 0.11764852258071384 0.3412309055108725 ]
[0.23487160807322635 0.42799492532141004 0.11580035636283978 0.2645315756888137 0.2355689650709067 -0.016185667176991377 0.7456621581826878 -0.041534407165799245 0.668384740361434 -0.43747923699072483 -0.21264519912511057 0.09234771429755809 -0.25927617787730833 -0.6204448095796631 -0.2377119361920171 0.49350556878992496 0.11277687573594039 -0.6632992206811876 0.25968341079556956 -0.03349102950818314 -0.14777451946297468 0.481174152141529 0.17429844352734944 0.17526728598547353 -0.25900284096318527 -0.4259056642600079 0.22943984985748475 0.4950327483652496 -0.10281548844474765 0.30072287935563013 -0.2625097925726688 -0.21425778491748382 0.09887300663904759 0.32709690779428224 -0.26445912769091123 0.15733315261610212 -0.5143145548505464 -0.16052618788856335 -0.537788863275999 -0.7451129832023559 ]
[0.29660826726076006 -0.15568242669813873 -0.021673832033033344 0.35163325580820204 0.13800134519755564 -0.3100406383356371 0.09354699788844908 0.048166688659953986 -0.21369320548075235 0.30334672339494173 0.16727208029126478 -0.009713599867126632 0.30559499325806205 0.167767187517511 0.03035348287484009 -0.16904405421110857 -0.016606298653818834 -0.14043644676829745 -0.004675172505544211 0.11316951595401983 -0.08637157869060744 -0.08868265476006743 0.09888674072532498 -0.10648045478061689 -0.17141091279159684 0.0072422050922020045 -0.29203599766447724 0.06030412858379223 0.11224218732684953 -0.13387109051242901 -0.10536875359719355 -0.35624236585322383 -0.2521864240539578 -0.10855981164856732 0.11727389679879727 -0.2243966005972421 0.056906184173566125 0.35278060213537665 0.05159619633062285 0.271771345775515 ]
[-0.041759654475151876 0.18502998155248288 -0.030547335041413288 -0.27186023309124396 0.12102874283955355 -0.09825810904201247 -0.5393578498593412 -0.43919402821678427 -0.280731124492913 0.3319652027578281 0.3605014688896848 -0.03887308751963558 0.4997393352665408 0.5127599257325133 0.034522261608332 0.013363446251693303 -0.2375537131987774 0.328963019806174 -0.3237885727592249 -0.38104774344643194 0.5363402871675997 -0.4658142862070813 -0.2514772187644187 -0.015591781904839966 -0.25370409986977793 0.07960903718310439 0.1314263020780149 -0.37638569652500825 -0.0657009659541448 -0.4981602601255948 -0.2655710950425029 0.37044663619410645 0.17890763280206573 -0.39832216593480113 0.11322589973303987 0.0065397360055585016 0.3329078574419618 0.10917008380294303 0.12531522962661304 0.5857787711528898 ]
[0.20637839240392106 0.43343353088331826 -0.23223627117969706 0.14918255007179385 0.16207577091445652 0.12136495519313882 0.5221439550519471 0.07024840055037855 0.11484301125539532 -0.43168111574281287 0.01120845433852707 0.4241198507096768 0.4121361466729785 -0.38101281466652026 0.011272244381324598 0.2619008448675718 -0.19087627226983578 0.056390968019879056 0.055430120444058345 0.28965029890265115 0.07727668258515552 -0.2169352361682604 -0.4036648543063674 0.1495951778063486 0.00216467381929826 -0.5497563403421013 -0.04291901624590153 -0.08137937995351818 0.0038674460617486393 -0.15617922897780956 0.23917855678870287 -0.06819106546203388 -0.29847791816410496 0.19557260121210696 0.004123261660576482 0.047043933047375724 -0.483436586015991 -0.2449548293865503 0.004961899116574445 -0.006917891466522995 ]
[-0.32856541713763526 0.22469727372610235 -0.2367750348518852 -0.003213374799578479 0.09582049335351889 0.08115094280244142 -0.1562406991707764 0.5308844598289127 -0.5630547876714392 0.2357083463170942 -0.11809933902220603 -0.30371732460790163 -0.1626823229577075 0.10449719048958254 -0.15037096274383135 0.08982932741825214 -0.251620832420065 0.2501995154502481 0.18903304515725056 0.2676316224237714 0.0823160334196221 0.21141440974052794 0.18758521702536976 -0.006291891696415313 0.1669378858365418 -0.08548148189565792 -0.13435254271716643 0.012656965113185523 -0.018229085571978963 -0.011392843410453107 -0.12955824069043362 -0.3159422512960539 0.32757173722015387 0.2563023610992376 0.332033986755947 0.22979263948425802 0.2754256181693728 0.26531068571802835 0.3659528481494733 0.5187596782255021 ]
[0.26980709613244996 -0.02258487501841415 0.19238203006060584 -0.12400773240324013 -0.1585339871735983 -0.2824260180494012 -0.30375881897364176 -0.2709694900032517 -0.026803405400558148 -0.33949063815106684 -0.21201480153512914 0.185023058624497 0.3503226827243267 -0.30220259410232697 -0.20201906172660367 0.42927464468883014 -0.14560383421658685 0.17931081205351448 0.09146796664251763 0.0342191168293255 -0.022735843933988916 -0.1710578333088257 -0.028869152360704732 0.29957629087896914 -0.49229399855504485 -0.3763512806482014 0.06406453205231619 0.22417189397212806 -0.13107523776658814 0.40951452649802833 0.05937495893883952 0.17154939044709894 -0.16363301464010332 0.26856356268098414 0.014757537975547953 -0.37996197128691644 -0.0772417162015169 0.0010844096933210695 0.011800198724130686 -0.10056171837310293 ]
[0.005010803735018991 -0.27944452452808427 -0.17061975318438277 0.36295679079613313 -0.15265716693402953 -0.44549541088641603 -0.19250972411301248 -0.050748180831680444 0.03595278124626719 -0.18714998465640123 0.20371882461351318 0.340382015853599 -0.2985638850029302 0.21134631669523596 0.30234690784158547 0.15290604420226944 0.04221972335817854 0.007329367071199299 0.19385945590817102 -0.34028220246898216 0.23448998986035227 -0.2350854279846838 -0.2414230973425247 -0.11480745935433659 -0.11192173278570436 -0.18161207815029948 -0.08695811677935854 -0.31864710183650746 -0.23817271578957475 0.3946007172516103 -0.18606081865269072 -0.38726866797871035 -0.03150378783252682 -0.05764387363412611 0.010487416953179347 0.3519467982451509 -0.21684538383000668 -0.21164085291346413 -0.16781818392456366 -0.14350234378580273 ]
[-0.18284772562024687 -0.37514835864687446 0.06507011516780753 -0.05271394200167625 0.16635794805297652 -0.058217142041854734 -0.5128011417353007 0.07498977149987607 -0.17315899876557317 0.26383021984217636 -0.0009037010553421135 -0.06508625731457793 0.5372005107009354 -0.20386457685577672 -0.12816958617521174 0.20568779979331606 -0.1011702052204552 0.03580892488593645 -0.2653719774022796 0.19568948198596006 0.21708769035413902 0.025517301805929003 -0.25410918908598895 0.08142660260224194 -0.1042095027322823 -0.13656732441882494 -0.11134028790793805 -0.0533377886962412 0.2591553231908936 -0.004276931609615115 0.12619296245263192 0.055227459038803245 -0.06268772707522499 -0.007372777609940377 -0.15643098866867522 -0.3397362462843999 0.43060848624186165 0.2537335308686655 0.40838127186770873 0.1092183052964613 ]
[-0.2757768364272239 0.20679434273480451 -0.2050386664351957 -0.09124973470786524 0.24105162327198748 0.1771950680459659 0.15918720711277914 -0.3250277078656553 0.048747295616337165 -0.2360162219214886 0.009733254253488534 -0.1425879428550778 0.24332098221516632 -0.20180994410561062 0.18479591460346528 -0.22486658327435088 -0.0029491068883213123 0.09321287426668703 -0.2476105909981447 -0.02292396520694006 -0.28209776124904334 -0.09265974494879956 0.20544893035148665 -0.26014242481681454 0.2537849097293078 -0.18475270035785943 -0.06988206319310006 -0.29871736824560746 -0.22157318585291902 0.26814000010776445 0.2743496400525662 -0.24638533433744816 0.14351474142955206 -0.14068052391131275 -0.12645597884324608 0.39344154595184283 -0.08416738518965876 0.10642028308202427 -0.3462188572308301 -0.27162420673551013 ]
[-0.09175752884857695 -0.17001994788490185 0.15515761763739813 0.15423481985156037 -0.0555500574032202 -0.557649928081309 0.0016212307079435549 0.11277811869519441 0.1486826784193373 0.3953625448888027 0.12665334230826947 -0.25888146314565813 0.03685684269649474 -0.1633096166015791 -0.07205419961720783 -0.16928193978982434 0.05973778017130144 -0.01320304319660058 -0.311746252583511 -0.18842985597048345 -0.21784839501239817 0.25392958492713624 -0.3314355781261485 0.3703220955203455 -0.43104293433759094 -0.31435156392866676 0.019428546000193836 -0.017526715210480274 -0.2830289840660997 0.030111556132043797 -0.2596871915381181 0.21530364912879357 0.16722387015895984 -0.06498136779206767 0.05769242276352467 -0.6140792347581515 0.1446547421479293 -0.28080647236951195 0.37538864444726555 0.23283863226606052 ]
[0.3770458482819135 -0.16751943930221866 0.06720161173103704 -0.2762013414458912 0.15736017456187626 0.025446462504335934 0.2890268613435267 -0.3910550067114213 0.012911820259090144 0.1026902502600562 -0.11895184559798935 0.32208499441155025 0.16695553491429058 0.06667373398378253 0.09064587756967406 0.3907388412336602 -0.4408469206083103 -0.19588665481497675 -0.08174928430801263 -0.35488237069286316 0.13057623848902364 0.25764548755501643 -0.41079098340688086 -0.03684033213016999 -0.15131264054740434 -0.1052139487007016 0.32065322033070254 0.09910259224610159 -0.18786419898799087 0.18482406870439477 0.3311132567288075 0.3801781093217986 -0.2949688754720063 -0.11393484709788981 -0.23871474695417674 -0.3204261640319762 0.20049368906423762 -0.13617704905187217 0.050748066742701416 -0.04860207086416955 ]
[ -0.03536304576505068 0.07896091829815888 -0.03872863071316934 0.003683150793060813 -0.07604731182769489 0.037039497302453296 0.11576554148171646 0.16972125497036036 0.09989034996252356 -0.07602903960935799 -0.11761546176153852 0.11564987181536286 -0.087360365140914 -0.215524974243024 -0.007280978227066367 0.10227799939496948 -0.02402799920698399 -0.14977151596872312 0.09217317165665621 0.1380969509720258 -0.06364396339035497 0.22538613773773306 0.10460453536615212 0.0936480549465201 -0.040216471599557824 -0.013839935372489932 -0.020545536730036295 0.35637507296516485 0.0018127387506530336 0.01772003737349302 -0.05948772832866283 0.017300399740778474 0.021344434063137543 0.051433549932903756 -0.13671979987714958 -0.03219024983522668 -0.0722860012999794 -0.1187589702613909 -0.12249348236625951 -0.1088900001550555 ]
layer 3 Activation
tanh
layer 4 Dense
40 20
[0.30596472990637097 0.3268563644991588 -0.2520164165072578 0.18290954103709048 0.01788343364116494 0.32001789307691636 0.34739462832203843 0.34654016952875427 0.1608271267404736 -0.01986371605090642 -0.0838918654869957 0.2985263025043735 0.021441650068730497 -0.11912278687541798 -0.3199018267200581 0.2517690060598936 0.03006915552095309 -0.40822019778086815 -0.3054157735615469 -0.10006499697315689 ]
[0.20914775470039743 0.07224171247850512 0.005938999352994425 -0.14989169730503285 -0.3156345001960961 -0.1971037904298389 -0.203565021019928 -0.16095496603488277 -0.19975180423742284 0.25160533102662014 -0.20282307422439058 -0.023169088046510685 -0.13899762935472842 -0.26642674392490945 -0.1577057179762118 0.1396796260522402 -0.21600073071279122 -0.10660575370221946 0.2832343275492769 -0.018119613075469658 ]
[0.008094732691392315 0.30676722959029634 -0.3204460669628721 -0.09374851883509891 0.09009592595064105 -0.0017724200256616775 -0.10874603441896286 -0.2581812609319936 0.2799046488658831 0.2430275289516584 0.18789800922529962 0.022487642856519698 -0.31358264689541676 0.2872133535299357 -0.055865975080214895 0.186883946197472 0.08378910415531184 0.4792461148900626 -0.045163735580432206 0.36810236145616176 ]
[0.5302157073744574 0.05652526046402898 -0.3152319329698713 -0.20948574964956468 -0.11534925887031901 -0.09581021773165313 -0.5378383957648838 -0.0924965822249017 -0.2348722342256181 -0.17252326339498053 0.3087144606846919 0.04319837889098501 -0.01435453053065935 0.05237950567687558 -0.21742903222741525 0.3053759340604377 -0.17004272396641423 -0.12454847381835944 -0.42360972009383896 -0.18423316121508826 ]
[0.28490349280452104 0.23769314507326691 0.2914632312765874 -0.10127032966818784 -0.20085186345513908 -0.2280858725800076 0.02148572190909591 0.14058433978918067 0.07520091780411299 -0.05757263274660605 -0.28164177836120097 0.23841489223110177 -0.18696993786945787 -0.2228330749984384 0.20750807679306077 -0.30537268191030753 -0.39703152527527624 -0.5861797346950006 0.1856782709571888 -0.14791021081887534 ]
[-0.1571405796114343 0.19465163237549538 0.14863160639511175 -0.19433564475831644 -0.06954870449761022 -0.06308447799497666 -0.3129098891145192 0.24394503900323236 -0.26702212452668067 0.07674612305880428 0.24814061175440275 -0.3471563206551494 -0.3519018709598139 0.2728239678014556 -0.1729975418593145 -0.17687490294310035 0.2178874321623962 0.1643140453454315 0.31297751708414806 -0.0722443608922914 ]
[0.7143482800344262 0.17816701676943467 -0.008863961909162757 -0.23874598751939377 -0.39864797356968174 -0.1685244766858428 -0.21292881026276103 -0.0032031795078728553 -0.29812257192546077 -0.22832589620026192 0.006390019346271958 -0.11403146165628203 -0.16198836813885623 -0.26262984686456137 -0.5360499974276146 -0.022814793603503403 0.22079109758135 -0.3715165131544415 -0.019742456504491895 -0.2554894371927255 ]
[-0.1266981665462913 -0.131634521620213 0.16908031685955804 0.18078098941004353 -0.199253292290066 -0.023674021808725937 0.036970355242949754 -0.22028657174969032 -0.20679544378337136 -0.06696607403719322 -0.306664021914022 0.09084159879871113 -0.2872541688696699 0.291277050509681 -0.162192116002607 0.005398158717951037 0.3114668501745109 0.3485350950108605 0.0755769056631944 -0.22515639285354735 ]
[0.10539483828215218 -0.12945692187125843 -0.3632893674664758 -0.1573916427730456 -0.4201123217568196 -0.24149538152241803 -0.48804653810406884 -0.20147300711353477 -0.1070164805879299 -0.07104532375237455 0.14546525381230674 -0.1343016138159542 0.20814253381077483 -0.25902837214239033 -0.5053391892965756 0.3004699916455729 0.15396179789510173 -0.2859377324884353 -0.21773392981012313 -0.12653933428048572 ]
[-0.3367548626939636 -0.25589033694043317 -0.24725409117680844 0.4278991641110543 0.12753126265371023 0.06206220657325501 0.13677739159175265 0.11584688126273661 0.2597267345597091 0.1606628663848462 0.19772523923518096 0.3311996650621093 -0.17466059266045333 0.20308050561409996 0.4374087872376276 -0.21546763458678925 -0.3398140689821521 -0.12595502894432986 -0.2876355414370849 -0.22566172788951835 ]
[-0.1765574410544829 -0.23884604705741622 0.07080300876090492 -0.03471084596634755 0.05577018079646944 -0.3279110699041861 -0.05173630188639979 0.28402158259363514 0.24157434043053966 0.35559326118954804 -0.1340707708488696 0.18981097673317285 0.15668855731711467 0.24699335433423525 -0.009648619895845896 -0.15197390646858472 -0.08529150594061205 -0.08843877569069145 -0.29721170224632687 0.13963614858695464 ]
[0.2340178322698913 0.4318604888854976 -0.26087256133955805 -0.3245944271263045 0.01511468377788114 -0.009336209150131027 -0.18192057907708772 -0.19499949977849654 0.4287291264051491 -0.2988703365268929 -0.09559173777173749 -0.08802571579248403 0.03412345966191028 -0.48172611631539725 -0.5423742960866439 -0.08968853117865007 0.23117106420817637 -0.5573310855283741 0.026775695627682783 0.22673015117104756 ]
[0.057284073739308605 -0.09495394295268125 0.17348171431647805 -0.033147946620963785 -0.18869021319967494 -0.11065520424880473 0.33188740031821845 -0.1529913699191579 0.42927343946431346 0.24209228236141958 -0.0019663439532467304 0.4540655267121004 0.06471486022265564 0.2577102276251113 -0.3073660992547837 0.1666607779321515 -0.5633387717810925 -0.3023432794386587 -0.15114890225553576 -0.2443946021795909 ]
[-0.2247065806866148 -0.22758918761247446 -0.005500292503069217 -0.04562793135796127 0.32484206955303446 -0.24293035976708008 -0.0007082491224769758 0.40090216129648854 0.19718590007830009 0.09688722587257849 0.027411597476302105 0.21774815050020155 0.13098496249867242 0.1644082714969772 0.4125552901413476 -0.03312194947203562 -0.24946152471689453 -0.09202935618501991 -0.17400675565618712 -0.10510187277140015 ]
[-0.05916107452074583 -0.04888176493301571 -0.24834845697689226 -0.14634604688843048 -0.009559755665655102 -0.30463040768958644 -0.3474287054077662 0.14770055266053075 0.05306725609434694 -0.3853066659032371 -0.0783574102814105 0.11702084359551862 -0.07676047047099369 -0.30096052443702054 -0.07256920001918694 0.15801337892888356 -0.10145212177206252 -0.40703130754755296 -0.026164589012690646 0.04457860411356674 ]
[0.23884207078312555 0.2867572218922097 0.30691602682560487 -0.36357787204411757 -0.3547757149675469 -0.07002651670745533 -0.17771554618877416 -0.38948629780958166 0.10676007298431912 -0.25769046777619653 0.07201855746252016 0.3120205105698578 -0.2798101208426001 -0.23578015856055454 -0.5276447353778964 -0.2125131177538252 -0.3155600529570345 -0.1222632032267546 0.10510768787342895 0.1061430532354841 ]
[-0.011354637417428565 0.07820856515025162 -0.2642769531296496 -0.03880290462075855 0.17469170808470993 -0.17377587391050037 0.24569183243673098 -0.26703453670119337 0.110378043217352 -0.33607062827034895 0.10924622893121981 -0.2521453573172795 -0.19885995267626635 0.24603273951222765 0.25236578037388935 -0.1479431827289025 -0.02560069588914311 -0.05072927662874606 -0.03036127028734926 -0.08685827983646735 ]
[-0.103007413914599 0.07024947707671515 0.34837659863791703 0.5486052702125453 0.13218606543676115 -0.2706836587589548 0.19058294235205792 0.2056022907073643 0.3020959447083531 0.556522344867699 -0.10860122383732296 0.3848558382347107 0.051710066749313846 0.3987507713130111 0.46041852970748903 0.1278595103544236 -0.22101619093129576 -0.12872482581899616 0.36845739922317744 -0.11867098320815178 ]
[0.03543461725573176 -0.12878438046808766 -0.2741356550143718 -0.06844605402218386 -0.13893884284710495 0.10970395724699251 -0.45788227153290395 0.23629375166947308 -0.2517053093207829 0.08498948904602265 0.28991960231819597 -0.5191282421383399 -0.2653380734694375 0.009394607459342027 -0.3051230229977699 -0.05897211558171312 0.2022266659207506 -0.10358801428077777 -0.17950112695943038 0.15758726036403586 ]
[0.016480550552036934 -0.1329206009451306 0.17544062383807021 -0.024523362745883657 -0.021375175375147694 -0.025953705619762447 0.1211974429200689 -0.3382037955862407 -0.3005002239246225 -0.13298201865810752 -0.07711266141916982 -0.39529861911360015 0.07021640567173207 -0.20382815728734652 -0.047083958303833925 0.14672101793424008 -0.15372601142156925 0.05964116200388591 0.06784368996909676 -0.02417682310324347 ]
[-0.3263565194268933 0.1754747980802705 0.2836320800108499 0.13481234575838555 -0.058099375191904716 0.07470380490471755 0.23552044051977852 -0.0715355857129219 0.010084605457154611 0.21410034380342888 -0.18660318916110918 0.3947754178407111 0.07319552478545978 0.06609125531917838 0.26750202243556126 0.2380034248833734 -0.4858833946414316 0.13862764865625776 0.07925548133066679 0.03265444373833909 ]
[0.20918308280149364 -0.2768123862240824 -0.31461031391469685 -0.16895872016497912 -0.016976898325652242 0.11830283195180691 0.2053370342879021 -0.32348624157783734 -0.3064624920436555 -0.21559931548705347 -0.2768162622711376 -0.2388349093739923 -0.014327900954536451 0.04980528281389706 -0.4096588712219611 0.0067507844565138945 0.19715498824368455 0.17731075296010948 -0.149228967629617 0.16238027165169594 ]
[0.13304713335890866 -0.1474219029605044 0.12618718371645485 0.16603044222696808 0.3468806819402406 -0.13211299061981818 0.173584920495988 -0.16283301456959828 -0.16368494754523005 -0.1857922441428698 -0.19596446810831333 -0.03752228064177236 0.1812534355510822 0.23365731292768957 -0.08527215482577356 -0.22428379480828786 0.2448593432398658 -0.032617582146457984 0.02583265625594443 0.14796334577094702 ]
[0.05144027212896743 0.23919397216164823 -0.25129333198593706 -0.1320029044474358 -0.29710883724170445 -0.007276073241358473 0.02817374086568476 -0.2553657059749543 -0.35378098730652746 0.21743066879088743 -0.23788054235916867 -0.22734069123663714 -0.2751739784014668 -0.28828124908911473 0.24772175353457718 -0.28242246028154466 0.1443940385646181 -0.1508635162837709 0.1612293157911328 -0.181680155305951 ]
[0.19822939835370706 -0.11569981789046847 0.034819938769327596 0.17441658817820674 -0.051614685352950364 -0.06837917349045512 -0.3422473811262402 0.14138804010224432 0.1388679193261337 -0.3093579540591462 0.4011503195071244 0.0565578668048393 -0.1006306638459765 0.2631314968461752 -0.12017746652003247 0.29833258473391483 -0.1524799535418775 0.024804826414025524 0.31194016186880225 -0.024613946514994562 ]
[-0.13772140170179903 0.06068933369077235 -0.015773311436769792 0.26236000233427165 0.13008644299652358 0.13359965959498948 -0.1647512543060762 0.2983105760051087 -0.274867490726866 0.2500785049691957 -0.2452478649328966 0.10527258376503565 -0.2201133963643388 0.163750958390012 0.5486988972443939 -0.10559791465744102 0.2503459246660336 0.3079656456303021 0.22342472474733627 -0.07708290481602076 ]
[0.26973717363049987 -0.27191792332086046 -0.1784277198109102 -0.22553400886138208 -0.3214966220872222 -0.22539873523262968 -0.05376315740194064 0.217840289109638 -0.18044970248063932 0.25129455028212305 -0.32702089912378507 0.04576339685224043 0.01890062899441216 -0.1853923164319152 -0.3508093681943487 -0.1376063305947846 0.3332325926252626 0.2487778498036369 -0.18109999630912507 -0.04248247890307806 ]
[0.20999397065877298 -0.2154427295604089 -0.42178987062600365 -0.30115113765431334 -0.11122721579958232 0.360543443749915 -0.09061821945073191 -0.16200578135885252 0.15547582143042374 -0.08583417677445439 -0.08405388958307021 -0.3908434924815354 0.15327240950435542 -0.16609489789697837 -0.3482721916897026 -0.39110186961438337 0.04206144614176331 0.0604778176313225 -0.03736591666015596 0.1643982239308862 ]
[-0.2610048371383155 0.13090810762512806 -0.09046262503319336 0.23300937336296598 0.24350475602109942 -0.0364238561187345 0.23907718560070362 0.041938619083136376 -0.299672432121387 0.01335328754854075 -0.03650595421497195 0.26142408322219296 -0.2005654651148625 -0.13869087704008445 0.2090215135566206 0.04772870515561643 -0.41479312068897306 0.3381548118587159 0.11523510009116465 -0.3128159895848085 ]
[0.6303091841439215 -0.2603389178999197 0.2545373626756783 -0.13479499799019892 -0.3364706093308411 0.2038478188096016 -0.37054171146987025 -0.3221782715027658 0.07023603466954248 -0.43846226825086076 -0.07420887537431373 0.20127457769482154 -0.08380201331737241 -0.5232883940303268 -0.15215464222822547 -0.00224729535786178 -0.18239106678865996 0.2012665893828088 -0.39295819934948883 0.03447895346237155 ]
[-0.018224123201398833 0.3198479533786758 0.29461137337421844 0.09658789326952728 -0.3024591364071696 -0.042315852804721 0.01115337390399598 0.24123899537914367 -0.22491643914397336 -0.2706572458170699 -0.09132826449204459 0.31198916245222025 0.08710875090117035 -0.0034979108168714346 -0.15834502667090214 0.08938035340636317 0.24391938858175088 -0.24496051167416666 0.009338728025955782 -0.17307226176188792 ]
[-0.2917346338377306 -0.2708527664107489 -0.2811586744300598 0.4185418222448146 0.29115532528732935 -0.10301357729688208 0.4839727477598934 -0.3101352510181366 -0.27681096149641077 0.4009129349887096 -0.18190605998927947 0.21754742519822612 -0.2524517788233475 0.1658156953593897 0.34903053904863285 -0.34715545249929325 0.060368623918625644 -0.016922133622447436 0.040130893816246925 0.3916205056198456 ]
[0.05023859224998965 -0.15040940107827006 -0.03273059058365398 0.12950599047178082 -0.01305339219528991 0.1801345731363417 -0.32210947059676737 0.15926659450973293 -0.3686590830042925 0.2105365517027773 -0.3097225624814475 -0.34127801474051545 0.11495392808023887 0.2893364414025178 0.11794519311914131 0.2872863119444742 0.4421790178090478 0.03455660532368139 0.23605970592524073 0.3381578485003955 ]
[0.14119840944631926 0.25745663647389094 -0.34156256351077857 -0.11118997525585915 -0.012613587633404937 -0.02868102613414228 -0.1886744056098693 -0.012515279858353713 -0.18388255717745236 -0.11108625415067566 0.1325002926792692 0.10279507952768421 0.13716972436620045 -0.21636212121075557 -0.17742325940542328 -0.17486113273436027 0.2700923169441097 0.2931340688228371 0.13455636293796291 -0.20427569559640374 ]
[-0.5315088245142918 0.24033296140513474 0.08789861152590672 0.3516950280855106 -0.19859715190850438 -0.1450179151051069 0.00942606159894853 0.2398433919618463 -0.09937633777742852 0.2500121724743004 0.4030639142388985 0.13624820902891419 -0.0030357836645198612 0.3164096538232116 0.19734564052832373 0.419837390189062 -0.30601201252784005 0.20629289991913718 0.16938051948550972 -0.0029547405844516095 ]
[0.3879654567270542 -0.15961109743749638 0.21992159529463057 -0.3540290505788627 -0.1486585304706967 -0.19535589066369563 -0.3640128167162718 0.43979784136907835 0.27379482176312914 -0.20568289786863678 0.06520789681878171 0.0502503237501706 -0.04929040479616985 -0.07423721991722235 -0.2238821307991056 0.10631709342605325 -0.06715959306693896 -0.42253742014234624 0.06083823481274611 -0.5087450157307813 ]
[-0.28405593188065964 -0.06808624219341533 -0.24914382810662627 0.1529643391955088 0.37285420523019597 -0.04875621215931945 0.35223239690429503 -0.0691540206137575 -0.00486848559356157 0.6656877826214622 -0.009780303838153058 0.2545124168084747 -0.22857051954064803 0.3756793262708987 0.7239583946453387 0.2463219811429934 -0.12580360729504045 0.44376666129325015 0.09066145206505734 -0.015494832223757391 ]
[-0.1953139341075449 -0.19673927507901423 0.13503213736542055 0.35228798467772604 -0.2119319133900718 -0.1423059404492899 0.06404395819234474 0.10202295478411467 0.17170715578279638 0.04634855121571524 -0.08746091000554773 0.06490746419441908 0.058207965211943 0.11489376978066392 0.01664267681871985 0.0808696138384937 -0.193922776225395 0.2915839031001582 0.30777433853579633 -0.18275173575976553 ]
[-0.1863991660387853 -0.0387964167446276 0.05503160697081107 0.2126029099507228 -0.16981532047363135 -0.049788140978493156 0.23675036790567858 -0.06387774172698671 0.16687696961230006 0.29448368775699635 -0.07806004554689586 -0.26162682617431865 0.10146036675187523 -0.022042829345533175 0.42925992966022064 0.16965058027443985 0.19365523892842615 0.35877967275500683 0.25583069598129565 0.07149853533244462 ]
[-0.4504924792512888 -0.3724753052254239 -0.09047911973299042 0.4368124929663438 0.32780826486719733 -0.23847135801495875 0.3373120257663148 0.10860079408593071 0.07903393445837391 0.6285706512335357 0.13015742573345773 -0.26745777049677244 -0.14635232080046867 0.03469876225207539 0.5293643247279609 -0.08922244799793076 -0.10100262348017826 0.07106470416076673 0.06954803468623795 0.15013145284094875 ]
[ 0.003678340518111225 -0.06880079056148293 -0.1406767916495868 -0.0323732411006936 -0.004320183515724113 0.08952417650318008 0.05839893024363516 -0.11866336483286209 -0.09988293094741973 -0.02320864239683847 -0.09365330851242239 -0.09561088922662404 -0.09042077574473706 0.019452405002721496 -0.0667640432688509 -0.08803040932654256 0.08350840110866015 0.03685216568750449 0.0596371942537867 0.08541253547635111 ]
layer 5 Activation
tanh
layer 6 Dense
20 1
[-0.16603634573420492 ]
[-0.1625542910953436 ]
[-0.3836325799242252 ]
[0.4813178945837357 ]
[0.2099903655511281 ]
[0.46540630962898794 ]
[0.22766977107134026 ]
[-0.6105909824457314 ]
[-0.5957549280736221 ]
[0.545341580599033 ]
[-0.15404865882458527 ]
[-0.2780030357803324 ]
[-0.049713882448817144 ]
[0.5527984718093057 ]
[0.7184490360625198 ]
[-0.3299541737133788 ]
[0.3586304231664939 ]
[-0.20334734714798672 ]
[0.4955103795575169 ]
[0.08238195797984203 ]
[ 0.12038212991841181 ]
