layers 7
layer 0 Dense
16 20
[-0.014574426 -0.18467766 -0.5374594 0.10930983 0.0870904 -0.45461497 0.042308312 0.38206455 0.32128435 0.111608446 -0.49059024 0.33102182 -0.032455273 0.48670942 -0.33458793 0.46586007 -0.37762442 0.390023 0.34428415 -0.32926065 ]
[-0.07808366 0.6496325 -0.3035051 -0.12009661 -0.21621096 -0.46689016 -0.035242938 -0.059543397 0.40220687 -0.16443793 0.090098605 -0.21135432 0.36543414 0.02058657 -0.22273685 -0.1839948 0.39211684 0.3488782 -0.6328683 0.004760756 ]
[0.51090056 0.015952518 -0.23626688 0.020759465 -0.08389285 -0.19782358 -0.22813645 0.28863493 0.22447538 -0.2703691 0.11703655 -0.27984193 0.49386665 0.10752446 0.0619884 -0.45857683 0.76316035 -0.13695961 -0.4150479 0.074495375 ]
[0.116738275 -0.24040584 -0.31259125 -0.09242837 -0.070728 -0.10151537 -0.01954106 0.5192799 0.06870924 0.4778225 -0.13397613 0.05918253 -0.3432705 0.41899392 -0.25479317 0.1666731 -0.67058116 0.31377926 0.42449248 0.11490335 ]
[0.10904739 0.41377744 0.3189993 -0.09668585 -0.36972433 -0.09873825 0.009760853 -0.10344755 0.3329908 -0.41569284 -0.18928461 -0.044836894 0.23253204 -0.21482953 0.24897733 -0.32307884 0.49412823 0.16972148 -0.23697835 0.4962336 ]
[-0.16651188 -0.3041404 0.299843 0.6586158 0.11056659 -0.0073784725 0.028501922 -0.058578227 -0.1175703 -0.1682151 0.031605974 0.24949446 -0.1345928 0.03742348 -0.32675707 0.38525918 -0.23657337 -0.14700373 0.52130246 -0.06441705 ]
[-0.18404579 -0.13222957 -0.07846699 0.5949148 0.4742642 -0.33961707 -0.43679568 -0.16372901 -0.4779449 0.4777469 0.12553357 0.5799549 -0.5612624 -0.37909573 -0.54271454 0.40916207 -0.46514273 -0.2797045 0.08232064 0.00066702167 ]
[-0.34675553 0.23499955 -0.068430424 -0.41615033 0.10754501 0.12683508 -0.051309727 0.017036771 0.04225446 -0.1345146 0.48303607 0.05665749 0.26987645 0.099811964 0.24465548 -0.13115582 0.019872485 0.16771005 -0.3574639 -0.028559843 ]
[0.6205696 -0.24655865 -0.37413076 0.0014368444 -0.053693578 -0.2626814 0.7920066 -0.16491784 -0.21066958 0.22066814 0.028814726 0.0618756 0.5422174 0.90041983 -0.22452898 -0.7151725 0.04229574 -0.37245467 -0.7905501 0.27465877 ]
[-0.12896903 -0.17409994 0.15407325 -0.029403672 -0.09994694 -0.06934228 -0.041778024 0.0110173095 -0.03372894 0.14487207 0.066641875 -0.0041560777 0.24800935 -0.08343422 -0.07319795 0.16642855 -0.0958171 -0.36010832 -0.18297546 -0.21704265 ]
[-0.34550375 -0.113697365 0.053412423 0.32793948 -0.053085204 0.11258174 -0.19186495 0.105236195 0.12267803 -0.19393955 0.30509034 0.16882272 0.2432879 0.0053629074 -0.11311996 0.16283143 0.074402794 0.18004137 0.25968653 -0.12000511 ]
[0.47272855 -0.84423745 0.3298594 -0.40479365 -0.34501222 0.26676804 0.36874196 -0.96135813 0.108702995 0.120235346 -0.32375574 0.38938245 0.5809602 0.3773583 -0.7698527 -0.31235713 0.31709233 -0.4376847 0.19487299 -0.03754703 ]
[-0.47937927 0.6899559 -0.11563822 0.37577373 0.61765414 -0.038916215 -0.33712822 0.53579265 -0.40268648 -0.1942412 0.17297953 0.4015796 -0.4532021 -0.43239567 0.578113 0.6570413 0.22442053 0.29294488 -0.6136736 -0.16241825 ]
[-0.1231041 -0.12452557 -0.17184119 -0.04834294 -0.04786242 -0.0033310093 0.019304492 0.11998137 -0.059060276 0.05368899 -0.10363559 0.0098838 0.27189842 -0.055981647 -0.03762972 0.082161285 -0.15601638 -0.31683087 -0.2554004 -0.13413577 ]
[-0.28141505 -0.029852448 -0.7238531 0.2873269 0.0042297645 0.25037104 -0.15288171 0.29276386 0.058766227 -0.26809117 0.016832033 0.19069906 0.27482778 0.035796862 -0.0345221 0.020352177 0.13712892 0.24149655 0.097020395 0.07428619 ]
[0.09205567 0.82074803 -0.6326499 0.088432066 0.51783437 -0.07375662 -0.3133534 0.8371678 0.41209194 0.37966216 0.22851877 -0.07320835 -0.5707397 -0.5268199 0.4004884 0.39764735 0.14206152 0.30498353 0.32654068 -0.4705652 ]
[ 0.11438135 0.051989734 -0.20344263 0.057817187 0.18337102 -0.14181498 0.10627123 0.29864207 -0.032060377 0.037591178 -0.12145484 -0.010520064 -0.064854175 0.25095972 -0.16295664 0.2743039 -0.30285978 0.16910094 0.24052076 -0.05371844 ]
layer 1 Activation
tanh
layer 2 Dense
20 40
[-0.34049603 -0.08122717 -0.16402067 0.1805263 0.15576322 -0.17471257 -0.3164556 -0.16618322 0.31961825 0.39915693 0.4459894 0.06888225 -0.1632364 -0.5908903 0.32890227 0.72705436 0.09790021 0.4652201 -0.39835116 0.21164963 -0.74117726 0.48717412 0.25932366 -0.2537774 0.3827594 0.14573982 0.15708661 0.16176856 0.0032618605 -0.6854304 0.013090961 0.21280739 0.1530811 -0.26254767 -0.46756434 0.5349988 -0.10551923 -0.11383965 0.2222306 -0.12012876 ]
[0.5177865 -0.19277708 -0.07467633 -0.1728619 -0.0036351634 -0.15349 0.25925198 0.111273386 -0.2596324 -0.05169672 -0.18010591 -0.42191908 -0.28219917 0.28383553 -0.114021584 -0.36270818 -0.1477584 -0.26615492 0.34271577 -0.35683843 0.5275997 -0.3651277 -0.13513215 -0.2081909 0.1309309 -0.12178727 -0.2464209 -0.068041675 -0.31143534 0.28440934 -0.39315864 -0.15369542 -0.33427355 -0.3039899 0.080332235 -0.29528058 0.29942337 0.28611502 -0.05788272 -0.40942806 ]
[0.07276658 -0.16196051 0.025332278 -0.0006379872 -0.18111002 -0.2461722 -0.24438846 0.061364394 -0.06510503 -0.1747406 0.16948038 -0.06760926 -0.124451995 0.0075623286 -0.21734346 0.08068004 0.10180211 -0.21256146 0.083932534 -0.2198666 0.32894668 0.19998859 -0.15142164 -0.076878354 0.10092121 -0.061639506 -0.24374369 0.06316617 -0.43598276 0.09883919 -0.052726272 -0.3507771 0.2950867 0.053623375 -0.046081156 0.06858347 -0.21789683 -0.20580727 -0.39198795 0.19746159 ]
[-0.27940348 0.1046269 0.14413229 0.34391698 -0.014289589 -0.14471214 -0.0892198 -0.013039832 0.07504091 -0.10325935 -0.17161043 -0.44093663 0.24819061 0.31039184 -0.094678506 -0.15581115 -0.07561231 -0.27635592 0.2234525 0.21711275 0.24357025 0.11410508 0.20347755 -0.13047147 -0.10482801 -0.2681769 0.19404441 -0.25344196 0.117170975 -0.030269433 0.14953932 0.13682964 0.16879173 -0.22347362 -0.25564262 -0.12621303 0.14893222 -0.0672032 0.3990329 -0.09677359 ]
[-0.20015275 0.16984236 -0.0039021468 0.07460999 0.15153049 0.17512746 0.05365648 -0.13675511 -0.068231285 0.046582572 -0.02735449 -0.34351707 0.28951746 0.28018704 0.014282228 0.1553312 0.19857718 -0.39040783 0.3850107 0.2873804 0.14951122 -0.35228655 0.2755856 0.3684738 -0.33297765 -0.09131318 -0.042521447 -0.13977653 0.36828396 -0.08323353 -0.29501438 0.439747 -0.028120616 -0.021748906 -0.009263337 -0.31899598 -0.3064616 0.13998856 0.5586844 0.016395785 ]
[0.16421233 -0.3741115 -0.3206943 0.07551016 -0.32342404 -0.11277363 0.26231173 0.1829142 -0.110508 -0.4198317 -0.43382645 -0.14456332 -0.19262515 0.38001955 -0.08303931 -0.16892934 0.11046206 -0.33612275 0.3174113 0.19940989 -0.06494218 -0.42778915 -0.12005655 -0.2782051 0.38249934 0.06731616 0.09599665 -0.096422106 -0.03705207 0.1215065 0.12595889 -0.0055035832 0.12066555 0.02928223 -0.120088644 0.111456215 -0.26086104 -0.14701213 -0.46861237 0.2763857 ]
[-0.4058791 -0.20452535 -0.19238059 0.20094359 -0.18989444 -0.017562667 0.12049241 0.4046017 -0.06308936 0.057911657 -0.05279583 -0.21716079 -0.23888882 -0.19771792 0.020811886 0.13878793 -0.05214069 0.4705034 -0.055043496 0.3613282 -0.030710693 0.077346474 -0.26290694 0.20114376 0.21654499 -0.15369198 0.35974586 0.09915812 -0.16790041 0.094997995 -0.061160937 0.23568477 0.064354666 -0.23054308 -0.16177326 0.50275344 0.10129469 -0.1463864 -0.21361294 0.23284633 ]
[0.023560902 0.3373746 -0.032915644 0.5396132 -0.2045734 -0.24296036 0.44786152 0.043889947 0.12448635 0.02895822 0.18745686 0.27265123 0.5617288 0.11457895 -0.12116225 -0.2979776 -0.1873731 -0.15206526 -0.023501728 -0.3071789 0.21754287 0.08911776 -0.39514527 0.51545274 -0.39503968 -0.21275243 0.46554196 -0.20677115 0.48231632 -0.08276518 0.16310032 -0.28336522 0.32862577 -0.026149904 -0.23523758 -0.24601972 -0.2547275 -0.4447058 0.7803369 -0.26178542 ]
[0.43291777 0.10477573 -0.06343871 0.18315743 0.10030781 -0.41953215 -0.008835172 0.15542835 -0.36184922 0.1313116 0.44013983 0.43445346 -0.09081383 -0.005703082 -0.25948787 -0.084037356 -0.23795635 0.05655339 -0.014645521 -0.06683761 0.07837757 0.2853626 -0.206409 -0.04845492 0.3399878 0.19673885 0.3162891 0.30202124 -0.042108964 0.11999578 -0.12697245 0.05349424 -0.27221212 -0.3640201 0.21974073 0.15475395 0.31674305 0.025831992 0.25233993 -0.017684652 ]
[-0.3237748 0.2610035 0.13505858 -0.2028782 0.13856293 0.050158214 -0.3521895 -0.17676617 -0.2568595 0.20842473 0.20617446 0.21584485 -0.06645665 -0.28877985 0.2622906 0.27635804 -0.26377743 -0.04236586 -0.24250136 -0.14980547 -0.2751946 0.25978082 0.2807134 -0.3051954 0.09218674 -0.25754136 -0.28925478 -0.0943247 0.10271833 0.17076842 0.109931625 0.08001561 0.22898892 0.14833735 0.115402155 0.017659873 0.03610492 -0.045215283 0.116475366 -0.14274432 ]
[0.047691006 -0.013642527 -0.10414229 0.3184377 0.043653555 0.01164802 0.43602806 0.142264 0.37877616 -0.11732831 -0.5187073 -0.5338319 -0.3071611 0.40228164 -0.14801538 -0.1193414 0.13122994 -0.4882953 0.003492361 0.059402812 0.01398145 -0.5582247 -0.38819066 0.22072816 -0.020781565 -0.15894026 0.12001086 -0.2284867 0.053575695 0.29252875 -0.09231962 -0.13450988 0.05279019 0.02551969 0.30535406 -0.10764091 0.030660063 -0.20486683 0.13933574 -0.030604012 ]
[-0.44984534 0.090229556 0.29143715 -0.10591412 0.038029388 0.06855878 0.16307461 -0.3883622 -0.05801947 -0.054451644 -0.18210119 0.033686906 0.17563641 -0.22990507 0.47597024 -0.31034377 -0.11196122 -0.09039221 -0.2353106 0.040945634 -0.42155197 -0.05293788 0.080905095 -0.2855905 -0.2678495 -0.325976 0.003287346 0.21116202 0.035056897 -0.19588095 -0.11827534 0.26052648 -0.15273894 0.083578095 0.19208804 0.17819636 0.1008969 0.096824326 0.51195747 -0.060050074 ]
[-0.17111039 -0.82304305 0.15099539 0.029569026 0.21740836 -0.073250175 0.24788697 -0.12982203 -0.31729588 -0.0040475857 -0.050472766 -0.2664687 -0.6006159 -0.46499982 0.11347034 -0.030754894 -0.050817765 0.14263712 -0.33222032 -0.025143353 0.37253806 -0.12778217 0.38825545 -0.107070334 0.6447829 0.45309427 -0.14810212 0.064574614 -0.53929657 -0.1736576 -0.18885176 -0.4950831 -0.29793862 -0.3655005 0.25544327 0.693892 0.34330252 0.14063981 -0.6626388 -0.45157152 ]
[-0.3212128 -0.18840362 -0.27816308 0.115777194 0.22617383 0.36614096 -0.020338055 -0.26278937 -0.0748696 0.38073382 0.50323045 0.3918112 -0.38976252 -0.6132006 1.0208696 0.78273284 -0.31412897 0.32297876 -0.49982092 0.4247589 -0.5804055 -0.058724675 0.106197625 0.2889833 -0.08682331 -0.12365827 0.10829024 0.04852481 -0.19191173 -0.64507616 -0.117058754 0.065287426 -0.2855639 0.3200342 0.0036131816 0.40361124 0.007578031 -0.28839034 -0.34839863 -0.13122553 ]
[0.58951503 -0.006674016 -0.1918781 -0.070601985 0.12495745 -0.1161077 -0.03238507 0.18812943 -0.18546505 0.2343079 -0.13479123 -0.010497725 0.31113005 0.46288058 -1.2803282 -0.8225133 0.053982977 -0.47074017 -0.15203036 -0.4568354 0.89031386 -0.26492947 0.12438659 -0.14219375 -0.21980704 -0.17056106 -0.28000858 -0.23830563 -0.011762666 0.1449355 0.068070665 -0.16835846 -0.12737268 0.14024381 0.5504338 0.004055344 0.13811739 0.2705899 -0.10915775 -0.033715416 ]
[-0.19605125 0.7576666 -0.07846795 0.053729173 -0.004895219 0.28070167 0.037833076 -0.17914346 0.27426246 -0.052170414 0.062409982 -0.119723 0.6175943 0.4032201 0.03768526 0.19092378 0.3016966 0.0015598915 -0.030340945 -0.046871997 -0.19270867 0.08407233 0.05523453 0.05168535 -0.6362295 -0.3604169 0.3772768 -0.18559879 0.7460314 -0.36387098 -0.20186058 0.41464365 0.070310876 0.02151706 -0.010556818 -0.23112018 0.058737315 -0.47419962 0.88651097 0.27842864 ]
[0.19252923 -0.29017538 -0.16082841 0.19567458 -0.28899318 0.20644647 0.3725266 -0.13100088 0.08951776 -0.08543305 -0.18535705 -0.29860353 -0.057528142 0.4333923 -0.022568839 -0.047305167 0.24325463 0.21972544 0.21252593 -0.2658845 0.19322129 0.15278356 -0.4220322 0.24847522 -0.12576611 0.16340755 0.10119343 0.25989553 -0.2131 0.07447201 0.34146762 -0.141251 0.055150624 0.3731964 -0.17758846 0.30666405 -0.09897231 -0.22433284 -0.3772529 0.064640336 ]
[0.312276 0.06601539 0.14455163 -0.13355717 0.33410478 0.07404295 -0.36824274 -0.086749345 -0.21980377 0.37558994 0.27531788 0.60076886 0.22364923 0.07908079 -0.2787845 0.46082702 0.22217211 -0.3107948 -0.12378285 -0.15426981 0.10261378 0.47371757 0.40180734 -0.10061941 -0.35035917 0.17073329 -0.019984432 0.4657193 0.50038487 0.27154303 -0.038804486 -0.16197301 0.48306483 -0.23956238 0.11764891 -0.47493806 0.19067156 -0.18308051 0.28984827 -0.26312354 ]
[-0.06990879 0.16496453 -0.045622222 -0.039857 0.23228736 -0.22331533 -0.37732217 -0.106851354 -0.07928186 0.4252659 0.47397926 0.23293985 0.123868585 -0.19128041 0.31543943 0.30370834 0.16202609 -0.16987918 -0.15218133 0.273529 -0.39216134 0.21008064 0.38366196 -0.041554336 -0.21416081 -0.26465333 -0.35750282 0.060686644 0.42829382 -0.09689926 0.1441063 0.38138694 -0.3663951 -0.22443946 0.21021423 -0.15759568 0.2545759 -0.052676078 0.12815416 0.23128892 ]
[-0.24372637 -0.0904573 -0.10058383 0.047703765 -0.04659766 0.15961568 0.18121494 0.25249845 0.0146348225 -0.013571077 -0.20944378 -0.11124879 -0.11262972 -0.15236078 -0.25621757 -0.351037 0.29207683 -0.06515565 -0.08614333 0.060782265 0.09931135 -0.15508613 0.099321164 -0.18164206 0.22809702 0.03806856 -0.1628274 0.0037196316 -0.4611322 -0.06130708 -0.15016909 -0.56148726 0.20355451 0.07593463 -0.05494626 0.14302792 -0.01232615 0.01798971 -0.16014759 0.27608666 ]
[ 0.0064544384 0.016680738 0.10214406 -0.07312368 0.1499616 -0.09190883 -0.32100093 -0.12033016 -0.091168545 0.34305897 0.33968973 0.35477322 0.021629494 -0.10887471 -0.0075557497 0.19762528 0.03083382 0.11403652 -0.019203633 -0.0073574125 -0.077503055 0.2531506 0.17323071 -0.056618936 0.07354839 -0.059016075 -0.095745794 -0.018645752 0.12550521 -0.02472838 -0.063231066 0.08570661 -0.076928616 -0.15931638 0.011340244 -0.022354798 0.139741 0.09696178 0.10390955 -0.081418 ]
layer 3 Activation
tanh
layer 4 Dense
40 20
[0.2801125 0.00947201 0.58370286 -0.33983707 0.40730157 0.055773776 -0.114398025 -0.22701332 -0.24817628 -0.46495202 0.3111652 0.42686987 0.29444617 0.48257738 0.18690877 0.2968713 -0.31579706 0.1276039 -0.29607022 -0.32709655 ]
[-0.26303077 0.09462709 -0.02819816 -0.04013105 -0.3205499 -0.13971725 -0.3103499 0.059736792 0.27012387 0.5979589 0.02828588 -0.2823716 -0.08789303 -0.2550363 -0.17093427 0.08811749 -0.1182334 -0.06454478 0.021162895 -0.028713996 ]
[-0.51157534 -0.09127494 -0.07220578 -0.29310688 -0.37867367 0.004365162 -0.1639666 0.19713764 0.2880474 0.30822286 -0.035521217 0.25778142 0.2608595 -0.46052217 0.09603067 0.16874687 0.07423746 -0.22234426 -0.18441606 -0.23690204 ]
[0.2576089 0.016215105 0.0440797 0.10666859 0.08836475 -0.011154725 0.18775532 -0.28178418 0.17516744 0.33212903 -0.03234272 -0.14719394 -0.06263615 0.23332645 -0.043141585 -0.022307288 -0.09776494 0.16774526 0.18097036 0.053673714 ]
[0.15706104 -0.28025278 -0.05127655 -0.28740832 -0.07245441 0.14049768 -0.19862977 0.07964573 -0.060490947 -0.2221337 0.21900785 0.284155 0.3261829 -0.36875504 -0.01154988 0.3497116 -0.07030974 -0.050249487 -0.032048203 -0.123681694 ]
[0.0919751 -0.087400004 -0.30538473 0.048108734 -0.3441129 0.06973483 0.32462853 -0.021591958 0.052000616 0.41720408 -0.053339742 0.1822773 -0.2850742 -0.17565982 0.036054596 -0.037602358 0.12692522 -0.13609207 0.29722837 0.32156757 ]
[-0.067531526 0.33511144 -0.1623002 0.2055047 0.2845702 -0.28563398 -0.03843324 -0.2885744 -0.031374138 -0.22262475 -0.18051784 0.014396194 -0.061839726 0.1333191 0.058809586 -0.23777586 0.42618728 0.26510146 0.15198302 -0.07551853 ]
[0.34862822 0.21163875 0.022687308 0.3279452 0.16305715 0.12200479 -0.026411798 -0.13043092 0.22443354 0.086575046 -0.08886194 0.22332443 -0.086123005 0.04378529 0.05638698 0.10231181 0.25097087 -0.12269542 0.026559668 -0.18003295 ]
[-0.16917853 0.28095803 -0.5745417 0.058477703 -0.22773035 -0.020224368 -0.021470994 -0.015046337 0.09514533 0.548824 0.038743827 0.0801512 -0.48342016 0.29394317 -0.34409988 -0.30920017 -0.14271711 -0.20926297 0.06372621 -0.20615852 ]
[-0.3381604 -0.3951118 0.19902803 0.11530893 0.11383453 0.4872861 -0.39329755 0.19849475 0.1343098 0.16819596 -0.013795356 -0.08111887 0.3050634 0.07310692 0.09604286 0.020140005 -0.049277037 0.30438754 -0.19004777 0.35162237 ]
[0.15200478 -0.06924505 0.2390794 -0.4602381 -0.30780753 0.50365067 -0.4547408 0.3906834 -0.17010012 -0.28959635 0.37561303 0.1531731 -0.004447132 0.10655133 -0.10773189 0.17924944 -0.2698091 0.3624766 -0.31682023 0.35892636 ]
[-0.32683513 -0.01820467 -0.0841612 -0.4346151 -0.24792053 0.32513928 -0.6226662 -0.21670648 0.1212077 -0.10103886 0.35215816 0.17568447 -0.08614119 -0.10392607 -0.054211635 0.45939246 -0.3908624 0.40749446 -0.5762232 0.06511358 ]
[0.17939861 0.1029843 -0.635613 0.07496997 -0.040467225 -0.18500796 -0.19510356 -0.21795769 0.34718156 0.5769696 -0.18447666 -0.24876137 -0.37537757 -0.34735137 0.021966558 0.005695276 0.36908773 -0.48256284 -0.11987162 -0.02619771 ]
[0.15067436 -0.30033952 0.48150563 -0.1287605 -0.37592113 -0.0798951 0.4967228 0.017399637 0.051660143 -0.33020037 0.41578376 0.37253684 0.10266334 -0.2207805 -0.0410036 0.13137889 -0.29989022 0.41595185 -0.020027788 -0.76427186 ]
[-0.22232552 0.27568293 -0.650929 0.08778838 -0.38132742 -0.26972023 0.23937324 0.10884356 -0.07882717 0.3225119 0.1906774 -0.22657102 -0.40361515 -0.19016273 -0.008994044 -0.1250687 0.09167929 -0.043080155 -0.21882284 0.40483886 ]
[0.19018622 -0.22760198 -0.40047625 -0.077190265 0.13719139 -0.14019455 -0.5832275 0.19261912 0.087795 0.35733533 -0.13659783 -0.21919455 -0.18873262 0.2739431 0.2920584 0.13367647 0.14269872 -0.1889937 -0.42212546 0.56668663 ]
[0.23924015 0.1225811 -0.2652503 -0.1147568 0.1552364 -0.19684897 -0.05614553 0.047881365 0.035878535 0.24721241 0.1884146 -0.3037403 -0.03635693 0.40642872 -0.33314684 0.09531218 0.061499767 0.1351068 0.21334024 -0.3367336 ]
[0.13287596 0.32207182 -0.054614827 -0.07001403 -0.09793065 0.12132819 -0.11660243 -0.2964225 -0.25144258 0.03494712 -0.12116399 0.06979371 -0.06882356 -0.2420647 -0.217651 0.26399964 -0.23907146 -0.25248092 -0.17725638 -0.0010598598 ]
[-0.02714319 0.30470937 0.106026314 0.36447784 0.03604586 -0.036946464 0.13818707 0.24658448 -0.12715183 -0.034385487 -0.07760009 -0.08526301 -0.1383349 0.07757705 -0.013599251 0.22033484 0.3379417 0.24390683 0.2002181 -0.24973094 ]
[-0.32359847 0.29010123 -0.2136319 0.17969975 -0.28911462 0.25865096 -0.25809607 0.30475917 0.32723007 0.365608 -0.1806539 -0.35136896 -0.3252647 -0.04535775 0.070715964 -0.3013924 0.18703528 0.099535845 0.31789184 0.2326608 ]
[0.27461043 -0.25131094 0.67367417 0.19995788 0.163588 -0.114190936 0.14039133 0.22214471 -0.07446588 -0.60844517 0.0734999 0.17054094 0.17150407 0.35287946 -0.22816505 -0.23157395 0.038844097 0.058308546 0.28169116 -0.43068913 ]
[0.19248147 0.25964183 -0.21773693 -0.45377088 0.2091691 0.12640025 -0.19980888 -0.040749602 -0.117922746 0.021540925 -0.0674151 0.16159947 -0.121982865 -0.3356056 -0.111053534 0.34839743 -0.33569714 0.16982819 -0.13661787 0.3620986 ]
[-0.32074788 -0.073173225 0.078919604 -0.25113598 -0.107626945 0.35282588 -0.3158603 0.3350261 0.16015795 -0.018552043 -0.020911228 0.31810737 0.28243643 -0.0059812744 0.14895721 0.35287544 -0.049535472 0.31848815 -0.05014631 0.118034355 ]
[0.27849403 -0.1463227 -0.32474065 -0.08874297 0.3168873 -0.157321 0.2831351 -0.40299582 0.26191854 0.1276336 -0.0026771924 -0.10074367 -0.050840225 0.22217135 -0.17752768 0.2454069 -0.2274382 -0.035729714 -0.21759053 0.07772054 ]
[0.41499454 -0.34424818 0.536013 -0.1897518 0.25743127 -0.2683228 -0.18410724 0.1048425 -0.14074948 -0.43363824 0.31170106 0.1304885 0.0029652643 0.0691059 -0.15674455 0.16811699 0.30923176 0.012333156 -0.1041107 0.2619843 ]
[-0.12451402 0.11785916 0.4065137 0.17222373 0.23536402 0.07270502 -0.33846107 -0.16698325 -0.26923272 -0.18827929 0.17262614 0.23537554 0.11128679 0.09387728 -0.15694608 -0.05205221 0.079406515 0.053370938 -0.18271896 0.10185276 ]
[-0.31349704 0.33185235 -0.58593947 0.077553466 -0.27235782 -0.18659335 0.4560023 -0.47112733 0.6026018 0.7258286 -0.25750062 -0.2676255 -0.22797719 0.14077005 0.24902327 0.18474805 -0.18201615 0.08847214 -0.012180538 -0.3665175 ]
[0.2887211 0.19558825 0.12062567 -0.037781514 0.118471295 -0.15120167 -0.18428734 -0.15728775 0.1142681 0.14554453 -0.018482015 -0.15220623 0.11529031 -0.23031487 0.45959008 -0.17495565 -0.027214706 0.32142073 -0.14642541 0.30740812 ]
[-0.28685987 0.12076836 -0.6820325 -0.026286129 0.24846967 0.09943517 -0.15496603 0.17404595 0.32878396 0.5224968 -0.26506758 -0.24963447 -0.5067911 -0.33762845 0.018408546 -0.04480061 0.19842817 -0.096062645 0.17351705 -0.09428824 ]
[-0.20706154 -0.03887871 0.100446016 0.102551706 0.072844446 -0.25682122 -0.14850861 0.04684109 0.23361377 -0.48366824 0.14917417 0.1162443 0.22874501 0.15232883 0.11328612 -0.07739637 -0.02395119 0.10406846 0.24107319 -0.36075988 ]
[0.27700654 -0.1294058 -0.17943858 0.10881855 -0.01927524 -0.28663298 -0.023628073 -0.15874866 0.011502923 -0.13208808 -0.15699095 -0.17174403 -0.17667638 -0.34010884 -0.14146736 -0.008200091 0.04982087 0.24332826 -0.15109241 0.11506246 ]
[-0.34055898 -0.15856689 0.17687252 0.07107297 -0.6081216 0.06711462 0.03908657 0.0771092 0.2637592 -0.25866005 0.050837398 0.05191679 -0.11098289 -0.48716274 -0.19547348 0.09701402 -0.28351873 0.001720507 -0.12684295 -0.17175284 ]
[0.42616934 0.06033872 -0.35273796 -0.23542988 -0.15486339 0.29222628 -0.11197676 -0.107270405 0.10842116 0.09834313 -0.24470317 -0.3556857 -0.17198509 -0.08977421 -0.046104543 -0.10516064 -0.19629782 -0.13156652 -0.0026370664 -0.2919793 ]
[-0.060760353 0.256446 -0.23992403 0.39875573 -0.21563841 0.060039826 0.3360824 -0.24733928 0.1975687 0.14894463 0.019779136 -0.0608183 0.047786515 -0.1294917 -0.26007006 -0.11439178 0.442639 0.16703752 0.1967944 0.11190776 ]
[0.29011175 -0.25969735 0.48406887 0.21438059 -0.12780301 -0.11021122 0.17990662 0.18218572 -0.06316767 -0.08152281 0.024870029 -0.124661855 0.4694424 0.2939373 0.044245385 -0.11777484 -0.20085135 0.1751796 -0.2575342 -0.23342466 ]
[-0.13799521 -0.4539957 0.10221804 -0.15855215 -0.096955955 -0.10065854 0.2581944 0.3295697 0.19516644 -0.089362174 0.36675262 0.2350146 0.33766025 0.35269007 -0.09473025 0.27231145 -0.16593805 0.36501253 -0.065053776 0.23320471 ]
[-0.1748006 0.2520539 0.10671594 -0.20353477 -0.31862986 -0.031147994 -0.19686313 0.07492581 -0.081039086 -0.29508927 -0.009246681 0.39095974 -0.056944307 -0.08239538 0.28943273 0.011774926 0.0008863913 0.2994339 -0.3341136 0.15438583 ]
[0.22963367 0.008053178 0.8921404 0.22384377 -0.053056736 -0.0070724213 0.22929418 0.39614636 -0.38097245 -0.8674705 0.19845288 0.22895357 0.31453845 0.18572752 0.36537856 0.13289388 0.08964948 0.35542694 0.23489314 -0.0062389597 ]
[-0.2399315 0.19874342 -0.7444532 0.23337668 -0.24692397 -0.35913023 0.20362283 0.1089648 0.5880315 0.6197377 -0.018727267 -0.49527073 -0.5699043 -0.27622774 -0.18334985 -0.31301925 0.35293323 -0.091523156 -0.26801202 0.2189272 ]
[-0.11337658 0.28612247 -0.07040192 -0.10201023 0.2041888 -0.380092 0.28236058 0.29042011 0.11818398 0.403871 -0.40504292 -0.3826378 -0.39573458 0.16911708 -0.48928073 -0.21595022 0.24139401 -0.23603567 0.11159531 -0.18846309 ]
[ -0.05519777 -0.17285612 0.09994253 -0.2525261 -0.07345084 0.25800577 -0.26671907 0.12438044 -0.045380823 -0.1048467 0.09487502 0.09419367 0.07199568 -0.0028349 0.13896853 0.20923494 -0.22710143 0.12086628 -0.27555844 0.0307908 ]
layer 5 Activation
tanh
layer 6 Dense
20 1
[-0.2734433 ]
[-0.4708061 ]
[0.48801592 ]
[-0.5234581 ]
[-0.6463342 ]
[0.21859954 ]
[-0.5978499 ]
[0.66768897 ]
[-0.5160664 ]
[-0.5964948 ]
[0.5298398 ]
[0.8503988 ]
[0.5589886 ]
[-0.13307466 ]
[0.11497109 ]
[0.7589187 ]
[-0.39050615 ]
[0.87571585 ]
[-0.5518429 ]
[-0.5967957 ]
[ 0.2901224 ]
