layers 7
layer 0 Dense
24 20
[-0.31482319868567477 -0.4001849697744181 0.7106775569755172 0.2794975387395916 0.3557371733870824 -0.7666845628446702 0.05193653358382086 -0.07970895656712924 0.4272886272851273 0.5514227128470234 -0.494598780868212 0.18553719095464696 -0.26993487086244844 -0.4851493767503009 -0.09344589217335678 0.5818161965469525 0.4106161881750696 0.04370299458502691 -0.4265586775725305 0.4139253377647222 ]
[0.09778611767933942 -0.16467893678042106 0.0191907475500812 0.26880525298784264 -0.2116156290751002 -0.32425887706045625 0.4383639509649984 0.12743979984949 -0.21499670112530211 0.051802971102960935 -0.6544401617097937 0.12749389621642737 0.046831708013829305 -0.2668259199918801 -0.2782262284293132 -0.18776519330358132 0.4110121817955482 0.1775257258993726 -0.003124286439668233 0.2574326489219311 ]
[0.037445431003948385 0.41194085916679635 -0.10365216355315122 0.19758987133582004 0.2624219055564899 0.019748652664294167 -0.2886110974937768 -0.2596149944306862 0.21335325090133 -0.2742864558249198 0.010609668891709055 -0.07907881541474607 -0.17660389168936205 -0.0016842005520110598 -0.048961305096285934 0.29843988293244883 -0.19080214171727197 -0.2629533950478678 0.2483755944772153 0.07303970593214806 ]
[-0.3125458203896824 0.09156244378836689 0.4965607924313462 0.05169324650749198 -0.08460969730609691 -0.5434139758666561 0.18288960160852563 -0.03830983363462761 -0.009017328517341848 0.084801130093545 -0.3007598742533757 -0.04788810898403528 0.20873912643199174 0.22155826790646807 -0.3479568274690954 0.5611328372680449 0.09368378205267175 0.14026766515296568 -0.5046910554713181 0.0714758624836046 ]
[0.30318052325860645 -0.4817011747544686 0.41335156614746876 0.10733788797549207 0.38752263857110497 -0.4474793925213379 -0.1941318270733818 -0.15981439862013072 -0.22771454871185903 0.2120077249342999 0.01265218843958548 -0.28497389984054566 -0.3152434154472636 0.03751193686256167 -0.5002138491266367 -0.005870881952438909 0.5925847865946332 0.1802236288017923 -0.16211939177689239 0.01688641909291848 ]
[0.2707328984047746 -0.5096931258617382 -0.3491986879760183 0.3047252545528174 0.39967442347465226 0.04872206502679411 -0.12725139950344733 -0.19929075931895654 -0.1011239249010834 0.03858962705662971 0.22439575949218876 -0.08718723070058944 0.16751947667219885 0.2820411620015972 -0.22794324939507135 0.3655542093434467 0.28199946704432527 0.37249001535858484 -0.4587264989845435 0.4091938574861996 ]
[-0.007384124348220456 -0.30692905571907503 -0.34051621036066015 0.03908490869395395 0.5105257334369345 -0.0921317970410053 0.14392313502233203 0.35879364364890765 -0.2375160705712645 -0.28015341642941594 -0.23035571341563318 0.15949536739119338 -0.37544905909203286 0.22739124121114843 -0.2162323079880943 -0.017082017129512947 0.10068374264223239 0.4981495467227802 -0.1926051010642704 -0.007687485179477609 ]
[-0.4699036957096632 0.30693399891951156 0.24393445005173356 0.16534054880211344 -0.659014771901903 0.02428033575904259 -0.3673354076403494 0.3366155854962083 0.06705976318093342 0.09612823271917802 0.19531813899579678 -0.5481909755537008 0.011230054100791387 0.14378709319968805 0.44297239727269394 -0.17846644090665795 -0.2846912818901391 0.19844140472197574 -0.06592693444173597 -0.28225753179008894 ]
[-0.505019952099644 -0.07135718644253602 0.35021912868466637 0.537163552945611 -0.5557884766467898 0.030158882987178785 -0.23632120015511124 0.005038689489078577 0.4335933623667974 0.15122526227059632 0.0018911362421466264 -0.35121802649138545 0.05078584525969522 0.2668598863659298 0.27915914895759947 -0.039770706652573394 -0.33255498420576723 0.2994829460877027 0.3651495593097542 -0.16029874752277612 ]
[-0.499100586237343 -0.2860487830563961 0.6970179238396658 -0.027698708388440543 -0.1324603552816698 0.47432183332915756 -0.030339765779757832 0.5338038917996457 0.0766343736400637 0.2166039864579201 -0.15267871531809235 0.1270926915759172 -0.37053871067575544 0.1907621513146899 -0.2250778348138887 -0.23052729973173497 0.0314628654807729 0.30310793212858306 0.21647538565996452 -0.07051506254064636 ]
[-0.07829812642364165 -0.42385182403056737 -0.171072519119991 0.15590720793584004 0.13977599978194977 0.27496015091162884 0.1598668975553582 0.19429828865224977 0.026452419950786843 0.4165155568988577 0.0669423199459823 0.45253517312557145 0.4615915890041479 -0.015880703071953654 0.0823203801962795 0.2263406891809261 0.4389918440419595 0.28088716494128324 0.014865529558681216 -0.47382978756091737 ]
[-1.0395288796915434 -0.08825052215756087 -0.034298545506237586 0.5921985691675601 -0.43595565455610896 0.44758928367162265 -0.4067348318005787 0.38968101660628346 0.4998505263312679 -0.02495843378444758 -0.2954827130905986 0.6730758731468479 -0.1003297446485123 0.568585495006212 0.6678003479830142 0.564169339084473 0.22620763013859593 -0.16060873110837068 0.16171908903267546 -0.35107729830598244 ]
[-0.1768037109819406 -0.14299569023628933 0.2765521978425161 0.107643027027771 0.18686289537046935 -0.5242355172831636 0.2534773711928082 -0.19526862018396482 -0.12399544645356338 -0.3317751714994466 0.8197495978916611 -0.8939486265518576 -0.24413937489654086 0.17119739211440066 -0.4635631893570118 -0.27268709278120273 0.031168399852315086 0.2877498271890253 0.40085379693393863 0.026315373653279975 ]
[0.4282806894658749 -0.5850973971680197 -0.3058762050086981 -0.09746404655629043 0.03874909238013319 -0.004431616666825512 0.23924587987147217 0.6039614128260337 0.5489096049280567 0.24213185053242417 0.5384342343002291 0.26598620960224006 0.16677737299518555 0.2720631771337057 -0.23364386173285862 -0.16665172548523308 -0.0624873636039711 0.1268981408011712 -0.08994122956037612 -0.615637746711725 ]
[-0.5279387016068293 0.14388771392593902 -0.15929727998354262 -0.027291050151718232 0.38690944390577325 -0.7095014689015335 0.3531213654118446 -0.18897306632078656 0.3825403908860189 -0.07299397498209803 0.2911531952352465 -0.09358139343726708 0.4238671488420638 0.194890549839227 0.22333244619213216 -0.03673535461223437 -0.2875062094791239 -0.21788454059393292 0.24528302108553898 -0.0958088240138619 ]
[-0.4282075395360988 0.08698239776693292 -0.6544784581540708 -0.2400848776565435 -0.6915886042692357 0.32128403504077135 -0.8105953424306831 -0.5059978804589901 -0.11748415717247213 -0.16383373517805302 -0.1995865100689763 -0.516071688471127 -0.8361353010011832 0.8813723843862618 -0.0556095406193172 -0.4407821073129567 -0.05590343465182678 0.09698815662596161 0.347361196018529 0.4525959585722575 ]
[0.21695309145943575 -0.11467642135547715 0.07733813620978325 0.12527981674562594 -0.19226478745749725 0.18307259569777204 -0.3533560507950763 0.09960799656483346 0.3516507414405573 0.36329779677253043 0.26860817458787745 -0.49159143359485863 0.049729728224241425 0.2592429768977883 -0.004855616810431413 -0.06278123669274961 -0.4423037871718134 -0.3503757926743406 -0.021869739725200246 0.08815784590016716 ]
[0.4551426638578226 0.4713488929145735 -0.62509715185268 -0.4604824465360744 0.4489096434994808 -0.05914254397687596 -0.33065524282572073 -0.6904057177263169 -0.25067408317799084 -0.37935536040892165 -0.29590274730473876 0.5483081992993627 0.3037845450972302 0.04416041798312189 -0.47823607890158304 0.255680067593188 0.155705613773019 -0.023162838991731473 -0.018981866851174232 0.3245776609035212 ]
[-0.4634599932164472 0.08590302118202223 0.6423279411126044 -0.4932058681643238 0.3377111277791077 0.3255034023018284 -0.026364410854361107 -0.2092221432661195 -0.7362052748577997 -0.2320887110651256 -0.15977041781060766 -0.23139003462095126 -0.06792909125358662 0.17237169738492014 -0.06515040471396677 0.3714558738995432 -0.5478845395820462 -0.5312083135111739 -0.7296355840511816 0.7129496644731075 ]
[-0.5426203998768022 -0.36338712871771567 0.47516131731307415 0.41302123077682923 0.24942024032121868 -0.39799015554875133 0.022043221647391805 -0.23430147467626145 0.20334322402391194 0.07762776036193741 1.315734692084035 -0.7189184525540655 -0.1421046462399994 -0.4781307967218747 0.26618728461869234 -0.17411138139113733 -0.514115047892779 -0.1863303865587481 0.4384191422277479 -0.5105408059286098 ]
[0.3320614324358312 -0.2154112896746355 0.42477070154058333 -0.1388626970840606 0.2289739617964327 -0.4464516453800719 0.3858552433472259 0.3790053008009842 -0.5411224310137468 0.6661556496030786 0.15247830780534968 -0.11317930936501738 0.3842431986283846 -0.5194077901820582 -0.28347147947684126 0.25312374383416686 0.24058840608064086 -0.20224532383090105 -0.38143453145781164 0.37481652714391406 ]
[0.1665767705859436 1.105287683832174 0.4769911405973329 0.5104051863486805 -0.00870021620258853 -0.08783175431776519 0.01678255874901404 -0.9127754914869461 -1.132651370331802 -1.565084638565539 0.21090422307531725 -0.21573630799688043 -0.333179505050713 0.1968853666245772 -0.06377531633239551 -0.38504009960378166 -0.41084753920952793 -0.6228797176693711 0.26093245599283005 0.542405997591789 ]
[0.17345498031599327 0.16746735709726104 0.24158561841231846 0.8113202929014517 0.25764569164527656 -0.36016631212780076 -0.049387937269651114 0.2506470601531204 -0.9753813788148068 -1.2560743333516726 0.2934660746716042 -0.009994188952818728 -0.4528397792430341 0.9916463059104075 -0.2931760962570593 -0.3525835232778708 0.21068775991175243 0.20249061528094606 0.03889504521767624 -0.16427080456052454 ]
[0.3362768045735694 -0.40343641163378197 0.16223554609505872 -0.4025537152124212 0.23752603050552404 -0.4786912437277113 0.6882028414334815 0.17869455919020508 0.14292017329971543 0.4469154580306243 0.5104220126157626 0.11006237919943884 0.18943225939166214 -0.4092285644173427 0.030646564920717826 0.32633212034158676 0.4606869177350834 0.4824201220822047 -0.1347189466606321 0.3574382798933448 ]
[ 0.04215212128010637 -0.02201704109793053 0.045455822700095 -0.030537597169983423 0.18814083501179585 -0.14160648124766112 0.07569205286653084 -0.011792517760099003 0.03039061505920837 0.02411260689973451 -0.31428540596678617 0.18879183374603797 0.06603458034726582 -0.06824750577144616 -0.1528507782866148 0.16633563971179147 0.18106074721939722 -0.00025970844424093656 -0.14090614088863032 0.1178919681980578 ]
layer 1 Activation
tanh
layer 2 Dense
20 40
[-0.13922934885033517 -0.5393198274752675 -0.1856364115916446 0.07470937478177721 0.28410255548391156 -0.34659496575010046 -0.638616925380481 -0.3394125508137972 0.03350544229964135 0.479772973240056 0.1580315117614331 -0.060700083077200824 -0.01804998427153678 -0.2978667727369674 0.09269796097561175 -0.13213811354229021 -0.2615574350997784 0.0719553003610665 0.23204357808699907 -0.39765587767740057 0.05480217923552322 0.08729208061785826 -0.30167559782632 -0.2200895110904601 -0.0336818554985204 -0.02767118958587177 0.2225134354548946 -0.047158242412417825 0.44328847079572065 0.6270328068540411 0.06516608146106218 -0.014437049219791123 -0.506375273486674 -0.03219629619060463 -0.10340287277014926 -0.049861243913519364 -0.45012005182788833 0.1297803764557027 0.26732527302948267 0.5671530602511846 ]
[0.11528998833940206 0.181209006842322 0.32870832636230796 -0.17551570887059093 -0.30673554958916904 -0.19174201902291976 0.7003543448135624 -0.3105938288883938 0.005777329542251121 0.2884555047267706 0.3066058445568827 0.39714902041212385 0.0644067456832921 -0.6678348693411912 -0.24679551446719886 0.031072624497966952 -0.43476095122315855 -0.2838750046448426 0.1563916581010069 0.2555123544048897 -0.1880304895752644 0.4215029598141973 0.033199527698082085 0.6215581040250676 -0.25840109256353155 0.0991709679347217 0.11431578979478645 0.027890241483352264 -0.25254976753031816 0.3828714201096215 -0.019234349637919694 0.4494231916396237 -0.0636000338070339 -0.07612130590632062 -0.05365067348288687 0.36044611667347337 -0.282136280966666 -0.24890420641402278 0.258382268744772 0.2500487941468477 ]
[-0.09633457894661654 -0.13092416624599354 -0.28277756595808673 0.4305583548414711 0.43990338880656804 -0.2473924169156165 0.01630437404366601 0.17024621957151986 -0.23568418414536316 -0.2642625411802437 0.03429793405703433 -0.2586148212283821 0.6021205468066191 0.04786708258044964 -0.3928175165898668 -0.37961064092415736 0.0658808245230097 0.7867469947986995 -0.4148920728027331 0.3236264664657794 0.5591008680705493 -0.11098001066705022 -0.1649198474978931 -0.7148859761003569 -0.15709265075285406 -0.5033397364656416 -0.31677671644092364 0.08692736495122241 -0.09513365964693328 0.19389033742968717 -0.17005339563957986 -0.33286571252095043 -0.35828646931355346 0.5314825165748822 0.31071133096692033 -0.5641792343616862 0.030396251927784203 -0.3830162399113887 -0.5188477726692354 0.3672663828202244 ]
[-0.19969841266975152 0.032823584498185114 0.13472743363023715 -0.16305864346790722 0.07783557225497975 0.049984296302517384 0.12011098399077803 -0.42010782145977815 -0.1992561724115297 -0.24235415642392935 0.023679085960778622 0.3302116277503281 -0.189353171416941 0.48755783204518727 0.06605822587006964 0.06282006339262128 0.044092401021608996 0.35754723668324334 -0.09276670368587199 -0.03389817021256362 0.17729532602963435 -0.06538149707732281 0.23518132880199902 -0.16500789744203495 -0.2960250764752255 0.24236940215151415 -0.2563357060865198 -0.10117130105666898 0.27060213640048 -0.019268541931540123 -0.19642445985158472 -0.15952497892623949 0.3212310654765206 0.28567506713193497 -0.06753322974876581 0.17179120700601844 0.27889707339331693 -0.03453281802556153 -0.1640485820594663 -0.21933101233862742 ]
[-0.40029727477554256 -0.5373537508318322 -0.19283265851998646 0.27655819750644844 0.4276579867424958 0.2563002438228442 0.45235238609048983 -0.11192518080508897 -0.03181074865114941 0.3113818251058634 0.27349942014261086 0.2672898051315392 0.12391546960482858 -0.1298075553794122 -0.49813316161415944 -0.38848527679046857 0.060210021451700714 0.898975690084769 -0.3444568530202597 0.09822549480941777 0.5784989601932141 0.13543069966199783 -0.5335388964249564 -0.11293221734134803 -0.19784149580379332 -0.23744042684805486 0.10201407210797865 0.0968403667321864 0.3202565116131678 0.45108465009175486 0.16113747478414175 -0.46602178642019687 -0.33524969150109885 -0.1956205568323092 0.40978085665387304 -0.549809066799942 -0.44873900512772885 0.04064770734772383 0.40013908856483493 0.5774138119059095 ]
[0.30734477771114366 0.20194864532488674 0.6110733387570207 -0.3492434253744904 -0.12450739392648025 0.11499226046198867 0.12350812458530697 0.16259870091397138 -0.024357484724359238 -0.3534124780956442 -0.21916969199796554 0.13634127786781752 -0.29387247996461763 0.5366102156231481 0.5207246606161307 0.42087988427163264 0.1470419329362497 -0.9618568737491786 0.23937418845715536 -0.12516170492625964 -0.7221997843793239 0.15514451500552723 0.5585834902206362 0.18631115788029093 0.27301460248727594 0.3032863805241687 -0.18666616021398125 0.20436976937399895 -0.4431662828134599 -0.3464783239111828 0.20791566341921722 0.18104116959378574 0.35305605341276 -0.06828794738088428 -0.24444719596262604 0.21792765375004453 0.15650002574129665 0.39618452969998097 -0.007645902855161734 -0.5539613495126068 ]
[-0.15678466456075071 -0.3479454794179105 -0.26610392286644696 -0.04348413978900389 -0.2695327279700709 -0.11648311132583129 -0.2411861417347785 -0.18158280564271667 -0.23007847324589242 -0.06411735889324176 0.04495710621593484 -0.31445346405770325 0.5617344243377045 0.623507970999664 -0.2833829296623883 0.00729788514361116 0.1728789609559399 0.8649836092089972 0.03038316221345746 0.07652024425328444 0.13166188565447207 -0.06440825469505643 -0.26953563586973095 -0.11829847542697788 -0.09301857425837681 -0.26758064101905704 0.30002428871992864 0.34516105295731153 0.0066859293039662855 0.5836393804513077 -0.13568749696173188 -0.33555049401375686 -0.27646752055571483 0.2142500928004606 0.40027356366648525 -0.2811255584166552 0.003637774807633488 0.19864745524313088 -0.08294561173423833 -0.2154273433951231 ]
[-0.14690329990176618 0.14172105547077712 -0.008938641955606706 -0.0012074791185714023 0.044092482403261586 0.12904929709904825 -0.39642145514738913 -0.3069199376548589 0.3072392746863419 0.2416063651743708 0.11255680347570798 -0.014329552740826193 -0.20559016925390636 0.42804438596538646 0.39074312631151825 -0.12089277498464987 -0.3466361152485597 -0.24866963574263484 -0.2791334496579489 -0.6408341495593404 0.014450440138241958 -0.056489837635312935 5.838717169095835e-05 -0.44470097218463794 -0.020675850250028834 -0.29613605450916264 -0.3538101024710957 -0.020840114865361435 0.3121746436278716 0.1927004120444314 0.23972094846014663 0.43832839183025746 -0.06182250865853115 0.11774770638690073 0.018915517290759853 0.024251729211247637 0.2826959142450135 -0.07286328371961212 -0.34494098269904266 -0.18525078214360954 ]
[-0.26282781163775454 0.18566673343774354 0.07349731841515154 -0.19922194470326574 -0.2139289003856344 0.22284303639494102 0.0722245695731119 0.15283876214626915 -0.26104206889519727 0.0386432102383422 0.21524790525932927 -0.3320595023770392 -0.183677660450401 0.43111275694963525 0.2898183063867584 -0.21018350868540736 -0.053942270426929124 -0.2041267979328276 -0.273256819488747 -0.27097087567182704 0.4408757054066068 0.20378184850262873 0.10767198770841795 0.17935086475722034 -0.39526683018624253 -0.19706828357083966 0.3789334781756153 0.35786089220834283 0.07710141730920793 -0.40071584942304417 -0.09711066085557073 -0.1253012971542033 0.0006622150124238233 -0.32493545747614194 -0.1284437845797235 0.034429330162875055 0.4121297657121892 0.3698443827752396 0.17014728219582537 0.030265170258806623 ]
[-0.017618431977144987 -0.3322562409590509 -0.24493025069206736 -0.3313638884113833 0.04252543275528311 0.23714725233983378 -0.5983896735552408 -0.05576527745601583 0.16709564793201093 0.268719386713351 -0.11506706645491079 -0.0031000342788994337 0.4169934717688054 0.3627887522442824 0.26857765025053537 -0.02390400061498236 0.0846859306392548 0.394157469123983 -0.00334928206220432 -0.34252920698870865 0.33324291015690255 0.13223640602015596 -0.4159088598522494 -0.9509453375438431 0.23550409123880853 -0.4445733048909166 -0.1255874289331214 0.15504205002008525 0.12128297070035661 -0.14863904414079226 -0.042623349539623774 0.22063063018013956 -0.13397653149031719 0.3297428960882657 0.19916845234058553 -0.5149181730659865 0.40069841485494145 -0.31327520401573955 -0.34324864664732446 0.14598903555939316 ]
[0.294943293904606 0.12499459776706194 0.28737225778145487 -0.14606889345914076 -0.11655814788132861 0.14333213708550852 -0.19642326441737903 -0.2527108684040794 0.05102169943636178 -0.2368546574392846 0.23341269409114426 -0.16205221758976407 -0.4630786932512618 0.100660785063927 -0.12081877975958943 0.40708626624645855 -0.44395217836636525 -0.2884296078375415 -0.017294553929905705 0.09745797051313157 -0.4448758246353844 -0.8042967548800525 0.035240494003907094 0.23494465420139524 0.1506224138922482 0.40341311680253544 -0.28173775552927754 -0.30854355751808316 -0.007983454024377742 -0.18920300436444126 0.3559855678690928 0.2609910492797288 0.3730653289487479 0.11023659810757103 -0.12878603595878985 0.20504912898337627 0.23862170822328654 -0.09610388698341318 -0.21771727139315963 -0.1065282938959641 ]
[0.10037714039558362 -0.2550595728515829 -0.22049024323867977 -0.27296699513136763 0.3387054352577202 0.240875476565851 -0.2865548747131124 0.15103750439041488 -0.30919540743447005 0.31319170661593976 0.13447333046097512 -0.11642313455625979 0.32847197514317267 -0.21544698661260367 0.14223244366155413 -0.3227891649325798 -0.10273705678398239 -0.03386104459314357 -0.155674832634326 -0.14010828212884205 -0.0019282943320763335 1.0352327745705192 -0.29851912412973 -0.002415312339280641 -0.30816098069869613 -0.3928260715370289 0.05614685765402837 -0.1663808502577455 0.27498782339673894 0.5583098056987693 -0.11155868826587609 -0.3022034755370489 -0.2899041050888708 -0.18181683472749055 0.2548135868342176 -0.5525477117921377 -0.082742622344188 -0.28377893658831205 -0.18273361967468263 0.31881164351635055 ]
[-0.15467429371373498 -0.39219424561671273 -0.06747064841199926 0.1132898314574533 -0.2836793099005064 0.1774141599923626 -0.13051717431239854 0.00203752021863457 -0.13151773814968698 0.39012804375222315 0.2763707301345654 -0.16433539612058426 0.1092896666406949 0.03708665491219366 0.3032497624319498 -0.18899015821104598 -0.2841983797404798 0.17568387315500683 0.2395667442253564 0.054426972041762015 -0.03531797141865881 -0.12074956990285582 0.16338276736363694 -0.20457145261628812 0.23533758745603736 -0.03197783346424659 -0.015055726651573752 -0.09762903358869893 -0.018116857820343734 0.37729082546158954 0.2705702200926183 -0.11585664414849042 -0.18444093024714664 0.17381762251420452 0.23040805837875852 0.2569347262000011 0.1856198260502844 0.31174869991516513 0.3540163875710889 -0.22263189439214917 ]
[-0.08141478619025183 0.05143060039917902 0.12603462077212543 -0.05546692512950906 -0.3845496042256722 -0.04631967409463662 -0.08901963532710438 0.14365814778730074 0.03858403262184435 -0.25617108811774436 -0.09807014685237606 0.32574461324279547 -0.28216162100680015 0.021491752534497 0.24033960781281766 0.05218542566501708 0.25536676747583026 -0.4142647758269763 -0.02948684003493954 0.1178195249524022 -0.12794004397964345 0.17432102866998436 0.33672964203245825 0.5956361812699469 -0.19477371796347887 0.2319176085232965 -0.4294210961613569 0.24404086031238711 -0.018749064178222183 -0.5238585265586347 0.24453055945262187 0.21388683671030564 0.020211164953417078 -0.4598695892560523 -0.1948521234395722 0.04616635308820695 0.44172030936842277 -0.27351412930881247 0.2530469681038832 0.06205113916016727 ]
[0.28235085924584763 0.24180663226503163 0.1048079016172884 -0.43531766372415626 0.08182267729022895 0.2031262715122007 0.1636791452360309 -0.010779282265659775 0.05828793060580085 0.11268290692470737 -0.13328889893579915 -0.21506824474280856 0.3051764736801166 0.0780469927978085 -0.03022481965935489 -0.17579465319768572 -0.4027213015743007 -0.2411314940495222 0.2668726545319403 -0.10749207975241382 0.07174993593385381 -0.40493804713461784 0.3026386983552606 0.0019890726681727052 0.21125555928073736 0.06401225462864485 -0.04593482328563846 -0.22527553216515822 0.25453760436716505 0.11188699311735059 0.17473203093818798 0.5006590522261467 0.3427063299912051 0.1348490818340264 0.15388551345195345 0.13213075168453348 0.35591007625400917 0.1910668340980629 0.016823277261883245 -0.6507241513154479 ]
[0.08832647394271295 -0.17166496359253614 -0.29745278649787216 -0.18678872886435238 -0.011028945756573915 0.1882294811828617 0.4110092069715548 0.2545376326253739 0.1398403384994377 0.30935276561060554 0.002765110613900013 0.05010589621432353 0.18226789831420082 -0.37657187181604024 -0.28401945059779676 -0.738366489911649 -0.041836256358157506 0.22554849353276238 -0.19439311973162696 0.26791415382494294 0.14290118398315713 0.9076738220162123 -0.4523796347352802 -0.026597442619175102 0.2370384405348769 -0.35807019351096875 0.11145280608728632 0.09923816395957975 0.2242487268740323 0.36458430882066534 -0.3437984124298533 -0.06435189242071733 -0.4625644713358202 0.3675394662645125 0.20084276274595053 -0.5473832690972554 0.17177037567530368 -0.15764727160880596 -0.4213979675060065 -0.07179829068376299 ]
[0.1711875432716803 -0.15801044157467253 -0.13593972098118495 0.10656845750100963 0.16442596454876998 -0.3141899825905642 -0.41054112591877934 -0.17894618366379977 -0.5498392471373561 -0.16899918611702852 0.2109626364207224 -0.24207377143978656 0.34151641513132985 0.6426890961179192 -0.3605116810190028 -0.48644921926644574 -0.001960204703212056 0.3710459405898108 -0.02338477306988475 -0.06063854301055694 0.21898671123104635 0.43837632181291436 -0.4247485132574744 -0.7365241727686584 -0.33495871978442787 -0.03289229659032731 -0.2684103196649144 0.12462826985651138 0.37139993707098595 0.0008761865680956451 -0.33892081459488654 -0.23831414013638036 -0.043654664253894436 0.5961258175143773 0.1622711215373902 -0.044396392201782084 -0.09061953104978027 0.08533044166114867 0.2078235688484888 0.21048866269013825 ]
[-0.24048033170496907 -0.14853830972569973 -0.15857671350475874 0.2179186822084113 0.19251276803520814 0.19570590491890577 0.057317749794330596 -0.31348832655909553 -0.27327959287940795 -0.2002915608431806 -0.11690357338470041 -0.33022571486503577 -0.2772383050611289 0.23418190547842863 -0.23128021423106168 -0.026764087458101445 -0.058537099897775106 0.2779636602539896 0.22924113514031497 -0.05392492027515806 -0.2853858715758552 0.08409323601527964 -0.12040306633939639 -0.4596298817422589 0.0743262778651376 0.2702519600421047 -0.021029357601391407 0.0753447731398149 0.055079249504319285 -0.39334598799622206 -0.013973209369386706 -0.33976115450056965 -0.22200094052624195 0.30050830160034187 0.2517985418425026 0.0857533341184954 0.21144027774913926 0.017455458893220217 0.10215856154531146 -0.2469333342714717 ]
[-0.2335363583174323 0.40939399605304483 0.10553372545863686 -0.13267062175293198 -0.020982181527827923 0.2256164920697333 0.29726888371427035 -0.13988168055859648 -0.16395531065766175 0.2095930703582705 0.17939603657280134 -0.03151540183728121 -0.15431869874734738 0.06698783319754846 0.20838473242384467 0.4986203506695016 -0.38239214836112856 -0.4307584309949235 -0.1564722778815098 -0.054479860812562 0.0471743799450259 -0.3882156297230047 0.21745688250263126 0.15339834489463627 0.2860716977410917 0.16773626046521128 0.37507799197799824 -0.04690865107473463 0.051343937527210996 0.055303453778003234 0.3103835040945386 0.12150688861187471 0.3454499722696738 -0.2926891838707273 -0.4158216514573936 0.6024585663767763 0.519014821963916 0.29938861784531434 0.02562670179684948 -0.2820853179133497 ]
[0.27977525671770115 0.0185229456816776 -0.08842819416950233 0.33556961125733664 -0.10570871912364328 0.09121305937077659 0.2592290476295136 0.38957112997414645 0.3451043283759331 0.006766348489648683 -0.10005852283448295 -0.2455308872046567 -0.12386341569903 -0.3289424288836215 -0.19969564218501404 -0.43215340005855535 -0.2158675090866806 -0.33748109405793153 -0.18380475569201607 0.0805832208719091 0.16557742148598315 0.4225110744031333 -0.28140356612294615 0.27982972890200664 0.2288669842623336 -0.1455221927134616 -0.349372755192674 -0.18331916589316363 0.060425635934324526 0.09219325630224272 -0.24240714867251792 0.4536974058796637 -0.20344809693124818 -0.14730746808291093 0.18972612787300064 -0.304568423156104 -0.27178451667883946 -0.18636330390535358 -0.24725241336715253 0.2217918855681527 ]
[ -0.02811401743832612 -0.030069068633911678 -0.18606937779982055 0.07208937386907958 0.10513607056123637 -0.011878422799780892 0.007049528602554962 -0.08172474829471635 -0.09167099186138865 -0.016819358237609446 -0.013860629139671284 0.009104592341445639 0.16418881504969984 0.26095402368664194 -0.08613318215628132 -0.16644970579297427 0.2450793215350987 0.34854014010181483 -0.13489336771264246 0.19318731765175007 0.20994148119086692 0.3470896614226461 -0.2177647565776631 -0.10201239802866559 -0.15771667631292619 -0.09591837490165522 0.05542382276936286 0.21805410699309966 0.06363223966242218 0.091083559621905 -0.09528197182855576 -0.36744071446831716 -0.04516476897986267 -0.033786417616970814 0.03318278215023133 -0.0822839654587497 0.03856387565049257 0.03158434446448876 0.0035110572329777046 -0.002882474690958193 ]
layer 3 Activation
tanh
layer 4 Dense
40 20
[0.23552991516061078 -0.28643182971565856 -0.022802528096417887 -0.3384039051164868 0.01426865680023217 -0.07680379106293005 0.23412883996742687 -0.007295746040512818 0.0037395859633304485 0.029144310789197873 0.33328400824060084 0.10664291063061655 0.14594385976340565 -0.09587515747155392 0.2028936602165532 0.036308321367675006 -0.05483026247647966 0.026413050372258634 -0.06137988353930661 0.21263347655043124 ]
[0.2684323549781321 -0.4848471532279615 -0.342102702293267 -0.2784343426701969 -0.09784174812021797 0.011622941601686034 -0.36545906339030765 -0.4275547267664738 -0.207702202341282 0.29762924722287315 0.5801538076615428 -0.10460913333513387 0.36737052736090453 0.0810341843330465 -0.0583467680852134 0.05067558636684502 -0.31257531370914915 0.36174261333073027 0.17598230719824953 -0.14865356120359222 ]
[0.18630248246165718 -0.32210018879062097 0.21836782758962098 -0.21830157659960617 -0.0397111388765657 0.12876148734678486 -0.34917048862789823 -0.597736223916494 -0.029632120436612452 0.3645692920819891 0.3128869203390519 -0.031412071422258596 0.3069353988949356 -0.25482809468456136 -0.23009190626045978 0.29594359280815113 0.12419932957888943 0.3291725362754922 0.36967134573867516 0.1242203861244601 ]
[0.2877854692488335 0.1962543579736577 -0.2672203412564096 -0.14661866774833737 -0.02246952700760162 -0.19246071550465332 -0.06988929467697272 -0.20240207180311803 0.10058476532333821 0.15758059461711577 0.06196774397516968 0.29050705932156795 -0.11393738152633855 0.27713458806503777 0.24151357532230558 -0.17411574060860108 -0.25203464398319025 -0.2968292903556844 0.20939240627969163 0.22569416671286124 ]
[0.2174453086334603 0.4669269679213817 -0.3692955433888336 0.37813632264389196 0.21639837542550716 -0.26425415122037194 0.3068759376287521 0.5742718769063321 0.11709404084211202 -0.15702192834859524 -0.3072741494006788 -0.08311321446151801 0.2197230099229303 0.0400971129611584 -0.17681344619113556 -0.4203357064827965 0.2605559424642829 -0.3827589838734215 0.2652993786443184 -0.2026008855934536 ]
[-0.2556371058998866 -0.10495696880468791 0.19437991010768382 0.021117896992754768 0.17642049306636345 -0.2577005061779418 0.2669980544612253 -0.06574307251436737 0.3738816499353115 0.19754009581553922 0.2981887053749995 0.25045600067683543 0.06869501164195897 0.10899805068004663 0.0381838562905227 0.2941476323700638 0.3934831997098292 -0.2345223375083006 -0.09185793849174397 0.1358583275194496 ]
[0.045815153315112 -0.3005786130527749 -0.14109743870836147 0.21199127268643514 0.1616750639271001 -0.36538300150586805 -0.37786856011104153 -0.41134150429497496 0.08921653312923522 0.42205759764691697 0.21494402152706893 0.24128052006358272 -0.24102018363483338 -0.20110130923540948 -0.15192600985687238 -0.175120066746234 0.014773169831707202 0.07082073994326961 -0.26395689066614214 -0.18518502767950437 ]
[0.3047143469889583 -0.150554541436607 -0.3159132869337707 -0.22598513100149056 0.42377844379686186 -0.18984082426558058 0.05253647566572989 0.3758535857492923 0.17971457323318726 0.2977836881944363 0.11439714327298008 -0.1703596626485372 0.28200308623950504 -0.142958858416368 0.09332579732273169 -0.07300125087792653 -0.20385140825666928 -0.12241744784985276 -0.2592790190888695 0.06713873330587891 ]
[0.2555803982612146 -0.14850636306782322 0.0006162242226441594 -0.20216312551031523 0.34035610367021174 0.2157047121248988 0.32355859104555545 0.031805549767063956 -0.0788755557470448 0.2644063204946076 0.43262971189951693 -0.05731119196382084 0.1044251940671782 0.03777703114944931 -0.050769269783950355 0.06915610975826995 -0.3377043507739847 0.23810699482374062 0.08733474651362567 0.03895327241008188 ]
[-0.06963993267373186 0.03142363167754591 -0.008808786371542603 -0.2398858909483937 0.021076675824396856 -0.1223053765792579 0.014397764521870929 0.275686806558301 0.3251353111816093 0.051922532378001054 0.3650471850231537 -0.0015033832951942454 0.2626168758410197 0.06355997413740604 0.43575281864986004 -0.38049217672174157 0.28480937290381597 0.04705410096030015 -0.285539581537364 0.31262817508829044 ]
[-0.10970025108195351 0.015860694619550985 0.19436806426623676 -0.33206342560400676 -0.008741698243754384 -0.23057546442627844 0.06429023790091372 -0.2470444602558976 0.13333228494814994 0.05808335352774736 -0.4933386809354331 0.10668672150261352 -0.21299788618602922 -0.29236618299175077 0.199387262088865 -0.16741784318232955 0.2303784847196686 -0.22256250644246367 0.11239910241235049 0.21647284537395658 ]
[-0.04335239504643337 0.061761473360486735 -0.19251488864998956 0.11851224852798 -0.34757541347070414 -0.28647921737698695 0.26493626930046577 -0.32115098520470897 -0.250297004396649 0.23896349885371293 0.15081992927332885 0.2383892709682349 0.3882112718312395 -0.15570551969716112 0.2588694170536326 0.2426316704026295 0.0685878236950889 -0.05201131260308009 0.0133456240196283 0.20879241454290762 ]
[-0.19064896300161413 0.4231183407270422 -0.46151200330746917 0.06818653041647312 0.44158263439908246 -0.3206661421993705 0.23104130259314723 0.053476592602987705 -0.17253912682983089 -0.4091602019172716 0.08094313871503338 0.054967946308045745 0.29794233978843837 0.07967445821344281 0.07276755833884814 -0.5166528512675963 0.11807247296531238 -0.37475053279007536 -0.021236862030926392 -0.24719376339445345 ]
[-0.022291050521236075 0.038600174195764086 -0.13187196608608284 0.2036564138327162 -0.3966599965513136 -0.2502268213374736 -0.4300540542091883 -0.11846576115489585 0.2653666943420304 -0.23740255194845433 0.02907483572643986 0.20348489959195667 0.17098025023643448 0.2903116592087201 0.10936581606879238 0.36695227047634604 0.24358945448407535 -0.4060135774762653 -0.44350309805294563 -0.09114396009403822 ]
[-0.13666214690227924 -0.3671786379426744 0.2074842270650509 -0.011662284872205672 -0.4009377544673831 0.40901361744503373 0.22380043376377107 0.10973436431361279 0.4170885725360035 -0.029540475285900352 0.4375626445825874 0.1723942775180706 0.24915703267077932 -0.015883526892952905 -0.23814420985176674 0.32626495510580905 -0.3325134832655227 -0.1124050400037251 0.20549686162817846 -0.19273141966524554 ]
[0.20726744259999275 -0.5964646610798623 0.1294810323210623 -0.27514765300271593 -0.26731921591552654 0.42051453207386524 -0.3130923376085174 -0.5415257139407136 0.256816579723213 0.10648649764836089 -0.1236807670960267 -0.21619542633418878 -0.19035013950496998 -0.08470569394349366 -0.22566140387928305 0.2838169840299507 0.14570552613442758 -0.2714056000121869 0.3626548029279508 0.2988755832995474 ]
[0.271027953798485 0.08347104611087496 -0.11239857337414932 0.20881178126517705 -0.058851571351038856 -0.2548118382330279 -0.3902817260369534 0.26222942938276783 0.13047937181929545 0.1862523926570771 0.12844873848167232 0.35279978672638435 -0.20924974475605962 0.22468099892626114 0.19015527999370718 0.11078943855898891 -0.13089906554898484 -0.2247057304114308 -0.20455194198258686 -0.3259059802800839 ]
[-0.363149951914184 0.6090325664838777 -0.154155332047538 0.1242791829923807 0.10689502109031626 -0.2425492066116307 0.09130479432250331 0.35746859304512074 0.17250394808191216 -0.49637685957038014 -0.520128132379557 0.22400103487551087 -0.4081775258828493 -0.06882043142175356 0.30279206254594065 -0.6496485682649473 0.1627305204309912 -0.17965166039964364 -0.026057697069040993 -0.30912019220850806 ]
[-0.05555191717743881 -0.27732017782191604 0.4050206001478653 -0.07890693485152371 -0.3982062854647193 0.1632017928850548 -0.07587169837581104 -0.23617467741795922 0.31761903858815466 0.10926128724097733 0.21289784673221493 -0.0891431694327293 0.30603604173687926 -0.07879306040790236 0.35638840562851676 -0.21411401664102986 -0.025046687351131053 0.3280603001884664 -0.19748116960273 0.31574831127183856 ]
[0.24946801397290153 -0.31797614206347086 -0.37102205550337936 -0.07381687439027713 -0.09286713886955426 -0.42065831621399197 -0.1016543804934232 0.1694088386992466 -0.23720079166906172 -0.1414274084496767 -0.09427845002991357 0.2985500956402262 -0.3018563716242484 -0.04970590892058807 0.14198655066200186 -0.17867985633915648 0.09282326697340687 -0.033133777583704636 -0.20645114156048483 0.1955308335068759 ]
[-0.4105605823530994 -0.11500855296554122 -0.1255356599248383 -0.0007270502369557504 0.3985662879924724 -0.39025237958023046 0.28189779244809204 0.4125925290735605 -0.4353515631118803 -0.36610419827473767 -0.11013908477539026 0.08490252301395586 -0.23497471054222518 -0.24214189019337937 0.13769272414579772 -0.07061151276074484 0.3392078731852064 -0.21472312929351162 -0.17935056747171707 -0.3231603832617184 ]
[0.08965696975356248 0.41462008489561986 -0.03444457610909619 0.16252302398528906 0.12367487546975467 -0.30759491318055865 0.22108115884845483 0.450024372668134 -0.31533633999451943 -0.18082647265337282 0.4080694014609702 0.3277124991760921 0.48730538597927886 -0.18730570036501276 0.027211355390979877 -0.43286697943994423 0.05835580821837952 -0.2932321066660244 0.2130761935577998 0.04747343870313298 ]
[-0.18170738684667834 -0.22817683165774502 0.04874280301137944 0.0005749716083373847 -0.03338528500796545 0.1456939117031249 -0.36180347097790083 -0.1896424795949065 -0.22765225467768924 0.11841761027451667 0.4943573862017361 -0.0855609670528962 -0.040114629860700794 0.26886662776797154 -0.3189847004558531 0.4805331964885338 -0.12163348158301124 -0.023364230088366876 -0.08089644078049173 -0.052365372775590426 ]
[0.4972619016085619 -0.16083551174775956 -0.043537008079182295 0.5331974339709604 -0.3266651872309964 -0.3870591670290989 -0.28826843185182344 -0.2037374230983353 -0.5160780838454937 0.3676283895232759 0.2930595921474403 0.3218044633888975 0.10648386660346637 0.3516328204043507 0.06372752010727231 0.5417911043954622 0.16844445232117516 0.3231969401457359 -0.1095007653778631 0.1593451313717456 ]
[0.2870936932020293 -0.08039819237577683 0.33073020767444994 -0.3971214891911815 -0.16897670710650034 0.3714644135230598 0.23995508467383023 0.06526207520297386 0.1523690124245631 0.09910527420630727 -0.23525307337853488 -0.45995561132022483 0.07963649361207745 -0.24744624675425336 0.14237041896947902 -0.13689275413387306 0.062352284733179525 0.390392373675149 -0.032331746189695754 0.34686424897931944 ]
[0.4994211618149728 -0.6777155220170146 0.35758315049197703 0.0815588595419348 -0.08312066141514737 -0.09308616112776075 -0.2285165335263269 -0.7379253048889954 0.14505216043352803 0.4968217408926448 0.47021459223438145 0.08441549238064186 -0.12455113282391923 -0.00455079074786683 -0.23961553317440143 0.5845195199045458 0.27144689515930615 0.2427787468344629 -0.0070730513526953386 0.10881192894057046 ]
[-0.10171945411016654 0.005467587831913245 -0.1052888781699433 0.25457908301040694 -0.28557555657117717 -0.29933309423653875 -0.2688525989668842 -0.39270609975292325 0.0708297635397435 0.3073315229094331 -0.29778526103107433 0.08932571502423975 -0.03721370202148487 0.03639956985589134 -0.005664608515294497 -0.26832565777131995 0.3725515005127577 -0.2393311038910523 -0.08808550675793603 -0.32921039808075053 ]
[0.24436681684254974 0.08924512215336666 -0.03918299867198147 0.2600067414844082 -0.0826899459219091 -0.30472961663605447 -0.4207536194340739 -0.06756578552680123 -0.24270879055750813 -0.2479604797401684 0.1935385924158548 0.16794261135790942 0.12329631818243865 0.21433222453280248 -0.23327374999740044 0.0827181183052687 0.18845253343769502 -0.3519736181192862 -0.12979027315581995 0.1791834022001255 ]
[-0.3591511184140765 0.22705814163213772 0.31612664855018113 0.19404816153898186 -0.04408826933787708 0.28797564497148637 -0.05601487501474084 0.19259945195484332 -0.1002150988672934 -0.37639129533326376 -0.10290968257748687 -0.1009207039110563 0.3066902337662502 -0.08636214832194446 0.07566747792491536 -0.32076003791346464 0.39851940389927865 -0.16104508424452196 -0.3452595541854882 -0.26654767593530654 ]
[-0.25153988574608543 0.64136802969982 0.25942736124641497 0.013633114695877116 0.011328667851886163 -0.1560472110657053 0.3616681990221732 0.5218683511496881 -0.20492077632702094 -0.5300534315953797 0.3228804090056506 -0.14038039677511183 0.18764845503391153 0.09813401716883469 0.5016602114407854 -0.09082999790590249 0.11907041343322224 0.08516362921579042 0.03908523867194439 -0.2017484284174255 ]
[-0.10966976807958828 0.025889108878898844 -0.08726630540680906 -0.3847366068290152 -0.1623841591861889 -0.1600286941503981 0.3209706977621368 -0.2169933624020929 -0.029303275270437495 -0.24117821826444652 -0.23031650953081437 -0.128209757832945 0.020273819883029256 -0.002179094835200016 -0.08245889775192979 0.3814075375764067 -0.04294167435264673 0.26310978636318544 -0.01549403027470745 0.30993055834269256 ]
[-0.16616776911318382 -0.30364720184882726 0.44504602621110745 -0.4893910789765655 0.015461888380713067 -0.04011087732127399 0.21679146523426124 -0.17255178367958177 0.41933347894726186 0.36495259188637036 0.08509397384144757 -0.3830757625083872 0.13786610133574637 -0.025391074928831556 0.1642531861462626 0.025816274071369324 -0.3776181660576676 0.347883025113873 0.21263348166072532 0.25780169688064264 ]
[0.2745222958752993 -0.5783789197617308 -0.23451663328836475 -0.05731513636110756 0.08298939164644528 0.24407298790697313 -0.3323837667355612 -0.47248527018191167 -0.23769128033617334 0.30238570725645947 0.4060773249496838 -0.26707155566431545 0.012762085029313428 -0.1967884057186908 -0.3663589910350727 0.35485421696557407 0.17717861979574914 -0.21368136598810622 -0.2777656924762111 -0.14344399889491002 ]
[-0.0848473651369374 0.44272689281471556 -0.28861151172386873 -0.23829471647707673 0.3879785092345732 0.055884659071694535 0.11334482544818439 -0.17944774628111182 0.2713316872148019 -0.43653085999914315 -0.22459223690903465 0.053061523243903334 0.2718838414491375 0.048630303856660465 0.12792899520584938 -0.15731177904577434 0.05202906028367958 0.27193110070694787 -0.22312082881808815 0.22822323489500068 ]
[-0.31142743373437626 0.3991130678626958 -0.052502042708555935 -0.22041975324012944 0.2819581875793354 -0.10608681327606431 0.3275192797205155 -0.015406401267363753 0.09859354375182182 0.003033058410535529 0.1245859821517111 0.09492504998395668 -0.24317668729345557 -0.24076797239038422 0.19877089938409162 -0.4794787990927557 -0.25501779561574883 -0.07407617084122242 -0.05268505726224466 -0.27558878657523916 ]
[-0.004298408142837949 -0.5807631027076366 0.20064953734305982 0.03680817570044523 -0.16034005376274518 0.22234083012511532 -0.2188108395811712 -0.5053823294673977 -0.015201068830565562 0.09081602276644937 -0.21643239440919404 -0.12171747870135201 0.18995256126181498 -0.024089002189221106 0.03900181459149426 0.41595975544382296 0.07888091769825908 0.1195444530478317 -0.18489398690846404 0.06388939995601184 ]
[0.2382938714175631 -0.5648887962296849 -0.4515083634068815 -0.06185592596057743 0.060347945250352746 -0.05408879802271796 0.21489485411547637 -0.30070426961729285 -0.018100673813469036 0.2251979358161166 0.295141564723073 -0.12429588837512234 -0.07999530484599693 0.007750134648873254 0.0004262225106601684 0.4214137356060043 0.04684111351003263 -0.1953445978320153 0.16916607054667915 -0.3809849393731276 ]
[0.09781355377332275 -0.21216277339682335 -0.2429764608707869 -0.085794225786345 -0.041143508280541544 -0.039242859300783 -0.11890030383432562 -0.2663865557236313 -0.1913577327543939 0.20545850047328795 0.2687627054617775 0.09170654680087004 0.29125309890449774 -0.30831639430516944 -0.0424380496336227 0.1773219653901386 0.1396374867625317 -0.2599229903132837 -0.07781162940218093 0.05800078218928219 ]
[0.05687140150068674 -0.045987269780763944 0.123442501469848 -0.2777754427515852 -0.32480474725037056 -0.04694377494271686 -0.11328737620556778 0.03210125020341785 -0.1706620122267989 0.32815006328633906 0.17007432030793126 -0.07425567617447125 -0.27679740874842557 0.11736625264155114 -0.1522411177684366 0.07809456866664734 -0.1724194455740982 0.02800072494278182 -0.04570357905777275 -0.3882330386632197 ]
[0.3076388723207822 0.4070556236013652 -0.031114121014958755 0.27820769415016855 0.15314872587438716 -0.14995703617450395 0.008780338766712 0.47856627912418404 -0.306883838858114 0.1884699821609203 -0.47138879913193965 -0.011355599109259155 -0.21426226914340485 -0.11221632272224344 -0.22044558621940363 -0.35950097642127155 -0.07248873828705359 0.15878600540380014 -0.2268889775897841 -0.02479297161528157 ]
[ 0.03631362221161632 0.04048776792919614 -0.13912314859146874 0.2092326083069357 -0.032164494881970325 -0.12237532714634741 -0.041198698083549874 0.05607023745840059 -0.15275588156166317 -0.014166318106747998 -0.05520841439267545 0.14113338348782495 0.10086127552103856 0.09439944710865292 -0.06766061829217125 -0.056533342468425514 0.11469817083193098 -0.13734911551254306 -0.17261397436429768 -0.15775796786202814 ]
layer 5 Activation
tanh
layer 6 Dense
20 1
[0.39166969212097175 ]
[-0.8170535072616073 ]
[-0.5049670450679761 ]
[0.2357055487957165 ]
[-0.4365587468791718 ]
[-0.6160448170996925 ]
[0.3516670936454378 ]
[-0.7768069851097912 ]
[-0.2537427064871614 ]
[0.6176438322383908 ]
[-0.16429895351499876 ]
[0.6111073775533046 ]
[0.21089868283286528 ]
[0.00010179043439832817 ]
[-0.18444618270566587 ]
[0.8427247079195405 ]
[0.2903434473124831 ]
[-0.49855610440819725 ]
[-0.06255865983239708 ]
[-0.5934861566386107 ]
[ 0.2041648482809561 ]
