layers 7
layer 0 Dense
24 20
[-0.364026095431347 0.24638492802710252 -0.6033624656382638 -0.08354642926903959 0.23870504989357355 -0.5668076815706755 0.07793847186308507 -0.6419715140862301 0.2437115867737199 0.3054743503570225 0.2648286461836458 0.5010609950997488 0.15574366708334822 -0.11781184730279894 0.20631575499489035 0.01257909233663336 0.13311672833979957 0.10212294747506995 -0.2963859635034553 0.3228271053376652 ]
[-0.25741859217858165 -0.16359055873789613 0.060963406422109026 -0.2908587643943745 -0.2218795568483815 -0.3929923772299049 0.01683590655391172 0.10326352178113095 0.048421344719927296 -0.27374876602266995 -0.2013174697737946 -0.1640887136854886 -0.0793583088507398 0.27460936850633966 0.0639854325389496 0.42259009891097843 -0.29593157015433 -0.2750340955862551 0.31279577463991937 -0.2162753659521525 ]
[-0.24686298984408742 0.4481088326174556 -0.02352383531366911 0.10349826249595925 0.08570923678112959 -0.34710555952989053 0.038597547479053425 -0.05536667410604494 -0.22160329831965048 -0.2883479319274874 -0.33705611564413407 0.06903607944054928 -0.18539318617510372 0.06607488234353354 -0.0882307783357156 0.42153849185214487 -0.2773468193547325 -0.057191990421813464 -0.07002198023372497 -0.22067216353748967 ]
[-0.18775259455147605 0.31684627497580015 -0.46501764141451774 -0.23303182204795525 -0.120241220999761 -0.2855630327496467 -0.20631218003396842 0.022387327415997256 -0.07055813241163147 -0.2295488983074682 -0.3542335823124372 -0.2391767683762699 0.05404526905412796 -0.1332778230731574 0.5115419645098441 0.29231626719299714 -0.090212459235929 0.23000075966145472 -0.1958829307051214 0.378587778828566 ]
[-0.35723744322134565 0.2890862016598433 -0.21288613133810252 -0.5227621054650593 0.7779941597754336 -0.48258329294869456 0.5477844731621133 -0.13222997236498024 0.3474366513994294 -0.40728360036620154 -0.2654712032436884 -0.021109226173727003 0.30677290473833874 0.4670852571869949 0.17690519245300912 0.1594618328938801 -0.18122212418171937 0.1436391655537316 0.6201218069684633 0.3489422813329751 ]
[0.07919309093601228 0.28177652723564134 0.2631353970076377 0.19000384269059037 -0.12496540509428915 0.01687499129723455 -0.21642734722057275 -0.13392210428527243 -0.08625658304947637 0.12624866105523458 0.17413063162989298 0.5244818933069707 -0.4258733670511334 0.322783698942173 0.17666877470216485 -0.12028979029444449 0.37394070579612804 -0.039945998892441874 0.21619088999682712 -0.16110103519359534 ]
[-0.07947561512303572 0.0641887736209725 -0.28241618457424855 -0.3366355882422815 -0.2085451207961639 0.1072224393943366 -0.24349006510959748 0.23089959021270884 -0.18742203647299605 -0.07019470364833337 -0.23386046295064306 0.4674464457013123 -0.4267112409736868 0.367752281365976 0.13729614744133867 0.017711192148481002 0.18933106872931602 0.3113393725683578 -0.31902982001039304 0.15501046597364684 ]
[0.3720304878840641 -0.054363287929179376 0.06403173086815112 0.3094582024663841 0.3108424975883533 0.5875749131764076 0.1261599405062793 0.22149289903619163 0.18540505208406538 0.2570787232203771 0.10899505930477718 -0.14324273922410247 -0.06400982210063744 -0.2867507634937114 -0.2139632585351831 -0.32229526671214903 0.07135075567568057 0.20448165796072426 -0.036803619541585945 -0.3022062335597928 ]
[0.27820001905007746 -1.0200803639936753 0.5827643447227017 -0.33820883803873125 0.5922287263921056 -0.2161284553886822 0.5461020597069329 -0.150866879897453 -0.37095343373420436 0.042159398839877835 -0.31030103185155394 0.5689796488370894 0.2537256111191768 -0.34080174197670143 -0.045237966150579234 0.3985277588572473 -0.09236506618964045 0.3048616323873916 0.18538775963870888 -0.01721034669624633 ]
[-0.23666015402605461 -0.4113400587184389 -0.08269653517873331 0.16961356316225587 -0.07435451605623351 -0.06383811144314241 -0.09570042498225449 0.054197450646265743 0.15971141160085692 -0.7990683011232718 0.20324560548176282 -0.34066022874605634 -0.626353037230747 0.11289842884268775 0.29886401031717075 -0.3505211227085681 -0.37021851195270544 -0.015378841203192243 0.35973029021735764 -0.23630339333075417 ]
[0.053855918888817425 -0.421875975535393 -0.10398502038156654 -0.39136014913015066 0.4326935070736468 0.031892927019041714 -0.20968495940984935 0.05088882850602278 -0.19913841389811618 -0.3598688058492856 -0.2684618727755704 -0.09587072359174871 -0.3968015454953599 -0.15841550669376714 0.18141194026965507 -0.2772280618730937 -0.08061826902187627 0.6598762872157494 0.16171454098147933 0.004106812918394898 ]
[0.5689621403270113 -0.8588839758046077 0.5348620539361639 0.4562523531668659 0.14903646856221373 -0.15090081276654121 0.6750074279342835 0.1087326155438814 -0.3133935711922255 -0.2421300096560465 -0.24850662426717546 -0.010373441825910665 0.3867371143366806 -0.38941216984546034 -0.4410596633129602 0.08719523527022786 0.32182618234058286 0.14518097792969809 0.2335095630926056 -0.5772678365752555 ]
[0.4053119688182277 -0.04531477490668683 -0.012483276162376716 -0.09604012948919238 -0.29015664574970257 -0.02639665452637006 0.032430817556977416 -0.4539439667325083 1.0832006513915404 0.33246429887137646 0.27802707599264526 0.47833733327940425 0.29812607390202267 0.37034554657872 0.028680022189051392 -0.29804865465833513 0.030138189262015773 0.35544377966126034 0.07190396727530608 0.04969179183264316 ]
[0.1141756071254811 -0.4153325441022559 -0.03542048495089727 0.02656284926457897 -0.3931583563442085 -0.10668519013006196 -0.4346633433254128 0.25567185899832706 -0.1689718450518942 0.6388293558408861 0.07020188379016835 0.6975614048977112 -0.4932936012086471 0.6435779435849225 0.07344686633310465 -0.00289113784839775 0.26545580030164984 -0.2885222571569173 -0.3400286937204094 -0.060991689603497164 ]
[0.015375251029829543 1.0039945654604443 -0.08516402511936767 -0.10183071508860611 -0.06442225877655591 -0.09834103327440145 0.2072916074062419 0.30426083755959893 -0.2629173347870853 0.7755867671806144 -0.05931266146051887 0.23393915263807083 -0.3754115469104075 0.00034612672891241023 0.012826171688888896 -0.19396155692154526 -0.15379708044993887 -0.8075413767599324 0.24787230646323385 0.2112373504970557 ]
[1.0255181478816895 0.05116433287793083 -0.36312559568990127 -0.05220592377322932 0.7763082300159942 0.552783208525501 0.08511519067711183 0.7192858335622535 0.4433786353946179 -0.011800838500275595 0.03161425925517943 -0.2571719520844674 0.6974693979601698 0.40841132269367036 -0.6060245452314157 -0.5204037393915913 -0.27873591841769896 -0.7591226987671069 -0.033058842324714226 -0.5963406605929624 ]
[-0.33206603789638867 -0.07918113056899387 -0.032259610108533975 0.21468137170228693 0.4951075958141436 0.2039081630560607 0.28820294694260773 0.02825115540985148 0.20222213607818698 0.10524635592441944 -0.011771349306444925 0.22534407127728062 0.21213646267042346 -0.18533032027442964 -0.03540294219558513 0.17476851611263639 -0.11808593470859284 0.2521332532200542 0.2863763083509957 0.3988119567290684 ]
[0.2731488855003888 0.3468123975705169 0.052957639111525706 0.11077694812059016 0.3796653209794038 -0.12179327324741088 -0.1478596113539519 0.17203820461566047 0.653331646029843 -0.7991679545959156 -0.12100599067407261 0.09080148361984049 0.8145946599458349 -0.5957790859232555 0.0209954973132005 0.804703561912067 0.08104436144371407 0.5343048143830694 0.13471026282038068 0.5303011215141644 ]
[0.1518495904841662 -0.261179571539478 -0.41108373182934693 0.21988389407403053 -0.43045144237262095 -0.5131928492510649 0.8170257670439312 0.2757659231689398 1.0609363050386362 -0.31920292042314047 0.00433399159497358 -0.8859528111973693 0.24656891823776703 0.09176081467085435 -0.175727560555439 0.6739238499771716 -0.554851678603688 0.3574919099966869 0.044902935430515704 0.33592030217026814 ]
[-0.5176912305087631 0.17291472486891674 0.2513593864645954 0.23403711304091498 -0.7843604787481075 -0.3720352708054595 -0.0033034549974722406 -0.6483368823308745 0.05774422682732635 0.5628361985994237 -0.3592809864679063 0.4311242642818805 -0.7636892178518621 -0.6855676908387587 -0.10790842204190347 0.481300911977555 0.19458477152702774 0.5578864899781142 -0.36651637159074063 0.53923659562613 ]
[-0.0914689369578015 0.38463954063746586 0.18948843436678986 0.3545025229835812 0.22785912834485517 -0.1320313950752742 1.2070072513200818 -0.0865263746571018 -0.02681069320378826 0.2817726566346302 -0.2872012065258531 0.025465488392568673 -0.08826821079086652 0.06812893060620427 -0.16970262823927434 -0.45502812969809536 -0.06437463014389155 0.39879350937099817 0.27622096159035014 -0.2594525588463338 ]
[-0.039877468880634766 0.7378360588047885 0.1418138851065094 -0.030002809256647632 -0.16398307219002234 -0.2008697753911407 0.3995466476160181 -0.38194229502705845 0.1543465711856947 0.5296226018020406 -0.8056024040187133 -0.6547268544142281 1.1735117742731844 -1.5772883358917116 0.18306326559467864 0.3389499684185946 0.17467648888984855 -0.6068679790557898 -0.020046521182136956 0.24881841963916757 ]
[-0.022492688349490024 0.10875755127378922 0.13333774457133904 0.20598234181067898 -0.08958928593726047 0.27450989816068394 -0.2846638632271323 0.6644349359090539 0.3388608063541735 -0.14045149060906414 0.44561482752582166 0.06765626767550617 0.9408721782981342 -0.16974248286909824 0.32480882636064046 -0.1519887598892058 0.2982141965437706 0.056826134479899496 0.043275016483760455 0.1885526453514409 ]
[-0.46403427945366976 0.3641767121898325 0.0834795635319491 -0.42617829369738736 0.10429343568234922 0.2513331616224614 -0.37365678042418876 -0.35561921198103635 0.26331310999134244 0.25347962027835536 0.3749119786981347 0.31117396275633574 -0.19709783195958155 -0.1725050095596034 0.4646836355675019 0.07329761637744105 -0.20076526778098866 0.5143389607994833 0.32130890613563534 0.24025869945481038 ]
[ -0.12134906518072146 0.1664009726085136 -0.13274357363188327 -0.0008366404951773735 -0.12391800887309257 -0.11674771171676994 -0.15033378083440885 -0.1283229831794099 -0.05362128681890508 0.02436461089096284 -0.07140895538717384 -0.014103918885348884 -0.11107750681426244 0.06626343783972265 0.0655832624015593 0.1448306043137577 0.033005005458642725 -0.14506292812847793 -0.021094107380020394 0.11816757118499331 ]
layer 1 Activation
tanh
layer 2 Dense
20 40
[0.5930531829305636 -0.8139717749412274 0.008918571067938415 0.40405303405832915 0.1444649462502363 0.5054802804543752 0.21043760745219267 -0.5235163778054356 0.1884809283705434 0.413577237585588 0.09479905695206764 -0.4990203010090442 -0.2986604329960987 -0.07835428755570589 0.3583893010851846 -0.9241099679564694 0.9415378100749723 0.15325206493976615 -0.34157219475339723 -0.6143106636883134 -0.160241730888976 -1.1488193640482904 0.6938912875327298 0.36301101609757286 0.4262338392510681 -0.6134216764668555 -0.10490721768444877 0.5709385241449714 0.00578944733711413 -0.19606486668936526 0.047786734470571926 -0.07698576039574596 -0.1028879812285731 0.34874084961353063 -0.06333233673822745 0.2420311952070739 -0.6913437181275645 -1.3945749210953797 0.04572649157469769 -0.16822133852562074 ]
[0.22167684760248088 0.4817969822580736 -0.2476883864994753 -0.41450957696235874 0.6122682922461558 -0.3309680606049316 -0.6521691109289198 0.03010204727663767 0.2720406426281231 0.08669257658658894 -0.005717478930702331 -0.4239262342681387 -0.07960406477765171 0.07980546427997018 -0.38439818204432546 0.25756024926742294 0.13543124102042092 -0.3139712783961292 1.0756899454429323 -0.016793811696793726 -0.386592527249517 0.3245726357310853 0.4085979893505516 -0.14314602876738586 -0.8459534680288907 0.8648211839783275 0.08255419496929645 -0.15087733450655305 0.3983067032387244 -0.4211813013155241 0.29844020135491145 -0.2105861287356401 0.027311145959517294 0.49834018651787 0.258298375824995 0.21732355798133898 -0.9027218294017448 0.1861622108722746 -0.3001538260457553 -1.140166486508388 ]
[-0.19732138219770873 -0.04296993180142866 -0.5334057424100023 0.288371947904183 0.39180922744495295 0.15105904212086302 -0.007363126997699069 -0.13329307148001826 0.31091873205378295 0.16204245994991395 -0.013206144937163763 0.31712602894443853 -0.3155298012496979 0.11585970971861607 -0.06954502928027026 -0.17914868659642327 -0.23177421672260973 -0.2664134057805591 0.03311999462018011 0.25259438121546907 -0.22753353224706374 -0.09362019989028458 0.4879204483327543 0.16167782337935038 -0.22101989432659908 0.10852862034534647 -0.05028701834014266 -0.039277280974100506 0.009574537168018099 0.17735507465045852 -0.37051363293156425 0.2128298986554351 -0.21746347857318757 -0.1952912017404501 -0.450679047701095 -0.21028106479624212 -0.015049650988645365 -0.3877950153860382 0.00489561496609947 -0.006517939594716739 ]
[0.2467772900947704 -0.08293145146081322 -0.017025829824952356 0.2972042321447138 0.21608969659891109 0.1542629748026592 0.49389776956177683 -0.006358113040224564 0.2014657226419415 -0.14333661412198995 0.32331388393863175 0.1725896112109909 0.046810891313532915 0.2985741665724216 -0.2374152331838021 -0.14319202568173978 0.2834300110410088 0.3085858892346395 -0.13120577224034397 0.22623676936748935 -0.043347752594202635 0.18991862550996885 0.3676029815813868 -0.036108035778540055 -0.0838344900188437 0.34653593281237055 0.20262680999803687 0.08994201811886508 -0.05939274768415294 -0.286760307510323 -0.12777988168463128 -0.07424618552519437 0.1256186846957879 -0.22224464293870197 -0.34218602542504256 0.09043171582884468 0.04158609324047382 -0.034532973666520146 0.16214914609649755 -0.3323633305351774 ]
[0.26331872008912777 -0.394921076604026 -0.4203557927181611 0.035068475798470417 0.18276181322776683 0.4558808651459173 0.19353911700680573 -0.09656655869212974 0.12886582513789321 0.17819645760549507 -0.33088125296655235 -0.1299776776351792 0.2372964890522838 0.026383706614203483 -0.6791375113646138 -0.6902996530332622 0.40361451620357963 -0.1071555898760936 -0.30443343192503713 0.009574912296517728 0.4532855544530641 -0.15983385675649167 0.390076349677678 0.34287022773624215 0.33144980972504356 -0.38238739098637164 0.20886114588898178 0.5529863754392197 -0.0885082351666609 -0.019256854508986416 -0.10736860048867536 -0.3768314574262263 0.006552026069548626 0.06157658403553109 0.00336611606881079 0.2716944432365121 -0.5730044192727443 -0.7411654359511249 0.38065923533894225 -0.03928897738775041 ]
[0.09876590728611712 -0.43858208342553834 -0.088723782133902 0.5617329153520988 0.15220263713352497 0.3478616172950219 -0.08681245969666034 -0.14180785172548094 0.16589800191440066 0.3191908474867773 -0.042417764355493486 -0.30364139780512195 -0.3270833590459111 0.1844563411109171 0.22342938979159 -0.3487701174888269 0.5000368610040732 -0.2322653003227252 -0.1177244406744064 -0.20822048804322818 -0.0880407218673809 -0.7095725912091124 0.6318230316143038 0.6465300407105526 0.15010925448672252 -0.17848775715037624 0.067077295840183 -0.16352260061724486 -0.2991822587239248 -0.17853221690094004 -0.2586025765547902 -0.40005397390301795 0.009631017818809512 0.11872550956694282 -0.38209074612851407 0.4273195150430759 -0.06633990970222127 -0.586201150350807 0.2641465690015968 0.12847295340867584 ]
[-0.00842601443305746 -0.38454944546289094 -0.31259417394853467 -0.15016347662147403 0.3831491516578346 0.294774679933553 -0.0371068730429969 -0.1160215193327923 -0.08002640281282355 0.28539927515382857 -0.13411194040262886 -0.289231889237446 -0.20415247835501846 0.13062858888315543 -0.5857686804351416 -0.4114104129149468 0.37745604203427957 0.5132352611232898 0.24669203706310913 -0.1250665134734972 0.28113739993848 -0.5471505780315852 0.370546931316424 0.09552247424189757 -0.14710380123032146 -0.14520340856485392 0.0370565425111402 0.3926413565275672 0.14838001652742694 -0.20088685726709904 0.14638008330384858 0.036180854968033506 0.1316635200321329 0.10396796447464007 -0.288262049240039 0.16328953186571585 -0.41057377163071307 -0.43500936385751204 0.43229998178664414 -0.420347937229035 ]
[0.5874037643361173 -0.12448373985521516 -0.2984222713549023 0.2742090767492247 -0.25501707819590524 0.18915188689980977 -0.17875708625748277 -0.3031738441002456 -0.1442536034093436 0.16665498360483325 -0.08952137296320367 0.03830224903729376 -0.40701603369008127 0.6568485907691132 -0.057559986504678695 -0.08586583949015726 0.7391118965298948 -0.5003047701221371 -0.3326787417007855 0.005412807520691809 0.04931841536839174 -0.6335854458578487 -0.29003587363129707 0.8467743012993556 0.8086570015242827 -0.6149750535704785 0.2904617140117151 -0.266918756291973 0.29683775079485086 0.4053528341365785 -0.5859419216006355 -0.5732259876423709 -0.007202743523251652 0.14292504701806902 -0.25483397972822314 0.7111087393196621 0.15323430860318274 0.08455625183699389 0.06652112868502544 0.2584845837706265 ]
[-0.2402184792826179 0.1438731879461885 -0.21614577556987283 0.3667794455683422 0.24953816922885386 -0.3563441149388441 0.20411249489336136 0.22267616023945747 -0.21208070802759185 0.17548723722595572 -0.23283928163751275 0.13954961995604526 0.201147965571395 -0.2883035682068085 -0.21675997017876675 -0.01688482305479032 -0.3572591714619756 -0.026332133246575885 -0.4186204368506257 0.04493304115335297 0.058485818879596675 0.2670365023858602 0.09042593738177841 -0.4326217151980635 -0.1674676987067013 -0.28235239589847716 -0.09418122541872914 -0.5397246491165822 0.13157296890199316 0.135842651817498 -0.5769548576338819 0.36650879728461305 -0.24032303249691364 0.10026745410806479 -0.13627342082142047 -0.4309253772791468 0.16719598576764158 0.4830977502788001 -0.06688191704595584 0.2377031203349037 ]
[0.2768870832474344 0.22856381659630468 0.20773401391969482 0.17118030641606485 0.048090133824565846 -0.07322797419414508 -0.263176063454437 -0.18362256149310935 -0.039176461923364686 0.2677098265220274 -0.2839524784981259 -0.48629557056162503 -0.25738610311076193 -0.3762915433531011 0.24085447607462587 0.47536364056956715 -0.15351947697831364 -0.11255741773915863 0.1342026407192684 -0.16524073549100263 0.10529232093684532 0.4895717228957033 0.10854385110350981 0.003638503043253948 -0.33439073777191847 0.20819616439376346 0.03563248291055718 -0.5128339681500891 -0.6506298001798307 -0.2952330116006931 -0.17144410457905754 -0.03389374715630183 0.25100612831827757 -0.04267470104943054 -0.39455769357622644 0.1590101353013221 0.3007222666898781 0.1926857994246206 -0.42763576853462143 0.06723442952859372 ]
[0.16507473284800833 0.18784683559278822 -0.03549809168581618 -0.34600941861321316 -0.00037764195179814113 0.2985097904522492 -0.005466433896810679 -0.0014151109705841695 0.17002503734482677 0.06469199949105424 -0.012591522656816243 -0.20902423549840382 -0.2686533338536936 0.22535293561959768 -0.1585844252987691 -0.07152866969816547 0.15595274067584605 -0.11317028709278586 0.2032181809242467 0.21849619677534987 -0.23825953246662626 -0.05044720320098292 -0.6000463694166578 -0.1578386383260169 0.3406698271956453 -0.5843578424122295 -0.07083604192408738 -0.9062454518628049 0.12109550404092462 -0.10731511573305046 -0.2073786541884362 0.3081397439780139 -0.19719252675800739 0.20301282494755846 -0.19524289167968487 -0.06816092226063097 0.06916581330061972 0.2699312644121146 0.32389000935615275 -0.30410732440003657 ]
[-0.07588199662638899 0.36238495815853117 0.18026344506551156 -0.11595871813779672 -0.21319844307618016 -0.33355102409087695 0.10702868923979766 0.38771359626977625 -0.13183241590260877 -0.3355640711352658 -0.07083047185366344 -0.04100201093178146 -0.08632794207486484 0.01559865128016428 0.19182992097394566 0.368014953648438 -0.251103808181466 0.32071276415947975 0.4372186557030304 0.20494153070554974 -0.2861440510150088 0.033050363273338455 -0.276968442632352 -0.005677335641435015 0.02960082759173393 0.15847018534863722 0.16406362030424662 -0.7684531120546704 -0.6864624698581825 -0.2346861757306903 0.24043517709120976 0.05583342001957671 -0.11552487212359067 -0.35875465733726336 0.3989091602513806 -0.16570099026016186 0.2678798142382725 0.35903970977594574 -0.11735742867872903 0.2822027621678804 ]
[0.5031806349414466 -0.4972292473487497 -0.026497657174134142 0.020940527926782443 -0.015534382036408723 0.20607338085095414 -0.40209452363084736 -0.4058101368270417 0.36313827151180456 0.27438603863048344 -0.38527110547246685 -0.7179327985452081 0.11986119696146723 -0.16092575326116207 -0.29898738548260206 -0.5500793205572913 0.13518030298524605 -0.4367327889989283 0.4033145549443536 -0.31543599413414647 0.0026887786773187317 0.18945611663965703 0.222505428764737 0.16590405037038344 -0.4600339362956844 0.28819400369980813 -0.29298163166870517 0.5569311639201994 0.31199759299526425 -0.04839254691750789 -0.430556551149058 -0.16798864197542412 -0.12884925526316535 0.11231029386002143 -0.08264236666431785 -0.16161010391452985 -1.094694579099207 -1.0555624009016384 0.25094885548806545 -0.6096194018012802 ]
[-0.05037850985258649 -0.06229427855343551 0.05355363905832221 -0.15877374162483956 -0.3938427114390817 0.3275291362175231 -0.15349885908978894 -0.17105349314153295 -0.07360853605736341 0.10500117807269965 0.23825265193937897 0.46616246946501255 0.2126804777206209 0.3035311338282844 0.41414462609224356 -0.18371670165474188 0.30426841364358004 -0.1764363200544632 -0.15946306429375623 0.1156245526522468 -0.036771039393897 -0.478724057529015 0.15571838676024444 0.257844213386935 0.488827089659348 -0.5666637967011317 -0.04572431127970081 -0.48862509509890567 -0.10346030075437113 -0.260493747740093 -0.3577959493271901 -0.1500590397079478 -0.3381704087662368 -0.14542425885727064 -0.1294192349810755 0.3379811246844558 0.502907902844673 0.4626114581329519 0.5000769987942992 0.41839331035891314 ]
[-0.2488874359242987 0.3157393752367927 0.11630959417547418 -0.2718217273756325 0.08674127832188608 -0.2624452717651463 0.008405510247271267 0.3824086695303314 -0.015444018461089653 -0.19482808583052744 0.10654303123389205 0.08870507704991908 0.2812556604649602 -0.09159009012524949 -0.08032867979138014 0.6101545101683584 -0.5392811207142406 0.07652269117399885 0.16372863781044403 0.4168722220137944 -0.25759589660277576 0.44649085591063026 -0.5036172940343353 -0.21787132283988608 -0.34146330026799526 0.24789470474969283 -0.2628415595071711 -0.35017605387711165 0.012974782695599287 0.3138097788199826 0.287991579914596 0.41654162777147336 0.283498073422061 -0.380362621928273 0.40977253282168014 -0.14149665162927488 0.11425900579778997 0.5475437600483344 0.1782061985285113 -0.27870517356284696 ]
[-0.1003844838492518 -0.03971131907388701 0.1190883234555374 -0.11167049529777151 -0.23141489235427823 -0.3305080841581782 -0.3079688887615009 0.4509681528050711 0.0212432489995735 -0.5350245799958084 -0.2983311880390146 -0.11463502456228797 -0.05488568423748652 0.165690249380021 0.5195111490027191 0.36782309391929086 -0.6108184721075597 0.005945811932188747 -0.009113630531356989 -0.3933721850545673 0.07298639434880493 0.5492936511388411 -0.2880169886689309 -0.5251055585743926 -0.324198705152254 0.44038218910976107 0.10632895369011269 0.44203352632975657 -0.09714547462078234 0.4637974628154449 0.13275256357749524 0.3336591009970821 0.21156977394260768 0.019450617114738215 0.19345320269219957 -0.515009923505054 0.5353812925195479 0.26987402045979986 -0.443724529259197 0.5020083262214561 ]
[0.11990685058702773 0.05962275637763773 0.07793388608928543 0.11043902595075032 -0.32914149754822863 0.03937317094663297 -0.2659576518859381 0.3854913372997874 0.013002929610146863 0.09345637133107258 -0.030644858794477602 -0.061815734556513784 0.003804492130686637 -0.3818983086184615 0.0778261804096674 -0.2906008574270681 -0.09492929712730118 0.43702513008363086 0.10569964627981784 -0.06860585075907408 0.2340646599648326 0.3983713657258355 -0.22837200080216905 0.13565826581865625 0.5004060740655107 0.23431115275835857 -0.06645764622815711 -0.2492570475296398 -0.3904884700133976 0.20776423005242523 -0.22296565892478398 -0.3081553451253751 -0.15849651328752906 0.14608031274966754 0.051236079612925034 0.06785415102904105 -0.13007417747141128 0.07568786170560217 -0.2758725227045595 0.18137064783249715 ]
[-0.17693734102019498 0.34654719612567964 0.05927911731168252 0.14975172430929348 -0.20419020978175684 -0.5189723404680359 0.4068482297230865 0.1642306732395284 -0.32507223022521814 0.005906311551676408 0.22370750359326916 1.2487808479842462 0.02612084001078801 -0.5697426998299673 -0.08494571581660122 -0.06822047580787077 -0.3755157441538304 0.6693005277076509 -0.9720193334698968 -0.2726886848712466 -0.2163577215793322 0.6442838319323713 -0.16069121327668992 -0.6146287500422692 0.5763899833333341 -0.4972243608791588 -0.30515969627636036 0.020791866787576694 -0.17457410716749638 0.09878958688640795 -0.4570670755583949 0.39423475766624033 0.333230103842807 0.1302226516281314 -0.17331058902499336 -0.581718651933208 0.8722583343978575 0.41129071365419756 0.2677910830834655 0.6596294555172445 ]
[0.12201968677385246 0.09871716916150282 -0.12015694374957644 0.22767374122936493 -0.11454467172886673 0.19604626081629287 -0.06588307139869581 0.09120393184337056 -0.29642043301714044 -0.30362673833940695 0.15004670871657333 0.03396980022468962 0.06936650154630701 -0.20776259350958945 -0.266678276967544 0.15756107512281356 -0.03966960650159803 -0.09548019078102368 -0.25852379932975417 0.3307768304948525 0.016031739442264714 -0.09553055390187548 0.1144180745987746 0.05744109593420096 0.21696394955557152 0.06787818999240015 0.0029907486976815186 -0.2191670340933188 -0.15527770871481292 -0.2543708307563063 -0.188918916381062 0.23162986630756296 -0.140818289848977 0.09277113956090031 -0.06345821893286095 -0.20544472890893992 -0.23791667206489675 0.395066091408214 -0.017381792789695864 -0.10260238262583309 ]
[-0.2656570920275131 0.9985918310514716 0.5768445119630662 -0.37145250700057575 -0.28141894019687325 -0.654772634277578 -0.8012840471107543 0.3857995881846121 -0.03993969863765992 -0.12681157563670545 -0.1527973231473399 -0.3792319806330767 0.08193188387098797 -0.1633050404447266 0.26998538041690323 0.7115237870318374 -0.7726352655713371 0.2601576315407121 0.482959340354153 0.023833312445538893 -0.07166564737953722 0.9615508635069608 0.08062849595563326 -0.8201663578754989 -0.6464843836113923 0.5106580603037527 -0.07012646092806037 0.04605733148641887 -0.5876369232705593 -0.1348139679639096 0.1658215832598992 0.6876837710369748 0.10192798444668323 -0.0017304437736752535 0.26674118041771444 -0.33107598710946584 0.6132600509165418 0.25673233935643164 -0.15521190048488953 -0.2391922154718538 ]
[ -0.010181243394832368 0.17246063590916674 0.21302791238888844 -0.20635411573547 -0.1831858533899641 -0.1223563767570245 -0.23828094081916504 0.07272732868823889 -0.09197258655553539 -0.0586346720540582 -0.02186832695642611 -0.02302386753864351 0.08998587547975169 0.014836693603134441 0.18787077211500805 0.17933512472969543 -0.08867048364653536 0.02357884002480628 0.17977166767603073 0.04451655255271421 -0.014930504467874502 0.09434881518373055 -0.4092630975014822 -0.14352208671022415 -0.015677927957398214 0.027242149309745004 -0.06605782961606628 0.09205189482368013 -0.0051278599555683166 0.07402129291917506 0.17729246531254111 0.08393773883030883 0.07145342943300827 -0.014367004857391421 0.19847439230526387 -0.10023439382112677 0.10713810755250831 0.18515753213864353 -0.04125580035126409 0.042426614595901545 ]
layer 3 Activation
tanh
layer 4 Dense
40 20
[0.016402267285575672 0.05450286232056829 -0.2219461031042851 -0.3265056750342603 0.07650793775919838 -0.1816933294988848 0.11717510161063469 -0.1905781392035028 -0.23909907100284905 0.3089660212932975 0.2786469154289677 -0.556278065899577 -0.0372649610943495 -0.044623093491376435 -0.28016371697268244 -0.2266519133027521 0.33666782422148955 -0.23439570110496685 0.32883933093149 -0.08347532547710844 ]
[-0.3850143331870792 -0.2731854129301211 0.2105477510618523 -0.11914159192402844 -0.22439991120701758 -0.1779828172571482 0.3615341603150486 0.16776036965949886 0.07279304815301714 -0.23928651676716445 -0.09906187776394577 0.3918451125160196 0.31516997843061456 0.39074697524463575 0.07312103025240936 -0.02630417248542431 -0.47142380739977546 0.1071476975095882 0.15282171995755867 -0.44194324760196746 ]
[-0.06262979141226425 0.1608803641317122 -0.33378925321706715 0.293137255752442 -0.15289016519323836 -0.34990715933645883 0.1746226696036325 0.26815388982603006 -0.047296924810563926 -0.1955630781159852 0.018622995093156503 0.22299014327034986 0.19369620073579186 0.32905368378594707 0.1278461393183624 -0.26221068695591326 -0.11596237775456286 -0.22612914642299958 0.4403371938336133 -0.04747254286072671 ]
[0.2826009844026927 -0.2547000575133733 0.033600871695555104 0.04791629070794702 0.34707019206603595 0.3889197820272448 -0.22835061863314576 0.02546240765183265 0.26675092305221026 -0.028601427897902477 -0.36784383235290374 -0.31138905127407784 0.26493411331392663 -0.472528904425911 -0.3492725261579785 0.09226675024287463 0.08108765970155983 -0.1886478169439461 -0.3039259502015867 0.047736522943382355 ]
[0.1862272831230014 0.05773452572381327 0.28832065478456304 -0.2864876540116896 -0.041973953497753715 0.08263003726506747 -0.332790190098872 -0.4173777848433837 0.2731002427776601 -0.005093291848012193 -0.03967749553078493 -0.31123785474102245 0.2116228619465674 -0.04490344076655686 0.3883908811412219 0.22211613322203677 0.0807617316454934 0.36933731882649395 -0.38044498737225 0.0813800534320441 ]
[-0.05959696026058863 0.010468616614982919 0.1505023324951625 0.33683604910386755 -0.28680414479875577 0.3991598346840865 -0.27549602748605284 -0.08462574294683205 0.17133479856936945 0.6001574921671928 0.08013206592517304 -0.9651757126769858 -0.24590814148750142 0.3626812682440728 -0.1532955809240433 0.12805545956054348 0.7682966753461201 -0.28579347912432856 -0.01891892373511054 0.5227820837358681 ]
[0.26635808979780706 -0.029903988468212038 -0.17392877454772127 0.25590994937838046 0.2209420727058051 0.4019915093516239 -0.28197610988827154 -0.0983511052134717 0.25294959067055717 0.17723242807901327 -0.04498153952554584 0.2266824442716194 0.09203793131735387 -0.3514668328586783 0.02723533408753276 0.23404383137809143 -0.026685384780761098 0.02769188199181249 -0.262969590244289 -0.19318823285999803 ]
[-0.14837426305550802 0.24046257245443525 -0.16579842396244024 -0.2697853221126879 0.07160730666155737 0.10354254150830824 0.3277107635428594 0.4308834950858296 -0.2643222951175263 -0.11522918028543527 0.17727512170726256 0.6084769920734281 -0.28512063325722814 0.39977512303915985 -0.16053550135450012 0.08384963318349081 -0.16216414088836847 0.1603878930787937 -0.0888246738987968 0.035833074254873004 ]
[0.15018834230894657 0.22162376917143092 0.5955459827568448 -0.36428916866865685 -0.2625249853590424 -0.16125736547503866 -0.3218507317240827 -0.2744575628839558 0.13556539110612215 0.09214875041491304 0.05803784734693304 -0.3203575576945287 -0.10949755965152592 -0.4056473640335796 -0.2822421660854338 0.3378931164791261 0.21979419059116664 0.006913765807191486 0.05357524537604909 -0.11435888258677918 ]
[0.23897726730421928 -0.1781714436163775 0.35218569649281 0.09397572570131413 -0.24330397578679683 -0.1258383623333243 -0.5178151624685946 -0.7282387500468176 0.21758189626008906 0.16487182309191256 0.002653199581338049 -0.17183250268034791 -0.018686483705138826 -0.3146111461718185 -0.0357311104778562 0.28675770822556707 0.4347099937526273 0.3528211290708113 0.30712419013305725 0.5622407489743874 ]
[-0.15725415521697045 -0.06214804594126485 -0.09117331567790711 0.14394150867646813 0.176043837319427 0.347122411443815 -0.033828809832488906 0.022229759223285888 0.21952233980428082 -0.11667025091593289 0.17687631401613302 -0.05684445880509111 0.21265886032619638 -0.3174598446150426 0.29175116292546605 -0.1563214479617319 -0.1703050382419246 -0.02442332469115066 -0.10363928970603829 -0.1281527800368982 ]
[-0.262019271503863 -0.31035791388741385 -0.1458570545577995 0.4677986008532154 0.41615490298252217 0.3594916936056208 0.25573668493034557 -0.24533044939019955 -0.13014580256029107 0.1381155246996366 0.07186333534404196 0.5702090138521528 -0.2708494313909669 -0.3079154011678774 -0.14300246921029638 -0.2104956176713477 -0.2299929427087822 -0.09948966181985694 -0.029905361295202094 -0.6059885132166442 ]
[0.13979817507359832 -0.061991963868330044 0.08004226476636717 0.2560073595740043 -0.2847989854034378 -0.0719765372760463 0.0005688106288452188 0.38742589690613255 -0.3143573664511048 0.00568302525780267 -0.1819785162669062 0.3105237957847597 0.13021762772801454 -0.032919449992546555 0.09538538159372686 -0.23938242928476614 -0.35514483501273736 -0.2697155005921748 -0.02269369134089091 -0.27948836293140095 ]
[0.17393842943088914 -0.04244344306126243 -0.08627179600845745 0.13854416143510778 0.01082478532801055 0.4625404256083544 -0.12357721735687148 0.6527356599003079 0.04853103045287384 0.2829949913814505 0.06294454652084672 -0.5124895337751781 -0.07585920839863623 0.4423083040029999 0.3629630486225675 -0.0550689484847201 0.323243201909848 -0.21260218877699152 -0.4261729963319588 -0.11231895543548184 ]
[0.07934153904829362 -0.16996123893927992 -0.21359437673911452 0.17372545827373836 -0.06432662714544592 -0.10300792021384542 -0.2491561367597185 0.4251591216258081 0.06825946355904393 -0.3503047995258305 0.1636460325643324 -0.017443112255811324 0.34299979343934506 0.26654500268458214 -0.3753166644515603 -0.3933768687981126 -0.11056633010234944 0.008536593475101948 0.47054556311396584 -0.22913876653092285 ]
[-0.09338653542063736 -0.02484701210991089 0.15486057708426812 -0.24247682311322885 0.11742553925848974 0.23727266342871747 -0.29368312500106714 0.6950662406100789 0.18580827184207205 -0.6840976500523344 -0.07731632488040262 0.5609447918080902 -0.09142329236814802 0.5699265455827299 0.1060955335247874 -0.14802648494181753 -0.22417563113645872 -0.20567629525405856 -0.007167007668917061 -0.5733024235001293 ]
[0.3575117972870587 0.09424256367257886 0.02749676023905439 0.3239545210368526 -0.015841895961593015 -0.04597162273033318 -0.23313435767547427 -0.26986496325095344 -0.2722968738713714 0.3338929894857608 0.24020569060338187 -0.7249086757622191 0.28440325334664707 0.3350819978861234 0.22473710955751672 0.14638751201504657 0.35427545224366497 -0.19783784573549965 -0.09180237979360772 -0.036502188915073966 ]
[0.2160823180142012 0.08783205280155602 0.11506751788352085 0.37154393866469765 -0.021810806856370116 -0.1837969427104133 -0.15421410165557864 0.5357113411152766 0.1060765797560672 0.2664514087573681 0.009590498988083444 0.3704094981449635 -0.46075220177318715 0.00626842193168182 0.09375091654034401 0.16938331189493075 -0.36683238747292934 -0.27079299356399134 -0.0530316594104613 -0.14762772841825286 ]
[-0.18537330789229073 0.31205265057254716 -0.18711665834877586 -0.4372281126400625 -0.6710126199870238 -0.21169679185149165 -0.22883386047579557 -0.006744215675196539 0.1503103716558459 -0.3330360332224605 0.35394246522299155 -0.3857213136229511 -0.1315187042427553 0.45247176242805043 0.20099867332780594 -0.05840338605348591 -0.05194124026194158 0.2027480640232623 -0.3483191466988965 -0.06847410068688835 ]
[-0.445487999896132 -0.4102694127596098 -0.21259472170969987 0.06232482338835357 0.15976940986590402 0.3908290530971827 -0.2024676959228773 0.22653098273839972 0.047456092782593176 -0.4888036199867418 0.09817532224595625 0.4116884017028476 0.23606658721893573 0.19523785817496384 0.3967466499397154 0.22359798822957175 -0.4391227698783504 0.01989947098834178 -0.3734045892314898 -0.30643545488872537 ]
[0.28820610038395045 0.050323912377968405 -0.23292281359084369 0.0012567810609196055 0.022400175562795936 0.22637229497810987 -0.03326138931002346 0.29326586106922187 -0.2707919326229151 0.31188624669653886 -0.23149778005309588 -0.2343174297567408 -0.36350110994102386 -0.020821168971551444 -0.08681079106038145 -0.250694270931208 0.42485773196316934 -0.16368801586807913 -0.09382763583138311 -0.1152772906296226 ]
[-0.14487622803883143 -0.033960387441630005 -0.11737237450272898 -0.4900651372758963 0.14989253053294355 -0.3724427609460197 0.3247770378527528 -0.18700556101809857 -0.08048718746583576 -0.2991010251459849 -0.21556590701048797 0.10205118227888521 0.030660856423628577 -0.11165824408643638 -0.43419843760252597 -0.31093961343765136 -0.44187233249159746 0.33139121646708647 -0.17669463627056897 -0.5173813019957535 ]
[-0.13393069775860406 0.054230617066351176 0.08967371165209674 -0.38448270492829467 0.18649457427863908 0.06586751285897068 -0.4248795651180596 -0.2779538695215185 0.2592825562826868 0.08026317838072618 -0.38472479165677154 -0.014533605818795427 -0.22792003340687308 -0.3106304053208456 -0.06507267302243112 0.14206339960006215 0.2916055884466098 -0.2718104147712151 -0.0684969257528078 0.0031690300855383192 ]
[-0.08224384234514409 -0.2724250115505717 0.22361338080472745 -0.045162800233072675 -0.34803629871871694 0.5123964554163497 -0.28356679929875966 0.26820618631270626 -0.08470888152707434 0.5281211512062626 0.2665346252780689 -0.17142620914362602 0.08117737319144794 0.35393941753040226 0.24936322039101574 0.21978380084766513 0.5620303669076528 0.24277208715102086 -0.06653248425381993 0.28946820662228956 ]
[0.5532445641830728 -0.020794420269979914 0.14544634611438878 0.3058301448530016 0.5541535637803933 0.2408586567460677 -0.16596465935131788 0.09077978878428185 -0.17108128952432478 -0.19888458990549254 0.4313663647179361 0.21808784109986565 -0.17415909494708076 0.12072455491543196 0.16111346836030438 -0.18604053599010353 0.37651051590215423 -0.03782790763664459 0.30105711502351107 -0.4454662707815324 ]
[-0.593392612237031 0.5210935725514345 0.10195830709326688 -0.6164245371767832 -0.41895975668339897 -0.2750753222974856 -0.14187794305166726 0.23717603770907508 -0.2011613557188603 -0.6516479948960439 -0.39322627061201865 0.732596257717508 0.09033596610010942 -0.10339650996814755 -0.39027147531293105 0.04241603352389294 -0.6006872989891434 -0.18891743017619747 -0.6911155142841211 -0.4266913276830465 ]
[-0.1724332978032412 -0.25964839179463833 -0.1796899002439891 -0.10081861532487574 -0.1897900760726587 0.365899825190276 -0.11118006074730949 0.2873331963423036 0.028138039339728648 0.3108263948917734 -0.14725496762671236 0.12529765168630527 0.21848555691965932 0.19588823531837513 -0.05833826979567606 0.3249478337167372 0.012513142701192925 0.10503690103986649 0.07304106929803202 0.2834613082383198 ]
[0.3606327425370778 -0.016909484880425228 -0.4230072305814024 -0.06524027676551174 0.011181419466992727 -0.214329604249827 0.3888447765178793 0.007694187206451696 -0.2118530205469744 -0.0010353308586389652 -0.3112416509608478 -0.09894053989292281 0.02617335172744187 -0.5123456147192399 0.2036759443920931 -0.23287514204180565 0.15327480241110633 -0.0016983454471172573 -0.3586590566184429 -0.19515461394682584 ]
[0.11258502494899696 0.10783215740697524 0.16621756423427228 0.20264982804093076 0.18041397675451776 0.1528989921986632 0.03094778742106071 -0.15288240251937127 -0.24038765652075333 0.19541305631291161 -0.12654398132927866 -0.07103608456814367 0.27206738583224566 0.214615341742043 0.32205620111588057 0.19840947650253035 0.3704741402362372 0.13401433064541735 -0.2408857618222844 0.35189912485259345 ]
[-0.04366746553632694 0.09551605092973303 0.05432974830083416 0.36926498515075534 0.14716338030235648 0.025189853172117974 0.3037327644332189 0.37948133302363024 -0.010983535559602494 0.17991807029387918 0.27325050023304776 0.16356851227289113 -0.04796315708785706 0.13666957441005553 0.04294519551084815 -0.29181985411948336 0.02847042635553617 -0.1946647737518163 -0.01886251406770873 -0.16625528483331117 ]
[-0.3814271109338065 0.33016683886693265 -0.08599971306524475 -0.1236392567017664 -0.32520725069560213 -0.018791599921994213 -0.07787650219218357 0.5599423931554212 -0.008560082112086748 -0.0019367491065071171 0.016701773482150357 -0.21223221006433712 0.16074395308033834 0.08723469808701502 0.2660079029150562 -0.3526208448501363 -0.1330689942052991 0.031131384947333213 0.06107978416047121 0.11197491388669441 ]
[-0.09867450168997835 -0.04720774251072235 -0.04945003686090986 0.206702860809162 -0.18034725521877798 0.16051993755569802 -0.3096111855413955 0.042532047545410366 0.027248824691948288 -0.751778598476815 0.2384257755118471 0.7434365118033299 0.2660514442507466 0.30624599617611786 0.12047463314808238 -0.06199041554282962 -0.8146025357513079 -0.1659687536971186 0.004117031371580094 -0.09399346115878325 ]
[-0.18444158404511118 0.1268000659577267 -0.3674880505344402 0.0028273861931512588 -0.14098568709704723 -0.06933327018117323 0.16509782653889304 0.976967873740178 0.36315822822420507 0.1631417664010022 -0.32758650179914084 0.267842039061762 -0.004503588587099366 0.18617404871222454 -0.070676749154084 0.12505971350495948 -0.30607938933112677 -0.353331282885468 0.1385591693110674 0.09086647199661238 ]
[0.26718396226662094 0.1242099767059876 0.22891053326283445 0.11142875282230529 -0.2479862041748899 -0.20151352389790814 -0.180996933430948 -0.26648258515976236 0.012466075911666184 0.3575275240052502 -0.020431441328269673 -0.5671940209146716 0.11737224852737037 -0.2677924568789958 -0.029522613212074184 0.3894456681191336 -0.02040852338727002 0.3291261624022056 0.2698587512050719 0.27202420122263604 ]
[-0.10736417451937141 0.2507670103115983 -0.5274748222943885 0.11302519953452135 -0.1735559534355866 -0.32553979185839227 0.26577456355661316 0.5230535273508975 -0.10935458559465926 -0.1885355820705563 -0.0832048414651047 0.3187584894407431 -0.23261300369865592 0.1648617126926913 0.25134505630463455 -0.3831897770468243 -0.14983412688797132 -0.08384932867987399 0.2756638623143975 0.19933790812006194 ]
[-0.3435505567221281 -0.11653344615752075 0.2742265555538024 0.13025677314153078 -0.2493224761508505 0.1690869530245982 -0.19927383924320258 -0.19685261168324208 0.2901110398248845 0.46183743734070465 0.33643205892316813 -0.4964505283213053 0.22200143725468013 0.42204081623013867 0.08781346817149197 0.4880571530937706 0.5239604608913688 0.25626091124601 -0.10141781704872421 0.49180444891763764 ]
[-0.20042984511089995 -0.426405298512668 0.27062325317353836 0.18000492335890442 0.16778645281084073 0.5357934237910675 -0.4487450616126213 0.049403922615841055 0.1304341229738205 -0.7802885175310629 0.07652198191534085 0.5851308495105496 -0.025805005717892515 -0.2452676018071589 -0.27528145317517316 -0.21588090005193455 -0.6556862650900221 -0.023403872025041406 0.10625839577259778 -0.7120891360591663 ]
[-0.4915506130827683 -0.5014785181001832 -0.029427375820816063 0.03153888818558752 0.2989112826142801 0.42025747873931496 -0.11544905991986594 0.06805295235654495 -0.27042098469457027 -0.7788217422689543 0.1764268271184534 0.9247204075704972 -0.029772350489802094 0.5740210802716661 0.15757772522756458 0.1873345389608208 -0.7447248125880818 -0.06442197611591834 -0.12944140229867207 -0.6644456229503299 ]
[0.23775194645145345 -0.5460845972534427 -0.3028860935756945 0.45849304597568724 -0.16445387157463734 0.2736075313905658 0.23783070387778793 -0.13483291177761347 0.215522830132145 0.4829335597217626 -0.11175252363920118 -0.4772282093010106 0.10304850431930355 -0.1261962413182109 0.34343413261518224 0.0827445631335612 0.4070593345481523 -0.11842034488040659 -0.2344817734056101 0.3729241699566889 ]
[0.19162189502454127 -0.2880224130616904 -0.35697412136437984 0.36175280841329777 0.5079975389901168 0.18243313997400312 0.05203359007026615 0.0940789477610434 0.044211483802494296 -0.11002024222325985 -0.05014907541218864 0.37220330892354897 -0.33205658051568754 0.1595128309689637 -0.3274144240681599 -0.34431871231392625 -0.5479441607725988 0.22407097239553656 0.5504048427697843 -0.4127416013525005 ]
[ -0.01593359365782783 0.08094405104424461 -0.1460900660513349 0.08582203419784659 -0.05298152635853166 -0.14582240996755985 0.11929212859951102 0.21587649641559803 -0.05109851265042141 -0.03451291603423236 0.07365650831229384 0.10494349976639639 -0.05994759856775564 0.13579498545804877 0.11010058756614534 -0.11000834807510708 -0.0721790658556683 -0.06022687699958654 0.12818034863998048 -0.06826195134399128 ]
layer 5 Activation
tanh
layer 6 Dense
20 1
[0.5676070649435426 ]
[0.5280516219391157 ]
[-0.1854348316449501 ]
[0.8871320374683592 ]
[-0.6960656646554507 ]
[-0.5389821862604509 ]
[0.7781288139758283 ]
[0.43784432096000914 ]
[-0.2457987389980076 ]
[0.9425822374564744 ]
[0.19866182884137465 ]
[-0.7912857070279105 ]
[-0.05652733419108868 ]
[0.6109455239719735 ]
[0.8122321066489656 ]
[-0.619230946616592 ]
[1.0892666977580099 ]
[-0.04209641434548107 ]
[0.7378455670439626 ]
[0.5216069579844215 ]
[ 0.2412578364021475 ]
